/*
 * LS_includes.h
 *
 *  Created on: 05-Mar-2022
 *      Author: Ranjith Srinivas
 */

#include "complex.h"

// Number of used sub-carriers in one OFDM symbol
#define NUM_USED_SUB_CARRIERS 52
#define nUSC NUM_USED_SUB_CARRIERS
#define SYMBOLS_USED 200


typedef float complex flt_cmplx;

//Actual Channel Data
const flt_cmplx Act_Channel_weight_10dB[SYMBOLS_USED][nUSC] = {{0.04166664+0.2560951i,0.1840568+0.1693577i,0.2389063+0.02141394i,0.1958774-0.1200787i,0.08594611-0.2038118i,-0.04409495-0.2112322i,-0.1540951-0.149967i,-0.2162675-0.03953839i,-0.2104525+0.09364757i,-0.1255503+0.2112455i,0.0262141+0.2634155i,0.1955252+0.2084819i,0.3043771+0.04527396i,0.2835144-0.1676282i,0.1190667-0.3291211i,-0.1257073-0.3471716i,-0.3345399-0.1945408i,-0.3976962+0.06830685i,-0.2717338+0.3193381i,-0.004805508+0.4349992i,0.2843924+0.3506124i,0.4602096+0.0919902i,0.4303159-0.2326609i,0.1894833-0.4749743i,-0.1686618-0.5086229i,-0.4807261-0.2916421i,-0.3916488+0.4781408i,0.02477163+0.6450961i,0.4669349+0.4825037i,0.6931815+0.04577371i,0.5580606-0.4460483i,0.1110711-0.7213724i,-0.4141364-0.6138551i,-0.7263609-0.1695762i,-0.6475414+0.3702128i,-0.2207995+0.7068456i,0.3142433+0.6588727i,0.6637212+0.2647887i,0.6492869-0.247513i,0.3015899-0.5998354i,-0.1726644-0.6212667i,-0.5194171-0.3308661i,-0.5776848+0.09340277i,-0.351787+0.4273589i,0.01396627+0.5213268i,0.3285595+0.363203i,0.4546985+0.06147461i,0.3640151-0.2274889i,0.1293134-0.3801115i,-0.1280463-0.3535848i,-0.2999379-0.1867709i,-0.33202+0.03366777i},
		{1.337038+0.2514896i,1.20014-0.6585221i,0.5102609-1.283438i,-0.4337247-1.326725i,-1.198625-0.7447271i,-1.40951+0.2096571i,-0.9410495+1.083719i,-0.004535228+1.439888i,0.9385201+1.088404i,1.411319+0.2030584i,1.180447-0.7624988i,0.3833283-1.321002i,-0.5562756-1.215937i,-1.17106-0.544952i,-1.198336+0.3231277i,-0.6881613+0.9688554i,0.0700333+1.134509i,0.7263114+0.8121966i,1.032896+0.192121i,0.9141626-0.4583693i,0.4493046-0.9016752i,-0.1809734-0.9887284i,-0.7474377-0.6859371i,-1.028788-0.09092575i,-0.8869374+0.5746763i,-0.3448865+1.026904i,0.9771228+0.5717166i,1.135759-0.1840397i,0.7653897-0.8766482i,0.02894589-1.171164i,-0.7269075-0.9223278i,-1.146613-0.2482611i,-1.040399+0.5337507i,-0.467104+1.066414i,0.3067721+1.118024i,0.9372715+0.676625i,1.153696-0.05799551i,0.8668303-0.7670878i,0.1996747-1.146048i,-0.564129-1.027873i,-1.094386-0.4538172i,-1.151343+0.336695i,-0.6933656+0.9994373i,0.09323377+1.231194i,0.863991+0.9088896i,1.264087+0.1573434i,1.092412-0.6931354i,0.4054547-1.249155i,-0.4939634-1.237044i,-1.187374-0.6410077i,-1.336771+0.2748006i,-0.854022+1.080882i},
		{-0.5483883-0.007139931i,-0.4405847+0.3738623i,-0.08692628+0.6003294i,0.3501558+0.5280635i,0.6371969+0.1633491i,0.5992939-0.3174842i,0.2334066-0.6535828i,-0.2736068-0.6494298i,-0.6452532-0.2963966i,-0.6765016+0.2161074i,-0.3534389+0.6105394i,0.143815+0.6816522i,0.5511838+0.40635i,0.6685211-0.05804463i,0.4562627-0.4723306i,0.0368034-0.6419746i,-0.3816118-0.5024843i,-0.6065879-0.1335528i,-0.542013+0.2875693i,-0.223445+0.5653676i,0.1978674+0.5699193i,0.519117+0.297903i,0.5805038-0.1178157i,0.3503546-0.4666356i,-0.04963018-0.5688874i,-0.4056672-0.3775773i,-0.3801689+0.3342716i,-0.05576756+0.472226i,0.2521599+0.3620194i,0.3921861+0.09849318i,0.3289696-0.1615494i,0.1374022-0.2992936i,-0.06725302-0.2870868i,-0.2016428-0.1722651i,-0.2410926-0.02403929i,-0.2005923+0.1068712i,-0.1050678+0.1934115i,0.02075343+0.2182914i,0.1440916+0.1694986i,0.2209233+0.0535432i,0.213149-0.09156059i,0.1153688-0.2051275i,-0.03390948-0.2345816i,-0.1697398-0.1657627i,-0.2349148-0.02976531i,-0.2062205+0.1162402i,-0.0984309+0.2169607i,0.04840592+0.2375086i,0.1840234+0.1689125i,0.2589475+0.02868224i,0.2364691-0.1387927i,0.1099145-0.2684104i},
		{-0.315861-0.1293327i,-0.3074082+0.094896i,-0.1640522+0.2544965i,0.03924119+0.2799562i,0.1977722+0.168472i,0.2326997-0.008141441i,0.1413482-0.1428835i,0.001018981-0.1638658i,-0.08681578-0.08517705i,-0.07473712+0.006904104i,-0.005970791+0.0279088i,0.02634427-0.029782i,-0.03287017-0.08784513i,-0.1415237-0.05272552i,-0.1871436+0.09139304i,-0.08380779+0.2503219i,0.1408143+0.2839436i,0.3458813+0.1202435i,0.3728681-0.1729293i,0.165152-0.4197539i,-0.1800939-0.4518038i,-0.4668837-0.2228313i,-0.5216001+0.1571665i,-0.2969993+0.4863063i,0.1029149+0.5849436i,0.4808458+0.3891127i,0.4972781-0.4559466i,0.0831475-0.7028862i,-0.4180247-0.6160796i,-0.7587477-0.1986599i,-0.7373604+0.3728386i,-0.3161804+0.8095177i,0.3243348+0.8517028i,0.8505611+0.4270594i,0.9501629-0.2742451i,0.5250499-0.8766503i,-0.2224556-1.025768i,-0.8833148-0.6066878i,-1.074392+0.1679293i,-0.6708885+0.8679402i,0.1098039+1.094858i,0.8303031+0.7180219i,1.088335-0.04826594i,0.7488666-0.772432i,0.01509095-1.057357i,-0.6979094-0.7638379i,-1.004828-0.07751226i,-0.7627475+0.6109108i,-0.1357969+0.9333867i,0.5153458+0.7451326i,0.8453169+0.1871738i,0.7109669-0.4144068i},
		{0.770053-0.01300875i,0.5614924-0.5431319i,0.04403039-0.7839742i,-0.494235-0.6080447i,-0.7683704-0.122389i,-0.6515179+0.4117478i,-0.2214083+0.7309412i,0.3037486+0.6957266i,0.6801975+0.3357667i,0.7411087-0.1811612i,0.4563184-0.6231931i,-0.05535434-0.7843313i,-0.5639853-0.5719801i,-0.8191462-0.06412322i,-0.672088+0.5032429i,-0.1710317+0.8381925i,0.4390389+0.7485209i,0.8351482+0.2627857i,0.796987-0.3684848i,0.3396735-0.8065422i,-0.2895953-0.817166i,-0.7526753-0.4033317i,-0.8117773+0.2027287i,-0.4550797+0.6774077i,0.111117+0.7849941i,0.5869594+0.494731i,0.5202915-0.4881942i,0.06308187-0.681949i,-0.3870073-0.528618i,-0.6096479-0.1333002i,-0.5167474+0.2873692i,-0.1866098+0.5243567i,0.1913127+0.4833626i,0.4269789+0.2220147i,0.4298088-0.09978894i,0.240855-0.3201268i,-0.0139909-0.3602418i,-0.2088243-0.2456108i,-0.280802-0.06343383i,-0.2383601+0.1002982i,-0.1278256+0.1980684i,0.002828694+0.2194968i,0.1173179+0.1729183i,0.1872272+0.07601857i,0.1921648-0.04120183i,0.1312117-0.1380946i,0.03067071-0.1805927i,-0.06841502-0.1615023i,-0.136582-0.1010515i,-0.1696459-0.023828i,-0.1734582+0.06293763i,-0.1372734+0.1614575i},
		{-0.08755917+0.3586677i,0.1668247+0.3388803i,0.3536915+0.154915i,0.3773111-0.1130556i,0.217114-0.3364912i,-0.054659-0.4017197i,-0.3052001-0.2715611i,-0.4096353-0.00823537i,-0.3171495+0.2585521i,-0.07581636+0.4002337i,0.1965113+0.3539713i,0.3743793+0.1479072i,0.3827414-0.1206329i,0.2233772-0.3342977i,-0.03406055-0.4041353i,-0.2830065-0.2998365i,-0.4182681-0.05882729i,-0.3737144+0.2236993i,-0.1530075+0.4244867i,0.1592758+0.4407029i,0.4215408+0.2434669i,0.4964365-0.09214812i,0.3257435-0.4080657i,-0.0243416-0.5372071i,-0.3831998-0.3962334i,-0.5605085-0.04220299i,-0.105298+0.5652673i,0.3012105+0.4917777i,0.5517283+0.1623299i,0.5134313-0.2480459i,0.2103525-0.5210847i,-0.1907811-0.5161383i,-0.4750234-0.2464643i,-0.4992719+0.1325747i,-0.2683594+0.4153768i,0.07600243+0.4628664i,0.3440087+0.2748665i,0.4079531-0.0227474i,0.2662784-0.2629577i,0.02634575-0.3368523i,-0.1747459-0.2443376i,-0.2532614-0.0708951i,-0.2118553+0.0826808i,-0.1104421+0.1620422i,-0.009026485+0.172066i,0.06869946+0.143967i,0.1279048+0.09544853i,0.1696572+0.0213472i,0.1714443-0.08142587i,0.103518-0.1850404i,-0.03353785-0.2323732i,-0.1874677-0.1746539i},
		{-0.4408013-0.09668508i,-0.3826584+0.17923i,-0.1937848+0.3537107i,0.04627347+0.3933947i,0.2696057+0.297712i,0.4099997+0.08412286i,0.399354-0.1937794i,0.2026321-0.428791i,-0.1289798-0.4897787i,-0.4450097-0.3021885i,-0.5614372+0.0758955i,-0.3781876+0.4539758i,0.03393742+0.6088498i,0.4519491+0.4282082i,0.6287657-0.001990476i,0.4515263-0.4365399i,0.02111336-0.6199511i,-0.406695-0.4486918i,-0.5828447-0.0364907i,-0.4213434+0.3624289i,-0.04538823+0.5193075i,0.3045413+0.3722787i,0.4325848+0.0494375i,0.3056407-0.2345262i,0.05073406-0.3274501i,-0.1547551-0.2269826i,-0.1429854+0.06885749i,-0.05375717+0.08936948i,-0.01792521+0.06071067i,-0.02637063+0.05784355i,-0.01353529+0.09869547i,0.06231694+0.1276494i,0.1653936+0.0754617i,0.2065883-0.0633676i,0.1237895-0.2098899i,-0.05532556-0.2580992i,-0.2255102-0.1606062i,-0.280979+0.03184745i,-0.1908523+0.2086259i,-0.0123842+0.2782584i,0.1598434+0.2209675i,0.2565994+0.07989148i,0.2569942-0.08438065i,0.1690839-0.2248001i,0.008579726-0.3026357i,-0.1917394-0.2738294i,-0.3578141-0.1074874i,-0.3841171+0.1642768i,-0.2006175+0.418161i,0.1456601+0.4877112i,0.4756209+0.2783228i,0.5724115-0.1348641i},
		{1.120094+0.559666i,1.20446-0.2795319i,0.7390057-0.9644172i,-0.03624101-1.188458i,-0.7551402-0.88143i,-1.111986-0.2163527i,-0.988417+0.5022755i,-0.4700725+0.984955i,0.2209225+1.060459i,0.818828+0.7126181i,1.09569+0.07111135i,0.9289825-0.6241502i,0.3562282-1.089831i,-0.4089764-1.103939i,-1.037482-0.6196523i,-1.224858+0.1786191i,-0.8510182+0.9342988i,-0.06333317+1.284022i,0.7793124+1.044572i,1.279739+0.3132094i,1.198087-0.5765628i,0.565413-1.215992i,-0.3354639-1.311003i,-1.10079-0.8112937i,-1.382562+0.0697218i,-1.039232+0.9438192i,0.7542106+1.236i,1.391703+0.4731759i,1.389015-0.5391316i,0.7228655-1.32204i,-0.3036354-1.488769i,-1.199598-0.9457854i,-1.530653+0.0517133i,-1.137726+1.025979i,-0.2119329+1.515561i,0.8076708+1.297056i,1.449105+0.4801517i,1.422706-0.5560579i,0.7423925-1.339684i,-0.2860664-1.512325i,-1.196086-0.985028i,-1.561342+0.01380204i,-1.192991+1.025418i,-0.2461244+1.563338i,0.8320659+1.352299i,1.511691+0.4827682i,1.452699-0.6180036i,0.6898582-1.401952i,-0.3843342-1.489627i,-1.234178-0.8653646i,-1.464823+0.133475i,-1.00983+1.014398i},
		{1.168483-0.1303986i,0.7986601-0.8743312i,0.02400438-1.190291i,-0.769776-0.9129899i,-1.181349-0.1775612i,-1.001712+0.6448848i,-0.3250912+1.138636i,0.5011709+1.060577i,1.061624+0.4634573i,1.08863-0.3411556i,0.5905618-0.9531716i,-0.1695601-1.087654i,-0.819481-0.7040186i,-1.060886-0.00617359i,-0.8000733+0.6691028i,-0.176319+1.01151i,0.5112879+0.8732548i,0.9414779+0.3302093i,0.9169774-0.3542208i,0.4581175-0.8511188i,-0.2037078-0.92497i,-0.739697-0.5530978i,-0.8930991+0.06274419i,-0.6122019+0.6067351i,-0.06790952+0.820982i,0.4536439+0.6366641i,0.630975-0.2850557i,0.2978821-0.5770821i,-0.109323-0.6011222i,-0.425101-0.3936002i,-0.5525569-0.06210493i,-0.4699209+0.2688527i,-0.2163577+0.4885506i,0.118644+0.5191458i,0.4094899+0.3414492i,0.5330666+0.01865958i,0.4285613-0.3133547i,0.1403226-0.5051241i,-0.1972326-0.4736339i,-0.432463-0.2471639i,-0.4777884+0.05936615i,-0.3419397+0.317226i,-0.09895755+0.4464705i,0.1666525+0.4272446i,0.3875958+0.2723272i,0.5036397+0.008078549i,0.4513285-0.3092915i,0.1939302-0.5686291i,-0.2179364-0.6238684i,-0.6168201-0.3783967i,-0.7773184+0.1170821i,-0.5515038+0.6412018i},
		{-0.6831053+1.781314i,0.6091263+1.819031i,1.635728+1.019484i,1.917585-0.2578429i,1.316651-1.425438i,0.1053953-1.941525i,-1.158215-1.564697i,-1.89078-0.4674249i,-1.754816+0.844605i,-0.8142263+1.767753i,0.4970539+1.879469i,1.576918+1.131809i,1.932901-0.1290291i,1.407225-1.324715i,0.2456482-1.91186i,-1.019722-1.629477i,-1.816332-0.6131691i,-1.790112+0.6729323i,-0.9598541+1.649992i,0.2978958+1.883444i,1.420219+1.272195i,1.906425+0.08952658i,1.537036-1.13756i,0.4719315-1.858327i,-0.8147694-1.742061i,-1.740434-0.8316301i,-1.152186+1.555885i,0.1037736+1.932869i,1.309778+1.419908i,1.906752+0.2580044i,1.624956-1.009469i,0.6081741-1.798934i,-0.664929-1.761798i,-1.615033-0.9362642i,-1.828947+0.2889526i,-1.232423+1.365239i,-0.1030078+1.828098i,1.063282+1.486948i,1.762951+0.4935001i,1.690098-0.7249368i,0.8642304-1.638091i,-0.366387-1.832367i,-1.458266-1.197565i,-1.905292+0.002794188i,-1.4781+1.228239i,-0.352639+1.902601i,0.9532158+1.693972i,1.821435+0.688974i,1.837643-0.6396354i,0.9972509-1.663267i,-0.295998-1.906008i,-1.434255-1.269829i},
		{-0.2938621-0.6138982i,-0.6083511-0.2873305i,-0.6464862+0.154858i,-0.406935+0.517603i,-0.001850284+0.655561i,0.4016377+0.520925i,0.6444952+0.1680215i,0.6249968-0.2692252i,0.3336481-0.6160287i,-0.1293105-0.7132657i,-0.5716479-0.48808i,-0.7788628-0.01014736i,-0.6213232+0.5114354i,-0.1430099+0.8149194i,0.4344223+0.7252464i,0.815727+0.265306i,0.7944532-0.3393447i,0.37506-0.7778124i,-0.2255891-0.8266624i,-0.7006872-0.4717062i,-0.8225698+0.0940679i,-0.5553001+0.5871154i,-0.05221054+0.7852879i,0.4428673+0.625769i,0.7195506+0.2080215i,0.6824074-0.2760484i,-0.09618089-0.7237243i,-0.525009-0.5186763i,-0.7476296-0.08675984i,-0.6566817+0.4072822i,-0.2631834+0.7518498i,0.2826459+0.7722701i,0.7344149+0.4245028i,0.8586662-0.1555357i,0.5635208-0.6940721i,-0.02993184-0.9107767i,-0.6305419-0.6746379i,-0.9254134-0.090624i,-0.7539553+0.5446089i,-0.2030656+0.9013664i,0.4381005+0.7993366i,0.8394056+0.304871i,0.8104461-0.3138337i,0.3941054-0.742265i,-0.1755963-0.788736i,-0.6146065-0.4693734i,-0.7373245+0.02818003i,-0.5296442+0.4629133i,-0.1225735+0.6607088i,0.2952348+0.573966i,0.5642883+0.2698005i,0.6011434-0.1207179i},
		{-0.420543-0.5912712i,-0.6821766-0.1906272i,-0.6358364+0.2702194i,-0.3236621+0.5917768i,0.1068504+0.6515671i,0.4749738+0.4421668i,0.6380377+0.06021666i,0.5390226-0.3377749i,0.2220639-0.5942383i,-0.1853221-0.6076161i,-0.5193302-0.3711579i,-0.6429648+0.02204707i,-0.5017399+0.4136119i,-0.1477341+0.642443i,0.2793338+0.6096481i,0.6059396+0.3191043i,0.6917759-0.1210607i,0.4860651-0.5354778i,0.05456015-0.7454811i,-0.4345025-0.6415575i,-0.7682692-0.2395633i,-0.778064+0.3071421i,-0.4257173+0.7579423i,0.1577313+0.8886437i,0.7132106+0.6055231i,0.9680772+0.009239719i,0.1887745-1.01373i,-0.5249816-0.9229659i,-1.025821-0.3748216i,-1.052193+0.3903495i,-0.5598418+1.006971i,0.2389915+1.157082i,0.9611744+0.7347915i,1.233802-0.08067905i,0.8896961-0.8925231i,0.07486368-1.277874i,-0.8041282-1.014779i,-1.284516-0.2194853i,-1.101901+0.6976131i,-0.3477333+1.249588i,0.5733631+1.145932i,1.17085+0.4572538i,1.145648-0.4314542i,0.5483547-1.049177i,-0.2729472-1.103874i,-0.8892877-0.6228812i,-1.026799+0.1011012i,-0.68276+0.6997072i,-0.07792731+0.9226213i,0.4918982+0.7286724i,0.7999+0.2551799i,0.7592676-0.2787338i},
		{0.2399697-0.114201i,0.0932745-0.220411i,-0.0612892-0.2005944i,-0.1456566-0.1050036i,-0.1526329-0.007122979i,-0.1223625+0.05800557i,-0.0854366+0.1025929i,-0.03365511+0.1443054i,0.05473441+0.1655932i,0.1666886+0.1212634i,0.2388892-0.01026512i,0.1991734-0.183451i,0.03241977-0.2979319i,-0.1884149-0.2649074i,-0.3381597-0.07656576i,-0.3188937+0.1771401i,-0.1253685+0.3584973i,0.1482572+0.3633439i,0.3610032+0.1803432i,0.4007015-0.1038735i,0.240305-0.3496852i,-0.04895191-0.4322187i,-0.3289245-0.3013033i,-0.4571584-0.01010685i,-0.3575226+0.3020539i,-0.067191+0.4728837i,0.4757812+0.1179399i,0.4324813-0.2341322i,0.1604757-0.4626633i,-0.1915112-0.4442666i,-0.4321275-0.1952063i,-0.4389429+0.1417263i,-0.2238361+0.38537i,0.08526886+0.4196067i,0.3261449+0.2479975i,0.3903991-0.02470546i,0.268044-0.2598717i,0.035522-0.3549788i,-0.1921953-0.2824748i,-0.31533-0.09007037i,-0.2882204+0.1274983i,-0.1341185+0.2713337i,0.06788732+0.2817003i,0.2212541+0.1647414i,0.2602764-0.01300874i,0.1817419-0.162965i,0.03923078-0.2235716i,-0.09547367-0.1876192i,-0.1741572-0.09128124i,-0.1866496+0.02018721i,-0.1443774+0.1173191i,-0.0585583+0.1833549i},
		{0.5151552-0.4082222i,0.1063928-0.5934613i,-0.2791559-0.4681413i,-0.4587507-0.1576671i,-0.3990614+0.1462736i,-0.1970007+0.3103032i,0.01544041+0.3158064i,0.1587979+0.2247091i,0.2255365+0.1047885i,0.2384582-0.01522277i,0.2045888-0.1330089i,0.111293-0.2336538i,-0.03983923-0.2749247i,-0.2048464-0.21511i,-0.3096119-0.05506925i,-0.2946674+0.1477042i,-0.1540842+0.3067317i,0.0609072+0.351864i,0.2689453+0.2588889i,0.3904615+0.05267701i,0.3686907-0.2026098i,0.1859488-0.4140626i,-0.1159803-0.4792248i,-0.424354-0.3287184i,-0.5829307+0.01707613i,-0.4697065+0.4202162i,0.3980042+0.5988007i,0.7319447+0.1965083i,0.7088866-0.3529116i,0.3077213-0.76091i,-0.2809596-0.7967177i,-0.7542441-0.422774i,-0.8626076+0.180941i,-0.5423307+0.7136127i,0.05565943+0.9091166i,0.6446261+0.6650338i,0.9392304+0.08796337i,0.7865658-0.5551873i,0.2399672-0.9546834i,-0.4534121-0.899789i,-0.9550118-0.3892866i,-0.9959487+0.3458031i,-0.525932+0.9376562i,0.2362486+1.066567i,0.899061+0.6427429i,1.105419-0.1261201i,0.7361959-0.8363693i,-0.01535281-1.10995i,-0.7491012-0.8060759i,-1.08169-0.0959411i,-0.8541996+0.6402047i,-0.2059579+1.025543i},
		{-0.4679345-0.04524385i,-0.3770618+0.2408837i,-0.1461839+0.4083543i,0.1338078+0.4074573i,0.3604147+0.2367648i,0.4355509-0.04731478i,0.3054197-0.3255401i,0.0113749-0.4528658i,-0.3005755-0.3421323i,-0.4498133-0.04004789i,-0.340745+0.2786033i,-0.04193489+0.4181248i,0.2508675+0.3005571i,0.3532276+0.02481045i,0.2267265-0.2093284i,-0.001056763-0.2558956i,-0.1491564-0.1293102i,-0.132683+0.02557209i,-0.02116706+0.07046707i,0.04137711-0.005013148i,-0.02120278-0.08472801i,-0.1430374-0.04560543i,-0.1778467+0.1158206i,-0.04036823+0.2671599i,0.2009316+0.2518858i,0.3656625+0.03188178i,0.02854457-0.431185i,-0.2964399-0.3409041i,-0.4614355-0.0385591i,-0.363769+0.2922942i,-0.0677862+0.4587141i,0.2518666+0.3797705i,0.4285354+0.1183955i,0.3935847-0.1796177i,0.1885897-0.3778589i,-0.08304828-0.4076786i,-0.3134762-0.2733315i,-0.4221296-0.02904674i,-0.3657136+0.2409765i,-0.1481108+0.4352172i,0.164456+0.4584622i,0.4444422+0.2667663i,0.5451047-0.08686021i,0.3790485-0.4475324i,-0.01063534-0.6205165i,-0.4430569-0.4800935i,-0.680832-0.06170744i,-0.5656267+0.4304706i,-0.1274295+0.7229565i,0.4096562+0.6316409i,0.7440512+0.1839154i,0.6745303-0.3802493i},
		{0.231425-0.1269062i,0.08826195-0.2580578i,-0.1090635-0.2540891i,-0.2498728-0.1172769i,-0.2621322+0.07426579i,-0.1494627+0.2215415i,0.02450906+0.260882i,0.1796399+0.1856335i,0.2549079+0.03423047i,0.2228818-0.1319181i,0.09333961-0.2461109i,-0.08491796-0.2548726i,-0.2328205-0.1438613i,-0.2734489+0.04202973i,-0.1790162+0.2102545i,0.002648412+0.271076i,0.1722356+0.1961344i,0.2433413+0.03726953i,0.1973539-0.1136183i,0.08341692-0.1906845i,-0.03262401-0.1888339i,-0.1187535-0.140698i,-0.1787142-0.06771782i,-0.210951+0.03722345i,-0.1795408+0.1744625i,-0.04259313+0.2915988i,0.3756965+0.1106176i,0.391762-0.1965661i,0.1604731-0.4533915i,-0.2182087-0.4698829i,-0.5143545-0.1907942i,-0.520014+0.23781i,-0.2050005+0.5504207i,0.2472244+0.5414565i,0.557622+0.2096512i,0.5382683-0.2403037i,0.2119544-0.5369901i,-0.2147985-0.5174744i,-0.4939146-0.2172556i,-0.4865905+0.1729987i,-0.2273196+0.4363088i,0.1209486+0.4512825i,0.3722115+0.2399284i,0.4139054-0.06653841i,0.2498731-0.3076203i,-0.017141-0.3733568i,-0.2452486-0.2509505i,-0.3262256-0.02241144i,-0.2382506+0.1845683i,-0.05085125+0.2687817i,0.1230554+0.2099454i,0.1990779+0.07020162i},
		{-0.1017659+0.1742203i,0.02221939+0.2306534i,0.1766524+0.1923217i,0.2858589+0.04878755i,0.2803694-0.1518136i,0.1372834-0.3203125i,-0.1008513-0.3662098i,-0.3357635-0.2415176i,-0.4493586+0.02745113i,-0.3573606+0.3347749i,-0.06280871+0.527996i,0.3199194+0.4786162i,0.5988473+0.1633371i,0.5977497-0.2932159i,0.2674229-0.6575238i,-0.255927-0.7068524i,-0.6992207-0.3689542i,-0.7986261+0.2087156i,-0.4628561+0.719575i,0.1520415+0.8671884i,0.7154514+0.5452401i,0.9085695-0.08661457i,0.6133447-0.6854615i,-0.01372196-0.92087i,-0.6301199-0.6653861i,-0.9041369-0.0646842i,-0.1461455+0.8600739i,0.4536134+0.7183417i,0.7917123+0.2280095i,0.7197992-0.3403789i,0.3077451-0.70313i,-0.2168415-0.7063065i,-0.5992429-0.383116i,-0.6801116+0.08820599i,-0.4521388+0.4856289i,-0.04003451+0.6439694i,0.3683074+0.5128494i,0.6007439+0.162086i,0.5629953-0.2534018i,0.2719418-0.5529214i,-0.1466659-0.5998206i,-0.5021591-0.3636782i,-0.6200936+0.05292396i,-0.4319828+0.4490188i,-0.02445647+0.6204545i,0.3930013+0.4728303i,0.5980501+0.08390784i,0.4841398-0.3329221i,0.1256905-0.5513136i,-0.2675725-0.4662124i,-0.4806805-0.1515475i,-0.4217845+0.1965102i},
		{0.3164523+0.809296i,0.7922333+0.4075628i,0.8772981-0.2253204i,0.5089773-0.7578328i,-0.1235925-0.9038669i,-0.6858619-0.5897074i,-0.890696+0.009157463i,-0.6530742+0.5785654i,-0.1170694+0.8435469i,0.4429165+0.7021235i,0.7702808+0.2504197i,0.7380297-0.2891859i,0.3829716-0.6787224i,-0.1287981-0.7594662i,-0.5750249-0.505096i,-0.7630981-0.02784619i,-0.6075283+0.462997i,-0.172932+0.7449631i,0.3444985+0.6832857i,0.7022048+0.3017598i,0.7288249-0.2206365i,0.412199-0.6345095i,-0.09322049-0.7441084i,-0.5447221-0.5033935i,-0.7316427-0.03413751i,-0.5742999+0.4384159i,0.32258+0.6226762i,0.6367996+0.2645282i,0.6449536-0.2039048i,0.3534728-0.5587204i,-0.0872974-0.6370776i,-0.4606235-0.4173216i,-0.5960273-0.02482802i,-0.4538825+0.3420509i,-0.1322215+0.5214458i,0.2037364+0.4644639i,0.416745+0.2355476i,0.4532323-0.04916115i,0.3346755-0.2892072i,0.114584-0.4256707i,-0.1489391-0.4271561i,-0.3866434-0.2770495i,-0.5074924+0.006933494i,-0.4258476+0.3387246i,-0.1271949+0.5675597i,0.2813849+0.5488978i,0.5981537+0.2470976i,0.6368589-0.2113585i,0.3506053-0.5912578i,-0.1241256-0.6850207i,-0.5423641-0.4393676i,-0.6940747+0.01607127i},
		{0.9760693+0.8555501i,1.298967+0.02696038i,1.010641-0.811759i,0.254937-1.264513i,-0.6068138-1.128608i,-1.177129-0.4817476i,-1.207431+0.3698184i,-0.6995312+1.042473i,0.1111748+1.246001i,0.8679261+0.8999576i,1.244074+0.1574334i,1.074571-0.6621827i,0.4235696-1.202213i,-0.434822-1.215119i,-1.121705-0.6745966i,-1.313891+0.1958254i,-0.8982996+1.004449i,-0.04496982+1.364123i,0.8528843+1.083611i,1.360522+0.2784413i,1.221414-0.6700056i,0.4966952-1.299897i,-0.4595298-1.305338i,-1.181855-0.6934218i,-1.332405+0.2261992i,-0.8640021+1.009412i,0.7893456+1.005324i,1.222546+0.2826658i,1.115334-0.5321335i,0.5404776-1.097325i,-0.251368-1.19245i,-0.9370235-0.7857158i,-1.234984-0.03734124i,-1.005675+0.7516752i,-0.3178469+1.240798i,0.5507721+1.187495i,1.207327+0.5750864i,1.319451-0.3423133i,0.7965541-1.132033i,-0.1323558-1.392327i,-1.013224-0.9733478i,-1.400613-0.07485937i,-1.100606+0.8510484i,-0.2762848+1.343277i,0.648403+1.17729i,1.223945+0.4691647i,1.205426-0.4114964i,0.6501362-1.050445i,-0.1498828-1.189014i,-0.8338218-0.8146065i,-1.132911-0.1240861i,-0.9565892+0.5870156i},
		{1.063161-1.105779i,0.06769308-1.585273i,-1.030581-1.263976i,-1.64469-0.261496i,-1.419995+0.9155074i,-0.4503998+1.642624i,0.760931+1.527709i,1.578856+0.6317739i,1.586464-0.5699583i,0.8028078-1.456981i,-0.348517-1.597862i,-1.2839-0.9601264i,-1.565142+0.1051239i,-1.099627+1.069155i,-0.1495835+1.492635i,0.8241895+1.21653i,1.385339+0.4034662i,1.305587-0.5616153i,0.6435919-1.248606i,-0.2944959-1.361416i,-1.087889-0.8570058i,-1.378903+0.03561967i,-1.031562+0.90854i,-0.2032464+1.353676i,0.7156262+1.156808i,1.282635+0.412105i,0.5834036-1.16453i,-0.307373-1.23142i,-1.000555-0.7125113i,-1.176046+0.1003392i,-0.7978628+0.7948723i,-0.1031171+1.062787i,0.5549377+0.8406749i,0.8997701+0.298213i,0.8442358-0.291499i,0.4790799-0.6984558i,-0.01813925-0.8128874i,-0.4723674-0.6384881i,-0.7509244-0.249672i,-0.7679458+0.2355233i,-0.4959558+0.6616854i,0.00084861+0.8582739i,0.5470802+0.7058489i,0.9006374+0.2211301i,0.867209-0.4076912i,0.4230563-0.8878739i,-0.2434356-0.9719082i,-0.8158546-0.6008513i,-1.016567+0.05461803i,-0.7531805+0.6845765i,-0.1569024+1.002593i,0.4987209+0.8804507i},
		{1.844398+0.7294082i,1.906563-0.617626i,1.082169-1.704916i,-0.2574718-2.012282i,-1.485846-1.386747i,-2.028086-0.1205395i,-1.63797+1.195578i,-0.5049711+1.95883i,0.8484378+1.831298i,1.812938+0.8806806i,1.961565-0.4628526i,1.229849-1.60025i,-0.05886249-2.022736i,-1.330449-1.534014i,-2.008774-0.3443174i,-1.776546+1.012481i,-0.7300447+1.915335i,0.6550229+1.944868i,1.741708+1.084937i,2.031827-0.2676567i,1.398507-1.492306i,0.1378426-2.035883i,-1.177162-1.662108i,-1.960192-0.5467545i,-1.867781+0.8111913i,-0.9416586+1.810993i,1.595915+1.303785i,2.07393+0.0005050553i,1.615178-1.322818i,0.4101949-2.060508i,-0.9995354-1.861065i,-1.964234-0.8022217i,-2.031729+0.6345456i,-1.165229+1.786825i,0.2381939+2.123293i,1.535838+1.490155i,2.137224+0.1761276i,1.768813-1.224533i,0.5914816-2.078728i,-0.8704743-1.992523i,-1.954624-0.9879939i,-2.15147+0.4931834i,-1.344617+1.771422i,0.111459+2.235177i,1.534259+1.64169i,2.234096+0.2588841i,1.863634-1.247051i,0.6062389-2.141883i,-0.9137557-2.001032i,-1.957665-0.923106i,-2.0515+0.5402901i,-1.204808+1.687542i},
		{-0.426764+0.1942543i,-0.1941224+0.4223551i,0.1257253+0.4436804i,0.3804601+0.2560444i,0.4550228-0.04884588i,0.3177277-0.3304812i,0.03089476-0.4598425i,-0.274972-0.3744943i,-0.4563142-0.109005i,-0.4224002+0.2152309i,-0.182631+0.4428188i,0.1519271+0.4592445i,0.4190499+0.2504485i,0.4849068-0.08608884i,0.3119124-0.3866804i,-0.02000166-0.5008986i,-0.3492857-0.3662095i,-0.5093-0.04240447i,-0.4113693+0.3114954i,-0.09591112+0.5114853i,0.2776329+0.4439356i,0.5071295+0.1350663i,0.459399-0.2503098i,0.1556233-0.4939048i,-0.2294869-0.4533147i,-0.4680448-0.1558816i,-0.1374452+0.4256538i,0.1943195+0.3677109i,0.3643624+0.1050797i,0.2916489-0.1703425i,0.06562965-0.2847835i,-0.1370475-0.2014379i,-0.1912494-0.02626984i,-0.1061007+0.09410871i,0.007405934+0.0915164i,0.04494163+0.0149877i,-0.004557721-0.03287679i,-0.06421649+0.003747375i,-0.05129461+0.08702721i,0.04344468+0.1270548i,0.1479935+0.06698426i,0.1729603-0.06593651i,0.08597498-0.1832405i,-0.06542742-0.2048219i,-0.1928951-0.1139972i,-0.2275968+0.04004841i,-0.154548+0.1809381i,-0.007679855+0.246409i,0.153746+0.207609i,0.2647285+0.07154062i,0.2693923-0.1181387i,0.1432311-0.2831922i},
		{-0.419928+0.4553933i,-0.03541427+0.5719776i,0.3001459+0.4385211i,0.4708559+0.1610373i,0.454032-0.1376214i,0.2846668-0.3654619i,0.02116777-0.4633094i,-0.2602531-0.3962821i,-0.4619067-0.1669973i,-0.4868945+0.1576183i,-0.2930932+0.4452325i,0.05843706+0.5496341i,0.4096548+0.3952323i,0.580344+0.03712855i,0.4714083-0.3533058i,0.1288805-0.5776676i,-0.2764484-0.5212827i,-0.542743-0.2160831i,-0.5456449+0.1814045i,-0.2973097+0.4786957i,0.07216733+0.5460438i,0.3901198+0.3705981i,0.5246404+0.04611358i,0.4337686-0.2826789i,0.1675929-0.4842085i,-0.1628482-0.4847119i,-0.5214959+0.03771921i,-0.3949249+0.3602613i,-0.0852734+0.5422475i,0.2844805+0.4876511i,0.5449001+0.1988273i,0.5576802-0.2041408i,0.2964827-0.5270031i,-0.1214258-0.5991026i,-0.4858074-0.373467i,-0.6074154+0.03696356i,-0.427454+0.4187585i,-0.05011467+0.5804502i,0.3243691+0.458971i,0.5191795+0.1415736i,0.4712425-0.2032652i,0.239021-0.4280986i,-0.05908175-0.4694062i,-0.3149629-0.3426705i,-0.4592325-0.1011325i,-0.4502893+0.1898245i,-0.2672304+0.4456436i,0.06351765+0.5566809i,0.4314206+0.4270422i,0.653926+0.05407937i,0.5680302-0.4164561i,0.1555994-0.7324019i},
		{-0.4335348+1.874815i,0.8269619+1.698607i,1.683434+0.788596i,1.779145-0.4387183i,1.091797-1.440932i,-0.05894862-1.782287i,-1.151825-1.326625i,-1.701216-0.2995723i,-1.482304+0.8204813i,-0.6280075+1.534223i,0.453142+1.554737i,1.28629+0.9201206i,1.545929-0.0598231i,1.170316-0.9692909i,0.3447013-1.462201i,-0.6006846-1.371886i,-1.311843-0.7413271i,-1.516205+0.2010404i,-1.108497+1.103029i,-0.2088855+1.593286i,0.842684+1.425076i,1.593602+0.6106976i,1.673441-0.5366198i,0.9898565-1.510639i,-0.1907892-1.841901i,-1.343323-1.335818i,-1.640971+1.097515i,-0.585+1.926996i,0.7860005+1.898933i,1.852114+0.9878383i,2.102945-0.4269281i,1.376202-1.71001i,-0.0410912-2.24506i,-1.509501-1.72928i,-2.316514-0.351151i,-2.027431+1.257977i,-0.7324469+2.309232i,0.9613179+2.254984i,2.218026+1.089833i,2.402305-0.6250435i,1.41464-2.042732i,-0.2561584-2.466535i,-1.789567-1.701131i,-2.450854-0.1350711i,-1.944501+1.471152i,-0.53418+2.362553i,1.105124+2.139037i,2.210587+0.9228909i,2.277189-0.7116531i,1.280863-2.003405i,-0.3105868-2.349961i,-1.747761-1.588378i},
		{0.1360193+0.8804628i,0.6988893+0.5949724i,0.9395655-0.009543768i,0.714256-0.6357161i,0.1213611-0.960185i,-0.5440285-0.8090342i,-0.9447195-0.2529391i,-0.8780412+0.4294028i,-0.379426+0.8965338i,0.2988003+0.9191263i,0.8188633+0.4940152i,0.9295635-0.1591333i,0.5902427-0.7143834i,-0.0162399-0.9070166i,-0.5855388-0.663288i,-0.8507602-0.1254201i,-0.7107353+0.4354258i,-0.2623212+0.7626599i,0.2687998+0.732542i,0.6474904+0.3909438i,0.7302554-0.09271478i,0.5068169-0.5124036i,0.08358096-0.7057986i,-0.3656639-0.6040136i,-0.6603118-0.2496043i,-0.6754251+0.2150408i,0.06639133+0.7138587i,0.5039942+0.5126004i,0.7136889+0.07707217i,0.5973405-0.3900981i,0.2145548-0.6725546i,-0.2516502-0.6493256i,-0.592524-0.3465399i,-0.6720409+0.09142038i,-0.4731122+0.4802764i,-0.08391175+0.6710984i,0.3461386+0.5923232i,0.6522112+0.2638301i,0.6992009-0.2021737i,0.4351925-0.6192815i,-0.05983068-0.7858132i,-0.573213-0.5843313i,-0.8424681-0.07218532i,-0.6994989+0.5118404i,-0.1892142+0.8597589i,0.4310132+0.7729876i,0.8308821+0.290758i,0.8023323-0.326501i,0.3794198-0.7535506i,-0.1961262-0.790276i,-0.6309348-0.4590295i,-0.7435449+0.04145329i},
		{-0.3177917-0.4308724i,-0.5238774-0.1197665i,-0.4740815+0.2563384i,-0.1821086+0.506699i,0.2051483+0.4935258i,0.4780695+0.2192803i,0.4855768-0.1627563i,0.2310852-0.4348876i,-0.1267032-0.4492376i,-0.3754865-0.2196564i,-0.3861161+0.09423776i,-0.1888655+0.2999611i,0.06289491+0.3001079i,0.2102253+0.1436763i,0.1969099-0.03090861i,0.0895353-0.1098722i,0.002525674-0.08347067i,-0.003927486-0.03183599i,0.03255966-0.0370945i,0.02454953-0.1014521i,-0.07128066-0.1433686i,-0.199323-0.0756909i,-0.2415326+0.1023475i,-0.1189781+0.2823805i,0.1264356+0.3206063i,0.3435154+0.1534264i,0.179834-0.3765309i,-0.1345392-0.4042934i,-0.37698-0.2006972i,-0.406226+0.1089574i,-0.219802+0.3430014i,0.05892997+0.3842741i,0.2759615+0.2414774i,0.343624+0.01634376i,0.2695909-0.1806892i,0.1145682-0.2911375i,-0.06514649-0.306474i,-0.2341836-0.2300825i,-0.3520322-0.06050402i,-0.3542127+0.1792973i,-0.185312+0.4032947i,0.1309648+0.4762661i,0.4545794+0.2991691i,0.585019-0.09083645i,0.3943092-0.4983075i,-0.05757791-0.6704181i,-0.5263306-0.4663483i,-0.7251369+0.02741874i,-0.5146333+0.5314987i,-0.004724448+0.7456566i,0.509122+0.5418415i,0.7326486+0.04381645i},
		{1.617616+0.3871378i,1.503783-0.6956369i,0.746151-1.474234i,-0.328882-1.615125i,-1.256522-1.060128i,-1.638557-0.05420223i,-1.319313+0.9666464i,-0.4456422+1.572146i,0.6114563+1.51926i,1.421229+0.8369331i,1.659445-0.2038847i,1.217126-1.197624i,0.2369868-1.741015i,-0.917438-1.571666i,-1.764519-0.6874415i,-1.882591+0.5981141i,-1.121951+1.72847i,0.2555827+2.130264i,1.629294+1.516606i,2.296273+0.097639i,1.852249-1.462745i,0.4528903-2.366735i,-1.22637-2.116465i,-2.33506-0.8043228i,-2.303957+0.9222i,-1.14684+2.203357i,1.982081+1.47382i,2.45472-0.1515741i,1.775482-1.688004i,0.277824-2.427262i,-1.341131-2.03855i,-2.336974-0.7046645i,-2.24741+0.9614358i,-1.104294+2.185968i,0.5663105+2.386502i,1.975037+1.455507i,2.44325-0.1693617i,1.742895-1.705374i,0.2192864-2.410677i,-1.380779-1.957688i,-2.288935-0.5915157i,-2.097038+1.009506i,-0.9392634+2.085322i,0.6050522+2.16216i,1.812829+1.252931i,2.156091-0.1855286i,1.520818-1.487698i,0.2282725-2.08188i,-1.126779-1.72988i,-1.941823-0.6155739i,-1.867597+0.745464i,-0.9582785+1.737957i},
		{-0.2511584+0.0940634i,-0.09462885+0.2440178i,0.1213723+0.2234863i,0.242802+0.0443079i,0.178074-0.1616079i,-0.02491833-0.2355115i,-0.2070728-0.1159977i,-0.218873+0.1057741i,-0.04160986+0.2509396i,0.190163+0.1926547i,0.2884619-0.03868496i,0.1592277-0.2707497i,-0.117936-0.3173523i,-0.3419619-0.1225059i,-0.3373692+0.1899446i,-0.08670419+0.40023i,0.2499971+0.3494118i,0.4435617+0.05536244i,0.3545562-0.2949193i,0.03092717-0.4707838i,-0.3226075-0.3534403i,-0.4808723-0.01494172i,-0.3462288+0.3313847i,-0.008638802+0.4727292i,0.3195827+0.333128i,0.4455463+0.0135639i,0.03184168-0.3996283i,-0.2287729-0.2948746i,-0.3373111-0.06584217i,-0.276314+0.1499857i,-0.1172597+0.2635185i,0.0530306+0.2645152i,0.1855809+0.1858887i,0.2641505+0.05518043i,0.2685621-0.1121867i,0.1650262-0.2779671i,-0.05165293-0.3587313i,-0.3054621-0.26555i,-0.4470004+0.009979031i,-0.3464881+0.3423203i,-0.01072086+0.522626i,0.3809201+0.4004276i,0.5756678+0.01287832i,0.4244722-0.4118839i,0.002944743-0.5992291i,-0.4263119-0.4208989i,-0.5911499+0.01024886i,-0.3965586+0.4180961i,0.01783189+0.554641i,0.3856562+0.3611368i,0.497633-0.01329741i,0.3247193-0.332586i},
		{-0.3630258+0.4211565i,-0.005076848+0.4832009i,0.2535611+0.3253511i,0.3340386+0.09542262i,0.280594-0.08474789i,0.1793424-0.1833063i,0.0759264-0.2314697i,-0.0393699-0.2518792i,-0.1800338-0.2190671i,-0.3076384-0.09005893i,-0.335654+0.1274377i,-0.1984577+0.3409404i,0.07366671+0.4176233i,0.3461587+0.2811289i,0.4586581-0.01742478i,0.3357989-0.3183501i,0.04366978-0.4550988i,-0.2541698-0.3629788i,-0.4067755-0.11249i,-0.3659001+0.1529196i,-0.1914489+0.3175014i,0.01746684+0.3499221i,0.1949932+0.2813761i,0.3214514+0.1452712i,0.3805062-0.05009463i,0.3245287-0.2865587i,-0.2495997-0.5066868i,-0.5835028-0.256859i,-0.6769732+0.2121869i,-0.3961887+0.6690692i,0.1728161+0.8215758i,0.7296505+0.5158702i,0.9297392-0.1273053i,0.6134498-0.7555694i,-0.07000391-0.9953701i,-0.7403355-0.6905785i,-1.017772-0.004487528i,-0.751874+0.6820878i,-0.09950467+1.00133i,0.584197+0.8031467i,0.9542214+0.2148843i,0.8494529-0.454863i,0.3462909-0.8864881i,-0.3057945-0.893481i,-0.8079463-0.4854916i,-0.9346741+0.1502849i,-0.6215122+0.7264289i,0.001139195+0.9692733i,0.646742+0.7423781i,0.9912089+0.1310866i,0.8370091-0.5704868i,0.2391933-0.993545i},
		{0.5260754+0.9880896i,1.072247+0.4667355i,1.180452-0.324928i,0.7394809-1.047446i,-0.1080146-1.336275i,-0.9859507-0.9902846i,-1.445793-0.11434i,-1.20576+0.8878059i,-0.3337066+1.500269i,0.7527032+1.375406i,1.493549+0.5441499i,1.492852-0.580938i,0.7420365-1.423517i,-0.3746878-1.55634i,-1.293007-0.9251375i,-1.568263+0.1391793i,-1.091341+1.109853i,-0.1166876+1.533935i,0.8859844+1.23742i,1.459914+0.3805494i,1.358299-0.635748i,0.6376694-1.352396i,-0.3738866-1.447094i,-1.21612-0.872694i,-1.495983+0.1136607i,-1.071656+1.054076i,0.8680599+1.22374i,1.447128+0.3630307i,1.322392-0.6598191i,0.5675538-1.342871i,-0.4323978-1.365558i,-1.187844-0.7450898i,-1.355093+0.191203i,-0.8932298+0.9892523i,-0.0555667+1.295594i,0.7576773+1.009112i,1.193057+0.2972856i,1.089046-0.5056555i,0.5219662-1.053772i,-0.2461276-1.128819i,-0.8837186-0.7177214i,-1.124549-0.008842838i,-0.8742177+0.6885511i,-0.248819+1.073774i,0.4740401+0.9837444i,0.9764043+0.4651434i,1.041673-0.246674i,0.6506412-0.8352077i,-0.01408892-1.046293i,-0.6556901-0.7991628i,-0.9982272-0.2149346i,-0.9052839+0.4454197i},
		{0.4521318+0.2400057i,0.4888666-0.1007228i,0.3060201-0.3780524i,-0.001227088-0.4740618i,-0.2915092-0.3590723i,-0.4417305-0.09543706i,-0.3962722+0.1966626i,-0.1843247+0.3927473i,0.09744781+0.4148887i,0.3279834+0.2611375i,0.4129796+0.002816363i,0.3228609-0.2486271i,0.1014703-0.3900538i,-0.1566911-0.368082i,-0.347517-0.1962234i,-0.3968811+0.0554834i,-0.2846744+0.2887021i,-0.05019381+0.410332i,0.2184151+0.3638614i,0.4097783+0.1542734i,0.430061-0.142083i,0.2500989-0.3961352i,-0.06473282-0.4789759i,-0.369462-0.3314052i,-0.5063137-0.009902244i,-0.3933472+0.3289701i,0.2734841+0.4332821i,0.4841519+0.1449742i,0.4510708-0.2022231i,0.2061156-0.4334555i,-0.1156522-0.4488036i,-0.3595676-0.2644239i,-0.4300277+0.01611944i,-0.3202489+0.2676396i,-0.09195137+0.3987048i,0.1641352+0.3724684i,0.358204+0.2024092i,0.4182955-0.05578463i,0.3081954-0.3106216i,0.05142042-0.4536622i,-0.256608-0.4024214i,-0.4740667-0.1529317i,-0.47941+0.1957266i,-0.2458821+0.4756306i,0.1272016+0.5354253i,0.4560548+0.3288372i,0.568918-0.05079916i,0.4011925-0.4152i,0.03244721-0.5802653i,-0.3551475-0.4624493i,-0.5711426-0.1198972i,-0.5116318+0.2797565i},
		{0.7507709-1.188239i,-0.236151-1.367032i,-1.067396-0.8447217i,-1.326976+0.0737997i,-0.9239792+0.9040747i,-0.1052499+1.24999i,0.7081019+0.9890296i,1.143809+0.2930461i,1.038985-0.491501i,0.4795094-1.016176i,-0.2671014-1.071463i,-0.8739488-0.6535085i,-1.082949+0.04721086i,-0.8041161+0.7226512i,-0.1574248+1.069528i,0.5664717+0.9217966i,1.027779+0.3382412i,0.9993197-0.4086153i,0.4890434-0.9556199i,-0.2518269-1.032288i,-0.8529083-0.6058573i,-1.019267+0.09889188i,-0.6865998+0.721724i,-0.0470357+0.9616139i,0.5663155+0.7307294i,0.8631135+0.1823418i,0.3030677-0.7295713i,-0.2087665-0.7131976i,-0.5684126-0.4051343i,-0.6562404+0.02278848i,-0.4845616+0.3882962i,-0.1559441+0.5718189i,0.1986831+0.5376125i,0.4642318+0.3180576i,0.5608591-0.009294939i,0.4544601-0.3379712i,0.1705639-0.5512481i,-0.1972778-0.5569329i,-0.5062707-0.3327705i,-0.6188512+0.04578378i,-0.4711047+0.4243191i,-0.1136136+0.63596i,0.3052374+0.581759i,0.6070527+0.2785567i,0.6634815-0.1509724i,0.4467209-0.5343687i,0.03384969-0.7172718i,-0.4235496-0.6151195i,-0.7456627-0.2416304i,-0.7794278+0.2830775i,-0.4619641+0.7517399i,0.1232441+0.9335613i},
		{-0.4848417+0.05926444i,-0.3206324+0.3682123i,0.009419615+0.4875605i,0.3345979+0.3529602i,0.4828098+0.03319768i,0.3735192-0.3015004i,0.06595358-0.4695342i,-0.2695497-0.3800818i,-0.4467136-0.08749512i,-0.3716477+0.2387221i,-0.09773161+0.4140901i,0.20898+0.3487416i,0.3726996+0.09740138i,0.3132515-0.1809231i,0.08741762-0.3249938i,-0.1561727-0.2678748i,-0.2744833-0.06826676i,-0.2153795+0.1373048i,-0.03971267+0.224999i,0.1273083+0.1579483i,0.1798073+0.0009468397i,0.09684457-0.1287214i,-0.04884153-0.1408748i,-0.142728-0.03252406i,-0.1085345+0.1096634i,0.03484327+0.1685306i,0.2032446-0.104625i,0.05845217-0.2563284i,-0.1750282-0.2424003i,-0.3334271-0.03717216i,-0.2809413+0.2427288i,-0.01726015+0.4049406i,0.3030123+0.3144388i,0.4645909-0.0002269723i,0.3401578-0.3504473i,-0.01261619-0.5074033i,-0.3799394-0.3576463i,-0.5307+0.01623493i,-0.368657+0.3878713i,0.007451553+0.534552i,0.3729914+0.3764257i,0.5215533+0.01617723i,0.3845286-0.3367745i,0.05501375-0.4959837i,-0.2831339-0.3956755i,-0.4626132-0.1069874i,-0.4108129+0.21756i,-0.1678982+0.4255046i,0.1459385+0.4288041i,0.3871642+0.2322839i,0.4467659-0.07339525i,0.2945803-0.3482692i},
		{0.951491+0.6297942i,1.111516-0.1406617i,0.7343233-0.8137388i,0.02522096-1.067622i,-0.6561453-0.8013545i,-0.9838258-0.1754831i,-0.8276948+0.484076i,-0.3045847+0.8621725i,0.3028166+0.8117135i,0.7058442+0.4083974i,0.7538146-0.1174222i,0.4845041-0.5194738i,0.06711324-0.6567826i,-0.3095086-0.532132i,-0.5258179-0.2454577i,-0.5517223+0.08440975i,-0.4115087+0.3681649i,-0.1455015+0.5442724i,0.1923602+0.5581702i,0.5106778+0.3686448i,0.6775322-0.007255487i,0.5731872-0.4513169i,0.1789542-0.7615256i,-0.3660457-0.7482788i,-0.8029672-0.35946i,-0.8852561+0.2546397i,0.1175692+0.9785402i,0.7410278+0.6845066i,1.026024+0.04311701i,0.8230044-0.6376565i,0.2230775-1.028869i,-0.4924434-0.9424689i,-0.9907755-0.4153748i,-1.040363+0.3144164i,-0.6107267+0.9169424i,0.1146864+1.113396i,0.812978+0.7983097i,1.15755+0.09498633i,0.9669671-0.6840608i,0.3035751-1.16856i,-0.5345398-1.106565i,-1.142744-0.5018209i,-1.209196+0.3680366i,-0.6827288+1.077956i,0.1879473+1.269972i,0.9744004+0.8414986i,1.287268+0.001877335i,0.9750239-0.835069i,0.1965479-1.262414i,-0.6656863-1.081203i,-1.198998-0.389874i,-1.158335+0.4741722i},
		{0.2333918-1.279653i,-0.6368052-1.114676i,-1.185893-0.4391875i,-1.172852+0.4144795i,-0.6281285+1.048655i,0.177772+1.187376i,0.8731148+0.792687i,1.157247+0.06420356i,0.9262058-0.665531i,0.3023888-1.082963i,-0.4331515-1.023329i,-0.9667538-0.5280691i,-1.08029+0.1842067i,-0.7330112+0.8127168i,-0.07210881+1.09501i,0.6267834+0.9095172i,1.067036+0.325772i,1.050502-0.4164684i,0.5662717-0.9973849i,-0.1904274-1.149691i,-0.8883733-0.7831711i,-1.201989-0.04210416i,-0.9668345+0.7435267i,-0.2718869+1.203987i,0.5675727+1.109191i,1.154493+0.4901658i,0.6890042-1.054948i,-0.147573-1.249133i,-0.909576-0.8614505i,-1.242831-0.08070844i,-1.001574+0.7251875i,-0.3089091+1.187237i,0.5106449+1.104446i,1.086014+0.5271059i,1.166153-0.2760857i,0.725523-0.9441642i,-0.03205734-1.183898i,-0.7675424-0.8952414i,-1.15621-0.2112678i,-1.028867+0.5625491i,-0.4446635+1.083228i,0.3360287+1.121046i,0.9669825+0.6601418i,1.168739-0.09532919i,0.8509813-0.8115594i,0.1515868-1.171229i,-0.6230811-1.011576i,-1.129876-0.3961046i,-1.137224+0.4094364i,-0.6290962+1.047714i,0.1797899+1.223989i,0.9289903+0.8412774i},
		{-0.793107+0.02346884i,-0.6278099+0.5273452i,-0.1664127+0.8364481i,0.4177247+0.7870318i,0.8629397+0.3536905i,0.9276181-0.3017257i,0.5263858-0.8704885i,-0.1854043-1.039412i,-0.8554907-0.6739765i,-1.113009+0.07234588i,-0.7889486+0.8135935i,-0.0365039+1.141444i,0.7410122+0.8677749i,1.121637+0.142204i,0.9110366-0.6360437i,0.246559-1.055167i,-0.5003218-0.9226432i,-0.9481382-0.350611i,-0.9083651+0.3394119i,-0.4533456+0.8101133i,0.1625216+0.8740924i,0.6524018+0.5510176i,0.824317+0.01864217i,0.6373199-0.4861366i,0.1915913-0.7612548i,-0.3206432-0.7043629i,-0.7441984+0.1624928i,-0.4697943+0.5934432i,0.01541326+0.7504613i,0.4853236+0.5608888i,0.7196891+0.1190365i,0.616359-0.3598838i,0.2403354-0.6519938i,-0.2187939-0.6372326i,-0.5509611-0.3478318i,-0.6263458+0.06638633i,-0.4399226+0.422889i,-0.0906613+0.5872536i,0.2756455+0.5138154i,0.523437+0.2442269i,0.5658968-0.1175056i,0.3859196-0.4379953i,0.04372015-0.5925255i,-0.3338172-0.5081722i,-0.5909419-0.2010977i,-0.6049619+0.2140524i,-0.3485378+0.5599707i,0.08260293+0.6720316i,0.5002893+0.4805056i,0.7066751+0.05563591i,0.5917379-0.4142053i,0.1949521-0.7073065i},
		{1.359447-0.2513489i,0.8161057-1.046897i,-0.07527559-1.262878i,-0.8378307-0.8551052i,-1.121278-0.09892686i,-0.8635819+0.6029269i,-0.2675947+0.9458544i,0.3548598+0.8466961i,0.7499945+0.4236661i,0.8078147-0.1093597i,0.5569544-0.5466793i,0.1172204-0.747395i,-0.3462391-0.6556877i,-0.6631494-0.3106334i,-0.7089109+0.1551064i,-0.4609815+0.5514477i,-0.02409643+0.7090448i,0.4094989+0.5638454i,0.653825+0.1912362i,0.6200132-0.2375812i,0.3466198-0.5470244i,-0.04055707-0.6339685i,-0.3977354-0.4889565i,-0.6116768-0.1718651i,-0.6140559+0.2184356i,-0.3862652+0.5584139i,0.4773374+0.5877337i,0.7819873+0.1785609i,0.76253-0.3692263i,0.3759719-0.807074i,-0.23341-0.9003961i,-0.7838306-0.564731i,-0.9958695+0.06950194i,-0.7423886+0.7104872i,-0.1207175+1.048278i,0.5904039+0.9074651i,1.060533+0.331966i,1.057688-0.4315119i,0.5551776-1.037212i,-0.2446659-1.188803i,-0.9826478-0.7784175i,-1.294419+0.04145533i,-0.9887316+0.8996701i,-0.1678183+1.366973i,0.7894187+1.174351i,1.399494+0.3753765i,1.326558-0.6522284i,0.576081-1.387555i,-0.4892037-1.440639i,-1.330734-0.7665057i,-1.515664+0.3038464i,-0.9433995+1.23305i},
		{0.4623884-0.2468273i,0.2086691-0.4932329i,-0.154107-0.5249375i,-0.4622585-0.3126186i,-0.5650287+0.05667898i,-0.4023378+0.4123697i,-0.04253289+0.5809659i,0.3449354+0.4747223i,0.5718899+0.1402005i,0.5269789-0.2619447i,0.2330248-0.5374808i,-0.1655191-0.5568863i,-0.4779631-0.3183019i,-0.5633027+0.05766013i,-0.3943648+0.3944502i,-0.05961828+0.5467048i,0.2894976+0.4606744i,0.5094981+0.1837957i,0.5174642-0.1676168i,0.3111749-0.4558921i,-0.03546697-0.5650123i,-0.3912733-0.436332i,-0.6027787-0.09848206i,-0.5519885+0.3211823i,-0.2248657+0.6287253i,0.2501616+0.6495031i,0.719988-0.1808147i,0.4212153-0.6290146i,-0.1133924-0.7558449i,-0.5933017-0.4803131i,-0.7523415+0.04608374i,-0.5118532+0.5282148i,-0.02401901+0.7087903i,0.4327658+0.5190133i,0.6289648+0.09952609i,0.5072951-0.3097527i,0.181326-0.5205851i,-0.1659801-0.4829433i,-0.3939633-0.2675633i,-0.4512863+0.01156841i,-0.3533518+0.2601423i,-0.1415177+0.4154647i,0.1290036+0.4313444i,0.3758965+0.2813713i,0.4930334-0.007821621i,0.3980017-0.3306047i,0.09939995-0.5304374i,-0.276272-0.4847021i,-0.5377243-0.1917145i,-0.5386283+0.2096807i,-0.2702975+0.5123509i,0.1290939+0.5605237i},
		{0.5553864-0.5272165i,0.10407-0.7574137i,-0.3878643-0.6613372i,-0.7200885-0.2866656i,-0.7604843+0.219615i,-0.4789822+0.6616256i,0.03691067+0.8491294i,0.5881297+0.6664762i,0.9192522+0.1463048i,0.8334543-0.5016569i,0.3194711-0.9601992i,-0.4002551-0.9664278i,-0.9616065-0.4770299i,-1.056928+0.2796864i,-0.6183013+0.9166287i,0.1362354+1.102911i,0.8244183+0.7457273i,1.108345+0.03037779i,0.8621451-0.691027i,0.2150195-1.081159i,-0.5283929-0.9680777i,-1.030263-0.4068465i,-1.060026+0.3517019i,-0.5908863+0.9626387i,0.1759363+1.130398i,0.8814787+0.7510594i,0.8737193-0.7859575i,0.1317708-1.166669i,-0.6726771-0.9505982i,-1.116794-0.2566184i,-0.9802403+0.5382388i,-0.3648335+1.019214i,0.3820094+0.9674975i,0.8801668+0.4604382i,0.9213115-0.2080792i,0.5456235-0.711351i,-0.02568586-0.8515578i,-0.5273169-0.6187917i,-0.7660242-0.1520986i,-0.6742058+0.3421931i,-0.3110259+0.6685176i,0.1667842+0.7033742i,0.5586858+0.4388254i,0.697689-0.006941669i,0.527838-0.4335425i,0.1363288-0.6514093i,-0.2901043-0.5762855i,-0.5639587-0.2651478i,-0.5877945+0.1281711i,-0.3820941+0.4407416i,-0.04775574+0.5693774i,0.2921848+0.487562i},
		{-1.427743+0.7765044i,-0.5825168+1.532481i,0.5577262+1.548839i,1.430146+0.8150615i,1.612051-0.3039871i,1.030164-1.26466i,-0.02162044-1.620193i,-1.045317-1.225047i,-1.579138-0.2785253i,-1.395081+0.7860287i,-0.5813006+1.495564i,0.5031065+1.532822i,1.374909+0.86879i,1.628318-0.2126102i,1.122828-1.220243i,0.07197058-1.670708i,-1.032422-1.327827i,-1.650697-0.3410393i,-1.473129+0.8114893i,-0.5888963+1.563175i,0.5588083+1.55424i,1.40917+0.8125355i,1.572628-0.2791815i,1.009741-1.196493i,0.01783709-1.534236i,-0.9388359-1.177214i,-1.309433+0.6535531i,-0.6036614+1.319627i,0.3587625+1.398686i,1.157855+0.8566612i,1.436316-0.07058061i,1.060902-0.9661072i,0.1987471-1.414793i,-0.74715-1.204979i,-1.329954-0.4413865i,-1.283491+0.5038576i,-0.6531303+1.182687i,0.2409688+1.296946i,0.9795056+0.8317248i,1.250391+0.03364992i,0.9750069-0.7318209i,0.308755-1.151291i,-0.4541274-1.079577i,-1.007394-0.5706543i,-1.140507+0.1616558i,-0.8050743+0.8252839i,-0.1317984+1.152186i,0.6100127+0.9993968i,1.110007+0.4152477i,1.14457-0.365852i,0.680752-1.012264i,-0.09775563-1.236109i},
		{-0.6954858+0.9905286i,0.1693199+1.176387i,0.9080232+0.7261587i,1.130175-0.08677165i,0.7471175-0.8097399i,-0.001684817-1.068205i,-0.7017443-0.7588094i,-0.99507-0.08108503i,-0.7603406+0.5910117i,-0.1555146+0.9145513i,0.4841038+0.7495393i,0.8290034+0.2156152i,0.7236941-0.3860288i,0.2567785-0.7394251i,-0.2996461-0.6807311i,-0.6461694-0.2768312i,-0.620419+0.2257897i,-0.2764454+0.5500189i,0.1640364+0.545164i,0.4532105+0.2587596i,0.4600727-0.1138264i,0.2283214-0.359993i,-0.07551942-0.3721963i,-0.2764569-0.1896897i,-0.2891474+0.05098888i,-0.1461503+0.2096176i,0.1659946+0.0989631i,0.1613949-0.056982i,0.04738737-0.1501121i,-0.09460891-0.1219838i,-0.1633887+0.01053154i,-0.09754281+0.1576483i,0.07668353+0.2037703i,0.2444653+0.08453865i,0.2662301-0.1515606i,0.07908739-0.3503331i,-0.2333275-0.3439867i,-0.4680386-0.07839674i,-0.4300695+0.3176219i,-0.08171846+0.5891379i,0.3981705+0.5187574i,0.7054982+0.09051622i,0.60647-0.46804i,0.1078167-0.8106723i,-0.5211346-0.6918743i,-0.9007131-0.1369789i,-0.7752278+0.5534766i,-0.1803023+0.97422i,0.563885+0.8572247i,1.031662+0.2379364i,0.9377645-0.5538682i,0.3074471-1.074256i},
		{-0.364532-0.336993i,-0.4856588-0.03571728i,-0.4001084+0.2682528i,-0.1518423+0.4574279i,0.1628211+0.4601188i,0.4219205+0.2670611i,0.511107-0.05696152i,0.3713409-0.3795623i,0.04355893-0.5459047i,-0.3282273-0.4569076i,-0.5582176-0.1365042i,-0.5196967+0.2647675i,-0.2225104+0.5445355i,0.1869445+0.5596112i,0.5051884+0.3035005i,0.5795652-0.09506543i,0.3807778-0.4442154i,0.007257801-0.5836979i,-0.3681157-0.4534996i,-0.575416-0.1134924i,-0.5180826+0.2839361i,-0.2155824+0.555968i,0.1973699+0.5687617i,0.5240579+0.3058781i,0.5991191-0.1115263i,0.3789372-0.4766335i,-0.4105643-0.4325801i,-0.5815043-0.05820784i,-0.4678492+0.3246008i,-0.1448636+0.5333133i,0.2208917+0.4878991i,0.4649066+0.2327924i,0.4962251-0.1054719i,0.3186043-0.3838722i,0.01251682-0.4948736i,-0.297902-0.3957812i,-0.483294-0.1226809i,-0.4557785+0.2127865i,-0.2157366+0.4582785i,0.1311444+0.4900559i,0.4150638+0.285626i,0.4924121-0.05232242i,0.3307019-0.3492607i,0.02649705-0.4608724i,-0.2589776-0.3536002i,-0.3984998-0.1083599i,-0.3598457+0.1464089i,-0.1944465+0.312839i,0.01831362+0.3556574i,0.2141339+0.2825578i,0.3456782+0.114847i,0.3667361-0.1128533i},
		{0.3813367+0.1625005i,0.4375633-0.1576664i,0.2294261-0.4559861i,-0.1612802-0.5245298i,-0.5062033-0.2804439i,-0.5793115+0.1539174i,-0.3188385+0.5207973i,0.1251433+0.5998825i,0.4940671+0.3525855i,0.5912747-0.06699005i,0.3911686-0.4278153i,0.02278128-0.5637164i,-0.3312214-0.4418224i,-0.529226-0.139034i,-0.5064513+0.2185701i,-0.2698232+0.4977617i,0.1055213+0.5802712i,0.4741713+0.3990617i,0.6526573-0.005077502i,0.5104859-0.4569221i,0.07549735-0.709959i,-0.4390019-0.5916991i,-0.7393925-0.135873i,-0.6370417+0.410667i,-0.1816425+0.7327699i,0.3631112+0.6484235i,0.6339148-0.2918373i,0.2636106-0.6137771i,-0.1986291-0.6046168i,-0.5189345-0.3123138i,-0.5708769+0.09149235i,-0.366366+0.4178899i,-0.01738496+0.539095i,0.3225071+0.4191445i,0.5101405+0.114956i,0.4607696-0.2400589i,0.1908128-0.4798313i,-0.1720356-0.4813584i,-0.441223-0.2397155i,-0.4742866+0.1149852i,-0.2623576+0.3878506i,0.06299981+0.4383488i,0.3167586+0.2641786i,0.3780987-0.01091231i,0.252706-0.2302501i,0.04295339-0.3022881i,-0.1357447-0.2343987i,-0.2209787-0.09546457i,-0.2121271+0.04379987i,-0.1392688+0.1423562i,-0.03500976+0.1841888i,0.07037311+0.1650937i},
		{0.4284848+0.7969819i,0.8109861+0.2945162i,0.7576485-0.3000661i,0.3478055-0.6782897i,-0.1668167-0.6862265i,-0.5237895-0.3819075i,-0.5888763+0.03516476i,-0.3959231+0.3567678i,-0.08727077+0.4710627i,0.1860818+0.3878853i,0.3370403+0.1931851i,0.3557492-0.01902641i,0.2769629-0.1901412i,0.1390218-0.298634i,-0.03365429-0.3354705i,-0.2178236-0.2841619i,-0.3680293-0.1281361i,-0.4130041+0.1171221i,-0.2892366+0.375636i,0.002398733+0.52165i,0.359768+0.4419256i,0.6051077+0.1195504i,0.577545-0.3212719i,0.2424369-0.6574742i,-0.2598027-0.6879126i,-0.6729296-0.3617066i,-0.4751056+0.6472732i,0.06299285+0.8117732i,0.5794929+0.5823621i,0.8234364+0.07300527i,0.6840702-0.4727989i,0.2303986-0.8060642i,-0.3346924-0.7801631i,-0.7655798-0.4019241i,-0.8685308+0.1759365i,-0.5768526+0.707829i,0.008662364+0.9443204i,0.6369113+0.7423528i,1.000249+0.1558693i,0.8856165-0.554242i,0.3092004-1.027925i,-0.4586681-0.9961749i,-1.019844-0.4467409i,-1.067751+0.3476138i,-0.5676758+0.9714742i,0.2188903+1.099126i,0.882805+0.6737885i,1.093789-0.07258033i,0.7676108-0.7588801i,0.08762243-1.058498i,-0.6091272-0.850513i,-1.001218-0.2540782i},
		{-0.4004602-0.5820755i,-0.6829513-0.1966992i,-0.6593896+0.2842888i,-0.3330529+0.6479888i,0.1598928+0.7243789i,0.599291+0.4625447i,0.7724556-0.03384338i,0.5774593-0.5378711i,0.08824134-0.7988759i,-0.4639872-0.6710681i,-0.799424-0.2021842i,-0.7384002+0.3774381i,-0.305412+0.7711981i,0.2781256+0.7767772i,0.7133305+0.3967559i,0.7859918-0.16675i,0.4759468-0.6274616i,-0.0454483-0.7680877i,-0.5178324-0.54295i,-0.7267949-0.08181686i,-0.597332+0.3909425i,-0.209258+0.6667573i,0.254825+0.6378444i,0.5927394+0.3296957i,0.6623473-0.1180821i,0.4353482-0.5089871i,-0.4188686-0.5188103i,-0.6522812-0.1258861i,-0.5740072+0.3248286i,-0.2211545+0.6127491i,0.2286053+0.5969278i,0.5485831+0.2938623i,0.5860137-0.1315993i,0.3428182-0.4605448i,-0.03526206-0.5421761i,-0.3512134-0.3683422i,-0.4684994-0.05860593i,-0.371816+0.2248554i,-0.1477106+0.3697493i,0.08708393+0.3552565i,0.2518104+0.2292836i,0.3209873+0.05559813i,0.3002323-0.1211588i,0.1962785-0.2714321i,0.01557477-0.3573613i,-0.2090088-0.3280753i,-0.3976106-0.1519429i,-0.4445091+0.1360812i,-0.2819471+0.4182685i,0.05492409+0.5398129i,0.4171484+0.4002697i,0.6092083+0.03232206i},
		{-1.509837+0.00419438i,-1.16752+0.9873429i,-0.2572802+1.519527i,0.7866206+1.331086i,1.458036+0.5100083i,1.438128-0.5448726i,0.7489753-1.331064i,-0.2722263-1.489844i,-1.14834-0.9664181i,-1.487402-0.01717231i,-1.151961+0.9211786i,-0.3074523+1.43084i,0.6603308+1.294103i,1.31928+0.5836427i,1.382568-0.37485i,0.8337865-1.152343i,-0.07225761-1.410733i,-0.9322083-1.049908i,-1.377291-0.2401942i,-1.227618+0.6654763i,-0.5537896+1.286561i,0.3640212+1.364625i,1.147314+0.8569732i,1.458817-0.04436107i,1.135055-0.9704986i,0.2744448-1.506738i,-1.50314-0.5738252i,-1.549569+0.5435966i,-0.8387604+1.441904i,0.3060874+1.65687i,1.318127+1.059928i,1.686552-0.05608037i,1.234257-1.130709i,0.2050273-1.63959i,-0.8845308-1.363723i,-1.524418-0.4738912i,-1.452805+0.5914008i,-0.743082+1.354955i,0.2692865+1.505468i,1.147423+1.000217i,1.522707+0.06009892i,1.228809-0.9168968i,0.374764-1.501485i,-0.6745954-1.410725i,-1.435462-0.6560144i,-1.529592+0.4267017i,-0.8911405+1.317291i,0.1749919+1.574178i,1.141758+1.074489i,1.540743+0.08101296i,1.206694-0.9087508i,0.3411463-1.433683i},
		{-0.5350405+0.3335006i,-0.136536+0.6256934i,0.3544059+0.5424678i,0.6400375+0.1320542i,0.549771-0.360566i,0.1380313-0.6456409i,-0.354807-0.5591201i,-0.6458243-0.1526653i,-0.5703909+0.3411712i,-0.1721528+0.6425427i,0.3233907+0.5812237i,0.6357221+0.1920701i,0.5879292-0.3036481i,0.2088898-0.6234663i,-0.2820416-0.5869084i,-0.6030387-0.2211081i,-0.5760771+0.256918i,-0.2295933+0.572248i,0.225932+0.5557817i,0.530723+0.2370457i,0.5288709-0.1874323i,0.2467649-0.4805978i,-0.1416582-0.4998799i,-0.4263314-0.261167i,-0.4735958+0.09129222i,-0.2805879+0.3736879i,0.3282+0.3028168i,0.4406058+0.003022811i,0.3235582-0.2936314i,0.03598566-0.433193i,-0.2709657-0.3376962i,-0.4274231-0.05464621i,-0.3409513+0.2582834i,-0.05889363+0.4187833i,0.2515919+0.3313723i,0.4038015+0.05159694i,0.3101434-0.2463477i,0.03764657-0.3814779i,-0.2391716-0.281411i,-0.3539351-0.02235069i,-0.2511572+0.2291822i,-0.00970549+0.3260411i,0.2184908+0.225468i,0.3041037+0.00110879i,0.2087495-0.2116743i,-0.005053771-0.2940393i,-0.2143765-0.2024679i,-0.2995967+0.01280552i,-0.2048187+0.2314783i,0.02714773+0.3212015i,0.2654182+0.2114286i,0.3557844-0.05226262i},
		{0.09547884+0.4517548i,0.4359757+0.3362809i,0.6369644-0.0426237i,0.5031173-0.5199606i,0.02152352-0.8045306i,-0.5812224-0.6624932i,-0.9473693-0.09562729i,-0.8083771+0.6165493i,-0.1771098+1.059339i,0.6239182+0.9345011i,1.134802+0.2627724i,1.034842-0.6017302i,0.3498319-1.168728i,-0.5483686-1.104688i,-1.157464-0.4368889i,-1.141904+0.4624051i,-0.5243505+1.099953i,0.343495+1.147858i,0.998961+0.6140168i,1.127541-0.1936937i,0.7078522-0.8617509i,-0.01869412-1.088654i,-0.6997838-0.8062909i,-1.039776-0.171568i,-0.9066454+0.5272936i,-0.3633581+0.9880801i,0.9372699+0.5407517i,1.082705-0.207188i,0.6881511-0.8864146i,-0.07983631-1.13558i,-0.830141-0.7931294i,-1.148881-0.02111267i,-0.8488508+0.7602534i,-0.09932341+1.114049i,0.6684098+0.855371i,1.028424+0.162423i,0.8193967-0.5491306i,0.2192536-0.8965285i,-0.402272-0.7525106i,-0.7297176-0.2768275i,-0.6683103+0.2342171i,-0.3378493+0.5442348i,0.05739606+0.5792301i,0.3581576+0.3995166i,0.4939089+0.1117699i,0.4539305-0.1880434i,0.2559537-0.4157927i,-0.04615045-0.489977i,-0.3432831-0.3602044i,-0.4961157-0.06108869i,-0.4145722+0.2712782i,-0.1330608+0.4632713i},
		{-0.06881339+1.705419i,1.070932+1.339942i,1.692472+0.3071602i,1.475501-0.883567i,0.5235521-1.631315i,-0.6791287-1.558025i,-1.519933-0.7118534i,-1.583969+0.4605421i,-0.8688807+1.359726i,0.2316613+1.554307i,1.156202+0.9934463i,1.473929+0.001686266i,1.085091-0.9188753i,0.2311826-1.35038i,-0.6603453-1.142945i,-1.192317-0.44626i,-1.165108+0.3947766i,-0.6350971+1.008137i,0.1361695+1.148757i,0.8051213+0.7861371i,1.090942+0.1031533i,0.8897313-0.5892951i,0.3135013-0.9898175i,-0.3659126-0.9394823i,-0.8458917-0.4880594i,-0.9329497+0.140301i,-0.08133329+0.8715912i,0.4478379+0.714228i,0.7600383+0.2914958i,0.7616269-0.2106256i,0.4816018-0.6050019i,0.03731272-0.7636094i,-0.4141835-0.6427629i,-0.7196553-0.2843069i,-0.7669319+0.1955204i,-0.5196731+0.6302908i,-0.04307177+0.8480469i,0.4977898+0.7344319i,0.8828155+0.2935031i,0.9214223-0.3267752i,0.5470908-0.8709072i,-0.1244185-1.074921i,-0.8145269-0.7942382i,-1.190051-0.09992749i,-1.024496+0.717552i,-0.3356347+1.262322i,0.584558+1.227146i,1.287591+0.5720212i,1.392238-0.4200842i,0.7995466-1.262533i,-0.2283954-1.511839i,-1.185536-1.010637i},
		{-1.539029-0.2321019i,-1.297321+0.789327i,-0.4841672+1.399471i,0.499722+1.356112i,1.215193+0.7218421i,1.372434-0.1966497i,0.9326248-0.996444i,0.1037926-1.344249i,-0.7526345-1.103816i,-1.269193-0.3868514i,-1.224371+0.4918622i,-0.6404465+1.145816i,0.2212225+1.286548i,0.9749929+0.8557035i,1.286929+0.05234233i,1.026697-0.7610317i,0.3210876-1.226571i,-0.5120639-1.149664i,-1.110342-0.5758612i,-1.222097+0.2395509i,-0.8061751+0.9456953i,-0.04298455+1.242121i,0.7413272+1.001029i,1.208405+0.32165i,1.150281-0.5061073i,0.5838158-1.120667i,-0.9805251-0.8192429i,-1.284485-0.02293888i,-1.020444+0.7923641i,-0.299817+1.26506i,0.5637978+1.182283i,1.191373+0.5725263i,1.30109-0.3054674i,0.830351-1.069463i,-0.03011359-1.373716i,-0.9064912-1.061695i,-1.396971-0.2488816i,-1.255028+0.7094431i,-0.519099+1.36774i,0.4843983+1.400287i,1.283777+0.7703826i,1.490335-0.2365756i,0.9954721-1.144949i,0.02890403-1.522044i,-0.9544733-1.189811i,-1.496622-0.3058664i,-1.350645+0.719673i,-0.5860213+1.419079i,0.4518935+1.475763i,1.296936+0.8584578i,1.562349-0.1654976i,1.109996-1.138582i},
		{0.2395415-0.4623918i,-0.1143923-0.5011887i,-0.411042-0.308388i,-0.5185092+0.03343666i,-0.3761183+0.3733505i,-0.03270991+0.5422745i,0.3510229+0.4333087i,0.5660662+0.07800215i,0.472239-0.3420902i,0.1003529-0.5831267i,-0.3423578-0.4883613i,-0.58825-0.1010872i,-0.4806935+0.3472373i,-0.08357977+0.5789278i,0.3533087+0.4511737i,0.5554766+0.05165364i,0.4033512-0.3591111i,0.008348071-0.5202468i,-0.3649746-0.3409819i,-0.4763215+0.04452936i,-0.2670788+0.372069i,0.1059774+0.4262723i,0.381133+0.1837474i,0.3714793-0.1747657i,0.09280837-0.3914604i,-0.2483007-0.3122826i,-0.2488908+0.3219553i,0.09962317+0.4050449i,0.3892676+0.1826537i,0.4014727-0.1900782i,0.1171312-0.4430829i,-0.2662148-0.3884829i,-0.4773489-0.058422i,-0.3677659+0.319584i,-0.01445644+0.4889818i,0.3435895+0.3444151i,0.4791351-0.006675024i,0.3260425-0.3354409i,0.00108483-0.4533467i,-0.2973551-0.3208592i,-0.4203832-0.03972363i,-0.3352489+0.2365179i,-0.1059751+0.3900224i,0.1636861+0.3715796i,0.3703852+0.1914591i,0.4269733-0.09074181i,0.284224-0.3656051i,-0.02785559-0.4934873i,-0.3745563-0.3713338i,-0.5597419-0.01893176i,-0.4417993+0.3910593i,-0.04900225+0.6135768i},
		{-0.2366264+0.5988019i,0.2062857+0.6600999i,0.6183092+0.4040993i,0.7786229-0.09202509i,0.5644023-0.6045317i,0.03899951-0.8663375i,-0.5572618-0.7121969i,-0.9202818-0.1826763i,-0.8427544+0.4783504i,-0.3337871+0.9392816i,0.3715918+0.9517079i,0.9235966+0.4860633i,1.034919-0.2422801i,0.6325673-0.8745004i,-0.09655844-1.088574i,-0.7939575-0.7663428i,-1.109542-0.05925869i,-0.8811789+0.6845073i,-0.219212+1.095907i,0.5493767+0.9722878i,1.047498+0.377951i,1.03671-0.3927431i,0.5306891-0.9662616i,-0.2200012-1.073342i,-0.8562784-0.6729397i,-1.082592+0.03786919i,-0.145793+1.065796i,0.5745944+0.9077099i,1.024601+0.3224895i,0.9906004-0.4170229i,0.483846-0.960529i,-0.2573338-1.044199i,-0.8748748-0.6224545i,-1.064703+0.1011134i,-0.7325957+0.7689741i,-0.04722807+1.049886i,0.6447271+0.8106585i,0.9996644+0.1842036i,0.8551584-0.5051801i,0.3067561-0.9163384i,-0.3549252-0.8663833i,-0.8044094-0.4117413i,-0.8458028+0.2001384i,-0.4956055+0.6700073i,0.04818981+0.7954488i,0.5200843+0.5544062i,0.7174691+0.09310125i,0.5842053-0.3615944i,0.2163823-0.6139888i,-0.2008691-0.5817354i,-0.4872996-0.3156174i,-0.5451479+0.04332751i},
		{-0.07933787+0.3963131i,0.2395007+0.3778039i,0.4700991+0.1175178i,0.4494387-0.2528942i,0.1626767-0.5158259i,-0.2394333-0.5068494i,-0.5324944-0.2186224i,-0.5531065+0.1973798i,-0.2879265+0.5229018i,0.1289157+0.5923122i,0.4928204+0.3704159i,0.6278417-0.04013675i,0.4623162-0.4494104i,0.05995331-0.6607872i,-0.3993193-0.5563779i,-0.6891142-0.1612074i,-0.6430213+0.3470351i,-0.2543788+0.7078332i,0.2939864+0.7122202i,0.7101741+0.332875i,0.7556127-0.2386487i,0.3937439-0.6894317i,-0.1776001-0.7682548i,-0.6409433-0.4376516i,-0.7495397+0.1071745i,-0.4679236+0.5636148i,0.4605601+0.4889922i,0.6355337+0.06782776i,0.5047514-0.3386937i,0.1681435-0.5550703i,-0.2074313-0.5173132i,-0.4694413-0.2693794i,-0.5264984+0.07690457i,-0.3637114+0.3846974i,-0.04378987+0.5301504i,0.3045514+0.4434462i,0.5250904+0.1478406i,0.5024561-0.2305671i,0.2311959-0.5083519i,-0.1629683-0.5370809i,-0.4782622-0.292253i,-0.5462975+0.101693i,-0.3310018+0.4350239i,0.04727151+0.531203i,0.3806352+0.3480177i,0.4940855-0.001202435i,0.3437126-0.3182351i,0.03429014-0.4374684i,-0.2511555-0.3181221i,-0.3635043-0.05699189i,-0.2712806+0.1820677i,-0.06560547+0.2739326i},
		{0.4151336+0.7179644i,0.7946912+0.2696237i,0.7830614-0.3256003i,0.3749184-0.7689433i,-0.2308098-0.8293587i,-0.7260244-0.4677728i,-0.8527384+0.1344112i,-0.5432128+0.6656163i,0.039335+0.8499441i,0.5876565+0.5975266i,0.8189864+0.05216225i,0.6284523-0.492669i,0.1383517-0.7594652i,-0.382083-0.6352422i,-0.6727816-0.2178296i,-0.6186171+0.2584889i,-0.2893049+0.5622196i,0.1257843+0.5806298i,0.4328703+0.3514226i,0.5244467+0.01083607i,0.4026514-0.291381i,0.1450727-0.4540549i,-0.1455213-0.4412555i,-0.3739035-0.2698981i,-0.4653477+0.00358493i,-0.3780911+0.288499i,0.2019918+0.4628691i,0.4624988+0.2370278i,0.5185434-0.1178103i,0.3229606-0.4324225i,-0.03841341-0.5411121i,-0.3820491-0.3806472i,-0.528712-0.03477792i,-0.4089354+0.3115598i,-0.1012359+0.4818659i,0.2223206+0.4089093i,0.4034833+0.1609841i,0.3835032-0.1170847i,0.2141314-0.2986019i,-6.670874e-05-0.3368872i,-0.1738922-0.2603963i,-0.2737432-0.1231722i,-0.2987521+0.03698586i,-0.2460602+0.1985708i,-0.1042828+0.3272962i,0.1151547+0.3615556i,0.3433953+0.2426086i,0.462823-0.02628168i,0.3718139-0.3440835i,0.0662585-0.5439357i,-0.3266296-0.4872267i,-0.6004814-0.1614224i},
		{-0.1911721-0.7651485i,-0.6413991-0.4398823i,-0.757042+0.09671681i,-0.4866196+0.5626789i,0.01341593+0.7190171i,0.4690439+0.5041325i,0.649591+0.06141261i,0.4955775-0.358537i,0.1317143-0.5521i,-0.2326804-0.4676188i,-0.4345542-0.2001988i,-0.4280826+0.09753647i,-0.2662461+0.308026i,-0.03672341+0.3832906i,0.1840566+0.3249927i,0.3359857+0.1576844i,0.3679859-0.07190669i,0.2534508-0.2845804i,0.02345712-0.3852719i,-0.2240202-0.3154526i,-0.3682946-0.101983i,-0.3404156+0.1480125i,-0.1675642+0.3126907i,0.05189922+0.3308692i,0.2200755+0.2258085i,0.2940349+0.06478121i,0.1969189-0.2394536i,0.04051312-0.3352518i,-0.1761122-0.3341488i,-0.3844135-0.1819169i,-0.4628202+0.1099864i,-0.3132101+0.4215088i,0.04277078+0.5690453i,0.4371991+0.425666i,0.6419052+0.02782348i,0.5159258-0.4228863i,0.1063474-0.6758396i,-0.3734832-0.5856189i,-0.6715157-0.1970793i,-0.6395066+0.2892596i,-0.3015552+0.6349633i,0.1761739+0.6828391i,0.5753199+0.417016i,0.7188501-0.04459297i,0.5363058-0.501963i,0.09317854-0.7472425i,-0.4219735-0.6492687i,-0.7641506-0.2257604i,-0.7451785+0.33873i,-0.3450436+0.7635503i,0.2520223+0.8153955i,0.7395838+0.4473081i},
		{0.4508752-0.4225588i,0.03921644-0.6296249i,-0.4066295-0.4903653i,-0.6315926-0.08045442i,-0.5128073+0.366651i,-0.1281872+0.6056063i,0.3028961+0.5222711i,0.5563141+0.184122i,0.5232343-0.219231i,0.2472192-0.4904641i,-0.1225407-0.5189189i,-0.4151418-0.3133855i,-0.5101491+0.02132163i,-0.3761465+0.3360715i,-0.07613181+0.4951043i,0.2565159+0.4281039i,0.4700494+0.1633925i,0.4627327-0.1771008i,0.2369205-0.4308016i,-0.09658563-0.4759637i,-0.374452-0.2961582i,-0.4670731+0.0132857i,-0.3427289+0.300776i,-0.07336312+0.4386274i,0.2128684+0.3790565i,0.3955387+0.1616468i,0.2472302-0.3435668i,-0.02038133-0.4263575i,-0.2877674-0.3237579i,-0.4355389-0.06850421i,-0.3842102+0.2313874i,-0.1435747+0.431227i,0.1755351+0.4225736i,0.4100614+0.201213i,0.4352867-0.1196833i,0.2406823-0.3699582i,-0.06277418-0.4220017i,-0.3112165-0.2634651i,-0.3854342+0.004491965i,-0.2720159+0.2369264i,-0.05378363+0.3303829i,0.1525196+0.2684031i,0.2622693+0.1087123i,0.2533414-0.06459853i,0.1555397-0.1857056i,0.02057473-0.2259635i,-0.1035715-0.1892878i,-0.1844072-0.09842956i,-0.2061865+0.0168978i,-0.1668319+0.1270006i,-0.07443144+0.204847i,0.05360153+0.2259806i},
		{0.5377785+0.9482406i,1.009721+0.3597213i,0.9790957-0.3788918i,0.4840113-0.9031075i,-0.2128739-0.9739928i,-0.7696867-0.5865464i,-0.936316+0.04735189i,-0.6637762+0.6179953i,-0.1084488+0.8694572i,0.4569652+0.7110679i,0.7759635+0.24493i,0.7233164-0.2945334i,0.3536224-0.6573341i,-0.1367099-0.6961036i,-0.5145271-0.4285325i,-0.627057-0.01264377i,-0.4669484+0.3489845i,-0.1513114+0.5169736i,0.1638007+0.4694883i,0.37034+0.2777239i,0.439411+0.03540375i,0.3898559-0.1950567i,0.240253-0.3814394i,-0.001417431-0.4844369i,-0.3004845-0.440177i,-0.5567825-0.1993792i,-0.3967811+0.6013386i,0.08491775+0.7798576i,0.6127903+0.5820854i,0.9001319+0.04476237i,0.7490045-0.5873988i,0.186535-0.9791193i,-0.524148-0.8935201i,-1.015043-0.3377556i,-1.013172+0.4253415i,-0.4941856+1.009258i,0.296455+1.106106i,0.9652331+0.6497045i,1.170269-0.1452879i,0.7966722-0.8873306i,0.0193356-1.20307i,-0.7798055-0.9268765i,-1.201646-0.1889229i,-1.0328+0.6463262i,-0.3563349+1.163662i,0.4901318+1.108823i,1.08835+0.5162024i,1.152003-0.314698i,0.6646808-0.9774082i,-0.1245987-1.162191i,-0.8354176-0.7987158i,-1.141485-0.07383052i},
		{-0.1341584-0.1249298i,-0.1720396-0.00276786i,-0.1185502+0.09994464i,-0.02559853+0.1314238i,0.04465471+0.1023763i,0.07350747+0.05921917i,0.08656666+0.02780466i,0.105476-0.009617869i,0.1083625-0.07885598i,0.04865998-0.1606504i,-0.08223302-0.1851992i,-0.2164288-0.09268023i,-0.2469825+0.0942321i,-0.1188977+0.2623536i,0.1080205+0.2858889i,0.2889377+0.1293423i,0.2994572-0.114878i,0.1303127-0.2904234i,-0.107218-0.2907178i,-0.2663011-0.1297791i,-0.2666197+0.0811407i,-0.1344018+0.2211324i,0.03768596+0.2353427i,0.1628014+0.1471802i,0.2034467+0.01759218i,0.1665152-0.09984451i,-0.03880868-0.1869636i,-0.1452598-0.1310253i,-0.201377-0.01744604i,-0.1755542+0.1133649i,-0.06993585+0.2036337i,0.07306375+0.208604i,0.1909769+0.1222161i,0.2325923-0.02114597i,0.1780468-0.1651207i,0.04172204-0.2523055i,-0.1317296-0.2389446i,-0.2724614-0.1103994i,-0.3025483+0.09845563i,-0.1763233+0.295302i,0.07222988+0.3624423i,0.3191177+0.2298871i,0.4095691-0.05676949i,0.2633475-0.3382813i,-0.05119541-0.4348087i,-0.3448463-0.2732733i,-0.4318773+0.05027601i,-0.261683+0.3312092i,0.0462554+0.3995672i,0.2929507+0.2354525i,0.3425394-0.03167666i,0.2041476-0.2308796i},
		{-0.6775464+0.4976814i,-0.2308608+0.8017948i,0.3055279+0.778118i,0.7250708+0.4356233i,0.8573622-0.1026383i,0.6267753-0.6279649i,0.09944523-0.909552i,-0.5136548-0.7924059i,-0.9284312-0.2912056i,-0.9225265+0.3837397i,-0.4658294+0.908802i,0.2392144+1.010373i,0.8480286+0.6190063i,1.052898-0.08178348i,0.748053-0.7469904i,0.08499072-1.050413i,-0.6102056-0.8507771i,-1.005602-0.2551454i,-0.9245711+0.445116i,-0.4206113+0.9223289i,0.2607902+0.9661155i,0.804682+0.5722821i,0.9718353-0.06647538i,0.701528-0.6565802i,0.1295462-0.9389569i,-0.4820321-0.8016657i,-0.8689099+0.2858612i,-0.5008104+0.7576389i,0.07452845+0.9025112i,0.6172423+0.6656437i,0.904076+0.1433833i,0.8098246-0.4540499i,0.3573428-0.8763465i,-0.2779701-0.9274214i,-0.8219144-0.5557963i,-1.011803+0.09867381i,-0.7276599+0.7423545i,-0.07592759+1.056431i,0.6381107+0.863979i,1.056173+0.2405695i,0.959262-0.5091876i,0.3926248-1.008736i,-0.3564041-1.012078i,-0.9157336-0.5312328i,-1.02472+0.1827482i,-0.6558891+0.7829796i,-0.0056849+1.00203i,0.6198482+0.7650017i,0.9497322+0.1995729i,0.854932-0.4378011i,0.3872082-0.8728018i,-0.2484739-0.9198905i},
		{0.1373792-0.2739137i,-0.07523929-0.2796002i,-0.2286586-0.1434719i,-0.240557+0.05110085i,-0.1160595+0.1826909i,0.04734993+0.1749196i,0.1289676+0.05719995i,0.08185184-0.05621605i,-0.02571657-0.0629814i,-0.06935576+0.03375458i,0.0153249+0.1219978i,0.1621596+0.08049096i,0.2203904-0.1010804i,0.0871443-0.2909625i,-0.185569-0.3116691i,-0.4078997-0.09096436i,-0.3903046+0.2584924i,-0.09661546+0.5033922i,0.3106635+0.4547771i,0.5721019+0.1096881i,0.5065787-0.3362608i,0.1344016-0.6131134i,-0.3339482-0.5483837i,-0.6288297-0.1719157i,-0.582125+0.3065704i,-0.2198258+0.623095i,0.5992879+0.2729796i,0.6228238-0.1991344i,0.3252723-0.5590959i,-0.129696-0.6238903i,-0.5023907-0.3717338i,-0.6077437+0.05344552i,-0.4101228+0.4281987i,-0.02975354+0.5733909i,0.3363377+0.4414335i,0.5231266+0.1209936i,0.4691182-0.2290346i,0.2204267-0.4625295i,-0.1118297-0.4972996i,-0.3992506-0.3255512i,-0.5286148-0.006682857i,-0.430393+0.3409459i,-0.1163143+0.5624844i,0.2930252+0.5259891i,0.5944738+0.207541i,0.6021233-0.2569882i,0.2738529-0.6170555i,-0.2299576-0.6498195i,-0.6216117-0.3134064i,-0.6638039+0.2056432i,-0.329386+0.6010876i,0.1765014+0.6441213i},
		{0.6416309-0.6682329i,0.08746246-0.9351602i,-0.5276561-0.7995099i,-0.9358324-0.2940935i,-0.9325026+0.3784947i,-0.4839963+0.911666i,0.2260011+1.031876i,0.8600789+0.6484498i,1.090736-0.07361472i,0.7817254-0.77907i,0.07665496-1.105316i,-0.6684592-0.8813463i,-1.075722-0.2232881i,-0.9475755+0.5309301i,-0.3640975+1.005901i,0.3724965+0.9823163i,0.9028065+0.4952776i,0.9877937-0.2021748i,0.6110268-0.7749864i,-0.0308878-0.9654495i,-0.6309944-0.7039309i,-0.9154109-0.1301392i,-0.7660512+0.4780654i,-0.2710711+0.8366991i,0.321406+0.7904305i,0.7280987+0.3848007i,0.4676002-0.5893943i,-0.008572349-0.7116306i,-0.4225632-0.5189658i,-0.6105187-0.1438055i,-0.5407779+0.2325259i,-0.290174+0.4756846i,0.0271977+0.5360894i,0.3158791+0.4262795i,0.5079476+0.1832005i,0.5463136-0.1407494i,0.3873896-0.4586083i,0.04050523-0.6435549i,-0.3893543-0.5744947i,-0.7114661-0.2200458i,-0.7353302+0.3009098i,-0.3916917+0.7449058i,0.1942452+0.8631898i,0.7410849+0.5506378i,0.9539986-0.07143372i,0.6928154-0.6999879i,0.06378367-1.005897i,-0.624164-0.8142317i,-1.018506-0.2059609i,-0.9106085+0.518005i,-0.3484784+0.992215i,0.3867913+0.9775121i},
		{0.7508608-0.7503185i,0.1438017-1.043847i,-0.5147228-0.9172863i,-0.9678055-0.4214957i,-1.034277+0.2522394i,-0.6779147+0.8385822i,-0.0285316+1.096096i,0.6592117+0.9040276i,1.100191+0.319026i,1.093123-0.4353449i,0.6101605-1.047643i,-0.1757721-1.240435i,-0.9429073-0.8917156i,-1.34236-0.1076522i,-1.152046+0.7929049i,-0.4008171+1.395644i,0.6057302+1.378414i,1.396934+0.6887862i,1.558032-0.3893891i,0.9575247-1.342952i,-0.1509582-1.679641i,-1.231343-1.195479i,-1.735242-0.1035858i,-1.394596+1.061949i,-0.3688488+1.721498i,0.8381339+1.550525i,1.661992-0.5676658i,0.9069313-1.498937i,-0.2628114-1.729599i,-1.307916-1.163157i,-1.754445-0.06051958i,-1.396238+1.080096i,-0.3844472+1.737043i,0.8282678+1.5934i,1.676891+0.6912453i,1.742074-0.5636907i,0.9654145-1.57283i,-0.2952992-1.831734i,-1.424087-1.195218i,-1.855582+0.02979157i,-1.373353+1.231642i,-0.2275421+1.811649i,0.9994689+1.496682i,1.703026+0.4716313i,1.565227-0.7352108i,0.6965494-1.537192i,-0.4500379-1.58082i,-1.324661-0.8949687i,-1.545874+0.1576774i,-1.058368+1.07734i,-0.127134+1.462671i,0.8070744+1.177954i},
		{-1.236353-0.1122022i,-1.027225+0.7317628i,-0.3018393+1.240415i,0.5906287+1.142705i,1.199144+0.4741623i,1.211825-0.4297819i,0.6267656-1.110779i,-0.2503986-1.233948i,-0.9780025-0.7591044i,-1.212444+0.0561785i,-0.8708324+0.8080026i,-0.1458376+1.153167i,0.6114526+0.9603177i,1.062584+0.3454777i,1.023882-0.4006951i,0.5306734-0.9461567i,-0.1876862-1.056059i,-0.8075197-0.6893809i,-1.050823-0.0176922i,-0.8116229+0.6486644i,-0.2084819+1.003385i,0.4710175+0.891054i,0.9119716+0.3804886i,0.9256102-0.2769695i,0.5312842-0.7789949i,-0.07125604-0.9171104i,-0.8700072-0.1383518i,-0.7602118+0.4188014i,-0.3413607+0.7897557i,0.2136452+0.8311872i,0.6813583+0.5258396i,0.8664191-0.00732308i,0.6803195-0.5485625i,0.1905623-0.8606795i,-0.3939377-0.7957413i,-0.8104312-0.3732648i,-0.8668688+0.2197444i,-0.5367795+0.7153206i,0.02921968+0.892756i,0.5790489+0.6788752i,0.8761618+0.1722461i,0.7977049-0.4092887i,0.3765463-0.822147i,-0.2166147-0.8905578i,-0.7363451-0.573208i,-0.9532616+0.01274033i,-0.7506455+0.6234964i,-0.1914197+0.9805071i,0.4867261+0.8979905i,0.9670343+0.3872819i,1.006958-0.3277892i,0.569275-0.9093055i},
		{-0.3528248-0.3338928i,-0.454059-0.08653184i,-0.4255261+0.1665187i,-0.274905+0.3791723i,-0.01772661+0.4920661i,0.2870554+0.4387916i,0.5253045+0.1946035i,0.5707429-0.1755773i,0.3616075-0.5203067i,-0.04389904-0.667611i,-0.4764965-0.5175428i,-0.7297058-0.1059715i,-0.6607974+0.3975528i,-0.2685398+0.7591917i,0.2902255+0.7880492i,0.7583553+0.4353159i,0.893889-0.1625212i,0.5962684-0.728382i,-0.02189686-0.9715118i,-0.6690687-0.7417508i,-1.014242-0.1259358i,-0.8642611+0.5795463i,-0.2772343+1.017361i,0.4597053+0.9594659i,0.9795823+0.4294817i,1.026186-0.3117529i,-0.1412638-1.065409i,-0.7958512-0.7247573i,-1.078748-0.0427527i,-0.8572437+0.6644603i,-0.2289058+1.066949i,0.5178555+0.9690394i,1.029057+0.4053385i,1.050908-0.3627182i,0.5619278-0.9625964i,-0.2030756-1.094808i,-0.8647682-0.6920707i,-1.095958+0.04046884i,-0.7934718+0.7342786i,-0.1248117+1.054307i,0.573158+0.8676695i,0.9748734+0.2918707i,0.9184599-0.3878925i,0.4574149-0.866785i,-0.1893852-0.9497416i,-0.7412475-0.6147079i,-0.9635122-0.008370518i,-0.7537254+0.6090422i,-0.1906013+0.9586976i,0.4782955+0.8625734i,0.93123+0.3444172i,0.9298103-0.353191i},
		{0.06071098-0.4598884i,-0.2291644-0.4309614i,-0.4654671-0.2256524i,-0.540684+0.10394i,-0.3914969+0.43779i,-0.04352947+0.6254131i,0.377011+0.5527694i,0.682359+0.2088715i,0.7047425-0.2853311i,0.3865359-0.7107028i,-0.1672392-0.8429993i,-0.711216-0.5694279i,-0.9628887+0.02923275i,-0.7489511+0.6855325i,-0.1209653+1.059173i,0.6353492+0.915584i,1.12611+0.2755025i,1.059926-0.5618631i,0.4274921-1.158052i,-0.4656753-1.173976i,-1.150468-0.5717857i,-1.252291+0.3472227i,-0.7051936+1.101088i,0.2076109+1.292696i,1.010849+0.8261026i,1.296327-0.04956424i,0.1218517-1.266987i,-0.7292422-1.026633i,-1.209989-0.2990284i,-1.102853+0.5558281i,-0.4722798+1.130837i,0.3750102+1.158619i,1.034106+0.6309226i,1.189125-0.1970385i,0.764733-0.9228529i,-0.0301935-1.189319i,-0.7986907-0.8654218i,-1.155136-0.1198798i,-0.9277567+0.6624706i,-0.2501238+1.084723i,0.5153213+0.9500584i,0.9792995+0.3593976i,0.9339755-0.3596812i,0.4474521-0.843396i,-0.1999713-0.8836476i,-0.6843915-0.513914i,-0.8045364+0.04266974i,-0.5576157+0.5114846i,-0.1042561+0.7022827i,0.3343893+0.5764807i,0.5819098+0.2324005i,0.5679768-0.1621151i},
		{-1.009875+0.7218891i,-0.2919885+1.183543i,0.5361685+1.070642i,1.083441+0.4600492i,1.105152-0.345984i,0.6066482-0.9647767i,-0.1638774-1.108631i,-0.8312974-0.7196339i,-1.074453-0.0007888279i,-0.7892776+0.6832755i,-0.1434413+0.996579i,0.5188922+0.8108095i,0.8724139+0.264249i,0.785669-0.3367662i,0.3664425-0.7050481i,-0.1387185-0.7210108i,-0.5040595-0.4535955i,-0.6275892-0.0682609i,-0.5268355+0.2844776i,-0.2716476+0.5166861i,0.06411852+0.5830029i,0.3970737+0.4549085i,0.6144741+0.1399657i,0.6005884-0.2730018i,0.3148727-0.6108193i,-0.1438695-0.6940916i,-0.7270303+0.005694904i,-0.55766+0.4610966i,-0.1461048+0.6991097i,0.3086713+0.6310005i,0.6179523+0.3135456i,0.6815589-0.1124506i,0.4935986-0.4969062i,0.1127554-0.7156367i,-0.3515069-0.6772671i,-0.7356783-0.3479272i,-0.8505957+0.1956889i,-0.5736469+0.7391739i,0.03889797+0.997359i,0.7194838+0.7738767i,1.102631+0.1150542i,0.9386061-0.66829i,0.2671411-1.156145i,-0.5788383-1.064646i,-1.154422-0.4206876i,-1.154456+0.4488739i,-0.5782669+1.101056i,0.2822905+1.213532i,1.005138+0.7390403i,1.2473-0.08895451i,0.8974602-0.8784025i,0.1172176-1.258605i},
		{0.6189737+0.3395432i,0.697881-0.1190551i,0.4736751-0.536552i,0.02485246-0.7260631i,-0.4554068-0.5796247i,-0.730593-0.1437763i,-0.6458831+0.3739008i,-0.2334641+0.70244i,0.287369+0.6657064i,0.635173+0.2950919i,0.6386049-0.1903616i,0.3340296-0.5272931i,-0.07924449-0.5703456i,-0.3834326-0.3575486i,-0.4714621-0.04566479i,-0.3721877+0.2140248i,-0.1791074+0.354708i,0.03350774+0.3815789i,0.2321942+0.3113657i,0.3853772+0.1424407i,0.4300857-0.1130197i,0.2998544-0.3795727i,-0.002025211-0.5228944i,-0.3580237-0.428804i,-0.5800349-0.1000698i,-0.5244996+0.3146756i,0.2457368+0.5869744i,0.571496+0.2865531i,0.6195976-0.1511321i,0.3753819-0.5101582i,-0.03482166-0.6270087i,-0.4194925-0.4609587i,-0.6132074-0.09604345i,-0.5397705+0.3075197i,-0.2327735+0.5804145i,0.1813032+0.6065098i,0.5290144+0.3670037i,0.655627-0.04606083i,0.4921385-0.4584783i,0.09468469-0.6829644i,-0.3688192-0.603931i,-0.686866-0.2381128i,-0.7000891+0.261948i,-0.3807739+0.6683701i,0.1423528+0.779165i,0.6304445+0.5175416i,0.839252-0.01678571i,0.6413586-0.5765858i,0.1069814-0.8770899i,-0.5093522-0.7439895i,-0.8880276-0.221911i,-0.8176073+0.4294355i},
		{-0.07165425-0.05805253i,-0.1239746+0.01596285i,-0.09584764+0.1283131i,0.0307146+0.1947894i,0.1920384+0.1364056i,0.2702302-0.04890349i,0.1757872-0.259857i,-0.0709481-0.344951i,-0.3277352-0.209903i,-0.4129136+0.09638948i,-0.2351362+0.3905459i,0.1234629+0.4679839i,0.4423723+0.2491231i,0.5048403-0.1489054i,0.2514643-0.4772146i,-0.1681737-0.520008i,-0.4900146-0.2441067i,-0.512738+0.1761308i,-0.2311975+0.4777745i,0.1681039+0.4854368i,0.4404619+0.2183479i,0.4434428-0.1410744i,0.2114209-0.3814086i,-0.09468503-0.3941152i,-0.3070219-0.215114i,-0.3453968+0.03176276i,-0.04183551+0.3041756i,0.1468658+0.2602541i,0.2748508+0.1180781i,0.2966581-0.0782715i,0.1881503-0.2584693i,-0.02560173-0.3343291i,-0.2526613-0.2440708i,-0.365606-0.008914489i,-0.2801504+0.2523942i,-0.02650236+0.383405i,0.2513452+0.2939475i,0.3827505+0.03117385i,0.2865025-0.2435348i,0.02848594-0.3618056i,-0.2248049-0.261823i,-0.3221694-0.02406099i,-0.2257894+0.1937791i,-0.02225041+0.2684104i,0.1521078+0.1847897i,0.2070134+0.02525893i,0.1444427-0.1039983i,0.03289788-0.1450526i,-0.05522484-0.1087103i,-0.08894681-0.0429488i,-0.07955653+0.0119281i,-0.05195346+0.04357936i},
		{-0.6741882-0.667888i,-1.00187-0.04807471i,-0.8079077+0.6717584i,-0.1400819+1.080263i,0.6520798+0.9065106i,1.110407+0.2165621i,0.9584789-0.6032978i,0.2849704-1.083584i,-0.515521-0.9671587i,-0.9997067-0.3555393i,-0.9428531+0.3849341i,-0.4368881+0.8678361i,0.2163213+0.8991747i,0.7041243+0.5320603i,0.8485409-0.0231102i,0.6363395-0.5278105i,0.1751667-0.7982882i,-0.3565024-0.7376254i,-0.7486752-0.3572629i,-0.8193194+0.202215i,-0.5051338+0.6934155i,0.06936841+0.8648397i,0.6225408+0.6078822i,0.8623441+0.04470563i,0.6635556-0.526615i,0.1470226-0.8081678i,-0.7078959-0.24497i,-0.6633742+0.2479513i,-0.3424798+0.5747693i,0.07813999+0.6307061i,0.4259813+0.4376446i,0.5890927+0.09265587i,0.522566-0.2780942i,0.2468382-0.5416693i,-0.1430541-0.5854521i,-0.4857839-0.3694742i,-0.614226+0.02603875i,-0.4517449+0.4150819i,-0.07427488+0.600401i,0.3229986+0.4924049i,0.5419049+0.1632653i,0.4968623-0.2063717i,0.2467125-0.4439019i,-0.06786703-0.4742909i,-0.3173516-0.3272884i,-0.4338373-0.08365891i,-0.4024591+0.1758135i,-0.2350093+0.381266i,0.0316079+0.4645528i,0.317215+0.3720793i,0.5029724+0.1073451i,0.4836864-0.2376558i},
		{-0.8436602-0.01864071i,-0.6691002+0.5400307i,-0.1679469+0.8612669i,0.4350003+0.7856335i,0.8611677+0.3302314i,0.8977429-0.3128077i,0.4966733-0.8480365i,-0.1836349-1.000909i,-0.824765-0.6557406i,-1.087605+0.05707983i,-0.7953821+0.7912332i,-0.06003611+1.148626i,0.7443874+0.9056184i,1.175386+0.1648767i,0.9806948-0.6796356i,0.258408-1.162428i,-0.5931024-1.020087i,-1.109321-0.3438922i,-1.028014+0.4839659i,-0.4245818+1.021261i,0.3560433+1.011619i,0.9081262+0.501417i,0.9783835-0.2180192i,0.5715427-0.7822212i,-0.08214843-0.9336482i,-0.6553882-0.6281987i,-0.662085+0.5363591i,-0.1317027+0.8122609i,0.4291659+0.6638207i,0.7285391+0.1912288i,0.6267408-0.3330832i,0.2155745-0.6228899i,-0.2440863-0.5491522i,-0.4928243-0.2090126i,-0.4353222+0.1573212i,-0.179581+0.3403715i,0.06975833+0.2948704i,0.1728074+0.1364107i,0.1407329+0.01785501i,0.08698685-0.001804007i,0.1003915+0.01367992i,0.1587666-0.03520856i,0.1572633-0.169292i,0.01916752-0.2957019i,-0.2147532-0.2831034i,-0.399135-0.07957815i,-0.3889435+0.2284375i,-0.1505798+0.4641926i,0.2058248+0.4761834i,0.491192+0.2353964i,0.5478507-0.1474571i,0.3339462-0.4844068i},
		{0.1953974+0.4423908i,0.4180312+0.1895047i,0.4138296-0.1269981i,0.2146381-0.3450195i,-0.05790117-0.3758701i,-0.268414-0.2331474i,-0.3323834-0.005845232i,-0.2423937+0.1948509i,-0.05763675+0.2850311i,0.1290587+0.2383727i,0.2333224+0.09217225i,0.2173478-0.07303268i,0.1069186-0.1756359i,-0.02624916-0.1775684i,-0.1107928-0.1026805i,-0.120437-0.01320713i,-0.08308849+0.03956586i,-0.04705377+0.05067811i,-0.03447301+0.05319256i,-0.02459912+0.07536987i,0.01765606+0.1051395i,0.09586246+0.09766868i,0.164866+0.02081658i,0.1622161-0.10415i,0.06226203-0.206612i,-0.09501652-0.2149547i,-0.2562768+0.0642423i,-0.1651273+0.2219038i,0.01040022+0.2896997i,0.1983212+0.2330452i,0.3202624+0.06401274i,0.3132358-0.1618487i,0.1525432-0.3523876i,-0.1205498-0.4023572i,-0.3879163-0.2459375i,-0.4934331+0.08147984i,-0.3341856+0.424984i,0.04870371+0.5770891i,0.4581428+0.4088542i,0.6436587-0.02228122i,0.4649934-0.4797289i,0.001448654-0.6855278i,-0.4820647-0.502027i,-0.6989883-0.02837284i,-0.5233518+0.4598013i,-0.06437813+0.6850209i,0.4116586+0.5347837i,0.6487681+0.1131107i,0.5423598-0.3410111i,0.1744397-0.5978795i,-0.255146-0.5502093i,-0.5402731-0.2441097i},
		{0.03621272-1.629529i,-1.002981-1.234257i,-1.518261-0.2871914i,-1.304891+0.7300165i,-0.5208443+1.344637i,0.4291139+1.31958i,1.115819+0.7323625i,1.281611-0.1100937i,0.9171125-0.8430352i,0.214471-1.196726i,-0.5406495-1.069923i,-1.07187-0.5297236i,-1.184764+0.2247275i,-0.8196118+0.9140323i,-0.08862796+1.25498i,0.7294558+1.068424i,1.274096+0.3848121i,1.262466-0.5234057i,0.6518227-1.236989i,-0.3004858-1.391528i,-1.141145-0.8807529i,-1.449822+0.06533359i,-1.065669+0.9876409i,-0.1765928+1.43624i,0.7815803+1.203039i,1.353938+0.4184409i,0.6518281-1.209432i,-0.250416-1.328603i,-1.011495-0.8672152i,-1.315677-0.04911289i,-1.054702+0.7701482i,-0.3525313+1.252651i,0.4959304+1.205026i,1.140991+0.6462485i,1.310509-0.1995424i,0.9179973-0.9836161i,0.1082349-1.365734i,-0.7852491-1.157179i,-1.367834-0.4165048i,-1.35492+0.5525047i,-0.7142939+1.316427i,0.2936496+1.504024i,1.213317+0.9907994i,1.598982-0.01809398i,1.235873-1.062138i,0.2642403-1.636159i,-0.8681037-1.440654i,-1.614135-0.5434946i,-1.598191+0.6379405i,-0.8102413+1.534099i,0.379969+1.703851i,1.400115+1.055586i},
		{-1.831855-0.07912337i,-1.424082+1.063931i,-0.4248756+1.671085i,0.6932772+1.524632i,1.452018+0.7417071i,1.561223-0.3102426i,1.014728-1.183285i,0.06905247-1.529849i,-0.8733224-1.230834i,-1.428259-0.4305496i,-1.380446+0.5305338i,-0.7629199+1.2574i,0.1641492+1.458634i,1.022646+1.057294i,1.465295+0.2146482i,1.306282-0.7342969i,0.5918936-1.404337i,-0.4070585-1.502763i,-1.282147-0.9508067i,-1.639033+0.058504i,-1.272803+1.10589i,-0.2931167+1.706758i,0.8821806+1.539449i,1.69791+0.6311606i,1.734922-0.6165859i,0.9423577-1.606516i,-1.430713-1.217603i,-1.87533-0.01968426i,-1.451626+1.174465i,-0.3769265+1.818328i,0.8483493+1.641723i,1.685637+0.7464393i,1.78606-0.4690725i,1.113241-1.489402i,-0.05772459-1.882153i,-1.243179-1.459299i,-1.926086-0.3628258i,-1.765321+0.959754i,-0.7707592+1.912772i,0.6498122+2.013199i,1.837214+1.147654i,2.188495-0.3217492i,1.479821-1.696361i,0.01746555-2.282322i,-1.490966-1.758401i,-2.292151-0.3608067i,-1.978395+1.226824i,-0.6997188+2.221386i,0.9149518+2.137101i,2.077929+1.023253i,2.232582-0.5706175i,1.318192-1.872229i},
		{0.7633359-0.8503072i,0.03549004-1.143167i,-0.7080002-0.8902498i,-1.101804-0.2188792i,-0.9647032+0.5322762i,-0.3897269+1.001075i,0.3251692+0.9909301i,0.8486462+0.5486831i,0.975713-0.09462539i,0.6930505-0.657033i,0.1461768-0.9254825i,-0.4406645-0.8160055i,-0.844196-0.3810693i,-0.9075445+0.2128989i,-0.5939867+0.7326908i,-0.0160729+0.9568515i,0.5896786+0.7719377i,0.9553013+0.2398408i,0.9069572-0.4139617i,0.4548466-0.8990988i,-0.2070147-0.996502i,-0.7906705-0.6584008i,-1.042289-0.02506355i,-0.8464991+0.6383416i,-0.2710173+1.048095i,0.4544023+1.012354i,1.146293-0.2522068i,0.7423296-0.9516292i,-0.04327321-1.237194i,-0.8500261-0.9364792i,-1.275036-0.1646554i,-1.088181+0.7106164i,-0.3679669+1.253752i,0.5325101+1.193798i,1.173392+0.5658891i,1.255631-0.3183195i,0.7580771-1.040802i,-0.07587367-1.2799i,-0.8685047-0.9420075i,-1.273728-0.1815315i,-1.111199+0.6720499i,-0.4366097+1.242162i,0.4666112+1.255i,1.186269+0.6709631i,1.360144-0.2638848i,0.8685469-1.102956i,-0.070244-1.413668i,-0.9866014-1.018674i,-1.406287-0.1132891i,-1.117633+0.8319544i,-0.2892896+1.335143i,0.6373308+1.168428i},
		{-0.5833703-0.5471279i,-0.763953-0.0496381i,-0.5984098+0.4264877i,-0.1887295+0.6822559i,0.2738635+0.6269674i,0.5890859+0.3030517i,0.6266172-0.1350181i,0.3823613-0.48523i,-0.01573427-0.5907125i,-0.3690076-0.4198368i,-0.5144733-0.08245578i,-0.4136089+0.2380449i,-0.1614357+0.3971307i,0.09152592+0.367009i,0.2431621+0.2246372i,0.2874654+0.06787075i,0.2748018-0.06217247i,0.2330554-0.1844132i,0.1325931-0.3121585i,-0.06689467-0.3930122i,-0.3336622-0.326691i,-0.5346119-0.05838964i,-0.5071577+0.3335778i,-0.1879859+0.645242i,0.3052372+0.6646482i,0.7154747+0.3213141i,0.4592116-0.7409704i,-0.1464544-0.8960338i,-0.7230567-0.6019436i,-0.9716955+0.01767916i,-0.7474053+0.6678412i,-0.1347885+1.024293i,0.5841818+0.8901665i,1.055395+0.299374i,1.02173-0.4811892i,0.4633982-1.064169i,-0.3660679-1.131963i,-1.047491-0.6156199i,-1.211266+0.242964i,-0.7482107+1.001202i,0.1131264+1.252789i,0.9220611+0.8575848i,1.253985+0.02376431i,0.9438931-0.8096784i,0.1676464-1.216995i,-0.6677293-1.009437i,-1.147763-0.3162596i,-1.05661+0.5039856i,-0.4641551+1.054184i,0.329109+1.086125i,0.9439194+0.6029311i,1.096161-0.1545784i},
		{0.2947321-0.6268737i,-0.160474-0.6701496i,-0.5438877-0.4231538i,-0.6923308+0.01065254i,-0.5360022+0.4474046i,-0.1336003+0.6925252i,0.3407956+0.6256394i,0.6675349+0.2654652i,0.6858947-0.2258552i,0.3806263-0.6146904i,-0.103332-0.7133135i,-0.5331469-0.4773797i,-0.7078133-0.0259997i,-0.5559676+0.4249204i,-0.1601168+0.6725239i,0.2952784+0.6173765i,0.6128442+0.2948305i,0.662028-0.1522978i,0.4235467-0.5350062i,-0.005666604-0.6888277i,-0.4445934-0.5378613i,-0.6949264-0.1349497i,-0.6288753+0.3454799i,-0.2615114+0.6763116i,0.2395125+0.6888703i,0.6290628+0.3687195i,0.4543376-0.5508785i,-0.007894878-0.699553i,-0.4423765-0.5186746i,-0.6514605-0.1169965i,-0.5634453+0.3077337i,-0.2448239+0.5741169i,0.1544386+0.590423i,0.4746936+0.370341i,0.6003491+0.007790569i,0.4863017-0.3604374i,0.1686068-0.5924599i,-0.2374099-0.5845903i,-0.5647784-0.3186885i,-0.6577343+0.109882i,-0.4509773+0.5150445i,-0.01949902+0.7003425i,0.4419502+0.5611876i,0.710041+0.1489166i,0.647517-0.34624i,0.2763197-0.6876498i,-0.2312862-0.7097549i,-0.636589-0.3985183i,-0.7481652+0.1029296i,-0.5108059+0.5617527i,-0.03137851+0.7625782i,0.4682465+0.6072777i},
		{-0.04703605+1.03705i,0.6488539+0.8310175i,1.046582+0.2090462i,0.9365875-0.530617i,0.3622135-1.019147i,-0.3944877-1.008088i,-0.9556055-0.5014955i,-1.043376+0.2450067i,-0.6225103+0.8585069i,0.08743238+1.042013i,0.7321063+0.7215762i,1.005219+0.07227824i,0.7956501-0.5822467i,0.2275478-0.9356583i,-0.4160584-0.8422155i,-0.8370899-0.371381i,-0.8591997+0.2414783i,-0.4967291+0.7139423i,0.06663856+0.8449916i,0.5709217+0.5970061i,0.7986023+0.1007812i,0.6666944-0.4127351i,0.2541249-0.7199621i,-0.2439874-0.7019364i,-0.6102933-0.3881489i,-0.7009906+0.06925689i,-0.1066995+0.6644468i,0.3111914+0.5849004i,0.5951399+0.2787049i,0.6442173-0.1330499i,0.4409995-0.4977666i,0.0538535-0.6766518i,-0.3782775-0.5872574i,-0.6820516-0.2404377i,-0.7108407+0.2431723i,-0.4174087+0.6603427i,0.09884366+0.8052843i,0.6115254+0.5760763i,0.8649331+0.04890105i,0.7090796-0.5358934i,0.1950677-0.8856057i,-0.434405-0.8108968i,-0.865142-0.3354543i,-0.8780721+0.3090825i,-0.4664516+0.8037184i,0.1633104+0.9091634i,0.7038752+0.5847783i,0.904481-0.001930506i,0.6872688-0.5702677i,0.1689053-0.8657277i,-0.4092195-0.7707985i,-0.7956453-0.3420992i},
		{0.08631947+1.21863i,0.8553106+0.8695424i,1.210614+0.1068498i,0.9863962-0.6992531i,0.2975244-1.164084i,-0.5221427-1.072424i,-1.082697-0.476559i,-1.123326+0.3332585i,-0.6342676+0.9696227i,0.1411234+1.134397i,0.8270876+0.7620564i,1.101702+0.04768648i,0.853992-0.6568117i,0.2288905-1.023602i,-0.4611624-0.9077719i,-0.90209-0.3999096i,-0.9247454+0.2445837i,-0.5585706+0.7433989i,0.01471636+0.9089605i,0.5575876+0.7016163i,0.865537+0.2173062i,0.8236232-0.357124i,0.4376511-0.7989102i,-0.1548207-0.9168129i,-0.7115412-0.631577i,-0.9719545-0.03829884i,-0.2145812+0.9801871i,0.4734052+0.890744i,0.9352642+0.3703143i,0.9421548-0.3195198i,0.5051407-0.8355474i,-0.142152-0.941403i,-0.6851214-0.6205335i,-0.8945938-0.05494177i,-0.7178538+0.4936419i,-0.2637359+0.810638i,0.27491+0.7966455i,0.6989167+0.4723513i,0.8537443-0.044542i,0.6666165-0.5672348i,0.1826237-0.8835155i,-0.420653-0.8323724i,-0.879163-0.3946781i,-0.9578889+0.2614894i,-0.5838024+0.8347018i,0.09039402+1.035726i,0.7469701+0.7462123i,1.063553+0.09194563i,0.8810453-0.6170436i,0.2831017-1.043764i,-0.4506151-0.9886717i,-0.982107-0.4778165i},
		{-0.8815451-0.5951337i,-1.021309+0.06412689i,-0.7555657+0.6482464i,-0.2148342+0.9587312i,0.4029113+0.8978888i,0.8757867+0.4787667i,1.00765-0.1609335i,0.7077709-0.7707926i,0.06770874-1.069661i,-0.6386136-0.8869185i,-1.071644-0.2790483i,-1.00851+0.4734414i,-0.4738507+1.007438i,0.2720978+1.072464i,0.8788201+0.6549609i,1.084817-0.03678795i,0.824206-0.6953921i,0.2236027-1.054892i,-0.4726145-0.9799072i,-0.9920862-0.4941112i,-1.11583+0.2285895i,-0.7560426+0.9032898i,-0.01942411+1.221912i,0.7917038+0.9903554i,1.286517+0.257757i,1.181078-0.6573177i,-0.4987448-1.317768i,-1.254783-0.674697i,-1.396376+0.3156666i,-0.8474885+1.152497i,0.110957+1.418405i,0.9986031+0.9950072i,1.388844+0.1082977i,1.114901-0.8036365i,0.3312594-1.313682i,-0.5801805-1.202633i,-1.197944-0.5451297i,-1.25206+0.340267i,-0.7376528+1.044915i,0.09352959+1.257178i,0.856756+0.8994693i,1.214367+0.1533229i,1.025518-0.6361786i,0.3956369-1.124288i,-0.3884567-1.115021i,-0.9926541-0.6289933i,-1.170104+0.1228811i,-0.8472346+0.8295311i,-0.1470367+1.19357i,0.6472896+1.04121i,1.186689+0.4048826i,1.19887-0.4578612i},
		{1.211722+0.04420531i,0.9355564-0.7797138i,0.1791999-1.201613i,-0.6560012-1.01098i,-1.145252-0.3251783i,-1.063012+0.4958882i,-0.4775887+1.051098i,0.310455+1.093565i,0.9284782+0.6281626i,1.102053-0.1129105i,0.7660911-0.7854679i,0.08385154-1.085338i,-0.6276079-0.8800963i,-1.038848-0.2693781i,-0.9607641+0.4578i,-0.4368578+0.9584717i,0.2773353+1.002428i,0.8426015+0.583107i,1.004044-0.08761897i,0.7074621-0.6936094i,0.1080735-0.968834i,-0.5182611-0.810055i,-0.9028823-0.3034786i,-0.8901409+0.3269077i,-0.4893107+0.8131886i,0.1316999+0.9451061i,0.9705282+0.05561227i,0.7875586-0.5849923i,0.22561-0.9612824i,-0.4526885-0.8799211i,-0.9133115-0.3722862i,-0.9264712+0.3099524i,-0.4929957+0.8254349i,0.158256+0.9268202i,0.7005446+0.587387i,0.8846789-0.001034285i,0.6557739-0.5457368i,0.1554625-0.8063495i,-0.3712774-0.6975928i,-0.6987537-0.3023588i,-0.7105542+0.188698i,-0.4294134+0.5676809i,0.008611319+0.6908399i,0.4168503+0.5269998i,0.634322+0.1610657i,0.5881901-0.248087i,0.3159281-0.5384025i,-0.06251822-0.6102682i,-0.4038282-0.4547064i,-0.5951635-0.1376744i,-0.5778716+0.2358187i,-0.3476163+0.5486484i},
		{0.5073915+0.6757746i,0.8401046+0.2169678i,0.8130306-0.3660496i,0.4151632-0.8178493i,-0.1978346-0.9233253i,-0.7588426-0.6082671i,-1.001262+0.0117737i,-0.7859874+0.6654833i,-0.1835092+1.041318i,0.5398094+0.9389836i,1.039019+0.3806907i,1.060186-0.3840113i,0.5739618-0.9922464i,-0.2013775-1.145546i,-0.902217-0.7585726i,-1.194013-0.002730342i,-0.9299686+0.7737799i,-0.2203149+1.206798i,0.6148725+1.082927i,1.18622+0.4409061i,1.211105-0.4352612i,0.6525238-1.134554i,-0.2449299-1.307271i,-1.053315-0.8432371i,-1.364235+0.05259235i,-1.0029+0.9432265i,0.8048875+1.124566i,1.340384+0.3143003i,1.205163-0.6398957i,0.4819995-1.257653i,-0.4520093-1.245258i,-1.133128-0.6361105i,-1.247999+0.2478953i,-0.7735963+0.9753343i,0.03713265+1.217605i,0.7948439+0.8897999i,1.157899+0.168629i,0.978411-0.6025251i,0.3571792-1.071359i,-0.4079349-1.032271i,-0.9589725-0.5175314i,-1.044803+0.2182902i,-0.6414917+0.8209158i,0.03827161+1.011636i,0.6578023+0.7245817i,0.9319313+0.1293613i,0.7660882-0.4720496i,0.2826187-0.8089765i,-0.2688735-0.7682797i,-0.6498764-0.419038i,-0.7350909+0.05654155i,-0.5348139+0.464419i},
		{0.01016979-0.5581824i,-0.3351804-0.3999171i,-0.4741816-0.08297075i,-0.3849821+0.2126576i,-0.1622731+0.3664193i,0.07302105+0.361293i,0.2460976+0.2459175i,0.334055+0.07277437i,0.3281084-0.1242928i,0.2124067-0.3053888i,-0.009935649-0.4006363i,-0.2743359-0.3345195i,-0.4548282-0.09135943i,-0.4306504+0.2378879i,-0.1773813+0.4836147i,0.1926224+0.4962578i,0.4830878+0.2484467i,0.5306562-0.1363556i,0.3059759-0.4531155i,-0.06925022-0.5360162i,-0.3968977-0.3510796i,-0.5158729-0.005968653i,-0.383663+0.3197057i,-0.08470759+0.4737098i,0.2273021+0.4023336i,0.4121096+0.1618031i,0.2329091-0.3327222i,-0.01516942-0.3904027i,-0.2369713-0.2954437i,-0.3583879-0.09872594i,-0.3487437+0.127133i,-0.2149451+0.3112755i,0.007267907+0.3933853i,0.2532205+0.330397i,0.4299583+0.1164603i,0.4401549-0.1892931i,0.2363186-0.4577987i,-0.1240463-0.5373648i,-0.4742236-0.3443034i,-0.6140896+0.0601691i,-0.4338127+0.4746461i,-0.002255165+0.6629019i,0.4536372+0.501129i,0.6787449+0.06555566i,0.5461801-0.4066599i,0.1333302-0.6604451i,-0.3319377-0.5722607i,-0.6113395-0.2086708i,-0.5847394+0.2318316i,-0.2923188+0.5387419i,0.1132207+0.5891159i,0.4523362+0.3813709i},
		{0.5102845-0.6739097i,-0.04484138-0.8448672i,-0.5761495-0.6198283i,-0.8403556-0.1107205i,-0.7235183+0.4495483i,-0.2788+0.8136782i,0.303225+0.818988i,0.7695471+0.4500731i,0.9020481-0.1475624i,0.6135451-0.7117808i,0.007235772-0.9668598i,-0.6426316-0.7578994i,-1.0067-0.1524789i,-0.8730361+0.562679i,-0.281918+1.015162i,0.4713036+0.9514596i,0.9875045+0.3920815i,0.9892048-0.3675858i,0.4819937-0.9217986i,-0.2513538-0.9861112i,-0.8195895-0.5524144i,-0.9454222+0.1240689i,-0.6048527+0.6859038i,-0.01070284+0.8728597i,0.5286255+0.6406474i,0.7754411+0.1473553i,0.2788036-0.6603441i,-0.1824796-0.6635573i,-0.5340697-0.397371i,-0.6491113+0.0134161i,-0.4957585+0.4020321i,-0.1415445+0.615647i,0.2685622+0.5678666i,0.5621767+0.2759194i,0.6093174-0.1371914i,0.3849696-0.4885899i,-0.01102258-0.617637i,-0.3959208-0.4654801i,-0.5921695-0.1069903i,-0.5155053+0.2863587i,-0.2139596+0.5338551i,0.1630673+0.5342194i,0.4450171+0.3071792i,0.5219284-0.02993513i,0.3843476-0.3292524i,0.1086186-0.4801948i,-0.1914338-0.4437598i,-0.4119523-0.2477098i,-0.4843465+0.03774947i,-0.3819373+0.3214676i,-0.1243533+0.505506i,0.2140466+0.5053085i},
		{-0.5340018-1.001708i,-1.067494-0.3981596i,-1.063068+0.4122072i,-0.5165212+1.012619i,0.2890587+1.090664i,0.9321144+0.6110681i,1.083008-0.1647161i,0.6817605-0.8264347i,-0.04000671-1.042059i,-0.699096-0.7299279i,-0.9724411-0.08263448i,-0.757056+0.5564045i,-0.1988309+0.8802202i,0.4065261+0.7638871i,0.7716426+0.3026369i,0.7501119-0.2582018i,0.387487-0.6522229i,-0.1194964-0.7147121i,-0.5264052-0.4474061i,-0.6567819-0.003070971i,-0.4780967+0.3978046i,-0.104831+0.5764901i,0.2698245+0.4775786i,0.4758058+0.1827263i,0.446227-0.1463105i,0.2347479-0.3587032i,-0.2307593-0.2593597i,-0.3009782-0.06806725i,-0.2552022+0.0982799i,-0.1483039+0.1939131i,-0.03274132+0.2212329i,0.06846499+0.2044202i,0.1572729+0.1574693i,0.233905+0.07210462i,0.2725933-0.06474886i,0.2242023-0.2366784i,0.05268027-0.376103i,-0.2150633-0.3832366i,-0.4665831-0.1889123i,-0.5430727+0.173133i,-0.3357886+0.5423131i,0.1156125+0.6959168i,0.6005411+0.4840686i,0.8328033-0.04666711i,0.6247832-0.6372529i,0.03103279-0.9446615i,-0.6476012-0.7506139i,-1.023725-0.116662i,-0.8569115+0.6269323i,-0.2108719+1.064913i,0.5721396+0.9420509i,1.066768+0.3148013i},
		{-0.598672+0.5773907i,-0.06072778+0.8677955i,0.5604662+0.7106834i,0.9240131+0.1512246i,0.8048437-0.5283264i,0.2389857-0.9543675i,-0.4788064-0.876934i,-0.955313-0.3230891i,-0.9248586+0.4105278i,-0.4033101+0.9255649i,0.3234993+0.9485094i,0.8662691+0.4795684i,0.9493827-0.219512i,0.551414-0.7808562i,-0.102253-0.9300608i,-0.6746327-0.617673i,-0.89368-0.02288304i,-0.676327+0.5541973i,-0.1492435+0.8434874i,0.426788+0.7246379i,0.7825467+0.2695411i,0.759468-0.2996587i,0.3765373-0.7135965i,-0.1795471-0.7776998i,-0.6390194-0.4636801i,-0.7766507+0.07226279i,-0.01761392+0.7544045i,0.4808454+0.5586017i,0.7100345+0.08693946i,0.5606698-0.4003859i,0.1341277-0.6437412i,-0.3206103-0.5318326i,-0.5569488-0.159164i,-0.474072+0.2424635i,-0.1634755+0.4523932i,0.166917+0.3912515i,0.3341852+0.1496268i,0.2888611-0.0952679i,0.120847-0.2077905i,-0.0294538-0.1735717i,-0.07984537-0.08045069i,-0.05261003-0.02773413i,-0.03126366-0.04225065i,-0.07265326-0.06698071i,-0.1509669-0.02481233i,-0.1790772+0.1010928i,-0.086982+0.2394248i,0.1088268+0.2790706i,0.3021989+0.1554273i,0.364197-0.09234561i,0.2308844-0.3359774i,-0.0496135-0.433533i},
		{-0.4261403+0.2180116i,-0.1294893+0.4612354i,0.251923+0.409741i,0.4753444+0.09356561i,0.3953129-0.2885676i,0.05742914-0.4924163i,-0.326777-0.3826889i,-0.5111015-0.02197188i,-0.3715413+0.3645155i,0.01118384+0.5295377i,0.3989701+0.3620116i,0.5459911-0.03948575i,0.3551987-0.4270671i,-0.05970967-0.5595655i,-0.4462661-0.3532601i,-0.5706889+0.06865128i,-0.3590151+0.4553571i,0.06405609+0.5811531i,0.4549646+0.3751233i,0.5936283-0.04548211i,0.4030774-0.4475416i,-0.01478191-0.6107658i,-0.4367962-0.4423444i,-0.6341519-0.02400853i,-0.4899715+0.426685i,-0.06540807+0.6634567i,0.696078+0.1036894i,0.5885919-0.418694i,0.1342155-0.7274438i,-0.4208758-0.6269249i,-0.7519387-0.1545309i,-0.6510494+0.4235994i,-0.1648806+0.764222i,0.4224489+0.6587574i,0.7605771+0.1679952i,0.6508802-0.4130631i,0.168195-0.7399065i,-0.3924422-0.6309706i,-0.7040845-0.1700728i,-0.604307+0.3599138i,-0.1771416+0.6575631i,0.3174732+0.5765117i,0.6063483+0.1908394i,0.552181-0.2694051i,0.2101693-0.5566424i,-0.2213083-0.533909i,-0.513541-0.2320491i,-0.5219551+0.1788224i,-0.2522317+0.4801399i,0.1464318+0.5145963i,0.4572645+0.2664839i,0.5089952-0.1266795i},
		{-0.3511086-0.9464314i,-0.9267347-0.5171034i,-1.086576+0.2248636i,-0.6967742+0.9184312i,0.08517292+1.18667i,0.8695055+0.8552929i,1.240693+0.06873045i,0.9907505-0.7769647i,0.2371144-1.247799i,-0.6424994-1.103831i,-1.211948-0.4178686i,-1.195977+0.4729653i,-0.6052594+1.140443i,0.2795939+1.267566i,1.041853+0.789795i,1.316744-0.07613181i,0.959319-0.9239759i,0.1235638-1.339323i,-0.792462-1.101056i,-1.329786-0.3077886i,-1.20402+0.6504665i,-0.4684878+1.283074i,0.4993574+1.261068i,1.196536+0.6016223i,1.270009-0.3401358i,0.70641-1.071402i,-0.9132552-0.7838094i,-1.157665+0.008484613i,-0.8348394+0.7313587i,-0.1523541+1.050408i,0.5370417+0.8593487i,0.9192469+0.2986501i,0.8556625-0.3416642i,0.4212704-0.7701226i,-0.1548028-0.8212026i,-0.6070455-0.5125892i,-0.7538209-0.01680174i,-0.567942+0.4327738i,-0.1692694+0.6533294i,0.250142+0.586282i,0.5226385+0.3006746i,0.5698423-0.06346676i,0.4096197-0.3680466i,0.1205665-0.5229458i,-0.198526-0.4938753i,-0.4503952-0.2929419i,-0.549638+0.02419694i,-0.4433559+0.3560226i,-0.1455279+0.5717369i,0.2419156+0.5619797i,0.5547786+0.3035245i,0.6413959-0.1086052i},
		{0.706919-1.683671i,-0.4744634-1.792579i,-1.501619-1.152876i,-1.943072+0.009697288i,-1.572405+1.242171i,-0.4802361+2.017939i,0.9179766+1.947055i,2.013755+0.973019i,2.259162-0.5429356i,1.446638-1.928725i,-0.1316187-2.492997i,-1.763116-1.880513i,-2.635804-0.3011547i,-2.256439+1.519679i,-0.7406337+2.678678i,1.204005+2.559335i,2.617248+1.172406i,2.777846-0.8247403i,1.582657-2.452146i,-0.3936606-2.904774i,-2.189237-1.958438i,-2.937334-0.07444958i,-2.287908+1.839573i,-0.5621117+2.877161i,1.418988+2.560546i,2.730022+1.049691i,1.516174-2.505199i,-0.4472405-2.900625i,-2.214578-1.940179i,-2.954661-0.05728487i,-2.301182+1.871566i,-0.5426809+2.925275i,1.490007+2.58089i,2.810392+0.9874744i,2.764637-1.083315i,1.373741-2.610454i,-0.663983-2.842651i,-2.329028-1.68809i,-2.810989+0.243548i,-1.922037+1.973436i,-0.1670451+2.671988i,1.555215+2.071754i,2.434093+0.5568566i,2.137297-1.090199i,0.9143965-2.111058i,-0.5980704-2.121528i,-1.720627-1.227352i,-2.029004+0.1013241i,-1.482782+1.282881i,-0.3762625+1.865086i,0.8185366+1.667824i,1.635458+0.8114514i},
		{-0.775415-0.1417128i,-0.6767377+0.3807756i,-0.2735277+0.7103336i,0.2327521+0.7053425i,0.6071809+0.3909912i,0.6974048-0.0697449i,0.4925338-0.4699099i,0.103627-0.6558038i,-0.3051178-0.5770724i,-0.5852368-0.2810698i,-0.6432564+0.1215681i,-0.4546414+0.4912213i,-0.07074607+0.6889139i,0.3790634+0.6152685i,0.7109196+0.2617886i,0.7536859-0.2530922i,0.4426285-0.7055756i,-0.1163792-0.8615937i,-0.6694315-0.6062623i,-0.932751-0.02899013i,-0.7479264+0.6003264i,-0.1812047+0.9637387i,0.4983553+0.864871i,0.954216+0.3378296i,0.9557304-0.3664726i,0.4950389-0.9066386i,-0.8255532-0.6472557i,-1.056078+0.03882484i,-0.7873464+0.7166858i,-0.139039+1.063551i,0.5860786+0.9073454i,1.040716+0.3131878i,0.9995263-0.4394826i,0.4746659-0.9863842i,-0.2821167-1.057535i,-0.9003223-0.6162044i,-1.077297+0.1187756i,-0.7325511+0.7839232i,-0.04584393+1.057479i,0.6406085+0.8203593i,0.9994472+0.206792i,0.8777841-0.4758335i,0.3586809-0.906781i,-0.2966773-0.9040022i,-0.7845567-0.4957877i,-0.8988651+0.1111316i,-0.612455+0.6386297i,-0.07271135+0.862817i,0.4751258+0.7036828i,0.7970785+0.2473529i,0.7657266-0.3002381i,0.4062976-0.7039793i},
