/*
 * LS_includes.h
 *
 *  Created on: 05-Mar-2022
 *      Author: Ranjith Srinivas
 */

#include "complex.h"

// Number of used sub-carriers in one OFDM symbol
#define NUM_USED_SUB_CARRIERS 52
#define nUSC NUM_USED_SUB_CARRIERS
#define SYMBOLS_USED 200


typedef float complex flt_cmplx;

//Actual Channel Data
const flt_cmplx Act_Channel_weight_25dB[SYMBOLS_USED][nUSC] = {{0.5581574-0.765716i,-0.03643849-0.9540985i,-0.6310296-0.7337235i,-0.9682748-0.17879i,-0.8795218+0.4825837i,-0.37711+0.9489721i,0.3238003+0.9844912i,0.8910463+0.5502378i,1.041131-0.1559993i,0.6939199-0.791394i,0.0200661-1.046697i,-0.6506272-0.8071413i,-1.003218-0.2024232i,-0.8905545+0.4738493i,-0.3865043+0.9164222i,0.2702754+0.9447437i,0.7939585+0.5647002i,0.9689728-0.0518153i,0.7270425-0.6435608i,0.1689341-0.9608766i,-0.4717457-0.8628302i,-0.9172087-0.3806592i,-0.9626926+0.2834403i,-0.5746759+0.8353717i,0.0825775+1.020427i,0.7151647+0.7452943i,0.8892003-0.5600873i,0.3385335-1.005598i,-0.3776819-1.004196i,-0.9402047-0.5449098i,-1.087865+0.1787238i,-0.7354227+0.8441308i,-0.02453398+1.136734i,0.7231301+0.8986019i,1.146327+0.2205244i,1.023748-0.5813137i,0.4002574-1.112152i,-0.4210363-1.10297i,-1.031313-0.5583509i,-1.132737+0.2437912i,-0.6929043+0.904205i,0.05175063+1.11444i,0.7356449+0.8043113i,1.053755+0.1506531i,0.8934635-0.5349956i,0.3557424-0.959004i,-0.3151206-0.9599997i,-0.8389975-0.5526556i,-1.00124+0.09040332i,-0.7285557+0.7010503i,-0.1256325+1.01221i,0.5497697+0.8707054i},
		{-0.4627674+0.8992153i,0.2021668+0.9713144i,0.7533153+0.6195874i,0.9615726+0.01273199i,0.7508606-0.5837131i,0.2203171-0.9170757i,-0.3987576-0.8480405i,-0.8371476-0.4090364i,-0.9027997+0.2052063i,-0.5695571+0.7204663i,0.007600646+0.9088883i,0.5663396+0.6962078i,0.8639562+0.1913347i,0.7874619-0.3764293i,0.3894183-0.7707074i,-0.1562928-0.8452887i,-0.6369311-0.5833392i,-0.8735762-0.08388747i,-0.7672315+0.4742925i,-0.3297854+0.8761402i,0.2961602+0.9320921i,0.8549863+0.5646521i,1.066376-0.1150625i,0.771896-0.8094147i,0.05950335-1.15772i,-0.7362929-0.9378495i,-1.053961+0.6314395i,-0.3721531+1.172636i,0.4916995+1.117805i,1.088617+0.5108098i,1.132651-0.3170539i,0.6406406-0.9487635i,-0.1120844-1.105763i,-0.7639999-0.7625514i,-1.045967-0.113704i,-0.8744155+0.548719i,-0.3468462+0.9612401i,0.3181862+0.9706558i,0.8570188+0.5719261i,1.043092-0.08608354i,0.7740716-0.7356785i,0.1371601-1.082773i,-0.5972481-0.9412422i,-1.082218-0.3448778i,-1.065701+0.4410174i,-0.5335132+1.03736i,0.2674288+1.144336i,0.9486185+0.7011801i,1.177869-0.07957884i,0.8460273-0.8208104i,0.116185-1.169352i,-0.6620194-0.9650353i},
		{0.2328382+1.718469i,1.236784+1.150799i,1.642273+0.1090365i,1.312405-0.9236752i,0.43489-1.505663i,-0.586444-1.416983i,-1.314926-0.7302933i,-1.45925+0.2398058i,-0.9817131+1.077006i,-0.1022591+1.435352i,0.799284+1.177758i,1.343688+0.4273273i,1.310185-0.4897737i,0.7248434-1.185718i,-0.1575833-1.374439i,-0.9665021-0.9859506i,-1.369633-0.1866178i,-1.203028+0.6947569i,-0.5303959+1.298029i,0.3823626+1.369217i,1.164251+0.8598137i,1.478198-0.04340248i,1.160211-0.9744741i,0.3070568-1.524399i,-0.7358499-1.417392i,-1.503639-0.6541734i,-0.984282+1.414035i,0.1446276+1.755632i,1.256913+1.285435i,1.821793+0.1891129i,1.547522-1.037395i,0.5333822-1.815932i,-0.7644442-1.762086i,-1.740149-0.8751378i,-1.92205+0.4502996i,-1.200273+1.599419i,0.10939+2.021569i,1.40069+1.494486i,2.056164+0.2430058i,1.744444-1.152135i,0.5920419-2.023159i,-0.8627395-1.938987i,-1.922321-0.9242529i,-2.070096+0.5422623i,-1.228012+1.756475i,0.2014482+2.133398i,1.531846+1.493515i,2.128129+0.1477337i,1.71246-1.257965i,0.4920776-2.056616i,-0.9470541-1.877686i,-1.923472-0.8175271i},
		{-0.1795391+1.192922i,0.6329337+1.040976i,1.164959+0.3931312i,1.151635-0.4556015i,0.584685-1.097902i,-0.2680652-1.215492i,-0.9898985-0.7473676i,-1.228506+0.07361587i,-0.8775031+0.842037i,-0.1239933+1.191051i,0.6591677+0.9737084i,1.107428+0.3194942i,1.035695-0.4498387i,0.5056395-0.9846501i,-0.2253307-1.063207i,-0.8309124-0.6735542i,-1.05549-0.001943326i,-0.8138434+0.6542206i,-0.220212+1.011466i,0.4615736+0.9181305i,0.9305177+0.4197862i,0.9805435-0.258871i,0.5937796-0.813573i,-0.05145707-0.9986697i,-0.6640298-0.7379735i,-0.9736792-0.155018i,-0.3538463+0.9095915i,0.2946308+0.9281006i,0.8119568+0.5370083i,0.9703608-0.09362663i,0.6956162-0.6864188i,0.104831-0.9741497i,-0.5376595-0.8209935i,-0.9366273-0.2922027i,-0.9060831+0.3690843i,-0.4623715+0.8557944i,0.183331+0.9467342i,0.7318442+0.6117843i,0.9424322+0.01661737i,0.7388008-0.5682902i,0.2261583-0.8962095i,-0.3724193-0.842511i,-0.8137396-0.4381545i,-0.9214655+0.1548292i,-0.6427845+0.7018912i,-0.07188984+0.9728019i,0.5672009+0.8283232i,0.9921235+0.294985i,0.9827042-0.4147525i,0.5033687-0.9742362i,-0.2478163-1.095458i,-0.9145631-0.6889272i},
		{0.7437036+0.4656093i,0.8279333-0.1095388i,0.5410379-0.5760748i,0.05733412-0.7412068i,-0.385798-0.5789769i,-0.6135852-0.2129025i,-0.5816008+0.1769279i,-0.3561783+0.4518144i,-0.04329878+0.5545284i,0.2671495+0.4853542i,0.5049205+0.2635725i,0.5960034-0.07393659i,0.4689528-0.4390266i,0.1129337-0.6802108i,-0.3600275-0.6427646i,-0.7271467-0.2809976i,-0.769558+0.266971i,-0.4227094+0.7251136i,0.1552652+0.8383331i,0.664577+0.5366482i,0.8450718-0.01868628i,0.627006-0.5413085i,0.1476549-0.7937672i,-0.3586591-0.701452i,-0.6955569-0.344294i,-0.7679796+0.1281827i,-0.1317079+0.8316783i,0.4220579+0.7979305i,0.8924203+0.3987957i,1.023925-0.2771693i,0.6510528-0.9441925i,-0.1398154-1.222766i,-0.9763112-0.8705168i,-1.375467+0.01194167i,-1.046021+0.9761885i,-0.1099363+1.468214i,0.9328421+1.174099i,1.494776+0.2321921i,1.257932-0.840117i,0.3608316-1.457076i,-0.6986868-1.304785i,-1.363883-0.4985529i,-1.322812+0.5162882i,-0.6430186+1.228118i,0.3061957+1.318246i,1.063663+0.7868124i,1.293788-0.08447941i,0.9189982-0.8826269i,0.1330773-1.248587i,-0.6938214-1.027691i,-1.179631-0.333479i,-1.102759+0.5027234i},
		{-0.683067+0.3155435i,-0.3014867+0.6704004i,0.2009674+0.6836616i,0.5722502+0.3796379i,0.6563321-0.06711873i,0.4523702-0.4446353i,0.08054941-0.6077991i,-0.2975412-0.5194539i,-0.5446881-0.2332204i,-0.5779407+0.1423269i,-0.3798686+0.4719391i,-0.01027597+0.6223398i,0.3919144+0.5090816i,0.6457134+0.1518686i,0.6110618-0.3044536i,0.2773424-0.6413833i,-0.207828-0.6792632i,-0.6047518-0.3848691i,-0.7112324+0.1002635i,-0.4750039+0.5346964i,-0.0184783+0.7084639i,0.4341339+0.549256i,0.6753827+0.1459805i,0.6086284-0.3096012i,0.2768789-0.6178209i,-0.1700062-0.6526177i,-0.6789885+0.02494777i,-0.5171573+0.4509085i,-0.1168851+0.6843609i,0.3490837+0.6098713i,0.6653693+0.2487844i,0.6756814-0.2379209i,0.3663194-0.6199639i,-0.1191389-0.7114689i,-0.5483882-0.4668939i,-0.7169198-0.004743942i,-0.5488508+0.4534994i,-0.1297731+0.6937995i,0.3403351+0.610552i,0.644868+0.2505471i,0.6498362-0.2151001i,0.3608708-0.5728765i,-0.08394434-0.6640953i,-0.4800254-0.454857i,-0.650954-0.04803493i,-0.5280894+0.3680719i,-0.1772267+0.6092975i,0.2390125+0.5784302i,0.5402424+0.3012482i,0.6061707-0.09604094i,0.4181262-0.4476437i,0.05564442-0.6134544i},
		{0.2519736+0.9364816i,0.7928222+0.5226461i,0.916477-0.1317555i,0.5803663-0.6856872i,-0.0194645-0.866449i,-0.5637158-0.6104825i,-0.7870774-0.08296041i,-0.6133307+0.4294244i,-0.1741104+0.6817318i,0.2871839+0.5911058i,0.5561587+0.252084i,0.5467509-0.1433922i,0.3137938-0.4175209i,-0.005922709-0.4828432i,-0.2731026-0.3549196i,-0.4009034-0.1170268i,-0.3705933+0.1291091i,-0.2183457+0.3013979i,-0.01004322+0.3566385i,0.1844528+0.2932451i,0.3109713+0.1417264i,0.339924-0.05103312i,0.2644165-0.2346916i,0.09584704-0.3594538i,-0.1324621-0.3765956i,-0.3549204-0.2503577i,-0.4038832+0.3301049i,-0.1173162+0.5573139i,0.2881398+0.5459542i,0.6156067+0.2460906i,0.6658908-0.2305915i,0.3667511-0.6439011i,-0.1572851-0.7547214i,-0.636318-0.4746251i,-0.806833+0.06693991i,-0.568196+0.5893736i,-0.04158843+0.8208711i,0.5032566+0.6484057i,0.7996328+0.16788i,0.7172794-0.3823377i,0.3088337-0.7490005i,-0.2347191-0.7763495i,-0.6762572-0.458271i,-0.8254143+0.07092407i,-0.6074401+0.588303i,-0.09791167+0.8620476i,0.4903058+0.7463122i,0.8820136+0.2618393i,0.8653007-0.3851567i,0.4133923-0.8804398i,-0.2738256-0.9569032i,-0.8533494-0.5480594i},
		{0.7564866+0.6746951i,1.032725-0.003620541i,0.7733682-0.7056261i,0.09652634-1.050552i,-0.6393797-0.84052i,-1.0332-0.1851183i,-0.8741102+0.5553327i,-0.2633614+0.9793741i,0.452738+0.8759115i,0.8918599+0.3332134i,0.8505147-0.3337343i,0.3958191-0.7771767i,-0.203769-0.8037316i,-0.6443281-0.4503434i,-0.7409151+0.07105632i,-0.493599+0.5030277i,-0.05479233+0.6657228i,0.3619282+0.5206004i,0.5796935+0.1645615i,0.5258672-0.227369i,0.2511171-0.4827265i,-0.1029746-0.5050566i,-0.3742552-0.3104932i,-0.4563936-0.009849238i,-0.3420893+0.2546705i,-0.1107718+0.3814414i,0.2849665+0.1992007i,0.3316353+0.0052423i,0.2732595-0.1739575i,0.1332452-0.296485i,-0.0561255-0.329462i,-0.244886-0.2493051i,-0.3632142-0.0616208i,-0.3457836+0.1777749i,-0.1742421+0.3699779i,0.09512824+0.4170843i,0.3466929+0.2788641i,0.4605312+0.002986381i,0.374266-0.2929582i,0.11519-0.4764065i,-0.2115476-0.4598128i,-0.4671755-0.2378884i,-0.534273+0.1080629i,-0.3650661+0.4362046i,-0.01018212+0.5950065i,0.3864433+0.4889188i,0.6378671+0.1356875i,0.6011681-0.3195524i,0.2622071-0.6579101i,-0.2357886-0.6946618i,-0.6507012-0.3856328i,-0.7647489+0.1346914i},
		{-1.81979+0.3339537i,-1.177644+1.426437i,0.01850137+1.849762i,1.207711+1.400646i,1.824657+0.2871769i,1.57148-0.9600893i,0.5706868-1.740362i,-0.6887231-1.680626i,-1.595354-0.8237429i,-1.724015+0.3984588i,-1.041758+1.392673i,0.09571546+1.703444i,1.141006+1.222294i,1.625524+0.209877i,1.36301-0.8543696i,0.5048172-1.499534i,-0.5503678-1.459946i,-1.334866-0.7724785i,-1.506833+0.2474392i,-0.9952114+1.138935i,-0.03810916+1.495821i,0.9162281+1.157277i,1.41947+0.2944161i,1.247778-0.6688151i,0.5150514-1.273418i,-0.3981092-1.26269i,-1.20539+0.1072508i,-0.8458541+0.7839989i,-0.1967602+1.085478i,0.4638491+0.9590508i,0.9162674+0.5019928i,1.037795-0.1184523i,0.7920558-0.7117058i,0.2301757-1.078715i,-0.4836462-1.0481i,-1.075549-0.5614578i,-1.25184+0.2402735i,-0.8591149+1.020849i,-0.01391516+1.388755i,0.9085879+1.112716i,1.450552+0.2766909i,1.317589-0.7368188i,0.5458174-1.436216i,-0.5095161-1.473285i,-1.351399-0.8167768i,-1.581234+0.2369847i,-1.081334+1.206418i,-0.06532089+1.642453i,1.013554+1.327486i,1.656115+0.3792178i,1.540858-0.7845235i,0.6867245-1.619438i},
		{-0.1991441+0.7170178i,0.2632543+0.694365i,0.6365418+0.40916i,0.7819504-0.06078963i,0.6049711-0.5556301i,0.1246715-0.8541225i,-0.476203-0.7693645i,-0.8989682-0.281873i,-0.8875439+0.3955348i,-0.4052816+0.9043319i,0.3074515+0.9498879i,0.860772+0.495453i,0.953724-0.2046733i,0.557888-0.7642201i,-0.08165708-0.9036206i,-0.6175905-0.6007012i,-0.8101087-0.06288064i,-0.6317733+0.43086i,-0.2245046+0.6871818i,0.2195603+0.6562028i,0.5492594+0.3931049i,0.6747676-0.002074174i,0.5544445-0.4084218i,0.2035571-0.6837883i,-0.2726073-0.6927794i,-0.6763569-0.3825002i,-0.5249947+0.6444979i,0.02556864+0.84732i,0.5815867+0.626871i,0.8484749+0.0886322i,0.6887835-0.4843242i,0.2000529-0.7982156i,-0.3537601-0.7145749i,-0.7021781-0.3097312i,-0.7093868+0.1951852i,-0.4163336+0.56901i,0.01706994+0.6781169i,0.4085429+0.5162845i,0.6246239+0.1705103i,0.6046545-0.2303826i,0.3574164-0.5517649i,-0.04323267-0.6763835i,-0.4620418-0.5345023i,-0.727347-0.1450485i,-0.6939678+0.3584223i,-0.3269427+0.7548826i,0.2448734+0.8290934i,0.7576454+0.4947634i,0.9336867-0.126294i,0.6405659-0.7349488i,-0.007805396-1.001688i,-0.6859761-0.7567052i},
		{0.3167732-0.2718002i,0.07034841-0.4210536i,-0.2236161-0.3747456i,-0.4221464-0.1408862i,-0.4171744+0.1739096i,-0.1999338+0.4103174i,0.1234397+0.44083i,0.3838105+0.245391i,0.4436612-0.0719746i,0.2768288-0.3413286i,-0.01865859-0.4254007i,-0.2827613-0.2954376i,-0.3878656-0.03729003i,-0.3035263+0.2098051i,-0.09575445+0.3348045i,0.1262423+0.3036899i,0.2712838+0.1550446i,0.2978897-0.03772655i,0.2116262-0.2027489i,0.04892951-0.2867341i,-0.1340077-0.260401i,-0.269204-0.1268211i,-0.295521+0.06841849i,-0.1901113+0.2429375i,0.007506732+0.3115522i,0.2050139+0.2349869i,0.260163-0.153021i,0.1020015-0.2736816i,-0.08609837-0.2668135i,-0.2202428-0.1532377i,-0.2579671+0.005649752i,-0.203285+0.1487889i,-0.08448645+0.2375519i,0.06562468+0.2514749i,0.2093676+0.1784621i,0.295595+0.02222045i,0.2693252-0.1762674i,0.1081863-0.3321943i,-0.1397557-0.3501615i,-0.3572825-0.1871057i,-0.4151737+0.1000708i,-0.2556571+0.3672119i,0.0566716+0.4604366i,0.3594881+0.3123009i,0.4841772-0.008926803i,0.3568095-0.3332852i,0.04324161-0.4865782i,-0.2895493-0.3896123i,-0.4692421-0.09897159i,-0.4112052+0.2307056i,-0.1564373+0.4345378i,0.1601063+0.4218186i},
		{-0.2908325-1.327758i,-1.056525-0.8084668i,-1.301636+0.05742076i,-0.9462156+0.8598086i,-0.1780285+1.24545i,0.6476092+1.059457i,1.161981+0.3986033i,1.137234-0.4325711i,0.588569-1.050911i,-0.2235434-1.168455i,-0.9097868-0.7360429i,-1.144613+0.02506899i,-0.8347153+0.736039i,-0.1617314+1.062147i,0.5293701+0.8841699i,0.9237616+0.3372564i,0.8887829-0.2937162i,0.501194-0.7382845i,-0.03810683-0.8556195i,-0.5191156-0.6507472i,-0.7920353-0.2239013i,-0.7799304+0.2817456i,-0.4760861+0.7037446i,0.04107398+0.8801805i,0.5939255+0.7021801i,0.942082+0.190707i,0.4051251-0.957639i,-0.3127536-1.025736i,-0.922356-0.5971826i,-1.109769+0.1425576i,-0.7641211+0.8364673i,-0.04353753+1.140885i,0.7049549+0.9037769i,1.122311+0.2388798i,1.013208-0.5364003i,0.4340655-1.058354i,-0.3410984-1.088141i,-0.9529532-0.6183382i,-1.123455+0.129086i,-0.7815176+0.8091129i,-0.09126841+1.114535i,0.629374+0.9158114i,1.058995+0.3136896i,1.016907-0.4170657i,0.5333804-0.9581033i,-0.1777859-1.083995i,-0.817366-0.7456965i,-1.118737-0.07954907i,-0.9447048+0.6459566i,-0.3426127+1.123601i,0.4551234+1.122277i,1.10016+0.5967336i},
		{0.5277785-0.1989433i,0.2648114-0.5445557i,-0.1956128-0.6098465i,-0.5876613-0.3170779i,-0.6617169+0.1839339i,-0.3559177+0.5998195i,0.1561207+0.6823959i,0.5773159+0.3873614i,0.6758739-0.1067416i,0.4180817-0.5218499i,-0.03450987-0.6494696i,-0.4399384-0.4530474i,-0.6114951-0.05711836i,-0.4938768+0.3411646i,-0.1606683+0.5689718i,0.2358473+0.5383494i,0.5260727+0.2664122i,0.5811544-0.1328499i,0.364589-0.4836946i,-0.03815672-0.6155561i,-0.4401822-0.4473864i,-0.6353859-0.04544413i,-0.5101117+0.3928444i,-0.1176166+0.6366949i,0.3396627+0.5512876i,0.6185597+0.1790734i,0.2301127-0.5828488i,-0.2178142-0.5734282i,-0.5331367-0.2696788i,-0.5576788+0.1554411i,-0.2953014+0.4732422i,0.09793656+0.5249085i,0.4059862+0.3039209i,0.4745584-0.04877896i,0.2932563-0.3326555i,-0.009358812-0.4060951i,-0.253379-0.2631555i,-0.3203627-0.02125142i,-0.2163567+0.1682555i,-0.04556366+0.2207524i,0.07877421+0.1582897i,0.1136471+0.06622376i,0.09589268+0.01107632i,0.08437542-0.007838147i,0.09453185-0.03578252i,0.08702593-0.09846978i,0.01762702-0.1628563i,-0.1040267-0.1625447i,-0.2070968-0.06340637i,-0.213581+0.09454467i,-0.1043079+0.2203107i,0.06336328+0.2395252i},
		{0.7904362+0.4749013i,0.9233832-0.1796505i,0.5753648-0.7647676i,-0.0866642-0.9670709i,-0.721175-0.6666745i,-0.9900806-0.009834878i,-0.743012+0.6611028i,-0.1052719+0.9893578i,0.5853179+0.7996426i,0.9625694+0.1965013i,0.8337028-0.4943615i,0.2817841-0.9089583i,-0.3892774-0.8445462i,-0.8299425-0.3603013i,-0.8335539+0.2723464i,-0.4313991+0.7292485i,0.1475445+0.8034863i,0.6125159+0.493855i,0.7576019-0.02053123i,0.5454409-0.4864746i,0.1018732-0.6988341i,-0.357935-0.5829622i,-0.6292938-0.212598i,-0.6027834+0.232879i,-0.3053677+0.5502441i,0.1159045+0.6016884i,0.5778008-0.01014902i,0.4208151-0.3672783i,0.08234183-0.5312648i,-0.2666126-0.4407287i,-0.4644612-0.1599855i,-0.4366084+0.16407i,-0.221039+0.3816786i,0.06456833+0.4105683i,0.2883403+0.263239i,0.3647976+0.02612707i,0.2838642-0.1900254i,0.1022904-0.3010778i,-0.09158511-0.2802252i,-0.2207285-0.1592175i,-0.2504327-0.003386098i,-0.1940061+0.1249766i,-0.09259174+0.194184i,0.01558617+0.2059046i,0.1132952+0.1746239i,0.1961343+0.104512i,0.2482936-0.01177581i,0.2308572-0.1672656i,0.1046088-0.3119782i,-0.1223678-0.357546i,-0.3632508-0.2291786i,-0.4777972+0.06421877i},
		{0.1360248-0.2689607i,-0.03498597-0.3009597i,-0.2069307-0.2380902i,-0.3268473-0.07615647i,-0.3277006+0.1485732i,-0.1730095+0.3437991i,0.09368628+0.3974987i,0.3468497+0.2518966i,0.4427511-0.04094809i,0.3114831-0.3326343i,0.01092203-0.4614874i,-0.2999792-0.351881i,-0.4539904-0.06231335i,-0.3737249+0.2498052i,-0.1124387+0.4219549i,0.1845026+0.3775769i,0.3676988+0.1596372i,0.3638531-0.1071056i,0.2020627-0.2937385i,-0.02062965-0.3332313i,-0.2028562-0.2384142i,-0.2872904-0.07216015i,-0.2683614+0.09855645i,-0.1684845+0.2290258i,-0.01437469+0.2924438i,0.1629167+0.2649477i,0.3569263-0.09438621i,0.2393344-0.3254741i,-0.02873634-0.438321i,-0.3331305-0.3355374i,-0.5019401-0.03013089i,-0.4110011+0.3311615i,-0.08076525+0.5405625i,0.3148581+0.46099i,0.5484624+0.1245778i,0.4843366-0.2792014i,0.1653741-0.5229716i,-0.2204861-0.4837829i,-0.4655752-0.2080595i,-0.4653423+0.137944i,-0.2568484+0.3821312i,0.03483798+0.4367807i,0.2820454+0.3135029i,0.4056022+0.08138309i,0.3761537-0.1765403i,0.2000149-0.3770959i,-0.07644138-0.4391029i,-0.3530062-0.3089378i,-0.4937317-0.009939998i,-0.3969146+0.3312171i,-0.07826056+0.5303055i,0.3065474+0.4557476i},
		{0.9961224-0.5174951i,0.4171339-1.022173i,-0.3333015-1.030291i,-0.8972732-0.565113i,-1.029425+0.1336484i,-0.6971325+0.7407905i,-0.07211088+0.9964608i,0.5621271+0.808031i,0.9341995+0.2729988i,0.8914991-0.3709894i,0.45772-0.8445179i,-0.1759918-0.9407794i,-0.7282196-0.6162192i,-0.9498962-0.01627005i,-0.7410634+0.5855998i,-0.2014112+0.915077i,0.4175453+0.8282601i,0.8359359+0.3766927i,0.8772881-0.2267991i,0.5399259-0.7160459i,-0.0189437-0.890361i,-0.5626932-0.6882498i,-0.8711768-0.1972751i,-0.8172356+0.3858517i,-0.4104716+0.8235623i,0.1966418+0.9206694i,0.9911468-0.005688055i,0.7773125-0.6534367i,0.1781919-1.021347i,-0.5332131-0.9085394i,-1.005631-0.348646i,-0.9949952+0.390395i,-0.5016875+0.9414898i,0.2267372+1.034124i,0.8304191+0.6349686i,1.027098-0.04611437i,0.7467532-0.6779615i,0.1450296-0.977818i,-0.4929161-0.8349919i,-0.8915965-0.337959i,-0.8968514+0.2859654i,-0.5226017+0.7739697i,0.06812667+0.9288684i,0.6299847+0.688914i,0.9276761+0.1505366i,0.8282616-0.4641248i,0.3616299-0.8910394i,-0.2807875-0.9344268i,-0.8188236-0.5584672i,-1.003989+0.08503066i,-0.7355742+0.7135423i,-0.1167893+1.036036i},
		{0.3373296-0.76055i,-0.2432685-0.8114223i,-0.7260593-0.4624436i,-0.8627796+0.1295943i,-0.5687179+0.6729552i,0.01949449+0.8853979i,0.602346+0.6482504i,0.8740598+0.08177666i,0.6946613-0.5132126i,0.1721066-0.8240098i,-0.4031785-0.7050387i,-0.7330633-0.252738i,-0.6811103+0.2703123i,-0.3271821+0.603501i,0.1153508+0.6291355i,0.4430036+0.3991433i,0.5584387+0.05647837i,0.4701485-0.2641541i,0.2347864-0.478972i,-0.08249488-0.5377303i,-0.3986456-0.4049177i,-0.5948725-0.08640036i,-0.5503244+0.3212764i,-0.2300315+0.6310397i,0.2458326+0.6558423i,0.6346008+0.341354i,0.4197306-0.5959911i,-0.07865812-0.7121708i,-0.5106913-0.4701632i,-0.6635973-0.02578945i,-0.5010334+0.381117i,-0.148108+0.5758595i,0.2168218+0.521033i,0.463328+0.2848102i,0.5362124-0.03290659i,0.4267659-0.3406597i,0.1529432-0.5480302i,-0.2195725-0.560721i,-0.5529759-0.3239671i,-0.6720461+0.1067608i,-0.4674157+0.5438362i,0.003474883+0.747916i,0.5121659+0.5763941i,0.7800094+0.09324176i,0.6500435-0.4511545i,0.1881744-0.7659765i,-0.3579837-0.6921627i,-0.7093298-0.2852629i,-0.7088394+0.2349654i,-0.3855192+0.6179128i,0.08917423+0.7059281i,0.5015332+0.4861729i},
		{-0.5721452+0.6554424i,-0.06495525+0.8631202i,0.4642613+0.7364544i,0.8269444+0.321651i,0.8825084-0.2457757i,0.5758121-0.7623518i,-0.01769055-1.001877i,-0.6736823-0.8082272i,-1.082569-0.2052057i,-1.00123+0.5606751i,-0.4134603+1.112124i,0.419926+1.142236i,1.081288+0.6033845i,1.22579-0.2478026i,0.7754834-0.9870507i,-0.04373835-1.253528i,-0.8340243-0.9315609i,-1.232194-0.1872971i,-1.071617+0.6337158i,-0.4340835+1.17046i,0.401924+1.191714i,1.075715+0.6805166i,1.283631-0.1551368i,0.9086709-0.9519426i,0.09288294-1.336505i,-0.7994317-1.102581i,-1.251515+0.6163657i,-0.5619574+1.287344i,0.4016811+1.351671i,1.178907+0.7785164i,1.405777-0.1581067i,0.982695-1.022174i,0.1057871-1.420775i,-0.8309324-1.171734i,-1.404432-0.3753797i,-1.338443+0.622129i,-0.631858+1.362072i,0.411974+1.471198i,1.294591+0.8556599i,1.555942-0.212465i,1.030471-1.198444i,-0.02942735-1.579606i,-1.067641-1.146534i,-1.533872-0.1373225i,-1.202227+0.8970626i,-0.2917979+1.418043i,0.6859676+1.203428i,1.24005+0.4384244i,1.160879-0.4404532i,0.5785741-1.015193i,-0.1739646-1.086426i,-0.7629678-0.7082607i},
		{0.5641223+0.06870874i,0.5097548-0.3414612i,0.1674189-0.6345032i,-0.3164865-0.6185951i,-0.6813697-0.2573601i,-0.7021129+0.2800401i,-0.3367786+0.7001567i,0.2303914+0.7568789i,0.6881871+0.4049471i,0.7814769-0.1665867i,0.4618732-0.6447971i,-0.08866794-0.7763522i,-0.5713258-0.5080713i,-0.7436364-0.002224485i,-0.544387+0.4710376i,-0.1037989+0.6869603i,0.3490116+0.5718207i,0.6112221+0.2125678i,0.5913004-0.2119737i,0.3238161-0.5222443i,-0.06800719-0.6033819i,-0.4262762-0.4316382i,-0.6079135-0.0739318i,-0.5291364+0.3293419i,-0.2047339+0.6037586i,0.2365103+0.6088653i,0.6635625-0.1512329i,0.4013436-0.5596703i,-0.07493121-0.6871132i,-0.5132863-0.4566824i,-0.6755987+0.006995241i,-0.4813761+0.4467681i,-0.05473034+0.6281986i,0.3589466+0.4779398i,0.5476955+0.1130302i,0.4515111-0.2511804i,0.1701691-0.4403905i,-0.127884-0.4087386i,-0.3153671-0.2268022i,-0.3563867-0.00353714i,-0.2812539+0.1832088i,-0.1334106+0.299983i,0.0544241+0.3293909i,0.2428394+0.2510726i,0.3651636+0.0620788i,0.3464358-0.1856795i,0.1601358-0.3817078i,-0.1269471-0.4115094i,-0.3727493-0.2368567i,-0.4415409+0.06368859i,-0.2924659+0.3339775i,-0.007237017+0.4355526i},
		{-1.759748+0.8157204i,-0.8428057+1.756307i,0.4767826+1.899754i,1.593777+1.155456i,1.969294-0.1468793i,1.404127-1.388322i,0.1632396-1.959012i,-1.14103-1.577375i,-1.864061-0.446494i,-1.669876+0.8543809i,-0.6986212+1.685522i,0.533802+1.682287i,1.430906+0.9167413i,1.620123-0.1887313i,1.09784-1.113575i,0.1671868-1.492031i,-0.7512186-1.237679i,-1.307956-0.5169087i,-1.330495+0.3637563i,-0.841653+1.077693i,-0.02883022+1.369595i,0.8101518+1.123026i,1.348642+0.4082766i,1.345112-0.5133892i,0.7591206-1.263257i,-0.1952194-1.496078i,-1.568999-0.1359676i,-1.328574+0.8993616i,-0.4705771+1.561875i,0.6315085+1.530649i,1.477023+0.797658i,1.670045-0.3199314i,1.105319-1.320151i,0.02185407-1.743229i,-1.099469-1.381595i,-1.748496-0.3791348i,-1.615491+0.8250486i,-0.7370516+1.686357i,0.5085105+1.797898i,1.559935+1.081253i,1.922121-0.1629349i,1.398147-1.37513i,0.1972347-1.983932i,-1.14037-1.674915i,-1.981229-0.5565262i,-1.899557+0.8659128i,-0.8991652+1.913523i,0.5628444+2.061198i,1.781543+1.210187i,2.150809-0.2420315i,1.476747-1.587205i,0.08665413-2.162259i},
		{0.9027822-0.2696769i,0.5065357-0.7943381i,-0.1357793-0.9277048i,-0.7024071-0.608082i,-0.9172532-0.003398209i,-0.6888756+0.5842167i,-0.1444367+0.8763651i,0.4474414+0.7498347i,0.8118091+0.2811328i,0.7905481-0.3023716i,0.4047485-0.7303215i,-0.1600829-0.808521i,-0.6369613-0.5052451i,-0.7993869+0.03034279i,-0.5731961+0.5342039i,-0.08013062+0.7580717i,0.4220611+0.6018288i,0.6805657+0.1685439i,0.5885792-0.2991727i,0.2357881-0.5657411i,-0.164499-0.5356797i,-0.4166192-0.2851874i,-0.4495898+0.01903374i,-0.3206596+0.2406468i,-0.1330485+0.3394414i,0.04885304+0.3448941i,0.3581394+0.1458976i,0.4245228-0.08455822i,0.3310587-0.3579822i,0.04604767-0.5432577i,-0.3401698-0.4963479i,-0.6310609-0.1740002i,-0.634954+0.3001826i,-0.2986145+0.6816318i,0.2350249+0.743725i,0.692691+0.4199578i,0.8223916-0.1446391i,0.5373081-0.6659096i,-0.03248661-0.8721839i,-0.6059104-0.6480455i,-0.8943753-0.09487778i,-0.7473693+0.5187311i,-0.2290749+0.8892803i,0.4102874+0.8289413i,0.8560454+0.3615837i,0.8862342-0.2853432i,0.485284-0.7932774i,-0.1472855-0.9141207i,-0.7002482-0.595382i,-0.9101654-0.001294936i,-0.6894667+0.5782037i,-0.1575173+0.8751831i},
		{-1.101066-0.02876832i,-0.8675977+0.6596782i,-0.256062+1.045347i,0.4531683+0.9558067i,0.9321997+0.4450463i,0.9745137-0.2317173i,0.5965115-0.7589002i,0.005980823-0.9266946i,-0.53083-0.7148179i,-0.8224609-0.2565056i,-0.8041406+0.2614228i,-0.5100414+0.6756048i,-0.03020839+0.8653142i,0.4995764+0.7510076i,0.8944118+0.3232077i,0.9608506-0.3042533i,0.5992094-0.883576i,-0.09455071-1.12212i,-0.8238198-0.8455257i,-1.22251-0.1287381i,-1.05632+0.708817i,-0.3662733+1.257543i,0.5383367+1.231488i,1.231027+0.6167167i,1.373757-0.3200693i,0.8738326-1.153153i,-1.036891-1.125295i,-1.563963-0.1947699i,-1.35378+0.8939325i,-0.4514431+1.603938i,0.7315574+1.540125i,1.595152+0.6846403i,1.667611-0.5515i,0.885028-1.52726i,-0.3511859-1.725995i,-1.393496-1.050967i,-1.713966+0.1268901i,-1.186807+1.194228i,-0.1223213+1.6392i,0.9387832+1.299341i,1.515947+0.3912941i,1.393643-0.6447937i,0.6673701-1.360926i,-0.3351699-1.469766i,-1.18884-0.9314702i,-1.521456+0.03355251i,-1.161458+1.008949i,-0.2403709+1.537363i,0.8237814+1.336796i,1.504409+0.4742613i,1.443072-0.6303626i,0.6642287-1.41221i},
		{0.6827378+0.02161816i,0.5216196-0.4159955i,0.1255822-0.6386309i,-0.3081566-0.5540483i,-0.5761971-0.2192358i,-0.5655717+0.1958134i,-0.3004128+0.4965044i,0.08127756+0.5565035i,0.4023508+0.3682981i,0.5292462+0.03244112i,0.4226008-0.2985992i,0.1409399-0.4876252i,-0.191857-0.4625578i,-0.4357698-0.2382334i,-0.4861787+0.08951481i,-0.317252+0.3769126i,-0.001606026+0.4900757i,0.3125356+0.3709706i,0.4700288+0.07659406i,0.3938782-0.2421878i,0.1333455-0.4221821i,-0.1640833-0.3833521i,-0.3445285-0.1727113i,-0.3404929+0.07632474i,-0.1978143+0.2382126i,-0.02162859+0.2701175i,0.1798566+0.1277357i,0.2208946+0.03698791i,0.236829-0.07857567i,0.1864208-0.2238404i,0.02544383-0.3409879i,-0.2205029-0.3286124i,-0.4307889-0.1260459i,-0.4534933+0.2074966i,-0.2200295+0.497112i,0.1801893+0.5540251i,0.5330026+0.3070518i,0.6270071-0.1342854i,0.3886832-0.5350698i,-0.06742588-0.6729009i,-0.5040366-0.4669508i,-0.6947914-0.01968401i,-0.5428614+0.4443211i,-0.1229612+0.6968613i,0.3628159+0.6153806i,0.6828752+0.2355268i,0.6811836-0.2672629i,0.3489899-0.6551419i,-0.1647149-0.7352294i,-0.6142289-0.4550351i,-0.7719448+0.0605145i,-0.54684+0.5594456i},
		{0.04944165-0.3294526i,-0.1701702-0.3070363i,-0.3445033-0.1477402i,-0.3908085+0.1062168i,-0.255898+0.3589024i,0.04037453+0.4789755i,0.376512+0.3622434i,0.56351+0.01699947i,0.4532165-0.3963783i,0.05916421-0.6324114i,-0.4120991-0.5167714i,-0.67243-0.08524978i,-0.5457255+0.4131315i,-0.1007402+0.6726784i,0.3877581+0.5399499i,0.6280161+0.1159081i,0.5066223-0.3268509i,0.142593-0.5411029i,-0.2272642-0.4583633i,-0.4223983-0.1902769i,-0.4097512+0.09375624i,-0.2626686+0.288014i,-0.06123168+0.3732398i,0.155995+0.3558826i,0.3557062+0.2199543i,0.4588141-0.0420966i,0.04371526-0.5556406i,-0.368713-0.4748356i,-0.6297212-0.09904333i,-0.5447444+0.3799306i,-0.128658+0.6677457i,0.3776585+0.571008i,0.6629227+0.1421266i,0.5591238-0.3523048i,0.1502771-0.6163155i,-0.3001461-0.5196184i,-0.5360214-0.161629i,-0.4645413+0.2242889i,-0.1798841+0.4345617i,0.1335985+0.4040221i,0.3253782+0.2031896i,0.3439397-0.04004197i,0.2252831-0.2195646i,0.0446278-0.2853357i,-0.123815-0.2380143i,-0.2255906-0.1117602i,-0.2343076+0.04011188i,-0.1573801+0.1607924i,-0.03293959+0.2105305i,0.08834431+0.1820534i,0.1674844+0.09778315i,0.1892576-0.00882886i},
		{0.7669808-0.2817898i,0.4198898-0.6909425i,-0.09705782-0.7969732i,-0.5664335-0.5676195i,-0.8006507-0.1006459i,-0.7031479+0.4191262i,-0.2997756+0.7808722i,0.2593978+0.8191652i,0.7388874+0.4873356i,0.9066651-0.09656321i,0.6509607-0.6738996i,0.06260326-0.9565189i,-0.5836424-0.780997i,-0.9615214-0.2144368i,-0.8719816+0.4658082i,-0.3578939+0.918299i,0.3198642+0.9230988i,0.8284809+0.493207i,0.9374936-0.1486375i,0.6201642-0.6987396i,0.04089973-0.9206833i,-0.5396476-0.7366232i,-0.8785788-0.2379715i,-0.8377924+0.3636587i,-0.4294414+0.8157474i,0.1827933+0.9165614i,0.9648124-0.006693174i,0.744324-0.6347409i,0.15842-0.9753199i,-0.5155069-0.8490437i,-0.9436486-0.3096493i,-0.9132417+0.3761151i,-0.446329+0.8694561i,0.2180092+0.9381465i,0.7568035+0.5683912i,0.9277583-0.04572978i,0.6748076-0.613398i,0.1330251-0.8870726i,-0.4490289-0.7626653i,-0.8204889-0.3083307i,-0.827196+0.2737085i,-0.4696668+0.7309126i,0.09609219+0.8627338i,0.6197932+0.6077293i,0.8642535+0.07736436i,0.7158566-0.4880037i,0.2423321-0.8289468i,-0.3371692-0.7906538i,-0.7572867-0.3957593i,-0.8316821+0.1709039i,-0.5346569+0.6532156i,-0.004547745+0.8404024i},
		{-0.5599278+0.5377643i,-0.1365862+0.7821532i,0.3718937+0.728781i,0.7638948+0.3622157i,0.8514134-0.1929372i,0.5621825-0.7017998i,-0.001621675-0.9232466i,-0.5954101-0.7339635i,-0.9444497-0.1994583i,-0.8762123+0.4490871i,-0.4046407+0.9187136i,0.2714078+0.9871359i,0.8514796+0.6050245i,1.063501-0.07360324i,0.7894181-0.7482567i,0.1324485-1.100642i,-0.61359-0.9461308i,-1.09348-0.3360538i,-1.065051+0.4509731i,-0.528833+1.03819i,0.2636385+1.139374i,0.9339299+0.7048944i,1.166463-0.05582638i,0.8601498-0.783981i,0.1660483-1.147626i,-0.5958731-0.9911639i,-1.094089+0.3803963i,-0.6133066+0.989799i,0.1497903+1.164181i,0.8611017+0.8151068i,1.196161+0.08431178i,0.9870943-0.7047792i,0.3125294-1.185364i,-0.5237538-1.121001i,-1.129294-0.5284606i,-1.212697+0.3209502i,-0.728304+1.029028i,0.1007073+1.262359i,0.8899353+0.9095794i,1.273536+0.1299709i,1.069469-0.721353i,0.36089-1.251405i,-0.5352303-1.203433i,-1.200798-0.5791994i,-1.304671+0.344062i,-0.7709599+1.124645i,0.1587012+1.364705i,1.023366+0.9233645i,1.374997+0.01330681i,1.026984-0.8954123i,0.1683759-1.329126i,-0.7388001-1.077375i},
		{0.3682137-0.4636242i,-0.05964623-0.586792i,-0.4501542-0.372348i,-0.5722548+0.05305679i,-0.357452+0.4325674i,0.05447468+0.5408244i,0.407027+0.3272355i,0.4943543-0.05830547i,0.2881246-0.3724208i,-0.05997894-0.4383125i,-0.3311968-0.2473519i,-0.3804738+0.05761956i,-0.2108285+0.2890092i,0.0527745+0.3288576i,0.2532583+0.1814915i,0.2895668-0.04994293i,0.1586637-0.230979i,-0.05505203-0.2652182i,-0.2267585-0.1386304i,-0.2544679+0.07337868i,-0.1162323+0.2413581i,0.1076043+0.2527745i,0.2714902+0.08693929i,0.2541406-0.1566491i,0.04871244-0.3108208i,-0.2156765-0.2532521i,-0.2473117+0.2772717i,0.04523755+0.3882041i,0.3334156+0.2369675i,0.416169-0.08913596i,0.2260474-0.3776152i,-0.1215657-0.4356892i,-0.4065077-0.2202028i,-0.4498259+0.1373355i,-0.2249315+0.4204382i,0.1345888+0.463322i,0.422854+0.2436457i,0.4806317-0.1151753i,0.2764327-0.4187548i,-0.08386633-0.5041171i,-0.4127458-0.319912i,-0.5330245+0.04670294i,-0.3682232+0.4073651i,0.009051788+0.5635793i,0.4022538+0.4147952i,0.5901576+0.02596789i,0.4542883-0.3944394i,0.05815794-0.607124i,-0.3796217-0.4840502i,-0.610699-0.08980407i,-0.5045993+0.353999i,-0.1243026+0.6002148i},
		{-0.2734696-0.284177i,-0.4072985-0.01591909i,-0.3158406+0.2767078i,-0.04271002+0.429601i,0.2676585+0.3536547i,0.4484118+0.08162674i,0.3972071-0.2491133i,0.1295429-0.4652821i,-0.2246958-0.4445916i,-0.4809007-0.1819032i,-0.4922731+0.1979521i,-0.2334862+0.494489i,0.1714005+0.5354587i,0.5036348+0.2794482i,0.5689353-0.145844i,0.3163573-0.5046782i,-0.1201858-0.5881736i,-0.4935893-0.3429087i,-0.5903946+0.09184526i,-0.3600893+0.4671141i,0.05768293+0.5752849i,0.4238607+0.3707224i,0.545137-0.01517612i,0.378512-0.3650018i,0.03650263-0.5043602i,-0.2943699-0.386864i,-0.3978276+0.2178985i,-0.158919+0.412976i,0.142556+0.4114646i,0.3720735+0.2201152i,0.4258159-0.0750583i,0.2731085-0.3381441i,-0.0207053-0.437453i,-0.3115101-0.3121738i,-0.4424303-0.01737056i,-0.3332502+0.2908587i,-0.03838753+0.4373483i,0.2740234+0.3345743i,0.4202212+0.04354778i,0.3167473-0.258877i,0.0352942-0.3909262i,-0.2440614-0.2822837i,-0.3511463-0.01645537i,-0.2348353+0.2293522i,0.01045413+0.3038821i,0.2155934+0.1783545i,0.2527245-0.04359211i,0.1164501-0.2042781i,-0.08175609-0.2011386i,-0.1969643-0.05208754i,-0.1519751+0.124051i,0.01234625+0.1947545i},
		{-0.05860688-0.4479768i,-0.3435133-0.2702816i,-0.4175799+0.04413923i,-0.2568226+0.3073781i,0.02668094+0.3784404i,0.2640327+0.2399747i,0.3331553-0.006821199i,0.2212755-0.2159111i,0.01470935-0.2847494i,-0.1659229-0.2023665i,-0.2365789-0.03677171i,-0.1846283+0.1175041i,-0.05754247+0.1919806i,0.07443571+0.1687003i,0.1537136+0.07441062i,0.1540781-0.04038492i,0.08418293-0.1233497i,-0.01824532-0.13899i,-0.1008305-0.08362874i,-0.1206823+0.009452979i,-0.07026609+0.08438787i,0.01350218+0.09611519i,0.07093163+0.04318305i,0.06292427-0.02785562i,0.00363987-0.05686662i,-0.04834594-0.02039259i,0.02986355+0.07002578i,0.09653414+0.01635686i,0.08828387-0.0837399i,-0.01069346-0.145125i,-0.1351328-0.09994885i,-0.1842824+0.03873561i,-0.1040818+0.1770044i,0.06260979+0.2092855i,0.2027868+0.1022258i,0.2179306-0.07632489i,0.09802097-0.2077769i,-0.07442582-0.2109339i,-0.1901621-0.09626729i,-0.19165+0.05331039i,-0.101677+0.1514114i,0.0121549+0.1651846i,0.09594142+0.1176458i,0.1371501+0.04678572i,0.1453684-0.03016466i,0.1185637-0.1124019i,0.03880859-0.1835191i,-0.09408619-0.1964837i,-0.2285514-0.1044682i,-0.2733389+0.08321734i,-0.1618837+0.2754989i,0.07883587+0.3426112i},
		{0.4765171-0.4792484i,0.02216618-0.7002397i,-0.4753423-0.5410668i,-0.7312107-0.07141402i,-0.5905845+0.4530163i,-0.1241726+0.7392527i,0.4126717+0.62766i,0.7275611+0.1805285i,0.6539072-0.3580146i,0.2375028-0.6999481i,-0.2944517-0.6687245i,-0.6590291-0.2899454i,-0.6692946+0.2270618i,-0.3323624+0.60531i,0.1589416+0.6518133i,0.5375271+0.3609631i,0.6134684-0.09056635i,0.3751298-0.4541073i,-0.0204167-0.5543932i,-0.3551708-0.3777229i,-0.4787987-0.05336022i,-0.3740454+0.244268i,-0.1308881+0.3947525i,0.1290874+0.3697845i,0.3125404+0.2089159i,0.3686353-0.02070856i,0.06852834-0.370465i,-0.1900316-0.3349726i,-0.3707353-0.1279631i,-0.3622017+0.1580575i,-0.1514661+0.3615038i,0.1420772+0.3535716i,0.3337916+0.1392653i,0.3057023-0.1336479i,0.09809566-0.2806313i,-0.1226334-0.2218439i,-0.1998302-0.0395294i,-0.1117435+0.1005368i,0.02308051+0.09553358i,0.06343797-0.01027769i,-0.02198411-0.07815898i,-0.1285423-0.01359839i,-0.1189106+0.1383224i,0.04079572+0.2296175i,0.2382102+0.1448682i,0.3052565-0.08770105i,0.1615386-0.3090698i,-0.1144767-0.3538343i,-0.3438471-0.1782877i,-0.3798998+0.1113499i,-0.2051437+0.3422976i,0.07405113+0.3920434i},
		{1.226244-0.3887543i,0.6972325-1.123005i,-0.2111998-1.332271i,-1.046424-0.8784096i,-1.373242+0.02351688i,-1.021049+0.9150543i,-0.1767322+1.349083i,0.7302185+1.128665i,1.266415+0.389622i,1.206543-0.4998725i,0.6109555-1.136752i,-0.2379204-1.259135i,-0.9738141-0.831568i,-1.288066-0.03781704i,-1.038087+0.7907322i,-0.3084272+1.29135i,0.5979149+1.214958i,1.264019+0.5567628i,1.347171-0.4021134i,0.7696018-1.199914i,-0.2068139-1.422925i,-1.094036-0.9386327i,-1.435536+0.01365638i,-1.060184+0.9447032i,-0.1757337+1.384127i,0.7548327+1.134008i,1.161686-0.5320023i,0.5283903-1.110504i,-0.287349-1.145292i,-0.9065242-0.6790534i,-1.086743+0.03373604i,-0.8023351+0.6716305i,-0.2161786+0.9879968i,0.4158833+0.8913671i,0.8518605+0.4513688i,0.9416741-0.148866i,0.6630018-0.6829756i,0.1197739-0.9518605i,-0.4884497-0.8441241i,-0.9233652-0.3796572i,-0.9888012+0.2777549i,-0.6193814+0.859421i,0.0617864+1.091235i,0.7636498+0.8269508i,1.145378+0.1487003i,0.9909861-0.6388574i,0.344801-1.145371i,-0.4865313-1.102442i,-1.086777-0.5207525i,-1.156317+0.3072917i,-0.6743358+0.9682741i,0.102197+1.152771i},
		{0.3835612-0.4482082i,0.05283864-0.5615037i,-0.2759779-0.4801502i,-0.5072915-0.226608i,-0.5488816+0.1281026i,-0.3555203+0.4479136i,0.01015549+0.574986i,0.3749689+0.4285238i,0.5466943+0.07955523i,0.4427687-0.2787271i,0.1484462-0.4587168i,-0.1518849-0.4039117i,-0.3142797-0.2065063i,-0.3242912-0.007143463i,-0.2625008+0.12507i,-0.1924414+0.2195123i,-0.09093517+0.320702i,0.10446+0.3908918i,0.3791473+0.3131422i,0.5845079+0.01009075i,0.5224623-0.4299338i,0.1193118-0.7541139i,-0.4614145-0.7047197i,-0.8832976-0.2241685i,-0.8524499+0.4615715i,-0.3294728+0.9615117i,0.9855036+0.440893i,1.045247-0.3379321i,0.5619543-0.958809i,-0.2141365-1.099554i,-0.8896542-0.6920064i,-1.132226+0.05896572i,-0.8257571+0.7880806i,-0.1154396+1.145124i,0.663281+0.9544221i,1.137086+0.2964986i,1.067998-0.521983i,0.4736203-1.105074i,-0.3682821-1.157814i,-1.046216-0.6394812i,-1.21847+0.2047902i,-0.7898608+0.9599025i,0.03448511+1.248525i,0.8490915+0.9222869i,1.249768+0.1375897i,1.034168-0.7203075i,0.3035563-1.225448i,-0.582279-1.121276i,-1.178191-0.4532884i,-1.17729+0.4437028i,-0.5762591+1.108484i,0.3109486+1.194733i},
		{-0.341601-0.2851703i,-0.3823007+0.0744494i,-0.1476751+0.3064861i,0.1526159+0.2608864i,0.2810946+0.00570341i,0.1481498-0.2381406i,-0.1303596-0.2691971i,-0.3277574-0.05397623i,-0.2760035+0.2526808i,0.01357508+0.4208881i,0.3569995+0.3064041i,0.518654-0.0499375i,0.3631339-0.4425449i,-0.05475859-0.6222808i,-0.510954-0.4454727i,-0.7314786+0.03148274i,-0.5489163+0.5646071i,-0.01403328+0.8433719i,0.6049767+0.6659327i,0.952361+0.07539326i,0.7875559-0.6315561i,0.1473996-1.05097i,-0.6417244-0.9052996i,-1.13141-0.2270974i,-1.012778+0.6315746i,-0.3138156+1.187331i,1.21521+0.4082481i,1.185847-0.5373177i,0.5109483-1.214905i,-0.4524287-1.251673i,-1.189247-0.620814i,-1.305109+0.3471425i,-0.7341376+1.14282i,0.2284924+1.346007i,1.080381+0.8445988i,1.372235-0.1046867i,0.9442478-1.005489i,0.01663637-1.379891i,-0.9198058-1.025178i,-1.364416-0.1298674i,-1.081343+0.8233318i,-0.2321197+1.322258i,0.7154679+1.10992i,1.252484+0.3229434i,1.11176-0.5965239i,0.4031905-1.157808i,-0.4691062-1.090775i,-1.044604-0.4734593i,-1.052476+0.3388432i,-0.5327028+0.9218742i,0.2141182+1.002149i,0.7994389+0.5775346i},
		{-0.4939958+1.528681i,0.6115262+1.471823i,1.401699+0.7128292i,1.500033-0.3582687i,0.8920883-1.210218i,-0.08723225-1.455538i,-0.9572146-1.034371i,-1.346443-0.1997396i,-1.145038+0.653986i,-0.4954871+1.187454i,0.3197537+1.228468i,0.9961753+0.7860838i,1.28485+0.02104181i,1.05167-0.7887864i,0.3430696-1.308699i,-0.5764697-1.269524i,-1.289684-0.6248302i,-1.418562+0.363706i,-0.85238+1.215617i,0.1489673+1.483971i,1.076692+1.020969i,1.460564+0.07245961i,1.134149-0.8696264i,0.3044859-1.353847i,-0.6003614-1.200717i,-1.178457-0.5464209i,-0.7906511+0.9544738i,-0.05546019+1.23048i,0.7027216+1.02261i,1.202171+0.3931575i,1.223105-0.4404845i,0.7043417-1.141577i,-0.1788723-1.372322i,-1.041147-0.9704943i,-1.454269-0.07748931i,-1.18127+0.893349i,-0.3285417+1.460335i,0.6945097+1.334439i,1.390894+0.5754679i,1.433667-0.4476525i,0.8172089-1.254562i,-0.1633731-1.48505i,-1.065458-1.048083i,-1.493662-0.1415258i,-1.257348+0.8394297i,-0.4471813+1.461319i,0.5905328+1.430874i,1.386282+0.7345574i,1.554321-0.3288684i,0.9888121-1.264917i,-0.06038988-1.61675i,-1.094612-1.201097i},
		{-0.7877076+0.7720982i,-0.0753474+1.079637i,0.6442103+0.8447131i,1.023671+0.2093671i,0.8981427-0.5065184i,0.3430374-0.962488i,-0.3719057-0.9463253i,-0.9026505-0.4647211i,-0.9838086+0.2525639i,-0.5617088+0.8468323i,0.1574938+1.002227i,0.7933006+0.6228238i,0.9922931-0.09075611i,0.6409128-0.7367755i,-0.05100495-0.9463708i,-0.670444-0.6144944i,-0.8608878+0.03245477i,-0.5480734+0.5885413i,0.02699762+0.7378608i,0.4887238+0.4510216i,0.5850723-0.02683222i,0.3353588-0.3735094i,-0.026817-0.4148318i,-0.2503535-0.2130816i,-0.241679+0.02585951i,-0.09380507+0.1303406i,0.02589278-0.01665341i,-0.05993-0.03604148i,-0.1164382+0.05182757i,-0.05977258+0.1701843i,0.09508322+0.206661i,0.2485816+0.1034564i,0.2896875-0.1007339i,0.1692722-0.2961908i,-0.07018986-0.3673337i,-0.3160723-0.2555819i,-0.439573+0.008309362i,-0.3573501+0.3116226i,-0.07828902+0.50414i,0.285402+0.4674502i,0.5570856+0.1828929i,0.5783551-0.2387823i,0.2998079-0.5940111i,-0.172433-0.6836221i,-0.6114839-0.4246295i,-0.7787064+0.08734692i,-0.5537236+0.6080974i,-0.01408566+0.8609049i,0.5847849+0.6832639i,0.928569+0.1274587i,0.8083416-0.5442827i,0.2465152-0.98i},
		{-0.02402034+0.3478848i,0.2523992+0.2547818i,0.3714655-0.0216784i,0.240459-0.3058866i,-0.07225318-0.4030209i,-0.3684179-0.2273133i,-0.4405834+0.1288825i,-0.2128536+0.4384403i,0.1914836+0.4805432i,0.5122995+0.1948554i,0.5184458-0.2580021i,0.1723691-0.5846148i,-0.3242751-0.5500734i,-0.6491946-0.1463569i,-0.5724713+0.3845604i,-0.1197218+0.7002428i,0.4326168+0.5845977i,0.7335097+0.09668609i,0.5873964-0.4630409i,0.08169343-0.7470625i,-0.4724738-0.5832831i,-0.7414647-0.07817002i,-0.5752272+0.4603255i,-0.08753581+0.7193404i,0.4288047+0.5657411i,0.6844845+0.1087811i,0.1387419-0.6408158i,-0.3260402-0.546122i,-0.5915024-0.1729802i,-0.5343292+0.2652574i,-0.2069812+0.5385163i,0.2037877+0.5187983i,0.4827161+0.2372827i,0.4980075-0.1438318i,0.2621886-0.4243748i,-0.08609058-0.4716167i,-0.3639175-0.2818659i,-0.4408287+0.0304379i,-0.2978377+0.3025703i,-0.02320226+0.4082208i,0.2426627+0.3120833i,0.3771048+0.07411555i,0.3260762-0.1874566i,0.1204702-0.3506335i,-0.1405503-0.3400948i,-0.3309548-0.1595174i,-0.3530355+0.1050604i,-0.1882392+0.3186979i,0.08287188+0.3627756i,0.3129621+0.2041999i,0.366943-0.07422584i,0.2062873-0.3118109i},
		{0.5578673-0.4847488i,0.06827126-0.7730134i,-0.5118802-0.6219868i,-0.8219324-0.08127776i,-0.6449028+0.5321632i,-0.07463728+0.8321469i,0.5328398+0.6285007i,0.7997292+0.06036735i,0.5818758-0.5050315i,0.05084738-0.728949i,-0.4466694-0.5185981i,-0.6312777-0.05493319i,-0.4528151+0.363485i,-0.07520362+0.5224316i,0.2677393+0.3953888i,0.4183482+0.1071911i,0.3512382-0.1750705i,0.1408154-0.3313073i,-0.1004261-0.3186585i,-0.2673394-0.1635404i,-0.2907448+0.05431429i,-0.1642322+0.2256331i,0.04048992+0.258377i,0.2000045+0.1364952i,0.2137386-0.05570844i,0.08045767-0.1818396i,-0.1634734-0.002508867i,-0.07870041+0.1373484i,0.08682868+0.1408768i,0.183977-0.002889395i,0.1148057-0.1761056i,-0.08189128-0.2259681i,-0.2561187-0.0901197i,-0.2625918+0.1488564i,-0.07362309+0.3219999i,0.1972971+0.296877i,0.3735873+0.07127692i,0.3333199-0.2252241i,0.08582829-0.414068i,-0.234995-0.3751697i,-0.4474947-0.115724i,-0.4223423+0.2315987i,-0.1556946+0.4761626i,0.2200614+0.4707666i,0.4988677+0.1987803i,0.5134275-0.2029757i,0.2390374-0.5107376i,-0.179108-0.5427467i,-0.5047462-0.2739066i,-0.5534362+0.1436611i,-0.3053224+0.4744109i,0.09017114+0.5447677i},
		{0.4653518-0.386898i,0.1249211-0.6307809i,-0.3182756-0.5996044i,-0.6576422-0.2770196i,-0.7180684+0.2110027i,-0.4427198+0.6474208i,0.07139133+0.8189278i,0.6038641+0.6150932i,0.8994135+0.09207483i,0.7853786-0.5310669i,0.2700291-0.9557613i,-0.432735-0.9440831i,-0.9837478-0.4534417i,-1.082278+0.3119787i,-0.6344631+0.9796306i,0.1716293+1.192738i,0.9411829+0.8067285i,1.270643-0.01488963i,0.9651517-0.8684888i,0.1539808-1.313697i,-0.7642425-1.1054i,-1.321727-0.3292553i,-1.223344+0.6334625i,-0.50381+1.295971i,0.4827198+1.314766i,1.238359+0.6697124i,0.8191715-1.151064i,-0.1494965-1.401918i,-1.036478-0.9455655i,-1.391876-0.02030606i,-1.044217+0.8975946i,-0.1852653+1.345326i,0.7385992+1.112678i,1.264796+0.3408577i,1.150437-0.5653697i,0.4824197-1.155244i,-0.3856005-1.158204i,-1.023359-0.6046484i,-1.137022+0.2083824i,-0.7015114+0.8764895i,0.04325945+1.087584i,0.7215014+0.7667074i,1.01001+0.1010167i,0.7946144-0.5639231i,0.2176964-0.9042068i,-0.4076396-0.7814724i,-0.7706934-0.3028508i,-0.7264385+0.2552089i,-0.3555571+0.6116271i,0.1086726+0.6321653i,0.4316502+0.3774004i,0.5046843+0.02944204i},
		{0.5962359-0.9829957i,-0.1313133-1.162618i,-0.8384386-0.8560441i,-1.223148-0.1560555i,-1.0854+0.6644232i,-0.4354449+1.24044i,0.4700405+1.272637i,1.212445+0.6921493i,1.405983-0.2636816i,0.9128792-1.136426i,-0.05159272-1.47499i,-1.009415-1.087787i,-1.472506-0.1627745i,-1.211999+0.8295824i,-0.37831+1.396638i,0.5981471+1.286102i,1.252014+0.5947555i,1.315325-0.3211885i,0.8106239-1.049833i,-0.01068069-1.307571i,-0.8064948-1.021219i,-1.270819-0.3157638i,-1.217477+0.5410472i,-0.636593+1.210672i,0.2720449+1.386135i,1.128775+0.9291804i,1.173212-1.022626i,0.2214983-1.577496i,-0.8868764-1.353769i,-1.572339-0.4324276i,-1.463338+0.7157714i,-0.6191097+1.489935i,0.5060373+1.502243i,1.332293+0.7850326i,1.477451-0.2593638i,0.9334909-1.109449i,0.01625722-1.400131i,-0.8378874-1.065185i,-1.282675-0.3067522i,-1.176875+0.5377622i,-0.5937091+1.136041i,0.229651+1.261459i,0.9680768+0.8571702i,1.309415+0.06830874i,1.07872-0.7832105i,0.3422418-1.311119i,-0.5833887-1.244069i,-1.259316-0.5830115i,-1.344532+0.3698037i,-0.7854837+1.15102i,0.144714+1.377192i,0.9883392+0.9470694i},
		{0.3102367+0.5946076i,0.6285725+0.2123446i,0.588366-0.275658i,0.2279224-0.5870742i,-0.2290801-0.5589599i,-0.5219078-0.2375727i,-0.5112062+0.1700894i,-0.2443902+0.4374948i,0.1009206+0.450556i,0.3399494+0.2497063i,0.3818285-0.02587703i,0.2529903-0.2357344i,0.0497601-0.3085056i,-0.1305674-0.252447i,-0.2327415-0.1209252i,-0.2460269+0.02889218i,-0.183661+0.1559744i,-0.06600134+0.2324381i,0.07981677+0.2354489i,0.2117778+0.1513738i,0.2749389-0.006806933i,0.2242949-0.1855532i,0.05933483-0.301273i,-0.1560969-0.2811578i,-0.3133444-0.1141122i,-0.3177425+0.1256141i,0.09524831+0.3299086i,0.286997+0.1738108i,0.3147378-0.06456038i,0.1754182-0.2440763i,-0.03168237-0.2717448i,-0.1797389-0.1604425i,-0.2036958-0.00583822i,-0.1336525+0.09553695i,-0.04975365+0.1166638i,-0.00389148+0.1009607i,0.01917626+0.09983297i,0.06775536+0.110941i,0.1530666+0.07938468i,0.2160474-0.03732046i,0.1707114-0.2037143i,-0.00987181-0.3093907i,-0.2442854-0.2492723i,-0.3828526-0.01744523i,-0.3132724+0.2672315i,-0.04955126+0.4316713i,0.2668758+0.3645751i,0.4553047+0.09170248i,0.4075987-0.2410084i,0.1475533-0.4572324i,-0.1916542-0.4475165i,-0.4437467-0.2176047i},
		{0.444695+0.9478416i,0.9249864+0.4442241i,0.9824238-0.2326815i,0.612184-0.7887922i,-0.01857385-0.9926667i,-0.6391147-0.7583075i,-0.9764507-0.1818947i,-0.8694955+0.4838066i,-0.355546+0.9287822i,0.3264981+0.9339107i,0.8436506+0.4941264i,0.943873-0.1670386i,0.5952725-0.7166931i,-0.003346453-0.8978873i,-0.5477751-0.6617981i,-0.8011454-0.1659909i,-0.6995701+0.3425997i,-0.3392759+0.6643192i,0.1127533+0.7146974i,0.5010104+0.5102868i,0.7109729+0.125902i,0.668423-0.3246428i,0.3560501-0.6884191i,-0.1457578-0.800427i,-0.6434081-0.5621238i,-0.8931818-0.02947991i,-0.1991665+0.9367228i,0.464038+0.8630297i,0.9265347+0.3640759i,0.9522909-0.322797i,0.5252344-0.8644359i,-0.1498119-1.004275i,-0.7578146-0.6815451i,-1.023682-0.04626808i,-0.8283193+0.6175137i,-0.2526173+1.014015i,0.4550857+0.9572476i,0.9761713+0.45468i,1.057845-0.2803168i,0.6390449-0.9084485i,-0.09979124-1.1199i,-0.8078971-0.7958446i,-1.136111-0.08311035i,-0.919957+0.6725157i,-0.266898+1.10405i,0.5034647+1.010703i,1.026792+0.449917i,1.070253-0.3064699i,0.6283785-0.912031i,-0.0918645-1.101382i,-0.7699876-0.7952689i,-1.105434-0.1268242i},
		{0.330272-0.2626919i,0.1024559-0.4387375i,-0.2170046-0.4331565i,-0.4807962-0.1980195i,-0.521745+0.1859475i,-0.2709557+0.5171452i,0.1633209+0.5858032i,0.5370746+0.3212827i,0.6206964-0.14086i,0.3536361-0.5335926i,-0.1110657-0.6275682i,-0.5048782-0.3749502i,-0.6120253+0.06950487i,-0.3918779+0.4542037i,0.01593462+0.581871i,0.3884975+0.4087596i,0.5446747+0.04597994i,0.42671-0.3161283i,0.1101098-0.5059447i,-0.244694-0.443969i,-0.4684017-0.1698586i,-0.4572247+0.1795317i,-0.2199615+0.4324295i,0.1233491+0.4632953i,0.3973507+0.2574656i,0.4604757-0.07694522i,-0.04057558-0.4490309i,-0.3302273-0.2928557i,-0.4306802+0.01529035i,-0.2913353+0.3019926i,0.003606007+0.4073358i,0.2814755+0.275839i,0.3796685-0.009150645i,0.2434726-0.2710646i,-0.03534679-0.3461646i,-0.2707492-0.1904839i,-0.3031711+0.08360229i,-0.1139667+0.2772851i,0.1517192+0.2460616i,0.2844988+0.01387708i,0.1712246-0.2332118i,-0.1053977-0.28479i,-0.3179483-0.07823049i,-0.2714566+0.2345881i,0.02859987+0.3940927i,0.3605511+0.2411306i,0.4508661-0.1398708i,0.1955109-0.4686164i,-0.242318-0.4813333i,-0.545697-0.141744i,-0.4843518+0.3213543i,-0.091196+0.5833052i},
		{-0.004504371+0.5743406i,0.3110184+0.4262508i,0.4648902+0.1567578i,0.4490451-0.1247612i,0.2980646-0.3445718i,0.05654176-0.4553854i,-0.2186979-0.420041i,-0.4429147-0.2235279i,-0.5146996+0.09180171i,-0.3680244+0.4092304i,-0.03249289+0.5752817i,0.3524606+0.4836445i,0.5970488+0.1513749i,0.5661606-0.2719121i,0.2625739-0.5779043i,-0.168647-0.6136207i,-0.518727-0.3640091i,-0.6262153+0.04584034i,-0.4534751+0.4233429i,-0.09119266+0.6059424i,0.2981245+0.5284646i,0.556145+0.2353391i,0.586181-0.1512772i,0.3783491-0.4810024i,0.00806577-0.623731i,-0.3850473-0.5116898i,-0.6274284+0.2727648i,-0.3286321+0.6281865i,0.1483097+0.7189898i,0.5917376+0.4747998i,0.7816835-0.01536471i,0.6042895-0.5289529i,0.1228529-0.8129618i,-0.4409436-0.7139261i,-0.8124276-0.2634476i,-0.80215+0.3301423i,-0.4035983+0.7816464i,0.2003146+0.8686357i,0.7238258+0.5402688i,0.9138338-0.05649995i,0.6699525-0.6434157i,0.0951399-0.9385242i,-0.5456716-0.7885275i,-0.943455-0.2475885i,-0.8912804+0.4362089i,-0.3933676+0.9291157i,0.3205786+0.9731169i,0.895664+0.5250362i,1.028944-0.2038902i,0.6357478-0.8430006i,-0.0905138-1.054166i,-0.7709717-0.7198032i},
		{0.3289925-0.2783356i,0.0655485-0.4425567i,-0.2541246-0.3891998i,-0.4663194-0.1247593i,-0.4446903+0.2291776i,-0.1776188+0.4849689i,0.2060228+0.4886014i,0.494497+0.2185319i,0.5146808-0.1844087i,0.2447979-0.4901273i,-0.1619152-0.518959i,-0.4680214-0.2568602i,-0.5007344+0.1353008i,-0.2575808+0.4267283i,0.1020882+0.4625782i,0.36789+0.2508402i,0.4093986-0.06182307i,0.239976-0.295976i,-0.01656833-0.3469118i,-0.2171532-0.2266093i,-0.2800574-0.02952909i,-0.2102578+0.1376897i,-0.07143562+0.2118972i,0.06244265+0.1888462i,0.1433565+0.1047626i,0.1599058+0.006053569i,0.06760381-0.1220097i,-0.002601944-0.1385846i,-0.07590148-0.123491i,-0.1417611-0.07004981i,-0.1750707+0.0248799i,-0.141556+0.1403404i,-0.02574279+0.2223525i,0.1377235+0.2070337i,0.2631108+0.06996372i,0.2600332-0.1355487i,0.1027686-0.2928939i,-0.132882-0.2940575i,-0.3059905-0.1216018i,-0.3043441+0.1263554i,-0.1271144+0.2970723i,0.1112505+0.2893197i,0.2629896+0.1229096i,0.251225-0.0831969i,0.1143364-0.2041181i,-0.03993154-0.1956702i,-0.1247843-0.106704i,-0.1302275-0.01747199i,-0.1034952+0.03258649i,-0.08434042+0.06248824i,-0.06321674+0.1051653i,-0.001812235+0.1532321i},
		{0.08081726+0.3551997i,0.3037581+0.2166836i,0.3760374-0.0480138i,0.2395261-0.2956133i,-0.03578248-0.3744272i,-0.2822686-0.2320998i,-0.3461553+0.03771722i,-0.1983466+0.2569749i,0.04568285+0.291642i,0.2160145+0.146005i,0.2160114-0.05220904i,0.08456187-0.1599612i,-0.0526009-0.1279505i,-0.09374589-0.02287515i,-0.03770838+0.04615911i,0.03283621+0.02553533i,0.03617939-0.04516444i,-0.03521805-0.08006912i,-0.1136835-0.02877796i,-0.1199224+0.0799658i,-0.03094468+0.1644078i,0.1028633+0.155918i,0.1973386+0.04844446i,0.1922132-0.1017102i,0.08420184-0.214904i,-0.07785846-0.2318285i,-0.2754666+0.03524961i,-0.2049159+0.2169417i,-0.02100126+0.3212622i,0.2058893+0.2803689i,0.3654612+0.08595854i,0.3578091-0.1874907i,0.1557193-0.40371i,-0.1611598-0.4319998i,-0.4324448-0.2275552i,-0.4993645+0.1265688i,-0.2994161+0.4498677i,0.08459354+0.5579278i,0.4561743+0.3691072i,0.6066042-0.03776661i,0.4335746-0.452988i,0.00998967-0.6442138i,-0.4422522-0.4886841i,-0.6687044-0.0543026i,-0.5296863+0.4250363i,-0.09165177+0.6769748i,0.4007521+0.5522884i,0.6654611+0.1205654i,0.5539936-0.3671343i,0.1422423-0.6313463i,-0.3210714-0.5352252i,-0.5739892-0.1603023i},
		{0.1994297+0.7084487i,0.6229996+0.3993675i,0.7349193-0.1110343i,0.4846353-0.5681619i,-0.003157581-0.7514046i,-0.4949173-0.5737607i,-0.7570516-0.1167695i,-0.6607264+0.4075036i,-0.2418218+0.7503829i,0.309461+0.7398578i,0.730027+0.3659177i,0.8063699-0.2040235i,0.4837411-0.6952547i,-0.09452566-0.8564761i,-0.6461484-0.5904655i,-0.8871798-0.01542263i,-0.6815525+0.5834093i,-0.1221073+0.8959924i,0.5079657+0.7528334i,0.8808345+0.2221734i,0.8009371-0.4206358i,0.3131817-0.8402857i,-0.3220792-0.8239543i,-0.7741801-0.3939929i,-0.8220848+0.2131512i,-0.4647546+0.6843635i,0.5753096+0.5263976i,0.7564791+0.02711869i,0.5797356-0.4542698i,0.1492638-0.7038687i,-0.3307417-0.6244347i,-0.6464759-0.2627493i,-0.6582144+0.2152398i,-0.3578298+0.5892596i,0.1175868+0.6766213i,0.5346297+0.4244772i,0.6735689-0.04513331i,0.4541917-0.4819451i,-0.001386569-0.6426091i,-0.4278964-0.4418052i,-0.5786557-0.01454904i,-0.3867896+0.3677241i,-0.007524353+0.4797084i,0.2969662+0.2936805i,0.348082-0.01502168i,0.1714515-0.2132493i,-0.04499684-0.1907551i,-0.1176068-0.03196262i,-0.01868616+0.0756425i,0.1121463+0.01493215i,0.1030455-0.1547708i,-0.08657791-0.2495912i},
		{-0.8883189-0.6014663i,-1.069913+0.07500024i,-0.7974194+0.7249758i,-0.1746149+1.072316i,0.5391008+0.9551913i,1.02887+0.4093641i,1.066586-0.331752i,0.6246919-0.9363846i,-0.1043839-1.128958i,-0.796704-0.8188835i,-1.144848-0.1389178i,-0.9908733+0.617315i,-0.3899089+1.120221i,0.4103981+1.138008i,1.061922+0.6360067i,1.254638-0.1905714i,0.861647-0.9752707i,0.02797591-1.33212i,-0.8626029-1.050845i,-1.360344-0.2340621i,-1.19021+0.7232949i,-0.4210087+1.330331i,0.5552444+1.27151i,1.23712+0.5866233i,1.292991-0.3572963i,0.7317443-1.08196i,-0.873098-0.8579048i,-1.178577-0.1139362i,-0.9649541+0.6248133i,-0.3669731+1.061938i,0.3549576+1.049496i,0.9185304+0.6106648i,1.104721-0.08169065i,0.8271936-0.7547212i,0.1796252-1.12175i,-0.5733889-1.000909i,-1.092101-0.4184757i,-1.121179+0.3749526i,-0.6296443+1.010483i,0.1595064+1.183969i,0.8770316+0.8120413i,1.191712+0.07073698i,0.9664217-0.6982056i,0.3095993-1.151585i,-0.4860436-1.092857i,-1.072806-0.546397i,-1.188885+0.2559609i,-0.7669784+0.9638462i,0.02376338+1.249008i,0.8304847+0.956071i,1.265732+0.1972102i,1.100223-0.6752735i},
		{1.583646-0.3933474i,0.9302346-1.287247i,-0.1101366-1.535107i,-1.027657-1.073072i,-1.419554-0.1728551i,-1.165883+0.7265006i,-0.4442943+1.241928i,0.3956327+1.205166i,1.009256+0.6939324i,1.190002-0.04769535i,0.9128094-0.7311936i,0.3035297-1.122254i,-0.4201673-1.092886i,-1.006056-0.642862i,-1.226435+0.09083857i,-0.9539697+0.8467817i,-0.2411489+1.305646i,0.6498613+1.220359i,1.322831+0.5608867i,1.427055-0.4199404i,0.8559279-1.271409i,-0.1607366-1.562632i,-1.147517-1.117512i,-1.621055-0.1242678i,-1.34089+0.9518463i,-0.4304739+1.602757i,1.514548+0.7505938i,1.669006-0.3784733i,1.073442-1.368253i,-0.03294611-1.774165i,-1.178348-1.383627i,-1.838344-0.3228718i,-1.662464+0.9591734i,-0.6657058+1.857086i,0.7224816+1.890067i,1.823601+0.9748719i,2.048238-0.4759676i,1.234986-1.730348i,-0.2231901-2.123459i,-1.571439-1.437475i,-2.10925-0.03514871i,-1.580553+1.345184i,-0.2990015+2.007262i,1.056033+1.667764i,1.826847+0.5665712i,1.705585-0.7153025i,0.8324729-1.583219i,-0.3404437-1.700827i,-1.294742-1.087044i,-1.658592-0.04699389i,-1.317016+0.9800648i,-0.4241658+1.581298i},
		{-0.5678269-0.1663575i,-0.557614+0.3239703i,-0.1625708+0.6740447i,0.3956335+0.6209593i,0.7570227+0.1565083i,0.667047-0.4475698i,0.1564677-0.8121021i,-0.4721468-0.7003071i,-0.8394648-0.1706484i,-0.7276986+0.4659864i,-0.2049503+0.8437557i,0.4307482+0.7566044i,0.8326507+0.2612318i,0.7926008-0.3727642i,0.3365076-0.8147449i,-0.3016155-0.837711i,-0.7973346-0.4233103i,-0.8896163+0.2280316i,-0.5111219+0.7846868i,0.1616683+0.9420322i,0.7772369+0.5884905i,0.986119-0.109328i,0.6452799-0.7718689i,-0.07402694-1.012519i,-0.7631202-0.674494i,-1.013461+0.05505008i,0.04885046+0.9843796i,0.7122297+0.642936i,0.924714-0.05043672i,0.5881422-0.6624635i,-0.05480564-0.8377587i,-0.5958553-0.5156038i,-0.729766+0.05803236i,-0.4326771+0.5153061i,0.05779622+0.6086486i,0.425582+0.3462583i,0.4826985-0.0533318i,0.2621755-0.332312i,-0.04498319-0.3596531i,-0.2411176-0.185082i,-0.2462581+0.03364451i,-0.1186743+0.1571118i,0.02036252+0.148265i,0.08482303+0.0659618i,0.07063781-0.006264917i,0.02934043-0.02840861i,0.007194497-0.01768228i,0.008101549-0.01034707i,0.007124246-0.01785076i,-0.009157953-0.02080607i,-0.02257699-0.001663863i,-0.006349098+0.02405695i},
		{0.4214979+0.07665049i,0.3425758-0.229622i,0.0778686-0.3890205i,-0.2148688-0.3146228i,-0.3604127-0.05794675i,-0.2736892+0.2166292i,-0.01815174+0.3330173i,0.2313941+0.2199578i,0.3050359-0.03770295i,0.1560895-0.255024i,-0.1040729-0.27631i,-0.2838414-0.0868775i,-0.248558+0.174824i,-0.01836127+0.3154179i,0.2443752+0.2250061i,0.3488486-0.04334668i,0.2095401-0.308536i,-0.09318677-0.3844788i,-0.3648464-0.2056559i,-0.4232278+0.1279282i,-0.2155372+0.4123948i,0.1464149+0.4657806i,0.4512571+0.2395398i,0.5119426-0.1492784i,0.2762116-0.4818099i,-0.1382836-0.5603789i,-0.6088035+0.1155749i,-0.3759786+0.5180387i,0.08309479+0.6545179i,0.5227257+0.4326717i,0.6950751-0.04235464i,0.4904407-0.5176952i,0.005416977-0.7288065i,-0.5029831-0.5475809i,-0.7550197-0.05887065i,-0.6027938+0.4795268i,-0.1160997+0.773802i,0.4491622+0.6546703i,0.7855219+0.1744013i,0.7012296-0.41427i,0.2303864-0.7902355i,-0.3771757-0.7397442i,-0.7872453-0.2804545i,-0.7669757+0.3395154i,-0.3215031+0.7750151i,0.3018012+0.7797931i,0.7515171+0.3516403i,0.7759966-0.2633739i,0.3706457-0.7149455i,-0.2228028-0.7550808i,-0.6645837-0.3799901i,-0.7186676+0.1786449i},
		{0.1807125-0.1495056i,0.05541637-0.2521306i,-0.1256284-0.2586428i,-0.2923658-0.1367403i,-0.3507757+0.09313438i,-0.2291187+0.3358715i,0.0574532+0.4483591i,0.3784683+0.3230867i,0.5414876-0.02052011i,0.4117587-0.4135582i,0.01895626-0.6215655i,-0.4343483-0.4917501i,-0.6831138-0.06402963i,-0.5627534+0.4360469i,-0.1174616+0.7243863i,0.417283+0.6260527i,0.7466943+0.179867i,0.6826221-0.3802935i,0.2487558-0.752796i,-0.3298704-0.7315809i,-0.745025-0.3188311i,-0.7696307+0.2714994i,-0.3834409+0.7239083i,0.2094094+0.7917233i,0.6878298+0.4366572i,0.7927453-0.1452761i,-0.07808774-0.769609i,-0.5597165-0.499544i,-0.7229585+0.005250232i,-0.5135542+0.4653946i,-0.07545161+0.6578008i,0.3550111+0.5230401i,0.582728+0.1637605i,0.5333654-0.2368933i,0.2555293-0.5078824i,-0.122462-0.5471342i,-0.4422673-0.3425905i,-0.5627165+0.02389066i,-0.4140966+0.3912641i,-0.0487547+0.5741996i,0.3551828+0.4590153i,0.5728762+0.09000871i,0.4690474-0.3293619i,0.10033-0.5498643i,-0.3058402-0.4410582i,-0.4990603-0.08579762i,-0.3782335+0.276114i,-0.056229+0.4194925i,0.2341323+0.2895513i,0.3163089+0.02226837i,0.1876833-0.1785946i,-0.007678695-0.2000477i},
		{-0.2659273+0.152899i,-0.1146368+0.3143669i,0.1270354+0.3380146i,0.3393879+0.1830802i,0.3971298-0.09190445i,0.246948-0.3478325i,-0.0489325-0.4392787i,-0.3376689-0.3026846i,-0.4607624-0.001275219i,-0.3479745+0.3066827i,-0.0591699+0.4591312i,0.2532225+0.3824189i,0.434146+0.1259104i,0.4076668-0.1772282i,0.2024866-0.3883671i,-0.08117378-0.4268727i,-0.3270802-0.2885854i,-0.4435875-0.0294647i,-0.3816006+0.2574723i,-0.1464851+0.4604004i,0.1872144+0.4761782i,0.4777618+0.2600232i,0.5645474-0.1228201i,0.3601971-0.4933926i,-0.06824258-0.637649i,-0.5025198-0.4389243i,-0.4914239+0.4989378i,-0.01202779+0.7056231i,0.4766379+0.5169858i,0.6912773+0.0448635i,0.5187841-0.4315685i,0.07951281-0.6453707i,-0.3630291-0.5027788i,-0.5735613-0.1198406i,-0.4760094+0.2742949i,-0.167035+0.4843865i,0.1722785+0.4447543i,0.3874803+0.2189666i,0.4130629-0.06630862i,0.2704915-0.291682i,0.03364472-0.3820491i,-0.2035339-0.3145992i,-0.3501-0.1188157i,-0.344061+0.126534i,-0.1830743+0.313879i,0.0612745+0.3530982i,0.2697677+0.2236011i,0.3386071-0.006322576i,0.2407079-0.2152835i,0.04050983-0.3006373i,-0.1500449-0.2369691i,-0.2420695-0.08095109i},
		{0.4206437+0.5199307i,0.678324+0.21037i,0.7280102-0.2354015i,0.4825-0.673602i,-0.03102852-0.8956503i,-0.6261111-0.7335473i,-1.013864-0.1849552i,-0.952637+0.5353717i,-0.4054069+1.075754i,0.4023076+1.130912i,1.077135+0.6236376i,1.261922-0.229627i,0.8333604-1.016984i,-0.02212165-1.341792i,-0.8976359-1.028572i,-1.369175-0.2132017i,-1.203443+0.7247025i,-0.4672272+1.345036i,0.5067009+1.35228i,1.272314+0.7291037i,1.469626-0.2544356i,0.9868653-1.155528i,0.0197958-1.55048i,-1.00038-1.228228i,-1.590624-0.3030781i,-1.441463+0.8133805i,0.601525+1.616226i,1.537983+0.8470951i,1.744265-0.3720417i,1.086058-1.443806i,-0.1322114-1.819924i,-1.3066-1.291494i,-1.840433-0.1107236i,-1.457385+1.130551i,-0.3495694+1.805965i,0.9218742+1.579785i,1.719484+0.5771343i,1.656591-0.688667i,0.786176-1.586404i,-0.4406381-1.68723i,-1.414089-0.9694093i,-1.672304+0.1886709i,-1.119632+1.211261i,-0.05576117+1.613296i,0.9873589+1.230003i,1.512367+0.2812947i,1.294477-0.7519304i,0.4774257-1.372306i,-0.5141111-1.308327i,-1.196596-0.6352221i,-1.268707+0.2822472i,-0.7479126+0.989579i},
		{-0.845139+0.2231765i,-0.5286188+0.7074626i,0.0287838+0.8991306i,0.6021683+0.6984617i,0.9348388+0.16255i,0.8463021-0.4882209i,0.3388986-0.9451648i,-0.3675056-0.9597237i,-0.9228802-0.492174i,-1.029925+0.2397161i,-0.6183558+0.8628603i,0.1040703+1.05293i,0.7638314+0.7166238i,1.02961+0.03888119i,0.7878331-0.6291125i,0.1860029-0.9646312i,-0.4661634-0.8329462i,-0.8647907-0.3313166i,-0.8520018+0.2851389i,-0.4668172+0.7373296i,0.09694962+0.8439595i,0.5887718+0.584062i,0.8074123+0.08853297i,0.6759675-0.4245895i,0.263586-0.741822i,-0.249666-0.7381815i,-0.7695684+0.06921868i,-0.5623211+0.5324389i,-0.1103258+0.7716725i,0.3997445+0.6787968i,0.7474057+0.2809883i,0.7682333-0.2588792i,0.4336996-0.699488i,-0.117851-0.8256405i,-0.6292608-0.5595282i,-0.8455108-0.0171766i,-0.6513221+0.536357i,-0.1429207+0.8231171i,0.4193953+0.7052226i,0.7562032+0.2590405i,0.7215087-0.2774926i,0.3671619-0.6464656i,-0.1120695-0.7044157i,-0.5002464-0.4691563i,-0.6609019-0.07170756i,-0.5652401+0.3280884i,-0.2644253+0.5986834i,0.1431608+0.652546i,0.5241175+0.453158i,0.7246992+0.0410626i,0.6233445-0.4405954i,0.213231-0.7726335i},
		{-0.1746645+0.3864741i,0.07586962+0.4300915i,0.325581+0.3261348i,0.4884381+0.07800467i,0.4726061-0.2519404i,0.2336242-0.5319588i,-0.1674504-0.6058558i,-0.556443-0.3844611i,-0.7190391+0.07362194i,-0.5251809+0.5586979i,-0.0279108+0.8069608i,0.536932+0.6513815i,0.8660104+0.1350309i,0.759306-0.4907968i,0.2450487-0.8939298i,-0.4211812-0.8457099i,-0.8896134-0.3548802i,-0.9079698+0.3299296i,-0.4613808+0.8530892i,0.2196622+0.9443962i,0.7857184+0.5616633i,0.9546055-0.09380248i,0.6532335-0.6905226i,0.043201-0.9397525i,-0.5724439-0.7338619i,-0.9024519-0.185593i,-0.3261837+0.8463234i,0.2964264+0.8525118i,0.7752377+0.4565796i,0.8841101-0.1555574i,0.5678805-0.6924824i,-0.02383965-0.8917688i,-0.6001315-0.6517907i,-0.8711469-0.09245495i,-0.7019228+0.4988674i,-0.1897389+0.8187973i,0.3883745+0.7149618i,0.7333171+0.2673225i,0.6913534-0.2682279i,0.3269193-0.6163398i,-0.1390259-0.6352834i,-0.4730431-0.3715663i,-0.5539047+0.003409402i,-0.4042622+0.3119578i,-0.1333782+0.4559797i,0.1440488+0.4267169i,0.3502664+0.2636157i,0.4385729+0.01875799i,0.3779425-0.2440481i,0.1652723-0.437322i,-0.1421582-0.4667343i,-0.418934-0.2865706i},
		{-0.1216832+0.2329882i,0.07699214+0.3017906i,0.2988244+0.1942832i,0.3903461-0.06891637i,0.2578626-0.3444839i,-0.05011856-0.4548404i,-0.3617294-0.3126375i,-0.4920282+0.01430673i,-0.362343+0.3458386i,-0.04356138+0.5036887i,0.2971441+0.4123055i,0.4956278+0.1250362i,0.466986-0.2211756i,0.2269038-0.4755396i,-0.1273376-0.5278194i,-0.4504242-0.3413321i,-0.5920791+0.02652687i,-0.4574229+0.4244009i,-0.07156012+0.6531571i,0.3976198+0.5636982i,0.7021814+0.16059i,0.6507472-0.3666063i,0.238563-0.7304545i,-0.3258973-0.7132109i,-0.731927-0.3073302i,-0.75051+0.2704033i,0.1976935+0.7661346i,0.6525256+0.4329959i,0.7657903-0.1094363i,0.4951608-0.581678i,-0.01151333-0.7550601i,-0.5010767-0.5553356i,-0.7373854-0.08722542i,-0.6081173+0.4188196i,-0.1771489+0.7130392i,0.340434+0.6461607i,0.6794134+0.2502468i,0.6623898-0.2679675i,0.3019595-0.6324834i,-0.2003879-0.6522421i,-0.5689091-0.3318533i,-0.6151814+0.1350944i,-0.3429615+0.4880122i,0.06995616+0.5549693i,0.392914+0.3400656i,0.4786095-0.005120907i,0.3275527-0.2904058i,0.05608543-0.3943331i,-0.1895618-0.307625i,-0.3093134-0.1075239i,-0.2795016+0.0995352i,-0.1417862+0.2278917i},
		{-0.02499765+0.0633122i,0.03688023+0.05753188i,0.06619935+0.005315586i,0.04207881-0.0456278i,-0.008648823-0.0546508i,-0.04069169-0.02230768i,-0.03214138+0.0155593i,-0.001011703+0.02420573i,0.01564089+0.001969677i,-0.001219398-0.02018918i,-0.03322472-0.00984379i,-0.04035797+0.03324617i,0.0009711233+0.07136209i,0.07003952+0.0585368i,0.1104215-0.01646543i,0.07322344-0.1099716i,-0.0366986-0.147879i,-0.1510242-0.0823293i,-0.1804459+0.06151482i,-0.08370911+0.1902435i,0.0897278+0.2043415i,0.2235927+0.07610046i,0.216112-0.1185005i,0.06011236-0.2464028i,-0.1432776-0.2137632i,-0.2543886-0.03882976i,-0.0176891+0.2449592i,0.1586585+0.1717961i,0.2183919+0.003504494i,0.1420172-0.1404221i,0.002816251-0.1784195i,-0.1035418-0.116314i,-0.13192-0.01999391i,-0.1022407+0.05182163i,-0.05566346+0.08765835i,-0.007251583+0.1050422i,0.0543365+0.1059856i,0.1260427+0.06389119i,0.1630916-0.03845445i,0.1081542-0.1619531i,-0.04259013-0.2166478i,-0.2053707-0.1322823i,-0.2561765+0.06461978i,-0.1325857+0.2463962i,0.09814503+0.2735168i,0.274965+0.1103298i,0.2647543-0.1340438i,0.07136398-0.2832689i,-0.1627306-0.231093i,-0.2676115-0.02460216i,-0.1784503+0.1765026i,0.02020667+0.2292102i},
		{0.78676-0.4168599i,0.3237336-0.7815158i,-0.2302962-0.7689899i,-0.6273259-0.4321155i,-0.7218935+0.04822304i,-0.5127192+0.4590253i,-0.1195431+0.6447038i,0.2820052+0.5587876i,0.5366066+0.2659062i,0.5662665-0.0999336i,0.387048-0.3982596i,0.08419054-0.5348996i,-0.2331591-0.4819415i,-0.4683207-0.2666145i,-0.5510563+0.04829846i,-0.4416429+0.3730966i,-0.1462016+0.5947713i,0.2570347+0.6012116i,0.6121145+0.3384602i,0.7354878-0.1273184i,0.5168239-0.6003324i,0.01090234-0.8344015i,-0.5554989-0.6718753i,-0.8896738-0.1549965i,-0.7978382+0.4740016i,-0.3042623+0.896712i,0.8557571+0.4584875i,0.9586918-0.1991331i,0.6161849-0.77189i,-0.01510035-0.9981951i,-0.6538648-0.7731577i,-1.014316-0.1865787i,-0.9219481+0.5121083i,-0.3922227+1.008102i,0.3564946+1.052445i,0.9781486+0.5878674i,1.15354-0.1945699i,0.7616443-0.9210842i,-0.03075105-1.215374i,-0.8330432-0.9055564i,-1.23151-0.1333021i,-1.016165+0.7116426i,-0.2973274+1.200381i,0.5578039+1.094041i,1.125577+0.4606248i,1.142232-0.3768003i,0.620407-1.0149i,-0.1781529-1.164287i,-0.8784924-0.7709326i,-1.162526-0.02563853i,-0.9037517+0.7266269i,-0.2211701+1.137108i},
		{0.6674825-0.2791574i,0.3272678-0.6168417i,-0.1306934-0.6667612i,-0.511291-0.4287586i,-0.6609904-0.01098148i,-0.5170848+0.4092398i,-0.1366238+0.6461405i,0.3127375+0.5835209i,0.6172771+0.2404348i,0.6219971-0.2212726i,0.3202571-0.5704957i,-0.1333298-0.6301377i,-0.5045056-0.3767055i,-0.6092166+0.04813902i,-0.4116356+0.4213614i,-0.03302028+0.563143i,0.3261382+0.426558i,0.4969123+0.1064189i,0.421597-0.2257123i,0.1665163-0.4151063i,-0.1270964-0.3953678i,-0.3209763-0.2074028i,-0.3458021+0.03591296i,-0.2245315+0.2164004i,-0.04448478+0.2715903i,0.1026682+0.2161197i,0.1837206+0.0182682i,0.1698291-0.0562002i,0.1426223-0.1317501i,0.07352063-0.2153166i,-0.06612686-0.2642095i,-0.2485228-0.2060721i,-0.3748131-0.007504378i,-0.3317811+0.26668i,-0.08533932+0.4654743i,0.2654593+0.442752i,0.5283613+0.1662087i,0.5344398-0.2401557i,0.2513016-0.5586438i,-0.18742-0.6062382i,-0.5557557-0.3428915i,-0.6608722+0.1069556i,-0.4424956+0.5235962i,0.002568848+0.7027807i,0.4695422+0.5491139i,0.7360083+0.1178576i,0.6581909-0.4025252i,0.2435662-0.7623021i,-0.3307292-0.7617224i,-0.7800461-0.3630133i,-0.8495592+0.2596059i,-0.4662595+0.7844099i},
		{0.005543101+0.296652i,0.1629084+0.2181677i,0.2421967+0.08519445i,0.2451922-0.05933666i,0.176385-0.1890859i,0.03918612-0.2703019i,-0.1381282-0.257724i,-0.2864175-0.1268217i,-0.3217136+0.08718397i,-0.2016805+0.2875645i,0.03316623+0.3648501i,0.2707302+0.2646425i,0.3873939+0.02587922i,0.3174543-0.2365253i,0.08939483-0.3919634i,-0.188512-0.3608958i,-0.3815892-0.1541164i,-0.3937351+0.1315404i,-0.2150862+0.358027i,0.0697908+0.412862i,0.3209935+0.2674438i,0.4145306-0.005305459i,0.3082692-0.2686282i,0.06239432-0.3962085i,-0.1990036-0.3377291i,-0.3582861-0.1354258i,-0.2156999+0.3049196i,0.01140095+0.3770666i,0.2435716+0.3028046i,0.3963203+0.09547108i,0.3924541-0.1832737i,0.1976911-0.418525i,-0.1321068-0.4761958i,-0.4411877-0.2833819i,-0.5426579+0.09471399i,-0.3425191+0.4574569i,0.07071222+0.5800989i,0.4575879+0.3696442i,0.5795438-0.05461787i,0.3654919-0.4316602i,-0.03742907-0.5375432i,-0.3727646-0.3369366i,-0.4576535+0.009462681i,-0.2951803+0.2796734i,-0.03638875+0.3500988i,0.1581178+0.2526641i,0.2296265+0.1019882i,0.2196084-0.02020129i,0.1827303-0.112131i,0.1179617-0.2012174i,-0.01100619-0.268189i,-0.1963939-0.2397423i},
		{0.3464509-0.4224866i,-0.016986-0.5716849i,-0.4079489-0.4320824i,-0.6096693-0.04828697i,-0.4912146+0.3826172i,-0.1028665+0.6180394i,0.3413821+0.520915i,0.592885+0.1495573i,0.5224958-0.2803238i,0.1925215-0.5345964i,-0.1983753-0.5007798i,-0.4479863-0.2354758i,-0.4625509+0.09827015i,-0.2801047+0.3413482i,-0.01353246+0.4146667i,0.2247258+0.3251844i,0.3623969+0.127938i,0.3666788-0.1078945i,0.2350042-0.3084601i,0.001373022-0.398756i,-0.252993-0.3258986i,-0.415382-0.09829598i,-0.3944626+0.19438i,-0.1811203+0.4119752i,0.1306028+0.4379617i,0.3866058+0.2502998i,0.3071885-0.3403942i,0.01471421-0.4539073i,-0.2770424-0.3527415i,-0.4325868-0.09242035i,-0.3866788+0.2017191i,-0.1679886+0.3960335i,0.1197222+0.4073757i,0.3462369+0.2364489i,0.4124653-0.03538646i,0.2935716-0.2840908i,0.04841127-0.3998808i,-0.210079-0.3367461i,-0.3689116-0.1300337i,-0.3652385+0.1252875i,-0.2083048+0.3208511i,0.03229634+0.3797662i,0.2589703+0.2815311i,0.381578+0.06444794i,0.3467593-0.1878018i,0.1589864-0.3714199i,-0.1119796-0.3996233i,-0.3488131-0.2448687i,-0.434922+0.0350501i,-0.3165285+0.3119686i,-0.04130433+0.4478016i,0.2584378+0.3705558i},
		{0.7080411+1.066759i,1.216533+0.3716442i,1.169461-0.4828044i,0.5943046-1.110801i,-0.2457679-1.231401i,-0.970154-0.7925161i,-1.250573+0.005944065i,-0.9587623+0.8003842i,-0.2269426+1.226425i,0.6084993+1.086039i,1.159412+0.4429724i,1.168056-0.4019648i,0.6328373-1.050712i,-0.1879919-1.199779i,-0.9022874-0.7887477i,-1.178214-0.02689792i,-0.9051855+0.7173027i,-0.236903+1.103209i,0.5007482+0.979284i,0.9780052+0.4365872i,1.010717-0.2600229i,0.6203123-0.8093053i,-0.005180158-1.001126i,-0.6067402-0.7817219i,-0.9532721-0.2513815i,-0.9135504+0.3817928i,0.1464003+1.007936i,0.7544542+0.7144415i,1.057265+0.08843844i,0.8950267-0.6083106i,0.3137101-1.055397i,-0.4337851-1.028617i,-0.9989731-0.5228392i,-1.110298+0.2335973i,-0.7114709+0.8884449i,0.012047+1.139411i,0.7285354+0.876712i,1.118967+0.2242641i,1.016124-0.5279503i,0.4661941-1.05448i,-0.2983865-1.126833i,-0.952569-0.7024609i,-1.205077+0.0530613i,-0.9206489+0.8197277i,-0.194884+1.246361i,0.6615758+1.108603i,1.246175+0.4337371i,1.25588-0.4827264i,0.6540455-1.201068i,-0.2872111-1.354902i,-1.109723-0.8488202i,-1.401576+0.07922199i},
		{0.8080461+1.028562i,1.237571+0.2557425i,1.066485-0.5784408i,0.4236082-1.075505i,-0.3421895-1.036714i,-0.8623444-0.5476124i,-0.9416306+0.1025472i,-0.6285286+0.6042187i,-0.1358905+0.7884366i,0.3116506+0.6689157i,0.5880817+0.3662985i,0.6717107+0.0009803602i,0.5793428-0.3536695i,0.3167205-0.6390829i,-0.09872128-0.7636673i,-0.5718746-0.6178203i,-0.9070893-0.1643017i,-0.8876373+0.4697685i,-0.4249207+0.9982467i,0.3320976+1.112278i,1.028316+0.6748912i,1.281688-0.1590213i,0.9078738-0.9924074i,0.04731203-1.390056i,-0.8903351-1.11877i,-1.435601-0.2819707i,-0.5370409+1.419911i,0.5100207+1.456183i,1.347113+0.8020613i,1.573769-0.2521038i,1.064948-1.223092i,0.03366848-1.651587i,-1.054899-1.31315i,-1.6862-0.3332579i,-1.534758+0.8504156i,-0.6328931+1.675463i,0.6181726+1.719337i,1.618897+0.9196303i,1.858412-0.36723i,1.181674-1.5178i,-0.10698-1.945626i,-1.3751-1.408603i,-1.976726-0.1531958i,-1.591638+1.195032i,-0.4044023+1.949549i,0.9828104+1.724031i,1.864134+0.6387399i,1.801535-0.7444286i,0.8496932-1.722999i,-0.4867051-1.822826i,-1.531478-1.032253i,-1.789692+0.2175335i},
		{0.06655238-1.071846i,-0.6927077-0.8391916i,-1.08446-0.1372206i,-0.8789735+0.6414891i,-0.196244+1.055067i,0.566864+0.881883i,0.9836276+0.2480073i,0.8526978-0.4673439i,0.2965404-0.8747243i,-0.3453217-0.7983782i,-0.7366788-0.34395i,-0.726273+0.2070723i,-0.3895378+0.5799969i,0.06184012+0.64259i,0.4155936+0.4298313i,0.5515354+0.07970475i,0.4594709-0.2532773i,0.2072015-0.4552904i,-0.1008406-0.4726392i,-0.354709-0.312067i,-0.4645737-0.03612361i,-0.3883688+0.2503922i,-0.1538143+0.4327075i,0.1436939+0.4329923i,0.3771406+0.2495355i,0.4452249-0.03727701i,0.06496414-0.4260506i,-0.2065976-0.3665675i,-0.3774886-0.158546i,-0.3844958+0.1005856i,-0.2393179+0.3022324i,-0.01292956+0.3744295i,0.2036721+0.3042842i,0.3375039+0.129652i,0.3519992-0.08618957i,0.2455417-0.2767635i,0.04451669-0.3823833i,-0.1970004-0.3563284i,-0.3960382-0.181362i,-0.457017+0.1040606i,-0.3162597+0.3933396i,0.003772246+0.5417162i,0.3736822+0.4409933i,0.6040082+0.09919315i,0.5484142-0.3352166i,0.2021567-0.6378751i,-0.2752579-0.6336437i,-0.6389747-0.3046605i,-0.6949062+0.1913157i,-0.4079547+0.6058924i,0.08246648+0.7336836i,0.5409495+0.5138419i},
		{0.4094141+0.1907085i,0.4314276-0.150754i,0.2080055-0.4096369i,-0.1300465-0.440416i,-0.3930441-0.2329482i,-0.4436409+0.09219889i,-0.2661152+0.3612863i,0.03888074+0.4428587i,0.3174363+0.3069094i,0.4396255+0.02643482i,0.3531701-0.2653354i,0.09889451-0.4346207i,-0.2087531-0.4012335i,-0.4272745-0.1730757i,-0.4464807+0.1506221i,-0.2439657+0.4158556i,0.09259273+0.4842481i,0.3980204+0.3078291i,0.5108473-0.03504642i,0.3627121-0.3716679i,0.0224448-0.5243936i,-0.335833-0.4084424i,-0.5251902-0.08036996i,-0.4461388+0.2913274i,-0.1384952+0.5155479i,0.2409129+0.4773937i,0.5033906-0.1889326i,0.2478783-0.4797369i,-0.1404906-0.524231i,-0.4606968-0.2922031i,-0.5386802+0.1004096i,-0.323938+0.443706i,0.0722565+0.5444058i,0.4287762+0.3393166i,0.5386317-0.05770573i,0.3359915-0.4144697i,-0.05640249-0.5190022i,-0.3986029-0.3135572i,-0.4843841+0.06633662i,-0.2736144+0.3791377i,0.08458661+0.4353618i,0.3549708+0.2193712i,0.3742779-0.1081874i,0.1549214-0.3263804i,-0.1348505-0.3048224i,-0.2950065-0.08443157i,-0.2313173+0.1633278i,-0.01148616+0.2634018i,0.1933378+0.1579379i,0.2343332-0.06122413i,0.08811715-0.2251272i,-0.1318168-0.2100835i},
		{0.8921505-0.1730509i,0.5821339-0.6981393i,0.01055853-0.9115684i,-0.5705969-0.7176312i,-0.903383-0.1974328i,-0.8338714+0.4235598i,-0.3812023+0.8684347i,0.2629571+0.9272283i,0.8089466+0.5546843i,0.9941778-0.09598551i,0.7100016-0.7276651i,0.06979481-1.030964i,-0.6270624-0.8392614i,-1.033804-0.227552i,-0.9356422+0.5089505i,-0.3720803+0.9996448i,0.3746975+0.9945601i,0.9272851+0.5001818i,1.014521-0.2260033i,0.6103862-0.8184507i,-0.06595767-0.9973415i,-0.678428-0.7021i,-0.9476174-0.1000335i,-0.774489+0.5159333i,-0.2638687+0.8715497i,0.3421357+0.8255095i,0.8514746-0.1690159i,0.5425761-0.6644889i,-0.007464475-0.8473793i,-0.5417122-0.6354587i,-0.8079672-0.1343767i,-0.6859307+0.4082224i,-0.2520777+0.7292747i,0.2638787+0.6903062i,0.6102177+0.3449349i,0.6497865-0.1086569i,0.4150585-0.4537452i,0.05589165-0.5701101i,-0.2671846-0.4658307i,-0.4602685-0.2255444i,-0.500214+0.06162455i,-0.3930558+0.3306405i,-0.1495472+0.5194277i,0.1910526+0.5487117i,0.5223829+0.352595i,0.6816727-0.04927637i,0.5353802-0.506024i,0.08967641-0.7817519i,-0.466435-0.6888208i,-0.8411399-0.2233571i,-0.8075414+0.4003364i,-0.350955+0.8556166i},
		{0.02968577-0.133487i,-0.09464777-0.09920587i,-0.1368938+0.02595639i,-0.05373114+0.1339753i,0.08795545+0.1246395i,0.1636243-0.003866967i,0.09830651-0.1470981i,-0.06472509-0.1799646i,-0.19549-0.06349897i,-0.1834768+0.1192188i,-0.02841938+0.2284731i,0.1593579+0.1784612i,0.245573+0.001635951i,0.1715826-0.1807188i,-0.01029061-0.2502051i,-0.1833455-0.1697065i,-0.2482634+0.004600585i,-0.1777132+0.1713759i,-0.01699312+0.2460627i,0.1515417+0.196978i,0.2482998+0.04894378i,0.2249865-0.1310377i,0.08359513-0.2566733i,-0.115437-0.2561764i,-0.2695659-0.1134274i,-0.2837012+0.1072868i,0.1057798+0.3015134i,0.2913743+0.1407326i,0.3060825-0.1075258i,0.137875-0.290928i,-0.1080899-0.2972094i,-0.2794599-0.1285785i,-0.2777204+0.1037232i,-0.1176357+0.2577094i,0.09267898+0.2522134i,0.228743+0.1088316i,0.2253412-0.07568159i,0.1037459-0.1967271i,-0.05543181-0.2002553i,-0.1653955-0.1015043i,-0.1777527+0.03538282i,-0.09951315+0.1367834i,0.01827776+0.1564036i,0.1106947+0.09485668i,0.133582-0.005018477i,0.08580434-0.08510017i,0.005691182-0.1069997i,-0.05732781-0.07284362i,-0.07616281-0.01676957i,-0.05882598+0.02561205i,-0.03143656+0.04319231i,-0.009575137+0.04813617i},
		{0.7177186-0.4772563i,0.2098326-0.7612715i,-0.3058031-0.6486058i,-0.5865665-0.2673438i,-0.5526436+0.150471i,-0.2933096+0.407531i,0.01728421+0.4331115i,0.2308853+0.2865381i,0.2945226+0.08856416i,0.2471983-0.06361224i,0.1626143-0.1423872i,0.08725472-0.1765271i,0.01724109-0.2011568i,-0.07654422-0.21508i,-0.2014573-0.1783098i,-0.3142341-0.05008559i,-0.3352388+0.1621828i,-0.1999749+0.380711i,0.08391886+0.4831851i,0.4125732+0.3687543i,0.6180384+0.03039846i,0.5507554-0.4100831i,0.175326-0.7361826i,-0.3754542-0.7388141i,-0.8341431-0.3431624i,-0.9243566+0.3122746i,0.2247482+1.097866i,0.9547563+0.7098791i,1.249712-0.1169688i,0.8896284-0.969682i,0.007564738-1.371212i,-0.9497709-1.056143i,-1.455699-0.1460457i,-1.203849+0.893063i,-0.2960463+1.499342i,0.7997128+1.329426i,1.501519+0.4549053i,1.431394-0.6725431i,0.6190367-1.464639i,-0.5171786-1.509352i,-1.393459-0.7834176i,-1.563126+0.3416702i,-0.9414704+1.294095i,0.1556621+1.592113i,1.17297+1.085432i,1.595019+0.03071813i,1.207155-1.03599i,0.2079857-1.570076i,-0.8881127-1.299141i,-1.515646-0.3681879i,-1.355554+0.7333713i,-0.5053806+1.431018i},
		{-1.116986+0.9538993i,-0.2095801+1.459596i,0.8051332+1.23483i,1.413406+0.3971936i,1.316322-0.6252811i,0.5771288-1.321586i,-0.4231366-1.35876i,-1.188728-0.7409566i,-1.359503+0.2079819i,-0.8805725+1.01952i,-0.01163068+1.316574i,0.818633+0.9895011i,1.229672+0.2285769i,1.063894-0.5912273i,0.4371496-1.10117i,-0.3437959-1.102874i,-0.9367023-0.632413i,-1.108107+0.08494674i,-0.8092352+0.7450264i,-0.174297+1.082734i,0.5370989+0.9614415i,1.030048+0.420946i,1.081508-0.3245654i,0.6412687-0.9523647i,-0.1180669-1.161036i,-0.8505096-0.8225436i,-0.9548988+0.724127i,-0.2469469+1.168384i,0.5727431+1.032728i,1.08798+0.3980398i,1.055274-0.397256i,0.527029-0.9533969i,-0.2013494-1.026199i,-0.7723136-0.6338988i,-0.9522599-0.007678581i,-0.7175924+0.5565855i,-0.2190226+0.8414947i,0.3204829+0.7751308i,0.7014405+0.419487i,0.8016127-0.07850014i,0.5953714-0.5379276i,0.1566806-0.7911444i,-0.3547716-0.7346373i,-0.7384407-0.3755433i,-0.8287778+0.1543982i,-0.5721036+0.6406122i,-0.06087361+0.8738946i,0.4985832+0.7432967i,0.8707363+0.2873811i,0.8877006-0.317695i,0.5190349-0.8237637i,-0.1073022-1.004098i},
		{0.05547791+0.3261032i,0.3060036+0.2763962i,0.4927357+0.01655501i,0.4415004-0.3610261i,0.10012-0.6347832i,-0.3870077-0.5938932i,-0.7430674-0.1955519i,-0.7287536+0.3779411i,-0.3039616+0.811667i,0.3301698+0.8440136i,0.8384644+0.4262144i,0.9397678-0.243299i,0.5619017-0.8250495i,-0.120566-1.017333i,-0.776045-0.7085752i,-1.07822-0.03140144i,-0.861434+0.6980439i,-0.2033684+1.123279i,0.598423+1.013535i,1.152204+0.384626i,1.156459-0.484291i,0.5642242-1.16349i,-0.3617633-1.281269i,-1.154781-0.7320663i,-1.379543+0.2356446i,-0.879696+1.123491i,1.067504+1.000719i,1.470581+0.01412544i,1.090894-0.9857831i,0.1331462-1.455933i,-0.8787891-1.148009i,-1.400348-0.2457644i,-1.171657+0.7486501i,-0.3501765+1.306212i,0.5991377+1.163019i,1.17808+0.444516i,1.124672-0.4355139i,0.5268573-1.022414i,-0.264325-1.060404i,-0.8472846-0.595221i,-0.9749643+0.09317791i,-0.6475247+0.6619856i,-0.06951746+0.8736929i,0.4765174+0.6814819i,0.762019+0.2149007i,0.6945134-0.3008948i,0.3341736-0.6448848i,-0.1443151-0.6837757i,-0.5262203-0.419305i,-0.6464058+0.01428546i,-0.4638856+0.4086189i,-0.08412819+0.5800288i},
		{-0.7990254+0.03654619i,-0.5889281+0.5222746i,-0.1341696+0.7587752i,0.3494899+0.6671889i,0.6672312+0.3184698i,0.7215976-0.1342541i,0.5145873-0.5343756i,0.1122942-0.7580133i,-0.373643-0.7165728i,-0.780609-0.3743141i,-0.9139681+0.1991783i,-0.6335369+0.7901236i,0.02309569+1.092874i,0.7833408+0.8721992i,1.238184+0.1464912i,1.07585-0.7539755i,0.3061279-1.336393i,-0.6947066-1.23528i,-1.378192-0.456239i,-1.347095+0.5997384i,-0.5992279+1.360157i,0.4671083+1.412877i,1.285076+0.7371156i,1.437291-0.3000451i,0.8695053-1.160921i,-0.1069844-1.425833i,-1.38292-0.09973031i,-1.099062+0.8108267i,-0.3060372+1.310936i,0.6077437+1.180179i,1.210407+0.4985623i,1.227204-0.3982493i,0.6665521-1.081163i,-0.1887691-1.233822i,-0.9239402-0.8028434i,-1.197497-0.01566281i,-0.9037355+0.7418221i,-0.2101797+1.119838i,0.5409396+0.968004i,1.005878+0.389057i,0.9955668-0.3301753i,0.5453621-0.8626128i,-0.1199516-0.9863927i,-0.6973616-0.6714814i,-0.9401056-0.07948219i,-0.7603803+0.5165556i,-0.2596817+0.8564414i,0.3253548+0.8071593i,0.7363602+0.415002i,0.8103335-0.1281695i,0.5426321-0.5833383i,0.07019233-0.7723272i},
		{-0.368182+0.09786068i,-0.1998429+0.36996i,0.1338863+0.4326147i,0.4216142+0.226248i,0.4802682-0.1329391i,0.2697189-0.4373123i,-0.09541342-0.517887i,-0.4236722-0.3324533i,-0.5506231+0.02681734i,-0.411781+0.3884953i,-0.06412666+0.580299i,0.3383807+0.5009798i,0.6049932+0.1679122i,0.5911688-0.2772375i,0.2764043-0.6199754i,-0.20609-0.6735942i,-0.6195788-0.3840676i,-0.7415497+0.1241092i,-0.48798+0.5993095i,0.03037964+0.791353i,0.5574467+0.5867959i,0.8221689+0.07433074i,0.6791975-0.4956044i,0.1865113-0.8348931i,-0.4181112-0.7625456i,-0.8306468-0.2999939i,-0.4071837+0.8095546i,0.2377365+0.8827999i,0.7703496+0.5009956i,0.9083593-0.1428502i,0.5767792-0.7110158i,-0.04658638-0.9056309i,-0.6302595-0.6334929i,-0.8750079-0.05182959i,-0.6736458+0.5292475i,-0.1530443+0.8212904i,0.4129015+0.7019616i,0.7529693+0.2556894i,0.7231895-0.2901407i,0.3550145-0.6802762i,-0.1728008-0.7398128i,-0.6125441-0.4426598i,-0.7504783+0.0734056i,-0.5078174+0.5556918i,0.002383038+0.7497583i,0.5106466+0.5395554i,0.7294258+0.03445342i,0.5296584-0.4732494i,0.03736448-0.6809252i,-0.4357379-0.4751238i,-0.5983101-0.01258551i,-0.3795085+0.3894025i},
		{-1.408582-0.1589945i,-1.142264+0.7831003i,-0.3454937+1.303255i,0.5669367+1.179278i,1.156852+0.5158569i,1.176649-0.3373759i,0.6651008-0.9770955i,-0.1043596-1.13681i,-0.7734725-0.7875218i,-1.062447-0.1207998i,-0.8766946+0.555958i,-0.3265497+0.955776i,0.3337751+0.9260598i,0.8183874+0.5024692i,0.9299979-0.1145442i,0.6405256-0.6517105i,0.09594505-0.8851066i,-0.4579681-0.7358755i,-0.7913077-0.2933138i,-0.787007+0.2412835i,-0.4737225+0.6524325i,0.00853168+0.7952179i,0.4760728+0.6329004i,0.7636245+0.2304228i,0.76547-0.2726916i,0.4632831-0.6960317i,-0.596024-0.6766147i,-0.9239645-0.1676298i,-0.8575851+0.4665487i,-0.3825353+0.936257i,0.3100945+0.995713i,0.8973025+0.5825534i,1.08418-0.1293604i,0.7621256-0.8059794i,0.07185445-1.120391i,-0.6651962-0.9175739i,-1.105683-0.2878865i,-1.046226+0.4818312i,-0.5108837+1.044362i,0.2659124+1.145553i,0.9423933+0.7310916i,1.212662-0.02926641i,0.9377276-0.8061823i,0.2159921-1.244339i,-0.6417826-1.120227i,-1.237615-0.4587393i,-1.269525+0.4547047i,-0.6895979+1.190673i,0.2502659+1.379034i,1.103728+0.9010677i,1.445071-0.03423308i,1.087141-0.9795849i},
		{-0.1750914+0.3983895i,0.1371278+0.3959386i,0.3568531+0.1893424i,0.3759748-0.1019463i,0.1961172-0.3199471i,-0.0751075-0.3528557i,-0.2857348-0.1947747i,-0.3257812+0.05488825i,-0.1871265+0.2529128i,0.03895819+0.2962921i,0.221843+0.1765267i,0.2679003-0.02571613i,0.1664845-0.1948218i,-0.01518486-0.2449519i,-0.1754842-0.1593124i,-0.2311361+0.009136793i,-0.155295+0.167558i,0.01041056+0.228174i,0.1734218+0.1526722i,0.2351643-0.02167722i,0.1484371-0.1930063i,-0.04411991-0.2488376i,-0.223465-0.1396615i,-0.2646546+0.07653234i,-0.1248675+0.2597835i,0.1152046+0.2783885i,0.2876485-0.1546958i,0.08321126-0.3277631i,-0.1892821-0.2928075i,-0.3521549-0.06466673i,-0.2969818+0.2146242i,-0.05444665+0.37009i,0.2290976+0.3050267i,0.3851809+0.05617146i,0.3218465-0.2343232i,0.07062092-0.4026242i,-0.2346785-0.3505622i,-0.4273303-0.09524271i,-0.3911473+0.2359053i,-0.1246936+0.4620555i,0.2432296+0.4400027i,0.5061458+0.1522806i,0.4906408-0.2595815i,0.1718675-0.5553137i,-0.2844873-0.5352912i,-0.6025419-0.1796512i,-0.5669353+0.3139993i,-0.1752412+0.639851i,0.3417027+0.5811393i,0.6603913+0.1617005i,0.5771204-0.360496i,0.1445373-0.6602213i},
		{0.4263819-1.101336i,-0.3722659-1.138896i,-1.025354-0.6531358i,-1.22365+0.1512505i,-0.8563968+0.9095894i,-0.07656066+1.261705i,0.7580229+1.026973i,1.249917+0.3022238i,1.157227-0.5748736i,0.5180457-1.186802i,-0.3648073-1.242013i,-1.073365-0.7178376i,-1.279212+0.1335i,-0.8966376+0.9137438i,-0.111706+1.269686i,0.7153693+1.050054i,1.216658+0.3613822i,1.173534-0.4885021i,0.6041123-1.124703i,-0.2451793-1.261901i,-0.9987044-0.8272324i,-1.30942-0.002196283i,-1.018132+0.8430755i,-0.242277+1.310476i,0.6615263+1.165835i,1.260737+0.4658433i,0.6662727-1.15848i,-0.2345471-1.304276i,-1.005686-0.8393315i,-1.291784-0.00186621i,-0.9824235+0.8085445i,-0.2444805+1.229302i,0.5771655+1.093591i,1.123707+0.4836054i,1.170634-0.3245204i,0.7076796-0.9829881i,-0.0648514-1.210664i,-0.8149299-0.9043797i,-1.210267-0.1880671i,-1.062119+0.6262702i,-0.4223989+1.166242i,0.4225195+1.171569i,1.076681+0.6291273i,1.226833-0.2083925i,0.802213-0.9420631i,0.01138957-1.225988i,-0.7659819-0.9381146i,-1.170903-0.2312767i,-1.03494+0.5552871i,-0.4443932+1.066468i,0.3195595+1.09158i,0.9194862+0.6425841i},
		{-0.7590923+0.9930458i,0.001883876+1.259437i,0.7791063+1.009631i,1.255013+0.3274124i,1.215851-0.5235444i,0.6476389-1.189614i,-0.2361982-1.367714i,-1.063709-0.945444i,-1.457362-0.07331382i,-1.20969+0.879522i,-0.3956598+1.480307i,0.6418965+1.432028i,1.436194+0.7213606i,1.606792-0.3590279i,1.040128-1.328879i,-0.04269996-1.730338i,-1.165765-1.340352i,-1.800133-0.2922018i,-1.609087+0.9565613i,-0.6289072+1.813984i,0.7118112+1.832719i,1.76975+0.9504904i,1.998288-0.4416092i,1.241716-1.66569i,-0.1548449-2.09519i,-1.501405-1.490553i,-1.689001+1.279071i,-0.4385013+2.061742i,1.004558+1.833052i,1.933986+0.7308562i,1.921874-0.6880206i,1.009449-1.742432i,-0.3436614-1.956543i,-1.499379-1.264139i,-1.93875-0.01136313i,-1.483356+1.21871i,-0.3587084+1.869933i,0.9141234+1.655092i,1.751094+0.6808631i,1.768432-0.5978818i,0.9629471-1.583356i,-0.2803326-1.815229i,-1.369005-1.193876i,-1.791455-0.02980864i,-1.366684+1.112647i,-0.3246603+1.697863i,0.8220156+1.478057i,1.539795+0.5962744i,1.527349-0.5081115i,0.8360505-1.326245i,-0.1845603-1.515509i,-1.068459-1.034751i},
		{0.9778023-0.3310886i,0.5408756-0.8774394i,-0.144684-1.017141i,-0.7575782-0.6848054i,-1.010924-0.04153478i,-0.7950538+0.6052571i,-0.2264752+0.9580088i,0.4220912+0.8720967i,0.8625203+0.4091312i,0.9194287-0.2139618i,0.5867045-0.7332885i,0.008644692-0.9415344i,-0.5821044-0.7532987i,-0.9417892-0.2315996i,-0.8997114+0.4212919i,-0.4392123+0.9209896i,0.2613043+1.014496i,0.8770093+0.6168802i,1.086051-0.1090485i,0.7535709-0.8057031i,0.03259672-1.105141i,-0.7027708-0.8434403i,-1.067114-0.1639848i,-0.8861602+0.5659738i,-0.286951+0.9731439i,0.3969764+0.8859216i,0.8494875-0.202203i,0.5102295-0.6493611i,0.007586156-0.7839423i,-0.4441648-0.6053i,-0.6948507-0.2188943i,-0.681135+0.2275765i,-0.4177879+0.5853707i,0.01037417+0.7297678i,0.456528+0.59222i,0.7441078+0.1998079i,0.7337119-0.3084644i,0.3982116-0.7198727i,-0.1421451-0.8379594i,-0.6567972-0.5817701i,-0.9042922-0.03912998i,-0.74755+0.5587497i,-0.2289839+0.9342932i,0.4327608+0.8914641i,0.9301459+0.4182882i,1.00778-0.2873269i,0.5964735-0.8933411i,-0.130585-1.089646i,-0.8242119-0.7534008i,-1.130468-0.03102539i,-0.881174+0.7224509i,-0.1931883+1.125676i},
		{0.5412235+0.9272008i,0.9943486+0.3640816i,0.9903876-0.3450459i,0.5484512-0.8893708i,-0.1355263-1.039322i,-0.7694885-0.7266937i,-1.07214-0.07291956i,-0.8863797+0.6427304i,-0.2662527+1.084535i,0.5146096+1.014427i,1.070359+0.4326388i,1.098976-0.3876352i,0.5638663-1.022931i,-0.2616498-1.131263i,-0.9367675-0.6560456i,-1.107078+0.1348908i,-0.709468+0.8093041i,0.00547458+1.027486i,0.6421841+0.7277145i,0.8986596+0.1271173i,0.7162935-0.4417746i,0.26096-0.7308875i,-0.2187744-0.6811776i,-0.5370241-0.3912938i,-0.6275921-0.01298929i,-0.5108942+0.3307213i,0.1248103+0.611067i,0.4783985+0.4423629i,0.6829853+0.06989681i,0.6125553-0.3857251i,0.2452549-0.7190377i,-0.2813887-0.7394489i,-0.7139035-0.3958929i,-0.8173973+0.1655125i,-0.5189081+0.6651918i,0.03882329+0.8444935i,0.573614+0.6133308i,0.8221357+0.09696287i,0.6795421-0.4427738i,0.2389957-0.7543929i,-0.2787254-0.718777i,-0.6473481-0.3833413i,-0.7327685+0.08945026i,-0.525144+0.5085273i,-0.1156406+0.7235104i,0.3464229+0.6588156i,0.693069+0.3261508i,0.7782033-0.1700554i,0.531133-0.643376i,0.01151693-0.876755i,-0.5759784-0.7196038i,-0.9477523-0.1897939i},
		{0.6062611+0.7938707i,0.9461501+0.2487985i,0.890291-0.3787818i,0.4695804-0.844209i,-0.1529465-0.960129i,-0.726222-0.6636475i,-0.9960732-0.06003403i,-0.8188959+0.5941536i,-0.2516093+0.9913949i,0.4487781+0.9260782i,0.9411198+0.4161576i,0.9795913-0.290456i,0.5507554-0.8430179i,-0.1200294-0.9777572i,-0.6982462-0.6545832i,-0.9226316-0.06037383i,-0.7281615+0.5115613i,-0.2467979+0.8194506i,0.2911025+0.7726135i,0.6758742+0.4332801i,0.7891068-0.04781376i,0.6120522-0.5011677i,0.2053925-0.7785468i,-0.3054216-0.774067i,-0.7415146-0.4546209i,-0.9097494+0.09885488i,-0.1087995+1.009856i,0.5895321+0.886885i,1.06634+0.3088344i,1.046449-0.4755747i,0.4940259-1.073143i,-0.3376049-1.156844i,-1.026871-0.658967i,-1.213619+0.1774392i,-0.8002071+0.927297i,-0.002103944+1.216062i,0.77767+0.9161373i,1.167143+0.1968946i,1.006596-0.584758i,0.4011965-1.073074i,-0.3585812-1.072239i,-0.9424986-0.6074808i,-1.113799+0.11179i,-0.8064683+0.7854027i,-0.1413035+1.131392i,0.6119026+0.9875036i,1.124069+0.3859728i,1.139308-0.4311069i,0.6084609-1.089749i,-0.2502496-1.251065i,-1.025598-0.7973036i,-1.313698+0.07425497i},
		{0.01376311+0.9684492i,0.6517938+0.7849723i,1.053891+0.1985731i,0.9755701-0.5534218i,0.3932327-1.09679i,-0.436846-1.118804i,-1.090282-0.5650793i,-1.20836+0.3010397i,-0.7115515+1.031038i,0.1461857+1.242116i,0.9196607+0.8317028i,1.221497+0.02558771i,0.9252816-0.7604387i,0.2100038-1.15055i,-0.5606475-0.9921122i,-1.035076-0.400921i,-1.031885+0.3296863i,-0.5909152+0.8820185i,0.07831031+1.044297i,0.6991818+0.7719235i,1.029368+0.1818961i,0.935753-0.4951671i,0.4388244-0.9877014i,-0.2793209-1.074375i,-0.9205337-0.680077i,-1.180061+0.06147649i,-0.1486327+1.245535i,0.7163953+1.067099i,1.26432+0.3422497i,1.191617-0.5825958i,0.5125512-1.231411i,-0.4292842-1.260198i,-1.144241-0.6553786i,-1.270261+0.257708i,-0.7694449+1.003746i,0.07000162+1.223962i,0.8152115+0.8558611i,1.128046+0.1298138i,0.9170367-0.5885581i,0.3349712-0.9928524i,-0.3378132-0.9552388i,-0.8305958-0.5356067i,-0.9712346+0.07973232i,-0.719188+0.6533257i,-0.1682417+0.9634601i,0.4710356+0.8717805i,0.9280233+0.3902822i,0.9799657-0.2904038i,0.5742409-0.8596159i,-0.1144737-1.033009i,-0.7531341-0.7130026i,-1.024771-0.05667121i},
		{0.726377-0.4644421i,0.2568123-0.8101807i,-0.3149791-0.7768061i,-0.7281199-0.3934386i,-0.8028765+0.1574505i,-0.5143511+0.6252688i,0.0005553594+0.8014944i,0.5049376+0.6115051i,0.769331+0.1486361i,0.6786127-0.3691973i,0.2854708-0.7041045i,-0.2195835-0.7123917i,-0.6059353-0.4076715i,-0.7130962+0.05826905i,-0.5145219+0.4782834i,-0.1107565+0.6841508i,0.3280947+0.6056024i,0.630998+0.2809796i,0.6795511-0.1650323i,0.4434591-0.5595283i,3.44644e-05-0.7333215i,-0.4745939-0.5877977i,-0.7622429-0.1568681i,-0.7037645+0.3790809i,-0.2974997+0.7609133i,0.2738259+0.7831224i,0.8211315-0.1583856i,0.5145064-0.6512394i,-0.03238562-0.8172867i,-0.5418717-0.5903898i,-0.7750781-0.1030221i,-0.6467952+0.4018508i,-0.2441048+0.7008577i,0.2399108+0.6851307i,0.6021718+0.3842861i,0.705175-0.06686608i,0.5148113-0.4860732i,0.1062156-0.7047843i,-0.3579222-0.6261759i,-0.6804943-0.2697672i,-0.7099024+0.2210099i,-0.4169092+0.6288141i,0.07705946+0.7601382i,0.5477713+0.5437708i,0.774601+0.07263536i,0.6489322-0.4381863i,0.2258873-0.754617i,-0.3042386-0.7322636i,-0.7042907-0.3786141i,-0.7936229+0.1531293i,-0.5245474+0.6291223i,-0.006061587+0.8319049i},
		{0.1087483-1.63125i,-0.9467528-1.371355i,-1.632387-0.492786i,-1.623039+0.6554398i,-0.8722534+1.57558i,0.3332063+1.824872i,1.462654+1.22961i,1.966231+0.006261414i,1.548349-1.296155i,0.3498717-2.03827i,-1.07966-1.81423i,-2.035015-0.6855757i,-2.016179+0.8183283i,-1.002448+1.954265i,0.5194678+2.14677i,1.798126+1.290522i,2.202277-0.1928899i,1.540573-1.57304i,0.1491299-2.182395i,-1.28932-1.744045i,-2.089785-0.4923693i,-1.893224+0.9602736i,-0.8216023+1.929586i,0.6011099+1.981702i,1.709017+1.121793i,2.004999-0.2278246i,0.1437663-1.961181i,-1.124364-1.582873i,-1.851282-0.4987414i,-1.724219+0.7827819i,-0.823531+1.679397i,0.4252977+1.798222i,1.452409+1.106187i,1.80277-0.0654471i,1.336578-1.179426i,0.283255-1.738443i,-0.8710951-1.506602i,-1.60819-0.6079776i,-1.610465+0.5389448i,-0.8971931+1.417145i,0.1949169+1.644993i,1.172575+1.141142i,1.609879+0.148888i,1.332062-0.8838931i,0.4802907-1.507753i,-0.5625896-1.464182i,-1.343988-0.7870728i,-1.533532+0.2219416i,-1.057127+1.126225i,-0.1235845+1.537713i,0.8637038+1.278836i,1.475748+0.459212i},
		{0.5690339+0.103261i,0.5052131-0.2789893i,0.2162675-0.5355768i,-0.1705093-0.5542154i,-0.4853552-0.324299i,-0.5860895+0.05656982i,-0.4210101+0.4198086i,-0.05787366+0.5975501i,0.3399447+0.5012828i,0.5862568+0.1691339i,0.5618045-0.2467983i,0.2746734-0.5514567i,-0.1419965-0.6012132i,-0.4943075-0.372667i,-0.6198065+0.0282147i,-0.4614367+0.4177787i,-0.09064974+0.6189408i,0.326173+0.5389754i,0.6003413+0.2096604i,0.6027387-0.2244224i,0.323331-0.5655573i,-0.1173869-0.649779i,-0.5157336-0.4262721i,-0.6771759+0.009363056i,-0.5138006+0.4517483i,-0.09607708+0.6826172i,0.6649316+0.1959232i,0.6295513-0.2860752i,0.287369-0.6244027i,-0.188823-0.6541409i,-0.5627708-0.3674549i,-0.6555862+0.08675583i,-0.4329002+0.4829371i,-0.01537546+0.633814i,0.3884861+0.4802379i,0.5890533+0.1125154i,0.5062476-0.2831962i,0.1999941-0.5219141i,-0.1706996-0.5085703i,-0.4336794-0.2741332i,-0.4863108+0.0543922i,-0.3325841+0.3267035i,-0.06240612+0.44043i,0.2047493+0.3743094i,0.3737802+0.1761422i,0.3992367-0.0731021i,0.2827348-0.2907448i,0.06165402-0.4077241i,-0.1965625-0.3774688i,-0.4000424-0.1922081i,-0.4551955+0.09651328i,-0.3113472+0.3760695i},
		{0.6727313-0.6648299i,0.1255928-0.9794905i,-0.5422485-0.8821208i,-1.027711-0.3481493i,-1.051883+0.4187556i,-0.5378586+1.042599i,0.2947813+1.168585i,1.015463+0.6872449i,1.22314-0.168454i,0.793528-0.93991i,-0.0368962-1.21182i,-0.8132982-0.858067i,-1.1365-0.1023123i,-0.8852494+0.6376384i,-0.2498276+1.004143i,0.4197985+0.8811065i,0.825695+0.4036582i,0.8519582-0.1710045i,0.5588565-0.6146395i,0.09423008-0.8033335i,-0.3854648-0.7078021i,-0.7393068-0.3595355i,-0.8409653+0.1522784i,-0.6082406+0.6622702i,-0.07230656+0.9479692i,0.5730622+0.8248522i,0.9963247-0.4713348i,0.4571537-1.044709i,-0.3560527-1.113055i,-1.019624-0.60532i,-1.169573+0.2260659i,-0.720858+0.9405143i,0.08073507+1.164898i,0.8081945+0.8047732i,1.10253+0.079402i,0.8600553-0.6276026i,0.2519704-0.99002i,-0.4077841-0.8907838i,-0.838111-0.43221i,-0.9010652+0.1614484i,-0.6126879+0.6594898i,-0.09594902+0.893977i,0.4672865+0.7834249i,0.8707346+0.3475713i,0.9325354-0.2735283i,0.5768828-0.8302886i,-0.08779978-1.047382i,-0.769489-0.7694285i,-1.116126-0.08364604i,-0.9144294+0.683843i,-0.2381526+1.129434i,0.5687605+1.005917i},
		{0.5046366-0.3331831i,0.1490366-0.5197461i,-0.1902078-0.4393723i,-0.3697699-0.2024439i,-0.3691739+0.04744003i,-0.250969+0.2207295i,-0.08706798+0.2981481i,0.08119256+0.29123i,0.2293779+0.2046535i,0.3187971+0.04103537i,0.2969318-0.1644833i,0.1398213-0.3287135i,-0.1035414-0.3568871i,-0.3163791-0.211398i,-0.3799485+0.04543594i,-0.2546637+0.2786243i,-0.01142816+0.3647946i,0.2147123+0.2710012i,0.3136642+0.06822443i,0.2636507-0.1269839i,0.1248718-0.2320587i,-0.02092876-0.236786i,-0.1278618-0.1795163i,-0.194524-0.09539514i,-0.2284956+0.01005632i,-0.2125+0.140107i,0.07545406+0.3209166i,0.2890581+0.2331684i,0.4126217-0.001169882i,0.3465017-0.2904226i,0.08301951-0.4821222i,-0.2677682-0.4501731i,-0.5269716-0.1775465i,-0.5436746+0.2202896i,-0.2822089+0.5476552i,0.1497627+0.627681i,0.5469397+0.3955244i,0.7031016-0.06030637i,0.5144018-0.5289112i,0.04223927-0.7702655i,-0.4979733-0.6342024i,-0.8284433-0.1511442i,-0.7491554+0.4580479i,-0.2596268+0.8757849i,0.4121229+0.8530005i,0.9096245+0.3615282i,0.9396857-0.3621715i,0.4517267-0.9270032i,-0.3093538-1.003962i,-0.9252282-0.5262893i,-1.041779+0.2543502i,-0.5824344+0.9023125i},
		{-0.8631223+0.2998924i,-0.5000899+0.7684733i,0.07780519+0.9222563i,0.6391987+0.6888573i,0.9478133+0.1479136i,0.8543528-0.4875557i,0.3680986-0.9426735i,-0.3231101-0.9915293i,-0.9099097-0.5714799i,-1.093824+0.156058i,-0.7460854+0.8513003i,-0.004837696+1.153639i,0.76669+0.8812957i,1.163793+0.1538254i,0.9699016-0.6544766i,0.2887076-1.119522i,-0.5130939-1.009478i,-1.020339-0.410146i,-1.002581+0.3429857i,-0.5199549+0.8710985i,0.1483616+0.9556697i,0.6818184+0.618973i,0.8770512+0.06194609i,0.7052721-0.4662127i,0.2749357-0.774514i,-0.2393047-0.7733758i,-0.8148389+0.01479052i,-0.6475405+0.515743i,-0.197082+0.8200958i,0.3607612+0.7797836i,0.7810558+0.3905175i,0.8648679-0.1865205i,0.5638069-0.6936645i,0.007769169-0.9017316i,-0.5596351-0.7177747i,-0.8946946-0.2196026i,-0.8535957+0.3868008i,-0.4419042+0.8515945i,0.1879555+0.970731i,0.7812784+0.6630915i,1.065685+0.02148835i,0.8685189-0.6912396i,0.226345-1.132006i,-0.5861096-1.042918i,-1.161554-0.4141937i,-1.173138+0.467415i,-0.5769226+1.146619i,0.334581+1.250409i,1.082235+0.7109334i,1.271511-0.1867519i,0.8160955-0.9679251i,-0.02474379-1.238597i},
		{1.489134+1.83361i,2.323269+0.4226733i,2.030392-1.187099i,0.7632657-2.205172i,-0.8424156-2.147088i,-2.002074-1.073218i,-2.181641+0.4641186i,-1.34553+1.721654i,0.06412631+2.136841i,1.376886+1.573987i,2.019065+0.342334i,1.752054-0.984973i,0.7371358-1.836595i,-0.5655456-1.872299i,-1.598063-1.100562i,-1.926654+0.1385322i,-1.413288+1.311472i,-0.2777608+1.90756i,0.9840985+1.658595i,1.809698+0.667923i,1.824294-0.623207i,1.019837-1.631849i,-0.2372749-1.903886i,-1.378285-1.324252i,-1.896744-0.1627954i,-1.573849+1.059247i,0.6903072+1.762228i,1.643746+0.9464545i,1.883291-0.2907288i,1.294583-1.416108i,0.1187746-1.931268i,-1.135158-1.589047i,-1.901446-0.5183175i,-1.813933+0.8115101i,-0.8906194+1.791372i,0.4555908+1.957646i,1.602146+1.221928i,2.01405-0.07814211i,1.502024-1.339334i,0.3090842-1.982618i,-1.013192-1.723535i,-1.867668-0.6928514i,-1.880991+0.6380373i,-1.058518+1.677017i,0.2309098+1.970078i,1.420504+1.390796i,1.987442+0.1901341i,1.675068-1.108865i,0.6076599-1.931124i,-0.7532089-1.898899i,-1.801469-1.006017i,-2.053339+0.3651448i},
		{0.4690052+0.7047642i,0.8307483+0.2487841i,0.8196838-0.3496603i,0.4161627-0.8182501i,-0.2162721-0.9219446i,-0.7864758-0.5796897i,-1.004257+0.07477524i,-0.7307336+0.7342336i,-0.07020606+1.060286i,0.6605232+0.8625218i,1.085546+0.2149986i,0.9702526-0.5653815i,0.3562724-1.07783i,-0.4504531-1.050784i,-1.03716-0.4904738i,-1.102141+0.3191272i,-0.6135498+0.965385i,0.17624+1.123109i,0.8656499+0.7210811i,1.113113-0.02748716i,0.8087773-0.7419758i,0.1212229-1.072438i,-0.5990923-0.8731411i,-1.002664-0.2642502i,-0.912038+0.4425263i,-0.3964047+0.9070913i,0.790898+0.5128331i,0.9127304-0.1155948i,0.6087545-0.6608374i,0.03855867-0.8771412i,-0.5244735-0.6792647i,-0.8200234-0.174787i,-0.7194204+0.389109i,-0.2849124+0.7427518i,0.2607062+0.724712i,0.6460165+0.3625874i,0.6918838-0.1431293i,0.4042996-0.5301282i,-0.03795544-0.6199028i,-0.3957776-0.4099361i,-0.5107821-0.05506575i,-0.3827041+0.2450132i,-0.1370321+0.3699628i,0.08210101+0.3283803i,0.2060541+0.2086809i,0.254049+0.08606759i,0.2693307-0.02990393i,0.2502331-0.166643i,0.1468357-0.316312i,-0.07166434-0.3997146i,-0.345093-0.3133288i,-0.5238617-0.02758191i},
		{0.6623654+1.066832i,1.169236+0.4003068i,1.136962-0.4235173i,0.5975036-1.025382i,-0.1815023-1.141187i,-0.8334388-0.7472653i,-1.077345-0.05864774i,-0.8466395+0.596635i,-0.293+0.9481846i,0.3214655+0.896771i,0.7617369+0.5175972i,0.9019347-0.01851193i,0.7271765-0.5307022i,0.2975127-0.8679212i,-0.2708812-0.9142254i,-0.8002285-0.6087149i,-1.068799-0.001044251i,-0.8958955+0.7026049i,-0.2698598+1.17931i,0.5763873+1.140986i,1.234184+0.5237115i,1.329489-0.4208517i,0.75508-1.224032i,-0.234484-1.452338i,-1.143759-0.9606274i,-1.506737+0.01679827i,-0.2298404+1.495792i,0.7819925+1.294174i,1.42711+0.4989432i,1.423326-0.5201221i,0.7795772-1.310751i,-0.2250186-1.525749i,-1.157115-1.057135i,-1.597237-0.08510472i,-1.31503+0.9752927i,-0.3926863+1.631644i,0.7722549+1.536893i,1.622241+0.6826479i,1.70875-0.5529773i,0.9433972-1.563476i,-0.321307-1.820636i,-1.452609-1.166914i,-1.867373+0.08117257i,-1.348116+1.290777i,-0.1623402+1.848418i,1.083216+1.483873i,1.767026+0.4024361i,1.572127-0.8386664i,0.6307616-1.629102i,-0.5682268-1.611429i,-1.442172-0.8381774i,-1.601034+0.2840564i},
