/*
 * LS_includes.h
 *
 *  Created on: 05-Mar-2022
 *      Author: Ranjith Srinivas
 */

#include "complex.h"

// Number of used sub-carriers in one OFDM symbol
#define NUM_USED_SUB_CARRIERS 52
#define nUSC NUM_USED_SUB_CARRIERS
#define SYMBOLS_USED 200


typedef float complex flt_cmplx;

//Actual Channel Data
const flt_cmplx Act_Channel_weight_30dB[SYMBOLS_USED][nUSC] = {{-0.3448181-0.8972479i,-0.8330297-0.4590317i,-0.922462+0.182831i,-0.5822401+0.7247569i,0.01930881+0.9192443i,0.5993739+0.6847779i,0.8908457+0.1370413i,0.7616729-0.4656349i,0.2759824-0.8390039i,-0.3311701-0.806121i,-0.7631005-0.3879439i,-0.8110288+0.2006781i,-0.4663512+0.6606638i,0.07528016+0.7713031i,0.5290959+0.5092521i,0.6860858+0.04668683i,0.5196233-0.3680345i,0.1676805-0.5601047i,-0.1814867-0.50418i,-0.4035672-0.2884546i,-0.4710279-0.0211038i,-0.4059587+0.2304938i,-0.2253834+0.4269084i,0.05590745+0.5124545i,0.3749516+0.4142213i,0.5962856+0.1073157i,0.2509871-0.6442054i,-0.2378631-0.6826805i,-0.6446386-0.3727597i,-0.7430914+0.1403706i,-0.4755422+0.5909218i,0.01551815+0.7532478i,0.483531+0.5653596i,0.7208087+0.1381889i,0.6483425-0.3305912i,0.3161611-0.6574947i,-0.1464691-0.7278034i,-0.5757153-0.5075404i,-0.8023352-0.0511643i,-0.6968096+0.4853594i,-0.2449626+0.8655425i,0.391697+0.8667619i,0.9074932+0.4211841i,1.001978-0.2949709i,0.5717202-0.9174302i,-0.1917041-1.091808i,-0.8868831-0.6943814i,-1.132031+0.0772014i,-0.7915083+0.8122078i,-0.05164281+1.124793i,0.6957833+0.8674979i,1.076966+0.1941809i},
		{0.3993153+0.6118044i,0.7026389+0.1833624i,0.639501-0.3351685i,0.2452218-0.6745289i,-0.2725759-0.6586933i,-0.6410061-0.2983137i,-0.6666929+0.2128685i,-0.3407072+0.6013002i,0.1565671+0.6624554i,0.5556008+0.3719674i,0.6466058-0.1042393i,0.3923914-0.5054242i,-0.05715599-0.6208907i,-0.4533975-0.402164i,-0.5873112+0.01747596i,-0.4007951+0.4025609i,-0.01212242+0.5473022i,0.3554705+0.3870793i,0.5012996+0.02922461i,0.3596127-0.3134652i,0.03257535-0.4488881i,-0.2764027-0.3176815i,-0.3895009-0.0227275i,-0.2621827+0.243001i,-0.002159501+0.32342i,0.2116965+0.1961973i,0.1249359-0.1817311i,-0.05523068-0.1816078i,-0.1540724-0.05497615i,-0.1163829+0.08442406i,0.007041934+0.131798i,0.1113657+0.0642019i,0.1197329-0.05590044i,0.03167577-0.1369823i,-0.08901172-0.1233681i,-0.1642755-0.02324654i,-0.1473346+0.1069548i,-0.03998699+0.1972754i,0.1131383+0.1938741i,0.2395469+0.07918895i,0.2617839-0.1126596i,0.1349009-0.2926994i,-0.1106865-0.3461883i,-0.3553749-0.1992886i,-0.4392528+0.1108494i,-0.2644404+0.423054i,0.1141328+0.5316733i,0.4887761+0.3241011i,0.6145356-0.1186039i,0.3748464-0.5445861i,-0.1200507-0.6810328i,-0.5832971-0.4163882i},
		{0.6180634+0.8770335i,1.006929+0.2771884i,0.9250807-0.4118872i,0.4397006-0.8728613i,-0.1998361-0.9172093i,-0.6970738-0.5652791i,-0.8548006-0.01291647i,-0.6520126+0.4855345i,-0.2203899+0.7420684i,0.2465674+0.6992195i,0.5854472+0.415881i,0.707146+0.009735277i,0.5922632-0.3929804i,0.2721782-0.6768262i,-0.1738056-0.7424024i,-0.610065-0.5290915i,-0.8595826-0.06224673i,-0.7688674+0.5094683i,-0.3049879+0.9378695i,0.3784361+0.9804232i,0.9723957+0.5442194i,1.153653-0.2210741i,0.7701613-0.9596024i,-0.04202712-1.279936i,-0.8974987-0.9739731i,-1.352732-0.1537054i,-0.3608924+1.368199i,0.6272209+1.287778i,1.325735+0.5740645i,1.389211-0.4260107i,0.7873622-1.228267i,-0.1900055-1.45157i,-1.082145-0.9942927i,-1.475551-0.07034286i,-1.187514+0.896588i,-0.342232+1.462929i,0.6827062+1.358795i,1.415826+0.6113768i,1.499276-0.452271i,0.8632226-1.336127i,-0.2164657-1.6001i,-1.225221-1.084329i,-1.653345-0.0151266i,-1.263683+1.084166i,-0.2350951+1.653136i,0.9142553+1.3937i,1.596683+0.4382401i,1.470717-0.717818i,0.6211224-1.485018i,-0.4990286-1.494896i,-1.323229-0.7812927i,-1.469593+0.2644641i},
		{0.01897226+0.911729i,0.606461+0.6560146i,0.8654552+0.09076135i,0.6921034-0.4829591i,0.2059231-0.7899963i,-0.339072-0.7127209i,-0.6930099-0.3219632i,-0.7191149+0.1840836i,-0.4324138+0.581379i,0.02713182+0.7107453i,0.4602678+0.5304872i,0.6861583+0.1242977i,0.6106818-0.3331757i,0.2649857-0.6443229i,-0.2028181-0.6698084i,-0.5858424-0.3915912i,-0.7070841+0.07236608i,-0.5015304+0.513525i,-0.05354652+0.7233104i,0.4320534+0.5916662i,0.7195054+0.16854i,0.6574308-0.3468479i,0.2651482-0.6955818i,-0.262536-0.6928477i,-0.6496664-0.336274i,-0.6915896+0.1816148i,0.1038543+0.6488058i,0.478473+0.38594i,0.5631321-0.02674698i,0.3661053-0.3482453i,0.0530565-0.4381618i,-0.1900513-0.324057i,-0.2827774-0.1377528i,-0.2683427+0.01119875i,-0.2264962+0.1100805i,-0.1761068+0.207137i,-0.0648929+0.3143005i,0.1459834+0.3563058i,0.3922042+0.228075i,0.5131479-0.08634584i,0.369065-0.4487886i,-0.02546776-0.6327878i,-0.4727032-0.4828364i,-0.7064632-0.04236466i,-0.5699596+0.4555137i,-0.1235137+0.7320034i,0.3940518+0.6352997i,0.7137538+0.2223362i,0.6856152-0.2915715i,0.3390082-0.660964i,-0.1573555-0.7268173i,-0.5851369-0.4685137i},
		{0.1409469-0.3801684i,-0.1104786-0.4085729i,-0.3520855-0.2806019i,-0.4838458-0.00933694i,-0.4135676+0.3172426i,-0.1250148+0.5448333i,0.2737936+0.5277846i,0.5815318+0.2317268i,0.6149333-0.2167824i,0.3293716-0.5859244i,-0.1407049-0.6720464i,-0.5545499-0.4210845i,-0.7013701+0.04242601i,-0.5106146+0.4896931i,-0.07659046+0.7085836i,0.3988075+0.5995422i,0.7000493+0.2095412i,0.6853597-0.2923777i,0.3453302-0.6800903i,-0.1809586-0.76114i,-0.64927-0.4710907i,-0.8169681+0.07239556i,-0.5753702+0.604295i,-0.02984024+0.8426958i,0.5395879+0.6509344i,0.8311132+0.1266587i,0.2217257-0.7804668i,-0.3336626-0.7152907i,-0.6954509-0.3187968i,-0.7153699+0.1941055i,-0.4189645+0.5862935i,0.04060424+0.7043489i,0.4661891+0.5188177i,0.6875629+0.113215i,0.6102148-0.3478817i,0.2522943-0.6658915i,-0.2404899-0.6818354i,-0.6355179-0.3636526i,-0.7220697+0.1475957i,-0.4393931+0.5894972i,0.06720005+0.7223369i,0.5206212+0.4782596i,0.6797544+0.006468546i,0.4852514-0.4246118i,0.07992444-0.5982701i,-0.3025531-0.4694386i,-0.4878559-0.1572103i,-0.4407014+0.1617092i,-0.2375942+0.361995i,0.01440916+0.4064643i,0.2342496+0.3149663i,0.3694895+0.1246816i},
		{0.7754501+1.11412i,1.300996+0.3419381i,1.194907-0.57529i,0.527911-1.18845i,-0.3539037-1.218281i,-1.022339-0.6880005i,-1.187788+0.1154778i,-0.8217836+0.8108048i,-0.1319277+1.110285i,0.5663859+0.9276088i,0.9937587+0.3764996i,1.00161-0.3039559i,0.604018-0.8453896i,-0.03831213-1.037899i,-0.6704656-0.8000581i,-1.029892-0.2178838i,-0.9524009+0.4724591i,-0.4552441+0.9723492i,0.254141+1.052945i,0.8634327+0.6676362i,1.098586-0.01924768i,0.8511728-0.7060863i,0.2259842-1.090859i,-0.5082489-1.002707i,-1.034568-0.4720584i,-1.118479+0.2817955i,0.04051644+1.193486i,0.8007563+0.9159231i,1.221874+0.2022421i,1.087153-0.6337128i,0.4355499-1.198257i,-0.4381684-1.210579i,-1.11954-0.6518952i,-1.281187+0.2173232i,-0.8469736+0.9866046i,-0.02429565+1.299092i,0.8052283+1.018441i,1.268678+0.2794527i,1.164167-0.585855i,0.5375726-1.196783i,-0.3421873-1.280689i,-1.090521-0.785224i,-1.362496+0.08896986i,-1.007705+0.9554887i,-0.1603958+1.402484i,0.7949367+1.191326i,1.393482+0.395702i,1.325727-0.6101571i,0.6107137-1.330395i,-0.4019267-1.405525i,-1.212245-0.8026855i,-1.430787+0.1724657i},
		{0.8644121+0.61425i,1.09443-0.09225916i,0.7958986-0.8060749i,0.07780223-1.159828i,-0.7161375-0.9456877i,-1.178265-0.2459673i,-1.059029+0.5946414i,-0.4091046+1.148449i,0.4443244+1.133995i,1.072651+0.5634825i,1.170128-0.2708912i,0.7040187-0.9556975i,-0.08239783-1.167282i,-0.8036044-0.8243127i,-1.124995-0.1120231i,-0.917493+0.6223778i,-0.3036482+1.04265i,0.417428+0.9776021i,0.9203887+0.4853479i,1.00104-0.1937754i,0.6520796-0.7604145i,0.04307918-0.9875433i,-0.5681625-0.8005541i,-0.9403244-0.2860256i,-0.928247+0.3528065i,-0.5254933+0.8652653i,0.76939+0.7493562i,1.107939+0.09576803i,0.9438345-0.6590924i,0.3010402-1.149559i,-0.5387056-1.095302i,-1.150184-0.4779338i,-1.192571+0.4099133i,-0.6196565+1.103692i,0.2722324+1.229026i,1.006664+0.7243112i,1.203961-0.1244405i,0.7941993-0.8601571i,0.03351469-1.122683i,-0.670646-0.8340702i,-0.9953108-0.1987789i,-0.8488768+0.4497701i,-0.3646552+0.8345576i,0.2128319+0.8417553i,0.6531476+0.5208576i,0.8128753+0.02359495i,0.6549656-0.461572i,0.2443226-0.7595187i,-0.2668062-0.7547026i,-0.6773455-0.4377581i,-0.8103923+0.07228435i,-0.5970958+0.562421i},
		{0.8280258-1.362202i,-0.2468158-1.607047i,-1.251003-1.087295i,-1.686516-0.01429655i,-1.30644+1.104983i,-0.2680475+1.708351i,0.9227271+1.475158i,1.666539+0.5098841i,1.588912-0.7041976i,0.7375137-1.560971i,-0.4530279-1.64856i,-1.398076-0.948725i,-1.658658+0.1780236i,-1.139263+1.189901i,-0.1067405+1.625044i,0.9518789+1.301584i,1.552545+0.3833995i,1.425035-0.6999314i,0.6330193-1.443593i,-0.4477663-1.497506i,-1.298192-0.8388203i,-1.508126+0.2051426i,-0.9889899+1.115236i,-0.02245032+1.45018i,0.8946927+1.078285i,1.323327+0.2327152i,0.4245419-1.134397i,-0.3589169-1.084373i,-0.8964898-0.5958384i,-1.016027+0.06501577i,-0.7420048+0.6266007i,-0.2249756+0.9112545i,0.3425022+0.8556243i,0.776067+0.4930174i,0.9275253-0.05979244i,0.7228473-0.6135753i,0.2100348-0.9488907i,-0.4248244-0.9025239i,-0.9137223-0.4600148i,-1.025823+0.2106888i,-0.6866548+0.8208323i,-0.02592712+1.092136i,0.6746872+0.887914i,1.105001+0.278442i,1.061041-0.4848043i,0.536157-1.069846i,-0.2638907-1.201109i,-0.9917549-0.7852489i,-1.300811+0.02532812i,-1.01092+0.8740235i,-0.2191806+1.351634i,0.7179939+1.200029i},
		{0.2605846+0.05505772i,0.2296569-0.08017655i,0.1549224-0.1795346i,0.04170791-0.2429592i,-0.1074945-0.2434297i,-0.2510579-0.1450872i,-0.3103448+0.04423093i,-0.2252476+0.2462232i,-0.01392182+0.3488005i,0.2218861+0.2822927i,0.3567244+0.07217866i,0.320172-0.1747455i,0.135013-0.3369659i,-0.105949-0.3447252i,-0.2961245-0.2041885i,-0.36138+0.02100137i,-0.2777226+0.2424811i,-0.07153863+0.3732373i,0.183699+0.3500843i,0.3801253+0.1621364i,0.4135223-0.125012i,0.2424673-0.3788743i,-0.06842651-0.460067i,-0.3646557-0.3070409i,-0.4835485+0.01310847i,-0.3538103+0.3328891i,0.2810468+0.3836729i,0.4530379+0.102793i,0.399144-0.2097539i,0.1657501-0.4032043i,-0.1228392-0.402751i,-0.3365442-0.2299481i,-0.3957618+0.02637277i,-0.2909956+0.2580136i,-0.07293031+0.3777078i,0.1712799+0.3435071i,0.3468561+0.1693484i,0.3827443-0.07833868i,0.2592503-0.3014245i,0.01995593-0.40609i,-0.241056-0.3412784i,-0.4138061-0.122697i,-0.4155878+0.1679619i,-0.2275725+0.408786i,0.08724734+0.482462i,0.395369+0.3299375i,0.5408632-0.006214086i,0.4227585-0.3776247i,0.06720669-0.5875148i,-0.357717-0.4975786i,-0.616939-0.126418i,-0.5462855+0.334949i},
		{-0.1625805+0.3609915i,0.1182833+0.3710187i,0.3217753+0.1947757i,0.3535828-0.05449066i,0.2295884-0.2468039i,0.03708835-0.3161304i,-0.1411416-0.272601i,-0.2673786-0.1547903i,-0.3277069+0.01425552i,-0.2922707+0.2169693i,-0.1211352+0.39528i,0.1731975+0.4385883i,0.4710549+0.2511578i,0.5795029-0.1408986i,0.3633622-0.5461746i,-0.1201307-0.6997955i,-0.6085474-0.4491157i,-0.7860922+0.1060966i,-0.5051676+0.6452659i,0.09040465+0.8294909i,0.6455085+0.5339454i,0.8273045-0.06337515i,0.5424886-0.6031734i,-0.01678685-0.7834605i,-0.5185413-0.54031i,-0.7074519-0.05367733i,-0.1469435+0.6121235i,0.2554103+0.5386115i,0.5108806+0.2564034i,0.5484456-0.1045211i,0.3711222-0.4150372i,0.03872353-0.5642747i,-0.3319473-0.4780393i,-0.58036-0.1614647i,-0.5645555+0.2643115i,-0.2552415+0.5889511i,0.2107009+0.6208362i,0.5823954+0.3166301i,0.6412904-0.1670026i,0.346701-0.5550222i,-0.1282589-0.6249639i,-0.5043258-0.3496329i,-0.5749162+0.09032518i,-0.3310175+0.431228i,0.05090025+0.4969316i,0.3395074+0.2963971i,0.3980613-0.009748388i,0.2504122-0.234728i,0.03176974-0.2854585i,-0.1231119-0.1966588i,-0.165785-0.07151491i,-0.1380727+0.01074804i},
		{-1.291132+0.3722129i,-0.7181762+1.149463i,0.2345858+1.341217i,1.071038+0.842434i,1.356256-0.08684798i,0.9476364-0.9631922i,0.06499261-1.338034i,-0.8322782-1.030491i,-1.288874-0.2134943i,-1.087102+0.6854542i,-0.3507502+1.210953i,0.5295794+1.113447i,1.106136+0.4695783i,1.106285-0.3704659i,0.5645716-0.9763435i,-0.2126928-1.064167i,-0.8242931-0.6326866i,-0.9882193+0.05998097i,-0.6732062+0.6542974i,-0.08407345+0.8823793i,0.4727626+0.6871181i,0.7529805+0.2152396i,0.6761504-0.288124i,0.3282187-0.6077631i,-0.1101328-0.6418217i,-0.4545999-0.4167808i,-0.4745152+0.3003193i,-0.1878358+0.5052106i,0.1499856+0.4960172i,0.4026659+0.2932469i,0.4781578-0.006841762i,0.3646837-0.2778744i,0.1271015-0.4210292i,-0.1333942-0.4022213i,-0.3282398-0.2500732i,-0.4081128-0.02562935i,-0.3595322+0.2064287i,-0.1914505+0.3855794i,0.06411832+0.4515365i,0.3376131+0.3544581i,0.5207629+0.08976997i,0.5044978-0.266189i,0.2473068-0.5612246i,-0.1721377-0.6324279i,-0.567499-0.4024622i,-0.731475+0.0556991i,-0.551304+0.5360948i,-0.08245627+0.7980196i,0.4665393+0.6914993i,0.8316227+0.24011i,0.8213522-0.3618429i,0.4126902-0.8343387i},
		{-0.9113115-0.5319747i,-1.031016+0.1457798i,-0.7103866+0.7440488i,-0.0967572+1.012682i,0.543601+0.8476863i,0.9420255+0.3301535i,0.9398974-0.3157418i,0.5477859-0.8220078i,-0.06834178-0.985675i,-0.6587759-0.7430901i,-0.9855486-0.1885432i,-0.909084+0.4608968i,-0.4431824+0.941012i,0.238188+1.038332i,0.8538107+0.6832228i,1.123468-0.0004826402i,0.8970433-0.725697i,0.2433177-1.158193i,-0.5587429-1.07506i,-1.138483-0.4856576i,-1.210639+0.3560962i,-0.7201478+1.06365i,0.1228891+1.300394i,0.9369091+0.9409362i,1.343817+0.1330687i,1.141929-0.7652478i,-0.5585808-1.316217i,-1.298689-0.668386i,-1.455998+0.3283994i,-0.9208315+1.215182i,0.08625974+1.553129i,1.094131+1.145027i,1.600216+0.1574881i,1.329696-0.937604i,0.3944157-1.591974i,-0.7481961-1.466946i,-1.52646-0.6180404i,-1.552782+0.5299699i,-0.8232527+1.40581i,0.2892731+1.586837i,1.236244+1.005434i,1.571457-0.03509187i,1.159653-1.027297i,0.2212675-1.5105i,-0.7905053-1.280286i,-1.408238-0.4671596i,-1.361252+0.5378859i,-0.6900161+1.268709i,0.2806366+1.396832i,1.095691+0.878828i,1.382819-0.02835546i,1.025306-0.8932126i},
		{-1.044542+0.02075195i,-0.8022572+0.679396i,-0.1918083+1.040036i,0.5149539+0.9294572i,0.9915133+0.3899166i,1.012638-0.3316041i,0.5674739-0.898541i,-0.1334233-1.048715i,-0.7631128-0.7204506i,-1.037947-0.07500987i,-0.8466522+0.5901699i,-0.2880387+0.9838703i,0.3877476+0.9450753i,0.8926696+0.4984498i,1.015046-0.1665891i,0.6973332-0.7720889i,0.06079183-1.055419i,-0.6301369-0.8744392i,-1.064115-0.2814559i,-1.019051+0.4739049i,-0.4835195+1.038172i,0.3087999+1.121234i,0.9743653+0.6574467i,1.17321-0.1383792i,0.796869-0.8702413i,0.03519809-1.170527i,-1.11278-0.2102684i,-0.9630693+0.5420363i,-0.3846007+1.00369i,0.3264327+0.991694i,0.8505491+0.5545084i,0.9875445-0.08791577i,0.7144135-0.6631793i,0.1614191-0.9535213i,-0.4526374-0.8570065i,-0.8919327-0.4080451i,-0.9739732+0.2299777i,-0.6384659+0.8043757i,0.005306727+1.057103i,0.6920628+0.8405803i,1.099499+0.2127227i,1.004692-0.5564364i,0.4169796-1.096596i,-0.3998359-1.124018i,-1.046766-0.6016088i,-1.194713+0.2259876i,-0.7616707+0.9514372i,0.0401595+1.215546i,0.814766+0.8928673i,1.187433+0.1510555i,0.9914842-0.6430489i,0.3402423-1.113023i},
		{0.496662-0.3724698i,0.1835328-0.6062298i,-0.2206179-0.6150304i,-0.5686235-0.372331i,-0.7083437+0.05443769i,-0.5477321+0.5029807i,-0.1188016+0.7683082i,0.408053+0.7001704i,0.7884293+0.2945733i,0.8238177-0.2827408i,0.470428-0.7657486i,-0.1278413-0.9167415i,-0.7016877-0.644533i,-0.9799328-0.05259831i,-0.8140103+0.6017212i,-0.2508425+1.015602i,0.4739927+0.9737229i,1.025386+0.4561523i,1.116009-0.3273446i,0.6564209-1.009128i,-0.1694237-1.23153i,-0.9646922-0.8402628i,-1.311014+0.005494684i,-0.9989003+0.8889084i,-0.1616552+1.347352i,0.7793366+1.127257i,1.22393-0.6362334i,0.5002038-1.282691i,-0.4639987-1.290093i,-1.189325-0.6666602i,-1.327756+0.2715312i,-0.823643+1.066195i,0.07127147+1.338023i,0.922969+0.9617402i,1.320001+0.1228484i,1.069856-0.7679583i,0.2979538-1.270792i,-0.6067508-1.137392i,-1.186611-0.4445055i,-1.156682+0.4420007i,-0.5576186+1.064678i,0.2744028+1.124919i,0.9052509+0.637049i,1.04496-0.1044647i,0.6859145-0.7130723i,0.06558873-0.9247491i,-0.4976996-0.7086253i,-0.7755322-0.2304925i,-0.7087443+0.2725224i,-0.381718+0.6093991i,0.05269842+0.6875014i,0.4369102+0.5084974i},
		{0.4474437+0.7825711i,0.9066429+0.2614586i,0.8643334-0.4570564i,0.3168263-0.9527375i,-0.4339223-0.9262641i,-0.9617546-0.3819656i,-0.9695719+0.3781288i,-0.45665+0.9359053i,0.292876+0.9956232i,0.8791558+0.538552i,1.005271-0.1835944i,0.6237146-0.7962067i,-0.05681478-0.9987643i,-0.691844-0.7074688i,-0.9761737-0.08082987i,-0.7854326+0.5707824i,-0.2231902+0.9380751i,0.4379132+0.8542266i,0.8861394+0.3646805i,0.9116712-0.2987004i,0.4999692-0.8233217i,-0.1594154-0.9564416i,-0.7535071-0.6235485i,-0.9873763+0.02696651i,-0.7295023+0.6806933i,-0.09175142+1.002778i,1.000072+0.1908549i,0.8645682-0.5368224i,0.2665163-0.9760597i,-0.4666823-0.8840329i,-0.9277952-0.3176835i,-0.8687334+0.3956097i,-0.3461669+0.8538467i,0.3213241+0.8206836i,0.7555382+0.3559714i,0.7453089-0.2426855i,0.3519955-0.6377019i,-0.1610129-0.650646i,-0.5085956-0.3384452i,-0.54585+0.08078591i,-0.3174396+0.3788793i,0.009422606+0.439384i,0.2598477+0.2882566i,0.3373934+0.04390221i,0.2474977-0.1613608i,0.07013426-0.2427413i,-0.09003513-0.1901777i,-0.1549944-0.0624218i,-0.1114584+0.04819226i,-0.01783312+0.0713667i,0.03385055+0.008541203i,-0.01166265-0.0617672i},
		{0.08033763-1.089988i,-0.6967998-0.9117655i,-1.174872-0.2207944i,-1.051959+0.6466891i,-0.3494066+1.215289i,0.5708234+1.150002i,1.2055+0.4672951i,1.205313-0.4656771i,0.5769344-1.145577i,-0.3317499-1.221636i,-1.041216-0.6799114i,-1.204945+0.1743858i,-0.7752262+0.9022129i,0.003191007+1.161177i,0.7401267+0.858707i,1.094538+0.169752i,0.9237118-0.5658888i,0.332296-1.00689i,-0.3880747-0.9628528i,-0.8983302-0.4745048i,-0.9701322+0.2123061i,-0.590102+0.7686642i,0.04183722+0.9427539i,0.6191512+0.6767067i,0.8819978+0.1210242i,0.734889-0.4538388i,-0.2799481-0.7664816i,-0.6827319-0.4101489i,-0.7728278+0.1071183i,-0.5247768+0.5592449i,-0.05427068+0.7536461i,0.4286277+0.6092749i,0.706956+0.1951486i,0.6564148-0.2945712i,0.3094841-0.6301126i,-0.1583476-0.6616232i,-0.5215811-0.395099i,-0.6244892+0.0200008i,-0.4532817+0.3827926i,-0.1198264+0.549227i,0.2193598+0.487329i,0.4438666+0.2581266i,0.500526-0.04112229i,0.3885283-0.3183742i,0.1391218-0.4942828i,-0.1822813-0.5015236i,-0.4671154-0.3078961i,-0.5859802+0.04258397i,-0.4536793+0.4148855i,-0.09739845+0.631547i,0.3322899+0.5690903i,0.6312423+0.237823i},
		{-0.934787-0.7317849i,-1.172616+0.09545427i,-0.7829159+0.8486281i,-0.003922892+1.122416i,0.7240704+0.8032424i,1.027748+0.1097073i,0.8005133-0.5674763i,0.2205863-0.9003288i,-0.3904749-0.7811036i,-0.7531654-0.3305335i,-0.7482191+0.2076616i,-0.4299184+0.5978274i,0.03368608+0.7014794i,0.4426263+0.507777i,0.6379154+0.1194129i,0.5545083-0.2921351i,0.243884-0.5539495i,-0.1480323-0.5641464i,-0.4476161-0.3365669i,-0.535527+0.01080976i,-0.3979011+0.3202213i,-0.1183789+0.4720529i,0.1768678+0.430136i,0.3802415+0.236457i,0.4354751-0.02567819i,0.3382303-0.2676378i,-0.1408659-0.4173234i,-0.3678004-0.2635939i,-0.4678827+0.004506942i,-0.3872376+0.2933265i,-0.1388461+0.48639i,0.1915341+0.4922163i,0.4728813+0.2874546i,0.5785288-0.06516568i,0.4387394-0.4310739i,0.07953281-0.6473171i,-0.3672991-0.587763i,-0.6989425-0.2331006i,-0.7265808+0.2885725i,-0.3843356+0.7314522i,0.2004612+0.8448494i,0.7400835+0.522549i,0.9316304-0.1055078i,0.6398926-0.7180975i,-0.002803097-0.9778843i,-0.6587662-0.7329811i,-0.9788705-0.1110734i,-0.8032333+0.55792i,-0.2399917+0.9356511i,0.4162274+0.8557591i,0.8551501+0.3857344i,0.8971003-0.2404164i},
		{0.1401428+0.4406074i,0.415176+0.2228109i,0.4574756-0.1300548i,0.2389689-0.4110748i,-0.1104765-0.4578395i,-0.3878136-0.2519996i,-0.443906+0.07817128i,-0.2659273+0.3463519i,0.03231245+0.4202411i,0.2909002+0.2839855i,0.3924198+0.02482468i,0.3073621-0.2280329i,0.08806366-0.3654681i,-0.1651823-0.3346159i,-0.3425799-0.1503856i,-0.3619558+0.1089565i,-0.2045374+0.3244886i,0.06377428+0.3842892i,0.3096546+0.2447075i,0.3966975-0.03119616i,0.2677679-0.2951579i,-0.01010397-0.3958567i,-0.2779662-0.2737269i,-0.3809527-0.002387077i,-0.2652931+0.2561409i,-0.009623808+0.3538178i,0.3182774+0.01416152i,0.2224532-0.2001239i,0.01696147-0.2789592i,-0.1709014-0.1956918i,-0.2399786-0.01726745i,-0.1678713+0.1453814i,-0.01314975+0.2039405i,0.1262712+0.1386382i,0.1715672+0.002478493i,0.1066034-0.1147735i,-0.01605007-0.1420399i,-0.1104073-0.07044254i,-0.1138923+0.04221655i,-0.02993549+0.1114479i,0.07416616+0.08610748i,0.1158123-0.01344486i,0.05900484-0.1089213i,-0.05661878-0.1220576i,-0.1433295-0.03457875i,-0.1301115+0.09563775i,-0.0161435+0.1750933i,0.1268163+0.1414436i,0.2034909+0.007384037i,0.1585749-0.1478526i,0.01112585-0.2294981i,-0.1585293-0.1840637i},
		{-0.5963191+0.7090511i,0.001312413+0.9666717i,0.6528195+0.7624694i,1.024743+0.1564744i,0.9004675-0.5678663i,0.3133336-1.041196i,-0.4546905-1.007013i,-1.015655-0.466401i,-1.08057+0.3163829i,-0.6118236+0.9504896i,0.1585419+1.12033i,0.8498257+0.7443834i,1.125416+0.01146676i,0.8578037-0.7184699i,0.185634-1.094655i,-0.56116-0.9456566i,-1.027018-0.3564268i,-1.002573+0.3823964i,-0.5175417+0.9225832i,0.1868723+1.025349i,0.7836398+0.6640826i,1.013576+0.01972724i,0.7921747-0.6154891i,0.229956-0.9695721i,-0.4265608-0.898243i,-0.8976265-0.4342869i,-0.6215274+0.8028207i,0.03060389+1.027717i,0.6898196+0.780007i,1.041376+0.1537781i,0.8992913-0.5620614i,0.3170785-1.01477i,-0.4216388-0.971967i,-0.9452496-0.4543687i,-0.9949699+0.2699214i,-0.5641825+0.8333564i,0.1086994+0.9700397i,0.6836607+0.6475839i,0.9031321+0.05857508i,0.7066273-0.5047846i,0.225936-0.8029339i,-0.3084911-0.742736i,-0.6788993-0.3848194i,-0.7555535+0.1080129i,-0.5248831+0.5393673i,-0.08397271+0.7426554i,0.3902892+0.6355667i,0.700227+0.2571908i,0.7079751-0.2348931i,0.4049574-0.6244859i,-0.07431959-0.7365524i,-0.5133888-0.5244214i},
		{0.6372507-1.686511i,-0.6173092-1.65117i,-1.505999-0.8179879i,-1.620481+0.3505025i,-0.9709882+1.268827i,0.06834801+1.534423i,0.989332+1.094668i,1.402548+0.21593i,1.185293-0.6847909i,0.4862954-1.234018i,-0.372947-1.237031i,-1.036315-0.7260415i,-1.243048+0.06978188i,-0.9201948+0.8149596i,-0.2119381+1.197306i,0.5742173+1.057551i,1.096477+0.4630759i,1.131846-0.3183995i,0.6775793-0.9413869i,-0.05322408-1.141844i,-0.7375458-0.8513501i,-1.090465-0.2133201i,-0.9810576+0.4946175i,-0.4709582+0.9833582i,0.2250359+1.063386i,0.8274434+0.7080083i,0.9128823-0.6299005i,0.3410541-1.073254i,-0.3978649-1.075725i,-0.9972417-0.6136925i,-1.18967+0.1387919i,-0.866492+0.868914i,-0.1388147+1.251336i,0.6936229+1.091663i,1.260468+0.4247588i,1.282004-0.4799184i,0.7070168-1.218926i,-0.2385515-1.430227i,-1.129451-0.9723495i,-1.528837-0.01903748i,-1.207615+0.994714i,-0.2822833+1.570775i,0.8170322+1.401464i,1.550706+0.542614i,1.54592-0.5988917i,0.7937702-1.466582i,-0.3441014-1.637343i,-1.320943-1.031237i,-1.676452+0.05914852i,-1.251012+1.121448i,-0.2457953+1.667354i,0.8803611+1.448186i},
		{-0.008868774-0.248307i,-0.1200248-0.1244104i,-0.09397884-0.01982571i,-0.03914262-0.01911451i,-0.0666082-0.06422296i,-0.1654709-0.03108283i,-0.2082439+0.1250405i,-0.08170743+0.3008769i,0.1830185+0.3248296i,0.4086882+0.1154639i,0.4078943-0.2262359i,0.1405555-0.4774683i,-0.2421978-0.4587197i,-0.5030543-0.1673202i,-0.4840704+0.2235534i,-0.2044956+0.488498i,0.1697794+0.4929627i,0.4420669+0.2562817i,0.4932171-0.08680581i,0.3210901-0.3740923i,0.01515016-0.4889364i,-0.2937821-0.3922791i,-0.4796806-0.1247066i,-0.4604974+0.2070511i,-0.2322997+0.4614917i,0.1160079+0.5167387i,0.5550016-0.02011374i,0.4219356-0.3795078i,0.08158033-0.5736444i,-0.3124092-0.5025064i,-0.5750262-0.1880866i,-0.5745636+0.2324446i,-0.2950122+0.563665i,0.1472706+0.637023i,0.5436921+0.3946119i,0.6857502-0.06532719i,0.4774266-0.5166289i,0.006963233-0.7139593i,-0.4803952-0.5349691i,-0.7141194-0.06734132i,-0.5625037+0.4300011i,-0.1183617+0.6807389i,0.3597498+0.5608857i,0.6130293+0.1662278i,0.5367149-0.2662074i,0.2181327-0.5164297i,-0.1508701-0.5006115i,-0.4023128-0.2789754i,-0.4640691+0.02150388i,-0.3485841+0.2857832i,-0.1084654+0.4358431i,0.1821216+0.4204595i},
		{0.71448+0.210015i,0.7272699-0.3234097i,0.3647037-0.7634478i,-0.2329613-0.8649976i,-0.7822105-0.5315118i,-0.9892983+0.1159019i,-0.7040541+0.7747553i,-0.01926234+1.097546i,0.7449831+0.8732283i,1.185024+0.1631578i,1.028665-0.6953374i,0.3074731-1.24551i,-0.6263464-1.16068i,-1.272716-0.4463005i,-1.262099+0.5372093i,-0.5764799+1.262095i,0.4271751+1.329349i,1.212385+0.6968905i,1.3625-0.2971835i,0.8070138-1.126325i,-0.1511281-1.364271i,-1.010301-0.9053445i,-1.338399-0.003771578i,-0.9882905+0.8729865i,-0.157705+1.287965i,0.7234402+1.050031i,1.083466-0.569271i,0.4209433-1.116917i,-0.4154793-1.082003i,-0.9944035-0.5142437i,-1.04161+0.2643465i,-0.5775031+0.8461521i,0.1163848+0.9624496i,0.6741426+0.6123827i,0.8495114+0.0280115i,0.6232926-0.4842145i,0.1668206-0.7119857i,-0.2862822-0.6154294i,-0.5615066-0.2952119i,-0.5927643+0.09331424i,-0.4054082+0.4097786i,-0.08070609+0.5566561i,0.266292+0.4877305i,0.5055611+0.2232794i,0.5325653-0.13681i,0.3256318-0.4359398i,-0.02305786-0.5326786i,-0.3440621-0.3840499i,-0.4851669-0.07634402i,-0.3999393+0.2281059i,-0.1640618+0.3924339i,0.08983961+0.3786351i},
		{0.02781897+0.7160103i,0.4876657+0.52595i,0.712692+0.08140885i,0.5925795-0.402666i,0.1848626-0.6896792i,-0.3095984-0.6382381i,-0.6450693-0.2762505i,-0.6575872+0.21064i,-0.35152+0.5765654i,0.1061979+0.6473613i,0.4827957+0.4096138i,0.6076319+0.004288369i,0.4523285-0.3647847i,0.1209675-0.5423263i,-0.2270323-0.4832786i,-0.4587446-0.2421025i,-0.5062759+0.07774888i,-0.3630497+0.3661372i,-0.0719597+0.5236372i,0.2737072+0.4761179i,0.5349833+0.2098294i,0.5714667-0.188605i,0.3246688-0.5369499i,-0.1145061-0.6388694i,-0.5239526-0.4084733i,-0.6698817+0.05120011i,-0.00467791+0.659804i,0.4298324+0.4741685i,0.6088631+0.05799552i,0.4628992-0.3425277i,0.1130553-0.5222576i,-0.2307638-0.4315261i,-0.4090426-0.1717506i,-0.3874812+0.10165i,-0.2325137+0.2801743i,-0.03462353+0.3362199i,0.1462823+0.2903764i,0.2801625+0.1667305i,0.3381088-0.01579994i,0.2843598-0.2187425i,0.1060461-0.3680639i,-0.1494699-0.3799591i,-0.3741443-0.2171788i,-0.4496094+0.06959558i,-0.3176863+0.3532899i,-0.02220863+0.4928625i,0.306067+0.4083345i,0.5117164+0.1247154i,0.4891416-0.2362508i,0.2339005-0.509165i,-0.1496268-0.5585154i,-0.4878667-0.3436252i},
		{-0.1890937+0.9995914i,0.5240992+0.8304253i,0.9098691+0.235745i,0.7793659-0.4303583i,0.2503316-0.7941873i,-0.3387166-0.6884045i,-0.6520944-0.2386783i,-0.5643758+0.2450955i,-0.2097362+0.4882826i,0.1481838+0.4192993i,0.3131127+0.1726097i,0.267914-0.05138619i,0.1335502-0.1413503i,0.03679543-0.1243341i,0.01062203-0.09392295i,0.001155096-0.1041966i,-0.04985492-0.1283317i,-0.1378859-0.1041592i,-0.2024302-0.006270653i,-0.1864466+0.1276718i,-0.08291369+0.2306134i,0.06914276+0.2543488i,0.2176607+0.1859823i,0.31581+0.03471282i,0.3160308-0.1735912i,0.1738304-0.3770379i,-0.4398293-0.3332576i,-0.6266747+0.03920197i,-0.496554+0.5004244i,-0.03369915+0.7794829i,0.5502427+0.6493843i,0.9095842+0.1067748i,0.7822508-0.5782531i,0.1832157-1.004532i,-0.5742114-0.8916059i,-1.05769-0.2686144i,-0.9791234+0.5317343i,-0.3680214+1.068988i,0.4502543+1.049495i,1.043859+0.4832631i,1.107582-0.3352778i,0.6114117-0.9908171i,-0.1969322-1.155917i,-0.9185446-0.7448958i,-1.193406+0.04734071i,-0.8731712+0.8334864i,-0.1022751+1.215617i,0.7387094+0.9853536i,1.216489+0.2438124i,1.072897-0.6343274i,0.373144-1.190799i,-0.5192184-1.131415i},
		{-0.6881419-0.3039171i,-0.695004+0.2341889i,-0.3469358+0.6220257i,0.1532763+0.6724011i,0.5432637+0.3860718i,0.6397324-0.06889542i,0.4194361-0.4580443i,0.01282935-0.5995773i,-0.3722814-0.4439855i,-0.5533699-0.08557012i,-0.4559943+0.2908846i,-0.1436486+0.5013933i,0.2173016+0.4517473i,0.4431014+0.1827703i,0.4283-0.1534004i,0.2005047-0.3776746i,-0.09967664-0.3841425i,-0.304654-0.1964445i,-0.3196307+0.05568931i,-0.172051+0.224494i,0.02058644+0.237107i,0.1388977+0.1302613i,0.1407084+0.00642413i,0.07497446-0.0508689i,0.02576325-0.03592647i,0.03550988-0.0105293i,0.05873911-0.1154944i,-0.04075607-0.1735668i,-0.1841816-0.1288271i,-0.2658064+0.03518564i,-0.196281+0.2369921i,0.01985073+0.3424709i,0.2700635+0.2583373i,0.3994789+0.005961865i,0.3130148-0.2805365i,0.04275658-0.43411i,-0.2667503-0.3591689i,-0.4451428-0.09073479i,-0.3964933+0.2283841i,-0.149683+0.4329166i,0.1665627+0.4254391i,0.3992988+0.2188167i,0.4470245-0.08391962i,0.296585-0.3475293i,0.01542312-0.4625319i,-0.2819165-0.380482i,-0.4731278-0.1260103i,-0.4669373+0.2073871i,-0.2413885+0.4794723i,0.1289267+0.551366i,0.4814135+0.354628i,0.6284333-0.0509926i},
		{1.261389+0.5382526i,1.304516-0.4169264i,0.7103208-1.165519i,-0.2273145-1.338141i,-1.042277-0.8521821i,-1.330652+0.04433762i,-0.9567667+0.8976119i,-0.123089+1.281271i,0.7368641+1.017717i,1.189462+0.2676626i,1.030635-0.564212i,0.3847458-1.055703i,-0.382849-0.9943011i,-0.8825936-0.4727165i,-0.9114065+0.1958207i,-0.5324702+0.6758451i,0.007192391+0.7884722i,0.4447313+0.5662247i,0.6348869+0.1769225i,0.5760217-0.2016888i,0.3479314-0.4612788i,0.03894816-0.5624444i,-0.2776685-0.4952081i,-0.5240136-0.262829i,-0.6074165+0.09193227i,-0.4576178+0.4575193i,0.3592403+0.6146379i,0.6892932+0.2688319i,0.7296922-0.2267114i,0.4410517-0.6498218i,-0.06049987-0.802852i,-0.5591308-0.607089i,-0.8373078-0.1345762i,-0.7648351+0.425158i,-0.3492076+0.837652i,0.2591522+0.9095698i,0.8081267+0.5704719i,1.033835-0.07358894i,0.783636-0.7513694i,0.1199179-1.128321i,-0.668025-0.9744186i,-1.183536-0.3121536i,-1.131115+0.557306i,-0.4969203+1.191796i,0.418276+1.24604i,1.148952+0.6706714i,1.315976-0.2513997i,0.8314094-1.055386i,-0.05982184-1.341605i,-0.9160022-0.9773162i,-1.326239-0.1500622i,-1.105639+0.7392928i},
		{0.3917965+0.2574599i,0.504042-0.07287619i,0.355347-0.4199222i,-0.01391534-0.5911353i,-0.4317254-0.4625282i,-0.6711938-0.06086633i,-0.5726862+0.4272638i,-0.1472262+0.7393014i,0.4055587+0.679481i,0.7902955+0.2419402i,0.7776219-0.3650258i,0.3429467-0.8198975i,-0.3043763-0.8635265i,-0.8256981-0.4488831i,-0.9353806+0.2236705i,-0.55822+0.8076818i,0.1251377+0.9926285i,0.7681268+0.6683428i,1.035121-0.01345211i,0.7749647-0.7109271i,0.104678-1.062269i,-0.6405702-0.8721455i,-1.072548-0.2215245i,-0.9529911+0.5611109i,-0.3296762+1.06356i,0.4754755+1.010871i,1.040807-0.3853159i,0.4989888-0.9781303i,-0.2914422-1.040602i,-0.8999727-0.5558397i,-1.011358+0.1946629i,-0.5949376+0.8009449i,0.09671601+0.9571884i,0.686532+0.6182606i,0.8842096-0.0009300365i,0.6274952-0.5643691i,0.0876665-0.7991089i,-0.443035-0.6231414i,-0.7077199-0.1628899i,-0.6042215+0.3305745i,-0.2184808+0.614039i,0.2331642+0.5687009i,0.5199606+0.249409i,0.5144734-0.1543059i,0.2530043-0.4257712i,-0.09476025-0.4405705i,-0.3311919-0.2295543i,-0.3481684+0.05320621i,-0.1821778+0.2365835i,0.02738015+0.2410341i,0.1438811+0.1160112i,0.1252373-0.01530273i},
		{0.2785309-0.258493i,0.002610008-0.4041155i,-0.3055333-0.2983768i,-0.4482584+0.008758211i,-0.3246844+0.3365992i,0.004025862+0.4848619i,0.3503327+0.3566266i,0.5125883+0.01698692i,0.3934425-0.3460221i,0.05398729-0.5307708i,-0.3239349-0.4345323i,-0.5396346-0.1059668i,-0.4793289+0.2855997i,-0.1708989+0.5402726i,0.2338826+0.5269863i,0.5343401+0.2455338i,0.5760073-0.1727556i,0.3254341-0.5235357i,-0.1067563-0.6239743i,-0.5090216-0.4053305i,-0.6675326+0.04024547i,-0.4797723+0.4909782i,-0.02334691+0.7027037i,0.468462+0.5439432i,0.7255064+0.08206825i,0.5944403-0.4396613i,-0.4025166-0.6298003i,-0.7228208-0.1849815i,-0.6506061+0.3555598i,-0.2318611+0.6961616i,0.2987294+0.659119i,0.6553939+0.2776308i,0.6585143-0.2339097i,0.3225441-0.6048957i,-0.1649993-0.6519232i,-0.5499879-0.3651852i,-0.641546+0.09744851i,-0.4024345+0.4959067i,0.03736081+0.6280916i,0.4468379+0.4299667i,0.6107+0.009609614i,0.4431531-0.405269i,0.03927386-0.5873623i,-0.3718168-0.4381176i,-0.555701-0.04957435i,-0.4126557+0.3455452i,-0.04074965+0.5138714i,0.3246413+0.3667757i,0.4613185+0.0149993i,0.3027425-0.3072197i,-0.02420734-0.3991802i,-0.2920079-0.2246523i},
		{0.7382427+0.6926429i,1.031906+0.03735438i,0.8162124-0.6646238i,0.1760015-1.057244i,-0.5794851-0.9224718i,-1.061135-0.3055587i,-1.002708+0.4879513i,-0.4168656+1.040282i,0.3930423+1.048438i,0.9905484+0.5031607i,1.053174-0.295522i,0.5611078-0.9083803i,-0.1945832-1.013992i,-0.7924551-0.5909826i,-0.9324538+0.08914093i,-0.5959845+0.6450313i,-0.02070213+0.8145834i,0.472542+0.5809045i,0.6698784+0.1325205i,0.550576-0.2851847i,0.2411649-0.5096194i,-0.09555937-0.5085784i,-0.3449338-0.3392615i,-0.4565708-0.08329763i,-0.4184846+0.1851315i,-0.2399586+0.3944121i,0.3209656+0.3661844i,0.4921823+0.09666865i,0.4576521-0.2352746i,0.213658-0.4793504i,-0.1376914-0.513718i,-0.434258-0.3139162i,-0.5363977+0.03058084i,-0.3970136+0.3613319i,-0.08162619+0.5289713i,0.2667111+0.4616278i,0.4946978+0.1930263i,0.5053891-0.1568892i,0.2972749-0.4360418i,-0.03761647-0.5253699i,-0.3546011-0.3887059i,-0.5189999-0.08663552i,-0.4631806+0.2516666i,-0.2125528+0.4850431i,0.1291225+0.5184076i,0.4242626+0.3373433i,0.5536754+0.009717849i,0.4579047-0.3395202i,0.1597069-0.5691461i,-0.2352716-0.5701781i,-0.5650228-0.31409i,-0.6689965+0.1166414i},
		{-1.307466-0.7047565i,-1.469493+0.2908827i,-0.956624+1.170696i,0.009347398+1.526773i,0.9922424+1.181057i,1.533886+0.2755989i,1.367074-0.7795954i,0.5515795-1.488726i,-0.5398045-1.505549i,-1.390758-0.8082492i,-1.590456+0.2798589i,-1.037501+1.242126i,0.007490559+1.619424i,1.048357+1.232957i,1.593443+0.268041i,1.389064-0.8183045i,0.5356269-1.515894i,-0.5632995-1.500287i,-1.391274-0.7827299i,-1.560808+0.2956962i,-0.9965602+1.224119i,0.02725596+1.564985i,1.018522+1.165738i,1.50851+0.2321485i,1.28197-0.7784309i,0.4751211-1.389936i,-1.212047-0.6964789i,-1.344135+0.2158639i,-0.8922853+0.9825858i,-0.08991562+1.295167i,0.7139638+1.058573i,1.201332+0.3954897i,1.19027-0.4219432i,0.6849335-1.070299i,-0.1235507-1.280776i,-0.908817-0.9412658i,-1.322458-0.1652439i,-1.148677+0.7218143i,-0.4314808+1.307981i,0.5124561+1.294803i,1.232155+0.666295i,1.372454-0.2831055i,0.8649005-1.093748i,-0.03682652-1.380343i,-0.8966948-1.025576i,-1.322641-0.2211146i,-1.148064+0.6503173i,-0.4823071+1.207536i,0.3684127+1.231949i,1.045244+0.7351941i,1.275581-0.06743998i,0.9660954-0.8460574i},
		{-1.256722+0.08628006i,-0.9272724+0.8510571i,-0.1914869+1.245708i,0.6333636+1.093675i,1.183931+0.45499i,1.211468-0.3924119i,0.6972246-1.072202i,-0.1346544-1.277954i,-0.9149773-0.9120475i,-1.29322-0.1313283i,-1.093443+0.7198524i,-0.3949937+1.259156i,0.4965048+1.235165i,1.178536+0.64463i,1.330947-0.2554328i,0.8685706-1.054507i,-0.006859098-1.375244i,-0.8906127-1.056488i,-1.364283-0.2399129i,-1.200412+0.6912945i,-0.4765921+1.297059i,0.4625887+1.295211i,1.175937+0.6955563i,1.338482-0.2126685i,0.8893511-1.006618i,0.04809234-1.329972i,-1.270827-0.3076887i,-1.170954+0.5584235i,-0.5536206+1.163002i,0.2996975+1.24407i,1.009066+0.7743198i,1.264322-0.03086984i,0.9604781-0.8124901i,0.2395923-1.229121i,-0.5783041-1.105898i,-1.139562-0.5041751i,-1.207643+0.3138178i,-0.7557117+1.000715i,0.0290812+1.265465i,0.8211681+0.9866347i,1.280756+0.2632195i,1.188464-0.6118855i,0.5485525-1.255363i,-0.3846591-1.351831i,-1.190709-0.8119299i,-1.467173+0.150547i,-1.039608+1.087499i,-0.08128944+1.525975i,0.9461265+1.220688i,1.522268+0.304067i,1.348224-0.7676393i,0.5131059-1.453955i},
		{-1.275485+0.8258768i,-0.4007612+1.453719i,0.6625957+1.334482i,1.361094+0.54053i,1.341699-0.4976757i,0.6438299-1.230999i,-0.3330493-1.296941i,-1.065909-0.7101498i,-1.203097+0.1710741i,-0.7406496+0.8707405i,0.01474533+1.065774i,0.6526889+0.7377685i,0.8928825+0.1321824i,0.7048513-0.4209903i,0.2651173-0.6941832i,-0.1866193-0.6457629i,-0.4807536-0.3785962i,-0.5644704-0.03813509i,-0.4663478+0.2643178i,-0.2403032+0.4646126i,0.05641182+0.5215402i,0.3491236+0.4071403i,0.5372977+0.1325752i,0.5272928-0.2200106i,0.2943659-0.5075178i,-0.0783891-0.5921073i,-0.5968598-0.07516339i,-0.5181394+0.2972082i,-0.2399437+0.54163i,0.1179886+0.5791332i,0.4315609+0.4142578i,0.6101028+0.1026206i,0.5945499-0.2763496i,0.3531015-0.6158524i,-0.08898307-0.7747745i,-0.6010415-0.618354i,-0.9462499-0.1160791i,-0.8811975+0.5689067i,-0.3249176+1.098143i,0.5204549+1.124327i,1.218588+0.5259425i,1.332375-0.454362i,0.7110816-1.296278i,-0.3676262-1.49368i,-1.322214-0.8761426i,-1.601435+0.2568153i,-1.020328+1.291243i,0.1195868+1.654005i,1.20305+1.14509i,1.654409+0.04391639i,1.252669-1.062377i,0.2301483-1.609145i},
		{-1.121235-1.094443i,-1.532024-0.09925517i,-1.205442+0.8945439i,-0.3415027+1.426745i,0.6336907+1.288069i,1.28267+0.5817518i,1.34072-0.3553486i,0.8058423-1.109851i,-0.07644086-1.359285i,-0.9161049-0.9987786i,-1.338082-0.1882015i,-1.147138+0.7065924i,-0.4273804+1.271611i,0.4845059+1.241166i,1.156579+0.6339414i,1.276018-0.2525362i,0.804099-0.9935516i,-0.01452996-1.25187i,-0.787711-0.936062i,-1.173012-0.2232852i,-1.028541+0.5485278i,-0.4519697+1.046304i,0.2884568+1.079722i,0.8795663+0.6605825i,1.087078-0.02109456i,0.8377164-0.6804348i,-0.4559712-0.9733663i,-0.9614326-0.4857306i,-1.060527+0.2130439i,-0.7055698+0.8285408i,-0.0408364+1.096026i,0.6542782+0.8934956i,1.080375+0.2967031i,1.043964-0.4470405i,0.5438221-1.016766i,-0.2177842-1.15168i,-0.9096482-0.7701713i,-1.211221-0.02161684i,-0.9637063+0.763433i,-0.2601938+1.217411i,0.581845+1.114097i,1.166428+0.4893042i,1.214417-0.3681432i,0.7032018-1.057292i,-0.1261317-1.262242i,-0.8932045-0.8985922i,-1.259759-0.1384537i,-1.073365+0.6822144i,-0.4167574+1.212817i,0.4368302+1.224977i,1.129155+0.6963671i,1.349106-0.1725581i},
		{-0.7839037-1.389141i,-1.499473-0.5067752i,-1.429283+0.6201693i,-0.6246771+1.384745i,0.4526951+1.393909i,1.212395+0.6961712i,1.289602-0.2739051i,0.7332838-0.9868026i,-0.08157436-1.132173i,-0.7225593-0.7481948i,-0.9423839-0.1182491i,-0.7485303+0.4420435i,-0.3110909+0.7405488i,0.1707135+0.7345498i,0.5417218+0.4767919i,0.6991489+0.06845231i,0.5943225-0.3529567i,0.2596618-0.6306623i,-0.1734362-0.6471618i,-0.5175149-0.3967548i,-0.6275534-0.00270147i,-0.4827296+0.3531557i,-0.1818982+0.5383129i,0.1396133+0.5266559i,0.3916737+0.3666694i,0.5391227+0.1115243i,0.3810441-0.5278198i,0.001053372-0.7281438i,-0.4947593-0.6463256i,-0.8765852-0.213273i,-0.8864659+0.4360377i,-0.4224375+0.9806913i,0.3441462+1.086656i,1.027296+0.6265138i,1.24044-0.2119441i,0.8276579-1.011005i,-0.03684069-1.349232i,-0.9355412-1.028332i,-1.419408-0.1763403i,-1.227419+0.812346i,-0.41488+1.458104i,0.656957+1.417817i,1.469283+0.6603127i,1.586457-0.4844107i,0.892539-1.451505i,-0.3052567-1.716853i,-1.398217-1.094558i,-1.793361+0.1235311i,-1.256252+1.300488i,-0.06264242+1.805731i,1.151235+1.375954i,1.752395+0.2580715i},
		{0.09603456-1.116045i,-0.6844988-0.9010252i,-1.114201-0.2137809i,-0.9719752+0.5783479i,-0.3467291+1.068562i,0.4342404+1.026154i,0.9901177+0.4929985i,1.068769-0.2641708i,0.6449008-0.891359i,-0.08391584-1.10101i,-0.7830637-0.7899764i,-1.119357-0.09031502i,-0.9135591+0.6719957i,-0.2451539+1.116622i,0.5601702+1.002093i,1.084398+0.3723254i,1.046195-0.4458123i,0.4692812-1.016055i,-0.3255839-1.042547i,-0.9093299-0.5381567i,-0.9941139+0.1972444i,-0.583528+0.767639i,0.06180225+0.9087034i,0.5997354+0.6098129i,0.7964293+0.07558761i,0.6192292-0.4178479i,-0.2349564-0.6109912i,-0.5275305-0.3200346i,-0.5819606+0.06211704i,-0.4076614+0.3821114i,-0.09330133+0.5284443i,0.2322538+0.4631897i,0.4484269+0.2279516i,0.4851251-0.07882743i,0.3414157-0.3433753i,0.07588482-0.4762014i,-0.2189082-0.4341922i,-0.441817-0.2266798i,-0.5055915+0.08403496i,-0.3651572+0.3877379i,-0.0508227+0.5523914i,0.3179182+0.4808775i,0.5688256+0.1763675i,0.5636334-0.23325i,0.2866477-0.5479945i,-0.1317311-0.6060935i,-0.484263-0.3801768i,-0.605911+0.01003447i,-0.4595312+0.375833i,-0.1340392+0.5665348i,0.2265692+0.5295253i,0.4963796+0.2990859i},
		{-0.4255304+0.3093224i,-0.1667745+0.4977917i,0.1553289+0.5063089i,0.4301683+0.3258452i,0.5547003+0.009840529i,0.467586-0.3337978i,0.1795366-0.5704816i,-0.2139247-0.5867228i,-0.5536047-0.3457719i,-0.6772698+0.07620154i,-0.500424+0.503575i,-0.07447146+0.7333018i,0.4195664+0.6366441i,0.7502452+0.2345234i,0.7499664-0.3012766i,0.4014738-0.7262399i,-0.1502299-0.8387101i,-0.6630665-0.5729586i,-0.9035083-0.02897357i,-0.7453932+0.5662509i,-0.2279916+0.9461105i,0.4442157+0.912816i,0.9678733+0.4350303i,1.066434-0.3066668i,0.6361703-0.9684829i,-0.1626621-1.195187i,-1.287321+0.01893941i,-0.9672683+0.8943118i,-0.1209842+1.332609i,0.8104785+1.078169i,1.324621+0.2566539i,1.147933-0.6906961i,0.3895031-1.262383i,-0.5351927-1.179213i,-1.150913-0.5210355i,-1.178094+0.3489037i,-0.6509497+1.000422i,0.1416525+1.151924i,0.8243912+0.7758302i,1.107082+0.07289434i,0.8888601-0.6370272i,0.2792727-1.047351i,-0.4507957-0.9806952i,-0.9733768-0.4627394i,-1.041273+0.274689i,-0.6115949+0.8832963i,0.1136347+1.062032i,0.7743002+0.7187104i,1.037896+0.0309047i,0.7819087-0.6445637i,0.1594553-0.9684418i,-0.494905-0.8032023i},
		{0.6632388+1.012627i,1.176462+0.3444708i,1.125156-0.5070726i,0.5245839-1.117662i,-0.3251128-1.183602i,-1.001833-0.6845433i,-1.188316+0.1173557i,-0.8254899+0.8319892i,-0.1131602+1.144578i,0.6168377+0.9489821i,1.061176+0.3591703i,1.055212-0.370053i,0.6089556-0.9483912i,-0.1085398-1.141742i,-0.815923-0.8472475i,-1.203188-0.149923i,-1.057124+0.6712969i,-0.3891112+1.23196i,0.5191453+1.222475i,1.219903+0.5963052i,1.330448-0.3614678i,0.7633607-1.160347i,-0.1986888-1.373299i,-1.050025-0.8867618i,-1.34925+0.03110649i,-0.9667938+0.8903068i,0.6874685+1.006191i,1.120652+0.3102773i,1.00871-0.4519717i,0.4746567-0.9357494i,-0.197015-0.9780154i,-0.7197423-0.6254399i,-0.9171379-0.06320819i,-0.7545815+0.4844865i,-0.3150921+0.8285103i,0.2406994+0.8546034i,0.714427+0.5467038i,0.919541+0.002188444i,0.7482439-0.5776348i,0.2357714-0.9454488i,-0.4217628-0.9119803i,-0.93042-0.4523126i,-1.031916+0.2513936i,-0.644591+0.8742519i,0.07175197+1.103507i,0.77801+0.8061141i,1.123672+0.1118469i,0.9316666-0.6437604i,0.2945291-1.091175i,-0.4746485-1.017981i,-1.007247-0.4721107i,-1.064226+0.2753312i},
		{-0.1355391-1.07118i,-0.7498422-0.6906663i,-0.953526-0.04871326i,-0.7159775+0.5242466i,-0.2181469+0.7900931i,0.2817158+0.700031i,0.5907055+0.3678259i,0.6467182-0.03364874i,0.4920503-0.3668688i,0.2072638-0.5601548i,-0.1305251-0.5844701i,-0.4440039-0.4281515i,-0.6385856-0.1071677i,-0.6172298+0.3011685i,-0.3367807+0.6485708i,0.1339304+0.7649712i,0.6102532+0.5510966i,0.8649518+0.05551243i,0.7450655-0.5220329i,0.2642739-0.9142172i,-0.3855256-0.9153107i,-0.9131353-0.4880056i,-1.059381+0.2057806i,-0.7203597+0.8648306i,-0.008977309+1.175001i,0.7743801+0.9528645i,1.17528-0.6479831i,0.4990982-1.309973i,-0.4922763-1.37638i,-1.322946-0.749465i,-1.545006+0.3138966i,-0.9869248+1.295547i,0.1192967+1.671189i,1.225912+1.200626i,1.747133+0.08524707i,1.381625-1.113899i,0.293536-1.767911i,-0.9615251-1.523175i,-1.731803-0.499362i,-1.620806+0.7731186i,-0.6965032+1.64029i,0.5551784+1.672256i,1.49779+0.8788299i,1.677324-0.3160106i,1.040498-1.311232i,-0.06524671-1.6377i,-1.089575-1.176175i,-1.556772-0.1866567i,-1.281236+0.8433155i,-0.4288779+1.439388i,0.5839895+1.351877i,1.291542+0.6506437i},
		{0.528515-1.629521i,-0.5989655-1.605084i,-1.471025-0.8850664i,-1.707642+0.2260933i,-1.197554+1.247859i,-0.1560033+1.730101i,0.9636815+1.455073i,1.670082+0.5376818i,1.651465-0.6254699i,0.9096559-1.531186i,-0.2446648-1.784525i,-1.32263-1.261581i,-1.85441-0.1625924i,-1.58104+1.057754i,-0.5763985+1.861851i,0.7518075+1.853459i,1.80685+0.9750845i,2.063174-0.4196606i,1.337809-1.688349i,-0.0741151-2.19548i,-1.505048-1.647078i,-2.239139-0.2747412i,-1.890545+1.257123i,-0.6190344+2.18865i,0.9482418+2.061639i,2.045595+0.9517534i,1.265129-1.818664i,-0.1884346-2.184753i,-1.522316-1.549414i,-2.142969-0.2286178i,-1.792593+1.174479i,-0.6416526+2.037691i,0.7939131+1.98124i,1.872313+1.028197i,2.102346-0.3979807i,1.368416-1.649777i,-0.001349495-2.145611i,-1.373675-1.647235i,-2.105539-0.3841397i,-1.855284+1.049772i,-0.7486265+1.982712i,0.6873292+1.988585i,1.783879+1.0829i,2.047219-0.2996714i,1.377217-1.520847i,0.0963093-2.033583i,-1.208536-1.620815i,-1.950851-0.4816763i,-1.802413+0.8627648i,-0.8376136+1.802189i,0.4984333+1.911591i,1.590926+1.147641i},
		{1.109766-1.248795i,0.03921467-1.691356i,-1.077975-1.33175i,-1.705471-0.3206368i,-1.525207+0.8732164i,-0.5988934+1.675303i,0.6441147+1.680163i,1.600545+0.8606233i,1.787592-0.3993759i,1.094403-1.481228i,-0.1464892-1.840716i,-1.318567-1.291618i,-1.836055-0.1079971i,-1.446662+1.1159i,-0.357784+1.773925i,0.879359+1.55651i,1.658276+0.5960388i,1.619876-0.6180158i,0.8148734-1.495921i,-0.3433901-1.636324i,-1.295428-1.005348i,-1.605674+0.068413i,-1.158081+1.066006i,-0.193901+1.527915i,0.8166912+1.264348i,1.403667+0.4317358i,0.6354052-1.235i,-0.2921575-1.313351i,-1.026281-0.7977523i,-1.252214+0.03335861i,-0.9140178+0.7847066i,-0.211635+1.137412i,0.5202573+0.9813483i,0.9753302+0.4334337i,0.998215-0.2450166i,0.622318-0.7742252i,0.028014-0.9640218i,-0.5431315-0.7690215i,-0.879082-0.2862966i,-0.8658083+0.2910365i,-0.5189774+0.7449846i,0.02652445+0.9075578i,0.5652024+0.7176442i,0.8925385+0.2420997i,0.8764769-0.3456794i,0.5063788-0.8226345i,-0.09510741-0.9918442i,-0.7029438-0.757252i,-1.061576-0.1753151i,-0.9848855+0.5408585i,-0.4526923+1.084231i,0.344888+1.178986i},
		{-0.1332453+0.420237i,0.1820995+0.3915423i,0.3865993+0.1584923i,0.3731326-0.140344i,0.1666808-0.3351224i,-0.09749936-0.3308363i,-0.2666169-0.1598441i,-0.2674425+0.05314302i,-0.1403568+0.1835153i,0.007755674+0.1868017i,0.08937073+0.110556i,0.09328672+0.03750918i,0.07267563+0.01167411i,0.08120178+0.00849387i,0.1152565-0.02900308i,0.1137269-0.1218953i,0.01791947-0.2169137i,-0.1582956-0.2172902i,-0.3119967-0.06523523i,-0.3136994+0.1890989i,-0.1099755+0.3955279i,0.2126817+0.3972829i,0.4621995+0.1495264i,0.4626707-0.226801i,0.1822322-0.5066723i,-0.2285111-0.5055516i,-0.5235149+0.2144516i,-0.2281+0.5116604i,0.1815357+0.5167112i,0.4682365+0.2457072i,0.4880676-0.1279132i,0.2643183-0.3963247i,-0.05394907-0.4428916i,-0.30152-0.2870454i,-0.3878779-0.03710493i,-0.3153791+0.1920609i,-0.1390239+0.3297204i,0.07760991+0.3483478i,0.2736857+0.243241i,0.3822919+0.03235363i,0.3401238-0.2225431i,0.1301378-0.4113889i,-0.176167-0.4206204i,-0.4288446-0.2110283i,-0.4778726+0.1319398i,-0.2737549+0.4284601i,0.08584974+0.508385i,0.4061612+0.3201269i,0.5124515-0.03397594i,0.3539612-0.3610812i,0.02605924-0.4937499i,-0.2959097-0.3796227i},
		{0.7517157+0.6556014i,0.9813806-0.005814218i,0.716351-0.6387821i,0.1136322-0.9255989i,-0.5043927-0.7451891i,-0.8324461-0.2246095i,-0.7419139+0.3507541i,-0.3262013+0.7048284i,0.1813806+0.7094849i,0.5490745+0.418209i,0.653324-0.002218151i,0.4997262-0.3747639i,0.1778261-0.5798406i,-0.1935801-0.5678784i,-0.4946434-0.3473088i,-0.6172734+0.01742881i,-0.4936752+0.401044i,-0.143659+0.6404918i,0.2993922+0.6053777i,0.6296023+0.2832119i,0.6741194-0.1875294i,0.3990603-0.5783263i,-0.06227943-0.6965621i,-0.4842227-0.4928819i,-0.6749616-0.07845647i,-0.5686681+0.350202i,0.1848437+0.6305723i,0.5314186+0.3979058i,0.6808086-0.001329876i,0.5612588-0.4305984i,0.1847843-0.7182663i,-0.3230547-0.7105479i,-0.7382953-0.3583839i,-0.8316588+0.2142787i,-0.507437+0.7337565i,0.1057447+0.9122741i,0.697037+0.6247611i,0.9442975+0.004282992i,0.7084813-0.6224294i,0.1189621-0.9253075i,-0.5081621-0.7611455i,-0.8586819-0.2407134i,-0.787866+0.3574785i,-0.3693945+0.7524326i,0.1784663+0.7941258i,0.6171687+0.5013755i,0.7839477+0.01727726i,0.6297784-0.4638312i,0.2167086-0.7589561i,-0.3018628-0.74575i,-0.7185301-0.4074985i,-0.8403195+0.1382778i},
		{-0.3764241+1.392234i,0.5999739+1.339406i,1.339728+0.6662113i,1.485987-0.3488384i,0.9342249-1.244248i,-0.08856738-1.580036i,-1.103878-1.163634i,-1.609227-0.1726695i,-1.342883+0.9153007i,-0.4311159+1.56566i,0.6767932+1.467172i,1.448485+0.6855227i,1.537963-0.3913394i,0.9342052-1.264815i,-0.06871443-1.560755i,-1.028614-1.172195i,-1.541964-0.2742937i,-1.389604+0.7578706i,-0.6157673+1.486022i,0.4709294+1.571935i,1.393745+0.9321967i,1.702385-0.1831304i,1.20267-1.262548i,0.09523775-1.76554i,-1.088446-1.412485i,-1.751299-0.3590983i,-0.6069311+1.657805i,0.6071493+1.631965i,1.492391+0.8379793i,1.650163-0.3116709i,1.049374-1.270216i,0.001269605-1.619038i,-1.010975-1.234256i,-1.546623-0.3108683i,-1.381631+0.734686i,-0.5950739+1.437267i,0.4578497+1.478104i,1.291148+0.8346409i,1.510981-0.1910991i,1.016495-1.105769i,0.06102043-1.471764i,-0.8788584-1.135428i,-1.358882-0.2982354i,-1.193672+0.6116071i,-0.5214463+1.178757i,0.3110374+1.198587i,0.9448115+0.7295038i,1.159282+0.009364863i,0.9170279-0.674728i,0.3310635-1.083324i,-0.3868071-1.074056i,-0.974622-0.6335301i},
		{0.4909485+0.09125619i,0.4247421-0.22998i,0.1876775-0.430382i,-0.1087059-0.448674i,-0.3550262-0.2949848i,-0.4697205-0.02592528i,-0.40584+0.2710981i,-0.1645197+0.4861009i,0.1830923+0.512147i,0.4947707+0.2988855i,0.6064096-0.09390275i,0.4225689-0.492547i,-0.005456878-0.6826523i,-0.4770856-0.5307593i,-0.7367343-0.08050029i,-0.6197979+0.4474018i,-0.1618432+0.7661227i,0.4038275+0.6866444i,0.7693839+0.2359701i,0.7286223-0.3475262i,0.3002058-0.7457312i,-0.2798536-0.7436211i,-0.6949112-0.3525163i,-0.7307025+0.2019062i,-0.3921988+0.6175369i,0.1145119+0.6908594i,0.6275621-0.0187272i,0.4388369-0.3939857i,0.0833251-0.5467578i,-0.2592469-0.4509211i,-0.4561562-0.1876194i,-0.4585298+0.1209442i,-0.2877962+0.3638852i,-0.0101795+0.4618395i,0.2768462+0.3754459i,0.4584713+0.1236739i,0.4412008-0.1992477i,0.2112454-0.4436684i,-0.1317907-0.4764501i,-0.4113715-0.2683383i,-0.475256+0.07181341i,-0.2949566+0.3559657i,0.01442142+0.4359315i,0.2742254+0.2954383i,0.3617935+0.04567599i,0.2771903-0.166889i,0.112132-0.260814i,-0.03936677-0.2486954i,-0.1442001-0.1853204i,-0.2173243-0.09868094i,-0.2615763+0.02424043i,-0.2348381+0.187548i},
		{0.1016855-0.07658664i,-0.008449041-0.1073107i,-0.08418074-0.03543298i,-0.05834074+0.05920755i,0.03701405+0.07849055i,0.1010624-0.001507261i,0.05921103-0.1059604i,-0.06412006-0.1285482i,-0.1624602-0.03026071i,-0.1401801+0.1199719i,0.001312132+0.2002989i,0.1603894+0.1384737i,0.2171314-0.02728678i,0.1288227-0.1795071i,-0.04049986-0.2144972i,-0.1753821-0.117623i,-0.1967918+0.03668737i,-0.1102557+0.1500087i,0.01541691+0.1695959i,0.1083234+0.1095678i,0.1379427+0.02011345i,0.1153022-0.05659199i,0.06427081-0.1050853i,-0.0007327991-0.1245982i,-0.0721176-0.1107313i,-0.1333197-0.05489446i,-0.107906+0.1376953i,0.003097788+0.1913868i,0.1356699+0.1574918i,0.2214631+0.03443456i,0.2034633-0.1274968i,0.07296916-0.2451462i,-0.1153919-0.2452085i,-0.2636382-0.1097296i,-0.2810223+0.1024237i,-0.1410007+0.2774097i,0.09109336+0.3081188i,0.2855062+0.1633637i,0.3233551-0.08216588i,0.1750056-0.2856507i,-0.07422043-0.3244076i,-0.2751226-0.1765914i,-0.3109464+0.06411967i,-0.1713253+0.2520906i,0.04826206+0.2853208i,0.2168809+0.1641034i,0.2524152-0.02418827i,0.1599788-0.1726626i,0.008032415-0.2186164i,-0.1252124-0.1624143i,-0.1901425-0.04515944i,-0.1719019+0.08173455i},
		{-0.2522435-0.4438234i,-0.5268459-0.1826904i,-0.5575672+0.2358791i,-0.2685929+0.5937216i,0.2252132+0.6566786i,0.6492891+0.3362846i,0.7291958-0.2175026i,0.3817043-0.6826435i,-0.2061368-0.7665529i,-0.6839422-0.4061824i,-0.7656586+0.1825285i,-0.4158208+0.647134i,0.1387852+0.7296765i,0.5719211+0.4195311i,0.667235-0.07037381i,0.4262917-0.4643354i,0.0220343-0.5902599i,-0.3357134-0.4424316i,-0.5110431-0.1321139i,-0.4697433+0.2003355i,-0.2489827+0.4393858i,0.07239797+0.5049675i,0.3806187+0.3595227i,0.5407609+0.03682486i,0.4512396-0.3350146i,0.1208543-0.5678058i,-0.5773861-0.1784666i,-0.545782+0.2654711i,-0.2127416+0.5636516i,0.2294887+0.5445761i,0.5249358+0.2291299i,0.5156875-0.1870019i,0.2332336-0.463831i,-0.1376038-0.4657194i,-0.3861317-0.2290188i,-0.4014072+0.08412353i,-0.217972+0.2990985i,0.03152812+0.3281098i,0.2096691+0.1993505i,0.2492057+0.01471825i,0.1712989-0.1231966i,0.05022075-0.1664607i,-0.04306132-0.1323181i,-0.08108164-0.07260382i,-0.08248538-0.02883647i,-0.08156275-0.005060555i,-0.09102622+0.02394789i,-0.08859902+0.07808448i,-0.03949911+0.1413813i,0.06322166+0.1646297i,0.1765295+0.1035815i,0.2275502-0.03697614i},
		{-0.6830398-0.1310338i,-0.5883072+0.3148702i,-0.2560653+0.5868851i,0.1484515+0.5992305i,0.4651071+0.3808767i,0.5933242+0.03150587i,0.5008457-0.3263409i,0.2146787-0.5731847i,-0.1798642-0.6096573i,-0.5401895-0.3896576i,-0.6995969+0.03411067i,-0.5454224+0.4939068i,-0.1046585+0.7624918i,0.4321802+0.6729757i,0.7911307+0.2331291i,0.7667-0.3519378i,0.3508969-0.7808017i,-0.2505375-0.8250433i,-0.7305213-0.4595994i,-0.8503164+0.1272778i,-0.5614474+0.6435794i,-0.0153777+0.8476326i,0.5272064+0.6575847i,0.8232743+0.1712555i,0.7467684-0.3914096i,0.3308218-0.7829408i,-0.7303645-0.4823939i,-0.8848169+0.1050457i,-0.6139405+0.6666742i,-0.02721189+0.9186606i,0.5906577+0.7150272i,0.9185241+0.1445889i,0.7784291-0.4998094i,0.2452281-0.8788695i,-0.3918226-0.8010281i,-0.7978307-0.3295749i,-0.783827+0.2660654i,-0.399169+0.6778386i,0.1246018+0.7311602i,0.5253295+0.4553975i,0.6494033+0.02752194i,0.4985957-0.3496816i,0.1827766-0.5455948i,-0.1617269-0.527738i,-0.4263555-0.3322454i,-0.5407498-0.02773028i,-0.466967+0.2973506i,-0.209018+0.535266i,0.1633156+0.5791345i,0.5095204+0.374129i,0.6628528-0.02847082i,0.5167063-0.4630365i},
		{-0.8968571-0.08022687i,-0.7589377+0.5291966i,-0.2464298+0.9148847i,0.408632+0.8772717i,0.8943501+0.4164121i,0.9694822-0.2615575i,0.582894-0.8380042i,-0.09538539-1.032139i,-0.7486532-0.7381243i,-1.061896-0.0825733i,-0.8750488+0.6291769i,-0.2656339+1.056446i,0.4830697+0.9881563i,1.01543+0.4476562i,1.07375-0.3151914i,0.622515-0.9408948i,-0.1323295-1.129617i,-0.837138-0.7834707i,-1.154313-0.05677481i,-0.9228398+0.7099271i,-0.2420908+1.146415i,0.5653701+1.032264i,1.104135+0.413559i,1.103658-0.4088178i,0.5626176-1.025534i,-0.2441988-1.130651i,-1.110112+0.07404379i,-0.7741039+0.756383i,-0.09977466+1.04327i,0.5704905+0.8354521i,0.9359925+0.2748253i,0.8709508-0.3595959i,0.4468566-0.7980345i,-0.135458-0.8845633i,-0.6413688-0.6089835i,-0.8791306-0.0874086i,-0.7517099+0.4780012i,-0.2936672+0.8551595i,0.3178629+0.8639232i,0.8105338+0.4694771i,0.9346876-0.1673612i,0.6046084-0.7412795i,-0.02898238-0.955385i,-0.6431744-0.6937969i,-0.9216168-0.0979756i,-0.7369925+0.5137157i,-0.2158093+0.8343205i,0.3538351+0.7384717i,0.699779+0.3264755i,0.7051122-0.16882i,0.4299288-0.5285174i,0.03185095-0.6443564i},
		{-0.2449497+1.144466i,0.596806+0.9822165i,1.080521+0.2937667i,0.9511244-0.5146206i,0.3173069-0.9844148i,-0.4276118-0.8801111i,-0.8576827-0.3169862i,-0.7726753+0.3359378i,-0.2959869+0.7040827i,0.2404398+0.6350724i,0.5299348+0.2585713i,0.4758336-0.1433438i,0.2091457-0.3440527i,-0.04872532-0.3048496i,-0.1571638-0.151309i,-0.132175-0.03747372i,-0.08715514-0.01915108i,-0.1079817-0.03319269i,-0.1738251+0.01704257i,-0.1842849+0.1552356i,-0.06007823+0.2977031i,0.1727146+0.3166621i,0.3846634+0.145851i,0.4283416-0.1562576i,0.2414318-0.4322062i,-0.1050315-0.519205i,-0.5900754+0.02189545i,-0.4582693+0.416116i,-0.08694407+0.6417394i,0.3620622+0.5718993i,0.6741909+0.2129032i,0.6803803-0.2853894i,0.346375-0.686303i,-0.1917024-0.7757685i,-0.675997-0.4781377i,-0.8503386+0.08540157i,-0.6004969+0.6408384i,-0.03044289+0.8977575i,0.5788643+0.7079432i,0.9139554+0.153756i,0.7972578-0.4894001i,0.2828463-0.897535i,-0.3736384-0.8671594i,-0.8496944-0.4157593i,-0.9176936+0.2348457i,-0.5498137+0.7737715i,0.07817873+0.9495995i,0.6745977+0.6814471i,0.9638476+0.08979288i,0.8063772-0.5578598i,0.2616942-0.9614365i,-0.4296183-0.9199774i},
		{-0.3021603-0.13377i,-0.3304778+0.1053123i,-0.1804736+0.3109967i,0.07961746+0.3586i,0.3039659+0.2096078i,0.3608854-0.05293849i,0.2221999-0.2753329i,-0.01996433-0.336232i,-0.2222705-0.2228545i,-0.2882075-0.02390509i,-0.2179622+0.1463832i,-0.08036601+0.2241658i,0.05394426+0.2133275i,0.1532321+0.1468846i,0.2120209+0.04528887i,0.216732-0.08379898i,0.1403426-0.213191i,-0.02134373-0.2804278i,-0.2122578-0.2216855i,-0.3281737-0.03273178i,-0.2834489+0.2024483i,-0.08087508+0.3525173i,0.1771797+0.3245203i,0.3504058+0.1278673i,0.3481852-0.13251i,0.1785395-0.3239702i,-0.2797948-0.2354954i,-0.3676894-0.008688229i,-0.2976083+0.2269086i,-0.09128989+0.3741891i,0.174151+0.3598015i,0.3807339+0.168717i,0.4141944-0.127755i,0.2319017-0.3843473i,-0.08990858-0.4522446i,-0.3794547-0.2751822i,-0.4671875+0.05872292i,-0.2974347+0.3599836i,0.02956052+0.4559782i,0.3216873+0.3017866i,0.4201124+0.002769467i,0.2940526-0.2639i,0.04172232-0.3650726i,-0.1901321-0.2804591i,-0.29861-0.08742243i,-0.2654375+0.1073108i,-0.1362977+0.2284521i,0.02393563+0.250231i,0.1602118+0.1820503i,0.2327657+0.0522176i,0.2176112-0.09619238i,0.116063-0.2087966i},
		{-0.1934929-0.1457246i,-0.1992709+0.02366351i,-0.1011232+0.1190074i,0.0009120925+0.1100725i,0.03706002+0.05281422i,0.01702919+0.02292791i,0.003557359+0.04414648i,0.04275267+0.07303715i,0.1165113+0.04695626i,0.1561795-0.05227702i,0.1014032-0.1741249i,-0.04619624-0.231712i,-0.214631-0.163132i,-0.3013808+0.02215822i,-0.2340795+0.2394158i,-0.01813884+0.367642i,0.2525788+0.3130548i,0.4316859+0.06912439i,0.3950408-0.2590523i,0.1227873-0.4919403i,-0.2625251-0.4718267i,-0.543631-0.1709194i,-0.5338346+0.2638925i,-0.2074507+0.5796128i,0.2607765+0.572593i,0.5922478+0.2301155i,0.2408992-0.5757378i,-0.2208605-0.5651025i,-0.5281439-0.2451153i,-0.5234513+0.1743494i,-0.2494117+0.4524105i,0.108014+0.4664262i,0.3560219+0.2593645i,0.4035264-0.02537425i,0.2774547-0.2493634i,0.06617792-0.3428321i,-0.1432741-0.3020997i,-0.2889762-0.1569921i,-0.3280596+0.04654573i,-0.2374936+0.2423237i,-0.03586419+0.3480801i,0.1995854+0.3005042i,0.355222+0.1033703i,0.3428141-0.1556218i,0.1589213-0.345104i,-0.1058041-0.3655204i,-0.3173186-0.2071066i,-0.37305+0.0481325i,-0.2518646+0.2755668i,-0.01559465+0.371223i,0.2264904+0.2945701i,0.3650236+0.07993751i},
		{-0.4730211-0.4561775i,-0.6717623-0.07499261i,-0.5955473+0.3654848i,-0.2500175+0.6803083i,0.2389885+0.714039i,0.6601503+0.4193357i,0.8049057-0.09869067i,0.5752172-0.6101577i,0.05122141-0.8626713i,-0.5298969-0.7118527i,-0.8841965-0.207173i,-0.8255066+0.4206597i,-0.3654008+0.8692123i,0.286222+0.9140227i,0.8201453+0.521088i,0.9759355-0.1329984i,0.6678504-0.7413041i,0.03053572-1.009588i,-0.6377212-0.7978703i,-1.012654-0.1950341i,-0.9027504+0.5140573i,-0.3517422+0.982306i,0.3739489+0.9748913i,0.9160405+0.4937946i,1.008999-0.2200186i,0.616953-0.8129112i,-0.6747504-0.7195696i,-0.9597266-0.1195862i,-0.8018155+0.5069336i,-0.2976804+0.8839664i,0.3183611+0.8644521i,0.7837103+0.4728199i,0.9075786-0.1205654i,0.6359053-0.6672304i,0.07387535-0.9297982i,-0.5417097-0.7765906i,-0.9281107-0.2532181i,-0.8847975+0.4121514i,-0.4082334+0.8986014i,0.2811162+0.9524343i,0.8377334+0.5332381i,0.9748468-0.149324i,0.6262326-0.7438396i,-0.01687777-0.9515891i,-0.6183354-0.6881623i,-0.8863002-0.1153238i,-0.7215824+0.4662474i,-0.2444801+0.7857337i,0.2958628+0.7291796i,0.6582417+0.365473i,0.7126285-0.1175774i,0.4712972-0.5121669i},
		{0.5234595-0.7303711i,-0.09212372-0.8739716i,-0.6311591-0.5745459i,-0.822763-0.01029954i,-0.5970794+0.5134299i,-0.1066913+0.7409352i,0.380409+0.5967169i,0.6364845+0.1977822i,0.579645-0.2390506i,0.2815838-0.5195095i,-0.09915663-0.5507438i,-0.4001549-0.3532063i,-0.5123718-0.02829683i,-0.4056652+0.2867304i,-0.1331491+0.4641094i,0.1845202+0.4314279i,0.4034862+0.2077998i,0.4242297-0.09556828i,0.2482461-0.3274156i,-0.01940615-0.3806261i,-0.2338468-0.2541922i,-0.3008479-0.04560436i,-0.2283073+0.1230962i,-0.1008173+0.1887676i,-0.001551456+0.1749712i,0.05106508+0.1462441i,0.1802255+0.1040773i,0.2670077-0.004591979i,0.2683115-0.1998965i,0.104683-0.3923189i,-0.2022189-0.4340891i,-0.5032442-0.2258113i,-0.5950304+0.1851705i,-0.3554696+0.5948377i,0.1486337+0.7457074i,0.6641458+0.4893187i,0.8810761-0.09465926i,0.6216449-0.7097028i,-0.02700749-0.9959179i,-0.7306926-0.7456076i,-1.084639-0.04985656i,-0.8540993+0.7261845i,-0.131944+1.141629i,0.6948133+0.9409813i,1.162163+0.2166571i,1.002304-0.6350949i,0.3030875-1.143584i,-0.5463152-1.037086i,-1.086368-0.3915622i,-1.047348+0.42969i,-0.482573+0.9946556i,0.2893531+1.037332i},
		{-0.1414508+0.9486485i,0.4930188+0.813866i,0.8888363+0.3164992i,0.8866793-0.3070684i,0.5061365-0.7913543i,-0.09036994-0.9449577i,-0.6677986-0.7029221i,-0.9901718-0.1418135i,-0.8950266+0.5295467i,-0.3726579+1.020061i,0.3853065+1.067848i,1.028772+0.5867473i,1.206641-0.2397182i,0.7725925-1.008397i,-0.09340727-1.299411i,-0.9514488-0.9239969i,-1.339252-0.05557688i,-1.03993+0.8535043i,-0.2094528+1.32545i,0.715197+1.123045i,1.263081+0.3683188i,1.177395-0.5429203i,0.5284972-1.161283i,-0.3480244-1.206138i,-1.030784-0.6821744i,-1.209994+0.1447491i,-0.05247306+1.18694i,0.7207367+0.9256388i,1.133203+0.2315367i,0.9936008-0.5530207i,0.3842836-1.045146i,-0.3806021-1.016185i,-0.921385-0.5068271i,-0.9922278+0.205194i,-0.5986248+0.7643546i,0.02969251+0.9253443i,0.5807865+0.6607617i,0.8225014+0.140631i,0.6941468-0.3809079i,0.2979817-0.691939i,-0.1766298-0.6983227i,-0.5411882-0.4330397i,-0.6713285-0.02067748i,-0.5367891+0.3758555i,-0.2020867+0.610658i,0.1995435+0.6025543i,0.5149317+0.3620847i,0.627534-0.014853i,0.4983377-0.3856286i,0.1749923-0.613286i,-0.2281784-0.6104041i,-0.5649728-0.36459i},
		{0.5653046-0.4784022i,0.1242873-0.6921798i,-0.3227215-0.5844777i,-0.5865948-0.2429489i,-0.5833702+0.1634521i,-0.3461024+0.4664279i,0.008749819+0.5597578i,0.3350514+0.4267478i,0.5110168+0.1351455i,0.4797148-0.1943247i,0.2645935-0.4354562i,-0.04544048-0.502848i,-0.3337244-0.3783294i,-0.497416-0.1097261i,-0.476421+0.2097642i,-0.2672826+0.4675736i,0.07091503+0.5587893i,0.4190289+0.4205409i,0.6238458+0.07296673i,0.5601744-0.3573371i,0.2111753-0.667782i,-0.286385-0.6753892i,-0.6848352-0.3341481i,-0.7558421+0.2075713i,-0.4351983+0.6685321i,0.1199658+0.793776i,0.7857401-0.02140081i,0.5638463-0.5177433i,0.08986092-0.7333719i,-0.3833482-0.5958398i,-0.6429939-0.2134406i,-0.6118711+0.2175103i,-0.3457107+0.5241408i,0.03136878+0.6154631i,0.3874554+0.4796185i,0.6079479+0.1617288i,0.6055659-0.2425758i,0.3485065-0.5880839i,-0.09661576-0.7131154i,-0.5526853-0.5178809i,-0.793031-0.04636572i,-0.6623594+0.4980339i,-0.1848413+0.8390647i,0.4215926+0.778387i,0.8489826+0.3185121i,0.8656527-0.3234462i,0.4467378-0.8245703i,-0.2069962-0.9256859i,-0.7706788-0.5672746i,-0.9602719+0.0786847i,-0.675769+0.6936673i,-0.05315055+0.9702427i},
		{-0.03620302-0.005061733i,0.001889237+0.04238182i,0.06180556+0.02301305i,0.07531512-0.04635802i,0.02211158-0.1039432i,-0.06147203-0.1023163i,-0.1222441-0.0415341i,-0.1305339+0.04491486i,-0.08605231+0.1222659i,4.972925e-05+0.1667396i,0.1121458+0.1554472i,0.2148193+0.06510662i,0.244223-0.09989132i,0.1401432-0.2742168i,-0.09090916-0.342844i,-0.3398101-0.2150296i,-0.4400933+0.08653565i,-0.2825422+0.4032331i,0.08399402+0.5258005i,0.4551876+0.3396116i,0.5930868-0.07772701i,0.3872362-0.4879805i,-0.06160384-0.6394605i,-0.4974677-0.429087i,-0.6664925+0.0312277i,-0.469362+0.4838141i,0.4508936+0.5106753i,0.6793787+0.07263221i,0.5527214-0.4046203i,0.1376792-0.672765i,-0.3508522-0.5921591i,-0.6588804-0.2027672i,-0.6237096+0.2936259i,-0.2620207+0.6357301i,0.234335+0.6420376i,0.6001567+0.3120862i,0.6437104-0.1721009i,0.3526931-0.5497094i,-0.1051535-0.6285152i,-0.484402-0.3860155i,-0.599647+0.03266811i,-0.415094+0.4076736i,-0.04366154+0.5626858i,0.3261531+0.4419192i,0.5237088+0.1189486i,0.4659048-0.2482399i,0.1856665-0.4871992i,-0.1819366-0.4833557i,-0.454499-0.2353281i,-0.488199+0.1326468i,-0.2607871+0.4233787i,0.1016881+0.4738025i},
		{0.9757324-1.207483i,-0.04395933-1.590143i,-1.089715-1.201457i,-1.633579-0.2041094i,-1.386609+0.9195101i,-0.4564232+1.611633i,0.703933+1.526042i,1.526744+0.7037472i,1.615334-0.4521745i,0.936309-1.383114i,-0.1745872-1.651165i,-1.186483-1.144787i,-1.631975-0.1180003i,-1.32115+0.9442884i,-0.4145609+1.558619i,0.6659796+1.459097i,1.434729+0.7038049i,1.554033-0.363214i,0.9740001-1.26655i,-0.04963732-1.60267i,-1.062252-1.212977i,-1.602525-0.2598997i,-1.408567+0.8308669i,-0.5506391+1.55161i,0.5811654+1.549558i,1.44856+0.8094701i,1.026348-1.293267i,-0.05628281-1.635943i,-1.087888-1.195178i,-1.575971-0.2070446i,-1.313875+0.8379111i,-0.4636336+1.45219i,0.5528736+1.383584i,1.274404+0.7068602i,1.407258-0.2463659i,0.9281714-1.055757i,0.06485275-1.388049i,-0.8107249-1.116948i,-1.328014-0.3625606i,-1.261242+0.5530149i,-0.6292701+1.227556i,0.2938953+1.3493i,1.085793+0.8504166i,1.371544-0.04136501i,1.016021-0.9017499i,0.1996828-1.322489i,-0.6759902-1.121442i,-1.20208-0.4264418i,-1.167079+0.4121839i,-0.6367025+1.016095i,0.1180962+1.157194i,0.7754781+0.8274022i},
		{-0.2770298+0.5738063i,0.2093784+0.6295048i,0.6036971+0.3172267i,0.6671855-0.1885949i,0.3615653-0.5976396i,-0.1373687-0.6853908i,-0.5584316-0.4168984i,-0.6921723+0.05560099i,-0.4872737+0.4940953i,-0.051065+0.695783i,0.4155454+0.5720274i,0.7018453+0.1723751i,0.6653826-0.3335449i,0.295916-0.7115057i,-0.2559174-0.75767i,-0.7211484-0.4101004i,-0.8377627+0.1858896i,-0.5067382+0.7237259i,0.1220533+0.8959324i,0.7112406+0.5824025i,0.9262163-0.05989709i,0.6382176-0.6775423i,0.005664314-0.9275712i,-0.6205235-0.6782332i,-0.9035116-0.0776576i,-0.7070183+0.5430084i,0.4520808+0.727354i,0.805297+0.2332499i,0.7388437-0.357119i,0.3034904-0.7433816i,-0.2672299-0.73792i,-0.677067-0.3569218i,-0.7192281+0.1889588i,-0.3863772+0.6058443i,0.1250319+0.6778798i,0.5276127+0.3886446i,0.611767-0.07451395i,0.3652909-0.4407106i,-0.0342635-0.5230948i,-0.3459024-0.3219495i,-0.4185601+0.00110777i,-0.2663371+0.2475491i,-0.02608982+0.3080585i,0.15346+0.2056975i,0.2023071+0.04526028i,0.1445659-0.0733851i,0.05133076-0.1101471i,-0.0165858-0.08363285i,-0.03641304-0.03778259i,-0.02010719-0.01073335i,0.0009391527-0.01892101i,-0.007268293-0.0505427i},
		{-0.2096833+0.2859345i,0.0125062+0.3247381i,0.186571+0.2276293i,0.2555311+0.07092091i,0.2311143-0.07091684i,0.1560514-0.1680938i,0.05559439-0.2258065i,-0.07168882-0.2415511i,-0.2166573-0.1835545i,-0.3222902-0.0232579i,-0.3008583+0.2057488i,-0.1077686+0.3894353i,0.1910592+0.3951241i,0.4320052+0.1766529i,0.4565733-0.166669i,0.2297819-0.4395302i,-0.1244622-0.480489i,-0.4050505-0.2718209i,-0.4684552+0.05687078i,-0.3104391+0.327521i,-0.04017198+0.4279348i,0.2128273+0.3535089i,0.3702521+0.1650138i,0.4061546-0.07301871i,0.3095542-0.3075447i,0.07609865-0.4685785i,-0.5353653-0.2183573i,-0.6010478+0.2013598i,-0.3406537+0.5965126i,0.1622652+0.716216i,0.6398986+0.4354348i,0.7942666-0.1268748i,0.5015723-0.6544561i,-0.08724651-0.8298659i,-0.6331093-0.5434493i,-0.82445+0.03586831i,-0.568634+0.5746143i,-0.03163425+0.7850375i,0.4838029+0.58493i,0.7217597+0.1148615i,0.5977482-0.3702256i,0.2085312-0.6449268i,-0.2456877-0.6085906i,-0.5625482-0.3038523i,-0.6150361+0.1214842i,-0.3908632+0.4790138i,0.006190982+0.6121028i,0.3952242+0.4609302i,0.5944183+0.09536973i,0.5085987-0.3099546i,0.1817964-0.5583851i,-0.221835-0.5322495i},
		{-1.337771+1.134761i,-0.3327116+1.803064i,0.9342589+1.666731i,1.855442+0.6976016i,1.924204-0.6933211i,1.035145-1.824805i,-0.4142962-2.098724i,-1.707516-1.337437i,-2.185416+0.101371i,-1.599123+1.50642i,-0.2377008+2.185272i,1.23087+1.815538i,2.103425+0.5908079i,1.981193-0.8954425i,0.9419678-1.947096i,-0.517773-2.089193i,-1.723939-1.273013i,-2.131871+0.1161785i,-1.566012+1.441323i,-0.292254+2.102463i,1.10669+1.805727i,1.997252+0.6926452i,1.981421-0.7287362i,1.072263-1.817446i,-0.3188055-2.087554i,-1.570123-1.419698i,-1.723818+1.26785i,-0.5337933+2.091058i,0.9270491+1.973094i,1.994936+0.9373953i,2.155751-0.5655723i,1.298371-1.839205i,-0.200215-2.260858i,-1.627868-1.598776i,-2.280129-0.1550989i,-1.825616+1.365133i,-0.4899692+2.209885i,1.056672+1.972128i,2.052519+0.7969193i,2.037692-0.7111241i,1.069891-1.816929i,-0.3411644-2.026469i,-1.517645-1.302492i,-1.945217-0.03642983i,-1.486745+1.172804i,-0.4019535+1.801028i,0.8014696+1.612904i,1.599715+0.7350245i,1.670531-0.4210454i,1.017357-1.345369i,-0.04546853-1.650596i,-1.041192-1.2353i},
		{0.304239+0.1161037i,0.327428-0.1465016i,0.1385384-0.3610022i,-0.1647466-0.37462i,-0.3959635-0.1580185i,-0.4047629+0.1673942i,-0.1782834+0.4072324i,0.1516108+0.419825i,0.3953149+0.202196i,0.4223837-0.1168503i,0.2312568-0.3623846i,-0.06447845-0.4149361i,-0.3115812-0.2656243i,-0.3996399-0.002799222i,-0.3044794+0.2465777i,-0.08143285+0.3784402i,0.1714874+0.3464743i,0.3533839+0.1672749i,0.3900252-0.09100472i,0.2555658-0.3268507i,-0.01054593-0.4333127i,-0.3014816-0.3408023i,-0.4740205-0.06386312i,-0.4167184+0.2797236i,-0.1261137+0.5089857i,0.2630949+0.4765999i,0.5140337-0.2514319i,0.1950547-0.544128i,-0.2424497-0.5240207i,-0.5342495-0.1981014i,-0.5041979+0.2318936i,-0.1831311+0.5004144i,0.2143888+0.4558057i,0.4410645+0.1562593i,0.3840359-0.1848612i,0.1255039-0.3581314i,-0.1401789-0.2975281i,-0.2574785-0.09900098i,-0.2070074+0.08053546i,-0.08303386+0.1484522i,0.01011883+0.1233171i,0.04252545+0.08040901i,0.0553027+0.06321652i,0.08964883+0.0487066i,0.1292784-0.008083065i,0.1157106-0.1052636i,0.01783105-0.1775746i,-0.1190664-0.1528241i,-0.1995499-0.02632947i,-0.1592219+0.1222021i,-0.02445827+0.1904446i,0.1073602+0.1387926i},
		{-0.645422-0.8244215i,-1.045867-0.2465474i,-0.9983152+0.4782005i,-0.4885532+1.034549i,0.2904862+1.148985i,0.9943286+0.7214025i,1.268489-0.09499319i,0.9305022-0.9272799i,0.09781937-1.347555i,-0.8332275-1.103104i,-1.377749-0.2807078i,-1.23011+0.7111054i,-0.4493296+1.353592i,0.5608578+1.306738i,1.273938+0.6009406i,1.332008-0.3851466i,0.7327312-1.142221i,-0.190211-1.307387i,-0.96556-0.8405371i,-1.23523-0.01446573i,-0.9185081+0.75312i,-0.2176054+1.117697i,0.5143363+0.9599484i,0.9565971+0.4082215i,0.9590901-0.2576564i,0.5776329-0.7542308i,-0.514905-0.7207081i,-0.8240888-0.2815056i,-0.8359081+0.2464608i,-0.5503583+0.6988015i,-0.038892+0.9241253i,0.5484487+0.8072i,0.9867536+0.3249572i,1.040193-0.386111i,0.5932739-1.023725i,-0.2240067-1.235238i,-1.032284-0.8258395i,-1.377626+0.07094348i,-1.008121+1.00703i,-0.06915569+1.454573i,0.9413345+1.1315i,1.457937+0.197173i,1.194416-0.8297352i,0.3171854-1.386312i,-0.6705505-1.20187i,-1.245788-0.4338416i,-1.163393+0.4678496i,-0.5495772+1.049093i,0.232071+1.090111i,0.8132705+0.6625715i,0.9917409+0.02100383i,0.766118-0.5565047i},
		{-0.5597072+0.4404158i,-0.1186087+0.6696547i,0.3347401+0.5480826i,0.5715733+0.1812118i,0.510614-0.213975i,0.2365144-0.4474716i,-0.08230212-0.4520604i,-0.3045154-0.2844985i,-0.3776-0.05442684i,-0.3242367+0.1509289i,-0.1892898+0.292263i,-0.004787943+0.3540481i,0.2006136+0.3149811i,0.3718314+0.1544777i,0.4244392-0.1066472i,0.2907413-0.3754419i,-0.01381019-0.5113279i,-0.3630007-0.407193i,-0.57036-0.07496708i,-0.49864+0.3330861i,-0.1572999+0.5975168i,0.2848244+0.5612729i,0.5902468+0.231454i,0.5929056-0.2179534i,0.2964674-0.5477074i,-0.1329487-0.5932309i,-0.5639887+0.03126175i,-0.3991005+0.363694i,-0.0843495+0.5089153i,0.2313964+0.4379806i,0.4333713+0.2095051i,0.4692946-0.08206985i,0.3380644-0.3436342i,0.07483546-0.4926318i,-0.2459612-0.4623228i,-0.5062923-0.2293062i,-0.573627+0.1456292i,-0.3719664+0.5072476i,0.04620211+0.6633742i,0.4915651+0.495255i,0.7242236+0.05075878i,0.5943074-0.455258i,0.1454426-0.7512607i,-0.39538-0.6673223i,-0.7428347-0.2390438i,-0.7153205+0.3110934i,-0.3327197+0.7008497i,0.2044217+0.7413593i,0.630424+0.4265322i,0.7494041-0.08047009i,0.5186669-0.5389832i,0.05297547-0.7431463i},
		{-0.5801795+0.3645961i,-0.2199816+0.7557117i,0.3887572+0.7949804i,0.910125+0.3536572i,0.9844337-0.3919371i,0.4831652-1.02484i,-0.3656854-1.138606i,-1.088953-0.6095111i,-1.253566+0.3023364i,-0.7364098+1.097422i,0.1978235+1.331091i,1.052097+0.8677129i,1.376868-0.05374409i,1.00475-0.9610593i,0.1220069-1.397794i,-0.8364672-1.144476i,-1.399248-0.3162792i,-1.279044+0.6915855i,-0.5131034+1.383202i,0.5378791+1.396985i,1.34776+0.6968091i,1.485636-0.383035i,0.8549114-1.288217i,-0.2304347-1.534076i,-1.19925-0.9799501i,-1.535666+0.08011921i,-0.06919931+1.489445i,0.9234685+1.126661i,1.400019+0.217847i,1.154723-0.7427536i,0.363441-1.276069i,-0.5451653-1.15813i,-1.128043-0.5002869i,-1.13919+0.3431294i,-0.6201085+0.9658035i,0.1492578+1.09787i,0.7970016+0.7138331i,1.03251+0.02589323i,0.7738022-0.6266104i,0.17522-0.9414437i,-0.4576578-0.7956432i,-0.8248758-0.2952461i,-0.7791725+0.292751i,-0.3851384+0.686264i,0.1357177+0.728042i,0.5326554+0.4450275i,0.6482852+0.007347737i,0.4743389-0.373783i,0.1281278-0.5463034i,-0.2201761-0.4708253i,-0.4270286-0.2173089i,-0.4307327+0.08090016i},
		{0.08469323-0.3612908i,-0.1466816-0.3299092i,-0.3081591-0.1725244i,-0.3450066+0.04360519i,-0.2510005+0.2369457i,-0.06447011+0.3398677i,0.1483556+0.3177131i,0.3142964+0.1755415i,0.3719077-0.0444537i,0.2874084-0.2703788i,0.0706417-0.4139895i,-0.2122964-0.3968256i,-0.4446272-0.1905859i,-0.4989297+0.1455199i,-0.3073267+0.4637948i,0.07560554+0.58725i,0.470129+0.4122568i,0.6544176-0.006961239i,0.4977177-0.4608792i,0.05802749-0.6934511i,-0.432529-0.5584373i,-0.6992798-0.1192286i,-0.5924777+0.3819373i,-0.1782662+0.6700596i,0.3076613+0.6013967i,0.6078697+0.2374392i,0.2983866-0.5185434i,-0.09669894-0.5627671i,-0.4106331-0.3609192i,-0.5266388-0.02780726i,-0.4223981+0.2937697i,-0.1530413+0.4851475i,0.1768505+0.4778813i,0.4398072+0.2692953i,0.5210299-0.06655121i,0.3682661-0.3896969i,0.03344831-0.5455267i,-0.3323038-0.4443716i,-0.5465984-0.1223488i,-0.4953611+0.2648964i,-0.2013255+0.5221927i,0.1859761+0.5220873i,0.4734702+0.2721669i,0.527566-0.0963406i,0.3359198-0.4044874i,0.0005670724-0.5156546i,-0.3212019-0.3919778i,-0.4897878-0.09911246i,-0.4378837+0.2301393i,-0.192548+0.4521576i,0.1371488+0.4698665i,0.4035595+0.2743478i},
		{0.01975978+1.903233i,1.233594+1.469136i,1.900663+0.3531168i,1.704551-0.9433036i,0.7203116-1.82675i,-0.6133819-1.882452i,-1.687514-1.067536i,-1.997391+0.2595447i,-1.379297+1.491062i,-0.1009986+2.044271i,1.246054+1.63988i,2.0183+0.4514911i,1.834999-0.9605539i,0.7774985-1.915753i,-0.6416637-1.953735i,-1.735355-1.068174i,-1.990211+0.2960527i,-1.316569+1.479884i,-0.06884304+1.944509i,1.157423+1.518951i,1.822519+0.4434199i,1.673399-0.7817686i,0.814889-1.634733i,-0.3717252-1.778206i,-1.394296-1.16713i,-1.830655-0.05068074i,-0.4626877+1.826642i,0.8087921+1.739529i,1.761303+0.8434201i,1.92394-0.4862581i,1.176026-1.630516i,-0.1552348-2.022604i,-1.43281-1.448857i,-2.02957-0.1775538i,-1.655507+1.17112i,-0.5052577+1.945884i,0.8538117+1.793834i,1.779014+0.8195956i,1.864406-0.4946299i,1.110134-1.541234i,-0.1115279-1.868906i,-1.247484-1.364468i,-1.809053-0.2753537i,-1.569322+0.913266i,-0.6460413+1.686327i,0.5531425+1.712301i,1.502538+0.9828367i,1.783783-0.1800989i,1.2717-1.260951i,0.1942387-1.778443i,-0.9674791-1.502687i,-1.695967-0.5588495i},
		{-0.6369274+0.8428462i,0.06346904+1.042422i,0.7121177+0.7445555i,1.01021+0.1126605i,0.8403766-0.5512459i,0.2967792-0.952426i,-0.3735275-0.9221755i,-0.8759208-0.4761549i,-0.9839244+0.1925767i,-0.6364673+0.7842492i,0.01941722+1.016897i,0.6771972+0.7648878i,1.012089+0.1394314i,0.8528802-0.5519369i,0.2822804-0.9631561i,-0.405398-0.8978286i,-0.8688861-0.4109544i,-0.9029794+0.2370094i,-0.528335+0.7343536i,0.05082908+0.875742i,0.5703339+0.6356497i,0.8249279+0.143733i,0.7304844-0.3911161i,0.3329304-0.7578579i,-0.2113795-0.8062456i,-0.6782966-0.5011902i,-0.6343732+0.5858882i,-0.1065438+0.8615506i,0.4772587+0.7227839i,0.8233705+0.2356927i,0.7630044-0.3483846i,0.3465789-0.7363627i,-0.1973997-0.758002i,-0.6046124-0.4431028i,-0.7155178+0.02685751i,-0.5280346+0.4382582i,-0.1553575+0.6452975i,0.2514083+0.6008397i,0.5560924+0.3368345i,0.6568886-0.05905952i,0.5029501-0.453411i,0.1260171-0.6883414i,-0.3387353-0.6399838i,-0.6864221-0.2954629i,-0.7380601+0.2104069i,-0.4459525+0.6443243i,0.06581458+0.7929961i,0.5597657+0.5781399i,0.8065013+0.09592914i,0.6943834-0.436324i,0.2717981-0.7847211i,-0.2830888-0.7961091i},
		{-1.142523-0.5325325i,-1.207024+0.3502397i,-0.6737382+1.048917i,0.1769946+1.217901i,0.9141778+0.7925742i,1.185577+0.006943908i,0.8878794-0.745264i,0.1945955-1.115372i,-0.5523931-0.9581685i,-1.01391-0.3764428i,-1.000664+0.3477665i,-0.5410993+0.8875124i,0.1437288+1.011017i,0.7409317+0.6767962i,0.9839201+0.04913952i,0.7733419-0.5768646i,0.2234525-0.9145036i,-0.3964021-0.8240177i,-0.8001354-0.375556i,-0.8268583+0.2002843i,-0.5050312+0.6420606i,-0.009460599+0.7849239i,0.4463438+0.6133404i,0.7054604+0.2280526i,0.70206-0.223756i,0.4471974-0.5981748i,-0.4731054-0.6553448i,-0.818643-0.2435668i,-0.8389812+0.3386872i,-0.4578434+0.8394693i,0.2005361+0.9846514i,0.8277307+0.6425058i,1.081186-0.06124758i,0.7900425-0.7777978i,0.07880869-1.121539i,-0.6862995-0.8973899i,-1.10377-0.2200262i,-0.9651131+0.5535782i,-0.3619493+1.030946i,0.3842988+0.9959276i,0.9100732+0.5020596i,0.993091-0.1870438i,0.6353564-0.7504411i,0.02696012-0.9591905i,-0.5618995-0.7548532i,-0.8956785-0.2455828i,-0.8528042+0.3535699i,-0.4574746+0.8032283i,0.1332982+0.9222395i,0.6826885+0.6532331i,0.9583061+0.09212893i,0.8257972-0.5362095i},
		{0.5849341+1.05182i,1.15479+0.4295678i,1.18332-0.4279853i,0.642503-1.112077i,-0.2266992-1.291986i,-1.025587-0.86473i,-1.373929-0.005091459i,-1.082677+0.9013973i,-0.2540821+1.422856i,0.7433884+1.282953i,1.432259+0.5094659i,1.455016-0.5541598i,0.7633725-1.398045i,-0.3370155-1.592665i,-1.320575-1.009816i,-1.693914+0.09810246i,-1.242755+1.205324i,-0.1522826+1.759418i,1.061847+1.454209i,1.790148+0.3999069i,1.633358-0.9013724i,0.6284724-1.785288i,-0.7338386-1.767191i,-1.741261-0.8226635i,-1.842712+0.5654358i,-0.9714212+1.652396i,1.51314+1.070344i,1.785754-0.2276201i,1.122342-1.321143i,-0.05155065-1.654335i,-1.080156-1.136206i,-1.468668-0.1328409i,-1.123452+0.8016592i,-0.3227712+1.247658i,0.5044651+1.094372i,1.012477+0.508802i,1.054556-0.2121787i,0.6752948-0.7821574i,0.05092775-1.00301i,-0.5698307-0.803055i,-0.9325508-0.2645144i,-0.8735015+0.3807608i,-0.4159425+0.8324087i,0.2127237+0.8731741i,0.6922728+0.5021263i,0.7972461-0.0585967i,0.5289486-0.5065323i,0.08968648-0.6509875i,-0.2773931-0.5084701i,-0.4487466-0.2370724i,-0.4548224+0.01589348i,-0.3824953+0.2107696i},
		{0.8858456-0.9488695i,0.1012868-1.290163i,-0.7234526-1.078689i,-1.250657-0.4031401i,-1.255071+0.4702681i,-0.7042687+1.182972i,0.2059622+1.406294i,1.091461+0.9860928i,1.521254+0.05425375i,1.23063-0.9775504i,0.2985049-1.58817i,-0.8401939-1.422975i,-1.596856-0.5191416i,-1.553159+0.6773047i,-0.7124618+1.540953i,0.4877215+1.616981i,1.41951+0.877467i,1.61567-0.2730807i,1.014137-1.237519i,-0.0390102-1.554623i,-1.005288-1.121824i,-1.441658-0.2047297i,-1.1983+0.7368954i,-0.4452034+1.285341i,0.44815+1.239731i,1.093845+0.6680719i,0.8596689-0.8745449i,0.1297518-1.199769i,-0.6343083-1.008814i,-1.112603-0.3934566i,-1.107926+0.3801795i,-0.6272618+0.9812759i,0.1200459+1.153254i,0.8103519+0.8237799i,1.144352+0.1370752i,0.9768927-0.6071618i,0.3813291-1.083127i,-0.3806933-1.081465i,-0.9729259-0.6028581i,-1.133529+0.1403323i,-0.7929245+0.818002i,-0.1051139+1.130905i,0.6235484+0.944944i,1.074001+0.3478123i,1.055065-0.3961844i,0.5806549-0.9664223i,-0.1445872-1.122076i,-0.8150534-0.7965612i,-1.146656-0.1201469i,-0.9877163+0.6294132i,-0.3847596+1.13023i,0.4203619+1.14518i},
		{0.466668-0.382194i,0.0855817-0.623918i,-0.3739067-0.5302961i,-0.6464272-0.135207i,-0.5692319+0.3431783i,-0.184781+0.6358724i,0.2890483+0.5862833i,0.5949414+0.2360597i,0.5846107-0.2136102i,0.2888173-0.5280257i,-0.1209916-0.5668094i,-0.4399914-0.3413138i,-0.5347649+0.01611117i,-0.3912693+0.3355199i,-0.09627569+0.4901782i,0.219152+0.4368546i,0.4353879+0.2119095i,0.4772371-0.09585809i,0.3266885-0.3740076i,0.02827297-0.5124298i,-0.3109698-0.4359138i,-0.5424889-0.1457034i,-0.5335665+0.2518118i,-0.2478266+0.5663972i,0.2013496+0.6120974i,0.5811415+0.3261441i,0.3739949-0.5814785i,-0.1334994-0.6784836i,-0.5606794-0.3883294i,-0.6530286+0.1109918i,-0.3709058+0.5122069i,0.08764096+0.5857289i,0.4319191+0.3283943i,0.4812684-0.05574935i,0.2711757-0.3201387i,-0.009428455-0.3499069i,-0.1828774-0.2110266i,-0.2060044-0.05309558i,-0.1582674+0.03169666i,-0.1281199+0.06538682i,-0.1179291+0.119171i,-0.05780353+0.2065576i,0.09440029+0.2494243i,0.275575+0.1539283i,0.3483969-0.0789698i,0.2195652-0.3213972i,-0.06378253-0.4055226i,-0.3325391-0.2576366i,-0.4182512+0.03832436i,-0.2759413+0.302582i,-0.006242874+0.3908939i,0.2317423+0.2845328i},
		{0.1119524-0.4327474i,-0.2114718-0.4340323i,-0.4780434-0.2013882i,-0.5231985+0.1794702i,-0.2815849+0.5121096i,0.1460612+0.5935156i,0.5286013+0.3471214i,0.6377425-0.1093837i,0.3959142-0.5214455i,-0.06599254-0.6518918i,-0.4866215-0.4291387i,-0.6359975+0.01240595i,-0.4502578+0.4235257i,-0.05327333+0.593888i,0.335499+0.4634906i,0.5320531+0.1301898i,0.4722228-0.2293467i,0.2143989-0.4579661i,-0.1139932-0.47786i,-0.3783726-0.2994719i,-0.4794652-0.001322192i,-0.3778477+0.2980468i,-0.1087745+0.4742554i,0.2193442+0.4425018i,0.4587492+0.2031133i,0.488413-0.1426091i,-0.06721763-0.5133908i,-0.3875013-0.3452457i,-0.5180511-0.007163262i,-0.3940539+0.3321961i,-0.07956974+0.5050163i,0.2677551+0.4293495i,0.4776729+0.1473478i,0.4510461-0.1989177i,0.2065022-0.4389482i,-0.1304233-0.4577534i,-0.3905413-0.2526478i,-0.447269+0.06590892i,-0.2822076+0.3328607i,0.007307929+0.4176113i,0.2656589+0.2934153i,0.3681851+0.04505202i,0.2867518-0.1890923i,0.09171164-0.3006261i,-0.1047813-0.2646503i,-0.218977-0.1329992i,-0.2305704+0.01643148i,-0.1680346+0.129088i,-0.07027177+0.1877717i,0.03740759+0.194229i,0.1382376+0.1485335i,0.2075247+0.05044498i},
		{-0.644351+0.1216523i,-0.448941+0.4996972i,-0.04579993+0.6895929i,0.4078982+0.5815331i,0.6999232+0.1946729i,0.6724929-0.3028703i,0.3229445-0.6684187i,-0.1811976-0.7181544i,-0.5924094-0.4319657i,-0.7202372+0.04111727i,-0.5248272+0.4746623i,-0.1157036+0.6849455i,0.3233823+0.6043586i,0.6211461+0.2832382i,0.6713918-0.1509833i,0.451351-0.5381495i,0.02806126-0.7238229i,-0.4437126-0.6072111i,-0.7567545-0.19973i,-0.7375026+0.342792i,-0.3526756+0.7636558i,0.2373189+0.8308326i,0.7381657+0.4796173i,0.8796899-0.1269521i,0.577625-0.6759751i,-0.01047426-0.8814616i,-0.8383149-0.1126738i,-0.6915967+0.4420704i,-0.2412213+0.7560937i,0.280201+0.7136462i,0.6426601+0.3716063i,0.7160492-0.09971081i,0.4983128-0.5062301i,0.08945371-0.7000409i,-0.3541942-0.6148275i,-0.6657692-0.277869i,-0.7148439+0.1926903i,-0.457489+0.6130896i,0.02690314+0.7932895i,0.5425342+0.6218112i,0.8468454+0.138197i,0.7654594-0.4560218i,0.2971127-0.873841i,-0.3569974-0.8835006i,-0.8736528-0.4434849i,-0.9709078+0.2499317i,-0.5704026+0.8459349i,0.1393726+1.022511i,0.7900758+0.6713235i,1.033588-0.0289334i,0.7413172-0.7051976i,0.07935587-1.000964i},
		{-0.7900413+0.5010379i,-0.3187015+0.9438682i,0.3751146+0.9876416i,0.9715598+0.5461973i,1.148156-0.2195236i,0.7633528-0.9496582i,-0.03772532-1.261639i,-0.8741951-0.9622315i,-1.321649-0.1679246i,-1.138354+0.7438315i,-0.3949442+1.326625i,0.5615733+1.290228i,1.280183+0.6390188i,1.41791-0.3357319i,0.8924904-1.190156i,-0.07967295-1.521117i,-1.066639-1.143696i,-1.597591-0.1897322i,-1.377558+0.9196105i,-0.4546231+1.642334i,0.7568595+1.577425i,1.648086+0.6989839i,1.727751-0.5828442i,0.9110227-1.60696i,-0.398827-1.816908i,-1.512815-1.08445i,-1.218327+1.363642i,-0.001346978+1.796489i,1.163233+1.315596i,1.696089+0.2158139i,1.380771-0.9215743i,0.433248-1.55028i,-0.6538018-1.417551i,-1.372844-0.6435049i,-1.42708+0.3779433i,-0.8332683+1.176502i,0.1120607+1.407405i,0.970973+0.9881776i,1.354263+0.1284488i,1.095448-0.7622831i,0.3326883-1.262903i,-0.5534058-1.146238i,-1.130332-0.4948147i,-1.137102+0.3458758i,-0.6133034+0.9572204i,0.1417335+1.070156i,0.7488631+0.6893139i,0.9520164+0.05492688i,0.724807-0.5148821i,0.2373599-0.7919289i,-0.2678071-0.7210963i,-0.5997578-0.3967255i},
		{0.1249871-0.8395218i,-0.4888262-0.7231686i,-0.8658668-0.2070594i,-0.7886407+0.4363022i,-0.2919851+0.8581546i,0.3582863+0.8328255i,0.8189766+0.379699i,0.8578617-0.257966i,0.4686721-0.7530749i,-0.1409055-0.8659517i,-0.6664515-0.5556716i,-0.8586721+0.01439873i,-0.635942+0.5654234i,-0.1134311+0.8366138i,0.4558315+0.7037646i,0.799416+0.2345919i,0.7532646-0.3425494i,0.3420549-0.7461559i,-0.2293461-0.7792827i,-0.6759562-0.4303271i,-0.7781316+0.1190506i,-0.4957137+0.5886315i,0.01389119+0.7480985i,0.4851942+0.5363048i,0.689635+0.08414786i,0.5517798-0.3681011i,-0.2412082-0.5431389i,-0.4992128-0.2508648i,-0.5124484+0.1094905i,-0.3154659+0.3771031i,-0.02136192+0.4626341i,0.2454146+0.3650456i,0.3973005+0.1453526i,0.398086-0.1111401i,0.2565134-0.3205268i,0.01859646-0.4134278i,-0.2365891-0.3491519i,-0.4101989-0.1369216i,-0.4180592+0.1495998i,-0.2376398+0.3876913i,0.06310847+0.4587516i,0.3452872+0.3157075i,0.4678024+0.02024765i,0.3677032-0.2825298i,0.09893312-0.4432674i,-0.1993875-0.392199i,-0.3851337-0.172461i,-0.3899221+0.09668413i,-0.2410689+0.2956728i,-0.02340845+0.3636185i,0.1795585+0.3051766i,0.3175922+0.1569704i},
		{-0.07634011-1.309389i,-0.8490597-0.9780501i,-1.262694-0.2565741i,-1.15931+0.5685811i,-0.5726784+1.169489i,0.2731155+1.290937i,1.031428+0.8572184i,1.364771+0.02660153i,1.098468-0.8507717i,0.3214159-1.375878i,-0.6314905-1.288243i,-1.323327-0.603071i,-1.421564+0.3801278i,-0.8633175+1.210139i,0.106043+1.495749i,1.042458+1.093284i,1.50939+0.1791099i,1.283457-0.8282969i,0.4625502-1.461677i,-0.5763024-1.42439i,-1.352378-0.7318411i,-1.507976+0.2949685i,-0.9762244+1.182514i,-0.007481907+1.528901i,0.9554821+1.187431i,1.485809+0.3225836i,0.640781-1.381777i,-0.3616368-1.489564i,-1.223896-0.9506883i,-1.574161+0.02077522i,-1.238892+1.022062i,-0.3267773+1.611039i,0.7872962+1.490567i,1.597306+0.6626444i,1.690907-0.5301139i,0.9699458-1.529938i,-0.2594143-1.827091i,-1.406728-1.235254i,-1.890292-0.01778808i,-1.449754+1.227698i,-0.2957607+1.877176i,0.9965352+1.60932i,1.790451+0.5688517i,1.713571-0.7215103i,0.8301794-1.638286i,-0.4155116-1.764266i,-1.432734-1.070757i,-1.76359+0.09502735i,-1.279461+1.187589i,-0.2217438+1.712925i,0.9162666+1.443985i,1.612489+0.5172112i},
		{1.15532+0.3600646i,1.11483-0.5082289i,0.4951606-1.131843i,-0.3889747-1.17806i,-1.076549-0.6165479i,-1.207467+0.2597667i,-0.7180014+0.9910268i,0.1256286+1.199871i,0.8763345+0.7945336i,1.153263+0.01005126i,0.8437809-0.7336247i,0.1455765-1.068299i,-0.5654439-0.8666815i,-0.949446-0.2800414i,-0.8671054+0.3771701i,-0.4118011+0.805235i,0.1779329+0.8504726i,0.6473346+0.5369179i,0.8217764+0.01951399i,0.6482533-0.4885831i,0.2001642-0.7836713i,-0.3404787-0.7356973i,-0.7353156-0.3491511i,-0.7876634+0.2108621i,-0.454563+0.6724428i,0.1025151+0.7935494i,0.7465071-0.01315459i,0.5153219-0.4783101i,0.06311385-0.6457047i,-0.3381797-0.4775613i,-0.4973607-0.1332722i,-0.4079645+0.1706187i,-0.2025324+0.3141537i,-0.01603151+0.3196666i,0.1130805+0.2720103i,0.2243854+0.2080298i,0.3376575+0.08770932i,0.3884244-0.1298404i,0.2722636-0.3908042i,-0.03849956-0.5401852i,-0.4201784-0.4294712i,-0.649438-0.05203423i,-0.5543227+0.4148161i,-0.1471848+0.7079283i,0.3670087+0.6475337i,0.7140846+0.252736i,0.7137701-0.2744407i,0.3721873-0.6724786i,-0.1409343-0.7591169i,-0.5919633-0.5049376i,-0.7886159-0.02433376i,-0.6458029+0.4831397i},
		{0.4157632-0.7813073i,-0.2227511-0.8277072i,-0.6974546-0.4377942i,-0.7722855+0.1413661i,-0.4529894+0.5894302i,0.04951682+0.6979707i,0.464442+0.4628035i,0.6109153+0.04783648i,0.4674524-0.3307703i,0.1444238-0.5168433i,-0.1968888-0.4660076i,-0.4206291-0.2334127i,-0.4567357+0.07071569i,-0.3081674+0.3261314i,-0.04093747+0.4375648i,0.2362176+0.3629074i,0.4065585+0.132718i,0.3932076-0.1528875i,0.2009247-0.3623067i,-0.07741482-0.3963282i,-0.3041998-0.2435949i,-0.3714023+0.0104654i,-0.2605195+0.2325939i,-0.04780041+0.3195122i,0.14891+0.2531856i,0.243672+0.09759518i,0.139289-0.1487039i,0.04327108-0.1790147i,-0.04096647-0.1730897i,-0.1213129-0.1430831i,-0.1986593-0.07211118i,-0.2377401+0.05643693i,-0.182705+0.2147692i,-0.0113982+0.3205502i,0.219138+0.2834378i,0.3847305+0.07933518i,0.3682698-0.2085775i,0.1462459-0.4242419i,-0.1795023-0.4332664i,-0.4347188-0.2127005i,-0.4770586+0.1287504i,-0.2804945+0.4142956i,0.0545488+0.5008587i,0.3641187+0.3518125i,0.5079903+0.04260973i,0.4282176-0.28838i,0.1594213-0.5030107i,-0.1938153-0.5097146i,-0.4906116-0.2897321i,-0.5941323+0.08874065i,-0.4250635+0.474547i,-0.01818427+0.676998i},
		{0.3225893+0.1442546i,0.3525871-0.1355145i,0.1515944-0.3685225i,-0.1782941-0.3742224i,-0.4096301-0.114906i,-0.3573309+0.2416276i,-0.04089301+0.430879i,0.3086156+0.3003631i,0.4221712-0.05607511i,0.2108243-0.3627156i,-0.1574229-0.3813254i,-0.3920849-0.1037097i,-0.3148678+0.244961i,0.002114512+0.3925691i,0.3052977+0.2363819i,0.3684802-0.08855012i,0.1629077-0.3328145i,-0.1425873-0.3309838i,-0.3303978-0.1104718i,-0.294644+0.1590813i,-0.09007293+0.3078133i,0.1412571+0.2732185i,0.2783276+0.105268i,0.2759806-0.09892975i,0.1519676-0.2546816i,-0.04512405-0.3056194i,-0.3582163-0.007769343i,-0.2980416+0.2542433i,-0.0510981+0.4251108i,0.277712+0.3737376i,0.4958811+0.0814378i,0.4396599-0.3095081i,0.1001881-0.5613688i,-0.3419836-0.4926234i,-0.6157532-0.1116491i,-0.5332895+0.3690367i,-0.120439+0.6570889i,0.3877061+0.5641916i,0.6863075+0.1292742i,0.5874087-0.3982556i,0.1379341-0.7052397i,-0.4028594-0.6028515i,-0.7145512-0.1437415i,-0.6078527+0.4035258i,-0.1433038+0.7124889i,0.4001791+0.5982351i,0.6950141+0.1347665i,0.5704511-0.3897567i,0.1196221-0.6573534i,-0.3668027-0.5239518i,-0.5964438-0.1032531i,-0.4628091+0.3254643i},
		{0.9095028-0.4392984i,0.4239545-0.8930721i,-0.2236327-0.9418827i,-0.747304-0.5833613i,-0.9281532+0.009368094i,-0.7063052+0.5714461i,-0.197663+0.867114i,0.3693311+0.7893629i,0.7606887+0.3928935i,0.832138-0.1464886i,0.5722921-0.6142027i,0.08928826-0.8366293i,-0.4359968-0.7314863i,-0.8061468-0.3278734i,-0.8650958+0.2364155i,-0.5573771+0.744121i,0.02640907+0.9665791i,0.6531907+0.7652976i,1.028738+0.1838876i,0.9400112-0.5348741i,0.3862216-1.044808i,-0.3899344-1.072239i,-1.009875-0.5746671i,-1.156124+0.2193239i,-0.7453782+0.9222098i,0.02538728+1.189655i,1.174365+0.1870918i,1.02363-0.6022183i,0.410386-1.114439i,-0.3864758-1.125991i,-1.015518-0.6340819i,-1.199001+0.1491905i,-0.8460878+0.8835852i,-0.09675334+1.238035i,0.7242206+1.034147i,1.238536+0.3393389i,1.187463-0.5424168i,0.5684283-1.19715i,-0.3429093-1.298014i,-1.112827-0.7761278i,-1.361256+0.1308162i,-0.9565455+0.9875398i,-0.08772385+1.376102i,0.8264027+1.105176i,1.344285+0.3052199i,1.218241-0.6371488i,0.51299-1.269413i,-0.4291381-1.292296i,-1.156043-0.7018267i,-1.324279+0.2121886i,-0.8629935+1.00908i,-0.004433975+1.312i},
		{-0.6749672-1.19712i,-1.314697-0.4365314i,-1.272281+0.5613114i,-0.5676782+1.269685i,0.426764+1.319337i,1.192247+0.6927936i,1.340237-0.2765106i,0.8086895-1.088469i,-0.1182621-1.33685i,-0.9654474-0.9103488i,-1.310117-0.03891275i,-0.9915351+0.8299575i,-0.1860459+1.259925i,0.6876187+1.045983i,1.185696+0.3155707i,1.068774-0.5427516i,0.4221-1.087459i,-0.3988818-1.057465i,-0.9669628-0.5025119i,-1.012593+0.2596002i,-0.5554232+0.828401i,0.1293615+0.9374434i,0.6784289+0.5803378i,0.8371626-0.0138326i,0.5768564-0.5254083i,0.08043303-0.7175549i,-0.5839768-0.1469613i,-0.4818785+0.2440804i,-0.1806853+0.4407023i,0.1287635+0.3894948i,0.2909593+0.1792007i,0.2686776-0.03472284i,0.1435103-0.1375814i,0.0378567-0.1234863i,0.01600767-0.07796697i,0.03913889-0.09015101i,0.0106195-0.1649021i,-0.1233359-0.2097668i,-0.3023231-0.1144752i,-0.3776099+0.137409i,-0.2265144+0.4199804i,0.1306317+0.5321456i,0.5091783+0.3416499i,0.6647918-0.09982049i,0.4573651-0.5623937i,-0.04142617-0.7701588i,-0.5748679-0.5733804i,-0.8465118-0.04693433i,-0.6905418+0.5457221i,-0.1649936+0.8953161i,0.4782344+0.8093079i,0.9200163+0.3088979i},
		{0.08540858-0.6289167i,-0.3162414-0.5435919i,-0.5830344-0.2330956i,-0.6047426+0.1790285i,-0.3632085+0.521528i,0.0469599+0.6387032i,0.4438512+0.465654i,0.6380408+0.07490793i,0.5334026-0.3474639i,0.1853033-0.5972553i,-0.2294381-0.5642065i,-0.5150216-0.2861491i,-0.5611025+0.08868487i,-0.3808116+0.3956231i,-0.07197833+0.5314597i,0.2489945+0.4717645i,0.484802+0.2447045i,0.558466-0.08921015i,0.4169528-0.4300443i,0.06824471-0.6362114i,-0.3729916-0.5733401i,-0.6964238-0.2096798i,-0.6985676+0.3148845i,-0.3259603+0.7283851i,0.2524586+0.7806163i,0.721939+0.4140145i,0.4766524-0.6703728i,-0.08949646-0.7973265i,-0.5726071-0.5207773i,-0.7398648-0.0216705i,-0.5545636+0.4340248i,-0.1534595+0.6522713i,0.2656817+0.5844826i,0.5471705+0.2999099i,0.6130885-0.08213145i,0.4503935-0.4354616i,0.1014926-0.6382117i,-0.324216-0.5917174i,-0.6537474-0.2722889i,-0.7109139+0.2160019i,-0.4215112+0.6517186i,0.1097133+0.7978743i,0.6249016+0.5451312i,0.8470648-0.002507559i,0.6430173-0.569157i,0.1078799-0.8578917i,-0.4847459-0.7171483i,-0.8337367-0.2212537i,-0.769569+0.3762816i,-0.3341306+0.7801175i,0.2514342+0.8008339i,0.702687+0.4401992i},
		{0.1081048+0.2168711i,0.2376105+0.07123295i,0.2173384-0.1296071i,0.04960192-0.2521989i,-0.1577563-0.2064701i,-0.2608198-0.01728189i,-0.1842881+0.185728i,0.01948205+0.2598454i,0.2069023+0.1544286i,0.2489009-0.05291778i,0.1233899-0.2168142i,-0.07584319-0.2311673i,-0.2144861-0.09881225i,-0.2125437+0.08369729i,-0.0872976+0.2027104i,0.07585126+0.199906i,0.1871816+0.09244688i,0.199006-0.05578157i,0.1137387-0.1747466i,-0.03004081-0.212677i,-0.171321-0.1466148i,-0.2399169+0.006340481i,-0.1837549+0.1801238i,-0.008662405+0.2761376i,0.2007712+0.2171452i,0.3144892+0.0111954i,0.001270539-0.3478245i,-0.2603292-0.2499081i,-0.370673+0.01758652i,-0.2465409+0.2869995i,0.0396403+0.3806079i,0.3046547+0.2340441i,0.3786047-0.05882083i,0.2180723-0.3111339i,-0.07054467-0.3683328i,-0.3072502-0.2041592i,-0.3546678+0.07290283i,-0.1960147+0.2961097i,0.06687284+0.3419559i,0.281745+0.1945807i,0.3326218-0.05555464i,0.1981083-0.2675737i,-0.04276094-0.3265725i,-0.2552312-0.2031645i,-0.3215652+0.03150029i,-0.2061601+0.2441826i,0.02290816+0.314371i,0.2322327+0.2048302i,0.3022914-0.01600375i,0.1991293-0.2167292i,-0.008343262-0.2844682i,-0.1960005-0.1912234i},
		{-0.4681455+0.5569963i,0.0117367+0.7641743i,0.5314966+0.5935462i,0.8189797+0.1040066i,0.7094425-0.4711441i,0.2370221-0.8434355i,-0.3793294-0.8163376i,-0.8415426-0.3836945i,-0.9138807+0.2632259i,-0.5369996+0.8184804i,0.1324864+0.9995783i,0.7787595+0.6870557i,1.068347+0.002717997i,0.8226484-0.7248077i,0.1337318-1.113128i,-0.656467-0.9333152i,-1.126433-0.2548987i,-1.011378+0.5715771i,-0.3640509+1.102352i,0.4674578+1.053314i,1.038417+0.4618804i,1.060064-0.3427916i,0.550439-0.9367074i,-0.1992649-1.036194i,-0.8038381-0.6312981i,-0.9882305+0.04239763i,-0.1187521+0.9226894i,0.4861305+0.7653729i,0.8444561+0.2729522i,0.809837-0.3235758i,0.4088329-0.7559917i,-0.1705758-0.8307853i,-0.6575767-0.5169868i,-0.8224063+0.0323371i,-0.591518+0.548438i,-0.08892053+0.7814667i,0.4283186+0.6306162i,0.7084446+0.1928699i,0.636058-0.2989107i,0.2795763-0.6076678i,-0.1646329-0.6118792i,-0.4864353-0.348164i,-0.5627186+0.03246213i,-0.3961417+0.3534258i,-0.08914433+0.492408i,0.2169179+0.4196309i,0.4032752+0.1918932i,0.414415-0.08338869i,0.2693346-0.2963519i,0.04309147-0.3774375i,-0.1723544-0.3180333i,-0.3082064-0.1605317i},
		{0.464318-0.4922642i,0.07153042-0.7357851i,-0.4411303-0.6773722i,-0.8413513-0.2648683i,-0.883508+0.3701408i,-0.459521+0.9252946i,0.2856954+1.067231i,0.9792108+0.6407923i,1.212181-0.1899893i,0.7978141-0.9920381i,-0.080711-1.30458i,-0.952926-0.9255358i,-1.336388-0.04744647i,-1.02496+0.8547069i,-0.1999037+1.307177i,0.6968781+1.101545i,1.224128+0.3788723i,1.162293-0.487103i,0.5807139-1.100115i,-0.2406653-1.212488i,-0.9504363-0.7949211i,-1.253157-0.02206416i,-1.005167+0.7891903i,-0.279475+1.280117i,0.6263638+1.192206i,1.28493+0.5127924i,0.7092245-1.257472i,-0.3091632-1.428691i,-1.189308-0.8633255i,-1.458932+0.1512477i,-0.9762869+1.076777i,-0.01020759+1.430813i,0.9228122+1.053525i,1.353296+0.1751869i,1.101453-0.7369313i,0.339114-1.239087i,-0.5334144-1.124542i,-1.101147-0.4929342i,-1.123624+0.328274i,-0.6248328+0.9497548i,0.1359785+1.095929i,0.7910172+0.7229954i,1.036721+0.03306553i,0.7784762-0.6271285i,0.173557-0.941874i,-0.4581292-0.78723i,-0.8103993-0.2846688i,-0.7506652+0.2843835i,-0.3681138+0.6460053i,0.1087958+0.6746019i,0.4571205+0.4257049i,0.5670668+0.06209556i},
		{-0.8165898-0.1034621i,-0.7410752+0.4630455i,-0.286717+0.8783978i,0.3698985+0.897429i,0.9034716+0.454996i,1.012459-0.259529i,0.6052268-0.8833144i,-0.1280599-1.08072i,-0.8136583-0.7378928i,-1.102181-0.02682346i,-0.8552305+0.6955888i,-0.204084+1.081186i,0.5354574+0.9591973i,1.024636+0.3984711i,1.049862-0.3436843i,0.6008102-0.9399981i,-0.1328739-1.124704i,-0.833775-0.7993133i,-1.178987-0.08417813i,-0.981479+0.7108124i,-0.2960329+1.207012i,0.5745446+1.136007i,1.203773+0.4933751i,1.254197-0.427907i,0.6689669-1.166424i,-0.2744325-1.330526i,-1.362398+0.1190086i,-0.9326538+0.9927489i,-0.03206667+1.349368i,0.8644082+1.011179i,1.292262+0.1717987i,1.048627-0.7158132i,0.2937291-1.192659i,-0.5523562-1.042341i,-1.052946-0.3932239i,-0.9920642+0.3785356i,-0.4683099+0.8769374i,0.1981904+0.9008245i,0.6707463+0.5197079i,0.7752311-0.01538285i,0.549993-0.443458i,0.1644687-0.624911i,-0.2071695-0.562134i,-0.461106-0.333735i,-0.5579016-0.02385369i,-0.4824668+0.2947427i,-0.2348568+0.5367143i,0.1345015+0.5992641i,0.4953754+0.4127567i,0.6730247+0.0145462i,0.548226-0.4288854i,0.1512954-0.6951534i},
		{-0.1857841+0.05498559i,-0.1020546+0.1955684i,0.07931452+0.2343552i,0.2482268+0.1150801i,0.2775328-0.1101376i,0.1195522-0.2987616i,-0.1432805-0.3112947i,-0.3414806-0.1163871i,-0.3330295+0.1737052i,-0.1080601+0.3714433i,0.1961437+0.3419415i,0.3851899+0.09831377i,0.3392373-0.2058889i,0.09159851-0.3813587i,-0.1996314-0.3280058i,-0.361047-0.09230033i,-0.312755+0.1761816i,-0.1038756+0.3277919i,0.1369044+0.2986454i,0.2871173+0.1280621i,0.2905367-0.08573426i,0.1643387-0.2456818i,-0.02871857-0.2920211i,-0.2101613-0.2097704i,-0.3046368-0.02686148i,-0.2592992+0.1860671i,0.1767325+0.3064577i,0.356997+0.1054364i,0.3443925-0.1826803i,0.1182269-0.3879757i,-0.2015134-0.3670216i,-0.4140062-0.110917i,-0.3701102+0.2283727i,-0.08546416+0.4288997i,0.2568813+0.352054i,0.4278392+0.04649636i,0.3142063-0.2803875i,0.0004404657-0.4083422i,-0.2932467-0.2606756i,-0.3707826+0.04564944i,-0.1976331+0.2918713i,0.08532027+0.3183641i,0.2753395+0.1322799i,0.2565677-0.1137557i,0.07169352-0.2454618i,-0.1284284-0.1922166i,-0.2063374-0.02179087i,-0.1323758+0.1292814i,0.01340906+0.1635445i,0.1184622+0.08331829i,0.1231668-0.03212517i,0.04973663-0.09973147i},
		{-0.09570702+0.6278706i,0.3298798+0.5117003i,0.5591359+0.1636617i,0.5101634-0.2266741i,0.2382435-0.481687i,-0.117226-0.5077971i,-0.4025233-0.3133178i,-0.5038884+0.01075565i,-0.381357+0.326472i,-0.08484591+0.4955547i,0.2557995+0.4350623i,0.4789057+0.1641301i,0.4688416-0.1906392i,0.2244321-0.4504636i,-0.1300056-0.4797437i,-0.4083865-0.2654517i,-0.4676391+0.0729903i,-0.2883236+0.3531232i,0.01970733+0.4346927i,0.2873388+0.2945698i,0.3843914+0.0283321i,0.2853283-0.2151963i,0.06851036-0.3205104i,-0.1412963-0.2611143i,-0.246388-0.09791041i,-0.2221515+0.0696703i,0.003183497+0.1690797i,0.07791201+0.1169019i,0.1036953+0.05647252i,0.1066209+0.01133604i,0.1082506-0.02936466i,0.09937537-0.08565698i,0.04913387-0.1509511i,-0.05661241-0.181405i,-0.1825368-0.1263591i,-0.2518126+0.0214521i,-0.1973404+0.1999066i,-0.01927852+0.3050752i,0.1993059+0.2587202i,0.3369699+0.06664373i,0.3094977-0.1773116i,0.1227861-0.3457015i,-0.1320968-0.3510784i,-0.3325422-0.1898025i,-0.3865542+0.06454737i,-0.2683804+0.3017101i,-0.02118817+0.4193979i,0.2594457+0.3566556i,0.4519636+0.1179771i,0.4497136-0.2125047i,0.2168164-0.4842676i,-0.1664869-0.5399691i},
		{0.01732289-0.4111651i,-0.2434353-0.3365158i,-0.4078012-0.1146684i,-0.4009665+0.1710838i,-0.2081379+0.4001257i,0.1019576+0.4557669i,0.3867178+0.2876016i,0.4921824-0.04025779i,0.3455006-0.3629343i,0.01407604-0.5023814i,-0.3228661-0.3787102i,-0.4819689-0.06453178i,-0.388983+0.2619333i,-0.1159561+0.4315627i,0.1792134+0.381844i,0.3568691+0.1719883i,0.3643308-0.07867663i,0.2329091-0.2672161i,0.03113742-0.3423626i,-0.1730142-0.2946831i,-0.3186434-0.1389506i,-0.3495697+0.0829746i,-0.2335218+0.2918261i,0.00199716+0.3881487i,0.2572335+0.3064801i,0.4021123+0.06958169i,0.1351468-0.3869057i,-0.1422356-0.3787488i,-0.3433254-0.1996721i,-0.3857359+0.05640712i,-0.2670427+0.2775199i,-0.04442932+0.3828425i,0.199365+0.3377691i,0.3764811+0.1514841i,0.4079025-0.1197246i,0.2532287-0.3695775i,-0.04748374-0.4695604i,-0.3605808-0.3382417i,-0.5129218-0.0126846i,-0.3980988+0.3441307i,-0.06110413+0.5290535i,0.31315+0.4293796i,0.5126372+0.1022038i,0.4341546-0.2616476i,0.1422819-0.4636976i,-0.1872774-0.4188173i,-0.3877598-0.1867031i,-0.3916743+0.09278385i,-0.2374857+0.2943854i,-0.0141617+0.3601084i,0.1945719+0.2920971i,0.3282607+0.1226898i},
		{-0.7300082-0.8510266i,-1.085566-0.1877155i,-0.9393358+0.5270773i,-0.3965704+0.9732859i,0.2785644+0.9888825i,0.8074033+0.6077504i,1.004469+0.00234565i,0.8135234-0.6016217i,0.2990699-0.9894603i,-0.3699197-1.003241i,-0.9451786-0.5939646i,-1.164944+0.1248106i,-0.8705677+0.8712923i,-0.1234946+1.287332i,0.7669255+1.115216i,1.361515+0.3670008i,1.317752-0.6320192i,0.5991914-1.382103i,-0.4684346-1.471364i,-1.347434-0.8140968i,-1.571854+0.2804245i,-1.005638+1.259048i,0.07435644+1.616818i,1.120761+1.167552i,1.605143+0.1421443i,1.293951-0.9377891i,-0.7162907-1.380281i,-1.414848-0.5758013i,-1.424265+0.4634866i,-0.7795154+1.243414i,0.1882194+1.426408i,1.031102+0.9667112i,1.38977+0.09841257i,1.131491-0.7894917i,0.3828074-1.319014i,-0.5324911-1.266945i,-1.219003-0.6493672i,-1.364804+0.274637i,-0.8818834+1.093447i,0.02904442+1.415883i,0.9441019+1.065596i,1.411407+0.194428i,1.189453-0.7709001i,0.3902346-1.344953i,-0.5730515-1.247938i,-1.214506-0.5570725i,-1.241937+0.3508371i,-0.6966733+1.024002i,0.1075392+1.178305i,0.7838029+0.8118045i,1.068212+0.1491383i,0.9040849-0.5098575i},
