/*
 * LS_includes.h
 *
 *  Created on: 05-Mar-2022
 *      Author: Ranjith Srinivas
 */

#ifndef SRC_LS_INCLUDES_H_
#define SRC_LS_INCLUDES_H_

#include "complex.h"

#define NUM_USED_SUB_CARRIERS 52
#define nUSC NUM_USED_SUB_CARRIERS
#define SYMBOLS_USED 200

typedef float complex flt_cmplx;

const flt_cmplx trainingSym[nUSC] = {1.0+0.0*I, 1.0+0.0*I, -1.0+0.0*I, -1.0+0.0*I, 1.0+0.0*I, 1.0+0.0*I, -1.0+0.0*I, 1.0+0.0*I, -1.0+0.0*I, 1.0+0.0*I, 1.0+0.0*I, 1.0+0.0*I, 1.0+0.0*I, 1.0+0.0*I, 1.0+0.0*I, -1.0+0.0*I, -1.0+0.0*I, 1.0+0.0*I, 1.0+0.0*I, -1.0+0.0*I, 1.0+0.0*I, -1.0+0.0*I, 1.0+0.0*I, 1.0+0.0*I, 1.0+0.0*I, 1.0+0.0*I, 1.0+0.0*I, -1.0+0.0*I, -1.0+0.0*I, 1.0+0.0*I, 1.0+0.0*I, -1.0+0.0*I, 1.0+0.0*I, -1.0+0.0*I, 1.0+0.0*I, -1.0+0.0*I, -1.0+0.0*I, -1.0+0.0*I, -1.0+0.0*I, -1.0+0.0*I, 1.0+0.0*I, 1.0+0.0*I, -1.0+0.0*I, -1.0+0.0*I, 1.0+0.0*I, -1.0+0.0*I, 1.0+0.0*I, -1.0+0.0*I, 1.0+0.0*I, 1.0+0.0*I, 1.0+0.0*I, 1.0+0.0*I};

//Actual Channel Data
const flt_cmplx Act_Channel_weight[SYMBOLS_USED][nUSC] = {{0.4266158+0.603577i,0.759733+0.2093631i,0.767314-0.3451149i,0.3911511-0.8089885i,-0.2411369-0.9279279i,-0.8392435-0.5804397i,-1.075071+0.1217655i,-0.7652309+0.8472592i,-0.007847912+1.198024i,0.8287206+0.9354472i,1.287616+0.144625i,1.083999-0.7797401i,0.2868537-1.337807i,-0.698456-1.20694i,-1.34651-0.4329642i,-1.302791+0.5861972i,-0.5802786+1.315451i,0.44783+1.371364i,1.249197+0.7242193i,1.412572-0.2911671i,0.8582939-1.153723i,-0.1256238-1.425659i,-1.03499-0.9749008i,-1.409139-0.03945301i,-1.066707+0.8980089i,-0.1962535+1.361456i,1.282087+0.3393219i,1.156526-0.5842661i,0.4655015-1.172675i,-0.4145625-1.152367i,-1.037692-0.573104i,-1.118847+0.2427281i,-0.6606786+0.884349i,0.07586809+1.060563i,0.7216616+0.725908i,0.9820328+0.07727323i,0.7651122-0.5589553i,0.2074053-0.8864968i,-0.4042517-0.7736183i,-0.7754457-0.3062926i,-0.7469295+0.2630728i,-0.3683603+0.6490561i,0.138052+0.6823189i,0.5073838+0.3917701i,0.5802981-0.0294784i,0.3785908-0.3518828i,0.06342632-0.4454246i,-0.1866924-0.3339843i,-0.2861143-0.1409493i,-0.2646503+0.01918715i,-0.2016046+0.1134489i,-0.1404778+0.1770223i},
		{0.9008765+0.7660012i,1.183984-0.01233994i,0.884246-0.7751576i,0.1730775-1.148215i,-0.5905508-0.9795159i,-1.061234-0.3820953i,-1.057889+0.3609112i,-0.6054315+0.93809i,0.1058797+1.120857i,0.7926443+0.8272226i,1.164065+0.1532677i,1.028041-0.6343732i,0.3979187-1.178324i,-0.4670911-1.189102i,-1.152561-0.615292i,-1.296363+0.2898927i,-0.7995969+1.077699i,0.09986261+1.343283i,0.9501755+0.950985i,1.331445+0.1044829i,1.072824-0.7739292i,0.3202858-1.268957i,-0.5601942-1.168357i,-1.167273-0.5390266i,-1.237973+0.3251882i,-0.7472935+1.037562i,0.8878642+0.9294044i,1.281893+0.1408276i,1.071008-0.7219536i,0.3466525-1.242004i,-0.5402079-1.162446i,-1.153518-0.5267813i,-1.200753+0.3420517i,-0.6815017+1.016858i,0.1289861+1.189626i,0.839026+0.812831i,1.13742+0.09300026i,0.9213631-0.6328625i,0.3126285-1.053892i,-0.4144489-1.003965i,-0.9468443-0.5145581i,-1.053237+0.1994923i,-0.682349+0.8198719i,-0.000129294+1.059026i,0.6719972+0.802234i,1.011544+0.1785052i,0.8664625-0.4993598i,0.3357965-0.9050521i,-0.2983755-0.8750866i,-0.7408593-0.4762734i,-0.8355552+0.06926516i,-0.6049581+0.5285277i},
		{-0.5201805-0.4562908i,-0.6946344+0.003273772i,-0.5167341+0.4622705i,-0.08001419+0.683467i,0.3870838+0.5582768i,0.6475788+0.1614184i,0.5812793-0.2971912i,0.239175-0.5896944i,-0.1963099-0.586645i,-0.5135059-0.3110623i,-0.5754755+0.08899259i,-0.3744518+0.4232055i,-0.01977+0.5488405i,0.3230863+0.426482i,0.5076916+0.1249415i,0.4643038-0.2172767i,0.2217573-0.4529144i,-0.1096287-0.4853445i,-0.385478-0.305936i,-0.4875477+0.003729084i,-0.3737999+0.306625i,-0.09703249+0.4695699i,0.2180429+0.4223512i,0.4309354+0.1894149i,0.4493573-0.1219719i,0.2703528-0.3721571i,-0.2948283-0.3370767i,-0.4344348-0.08086049i,-0.3872969+0.2016748i,-0.1805638+0.3931542i,0.09654269+0.4193862i,0.3318476+0.2739091i,0.4324933+0.01571i,0.3568361-0.2539288i,0.1294471-0.4265377i,-0.1637535-0.425363i,-0.4020856-0.2386207i,-0.475769+0.06619861i,-0.3372501+0.360153i,-0.03384848+0.5048147i,0.3020145+0.4199592i,0.5100124+0.1319811i,0.4824936-0.2290985i,0.2246372-0.4899322i,-0.1430175-0.5221298i,-0.4445013-0.3092565i,-0.5378946+0.04573072i,-0.384207+0.3752274i,-0.06021892+0.5305504i,0.2852711+0.4485171i,0.50234+0.1714872i,0.5015036-0.1793114i},
		{-0.01431373+0.8889866i,0.5522567+0.6786808i,0.8433562+0.161671i,0.7344329-0.4084347i,0.295315-0.7650887i,-0.2539836-0.7567061i,-0.6573511-0.4104514i,-0.7448805+0.09472512i,-0.5028707+0.524281i,-0.06345525+0.6995254i,0.3708574+0.5693588i,0.6226242+0.2149049i,0.6079886-0.2029155i,0.3542986-0.5177453i,-0.02720867-0.6181862i,-0.3900212-0.4765679i,-0.6005399-0.1486188i,-0.5767758+0.2458506i,-0.3162749+0.5564183i,0.09232648+0.6500815i,0.4875357+0.467338i,0.6919171+0.06350408i,0.5940139-0.3956294i,0.2153758-0.6984242i,-0.2823848-0.6899915i,-0.6670964-0.3583405i,-0.4889523+0.5974796i,-2.76175e-05+0.7762536i,0.4917254+0.6050498i,0.7664632+0.1629583i,0.7052063-0.3547995i,0.3337369-0.7253523i,-0.1942192-0.7880317i,-0.6578198-0.5051804i,-0.8515638+0.01931738i,-0.6686388+0.5691437i,-0.1598386+0.8929759i,0.4640987+0.8147677i,0.9087289+0.3336386i,0.9346081-0.3464173i,0.4939637-0.8951653i,-0.21872-1.020739i,-0.849394-0.6348331i,-1.068229+0.08289813i,-0.7525505+0.7702235i,-0.05920805+1.075165i,0.6588781+0.8453744i,1.042665+0.2050748i,0.9128706-0.5192909i,0.3509555-0.974389i,-0.3578918-0.9551797i,-0.8757446-0.4917164i},
		{-0.02174855+0.7426401i,0.4425007+0.5449833i,0.6483794+0.1243178i,0.5452352-0.2951154i,0.2294448-0.5370033i,-0.1390898-0.536797i,-0.418061-0.3311842i,-0.5208193-0.01405428i,-0.4211328+0.2994797i,-0.1532869+0.4955289i,0.1861986+0.4900776i,0.456965+0.2700537i,0.530048-0.07983351i,0.3595456-0.4005708i,0.02056211-0.5361565i,-0.3231307-0.4209094i,-0.5076798-0.1169288i,-0.4563923+0.2244256i,-0.2103758+0.4480746i,0.1080725+0.4697573i,0.363958+0.2997287i,0.4645272+0.01872978i,0.3809529-0.2634055i,0.1464744-0.4426536i,-0.1541182-0.4476547i,-0.4040399-0.2652443i,-0.3666494+0.3470434i,-0.06928191+0.5091282i,0.2697397+0.445223i,0.4938115+0.1781889i,0.4988927-0.171471i,0.2839866-0.4465364i,-0.05410724-0.5284595i,-0.3709664-0.385554i,-0.5363508-0.07744557i,-0.4803198+0.273461i,-0.2156932+0.5251439i,0.1614647+0.5639238i,0.4964128+0.3518317i,0.6307334-0.04182785i,0.4774469-0.4503119i,0.08038382-0.675065i,-0.3860266-0.586084i,-0.6926948-0.202224i,-0.6741827+0.3028991i,-0.3222904+0.6821287i,0.2017816+0.7410901i,0.6451722+0.4395096i,0.7881831-0.08607387i,0.551782-0.5865662i,0.03799661-0.8174303i,-0.5127764-0.655038i},
		{0.4384039-0.3069643i,0.09107013-0.4953091i,-0.2595355-0.3918627i,-0.4242855-0.1005312i,-0.3531766+0.1951093i,-0.1268329+0.3521465i,0.1228961+0.3279853i,0.2887278+0.1654282i,0.3179492-0.05348658i,0.2086028-0.2410887i,0.003370463-0.3205746i,-0.2122299-0.2472715i,-0.3300843-0.04075539i,-0.2730842+0.2008403i,-0.05582255+0.3390689i,0.2020914+0.2802783i,0.340444+0.0500152i,0.2668026-0.2092072i,0.02826093-0.3291747i,-0.2153395-0.2344705i,-0.3033337+0.002556119i,-0.1881911+0.2152262i,0.03536879+0.2642847i,0.2062219+0.1345915i,0.2160563-0.06444483i,0.08048227-0.1885159i,-0.1646129-0.03160533i,-0.1145281+0.09974976i,0.008048474+0.1383608i,0.1055948+0.07211577i,0.1138978-0.03629664i,0.04075995-0.1056163i,-0.05235592-0.09484965i,-0.1018626-0.02293871i,-0.08395556+0.05625958i,-0.0200929+0.09613324i,0.04840332+0.08311065i,0.08989856+0.03297785i,0.09364825-0.02941824i,0.06183921-0.08455772i,-0.0003972039-0.1166057i,-0.08180849-0.1062786i,-0.1527465-0.03667395i,-0.1648387+0.08385269i,-0.07854234+0.2022371i,0.09322518+0.2344934i,0.2640475+0.1206445i,0.3103225-0.1121894i,0.1575672-0.3353072i,-0.1418351-0.3856332i,-0.4109253-0.1840079i,-0.4526723+0.1811741i},
		{0.1681509-0.6200698i,-0.2274112-0.5972576i,-0.5436306-0.352798i,-0.6659908+0.04394583i,-0.5206229+0.4583309i,-0.1278695+0.7110974i,0.363758+0.6561264i,0.7211465+0.2802437i,0.7483692-0.2557399i,0.4112643-0.6870997i,-0.1292037-0.7931041i,-0.6054481-0.5234311i,-0.7929276-0.01847001i,-0.620816+0.4798228i,-0.1847963+0.7554858i,0.320545+0.7059146i,0.6904145+0.3612047i,0.7773479-0.1422572i,0.5341336-0.6060914i,0.03959364-0.8292616i,-0.5073127-0.6878992i,-0.8526736-0.2122789i,-0.8084303+0.3946621i,-0.368192+0.8383249i,0.2657324+0.8866549i,0.7800567+0.505394i,0.6262059-0.6775283i,0.04965302-0.914388i,-0.5373001-0.7344131i,-0.8777836-0.2317932i,-0.8321283+0.371851i,-0.4186947+0.8210738i,0.1967918+0.9174623i,0.7524189+0.596177i,0.9838768-0.02715376i,0.748776-0.675285i,0.1260573-1.021501i,-0.5879566-0.8633244i,-1.020006-0.2579321i,-0.932076+0.4851056i,-0.369703+0.9720823i,0.3608566+0.9543501i,0.8763285+0.4667843i,0.9361455-0.2122725i,0.5554984-0.7385455i,-0.04203621-0.8878394i,-0.5709423-0.6396114i,-0.8207187-0.1406331i,-0.7178705+0.3894579i,-0.3212045+0.7434828i,0.2100308+0.7833981i,0.659866+0.4828615i},
		{0.3552048-1.203168i,-0.4505235-1.135631i,-1.025703-0.6113243i,-1.168135+0.1292597i,-0.8527861+0.7985839i,-0.2072371+1.156408i,0.5369464+1.067191i,1.101239+0.5389735i,1.240297-0.2545395i,0.847049-1.001316i,0.03772118-1.358417i,-0.8544637-1.116066i,-1.410993-0.3319353i,-1.335496+0.6596339i,-0.6222409+1.392592i,0.4189433+1.499759i,1.303805+0.9031732i,1.607173-0.1390536i,1.168055-1.150824i,0.1686013-1.658295i,-0.9439405-1.40808i,-1.654328-0.488856i,-1.612498+0.6954757i,-0.8048241+1.596169i,0.4178359+1.769883i,1.484436+1.100274i,1.36167-1.320389i,0.1815484-1.906408i,-1.107327-1.579311i,-1.876728-0.4846743i,-1.747337+0.8518662i,-0.778075+1.784107i,0.5645079+1.862755i,1.63578+1.051548i,1.923991-0.2591568i,1.293441-1.441446i,0.0483831-1.929605i,-1.211233-1.491305i,-1.877735-0.342553i,-1.633422+0.9540747i,-0.610197+1.766543i,0.6770105+1.710819i,1.595548+0.8420819i,1.719123-0.3856162i,1.033321-1.367367i,-0.08533938-1.659629i,-1.089203-1.1826i,-1.539175-0.2168044i,-1.290492+0.7734489i,-0.5108773+1.368781i,0.4370199+1.357472i,1.1614+0.783619i},
		{0.08242869+1.174238i,0.8364165+0.8246111i,1.167969+0.06485599i,0.9129932-0.720101i,0.2054275-1.135164i,-0.5927709-0.9761308i,-1.077644-0.3324638i,-1.010378+0.4606089i,-0.4391524+0.9970434i,0.3291207+1.012223i,0.8945608+0.5198573i,0.9791706-0.2023314i,0.571233-0.7713248i,-0.08257671-0.9108538i,-0.6292425-0.5928859i,-0.8099525-0.02903127i,-0.5873115+0.4720086i,-0.1316252+0.6825301i,0.3058513+0.5590739i,0.537562+0.223451i,0.5134416-0.1396455i,0.3010172-0.3856796i,0.01578778-0.4548901i,-0.2374168-0.3588897i,-0.385942-0.1491187i,-0.3902995+0.1014182i,-0.01688626+0.3884701i,0.2154334+0.3126232i,0.3483308+0.1157594i,0.3333674-0.1095416i,0.1966452-0.2681296i,0.01252101-0.3146483i,-0.1504582-0.2628224i,-0.2624069-0.1498158i,-0.3176323+0.002348831i,-0.297927+0.1849105i,-0.1656379+0.3628252i,0.09081076+0.4489326i,0.3975359+0.3411183i,0.5923726+0.01263774i,0.5119367-0.4182028i,0.1207087-0.7169697i,-0.4194478-0.6680121i,-0.81263-0.2314066i,-0.80251+0.3956352i,-0.3447584+0.8721699i,0.3426208+0.9120846i,0.8923154+0.4614956i,0.9962335-0.2591561i,0.5816039-0.8737608i,-0.147542-1.056079i,-0.820367-0.7032357i},
		{0.8684157+0.124439i,0.7588559-0.4771814i,0.2703062-0.8751086i,-0.3780021-0.8543191i,-0.8624455-0.3977709i,-0.9194741+0.2796065i,-0.5003068+0.827266i,0.1833221+0.9483914i,0.7665327+0.5743645i,0.937993-0.08872636i,0.6197209-0.6786853i,0.005328264-0.8889802i,-0.5649294-0.6389906i,-0.8059777-0.09933184i,-0.6364284+0.4300035i,-0.1918433+0.6967883i,0.2821067+0.616384i,0.5709268+0.2787822i,0.5818971-0.1319183i,0.3535779-0.4378301i,0.009078667-0.5338745i,-0.3052382-0.4081965i,-0.4711105-0.1305371i,-0.4347906+0.1781893i,-0.2249327+0.3911377i,0.05887222+0.4275088i,0.383954+0.0526826i,0.3215823-0.1719228i,0.1573456-0.3058818i,-0.03414036-0.3272547i,-0.198959-0.2554934i,-0.3104849-0.1163641i,-0.3459254+0.07167695i,-0.2714454+0.2763046i,-0.06625101+0.4254252i,0.2286302+0.4213206i,0.489085+0.205551i,0.5561211-0.169665i,0.3386685-0.5312727i,-0.1000499-0.6674078i,-0.5469245-0.4603727i,-0.7492523+0.0196247i,-0.5676188+0.532755i,-0.07152475+0.7986396i,0.4880204+0.6588423i,0.8151696+0.1721348i,0.7330246-0.4146276i,0.2792878-0.8002632i,-0.3166071-0.7889217i,-0.7562146-0.3885553i,-0.8247538+0.1991778i,-0.4946947+0.6854616i},
		{-1.721767+0.08408029i,-1.271211+1.162551i,-0.2349731+1.704242i,0.9068858+1.457031i,1.622893+0.537698i,1.582816-0.6213706i,0.8143054-1.479171i,-0.31493-1.644246i,-1.278031-1.055748i,-1.639691-0.001630024i,-1.253476+1.027282i,-0.3161891+1.569598i,0.7366506+1.39965i,1.436159+0.6163029i,1.487824-0.416921i,0.8903175-1.243393i,-0.07939623-1.513896i,-0.9976056-1.128278i,-1.47699-0.2642094i,-1.32238+0.7079479i,-0.6015575+1.379931i,0.3867308+1.466892i,1.229064+0.9194208i,1.557656-0.04917008i,1.203691-1.033395i,0.2875968-1.591465i,-1.565618-0.6061375i,-1.614425+0.5487787i,-0.8906764+1.47796i,0.2788773+1.715964i,1.327485+1.1289i,1.737362-0.0006347122i,1.313139-1.115405i,0.2803079-1.676919i,-0.8463697-1.440608i,-1.539-0.5587677i,-1.512631+0.5293985i,-0.82872+1.333639i,0.1781345+1.533106i,1.075158+1.082195i,1.506664+0.1898297i,1.30883-0.7800973i,0.5545311-1.437092i,-0.4649574-1.496352i,-1.326482-0.8958296i,-1.63195+0.1442839i,-1.195731+1.175347i,-0.1704577+1.704237i,0.983627+1.440302i,1.705281+0.4710265i,1.62075-0.7522355i,0.7516616-1.632164i},
		{0.09288634+0.6143038i,0.4451801+0.4372429i,0.6237814+0.08185176i,0.5538853-0.3149329i,0.2550168-0.5964017i,-0.1637905-0.6433868i,-0.5382614-0.4202527i,-0.7049425+0.00175438i,-0.5687984+0.455835i,-0.1601004+0.736042i,0.3544463+0.6905687i,0.7326171+0.3115141i,0.7758531-0.2374295i,0.4446124-0.6900649i,-0.1062157-0.8171483i,-0.6048291-0.5547237i,-0.8105958-0.03873102i,-0.6402637+0.4760388i,-0.1964888+0.7566234i,0.3066685+0.7018116i,0.6596391+0.3642938i,0.7407626-0.1038356i,0.5367118-0.5269225i,0.1218804-0.7580646i,-0.3671004-0.705688i,-0.7534891-0.3579019i,-0.5914676+0.7256793i,-0.0008458594+0.994345i,0.672928+0.8112728i,1.096025+0.1953654i,1.008499-0.5943718i,0.3895912-1.161285i,-0.4911433-1.177017i,-1.18834-0.5783108i,-1.312856+0.3670378i,-0.7555931+1.178534i,0.2284236+1.413243i,1.13529+0.914431i,1.475691-0.08338574i,1.047039-1.062766i,0.05964265-1.497519i,-0.9647116-1.145783i,-1.47605-0.1933359i,-1.204494+0.8439041i,-0.312559+1.40943i,0.7023506+1.219738i,1.297795+0.414744i,1.191621-0.5421363i,0.4994593-1.144325i,-0.3665754-1.123829i,-0.9557748-0.5673416i,-1.022839+0.181191i},
		{0.137327+0.00860199i,0.08183213-0.03641333i,0.05935758-0.02469064i,0.09058484-0.03709627i,0.1022388-0.1245663i,0.003741781-0.2322606i,-0.2004614-0.2301466i,-0.3752436-0.03573218i,-0.3470323+0.2791178i,-0.05818935+0.5053501i,0.3498363+0.4443049i,0.610094+0.07461478i,0.5180231-0.4013044i,0.09151834-0.6808364i,-0.4239888-0.5689942i,-0.7140539-0.1164703i,-0.601762+0.4121445i,-0.1559272+0.7114514i,0.3649425+0.62282i,0.6789687+0.2134211i,0.6385758-0.2864769i,0.2885698-0.6250219i,-0.1847308-0.6536301i,-0.5585043-0.3771044i,-0.6697856+0.06985933i,-0.471807+0.4870782i,0.4161407+0.5640088i,0.6988447+0.1588244i,0.6451845-0.3485993i,0.2566119-0.7041162i,-0.28533-0.708226i,-0.6975733-0.336639i,-0.7481455+0.2260109i,-0.3965983+0.6760706i,0.1699647+0.7621813i,0.6379312+0.4356896i,0.74948-0.1167191i,0.4540629-0.5828983i,-0.0661596-0.7106327i,-0.5118046-0.4525404i,-0.6473356+0.01833847i,-0.4326752+0.4262199i,-0.02684924+0.5623329i,0.3283092+0.3970198i,0.459628+0.06986111i,0.3493643-0.2210022i,0.1113734-0.3447884i,-0.1084047-0.2946823i,-0.2250755-0.1517678i,-0.2386209-0.003773415i,-0.1903739+0.1091477i,-0.1080704+0.1865485i},
		{0.9477209-0.2402058i,0.6158723-0.7911538i,-0.004917072-1.025704i,-0.653149-0.8175947i,-1.037895-0.2389168i,-0.9771982+0.4651166i,-0.4847631+0.9864737i,0.2352462+1.091856i,0.8764316+0.7236365i,1.158603+0.02529897i,0.9448435-0.7140248i,0.3041708-1.174219i,-0.5057524-1.137502i,-1.136016-0.5894873i,-1.292316+0.2581865i,-0.870829+1.043203i,-0.02139516+1.402995i,0.8982671+1.139342i,1.466849+0.323958i,1.387061-0.7077852i,0.6378135-1.484385i,-0.4822424-1.605878i,-1.458082-0.9484312i,-1.786725+0.2347764i,-1.23928+1.390829i,-0.02084918+1.919472i,1.993812+0.2724585i,1.697096-1.14014i,0.5111728-2.001007i,-0.9571739-1.839654i,-1.936045-0.7320611i,-1.91744+0.7362487i,-0.933511+1.799539i,0.4804874+1.932805i,1.598706+1.115521i,1.89313-0.197305i,1.277491-1.346978i,0.1008352-1.808517i,-1.062233-1.416288i,-1.689042-0.3970081i,-1.525286+0.7640103i,-0.6717678+1.542415i,0.4704345+1.594805i,1.372729+0.9060169i,1.613891-0.195661i,1.084068-1.180655i,0.05148618-1.572979i,-0.9649917-1.19607i,-1.466638-0.2673804i,-1.239162+0.7250245i,-0.4521081+1.295599i,0.4629169+1.217074i},
		{-0.01461158+0.05349352i,0.04699657+0.0748496i,0.1212421+0.0246359i,0.1324949-0.09110469i,0.03348729-0.1961225i,-0.1395949-0.1922693i,-0.2731369-0.04053377i,-0.2505577+0.1892309i,-0.04576947+0.3476482i,0.2367739+0.3043566i,0.4154515+0.04946675i,0.3510599-0.2791332i,0.05203645-0.4726579i,-0.3132775-0.3883561i,-0.5155932-0.05414119i,-0.4143654+0.3360713i,-0.05696983+0.5409003i,0.3442462+0.4280177i,0.5459366+0.0624821i,0.4295348-0.3346751i,0.07341034-0.5294139i,-0.3049925-0.4207941i,-0.4920866-0.09287323i,-0.4053394+0.2544433i,-0.1235972+0.4372074i,0.1847032+0.3878965i,0.3734079-0.1003483i,0.2218048-0.2994323i,-0.008702331-0.3657919i,-0.2320653-0.2844175i,-0.3667663-0.08104807i,-0.3481865+0.1753776i,-0.1593567+0.3751171i,0.1338419+0.4047772i,0.3867016+0.2181058i,0.4456235-0.1084635i,0.2522223-0.3952711i,-0.09666077-0.4637259i,-0.3939521-0.2606759i,-0.4552405+0.09305365i,-0.246569+0.3770142i,0.09096874+0.4204248i,0.3414493+0.2162804i,0.3636768-0.08426079i,0.177886-0.2879306i,-0.06895859-0.2926473i,-0.2208912-0.1392762i,-0.216662+0.04430183i,-0.1064593+0.1477089i,0.01291809+0.1448637i,0.07722755+0.08246495i,0.08454014+0.01986411i},
		{-0.3404066-0.3153883i,-0.4988082-0.01261372i,-0.4062239+0.3414972i,-0.08189865+0.5532918i,0.3192597+0.4904355i,0.5866265+0.1631044i,0.5682866-0.2743319i,0.2549011-0.6004707i,-0.2102035-0.639666i,-0.5976132-0.3534738i,-0.7030303+0.1324442i,-0.4527368+0.5806389i,0.04737756+0.7549604i,0.5508769+0.5453253i,0.7905354+0.0393625i,0.6240738-0.5080101i,0.1239202-0.8044422i,-0.4504965-0.6835223i,-0.7924801-0.2046046i,-0.7209768+0.37666i,-0.2814687+0.7529698i,0.2860688+0.736792i,0.6875891+0.3552562i,0.7337969-0.1807032i,0.4261082-0.6013339i,-0.06547099-0.7160682i,-0.6874674-0.05216442i,-0.550881+0.3965411i,-0.1633816+0.6504341i,0.2935259+0.5959815i,0.6054376+0.2596879i,0.6220561-0.1976435i,0.3345886-0.5512621i,-0.1112296-0.6243457i,-0.486016-0.384734i,-0.6004965+0.03420834i,-0.4102035+0.4085062i,-0.03480158+0.5513985i,0.3194911+0.4138669i,0.4811761+0.09704178i,0.4000572-0.2223618i,0.1523464-0.3963192i,-0.1229927-0.3730048i,-0.3042217-0.1984975i,-0.3355474+0.02877701i,-0.2314305+0.2115809i,-0.05286308+0.2885257i,0.1231512+0.2462279i,0.2310358+0.1160271i,0.2385672-0.04122049i,0.157464-0.1614198i,0.03406443-0.2061402i},
		{-0.3670458+0.9112827i,0.3471714+0.9716267i,0.944798+0.5146517i,1.084609-0.255951i,0.6550691-0.9418793i,-0.145088-1.165613i,-0.9029469-0.7851927i,-1.213409+0.01789223i,-0.9016665+0.830394i,-0.1209122+1.227764i,0.7280385+1.000869i,1.209144+0.2656654i,1.079166-0.6006188i,0.4103167-1.158661i,-0.4534767-1.133318i,-1.078237-0.5488719i,-1.160892+0.2924638i,-0.6756435+0.9708419i,0.1239975+1.160523i,0.8406726+0.7853113i,1.13197+0.04488168i,0.8728862-0.6931024i,0.2066163-1.075962i,-0.5343661-0.9337226i,-0.9939522-0.3535066i,-0.9637051+0.3710165i,0.2092932+0.9596617i,0.7601823+0.5752466i,0.9199537-0.05458825i,0.6403131-0.6137925i,0.08882473-0.8450907i,-0.4526072-0.6721711i,-0.7381726-0.2177136i,-0.6719584+0.2817855i,-0.3294953+0.604968i,0.1080104+0.6428713i,0.4535201+0.4216777i,0.5893203+0.06056241i,0.4913563-0.2932955i,0.2147598-0.515925i,-0.134022-0.5349879i,-0.4266264-0.3452406i,-0.5485839-0.01553679i,-0.4436052+0.3241673i,-0.1485921+0.5283355i,0.2100833+0.503532i,0.471532+0.260893i,0.521671-0.0851922i,0.3507247-0.3775286i,0.04958257-0.4980714i,-0.2484791-0.4183777i,-0.4360307-0.1923219i},
		{-0.805679+0.02225534i,-0.6460905+0.5948814i,-0.09513263+0.9421859i,0.597161+0.8152092i,1.046126+0.213111i,0.9584509-0.5741733i,0.3298784-1.110939i,-0.523213-1.071142i,-1.13287-0.4442977i,-1.150969+0.4434494i,-0.5552427+1.111239i,0.3364226+1.197558i,1.048297+0.6610113i,1.211908-0.2061612i,0.7589664-0.9487486i,-0.05890699-1.195819i,-0.8190833-0.8454993i,-1.151486-0.09748153i,-0.9163146+0.6668541i,-0.2543144+1.081302i,0.5000365+0.9669501i,0.9878631+0.4028894i,0.9933844-0.3265292i,0.5352108-0.8740921i,-0.1538023-0.9925828i,-0.7433621-0.644527i,-0.7256703+0.599534i,-0.1629967+0.9040857i,0.4468711+0.7752336i,0.8175822+0.2962638i,0.7916407-0.2898692i,0.4074757-0.7061067i,-0.1330771-0.7751541i,-0.5736893-0.4942548i,-0.7278287-0.01900327i,-0.555492+0.4255543i,-0.1618965+0.6533831i,0.2680428+0.5911584i,0.5569416+0.2910312i,0.601965-0.1084772i,0.4016007-0.4446155i,0.04511783-0.5889349i,-0.322931-0.4885211i,-0.5529952-0.1844928i,-0.5465921+0.1981718i,-0.3018433+0.494711i,0.07574635+0.5709105i,0.4142607+0.3905894i,0.5575069+0.04028428i,0.4461247-0.3116949i,0.1474034-0.5040971i,-0.187442-0.4663672i},
		{-0.01145529-0.1977394i,-0.1511263-0.1795753i,-0.2619771-0.04881744i,-0.2519524+0.1458402i,-0.09931567+0.2911441i,0.1194355+0.2924441i,0.2815685+0.1448154i,0.3039801-0.0671466i,0.1909239-0.2344197i,0.01220963-0.2928163i,-0.1555114-0.2420651i,-0.2666461-0.1154062i,-0.2997945+0.05404861i,-0.2350513+0.2324843i,-0.05934029+0.3619369i,0.1949248+0.3608505i,0.4227946+0.1747341i,0.4815352-0.1552582i,0.2846268-0.4743601i,-0.1116672-0.5869201i,-0.5081691-0.3847748i,-0.669539+0.06038247i,-0.4740316+0.5172524i,-0.002607359+0.7254683i,0.4976434+0.5533401i,0.7542198+0.07985377i,0.1712765-0.7578775i,-0.3746868-0.6878798i,-0.7398667-0.2738394i,-0.7435529+0.280171i,-0.3820924+0.7038052i,0.1723471+0.7893204i,0.6527929+0.4893179i,0.8222901-0.05800971i,0.5888494-0.5892894i,0.05684956-0.839664i,-0.5154898-0.6751251i,-0.8396766-0.16723i,-0.7441812+0.4339262i,-0.2688327+0.8221344i,0.3479541+0.7935287i,0.7883698+0.3575705i,0.8215891-0.2618412i,0.4292159-0.7406549i,-0.1803445-0.8270245i,-0.6813248-0.4794529i,-0.8083236+0.1078687i,-0.5044248+0.6119738i,0.04748237+0.7638934i,0.5330722+0.5016499i,0.6927015-0.0001571708i,0.4709964-0.444205i},
		{0.1739824+0.8710126i,0.7213269+0.4941204i,0.8442379-0.1428771i,0.4987133-0.6696728i,-0.09513766-0.8060315i,-0.6015809-0.5078886i,-0.7622179+0.03497718i,-0.5214633+0.5245132i,-0.03133367+0.7170477i,0.4455393+0.5369325i,0.6726946+0.09689977i,0.5504192-0.3702056i,0.155603-0.6294864i,-0.3020476-0.5579298i,-0.5866865-0.2030843i,-0.5564901+0.2427698i,-0.2370875+0.543475i,0.1928969+0.5448154i,0.4997474+0.2571722i,0.5233519-0.1525665i,0.2640135-0.4564472i,-0.1221225-0.4937605i,-0.4153489-0.2586214i,-0.458107+0.102284i,-0.2418071+0.3784285i,0.09385908+0.4181155i,0.3747945-0.09716488i,0.1760674-0.3217788i,-0.1114463-0.328582i,-0.3016574-0.1289898i,-0.2799411+0.1345933i,-0.0753447+0.2853587i,0.1633507+0.2301419i,0.2717095+0.01903263i,0.1818761-0.1940263i,-0.03497764-0.2606761i,-0.2235054-0.1393854i,-0.2539726+0.08152151i,-0.1079475+0.2502374i,0.1164111+0.2550699i,0.2748359+0.09279148i,0.2685052-0.1375457i,0.0977294-0.3000282i,-0.1455768-0.2986284i,-0.3298857-0.1239216i,-0.3481259+0.1438569i,-0.1691884+0.3685021i,0.1376104+0.416767i,0.4184781+0.2281376i,0.5007836-0.1325138i,0.2931429-0.4796647i,-0.1330703-0.5931277i},
		{-0.2674339+0.7572866i,0.2544442+0.7099761i,0.5993737+0.3738893i,0.6601613-0.06268442i,0.4673797-0.4188804i,0.1297993-0.5884412i,-0.2290238-0.5430463i,-0.4994399-0.3092521i,-0.5930633+0.04192556i,-0.4619054+0.3944786i,-0.1336511+0.6081844i,0.2717892+0.5767133i,0.5802135+0.2934602i,0.6475446-0.1280866i,0.437457-0.5046424i,0.03900037-0.674143i,-0.3826075-0.5681248i,-0.6615512-0.2284498i,-0.6880184+0.2215035i,-0.4341828+0.6181868i,0.03399886+0.7973676i,0.5531809+0.6448354i,0.8925726+0.1642995i,0.845141-0.4738248i,0.3578718-0.9661338i,-0.3839161-1.018581i,-1.150558+0.2834907i,-0.6852513+1.008505i,0.1699657+1.231175i,0.9603396+0.8086206i,1.256843-0.04026241i,0.9057152-0.8616428i,0.1068311-1.230297i,-0.7165712-0.9800422i,-1.159116-0.2688603i,-1.034785+0.5348299i,-0.4390708+1.053278i,0.3297755+1.070987i,0.9225681+0.6071544i,1.086856-0.1157781i,0.7611375-0.77464i,0.09434553-1.078381i,-0.6142754-0.8898074i,-1.040979-0.2910839i,-0.9849082+0.4439536i,-0.4687195+0.9715756i,0.2653892+1.042433i,0.8703411+0.6245494i,1.062652-0.0813688i,0.7572557-0.741469i,0.1028632-1.048953i,-0.5926985-0.8651236i},
		{-0.4659431-0.8072853i,-0.8867572-0.3248054i,-0.8989224+0.3237979i,-0.4864765+0.8343704i,0.1648589+0.96196i,0.7526196+0.6374825i,0.9970078+0.003197447i,0.7720934-0.6479595i,0.1711075-1.004237i,-0.5269059-0.8833106i,-0.982713-0.3294128i,-0.9637295+0.3947349i,-0.4700058+0.930482i,0.2548043+1.006894i,0.8454051+0.5873408i,1.008721-0.1087258i,0.6789246-0.7264874i,0.04267644-0.9685399i,-0.5752475-0.7449362i,-0.8893916-0.1979651i,-0.7871265+0.3966452i,-0.3537567+0.7774897i,0.1992085+0.8073872i,0.6409884+0.5039644i,0.8064978+0.005754922i,0.6399471-0.488438i,-0.327386-0.7516054i,-0.7359001-0.3886654i,-0.8291532+0.1635285i,-0.5450836+0.6607441i,0.0006233695+0.865069i,0.5560715+0.6687582i,0.8556637+0.1588711i,0.7571157-0.4224261i,0.3127078-0.8018123i,-0.2638278-0.8105317i,-0.7086532-0.4577315i,-0.8310847+0.08789732i,-0.5891567+0.5843713i,-0.09495239+0.8211838i,0.4384533+0.7005416i,0.7825438+0.2730544i,0.7845235-0.2799436i,0.4353312-0.7158414i,-0.1162027-0.8341275i,-0.6211371-0.5729325i,-0.8442568-0.04752589i,-0.6802301+0.4988703i,-0.2077145+0.8129042i,0.351029+0.7549451i,0.7417+0.3615711i,0.7974588-0.18203i},
		{-0.4017875-0.102365i,-0.4078001+0.1499105i,-0.2598931+0.3786755i,0.01434805+0.487289i,0.3225724+0.405458i,0.533945+0.1344196i,0.5355203-0.2349171i,0.292419-0.5474928i,-0.119569-0.6474946i,-0.5299147-0.4543979i,-0.7391812-0.01715157i,-0.6135304+0.4848592i,-0.1669358+0.8081458i,0.4167406+0.7615454i,0.8513111+0.320439i,0.8893705-0.3297858i,0.4685226-0.8649668i,-0.2273131-0.9882188i,-0.8452733-0.603488i,-1.050886+0.1114602i,-0.7199884+0.7891645i,-0.01655793+1.072935i,0.6954124+0.8153868i,1.053452+0.155748i,0.8894801-0.5655442i,0.3044235-0.9951651i,-0.9038816-0.459374i,-0.9799919+0.21963i,-0.6153991+0.7873962i,0.0217085+0.9998512i,0.6541508+0.7653809i,1.003559+0.1780199i,0.9009143-0.5119869i,0.3683423-0.9900635i,-0.3672828-1.013356i,-0.9573763-0.5394997i,-1.095036+0.2246439i,-0.684039+0.9033871i,0.08713951+1.140329i,0.8268307+0.7971295i,1.146349+0.04307194i,0.8763606-0.7281076i,0.1639924-1.113116i,-0.6097211-0.9211777i,-1.043231-0.2731823i,-0.9321973+0.4762201i,-0.3675091+0.9412068i,0.333697+0.9106443i,0.812691+0.4433122i,0.8580802-0.189018i,0.4969043-0.663822i,-0.04902938-0.7764598i},
		{-0.09169974-0.9993682i,-0.6459005-0.7235904i,-0.9285673-0.1977645i,-0.8590239+0.3856622i,-0.4638577+0.8231209i,0.1230896+0.9482275i,0.6833158+0.6920718i,0.9821573+0.1330227i,0.8720956-0.5089278i,0.3770435-0.95548i,-0.3011074-0.9988191i,-0.8682066-0.6053495i,-1.071997+0.06424914i,-0.8145263+0.7261279i,-0.1928811+1.094753i,0.539871+0.999649i,1.071485+0.4572553i,1.153342-0.3228408i,0.7130205-1.005911i,-0.08867099-1.266049i,-0.8999378-0.9439107i,-1.327523-0.151043i,-1.13595+0.7537401i,-0.3880593+1.329109i,0.5669895+1.279652i,1.266125+0.6175104i,0.836726-1.139542i,-0.07961065-1.411521i,-0.9564273-1.043356i,-1.405845-0.2075391i,-1.233515+0.7289627i,-0.5071319+1.360319i,0.4723158+1.40067i,1.280426+0.8024886i,1.5357-0.2019963i,1.076122-1.169526i,0.06852414-1.628206i,-1.028732-1.312407i,-1.668663-0.3292561i,-1.499821+0.8579834i,-0.573854+1.65076i,0.6579+1.63212i,1.573175+0.7985754i,1.708181-0.4317191i,1.000519-1.440211i,-0.186586-1.730656i,-1.261085-1.175845i,-1.70397-0.06631075i,-1.31868+1.0481i,-0.3128891+1.63237i,0.8142714+1.421154i,1.51871+0.5383022i},
		{0.4955537+0.2949728i,0.5979272-0.1266658i,0.3729206-0.5162138i,-0.06536379-0.6519367i,-0.4858612-0.4594291i,-0.6791461-0.03841143i,-0.5589167+0.4100551i,-0.1807937+0.6875274i,0.2995218+0.6723008i,0.6849216+0.3519556i,0.7956823-0.1678424i,0.5375202-0.6766733i,-0.02860828-0.9203759i,-0.6641616-0.7210844i,-1.034325-0.1071885i,-0.8871942+0.6446355i,-0.2328406+1.124523i,0.6123657+1.023981i,1.179755+0.34629i,1.124783-0.560717i,0.4491809-1.192895i,-0.4844829-1.188399i,-1.162154-0.5450011i,-1.218034+0.3817728i,-0.6369607+1.090998i,0.2549194+1.219387i,1.198553-0.1102165i,0.8113901-0.8593704i,0.04332965-1.160376i,-0.718037-0.8881593i,-1.107707-0.195759i,-0.9510111+0.5711438i,-0.3378448+1.041643i,0.4250144+0.9944049i,0.9624917+0.462221i,1.014176-0.284341i,0.5637075-0.8709801i,-0.153028-1.008283i,-0.769179-0.6389062i,-0.9767911+0.03510113i,-0.6853946+0.6607686i,-0.06478711+0.921188i,0.5505455+0.700977i,0.8434197+0.1415388i,0.6834011-0.4433725i,0.1904731-0.745089i,-0.3430024-0.6307491i,-0.6272183-0.2085784i,-0.5424255+0.251264i,-0.1956769+0.4907397i,0.1679876+0.4203953i,0.3375792+0.1550066i},
		{-0.02447586+0.5629004i,0.3410398+0.4346806i,0.525574+0.1089581i,0.4577937-0.2412321i,0.1991726-0.4551899i,-0.1143347-0.464287i,-0.3573219-0.2982125i,-0.4614683-0.03560106i,-0.4070295+0.2421916i,-0.1994889+0.4571716i,0.1229079+0.5225378i,0.4570941+0.3638727i,0.6368399-0.01267818i,0.5130452-0.4626357i,0.07823063-0.7379881i,-0.4699892-0.6321245i,-0.812203-0.1448685i,-0.7102411+0.4708636i,-0.1885635+0.8469951i,0.4547172+0.7429025i,0.8343039+0.216126i,0.7328105-0.4118881i,0.2374893-0.7727284i,-0.3367085-0.688861i,-0.668166-0.2624679i,-0.6235984+0.2296669i,0.09795696+0.5498683i,0.3816853+0.343982i,0.4776431+0.04576128i,0.3968205-0.2309173i,0.1860281-0.4119274i,-0.09296884-0.446647i,-0.3522924-0.3078977i,-0.4819411-0.02458065i,-0.3999495+0.2940745i,-0.1196622+0.4922476i,0.2307632+0.4561792i,0.4708793+0.1946215i,0.4763334-0.1567593i,0.2540572-0.416441i,-0.06962292-0.4647517i,-0.3328203-0.3023804i,-0.4282343-0.02885688i,-0.3419121+0.2277917i,-0.1330151+0.3737172i,0.110807+0.3720938i,0.3065259+0.2348528i,0.3899695+0.009243674i,0.3261592-0.229715i,0.1255753-0.3916474i,-0.1445757-0.4004513i,-0.3741186-0.2339368i},
		{0.8481328+0.6688183i,1.037028-0.05627411i,0.7107623-0.6913738i,0.08275124-0.9365944i,-0.5111123-0.7237987i,-0.8022112-0.2161157i,-0.7098749+0.3148181i,-0.3394549+0.6413299i,0.1116053+0.6712884i,0.4624565+0.4475266i,0.6102741+0.08837193i,0.5344679-0.2744302i,0.2746777-0.5287777i,-0.08577529-0.5942829i,-0.4284589-0.4374211i,-0.6215087-0.09579952i,-0.5680542+0.310913i,-0.2637112+0.6119636i,0.1780457+0.6600478i,0.56345+0.4126227i,0.7093632-0.03249107i,0.5384122-0.4762776i,0.1220539-0.714667i,-0.3534948-0.638051i,-0.677274-0.2806864i,-0.7094584+0.2007738i,0.02596592+0.7513771i,0.4909097+0.5854325i,0.763288+0.1615874i,0.7177358-0.3542598i,0.3518664-0.7453511i,-0.1983438-0.8275444i,-0.6983523-0.5349815i,-0.9088674+0.03067468i,-0.7018861+0.623643i,-0.1416657+0.9569028i,0.5230849+0.8449412i,0.9683496+0.3123971i,0.9583155-0.3990332i,0.4762552-0.9416434i,-0.2543882-1.038221i,-0.8771303-0.6290346i,-1.082986+0.09272825i,-0.7674662+0.7771758i,-0.08150956+1.09296i,0.6461695+0.8889637i,1.07026+0.2628643i,0.9913-0.4903783i,0.4447883-1.018367i,-0.3176098-1.072297i,-0.9416282-0.6197616i,-1.129609+0.1366859i},
		{-0.7720377+0.1418371i,-0.5148974+0.5992295i,-0.02332715+0.795994i,0.4882579+0.6385579i,0.7904435+0.1883563i,0.739579-0.3597316i,0.345928-0.7577992i,-0.2212873-0.8141823i,-0.7007731-0.487383i,-0.8577111+0.08097307i,-0.6037619+0.6212172i,-0.05435825+0.8649601i,0.519578+0.6874068i,0.8312972+0.1803389i,0.7336267-0.3952331i,0.2955825-0.7542596i,-0.247654-0.7418537i,-0.6350893-0.4011652i,-0.7158445+0.07802112i,-0.49922+0.4796346i,-0.1092803+0.662772i,0.298212+0.5910848i,0.5914135+0.305863i,0.6756257-0.1043307i,0.4996277-0.5099413i,0.08745952-0.7483284i,-0.8015316-0.2640508i,-0.8212199+0.3354523i,-0.4159218+0.8258246i,0.2427717+0.9228938i,0.8122688+0.5383617i,0.9741436-0.1420079i,0.6314483-0.7548268i,-0.02900362-0.9737486i,-0.6523037-0.698823i,-0.9261811-0.09839772i,-0.7456557+0.509227i,-0.2386298+0.8402028i,0.3353962+0.77643i,0.7266411+0.3857299i,0.7932184-0.1442193i,0.5299323-0.5959975i,0.04969369-0.7949544i,-0.4565602-0.659361i,-0.777885-0.2330101i,-0.7623278+0.3135096i,-0.3955625+0.737009i,0.1691693+0.829569i,0.6680068+0.5311971i,0.8558038-0.02418437i,0.6374853-0.5690208i,0.1208766-0.8402331i},
		{0.3249444+0.3416522i,0.4329422+0.1034467i,0.4079919-0.138953i,0.2719347-0.3331702i,0.05333678-0.4392211i,-0.2067057-0.4190283i,-0.4380913-0.2460827i,-0.5420844+0.06124743i,-0.4305922+0.4085065i,-0.09359151+0.6368167i,0.3537024+0.5962797i,0.6972575+0.2484191i,0.7325547-0.2751399i,0.3959787-0.7168658i,-0.1725268-0.8310264i,-0.6904305-0.5321875i,-0.8872777+0.04496105i,-0.6559561+0.6161064i,-0.1072285+0.9015968i,0.4968393+0.7678788i,0.8783955+0.2806473i,0.8682901-0.3406111i,0.4677436-0.8244873i,-0.1593134-0.9554247i,-0.7467934-0.6569734i,-1.024407-0.0334842i,-0.2252225+1.067528i,0.5366529+0.9858603i,1.075845+0.4066753i,1.10049-0.4048315i,0.5731774-1.041658i,-0.2521744-1.172233i,-0.9611015-0.7243736i,-1.201149+0.07696348i,-0.8625888+0.8360119i,-0.1192435+1.192705i,0.6744069+0.9903732i,1.155736+0.3300332i,1.108063-0.4893618i,0.5439581-1.099647i,-0.2965563-1.212195i,-1.031724-0.7459176i,-1.295339+0.1111927i,-0.9197556+0.9554067i,-0.0548212+1.347447i,0.8700178+1.051337i,1.358321+0.1946194i,1.131213-0.7719897i,0.3066063-1.320429i,-0.6571375-1.15611i,-1.231202-0.3931998i,-1.128875+0.5231897i},
		{0.07393043-0.7677563i,-0.459564-0.5830629i,-0.698984-0.1015497i,-0.5450968+0.3792287i,-0.1351316+0.6019834i,0.2755876+0.4955442i,0.4847827+0.1787467i,0.4431941-0.1535569i,0.2334918-0.3583486i,-0.02199818-0.3958398i,-0.234752-0.2966672i,-0.3585874-0.1074644i,-0.3619182+0.1250619i,-0.2223496+0.3328642i,0.03748267+0.4203532i,0.3163916+0.3114985i,0.4623732+0.02380767i,0.3669935-0.3041177i,0.05885974-0.4797398i,-0.2898247-0.3853558i,-0.4673433-0.07120708i,-0.3677619+0.2679463i,-0.06644498+0.4242238i,0.2350858+0.3193017i,0.3536275+0.05057412i,0.2475532-0.1908478i,-0.1378275-0.1609126i,-0.1583662-0.003539531i,-0.06712882+0.08086233i,0.02346153+0.05112206i,0.02585708-0.02763278i,-0.05165241-0.05295745i,-0.1190814+0.02142972i,-0.08628556+0.1437791i,0.05630139+0.2045481i,0.2209966+0.1247984i,0.2824382-0.07556222i,0.1693151-0.2806861i,-0.07749216-0.351684i,-0.3214063-0.2199397i,-0.4114208+0.0615285i,-0.276207+0.3425115i,0.0279003+0.4609753i,0.3440268+0.3373842i,0.5000945+0.02256358i,0.4027095-0.3268102i,0.08834255-0.5292261i,-0.2928702-0.4713877i,-0.5496293-0.1668899i,-0.5422806+0.2456143i,-0.2542354+0.5631509i,0.1897963+0.6133794i},
		{0.5895077+0.4234125i,0.757365-0.08768017i,0.5212811-0.601028i,-0.02346888-0.8241822i,-0.5920768-0.6080217i,-0.8665343-0.04806678i,-0.6823809+0.5591927i,-0.1285141+0.8829303i,0.5017855+0.7454176i,0.8753583+0.2182041i,0.7989038-0.4228204i,0.3148866-0.8481349i,-0.3283674-0.8435957i,-0.8061204-0.413339i,-0.8780355+0.2261644i,-0.5060935+0.7529497i,0.1236805+0.8983551i,0.6899266+0.5850705i,0.8991966-0.02634647i,0.6435889-0.6159875i,0.06344073-0.8754675i,-0.5287686-0.6780787i,-0.8243452-0.1461955i,-0.6889094+0.4264121i,-0.2241443+0.7468293i,0.309474+0.6800352i,0.6575463-0.1822313i,0.3719402-0.5376452i,-0.052862-0.6275893i,-0.4256685-0.4387478i,-0.5943387-0.067669i,-0.4934541+0.3224081i,-0.1677561+0.5587029i,0.2350157+0.5277095i,0.5182166+0.2377148i,0.5332839-0.1663584i,0.2719821-0.4681835i,-0.1149535-0.5044755i,-0.403713-0.2702746i,-0.440033+0.07622239i,-0.2373394+0.3219857i,0.04464052+0.3439639i,0.22399+0.1813824i,0.2249427-0.0160681i,0.1116744-0.1151341i,0.01050813-0.09447609i,-0.004499561-0.03609027i,0.03562323-0.03239239i,0.04065712-0.09705618i,-0.04393629-0.1556915i,-0.1793649-0.1175696i,-0.2598709+0.03836921i},
		{-0.0947725-0.731645i,-0.5812075-0.4943339i,-0.7798511+0.02905531i,-0.5604168+0.555829i,-0.03634016+0.7889861i,0.5009214+0.6013064i,0.761362+0.1077179i,0.6242443-0.4166028i,0.1882805-0.7045376i,-0.3087079-0.6364532i,-0.6286576-0.2766102i,-0.6425301+0.1871746i,-0.366821+0.5434031i,0.06333682+0.6431115i,0.45556+0.4502403i,0.6351655+0.05293085i,0.5179687-0.3679597i,0.1552653-0.613701i,-0.2800425-0.5633985i,-0.5742019-0.2414273i,-0.5838202+0.1897244i,-0.3123683+0.5148723i,0.09579622+0.5806028i,0.4378687+0.3701977i,0.5579534+9.052807e-05i,0.4158882-0.3490747i,-0.2564993-0.4476438i,-0.4724636-0.1736532i,-0.4606081+0.1678829i,-0.2341577+0.4135064i,0.08838221+0.4481056i,0.3414526+0.2670822i,0.4040368-0.01919725i,0.2696456-0.2523362i,0.04232078-0.3256049i,-0.1430875-0.2445048i,-0.2153864-0.1010617i,-0.1992058+0.01408293i,-0.1615721+0.08193601i,-0.1291203+0.1440329i,-0.06141943+0.2253948i,0.08891308+0.275591i,0.2893029+0.1993422i,0.4106111-0.0403792i,0.3180135-0.3451362i,0.000388895-0.5186903i,-0.3814285-0.4083611i,-0.5871618-0.03776148i,-0.4679802+0.3864137i,-0.07997841+0.6092813i,0.351515+0.501136i,0.585869+0.1360936i},
		{-0.3511508-0.1036795i,-0.3864976+0.1298753i,-0.2562815+0.3786327i,0.04562576+0.5072794i,0.4012014+0.3904671i,0.6049286+0.02754035i,0.4959313-0.4110472i,0.09036494-0.6679489i,-0.3993994-0.5680597i,-0.6894912-0.1474973i,-0.6082018+0.3594913i,-0.205066+0.668935i,0.2890292+0.622265i,0.6117557+0.2678644i,0.6181359-0.1913574i,0.337095-0.5277471i,-0.07494419-0.6027956i,-0.4281936-0.4094108i,-0.5800694-0.04863622i,-0.4775516+0.32291i,-0.1675587+0.5497153i,0.2180845+0.532333i,0.5080921+0.272515i,0.5653052-0.1155729i,0.3585169-0.4501177i,-0.01378991-0.5711889i,-0.5492887-0.09019477i,-0.4756334+0.2724499i,-0.1981487+0.5034467i,0.1557914+0.5140577i,0.4405991+0.3086745i,0.5435019-0.02960633i,0.4164416-0.3684688i,0.09598799-0.5640355i,-0.2932144-0.5129443i,-0.5723534-0.2110233i,-0.5885404+0.2178555i,-0.3080826+0.5628238i,0.1420161+0.6350797i,0.5296445+0.3838022i,0.6482198-0.06305816i,0.4389712-0.4693442i,0.0218133-0.6286269i,-0.3827402-0.4772191i,-0.5816433-0.1132502i,-0.5027778+0.2756256i,-0.2081269+0.5155215i,0.1578876+0.5181376i,0.4388254+0.2992222i,0.5224639-0.04128468i,0.3764275-0.3578822i,0.0634267-0.5113862i},
		{0.4099434+0.5573251i,0.6578489+0.1689291i,0.6028696-0.2799976i,0.2815348-0.583239i,-0.1461596-0.6099656i,-0.4784771-0.367116i,-0.5751666+0.01123383i,-0.4228937+0.3432164i,-0.1240198+0.4978848i,0.1784527+0.4497946i,0.3816544+0.2599106i,0.4520968+0.01187584i,0.3961475-0.2345146i,0.2197478-0.4360171i,-0.06821226-0.5300692i,-0.4076337-0.4329323i,-0.655464-0.1036852i,-0.6361291+0.370808i,-0.2682992+0.7625209i,0.3258086+0.813217i,0.8391091+0.4158674i,0.9500747-0.2691495i,0.5413719-0.8731459i,-0.1947775-1.037212i,-0.8554415-0.644873i,-1.071468+0.09630939i,-0.03032905+1.05628i,0.6565194+0.8039956i,1.000429+0.1846585i,0.8707168-0.488173i,0.3604957-0.915628i,-0.2920906-0.9327829i,-0.8136228-0.5462829i,-0.9881358+0.08553232i,-0.7268498+0.7036271i,-0.1150444+1.030625i,0.5907863+0.8861445i,1.051486+0.2966769i,1.010195-0.4760336i,0.4514661-1.04169i,-0.3572756-1.089514i,-0.9944798-0.5767052i,-1.120341+0.2314442i,-0.6736931+0.9073252i,0.09670456+1.104486i,0.7827718+0.7457416i,1.047963+0.04589602i,0.7960868-0.6279959i,0.1918363-0.9589394i,-0.4532879-0.8263859i,-0.8456885-0.3337096i,-0.836225+0.2700088i},
		{-0.5860729+0.1549713i,-0.366487+0.4465394i,-0.04534159+0.5561501i,0.2694483+0.4808443i,0.4987065+0.2543097i,0.5794756-0.07280426i,0.459785-0.4185941i,0.1316103-0.6565393i,-0.3192868-0.6493618i,-0.7054964-0.3333789i,-0.8117985+0.2028539i,-0.5242137+0.7201992i,0.0704147+0.9381506i,0.6959813+0.6981512i,1.022428+0.07710969i,0.8512579-0.6305073i,0.2381908-1.061728i,-0.5242319-0.9810365i,-1.055952-0.4100612i,-1.085779+0.3804314i,-0.5884092+1.007275i,0.2048915+1.164084i,0.9195949+0.7674418i,1.214666-0.005393231i,0.9402494-0.7981176i,0.2088492-1.236454i,-1.228855-0.4276978i,-1.237147+0.4797826i,-0.6405313+1.192033i,0.2981221+1.346543i,1.127021+0.836674i,1.421103-0.1125914i,1.005904-1.035629i,0.06841881-1.455417i,-0.9201838-1.139106i,-1.445382-0.2373055i,-1.229047+0.7832524i,-0.3879814+1.388624i,0.6275168+1.271182i,1.285022+0.5164023i,1.264288-0.4559158i,0.6207043-1.13725i,-0.2720608-1.210747i,-0.9511713-0.7008701i,-1.11632+0.08080025i,-0.7579814+0.7358824i,-0.1112851+0.9893875i,0.5032678+0.7932549i,0.8397613+0.2956974i,0.8071358-0.2670333i,0.4623269-0.6772918i,-0.04131741-0.7987299i},
		{0.1038275-1.179985i,-0.6609478-0.9884639i,-1.144515-0.3567784i,-1.125697+0.4504842i,-0.5918272+1.076194i,0.2340053+1.221661i,0.9737033+0.7958251i,1.267445-0.01845256i,0.9596894-0.8360317i,0.1914135-1.258018i,-0.6641957-1.078547i,-1.193008-0.391652i,-1.150855+0.4624057i,-0.5777738+1.076336i,0.2382586+1.176978i,0.9149449+0.7439485i,1.157848-0.001902634i,0.8831245-0.7171502i,0.2355193-1.094246i,-0.4912151-0.9880385i,-0.9869562-0.4635963i,-1.05275+0.244648i,-0.6739526+0.8377162i,-0.01560443+1.074127i,0.6505083+0.8607017i,1.052712+0.2822483i,0.5464982-0.9926022i,-0.1949244-1.148619i,-0.9003267-0.7972975i,-1.243076-0.04891625i,-1.021405+0.783066i,-0.2842249+1.298252i,0.6468118+1.204558i,1.307664+0.4976293i,1.333528-0.4951161i,0.6792441-1.264516i,-0.3289037-1.398553i,-1.16366-0.8240383i,-1.395421+0.1474671i,-0.9319377+1.00382i,-0.04964363+1.326535i,0.789366+1.0066i,1.200571+0.2604565i,1.05323-0.5309787i,0.4788941-1.030736i,-0.2448692-1.076119i,-0.832081-0.6942101i,-1.076697-0.04936688i,-0.8918551+0.6186053i,-0.3317521+1.052731i,0.4009634+1.055637i,0.9989551+0.5850127i},
		{1.772013+0.195344i,1.48286-0.9862117i,0.4996472-1.702874i,-0.7095187-1.613682i,-1.565461-0.7691308i,-1.668272+0.4122022i,-0.9959168+1.360076i,0.09965096+1.644065i,1.090869+1.176558i,1.544729+0.2223299i,1.311091-0.7673781i,0.545646-1.379891i,-0.4051047-1.401081i,-1.163495-0.8584186i,-1.447333+0.02466908i,-1.144585+0.9111729i,-0.3504405+1.44811i,0.6373695+1.385001i,1.39855+0.697073i,1.559974-0.3530747i,0.9957776-1.291641i,-0.06483629-1.652668i,-1.120561-1.233439i,-1.65249-0.2246553i,-1.404475+0.8817463i,-0.5146232+1.557522i,1.375248+0.8035477i,1.557286-0.219i,1.086681-1.121358i,0.1762766-1.553752i,-0.8168889-1.354572i,-1.507096-0.5838879i,-1.59315+0.4844917i,-0.9770396+1.421711i,0.1448083+1.785408i,1.298399+1.330264i,1.914279+0.18611i,1.622951-1.135337i,0.4977706-1.9659i,-0.9302075-1.841634i,-1.932367-0.7845373i,-1.980552+0.6827383i,-1.043712+1.81324i,0.3968015+2.040587i,1.615461+1.273198i,2.027089-0.08137408i,1.469599-1.351817i,0.2499289-1.947404i,-1.038504-1.627405i,-1.808925-0.5805697i,-1.739465+0.692578i,-0.8934769+1.618191i},
		{-0.3713554+0.1514961i,-0.1864261+0.3841336i,0.1250881+0.4267352i,0.3870622+0.2368778i,0.4471985-0.0820815i,0.2783075-0.3517347i,-0.01520171-0.4371775i,-0.2795019-0.3194003i,-0.4058312-0.07804188i,-0.3671208+0.1782073i,-0.1937257+0.364103i,0.06038644+0.4238626i,0.3213531+0.3217272i,0.48603+0.05980058i,0.4477603-0.2826404i,0.1699609-0.5445407i,-0.2475199-0.5566386i,-0.5871279-0.2621499i,-0.6357912+0.2107246i,-0.3340569+0.6017416i,0.1644781+0.6779945i,0.579999+0.3884142i,0.6825451-0.1016521i,0.4309249-0.5196214i,-0.01871456-0.6546096i,-0.4251265-0.4674768i,-0.5016054+0.3066143i,-0.1947678+0.5375617i,0.1770896+0.5330452i,0.4658939+0.3071465i,0.557807-0.04921487i,0.4078009-0.3923175i,0.06746817-0.5696872i,-0.3174543-0.4869926i,-0.5626294-0.168014i,-0.5392919+0.2395736i,-0.2518859+0.533083i,0.1567151+0.564326i,0.4815219+0.3213232i,0.5659003-0.06879954i,0.3789656-0.4125892i,0.02109618-0.5498808i,-0.3338151-0.4256665i,-0.5216377-0.1068039i,-0.4593264+0.2533571i,-0.1804818+0.4839794i,0.1775562+0.4751875i,0.4363173+0.2348925i,0.4674855-0.1091794i,0.2657222-0.3753591i,-0.04699069-0.4318565i,-0.2970832-0.2730753i},
		{-0.3339339+0.4146136i,-0.03436926+0.5104557i,0.2603302+0.4266819i,0.454368+0.1914511i,0.4739012-0.1132952i,0.3078321-0.367411i,0.02813029-0.4668685i,-0.2432145-0.3819636i,-0.4035054-0.1684247i,-0.4183491+0.07954757i,-0.3118315+0.289025i,-0.1196807+0.4251051i,0.1346935+0.4594219i,0.4107422+0.3441218i,0.6072677+0.0448873i,0.578499-0.381225i,0.2351046-0.7463331i,-0.3382536-0.805465i,-0.8641303-0.4242279i,-1.008927+0.2792907i,-0.6050101+0.9476095i,0.1992639+1.176832i,0.9863625+0.7745947i,1.302634-0.09330881i,0.932913-0.9751275i,0.0404277-1.385092i,-1.426652-0.1989102i,-1.215043+0.8119385i,-0.3739217+1.431105i,0.6763202+1.332453i,1.401415+0.5534575i,1.424757-0.5185785i,0.7243297-1.338528i,-0.3476107-1.482945i,-1.241564-0.8750965i,-1.49928+0.1693127i,-0.9983379+1.109286i,-0.01323836+1.469805i,0.9422463+1.091542i,1.395929+0.1982929i,1.156366-0.7447646i,0.3832838-1.284506i,-0.5259145-1.196594i,-1.146317-0.5629235i,-1.215582+0.2990273i,-0.7283613+0.9934409i,0.07972885+1.214136i,0.8363534+0.8678499i,1.189626+0.1169571i,0.9688333-0.681703i,0.2795638-1.136704i,-0.5315071-1.020849i},
		{-0.07620891-0.04032169i,-0.1499724+0.03835686i,-0.1235922+0.1839414i,0.03838883+0.2843745i,0.2657689+0.2294544i,0.4142653-0.004806254i,0.3534791-0.3196879i,0.06003996-0.5347131i,-0.3440154-0.4899827i,-0.6403819-0.1529756i,-0.6328115+0.3374375i,-0.270385+0.7262462i,0.2994081+0.7760448i,0.7883671+0.4082506i,0.9144096-0.2307356i,0.5619009-0.8244701i,-0.1341015-1.043321i,-0.8341254-0.7256452i,-1.158615+0.01425717i,-0.8925464+0.8184732i,-0.1222601+1.256164i,0.779594+1.054545i,1.331607+0.2678868i,1.203035-0.7197535i,0.4150935-1.380403i,-0.6408041-1.329827i,-1.428275+0.5439782i,-0.6903654+1.382111i,0.4301748+1.494248i,1.330674+0.8112849i,1.526653-0.3006606i,0.9192525-1.245547i,-0.1579451-1.52733i,-1.131316-1.014012i,-1.50031+0.006500559i,-1.094934+0.995255i,-0.1469775+1.450642i,0.8464055+1.160159i,1.383128+0.2939423i,1.20625-0.6942534i,0.4249743-1.301337i,-0.5473542-1.228533i,-1.207162-0.5311448i,-1.222031+0.4122522i,-0.6054114+1.101066i,0.2929697+1.182747i,0.982879+0.6436746i,1.10892-0.191163i,0.6452222-0.8529065i,-0.1068494-1.001878i,-0.712968-0.6124707i,-0.8662456+0.03943637i},
		{-2.200502-0.1297174i,-1.816005+1.30777i,-0.5887592+2.193771i,0.947461+2.101405i,2.096008+1.038928i,2.312733-0.5372362i,1.463282-1.914741i,-0.09600201-2.443636i,-1.659681-1.843374i,-2.488128-0.3559676i,-2.161074+1.340985i,-0.7995153+2.441205i,0.96846+2.400958i,2.300393+1.218457i,2.552533-0.551909i,1.600283-2.067664i,-0.1023947-2.611573i,-1.750994-1.935599i,-2.580121-0.3662156i,-2.216644+1.364867i,-0.8361808+2.465171i,0.9293717+2.435584i,2.276448+1.285944i,2.583359-0.4679704i,1.691608-2.024046i,-0.004475749-2.649683i,-2.624404-0.4399653i,-2.280131+1.361281i,-0.8490487+2.499943i,0.9636233+2.429852i,2.274089+1.212072i,2.474046-0.5304506i,1.523138-1.952272i,-0.07159562-2.41662i,-1.548515-1.779167i,-2.268554-0.3982912i,-1.977455+1.084615i,-0.8592971+2.045059i,0.5876461+2.113675i,1.762303+1.287425i,2.181066-0.08637023i,1.657241-1.434677i,0.3925442-2.171141i,-1.07334-1.945374i,-2.075762-0.8275231i,-2.133955+0.6863675i,-1.203613+1.889944i,0.2802916+2.213095i,1.614488+1.512294i,2.181765+0.1376502i,1.749866-1.2576i,0.5574247-2.046954i},
		{-0.4315928+0.1887542i,-0.211968+0.4073029i,0.08199926+0.4400584i,0.3249912+0.2953347i,0.4341817+0.04421803i,0.3817724-0.2224309i,0.1833661-0.4183005i,-0.1079279-0.4687984i,-0.3960995-0.3268923i,-0.5520349-0.009801637i,-0.4650861+0.3698841i,-0.1227488+0.6255165i,0.3401941+0.5881902i,0.6823904+0.2245617i,0.687571-0.3058474i,0.3111531-0.715894i,-0.2644063-0.7567399i,-0.7204303-0.3808643i,-0.7920455+0.212962i,-0.4341826+0.6925305i,0.1490619+0.7929285i,0.6315224+0.4731085i,0.7617247-0.07157034i,0.5003387-0.5397822i,0.01871966-0.7030928i,-0.4225425-0.5184552i,-0.5292836+0.2873133i,-0.2238086+0.5288798i,0.1430396+0.5335225i,0.4267538+0.3271034i,0.5306709+0.0008545332i,0.4214061-0.3226738i,0.1353948-0.5192178i,-0.2212776-0.4994173i,-0.4970211-0.2528475i,-0.5546588+0.1258174i,-0.3473024+0.4617882i,0.03818633+0.58216i,0.4115843+0.4150186i,0.5789676+0.04088813i,0.4545288-0.3453068i,0.1115263-0.5444495i,-0.2630803-0.4665212i,-0.4803814-0.1742998i,-0.4535284+0.1665366i,-0.2298037+0.3908187i,0.05895103+0.4194624i,0.281763+0.2782473i,0.369042+0.05479182i,0.3191159-0.1606429i,0.1684243-0.3071689i,-0.0356416-0.3509591i},
		{-0.01943507+0.3161805i,0.1778095+0.3165239i,0.374809+0.1719706i,0.4464827-0.1061571i,0.3039594-0.3964334i,-0.02051081-0.5324779i,-0.3740881-0.4151354i,-0.5722774-0.08362789i,-0.5085554+0.3056054i,-0.2086199+0.5691823i,0.1945591+0.5886095i,0.530684+0.3529237i,0.6587886-0.04988712i,0.5103471-0.4662549i,0.1157267-0.7198986i,-0.3849224-0.6705742i,-0.7692621-0.288263i,-0.8208393+0.2933187i,-0.454901+0.8011348i,0.1947316+0.9482747i,0.8081837+0.605992i,1.042269-0.0893546i,0.7359862-0.7835487i,0.02444916-1.096197i,-0.7228495-0.8431749i,-1.108097-0.1483556i,-0.2823876+1.080224i,0.495286+0.9937679i,1.017749+0.423872i,1.04039-0.3392319i,0.567349-0.9271082i,-0.1666383-1.068279i,-0.814571-0.7054017i,-1.075988-0.01279361i,-0.8300704+0.6854436i,-0.1902715+1.061482i,0.5440696+0.9343425i,1.023332+0.3586021i,1.013221-0.3944727i,0.5121161-0.9618135i,-0.2412549-1.064056i,-0.8794554-0.6460209i,-1.086106+0.09027674i,-0.7555866+0.7808132i,-0.05126499+1.079598i,0.6715267+0.8356244i,1.044724+0.1755105i,0.8806002-0.5570033i,0.2752143-0.9810452i,-0.4412161-0.8854714i,-0.88762-0.3452281i,-0.8470386+0.3260873i},
		{0.8866257+0.3847781i,0.9341717-0.276132i,0.5422699-0.8179267i,-0.1116646-0.9813489i,-0.7206904-0.6828363i,-0.9949457-0.05938443i,-0.8027791+0.5957888i,-0.2336741+0.9747042i,0.4468935+0.9004458i,0.9235647+0.4067417i,0.9749996-0.2807527i,0.5722173-0.8466001i,-0.1065209-1.025173i,-0.7494957-0.7218571i,-1.048526-0.06568499i,-0.8464835+0.6371213i,-0.2265549+1.041545i,0.5127026+0.9375887i,1.000604+0.3691142i,0.9891041-0.3778786i,0.4895172-0.9234746i,-0.2336109-0.9987537i,-0.8108664-0.5868604i,-0.9685221+0.08159339i,-0.6621013+0.667411i,-0.07438131+0.9040477i,0.8131024+0.227655i,0.7500092-0.3251187i,0.3689071-0.7036237i,-0.1501446-0.7606161i,-0.5819201-0.487379i,-0.7442449-0.01206368i,-0.5728256+0.451622i,-0.1534408+0.6959825i,0.3137037+0.6176398i,0.6118547+0.2700223i,0.6185134-0.1675527i,0.3617692-0.4907293i,-0.01270954-0.577123i,-0.3356952-0.4313241i,-0.4996241-0.1493269i,-0.4821257+0.1544327i,-0.3138605+0.3950985i,-0.04159727+0.5165139i,0.2734262+0.4727798i,0.5344445+0.2389504i,0.6154842-0.1432196i,0.4244805-0.5332273i,-0.01042374-0.7307104i,-0.508362-0.5874562i,-0.8087233-0.1220428i,-0.7209279+0.4551821i},
		{-0.370831+0.04925277i,-0.260841+0.2949996i,-0.00438568+0.4085066i,0.2689977+0.3209958i,0.4193094+0.07330474i,0.3744117-0.212974i,0.1592695-0.4059769i,-0.1298784-0.4245531i,-0.3744609-0.2609004i,-0.473929+0.02693602i,-0.3728501+0.3320274i,-0.08571727+0.52242i,0.2850393+0.4862332i,0.5665454+0.1972737i,0.5902593-0.2371462i,0.2986954-0.59997i,-0.188474-0.6746134i,-0.6151355-0.3846056i,-0.7318594+0.1360817i,-0.4540422+0.6055096i,0.07552972+0.7591116i,0.5677283+0.5098499i,0.7584444-0.003033121i,0.5569285-0.5029225i,0.08252402-0.735908i,-0.4167847-0.5999259i,-0.6411432+0.3183347i,-0.2779931+0.6565789i,0.2177707+0.6793419i,0.6120436+0.372179i,0.7098375-0.1240808i,0.4513411-0.5670335i,-0.04315614-0.7258332i,-0.519338-0.5076769i,-0.7205413-0.02303379i,-0.5369211+0.4648311i,-0.07600067+0.6893842i,0.3995797+0.5390161i,0.6315603+0.1192474i,0.5175584-0.3218679i,0.1562783-0.5504805i,-0.2334575-0.4782614i,-0.4529647-0.1888065i,-0.4269868+0.1396719i,-0.2157691+0.3475007i,0.04829222+0.3680244i,0.2421645+0.2334737i,0.3031916+0.03234983i,0.2368093-0.1428957i,0.09543937-0.232029i,-0.0526777-0.2210919i,-0.1529785-0.137223i},
		{-0.6383913-0.9086924i,-1.045233-0.2755437i,-0.9503873+0.4433356i,-0.4394616+0.9159696i,0.2265349+0.9584472i,0.752703+0.5918996i,0.9357342-0.0001318233i,0.7255108-0.5664652i,0.2223577-0.8844502i,-0.36813-0.8318321i,-0.8057688-0.4274792i,-0.9022409+0.167268i,-0.6033075+0.6999449i,-0.02858621+0.9291745i,0.5668673+0.740674i,0.9073597+0.2141435i,0.8339312-0.4068984i,0.3860655-0.83479i,-0.2217712-0.8811421i,-0.7132453-0.5423076i,-0.8837198+0.01529875i,-0.681322+0.5482603i,-0.2062867+0.8456652i,0.3485816+0.8013513i,0.7726187+0.4344467i,0.8999864-0.1252568i,0.109441-0.9740701i,-0.5470294-0.868264i,-1.019919-0.3430695i,-1.051356+0.406794i,-0.5639188+1.03377i,0.2555236+1.197767i,1.012324+0.7617037i,1.298841-0.09782776i,0.928045-0.9532831i,0.06227462-1.348269i,-0.8558082-1.056773i,-1.342535-0.2212317i,-1.144084+0.7208595i,-0.3758211+1.281175i,0.5514207+1.188559i,1.166867+0.5230025i,1.191055-0.3526029i,0.6597552-1.005324i,-0.1316257-1.15444i,-0.8049968-0.7829009i,-1.083182-0.102342i,-0.888932+0.5765666i,-0.3385099+0.9828058i,0.3322203+0.9738896i,0.8592626+0.5649922i,1.033357-0.08475258i},
		{0.6424946-1.074501i,-0.1638884-1.202711i,-0.849736-0.8234949i,-1.156198-0.1283186i,-0.9877181+0.5996687i,-0.4172781+1.082326i,0.3403955+1.124765i,0.9835606+0.684248i,1.222529-0.08531731i,0.9125686-0.8594481i,0.1562316-1.269557i,-0.7078797-1.08996i,-1.257537-0.3790575i,-1.20975+0.5271069i,-0.5809913+1.183233i,0.3178482+1.270782i,1.049314+0.7610578i,1.27619-0.08479703i,0.9176049-0.8639108i,0.1629563-1.231499i,-0.6390805-1.047053i,-1.142751-0.4127327i,-1.143684+0.3886843i,-0.6500568+1.015212i,0.1263166+1.200534i,0.8530334+0.8608937i,1.033669-0.6598471i,0.3890961-1.17102i,-0.4399353-1.160521i,-1.079847-0.6247856i,-1.237513+0.1994279i,-0.8364612+0.9411891i,-0.0530286+1.263904i,0.7623153+1.017411i,1.240885+0.3064825i,1.160523-0.5527083i,0.5487867-1.170359i,-0.3223283-1.258605i,-1.054271-0.7682894i,-1.30546+0.08015855i,-0.9555643+0.8947582i,-0.1664824+1.297357i,0.6950457+1.104603i,1.234362+0.411678i,1.213073-0.4606805i,0.6498771-1.121002i,-0.2005488-1.281555i,-0.9659165-0.8745644i,-1.312041-0.07286444i,-1.077244+0.7804868i,-0.3442678+1.306217i,0.5767908+1.247261i},
		{0.6747669-0.1880101i,0.4099754-0.5523965i,-0.008895274-0.6773184i,-0.4095258-0.5319712i,-0.6463713-0.1847016i,-0.6393222+0.2373095i,-0.3839204+0.5868968i,0.0465749+0.7284905i,0.5038683+0.5775092i,0.7941223+0.1510045i,0.7530317-0.4009948i,0.3447056-0.8294352i,-0.2800862-0.8986553i,-0.8274251-0.5262597i,-1.005066+0.1412927i,-0.690633+0.7826006i,-0.01583514+1.066984i,0.6927527+0.8358703i,1.083844+0.1907969i,0.9620823-0.5602127i,0.3806175-1.05945i,-0.3921817-1.069925i,-1.000699-0.5788786i,-1.159083+0.1999688i,-0.7756791+0.915754i,-0.002700638+1.227254i,1.269989+0.2018782i,1.114597-0.6956081i,0.3855122-1.28144i,-0.5691723-1.231934i,-1.255814-0.5449566i,-1.302291+0.4339724i,-0.6755221+1.189077i,0.2901875+1.321854i,1.080416+0.7760254i,1.291531-0.1385165i,0.8475837-0.9329998i,0.01859203-1.216181i,-0.7538447-0.8921191i,-1.103179-0.1763292i,-0.9110838+0.5528349i,-0.3277336+0.960792i,0.3412142+0.9048051i,0.7968556+0.4646359i,0.8726065-0.1300035i,0.5790216-0.6180871i,0.07121279-0.8135818i,-0.4301381-0.6643641i,-0.7276727-0.2548442i,-0.7165157+0.2382061i,-0.4151545+0.6166061i,0.04784066+0.7339155i},
		{0.06442893-0.05045305i,0.03884792-0.009967023i,0.08826747-0.0005997593i,0.1340648-0.08121293i,0.07942922-0.2115848i,-0.09916557-0.2767236i,-0.3144391-0.1756408i,-0.4148752+0.09032822i,-0.2867753+0.3939855i,0.0548174+0.5456266i,0.4489328+0.4097692i,0.6655663+0.005145067i,0.5398141-0.4786803i,0.08606891-0.7704492i,-0.4826422-0.6709963i,-0.8554696-0.1841234i,-0.7972755+0.460048i,-0.2957931+0.9160411i,0.4103096+0.9134424i,0.9488015+0.4180236i,1.015717-0.3338053i,0.5478358-0.9524686i,-0.2327557-1.101788i,-0.9282129-0.6816056i,-1.170318+0.1118002i,-0.8143575+0.8793773i,0.8106002+0.9394439i,1.249376+0.1600885i,1.048862-0.726616i,0.2933885-1.255257i,-0.6311371-1.134247i,-1.234158-0.4142047i,-1.188326+0.5262077i,-0.5173548+1.18258i,0.412281+1.206449i,1.098433+0.6008609i,1.187712-0.2890224i,0.6657311-0.9823546i,-0.1565943-1.135322i,-0.8386093-0.7149165i,-1.056017+0.01699207i,-0.7517594+0.6752003i,-0.1250457+0.9586781i,0.5030756+0.7784187i,0.8524806+0.261911i,0.7947713-0.3345604i,0.3839116-0.7451054i,-0.1813995-0.7981477i,-0.6414951-0.4808043i,-0.7839942+0.05291924i,-0.5436774+0.5434858i,-0.04521208+0.7472687i},
		{-0.3523819-0.04075787i,-0.3278017+0.202043i,-0.1341225+0.3911797i,0.1589274+0.4083062i,0.4037589+0.2157575i,0.4606824-0.1032881i,0.2876253-0.3860806i,-0.0317642-0.4855958i,-0.3384946-0.3529242i,-0.4869808-0.05596162i,-0.4139661+0.2655559i,-0.1563541+0.4700712i,0.1746497+0.4705471i,0.4393118+0.2624867i,0.5193767-0.07392345i,0.3656021-0.396882i,0.02975256-0.5547616i,-0.3423342-0.4572367i,-0.570303-0.1321133i,-0.5311912+0.2734462i,-0.2316964+0.5610152i,0.1879548+0.5847008i,0.5251291+0.3289006i,0.6184425-0.08551685i,0.4243053-0.4649472i,0.0308415-0.6354238i,-0.6391866-0.1543625i,-0.6030123+0.2977104i,-0.2754829+0.6319951i,0.2068173+0.6761376i,0.6136792+0.3838033i,0.7282295-0.1197221i,0.4704888-0.5815786i,-0.03902446-0.7516597i,-0.5316421-0.5303211i,-0.741477-0.03606633i,-0.5627257+0.4603289i,-0.1085225+0.6971208i,0.3666548+0.5714271i,0.6230004+0.1814755i,0.5628371-0.2536521i,0.2560909-0.5276954i,-0.1286821-0.5437034i,-0.4219759-0.3301021i,-0.518793+0.002404224i,-0.3975515+0.3162317i,-0.113348+0.4893766i,0.2180986+0.4498885i,0.4530161+0.2081644i,0.4781144-0.1310131i,0.2753392-0.4047253i,-0.05413213-0.4753088i},
		{-0.4654379-0.579714i,-0.6462768-0.1533332i,-0.546041+0.2284975i,-0.2937847+0.4453506i,-0.01323188+0.4961059i,0.2380702+0.4224511i,0.4358666+0.2418554i,0.5288323-0.04049848i,0.4385178-0.3669329i,0.1351735-0.5995929i,-0.286199-0.5868527i,-0.6213425-0.2827231i,-0.6761793+0.1871585i,-0.4023546+0.5840077i,0.06256028+0.7035198i,0.4838153+0.4993697i,0.6738268+0.09238431i,0.5814471-0.3249735i,0.2772333-0.5983369i,-0.1195021-0.6553625i,-0.4915186-0.4848655i,-0.7241514-0.1147939i,-0.7018388+0.3674982i,-0.3576645+0.7855718i,0.236984+0.9104974i,0.8323186+0.5901479i,0.7976856-0.8538937i,0.02645142-1.231081i,-0.839537-0.9718277i,-1.316387-0.162074i,-1.110195+0.7813162i,-0.3053712+1.344327i,0.6764616+1.214901i,1.317534+0.4586028i,1.29009-0.5283i,0.6203372-1.243375i,-0.3456027-1.339463i,-1.131472-0.7848828i,-1.364606+0.1406644i,-0.9431653+0.9913089i,-0.07320113+1.364581i,0.8306561+1.084673i,1.336802+0.2839294i,1.199756-0.655215i,0.4820692-1.27875i,-0.4693896-1.281491i,-1.189792-0.6609443i,-1.326524+0.2777056i,-0.8157721+1.072396i,0.0861648+1.334703i,0.9322422+0.9422797i,1.307766+0.09713367i},
		{1.758976+0.05918402i,1.305264-1.075245i,0.2606791-1.5959i,-0.8100408-1.308721i,-1.391619-0.4376972i,-1.267667+0.5393034i,-0.5836609+1.158027i,0.2767718+1.185531i,0.9070098+0.6908353i,1.064732-0.03589948i,0.7518018-0.6488363i,0.1722044-0.9071108i,-0.3915412-0.7613397i,-0.7151871-0.3401032i,-0.7180292+0.1414125i,-0.4642334+0.4936912i,-0.09573354+0.6249803i,0.2507007+0.5439842i,0.4893816+0.3130928i,0.5800593+0.002172036i,0.5019112-0.3209775i,0.2507669-0.5727817i,-0.1299567-0.6515367i,-0.5210304-0.480353i,-0.7506445-0.07505312i,-0.6780484+0.4222745i,0.2737818+0.8349518i,0.7616925+0.5064729i,0.9473125-0.07464451i,0.7284397-0.6674041i,0.1720597-1.016354i,-0.5128141-0.9523535i,-1.046798-0.4577554i,-1.174055+0.3100393i,-0.7681289+1.044549i,0.07489866+1.385609i,1.014309+1.084402i,1.575199+0.1759858i,1.385889-0.9578907i,0.4280668-1.728452i,-0.8738106-1.653192i,-1.830927-0.6709076i,-1.871171+0.758305i,-0.8988251+1.871065i,0.6074487+2.030893i,1.842771+1.110035i,2.130052-0.4196892i,1.304675-1.746863i,-0.1979562-2.171853i,-1.590974-1.482416i,-2.162783-0.0493599i,-1.640521+1.387955i},
		{-0.5471126+0.9770673i,0.2456896+1.100842i,0.919305+0.6582587i,1.121728-0.1206899i,0.7535444-0.8300044i,0.01506987-1.109989i,-0.7119095-0.8339782i,-1.069836-0.159067i,-0.9004856+0.5716645i,-0.3056476+1.007284i,0.418734+0.9523436i,0.9282047+0.4462671i,0.9864448-0.2635075i,0.5708322-0.8367185i,-0.1152045-0.9976961i,-0.7345097-0.6697459i,-0.9804604-0.01973708i,-0.7360042+0.6212783i,-0.1382825+0.9305673i,0.4961582+0.7666655i,0.8472037+0.2402623i,0.7632161-0.359569i,0.3269111-0.7340128i,-0.2148087-0.7307163i,-0.5989778-0.3990351i,-0.6760147+0.06876119i,-0.06861144+0.6056252i,0.307989+0.4925141i,0.523968+0.1859187i,0.5042838-0.1738269i,0.2726718-0.4325508i,-0.05712526-0.4844156i,-0.3303497-0.3215922i,-0.4280915-0.039844i,-0.3301883+0.2152465i,-0.1185296+0.3340336i,0.08601668+0.3011105i,0.2056945+0.1824528i,0.2411762+0.05582528i,0.2350437-0.05123316i,0.2049863-0.1593756i,0.1177693-0.2776999i,-0.0644871-0.3525607i,-0.3087256-0.2884992i,-0.4874086-0.03695404i,-0.4493609+0.3235104i,-0.1417163+0.5983535i,0.3158882+0.59196i,0.6765271+0.2496725i,0.7120482-0.2802236i,0.36247-0.7171421i,-0.2135262-0.8091983i},
		{-0.0724548-0.6455562i,-0.4751393-0.4638728i,-0.6772022-0.05178928i,-0.5589232+0.4089463i,-0.1542875+0.6847088i,0.3402359+0.61775i,0.6618043+0.2318737i,0.6356195-0.2658715i,0.2854228-0.6040878i,-0.1819494-0.6124657i,-0.5107124-0.3191976i,-0.5530978+0.08561778i,-0.3392953+0.3854435i,-0.02319312+0.4662959i,0.2367022+0.3516084i,0.3629811+0.1406807i,0.3598869-0.07649188i,0.2591004-0.2539293i,0.08156782-0.3644722i,-0.1476453-0.3678053i,-0.3620855-0.2246049i,-0.4551524+0.04896978i,-0.342644+0.3467409i,-0.04122645+0.5107805i,0.3115172+0.4299971i,0.5276564+0.1252334i,0.2068767-0.503368i,-0.1615229-0.5121792i,-0.4403684-0.2895978i,-0.5149064+0.04550551i,-0.3748182+0.3451836i,-0.09172087+0.4994452i,0.2268768+0.4610432i,0.4705042+0.2412151i,0.5439121-0.09524437i,0.3923432-0.4309429i,0.04075833-0.6171011i,-0.3817068-0.5345609i,-0.6737432-0.173987i,-0.6588998+0.3224691i,-0.2993298+0.7078971i,0.2526554+0.7588149i,0.715633+0.413293i,0.8302944-0.1724364i,0.5132598-0.6954676i,-0.08332336-0.871383i,-0.6481242-0.5968102i,-0.8814533-0.01182351i,-0.6614201+0.57583i,-0.1093309+0.8606046i,0.4815078+0.7046745i,0.8094702+0.205538i},
		{0.4838267-0.3514711i,0.134509-0.5933914i,-0.2941431-0.5412164i,-0.5828934-0.2137358i,-0.5808238+0.2257948i,-0.2860014+0.553432i,0.1516218+0.6012543i,0.5073617+0.3461803i,0.6000854-0.07669234i,0.3891312-0.4460069i,-0.004869144-0.574596i,-0.3697757-0.4109905i,-0.5229382-0.06171264i,-0.4101703+0.278916i,-0.1224587+0.4453286i,0.1746091+0.3877206i,0.3448141+0.1775276i,0.346936-0.05995607i,0.2267673-0.2272933i,0.05956565-0.2923414i,-0.1007217-0.2688085i,-0.2284039-0.1764327i,-0.3006936-0.02630007i,-0.2821772+0.1584109i,-0.1461369+0.3182367i,0.08390059+0.3689719i,0.4312237-0.004840042i,0.3457254-0.2939183i,0.07950941-0.4666735i,-0.2480871-0.4231459i,-0.4766402-0.1693459i,-0.4873646+0.1819839i,-0.2631479+0.4653143i,0.1011193+0.5401054i,0.4383141+0.3570061i,0.5817709-0.01312249i,0.4447493-0.4009544i,0.07382774-0.6106517i,-0.3567734-0.5188899i,-0.6230079-0.1527267i,-0.5721377+0.3067747i,-0.2191113+0.6140169i,0.2496099+0.5990345i,0.5792897+0.2716715i,0.5972105-0.1826178i,0.3119392-0.5164669i,-0.1033647-0.5678741i,-0.4263748-0.3431818i,-0.5153918+0.01117068i,-0.368871+0.3133681i,-0.09187841+0.4460965i,0.1847441+0.3912256i},
		{0.6769884+0.2696735i,0.6651481-0.2578239i,0.301026-0.6278026i,-0.2079505-0.6433774i,-0.5745016-0.3081256i,-0.5983368+0.1718509i,-0.2884477+0.511523i,0.1451271+0.5260308i,0.4332824+0.2451628i,0.4274453-0.120412i,0.1865451-0.3369951i,-0.09020305-0.309338i,-0.2247497-0.123781i,-0.1832659+0.04980746i,-0.06783903+0.1040899i,-0.0005805995+0.06308533i,-0.01315832+0.02638834i,-0.03833125+0.0553765i,0.001744107+0.1134976i,0.1048718+0.1121485i,0.1850185+0.00950283i,0.1554465-0.1378918i,0.0150609-0.2203018i,-0.145013-0.1713552i,-0.2180734-0.02418299i,-0.1674363+0.1213321i,0.06792402+0.152865i,0.1245411+0.0792759i,0.1353344+0.008446936i,0.1264774-0.05290947i,0.09723929-0.11868i,0.02270604-0.1790661i,-0.1019607-0.1870332i,-0.2272475-0.0969429i,-0.2684792+0.08024792i,-0.1688904+0.2613912i,0.04680558+0.3363685i,0.2748447+0.2412161i,0.3902107+0.004107533i,0.3180474-0.2657076i,0.07477323-0.4332136i,-0.2370283-0.4023915i,-0.4701009-0.1627195i,-0.4940231+0.1954236i,-0.2610199+0.5045874i,0.1486516+0.5885929i,0.5374272+0.3600666i,0.6782812-0.1030122i,0.4501938-0.5657382i,-0.06148545-0.7537785i,-0.5838386-0.5242497i,-0.806912+0.02324414i},
		{-1.372826-0.8874857i,-1.585516+0.2154504i,-1.040202+1.164829i,-0.03777493+1.519656i,0.923656+1.151613i,1.403216+0.281009i,1.218965-0.658832i,0.5051895-1.242095i,-0.3817683-1.240398i,-1.043637-0.7007343i,-1.214574+0.1046877i,-0.858293+0.8156882i,-0.1606209+1.140792i,0.5659989+0.9698509i,1.019574+0.4038692i,1.029871-0.302149i,0.6168759-0.8535058i,-0.03192433-1.036124i,-0.6480132-0.793595i,-0.9899387-0.2360889i,-0.9296477+0.4117055i,-0.4920339+0.8957855i,0.1560658+1.021612i,0.7603015+0.724754i,1.0664+0.1055509i,0.9223785-0.5910558i,-0.3954168-1.073491i,-1.002887-0.5930988i,-1.168637+0.1798561i,-0.7967831+0.8906158i,-0.0501307+1.201784i,0.7251075+0.9640599i,1.171335+0.2895063i,1.091851-0.5105371i,0.5328099-1.080398i,-0.2549056-1.179643i,-0.9362125-0.7732705i,-1.228288-0.03011043i,-1.002296+0.7488772i,-0.3300696+1.238795i,0.5297225+1.209604i,1.211508+0.6292765i,1.384057-0.2897581i,0.912548-1.145957i,-0.038592-1.51504i,-1.041398-1.166812i,-1.59401-0.2159473i,-1.382165+0.897863i,-0.467485+1.615816i,0.717326+1.552192i,1.579414+0.7102944i,1.673558-0.5045908i},
		{0.593061-0.01853115i,0.4172764-0.3917366i,0.05264471-0.5432972i,-0.2978904-0.4185638i,-0.4620215-0.1163736i,-0.3931151+0.1864229i,-0.1751012+0.3504592i,0.05740082+0.3453926i,0.213942+0.23212i,0.2827578+0.08598935i,0.2895196-0.06188885i,0.2364668-0.2135614i,0.0934796-0.3463507i,-0.1448195-0.3829279i,-0.3977135-0.2394019i,-0.5120478+0.08024579i,-0.3651735+0.4352099i,0.01932627+0.6108485i,0.4487523+0.4642941i,0.6695212+0.04219768i,0.5354954-0.4292623i,0.1105322-0.683669i,-0.371464-0.5823159i,-0.6552805-0.1912553i,-0.6113467+0.2759055i,-0.2867697+0.5921121i,0.5056425+0.3946046i,0.6424088-0.004691042i,0.5071301-0.4081889i,0.1435003-0.6507774i,-0.310028-0.6128155i,-0.6518228-0.2801628i,-0.6986834+0.2173427i,-0.393712+0.6393181i,0.1315519+0.753252i,0.6058734+0.477804i,0.7691187-0.05013287i,0.531795-0.5454684i,0.03140881-0.7444625i,-0.4556366-0.5596791i,-0.6830884-0.1171163i,-0.5679435+0.3386388i,-0.2085056+0.5930842i,0.2012976+0.5630844i,0.4845793+0.3034885i,0.5495834-0.05359367i,0.3965907-0.3673342i,0.09348721-0.5289364i,-0.2488985-0.4803165i,-0.499946-0.2301503i,-0.5471372+0.1338408i,-0.3493504+0.4600435i},
		{0.05583512-1.254162i,-0.7687531-1.009036i,-1.249457-0.2811114i,-1.145113+0.595765i,-0.4910048+1.201535i,0.4052782+1.236778i,1.109872+0.67857i,1.280086-0.2022113i,0.8381724-0.9763867i,0.007659939-1.273679i,-0.8053492-0.9653278i,-1.218548-0.217779i,-1.056655+0.6030651i,-0.4210948+1.117782i,0.3774661+1.109972i,0.9763824+0.6104556i,1.124465-0.1377198i,0.7789823-0.8011345i,0.1060914-1.100832i,-0.6004456-0.9203249i,-1.041254-0.3432496i,-1.028774+0.3840507i,-0.562726+0.9491509i,0.1624834+1.099278i,0.8287249+0.7536517i,1.127483+0.05369293i,0.2548025-1.109907i,-0.5204636-1.011405i,-1.044336-0.4329418i,-1.064143+0.3406649i,-0.5826122+0.9304109i,0.1485667+1.061825i,0.7702956+0.7009234i,1.005851+0.05207264i,0.7872918-0.5692217i,0.256617-0.9012993i,-0.3356934-0.8427038i,-0.7562863-0.4589472i,-0.8687435+0.08119428i,-0.6511639+0.5808603i,-0.1806502+0.866661i,0.3856683+0.8237817i,0.8367508+0.4353549i,0.9664653-0.1806741i,0.6690782-0.7782313i,0.0257969-1.069201i,-0.6896649-0.8700513i,-1.12367-0.2274968i,-1.029647+0.5698123i,-0.4201272+1.124519i,0.4186852+1.142891i,1.070236+0.6007428i},
		{0.2537234-0.2422682i,0.02526475-0.3214508i,-0.1810058-0.2378721i,-0.2747778-0.05179311i,-0.2233063+0.13979i,-0.06130162+0.2414019i,0.1200149+0.2022593i,0.2152657+0.04958487i,0.1686886-0.1179143i,0.01774058-0.18929i,-0.1262856-0.1206194i,-0.1582436+0.02825281i,-0.0611182+0.1372159i,0.07947851+0.1208812i,0.1448766-0.002410782i,0.08063994-0.1268718i,-0.06035295-0.1474501i,-0.1639172-0.04467567i,-0.1475574+0.1037099i,-0.02158436+0.1883632i,0.1266816+0.1510757i,0.2024146+0.01858916i,0.1647855-0.1281607i,0.03914616-0.2113911i,-0.111674-0.1936766i,-0.2213595-0.08176886i,-0.1404526+0.2365891i,0.05190183+0.2967639i,0.2577266+0.2065369i,0.3600228-0.02121493i,0.2713609-0.2813312i,0.006460536-0.4195516i,-0.3009344-0.3288048i,-0.4673124-0.03325846i,-0.3768564+0.3092691i,-0.06401329+0.4987071i,0.3008984+0.4176777i,0.513825+0.1039926i,0.4561626-0.2743352i,0.1563566-0.517109i,-0.232899-0.4974983i,-0.5155477-0.2202538i,-0.5445905+0.1839773i,-0.2902567+0.5160014i,0.1368993+0.596272i,0.5225772+0.357397i,0.6469557-0.1001018i,0.4115103-0.5349573i,-0.07852563-0.6879081i,-0.5482787-0.4441465i,-0.7097611+0.07211842i,-0.451089+0.5546352i},
		{0.6606934+0.2752505i,0.6672783-0.2248246i,0.3433011-0.592136i,-0.1253684-0.64461i,-0.4879167-0.3852503i,-0.5809367+0.01734043i,-0.4079624+0.3507735i,-0.1004694+0.4857121i,0.1895856+0.418882i,0.3718393+0.2244814i,0.4230744-0.01829159i,0.3458276-0.2524337i,0.1467726-0.4211344i,-0.1376028-0.4516548i,-0.4086899-0.2903714i,-0.5279165+0.03224508i,-0.4016629+0.3777122i,-0.06444415+0.5628422i,0.3192482+0.4762933i,0.5500273+0.1576175i,0.5166652-0.2267198i,0.2540233-0.490188i,-0.09873888-0.5303243i,-0.3910393-0.358757i,-0.5270022-0.05946999i,-0.4725712+0.2653341i,0.1276788+0.5906155i,0.4998298+0.4169782i,0.7030108+0.008895944i,0.5847541-0.4803621i,0.1355757-0.7970702i,-0.4520912-0.7263243i,-0.8604577-0.2488662i,-0.8332489+0.4079646i,-0.3499262+0.8842866i,0.3415829+0.9030347i,0.8652031+0.4424751i,0.9382831-0.2499172i,0.5300739-0.805852i,-0.1349101-0.9445208i,-0.7136663-0.6137527i,-0.9275376+0.003457957i,-0.690804+0.5984687i,-0.1341724+0.8911782i,0.4697466+0.7551365i,0.8363356+0.2669153i,0.7990268-0.3345339i,0.3855686-0.7614453i,-0.1965798-0.8156223i,-0.6642277-0.4846462i,-0.8012884+0.05700522i,-0.562825+0.5439785i},
		{0.01466144-0.2891032i,-0.1542468-0.2314216i,-0.2544813-0.08952508i,-0.2501104+0.0815933i,-0.1431362+0.2130962i,0.02064809+0.2485263i,0.1664918+0.1728489i,0.2261154+0.02561192i,0.1763372-0.116365i,0.05466584-0.1824705i,-0.06384616-0.1519288i,-0.1172835-0.06528704i,-0.09934332+0.009048456i,-0.05829153+0.03079492i,-0.0488631+0.02055697i,-0.07539535+0.03683337i,-0.07959598+0.111027i,0.006016852+0.1974722i,0.1778424+0.1934346i,0.3288981+0.02817456i,0.3112307-0.2478826i,0.06038383-0.4605751i,-0.3171828-0.4227135i,-0.5818047-0.08738876i,-0.518945+0.3792405i,-0.1091302+0.6819156i,0.7521926+0.1288824i,0.6464048-0.4487512i,0.1524249-0.7876036i,-0.4414-0.6785765i,-0.7878305-0.1863751i,-0.6965017+0.4008768i,-0.2361127+0.7572751i,0.3288836+0.7075584i,0.7039867+0.3038786i,0.7183697-0.2318013i,0.387611-0.6377627i,-0.1196313-0.7328396i,-0.5679186-0.480882i,-0.7509894+0.004087019i,-0.573985+0.5013202i,-0.1036708+0.7689183i,0.4411999+0.6558834i,0.7798795+0.1950538i,0.7164872-0.3870389i,0.265305-0.7761407i,-0.3354879-0.7486408i,-0.7510843-0.3137191i,-0.7493153+0.2819914i,-0.3428594+0.7009544i,0.2226003+0.7197588i,0.6258014+0.3571009i},
		{-0.1760522+0.4019067i,0.06669871+0.4025546i,0.2568681+0.2929148i,0.3672816+0.1160582i,0.3835853-0.09473339i,0.2893435-0.3017628i,0.0795292-0.4446667i,-0.207903-0.4475628i,-0.474348-0.2602368i,-0.5856726+0.08928391i,-0.4408558+0.4723259i,-0.04891738+0.6990033i,0.4395379+0.6140307i,0.7831337+0.2002629i,0.7718637-0.3778099i,0.3575928-0.8339384i,-0.2895434-0.9064577i,-0.847872-0.513664i,-1.01065+0.1775467i,-0.6617566+0.822466i,0.04505059+1.078799i,0.7569265+0.796128i,1.107437+0.1041222i,0.9122396-0.6526619i,0.2653298-1.095653i,-0.5135657-1.006745i,-1.077297+0.3459332i,-0.60043+0.9595411i,0.1579862+1.122286i,0.8443814+0.760516i,1.14061+0.04091005i,0.9057999-0.7057572i,0.2411661-1.13159i,-0.5499783-1.029341i,-1.095055-0.4338234i,-1.12532+0.383093i,-0.6111707+1.031567i,0.2107523+1.189547i,0.9426989+0.7670332i,1.219735-0.03830732i,0.8967429-0.8312476i,0.1289806-1.215493i,-0.7012888-0.9968958i,-1.178075-0.2857671i,-1.06504+0.5580145i,-0.4266089+1.109996i,0.4073789+1.099447i,1.014622+0.5461563i,1.099049-0.2556301i,0.6395234-0.8958548i,-0.1088404-1.063575i,-0.7579762-0.7027335i},
		{0.1201794-0.1373253i,0.01554651-0.1880873i,-0.1022451-0.1664497i,-0.1880427-0.0773534i,-0.2077227+0.05042383i,-0.1467334+0.1738361i,-0.01496611+0.2445152i,0.1483435+0.2209836i,0.2764305+0.08939532i,0.2959463-0.1143286i,0.1678388-0.301885i,-0.07377044-0.3666332i,-0.3183182-0.2456759i,-0.4281107+0.02759611i,-0.3193598+0.3228205i,-0.0241129+0.4763797i,0.3129787+0.3866722i,0.5089958+0.08153602i,0.4465285-0.2876638i,0.1443731-0.5252627i,-0.2475109-0.4984454i,-0.5259779-0.211223i,-0.5418975+0.1949365i,-0.2793159+0.5128466i,0.1336913+0.5758147i,0.4877853+0.3447131i,0.4029326-0.4523564i,-0.002165717-0.607469i,-0.4075219-0.4498149i,-0.6008604-0.06099581i,-0.4823566+0.3537864i,-0.1195339+0.5773482i,0.29166+0.499253i,0.5371743+0.1726486i,0.5009767-0.2222527i,0.2200779-0.4823505i,-0.1477589-0.4893776i,-0.4164818-0.2614338i,-0.4669479+0.07161965i,-0.2956623+0.3441591i,-0.001742872+0.4360055i,0.2700947+0.3208475i,0.3980778+0.06757649i,0.3344609-0.1982655i,0.1216524-0.3536936i,-0.1313281-0.3339898i,-0.302649-0.1610579i,-0.3177409+0.07048531i,-0.1846747+0.244643i,0.01582884+0.2855407i,0.1800483+0.1931843i,0.2390812+0.03297273i},
		{-0.104583-0.5742965i,-0.4562268-0.4149278i,-0.6505041-0.04386582i,-0.5596896+0.3978386i,-0.1824532+0.695215i,0.3230274+0.6735406i,0.7054701+0.3106025i,0.7555084-0.2313471i,0.4278168-0.6821275i,-0.1252156-0.8067386i,-0.6290863-0.53259i,-0.8291507+0.009700093i,-0.6219609+0.5519647i,-0.1084416+0.8243862i,0.4567017+0.691819i,0.7933683+0.2221026i,0.7378021-0.3485322i,0.3250878-0.7365445i,-0.2316107-0.7564199i,-0.6546282-0.4128937i,-0.7459781+0.1093037i,-0.4828039+0.5494755i,-0.01508081+0.7069706i,0.4246999+0.5333654i,0.6418153+0.1375193i,0.5635391-0.2857313i,-0.1392453-0.571939i,-0.4473996-0.3549676i,-0.556535-0.007872229i,-0.43764+0.3248633i,-0.1496719+0.5150124i,0.1885757+0.4957367i,0.4457232+0.2819914i,0.526437-0.04015075i,0.4026877-0.3489181i,0.1183589-0.529989i,-0.2278066-0.5111427i,-0.509698-0.2833157i,-0.6071888+0.08900689i,-0.4486054+0.4710725i,-0.0578866+0.6898271i,0.4203406+0.6054111i,0.7562104+0.2016124i,0.7428758-0.3627713i,0.3311369-0.8013082i,-0.3013288-0.8495954i,-0.8184691-0.4376358i,-0.9156097+0.2360987i,-0.5160072+0.8008073i,0.1646964+0.9343702i,0.7430589+0.5654836i,0.9041355-0.08355611i},
		{0.7865538-0.5273975i,0.2677963-0.9121373i,-0.3807361-0.8748608i,-0.8563141-0.4272268i,-0.9321383+0.2243118i,-0.568536+0.7723604i,0.06355268+0.955444i,0.6626986+0.6863044i,0.9434822+0.09588145i,0.7761145-0.5310534i,0.2481715-0.8965377i,-0.3822651-0.8345681i,-0.8163235-0.3875583i,-0.8593751+0.2219707i,-0.5086873+0.7058259i,0.05624033+0.8495295i,0.5692027+0.6070029i,0.8055272+0.1087427i,0.6790866-0.411734i,0.2669002-0.7295323i,-0.2397805-0.7228431i,-0.6253901-0.4123666i,-0.7374793+0.0606711i,-0.5395283+0.4984135i,-0.1175583+0.7232904i,0.3549336+0.6430716i,0.718119-0.2016829i,0.4385279-0.6131052i,-0.04514302-0.7605057i,-0.5203633-0.56638i,-0.7671888-0.1089859i,-0.6648701+0.4051445i,-0.2560647+0.7367212i,0.2700061+0.7307558i,0.6696672+0.3924852i,0.7629622-0.1183883i,0.5153688-0.568832i,0.04504037-0.7623675i,-0.4391982-0.6221164i,-0.731319-0.2142183i,-0.7099843+0.2875399i,-0.3818214+0.6730087i,0.1217664+0.7758483i,0.5908787+0.5397239i,0.816264+0.04987741i,0.6797246-0.4882037i,0.2195839-0.8278339i,-0.3679462-0.7943899i,-0.8077976-0.3805731i,-0.8778342+0.2328929i,-0.527397+0.7546921i,0.08599339+0.9262677i},
		{0.1982516+0.03892346i,0.1697131-0.06960471i,0.1033932-0.1378145i,0.02226886-0.1703346i,-0.07051785-0.1685675i,-0.1666857-0.1159602i,-0.2293803+0.001280679i,-0.2045087+0.1581335i,-0.06598558+0.2803141i,0.1430921+0.2817271i,0.3160714+0.1287527i,0.3428894-0.1193324i,0.1860224-0.3322891i,-0.08446134-0.3852354i,-0.3261887-0.2382121i,-0.4082057+0.03650345i,-0.2867855+0.2970537i,-0.02550819+0.4133523i,0.2464434+0.3336796i,0.4039285+0.1010376i,0.3806264-0.1780913i,0.1877461-0.384218i,-0.09748944-0.4284932i,-0.3587207-0.2814611i,-0.4767779+0.01121872i,-0.376442+0.3313443i,0.3047546+0.4659262i,0.5646573+0.1514959i,0.5428815-0.2800016i,0.2166674-0.5959387i,-0.2564878-0.6008582i,-0.6121452-0.266191i,-0.6348075+0.2322693i,-0.2988852+0.608677i,0.2046222+0.6417361i,0.5822456+0.3154917i,0.6210924-0.1707573i,0.3183127-0.5315537i,-0.1285455-0.5748199i,-0.4576945-0.3106472i,-0.5070765+0.07712394i,-0.2961273+0.3642017i,0.01727875+0.4236685i,0.2567489+0.2780679i,0.3312998+0.04845244i,0.2589347-0.1425532i,0.1159683-0.2367591i,-0.02958605-0.2400075i,-0.1461703-0.1800436i,-0.2212835-0.07428829i,-0.2349476+0.06440783i,-0.1621245+0.2016177i},
		{0.02091975+1.098847i,0.7192107+0.8351454i,1.086937+0.181695i,0.9471752-0.5551452i,0.3675682-1.025192i,-0.3703612-1.009493i,-0.9140298-0.5295835i,-1.018526+0.1700953i,-0.6625364+0.7555123i,-0.04056885+0.9735678i,0.553919+0.7634673i,0.8772609+0.2563497i,0.8315002-0.3162868i,0.4711822-0.7356086i,-0.05264718-0.8672217i,-0.5574118-0.677663i,-0.8717872-0.2242638i,-0.8668216+0.353198i,-0.4999059+0.8460553i,0.13387+1.028436i,0.7900599+0.7593409i,1.151948+0.09059373i,0.9888772-0.7030292i,0.3120632-1.227841i,-0.5839893-1.177583i,-1.249166-0.5245856i,-0.7240756+1.212837i,0.2512777+1.40807i,1.120346+0.9075133i,1.447497-0.04415485i,1.071944-0.9776949i,0.180617-1.439941i,-0.7945617-1.213622i,-1.390121-0.4121902i,-1.327593+0.5828862i,-0.6378448+1.302938i,0.3552413+1.407872i,1.18268+0.8444542i,1.448191-0.1233619i,1.020063-1.032809i,0.102858-1.443112i,-0.8563136-1.155226i,-1.389217-0.3157444i,-1.243828+0.6564277i,-0.5096368+1.286031i,0.4374391+1.283278i,1.136462+0.6802925i,1.274126-0.2052703i,0.8241927-0.9466464i,0.03237423-1.21931i,-0.7252853-0.9380292i,-1.12332-0.2663604i},
		{-0.2026724+0.04531823i,-0.1319766+0.1526709i,-0.01595559+0.1942698i,0.09535839+0.1617437i,0.1642734+0.07876699i,0.1796807-0.02163062i,0.1460693-0.1168811i,0.0655946-0.1912817i,-0.05940983-0.2181657i,-0.2012975-0.1594718i,-0.2916725+0.0003897306i,-0.2504347+0.2118796i,-0.0526885+0.3596915i,0.2216226+0.3282911i,0.4131947+0.09526488i,0.3845832-0.2258415i,0.1266479-0.4432293i,-0.2180171-0.4145011i,-0.443276-0.1497185i,-0.4177783+0.1919513i,-0.169525+0.411038i,0.1439423+0.3983254i,0.3491109+0.1912497i,0.3627584-0.07427669i,0.2182256-0.2643455i,0.01243625-0.3183194i,-0.2708626-0.1081875i,-0.2853712+0.06408785i,-0.2034424+0.2235277i,-0.0339288+0.3168507i,0.1764728+0.2893651i,0.3388473+0.1232285i,0.3597012-0.1276807i,0.2024167-0.3463556i,-0.0744951-0.4117588i,-0.3370931-0.2725013i,-0.4462453+0.01531306i,-0.3353041+0.3120879i,-0.04917152+0.4660954i,0.2751979+0.3917978i,0.4747571+0.1156122i,0.4409766-0.231761i,0.1786626-0.4745615i,-0.1868635-0.4796648i,-0.465753-0.2324035i,-0.5033237+0.143833i,-0.2720392+0.4465106i,0.103481+0.5075595i,0.4139338+0.2952587i,0.4897786-0.06435069i,0.3027724-0.3656197i,-0.02387121-0.4503792i},
		{0.1686051-0.1167981i,0.04358902-0.2192766i,-0.1254233-0.2003599i,-0.2351448-0.06588733i,-0.2243685+0.1066616i,-0.105754+0.2279428i,0.05934243+0.2486986i,0.2049475+0.1677388i,0.2811738+0.01154201i,0.2509283-0.1762456i,0.09592723-0.3262507i,-0.1514305-0.3484153i,-0.3829563-0.1813531i,-0.448673+0.1364846i,-0.2563794+0.4445965i,0.1318769+0.5384258i,0.5003715+0.3136441i,0.6061203-0.1325129i,0.3515809-0.5384026i,-0.1295607-0.6448942i,-0.549211-0.374257i,-0.6541104+0.1135574i,-0.3894134+0.5285333i,0.07777224+0.6389938i,0.4785771+0.4053836i,0.6085308-0.02071868i,0.05300947-0.5723584i,-0.3261741-0.4580706i,-0.5376838-0.1338438i,-0.491563+0.2466011i,-0.2099134+0.5072452i,0.1771103+0.5202705i,0.478954+0.2703959i,0.5348535-0.1212764i,0.3084495-0.4472824i,-0.07757045-0.5279138i,-0.4058699-0.3227887i,-0.4965141+0.04091338i,-0.3174344+0.350417i,0.005357443+0.4432404i,0.2808492+0.299788i,0.3754672+0.03307619i,0.2777367-0.2019937i,0.07441236-0.3030963i,-0.1225259-0.2568088i,-0.2355471-0.1142867i,-0.2383606+0.05254132i,-0.1452121+0.1790261i,0.0005775025+0.2194043i,0.1349949+0.1591018i,0.1941141+0.02889212i,0.1501659-0.1003438i},
		{0.6348352+1.371058i,1.387432+0.6489457i,1.495984-0.4049105i,0.8872737-1.288553i,-0.1594876-1.56722i,-1.141895-1.095227i,-1.582635-0.09473124i,-1.267382+0.9526065i,-0.349273+1.543732i,0.7294988+1.398985i,1.454355+0.5934275i,1.484889-0.4839603i,0.8147904-1.319108i,-0.2281601-1.519257i,-1.142127-1.000777i,-1.496288-0.02686171i,-1.140692+0.9267213i,-0.2725809+1.411816i,0.6760324+1.227715i,1.265292+0.5033927i,1.260138-0.3944931i,0.7159178-1.061429i,-0.08950764-1.2414i,-0.8108479-0.907488i,-1.178861-0.2273461i,-1.074394+0.5293485i,0.2358391+1.210585i,0.9582419+0.8300794i,1.30738+0.05059087i,1.077402-0.8145146i,0.313684-1.354442i,-0.6529251-1.264937i,-1.341839-0.5422828i,-1.38071+0.4730551i,-0.7312294+1.262638i,0.2733627+1.419899i,1.115275+0.8806857i,1.38524-0.05356324i,0.9941439-0.9049641i,0.1831525-1.285829i,-0.6436648-1.075792i,-1.134691-0.4288233i,-1.128087+0.3485454i,-0.6708212+0.9458171i,0.03932891+1.150302i,0.7315201+0.8933949i,1.138473+0.2647708i,1.080237-0.5008194i,0.5477048-1.086735i,-0.2592174-1.21735i,-0.989557-0.7981686i,-1.295389+0.009777688i},
		{-0.7250308+0.4804118i,-0.292697+0.8598318i,0.3142394+0.8902233i,0.827758+0.5165775i,0.9961274-0.1186301i,0.7188998-0.7337191i,0.1036929-1.044184i,-0.5833207-0.8985631i,-1.03887-0.3459699i,-1.053213+0.3864403i,-0.5979037+0.9859458i,0.1554439+1.17879i,0.8911512+0.8469514i,1.269925+0.09658097i,1.079973-0.7596182i,0.3571216-1.320967i,-0.5960364-1.28475i,-1.327221-0.614841i,-1.451006+0.405306i,-0.8595422+1.285977i,0.1932712+1.570777i,1.196994+1.081791i,1.638264+0.03287216i,1.272604-1.062387i,0.2647502-1.649461i,-0.8860388-1.42355i,-1.527406+0.6728994i,-0.7111828+1.495006i,0.4285173+1.579241i,1.330444+0.9111253i,1.577574-0.1590647i,1.08908-1.11335i,0.1281233-1.525107i,-0.8529565-1.242651i,-1.428671-0.4237308i,-1.370411+0.562809i,-0.7157788+1.298198i,0.260045+1.470549i,1.144912+0.9895311i,1.539657+0.03629369i,1.228298-0.9791643i,0.307651-1.572155i,-0.8085666-1.415171i,-1.560714-0.5385224i,-1.535403+0.6369506i,-0.7185566+1.497699i,0.464519+1.578887i,1.377323+0.8436379i,1.542093-0.2891577i,0.9156502-1.197921i,-0.1085415-1.428904i,-0.9636765-0.9409838i},
		{-0.7891586+0.3767222i,-0.3716451+0.75621i,0.1658394+0.7970673i,0.5989393+0.514761i,0.7686182+0.04605545i,0.6295856-0.4174083i,0.2516328-0.7027567i,-0.2163795-0.711572i,-0.6010237-0.4449377i,-0.7589751+0.001883245i,-0.6207297+0.4679469i,-0.218217+0.7723265i,0.3106898+0.7737032i,0.7534463+0.4342433i,0.8979883-0.1380284i,0.6354245-0.7043836i,0.04104574-0.9872197i,-0.62669-0.8111827i,-1.035247-0.2186625i,-0.9526352+0.521302i,-0.3889365+1.037309i,0.3890802+1.053862i,0.9913093+0.5480993i,1.112549-0.2318075i,0.6938946-0.8987539i,-0.05326818-1.129798i,-1.10918-0.140024i,-0.9372779+0.5987233i,-0.3387875+1.055324i,0.4105283+1.02817i,0.972511+0.5317467i,1.09147-0.2113627i,0.7070826-0.8637314i,-0.01088124-1.120663i,-0.7304991-0.8541927i,-1.109811-0.1836082i,-0.9652841+0.5734832i,-0.3674028+1.055176i,0.393727+1.036355i,0.9565802+0.5378392i,1.067302-0.1940304i,0.6931465-0.8180673i,0.01999811-1.061158i,-0.6476265-0.8311454i,-1.022722-0.2396155i,-0.9482688+0.4560457i,-0.4535171+0.9570453i,0.2552052+1.039266i,0.8682283+0.6491965i,1.097731-0.05629608i,0.8147364-0.7589061i,0.1315531-1.117305i},
		{0.345579+0.4000846i,0.5903068+0.06802429i,0.5237334-0.3918198i,0.1146619-0.696712i,-0.4269675-0.6149135i,-0.7662461-0.14899i,-0.6708196+0.4386947i,-0.1796255+0.7913489i,0.4172998+0.6954986i,0.771765+0.2165348i,0.6979693-0.3585971i,0.267606-0.7142699i,-0.2653176-0.6890777i,-0.6305815-0.3358986i,-0.6780676+0.1466149i,-0.4183969+0.5341204i,0.01586127+0.6699082i,0.4366233+0.506608i,0.6641623+0.112559i,0.5887678-0.3456215i,0.2264685-0.6556655i,-0.2634854-0.6529194i,-0.6367049-0.3181773i,-0.6898929+0.1882048i,-0.3852234+0.5999215i,0.1155025+0.6952878i,0.6699312-0.04146886i,0.4552158-0.4600201i,0.03522905-0.6188052i,-0.3618684-0.466525i,-0.5489435-0.112311i,-0.465658+0.2544084i,-0.1843257+0.4671053i,0.1463885+0.4522308i,0.3780625+0.2443442i,0.4238938-0.04509912i,0.2862389-0.284065i,0.04512817-0.3780137i,-0.1855941-0.3066902i,-0.3136908-0.1231266i,-0.3061747+0.08302347i,-0.1898009+0.2332908i,-0.0215347+0.2885664i,0.1428391+0.2462161i,0.2594888+0.1230042i,0.2916606-0.05102977i,0.213332-0.224016i,0.03289084-0.3224975i,-0.1845756-0.2828461i,-0.3323493-0.1016847i,-0.3226328+0.1398589i,-0.1522428+0.3136837i},
		{0.6698352+0.5826621i,0.9205022+0.04860389i,0.7812186-0.5470901i,0.288876-0.9422835i,-0.3622384-0.953406i,-0.9043148-0.5521651i,-1.100082+0.1239866i,-0.8307191+0.8153557i,-0.1533434+1.221282i,0.6862909+1.11211i,1.31446+0.4517175i,1.380038-0.5275214i,0.7521557-1.373824i,-0.3469033-1.616413i,-1.391043-1.037615i,-1.804193+0.1488529i,-1.29521+1.357192i,-0.06514683+1.93022i,1.265364+1.517188i,1.987292+0.2948599i,1.700511-1.113161i,0.539036-1.974925i,-0.9043071-1.845268i,-1.898661-0.7933675i,-1.95258+0.6488746i,-1.049377+1.768217i,1.59509+1.294646i,2.053924-0.06179284i,1.514344-1.390334i,0.233935-2.042799i,-1.163153-1.693629i,-1.985227-0.509602i,-1.820192+0.9205917i,-0.7535883+1.878339i,0.6682633+1.886221i,1.72229+0.9584393i,1.889261-0.4116793i,1.120029-1.521412i,-0.1575687-1.831812i,-1.284305-1.236116i,-1.719924-0.0853941i,-1.304934+1.022819i,-0.3068049+1.561347i,0.7502718+1.324406i,1.363891+0.4956848i,1.292286-0.4794482i,0.6422194-1.134552i,-0.2210413-1.207168i,-0.8796141-0.7394979i,-1.069948-0.01701727i,-0.7846513+0.6055832i,-0.2291896+0.8851313i},
		{-0.1669596+0.6343464i,0.2943298+0.5616202i,0.5733015+0.2108876i,0.5455564-0.217127i,0.2525472-0.5039774i,-0.1391184-0.5227103i,-0.4318419-0.2876796i,-0.4929679+0.06697325i,-0.3112709+0.3605151i,0.005924585+0.4546563i,0.291425+0.3189147i,0.4055377+0.04115536i,0.308052-0.2242343i,0.07394551-0.3440676i,-0.1578496-0.2786977i,-0.2704839-0.09411095i,-0.2334302+0.09164269i,-0.1042116+0.1873565i,0.02644474+0.1766731i,0.0994116+0.1064817i,0.1135278+0.03503612i,0.1019069-0.01269147i,0.08852207-0.0485538i,0.06667341-0.08991054i,0.01510314-0.1290953i,-0.06874032-0.1336801i,-0.1852757+0.03639608i,-0.1338651+0.1559559i,-0.008244906+0.2205483i,0.1394477+0.1890208i,0.240271+0.06451851i,0.2411266-0.1050527i,0.1296152-0.246002i,-0.05656581-0.2886057i,-0.2390901-0.198917i,-0.328452-0.001668487i,-0.2669368+0.2199603i,-0.06588749+0.3567068i,0.1879489+0.3285593i,0.3694431+0.1336822i,0.3801793-0.1417568i,0.2041531-0.3639385i,-0.08037049-0.4203635i,-0.3396411-0.277409i,-0.4498199+0.004119483i,-0.3536029+0.2985868i,-0.08452374+0.470688i,0.2450957+0.431864i,0.4853949+0.1807252i,0.5095348-0.1848117i,0.2777929-0.4954697i,-0.1233678-0.582027i},
		{-0.6710776-0.4691878i,-0.8091359+0.06893834i,-0.5744779+0.5614421i,-0.09142558+0.7889863i,0.4171019+0.6677689i,0.7384737+0.266063i,0.7502939-0.2453652i,0.4491287-0.6648708i,-0.05724739-0.8224539i,-0.576567-0.6314723i,-0.8825264-0.1339197i,-0.8012366+0.4811181i,-0.3145891+0.9261439i,0.3836316+0.9454423i,0.9467979+0.4732672i,1.052196-0.2859856i,0.602323-0.9372894i,-0.1871206-1.112931i,-0.8917272-0.6988356i,-1.124044+0.08430967i,-0.7642543+0.8074834i,-0.02499824+1.087454i,0.6865025+0.8030018i,1.00993+0.1413492i,0.8204648-0.5355502i,0.2620502-0.9013656i,-0.7725396-0.3809257i,-0.8065135+0.1885267i,-0.4891503+0.6329759i,0.01784771+0.7761295i,0.4895089+0.576914i,0.7268184+0.1362537i,0.6354278-0.3458883i,0.2667243-0.6549137i,-0.2034279-0.6586887i,-0.5578849-0.370207i,-0.6445163+0.0623774i,-0.4463505+0.4358253i,-0.0765167+0.5946193i,0.2921778+0.4965006i,0.5137619+0.2108201i,0.5222795-0.1335035i,0.3359912-0.4083737i,0.03158943-0.5245593i,-0.2851031-0.4458514i,-0.5031573-0.1939661i,-0.5337509+0.1497844i,-0.3454233+0.457304i,0.007110238+0.5940016i,0.3866479+0.4796288i,0.6230716+0.1389845i,0.5923017-0.2923623i},
		{-0.03941423+0.4892001i,0.3175489+0.3663457i,0.4707198+0.02532236i,0.3276971-0.3092375i,-0.001021276-0.4227012i,-0.2855187-0.2634429i,-0.347643+0.02950621i,-0.1842639+0.2431967i,0.05131153+0.2534323i,0.1843213+0.1023967i,0.1518511-0.06136353i,0.02872764-0.1161198i,-0.05973572-0.05600889i,-0.04946635+0.02970464i,0.02258226+0.0515609i,0.07107841-0.00369699i,0.04547193-0.07646448i,-0.03325324-0.09864845i,-0.1035369-0.05103452i,-0.1191787+0.0332939i,-0.07593947+0.1068816i,0.003334798+0.140466i,0.09324511+0.1237826i,0.1687396+0.05192392i,0.1930599-0.07071179i,0.1241316-0.2067279i,-0.25294-0.2035712i,-0.3682684+0.02437412i,-0.2814593+0.3022897i,0.00580443+0.4551805i,0.3477561+0.3515863i,0.5299712+0.01120272i,0.4108925-0.3824624i,0.02981079-0.5871908i,-0.4014668-0.458963i,-0.6246604-0.05286117i,-0.4967903+0.4027197i,-0.08157916+0.6427886i,0.3869637+0.5253679i,0.643261+0.1150932i,0.5446905-0.3567455i,0.1508835-0.6276915i,-0.3150055-0.5535394i,-0.5967891-0.1859262i,-0.5501052+0.2638381i,-0.2180424+0.55036i,0.2039241+0.5331704i,0.488123+0.2468892i,0.5033376-0.1348652i,0.2741558-0.4109827i,-0.05629692-0.4637532i,-0.3222031-0.3028251i},
		{0.5934955+0.1337038i,0.5520688-0.2407394i,0.3039959-0.5227198i,-0.06783692-0.6115699i,-0.4343012-0.4607665i,-0.6484507-0.1039203i,-0.5973104+0.3332981i,-0.2659137+0.6614913i,0.2248894+0.7065003i,0.6491008+0.409612i,0.7813436-0.1135188i,0.5276477-0.6093308i,-0.002316833-0.8159298i,-0.5403821-0.6148199i,-0.8065444-0.10699i,-0.6687266+0.4414958i,-0.2136321+0.7526245i,0.3139633+0.6898204i,0.6572423+0.3169529i,0.6808603-0.1619064i,0.4154569-0.5269206i,0.007482333-0.6459118i,-0.3707678-0.5060916i,-0.5891932-0.1844028i,-0.5840439+0.199125i,-0.3575725+0.514111i,0.4227623+0.5157671i,0.6770199+0.1519249i,0.6494045-0.3160359i,0.3166295-0.680088i,-0.1942561-0.7517821i,-0.6491299-0.4682468i,-0.8196779+0.0581463i,-0.6048049+0.5840104i,-0.09020383+0.853209i,0.487962+0.725226i,0.8550472+0.246684i,0.8283234-0.3671573i,0.4050422-0.8292631i,-0.2297256-0.9120718i,-0.7801504-0.5573568i,-0.9733811+0.08448612i,-0.6949872+0.7113593i,-0.06027194+1.008433i,0.625546+0.8097486i,1.013458+0.1976662i,0.8949983-0.5245637i,0.3225868-0.985689i,-0.410049-0.946361i,-0.9241878-0.4315511i,-0.9619486+0.2841341i,-0.5222071+0.8302872i},
		{1.013564+0.2753873i,1.02409-0.5003312i,0.463879-1.133273i,-0.4401829-1.225599i,-1.210277-0.6445758i,-1.386479+0.3519728i,-0.8163931+1.23408i,0.2296433+1.501847i,1.200174+0.9814487i,1.572866-0.07057229i,1.142218-1.111014i,0.1222926-1.604684i,-0.9751679-1.29872i,-1.603548-0.3399044i,-1.446715+0.8049868i,-0.5683609+1.574114i,0.6136079+1.577553i,1.517871+0.7915188i,1.679739-0.4122736i,0.9941429-1.433199i,-0.2087987-1.741709i,-1.316972-1.164612i,-1.754895+0.007581321i,-1.296381+1.167099i,-0.1890018+1.71608i,0.9850261+1.387854i,1.44084-0.7772639i,0.5562458-1.499793i,-0.555325-1.458283i,-1.34207-0.7147117i,-1.44213+0.3340065i,-0.8436257+1.166644i,0.1285338+1.392164i,0.9826778+0.9319866i,1.306244+0.04852274i,0.9706896-0.7956208i,0.1895658-1.181864i,-0.6075009-0.9551186i,-1.018476-0.2927768i,-0.8867713+0.4186569i,-0.3611729+0.8196883i,0.2302247+0.773312i,0.5944576+0.4002656i,0.6269479-0.04640753i,0.4151397-0.3567307i,0.1243717-0.4615822i,-0.1234683-0.4079709i,-0.2896084-0.2699691i,-0.3768548-0.08843198i,-0.3766327+0.1193488i,-0.2654131+0.3163807i,-0.04605365+0.4321264i},
		{0.4429056+0.2063416i,0.4959624-0.1644853i,0.2722948-0.4894383i,-0.135905-0.5872972i,-0.5338267-0.3737381i,-0.7012846+0.08710521i,-0.4989218+0.5826664i,0.03092856+0.8307989i,0.6370034+0.6322802i,0.9630247+0.02281751i,0.75841-0.6916416i,0.06991467-1.082582i,-0.7366012-0.8658031i,-1.175443-0.1122807i,-0.9491801+0.7602157i,-0.1564089+1.232383i,0.7528275+1.009751i,1.250908+0.2102942i,1.053417-0.7098613i,0.279926-1.235082i,-0.6332822-1.087618i,-1.19342-0.366551i,-1.117943+0.5310031i,-0.4656276+1.135629i,0.4144987+1.145697i,1.069357+0.5677996i,0.6615282-0.9980698i,-0.1827984-1.17537i,-0.9207503-0.7364513i,-1.162012+0.08057823i,-0.786303+0.8334801i,-0.01174521+1.121595i,0.7322658+0.810392i,1.053538+0.09764675i,0.8131464-0.6160474i,0.1806438-0.9631589i,-0.4887497-0.8019189i,-0.860575-0.261447i,-0.7838537+0.3595684i,-0.3362142+0.7579454i,0.2412979+0.762951i,0.6659925+0.3966157i,0.7384-0.147191i,0.4317825-0.5909837i,-0.08737011-0.7048149i,-0.533217-0.4315462i,-0.6543438+0.06598415i,-0.389902+0.4875493i,0.08008597+0.5799625i,0.4458117+0.3075133i,0.478831-0.1206463i,0.1923587-0.4003099i},
		{-0.2530398-0.1117059i,-0.2805048+0.07861836i,-0.1748903+0.2564659i,0.03810444+0.3306998i,0.2667833+0.2375473i,0.3816875-0.005943064i,0.2903259-0.282133i,0.01451301-0.4248279i,-0.297251-0.3261639i,-0.4519703-0.02402987i,-0.3419474+0.305362i,-0.0266567+0.4577765i,0.3005575+0.3388853i,0.4411359+0.0278639i,0.3215499-0.279853i,0.03233517-0.4052493i,-0.2442347-0.2959756i,-0.3564017-0.04219i,-0.267504+0.1983648i,-0.05624307+0.3018813i,0.1490687+0.2391204i,0.2477667+0.0705332i,0.2108333-0.1031453i,0.07990628-0.1973346i,-0.06526577-0.1802691i,-0.1506077-0.08006749i,-0.06935367+0.105162i,0.01524647+0.1005957i,0.0578694+0.04957388i,0.04991185+0.003434028i,0.02559043-0.006919708i,0.02385719+0.004047146i,0.046635-0.003755106i,0.05489813-0.04853129i,0.01027688-0.09841273i,-0.07652726-0.09535067i,-0.1415342-0.0135996i,-0.1194148+0.1032821i,-0.007245561+0.1685202i,0.1217667+0.1243644i,0.173632-0.003940844i,0.1117573-0.1246645i,-0.01275809-0.1548555i,-0.1068496-0.08711689i,-0.1148276+0.01198961i,-0.05831983+0.06733064i,-0.003120259+0.06034613i,0.009987026+0.03318093i,0.0005743284+0.03307479i,0.01700621+0.05718327i,0.07362825+0.05550653i,0.1241006-0.0109169i},
		{-0.3618094+0.947695i,0.3125382+0.9292597i,0.8065345+0.5099835i,0.9310398-0.1077994i,0.6509334-0.6635125i,0.08508535-0.9257307i,-0.5280824-0.7718804i,-0.9090626-0.2515307i,-0.8595991+0.4051791i,-0.3809357+0.874042i,0.2951184+0.9030784i,0.8131579+0.4680686i,0.8957663-0.1948017i,0.5131211-0.7208757i,-0.09981724-0.8368127i,-0.5956982-0.52051i,-0.7310233+0.006763811i,-0.4968723+0.4412147i,-0.08492274+0.5876243i,0.2658671+0.4489164i,0.4182693+0.1721861i,0.3817914-0.08154972i,0.2488053-0.2349061i,0.0985081-0.2984154i,-0.04809708-0.3068849i,-0.1998534-0.2619434i,-0.3989451+0.08646709i,-0.3046892+0.3393147i,-0.04068788+0.5030428i,0.3061699+0.4597977i,0.5709481+0.1787914i,0.5950005-0.2407596i,0.3229302-0.6017181i,-0.1470738-0.70607i,-0.5957134-0.4666254i,-0.7886534+0.03044359i,-0.6030017+0.5538307i,-0.1037475+0.8388647i,0.4773326+0.7261469i,0.8542857+0.2508398i,0.8321452-0.3683065i,0.406906-0.8349589i,-0.2305049-0.9193894i,-0.7839228-0.5680538i,-0.988048+0.07012628i,-0.7293824+0.706977i,-0.1039237+1.038874i,0.6116282+0.884106i,1.071798+0.2805876i,1.023329-0.5054663i,0.4480433-1.084857i,-0.394447-1.136745i},
		{-0.3439249+0.2978464i,-0.08005252+0.4512175i,0.2265353+0.4076047i,0.4458284+0.1751579i,0.4692635-0.1582053i,0.260939-0.4418899i,-0.1013464-0.5209834i,-0.4375327-0.3260985i,-0.5526366+0.06037675i,-0.3620161+0.4268459i,0.03464853+0.5545155i,0.401691+0.3649013i,0.5200983-0.01898557i,0.3366679-0.3543799i,-0.00559777-0.4481095i,-0.2803967-0.2842594i,-0.3432428-0.01322349i,-0.2176457+0.1803165i,-0.04247492+0.2153213i,0.06031724+0.1471146i,0.07715252+0.08269912i,0.08069624+0.068881i,0.1296648+0.05827225i,0.1943275-0.0224888i,0.180404-0.1755436i,0.02765476-0.303699i,-0.3878475-0.07307121i,-0.3636739+0.2287016i,-0.1182968+0.4423093i,0.223668+0.4245318i,0.4674023+0.1668601i,0.4687067-0.196061i,0.2196155-0.4670066i,-0.1499163-0.4991293i,-0.4465446-0.2741573i,-0.5168777+0.09177597i,-0.3254672+0.4109057i,0.02856425+0.5207271i,0.3630338+0.3675174i,0.5078401+0.03436398i,0.3952271-0.3036191i,0.09434216-0.4752853i,-0.2319216-0.4060654i,-0.4217739-0.1513421i,-0.4007264+0.1473339i,-0.2068463+0.3489293i,0.05102837+0.3826473i,0.2615729+0.2621209i,0.3565496+0.05299807i,0.3165843-0.1668667i,0.1579466-0.3265435i,-0.07257079-0.3669311i},
		{-1.019578+1.42458i,0.1731517+1.743782i,1.280414+1.191414i,1.739614+0.04346637i,1.317996-1.112256i,0.2427587-1.683997i,-0.9200452-1.393965i,-1.575572-0.4224427i,-1.419422+0.7057019i,-0.5816891+1.418688i,0.474974+1.398807i,1.223155+0.7189631i,1.338787-0.2381632i,0.83037-1.0026i,-0.009369938-1.245905i,-0.7718881-0.9091713i,-1.124794-0.1956124i,-0.9467331+0.5444165i,-0.3621694+0.9775762i,0.3300901+0.9346582i,0.8046038+0.4796468i,0.8674311-0.1345598i,0.5431983-0.6062473i,0.04012018-0.7446924i,-0.3850535-0.5541401i,-0.5723525-0.1937338i,-0.3257268+0.3621105i,-0.09570314+0.4457877i,0.1294597+0.4334268i,0.343967+0.3299766i,0.5113355+0.1092495i,0.5395567-0.2195434i,0.339807-0.5517971i,-0.07545734-0.7100632i,-0.546867-0.5523053i,-0.8312023-0.08813616i,-0.7418476+0.4907813i,-0.2720535+0.8984373i,0.3822004+0.907671i,0.9131811+0.475693i,1.051073-0.2254532i,0.6949555-0.8814895i,-0.03032707-1.172919i,-0.8117111-0.9212556i,-1.271629-0.1895792i,-1.142033+0.7118804i,-0.4194449+1.342363i,0.5877069+1.342657i,1.377699+0.6459603i,1.50916-0.4417942i,0.8593618-1.369591i,-0.2743006-1.630923i},
		{0.5050077-0.1297895i,0.3232106-0.4384317i,-0.03110137-0.5655753i,-0.3991105-0.4288927i,-0.5978726-0.07483221i,-0.5180243+0.3340181i,-0.1868303+0.5992813i,0.2429101+0.5892717i,0.5703691+0.3042433i,0.6436635-0.1280398i,0.4256387-0.5151541i,0.005034869-0.6834676i,-0.4403884-0.5475281i,-0.710629-0.1475413i,-0.6636809+0.354019i,-0.2885933+0.725332i,0.2632772+0.7653915i,0.7252322+0.417071i,0.8427529-0.1729977i,0.5237659-0.7056952i,-0.08471905-0.8866404i,-0.6610467-0.6031576i,-0.8908496-0.003124994i,-0.6542801+0.5864939i,-0.09395898+0.8537467i,0.4801398+0.6804015i,0.6876025-0.3444533i,0.2959633-0.6745605i,-0.1867064-0.6826751i,-0.551838-0.4062077i,-0.6709692+0.01818886i,-0.5157396+0.4225154i,-0.1476268+0.6548276i,0.2966639+0.6152921i,0.6330647+0.2974865i,0.6942472-0.1809818i,0.420673-0.6016242i,-0.07819034-0.7429108i,-0.5551866-0.5106244i,-0.7546354-0.01239915i,-0.5654547+0.4892116i,-0.09340404+0.7271946i,0.4017747+0.5873128i,0.6630519+0.1675008i,0.5808696-0.2946396i,0.2357908-0.5685092i,-0.1732593-0.5514686i,-0.4520631-0.2969185i,-0.5035469+0.04575159i,-0.3471892+0.3225194i,-0.07878435+0.4398031i,0.1874546+0.3815868i},
		{-0.9197451-0.6209346i,-1.15381+0.111514i,-0.8517178+0.8629641i,-0.09784086+1.264993i,0.7825218+1.071359i,1.349526+0.3096075i,1.267508-0.6843128i,0.5111278-1.401902i,-0.5722499-1.4273i,-1.415229-0.6918423i,-1.539496+0.4475757i,-0.8449689+1.382733i,0.3093179+1.596657i,1.299844+0.9681543i,1.596689-0.1557879i,1.062872-1.166221i,0.01335767-1.543217i,-0.9870336-1.132748i,-1.444662-0.1951839i,-1.181346+0.7730047i,-0.3823701+1.312212i,0.5391055+1.210151i,1.157314+0.5633841i,1.217417-0.3021774i,0.7240025-0.989388i,-0.07811756-1.198301i,-1.146264-0.1206113i,-0.9290388+0.6349999i,-0.286478+1.055333i,0.4511565+0.9548247i,0.9225314+0.4170293i,0.9264566-0.2625949i,0.5137419-0.7496921i,-0.07062243-0.8490927i,-0.5441138-0.5800328i,-0.7322094-0.1203242i,-0.6191155+0.3178267i,-0.302267+0.5872588i,0.085697+0.6324049i,0.4252635+0.4645104i,0.618957+0.137071i,0.5954488-0.2550489i,0.3373119-0.5760635i,-0.08255593-0.6847952i,-0.5007259-0.5055114i,-0.7255504-0.08870207i,-0.6362879+0.3914487i,-0.2563629+0.7151355i,0.2496977+0.7277616i,0.6554061+0.4176991i,0.7801901-0.08050893i,0.5684893-0.5516381i},
		{1.708582-0.2086058i,1.170509-1.208818i,0.1567149-1.639947i,-0.8780121-1.359778i,-1.510919-0.5223886i,-1.503468+0.5143696i,-0.8691198+1.331158i,0.1384796+1.593718i,1.108677+1.176639i,1.62144+0.2308787i,1.426519-0.8491607i,0.578745-1.578284i,-0.5565711-1.604792i,-1.459045-0.894742i,-1.703666+0.2347462i,-1.172507+1.263769i,-0.1106026+1.72192i,0.9988903+1.408133i,1.663971+0.4702447i,1.598257-0.6770529i,0.8307697-1.537986i,-0.31562-1.738547i,-1.3537-1.17523i,-1.823143-0.06569123i,-1.484981+1.120624i,-0.4473926+1.845293i,1.798977+0.8123299i,1.932568-0.5408522i,1.146813-1.680964i,-0.2092707-2.046796i,-1.492596-1.440626i,-2.081561-0.1385157i,-1.686144+1.240668i,-0.4910059+2.038753i,0.9370801+1.877092i,1.923987+0.8340829i,2.007545-0.5973474i,1.151888-1.744768i,-0.2384134-2.07166i,-1.509006-1.42857i,-2.064321-0.1235613i,-1.650421+1.224369i,-0.4747877+1.982502i,0.8986049+1.807761i,1.826874+0.8044068i,1.895986-0.5405857i,1.103977-1.603015i,-0.1615507-1.915484i,-1.321722-1.366235i,-1.870457-0.224101i,-1.583715+0.9981495i,-0.5989597+1.767085i},
		{0.7659909+0.7343155i,1.096587+0.05365151i,0.88656-0.7025596i,0.2065866-1.141219i,-0.612074-1.012146i,-1.145068-0.3589787i,-1.107094+0.492088i,-0.5106307+1.105856i,0.3426056+1.17167i,1.026271+0.6615648i,1.208961-0.1676636i,0.8099507-0.9133855i,0.02425755-1.222718i,-0.7768694-0.9507228i,-1.21525-0.2212013i,-1.075448+0.6266206i,-0.4098182+1.186152i,0.4705937+1.173578i,1.13235+0.5779273i,1.23474-0.3135594i,0.7167516-1.049484i,-0.1571857-1.251358i,-0.9341796-0.8221319i,-1.220752+0.001373399i,-0.8943604+0.7864151i,-0.1536698+1.146014i,1.035361+0.3053974i,0.9534044-0.4184657i,0.4477159-0.900125i,-0.2224139-0.9471616i,-0.7520389-0.5711115i,-0.9181477+0.03828649i,-0.6641697+0.6006553i,-0.120317+0.8637508i,0.4517206+0.7160695i,0.7798611+0.2440888i,0.7192917-0.3069821i,0.329381-0.6630234i,-0.1654254-0.6716876i,-0.5127527-0.3779799i,-0.577243+0.02545849i,-0.3954228+0.3331977i,-0.1127582+0.4452833i,0.1335389+0.3884551i,0.2883539+0.2456751i,0.3624865+0.07308388i,0.3660089-0.1194249i,0.2718381-0.3198779i,0.05072431-0.4638466i,-0.259594-0.4489911i,-0.5288595-0.2151658i,-0.5943873+0.1782888i},
