/*
 * LS_includes.h
 *
 *  Created on: 05-Mar-2022
 *      Author: Ranjith Srinivas
 */

#ifndef SRC_LS_INCLUDES_H_
#define SRC_LS_INCLUDES_H_

#include "complex.h"

#define NUM_USED_SUB_CARRIERS 52
#define nUSC NUM_USED_SUB_CARRIERS
#define SYMBOLS_USED 200

typedef float complex flt_cmplx;

const flt_cmplx trainingSym[nUSC] = {1.0+0.0*I, 1.0+0.0*I, -1.0+0.0*I, -1.0+0.0*I, 1.0+0.0*I, 1.0+0.0*I, -1.0+0.0*I, 1.0+0.0*I, -1.0+0.0*I, 1.0+0.0*I, 1.0+0.0*I, 1.0+0.0*I, 1.0+0.0*I, 1.0+0.0*I, 1.0+0.0*I, -1.0+0.0*I, -1.0+0.0*I, 1.0+0.0*I, 1.0+0.0*I, -1.0+0.0*I, 1.0+0.0*I, -1.0+0.0*I, 1.0+0.0*I, 1.0+0.0*I, 1.0+0.0*I, 1.0+0.0*I, 1.0+0.0*I, -1.0+0.0*I, -1.0+0.0*I, 1.0+0.0*I, 1.0+0.0*I, -1.0+0.0*I, 1.0+0.0*I, -1.0+0.0*I, 1.0+0.0*I, -1.0+0.0*I, -1.0+0.0*I, -1.0+0.0*I, -1.0+0.0*I, -1.0+0.0*I, 1.0+0.0*I, 1.0+0.0*I, -1.0+0.0*I, -1.0+0.0*I, 1.0+0.0*I, -1.0+0.0*I, 1.0+0.0*I, -1.0+0.0*I, 1.0+0.0*I, 1.0+0.0*I, 1.0+0.0*I, 1.0+0.0*I};

//Actual Channel Data
const flt_cmplx Act_Channel_weight[SYMBOLS_USED][nUSC] = {{1.940315+0.7724234i,1.956874-0.6665673i,1.050062-1.752147i,-0.3173243-1.992615i,-1.500758-1.314974i,-1.977331-0.05897343i,-1.557864+1.202801i,-0.442167+1.9157i,0.8760532+1.766314i,1.810402+0.8104107i,1.926115-0.5368544i,1.143077-1.66188i,-0.198383-2.023588i,-1.469376-1.423368i,-2.048232-0.1298062i,-1.639976+1.232857i,-0.4409966+1.994958i,0.9551649+1.787435i,1.865275+0.7296976i,1.865226-0.6436392i,0.9898857-1.667098i,-0.3106112-1.876065i,-1.413303-1.213803i,-1.824037-0.02744771i,-1.391798+1.119475i,-0.3519262+1.713203i,1.547116+0.6446607i,1.568794-0.473929i,0.8903813-1.329293i,-0.1486975-1.551683i,-1.064382-1.078363i,-1.460243-0.1643153i,-1.202906+0.7594736i,-0.456574+1.298227i,0.4249845+1.262657i,1.074443+0.7197055i,1.259174-0.0746757i,0.9447069-0.8012776i,0.2753294-1.195312i,-0.4926616-1.121931i,-1.074085-0.6083182i,-1.241974+0.1621333i,-0.9090657+0.8983772i,-0.1784339+1.297225i,0.6715975+1.165603i,1.283591+0.5191036i,1.370162-0.398956i,0.8511863-1.201764i,-0.08880171-1.519028i,-1.05755-1.165969i,-1.611433-0.2466004i,-1.453474+0.8610577i},
		{0.4309292-0.7955785i,-0.1931663-0.9117518i,-0.7578413-0.5812394i,-0.9719575+0.05301249i,-0.7135358+0.681743i,-0.1016877+0.9907625i,0.5657067+0.8268388i,0.9689547+0.2712838i,0.9233447-0.412353i,0.454256-0.9123827i,-0.2295817-1.006363i,-0.8305207-0.6452432i,-1.077778+0.0301725i,-0.8341659+0.7339111i,-0.1701344+1.135963i,0.6312824+1.006921i,1.174938+0.355598i,1.14761-0.5272936i,0.5136192-1.185208i,-0.4216735-1.241739i,-1.156129-0.6371146i,-1.279476+0.3100871i,-0.7253885+1.079154i,0.1864891+1.257979i,0.9509475+0.78323i,1.182081-0.04623115i,0.1110768-1.06309i,-0.5638834-0.8391374i,-0.9160531-0.2798888i,-0.8500256+0.3335055i,-0.4488063+0.7562712i,0.1039931+0.8515088i,0.5960934+0.6024507i,0.8391846+0.1060929i,0.7246028-0.4428868i,0.2826448-0.8055084i,-0.2987065-0.8016988i,-0.7425051-0.4179511i,-0.8256789+0.1616372i,-0.5108401+0.6447426i,0.0282625+0.7953979i,0.5116269+0.5651397i,0.7162691+0.1036214i,0.5870816-0.348314i,0.2329682-0.5983586i,-0.1649883-0.582563i,-0.4536115-0.3547803i,-0.5551689-0.02521531i,-0.4609303+0.2931215i,-0.2089458+0.5055397i,0.1252779+0.5421696i,0.4321791+0.3751418i},
		{0.1916053+0.1166972i,0.1690011-0.0372529i,0.06537829-0.09605506i,-0.006108848-0.05429887i,0.01360984-1.084071e-06i,0.07661165-0.02558533i,0.07340473-0.1325121i,-0.05821262-0.2154947i,-0.2544639-0.1487853i,-0.3533884+0.09114627i,-0.2205426+0.3721444i,0.1225184+0.4811398i,0.4773833+0.284133i,0.5901267-0.149043i,0.3367083-0.5616739i,-0.166052-0.6731511i,-0.6169806-0.3776385i,-0.7253829+0.1678925i,-0.4087128+0.6368011i,0.1487474+0.7451449i,0.6173198+0.4338587i,0.7343038-0.1038067i,0.4583222-0.558392i,-0.03057858-0.6980779i,-0.4640734-0.4874079i,-0.6441991-0.06997671i,-0.1928194+0.5815228i,0.2047951+0.5723819i,0.5183486+0.3289631i,0.6271853-0.06381848i,0.4664545-0.4608153i,0.06814511-0.6836047i,-0.4117586-0.5920739i,-0.733092-0.1811533i,-0.6934317+0.3703288i,-0.2691058+0.7659283i,0.3324899+0.7610123i,0.7731707+0.3303984i,0.7897028-0.2922963i,0.3676199-0.7485575i,-0.2436403-0.7794667i,-0.6899248-0.3863896i,-0.7350278+0.1820376i,-0.3936474+0.5998095i,0.106012+0.6646782i,0.4851176+0.3958358i,0.5785303-0.01775524i,0.3974128-0.3559738i,0.07706107-0.4866453i,-0.2240515-0.4000152i,-0.3974553-0.1702251i,-0.4023966+0.1007856i},
		{0.8831354+0.1195109i,0.8115338-0.473511i,0.354456-0.926699i,-0.3338248-0.990256i,-0.9363437-0.566766i,-1.122259+0.1872113i,-0.7466567+0.9041538i,0.03360544+1.197181i,0.8239226+0.8893903i,1.210228+0.1284968i,0.9947618-0.6934528i,0.2998447-1.16277i,-0.516048-1.065469i,-1.061573-0.4784065i,-1.104961+0.3007177i,-0.65821+0.9169324i,0.06101623+1.115506i,0.7403378+0.8294691i,1.097119+0.1871582i,0.9799994-0.5423597i,0.4281664-1.047686i,-0.3313701-1.097511i,-0.9641957-0.6489017i,-1.17208+0.1133702i,-0.8401418+0.844609i,-0.1071796+1.19806i,1.174879+0.3259755i,1.116552-0.5040891i,0.5375455-1.106555i,-0.2964285-1.199262i,-1.000174-0.7345489i,-1.244576+0.07810047i,-0.9080189+0.8639006i,-0.1385921+1.251512i,0.7052186+1.048514i,1.218413+0.342498i,1.147812-0.5299578i,0.5251784-1.143867i,-0.3423714-1.200566i,-1.028111-0.6815104i,-1.205367+0.1461173i,-0.8092083+0.8743606i,-0.05432733+1.164821i,0.6894664+0.9075172i,1.084597+0.2524516i,0.9756182-0.4835839i,0.4392619-0.9717622i,-0.2688313-1.011384i,-0.8329513-0.6038937i,-1.011+0.05730679i,-0.7351987+0.6730051i,-0.1409348+0.9696658i},
		{0.15614-0.9862273i,-0.5519342-0.9032785i,-1.060813-0.3370568i,-1.061891+0.4662166i,-0.5003303+1.087118i,0.3574914+1.169426i,1.057628+0.6425245i,1.220647-0.2226549i,0.7639561-0.9684929i,-0.0593435-1.215911i,-0.8210333-0.8678354i,-1.161117-0.1323185i,-0.9586408+0.6225182i,-0.3481985+1.066573i,0.3858837+1.040121i,0.944985+0.5793584i,1.113465-0.1283224i,0.8123136-0.8090231i,0.131027-1.176168i,-0.6690363-1.030411i,-1.221943-0.3738022i,-1.216085+0.5314859i,-0.5849472+1.24176i,0.3984609+1.353503i,1.225771+0.7544875i,1.431001-0.2683515i,-0.1374445-1.44278i,-1.056736-0.9570897i,-1.38951+0.001972271i,-0.9959789+0.8995581i,-0.1399469+1.277786i,0.7002378+1.001536i,1.118657+0.2869737i,0.9803867-0.4698871i,0.4341193-0.9256356i,-0.2231071-0.9376955i,-0.7126908-0.5732622i,-0.8765026-0.0239796i,-0.694401+0.492626i,-0.2557041+0.7978506i,0.2761198+0.7872664i,0.7015065+0.4584357i,0.8428716-0.07144871i,0.621549-0.5869511i,0.1152652-0.8546633i,-0.4542874-0.7377579i,-0.8191115-0.2795649i,-0.8029808+0.3048132i,-0.4182116+0.7357714i,0.1411696+0.8159986i,0.6070067+0.5289639i,0.7781434+0.03284571i},
		{-0.5907747-0.004916995i,-0.5104045+0.3881038i,-0.1700536+0.6737049i,0.3189734+0.6788075i,0.7304388+0.3384559i,0.8265533-0.2312067i,0.5009763-0.7575783i,-0.1281642-0.9449964i,-0.7512917-0.6500945i,-1.027104+0.0117603i,-0.7807981+0.7085148i,-0.1169265+1.068739i,0.6283058+0.8906255i,1.069272+0.2565016i,0.9789029-0.5128654i,0.4040137-1.031319i,-0.3678342-1.045495i,-0.9597201-0.554123i,-1.089559+0.2017184i,-0.699048+0.8601027i,0.02458095+1.108798i,0.7375343+0.8294022i,1.099532+0.1536206i,0.9357275-0.5957199i,0.3245516-1.057629i,-0.4370036-1.01029i,-1.048597+0.2631558i,-0.6240808+0.8662843i,0.07664182+1.05017i,0.7198443+0.7482464i,1.018331+0.1181065i,0.8542801-0.5481898i,0.3139156-0.9590748i,-0.3621322-0.9408624i,-0.8793788-0.5009397i,-1.005127+0.1741654i,-0.6676564+0.7854924i,-0.003595137+1.042572i,0.6817284+0.8025684i,1.047828+0.1613189i,0.8961549-0.5701198i,0.2926876-1.016078i,-0.4510066-0.9425229i,-0.9446756-0.3951336i,-0.9402897+0.3243054i,-0.4690965+0.8344385i,0.1909872+0.8924574i,0.6901827+0.5166098i,0.8053496-0.05422234i,0.5397316-0.5202922i,0.08023112-0.6869636i,-0.335431-0.5393576i},
		{-0.1631592+0.1073239i,-0.1177376+0.2174527i,0.03234519+0.3060567i,0.2557352+0.2659669i,0.4243402+0.04845164i,0.3981348-0.2685384i,0.1371904-0.5094004i,-0.2491754-0.5115213i,-0.556756-0.2369328i,-0.6065794+0.1940446i,-0.3499077+0.5663888i,0.1037333+0.6855778i,0.542079+0.4759358i,0.7509247+0.01683707i,0.6115279-0.4900013i,0.1592322-0.8037107i,-0.4170339-0.7499191i,-0.842914-0.3130289i,-0.8820242+0.3292899i,-0.4675932+0.8654858i,0.2312674+0.9980176i,0.8672429+0.6136261i,1.089073-0.1257828i,0.7441028-0.8442354i,-0.01458427-1.148774i,-0.7941145-0.854454i,-0.9420958+0.7170497i,-0.2175914+1.164006i,0.6159145+1.005619i,1.12137+0.3324749i,1.04403-0.4957299i,0.440614-1.049284i,-0.3626097-1.056371i,-0.9515013-0.5369647i,-1.041874+0.2226173i,-0.6171625+0.8317165i,0.08095017+1.000545i,0.6936917+0.6784059i,0.9339131+0.0582792i,0.7198671-0.5418147i,0.1916415-0.8455637i,-0.381768-0.7424541i,-0.7411544-0.3155937i,-0.7479889+0.2209139i,-0.4256762+0.62778i,0.06809356+0.7380927i,0.5128047+0.5161155i,0.7131948+0.06725211i,0.5801053-0.4024864i,0.1764753-0.6720613i,-0.3008268-0.6108034i,-0.61208-0.2532507i},
		{-0.3605881+0.8248569i,0.2648241+0.9092537i,0.8304312+0.540684i,1.017151-0.1481865i,0.6763381-0.8094332i,-0.04176617-1.068791i,-0.7504262-0.764444i,-1.057753-0.06203258i,-0.8094404+0.6459072i,-0.1715751+0.9862528i,0.4952337+0.8210959i,0.8645751+0.2923704i,0.8110302-0.3058534i,0.424302-0.7085818i,-0.09244014-0.7890369i,-0.5360241-0.5605772i,-0.7603146-0.1258326i,-0.6887192+0.3627423i,-0.329095+0.7244026i,0.1998221+0.7932952i,0.6760606+0.5005738i,0.8595418-0.05243724i,0.6293377-0.6077145i,0.07945085-0.8768037i,-0.512611-0.7113224i,-0.8407992-0.1989501i,-0.3094928+0.7541338i,0.2349465+0.7468354i,0.6250624+0.412457i,0.7133213-0.06189037i,0.5059291-0.4650416i,0.1205244-0.6539513i,-0.2859568-0.5849401i,-0.5724216-0.3001355i,-0.642983+0.09793601i,-0.4661444+0.4703755i,-0.09161764+0.6741741i,0.3487517+0.6108404i,0.6752251+0.2776206i,0.7300249-0.2095979i,0.4558935-0.6464865i,-0.05753373-0.8221233i,-0.5916806-0.6214623i,-0.8864622-0.09981444i,-0.7673963+0.5164376i,-0.2526855+0.9214907i,0.4261962+0.8847936i,0.9237483+0.3911413i,0.9640816-0.3242888i,0.5074527-0.8881065i,-0.2109883-0.9972845i,-0.8093303-0.598051i},
		{-0.09897897-2.254511i,-1.522256-1.644038i,-2.204408-0.2686362i,-1.837465+1.20526i,-0.6197428+2.081002i,0.8545745+1.964977i,1.890747+0.9417504i,2.023147-0.4845935i,1.222182-1.642466i,-0.1107676-2.010201i,-1.346473-1.449356i,-1.926013-0.2515249i,-1.613261+1.013898i,-0.5879854+1.772393i,0.6563465+1.706447i,1.553525+0.8860845i,1.724693-0.2858768i,1.135357-1.276391i,0.08484992-1.667319i,-0.9509556-1.327357i,-1.537077-0.4424578i,-1.455451+0.5899585i,-0.773005+1.339701i,0.2082735+1.514645i,1.083263+1.062524i,1.501644+0.1780866i,0.5531276-1.4152i,-0.4335016-1.468254i,-1.256682-0.9019512i,-1.565583+0.06315469i,-1.211542+1.030684i,-0.3205842+1.586022i,0.7454104+1.471148i,1.529874+0.7038346i,1.672278-0.4126368i,1.071876-1.401331i,-0.04712373-1.808461i,-1.207683-1.409544i,-1.874981-0.3344553i,-1.701983+0.9582869i,-0.7148894+1.868787i,0.6635966+1.935681i,1.788692+1.077826i,2.099631-0.3344855i,1.408908-1.635834i,0.01802148-2.186368i,-1.414251-1.696447i,-2.192651-0.3826521i,-1.931581+1.131343i,-0.7476045+2.119621i,0.7979879+2.107986i,1.972418+1.100323i},
		{-1.430524-0.07973842i,-1.114462+0.8729331i,-0.2580318+1.368779i,0.6933561+1.174945i,1.262445+0.4174832i,1.188909-0.498493i,0.5521309-1.113736i,-0.2940825-1.155132i,-0.9269934-0.6580374i,-1.075398+0.08625908i,-0.732816+0.7091211i,-0.1178521+0.9541547i,0.4694745+0.7748691i,0.7976686+0.3098906i,0.7826951-0.219133i,0.4805814-0.6129516i,0.03027849-0.7545898i,-0.4068345-0.620637i,-0.6889265-0.267908i,-0.7220403+0.1854842i,-0.4847644+0.5849715i,-0.04548947+0.779353i,0.4439807+0.6742709i,0.790646+0.2804202i,0.8321533-0.2701814i,0.5127413-0.7577424i,-0.6856589-0.7342973i,-1.043034-0.1420755i,-0.9351749+0.5813871i,-0.3569995+1.091724i,0.4523664+1.104257i,1.098875+0.5605202i,1.230472-0.3051102i,0.7412266-1.061139i,-0.1444014-1.304457i,-0.9756815-0.8908217i,-1.320202-0.02671662i,-1.004875+0.8414894i,-0.2061912+1.276215i,0.6606472+1.082643i,1.175855+0.3917504i,1.12608-0.4391485i,0.5796815-1.026744i,-0.1869269-1.138376i,-0.8394139-0.7640532i,-1.122531-0.08297312i,-0.9366871+0.6255763i,-0.3559042+1.080384i,0.3964728+1.087933i,1.01239+0.6174204i,1.208047-0.161737i,0.8549204-0.9181539i},
		{-0.1800653-0.7956789i,-0.6045793-0.4537945i,-0.7015276+0.03897387i,-0.4784452+0.4480577i,-0.07358197+0.6090861i,0.3159148+0.4804967i,0.5170387+0.1492095i,0.4540796-0.2112662i,0.1837205-0.4231994i,-0.1340974-0.3963262i,-0.3260281-0.1771618i,-0.308052+0.0825255i,-0.1330259+0.2257614i,0.05413636+0.1935658i,0.1248554+0.05698586i,0.05976307-0.04697392i,-0.04441254-0.02767828i,-0.0599299+0.08514938i,0.06036324+0.1647207i,0.2328841+0.09251735i,0.2980134-0.1339115i,0.1442367-0.3759182i,-0.1885724-0.4387962i,-0.5077995-0.2138775i,-0.5816185+0.2213723i,-0.2990977+0.6229844i,0.7164641+0.3964899i,0.8500111-0.2157048i,0.502129-0.7835068i,-0.1759701-0.9635066i,-0.8197806-0.6123822i,-1.056164+0.1109465i,-0.7246338+0.8219426i,0.02024087+1.12482i,0.7885531+0.8375837i,1.168874+0.09572709i,0.950927-0.7209935i,0.2347334-1.190383i,-0.623995-1.064455i,-1.19344-0.391828i,-1.176855+0.5054676i,-0.5588973+1.182913i,0.3755214+1.284635i,1.162905+0.725017i,1.381612-0.2448373i,0.8776633-1.135395i,-0.1227742-1.459255i,-1.099499-1.004578i,-1.507919+0.01571928i,-1.09585+1.051661i,-0.07384587+1.518719i,0.9867651+1.145678i},
		{-0.07228521+0.1273494i,0.02755891+0.2093686i,0.2063735+0.1847419i,0.3415017-0.001978316i,0.2940086-0.2760475i,0.0291397-0.460402i,-0.3287587-0.3963284i,-0.5595179-0.06904203i,-0.4905865+0.358664i,-0.1207406+0.6355738i,0.3629139+0.5771659i,0.688136+0.1854679i,0.6564356-0.3419514i,0.2617694-0.7184348i,-0.2988691-0.7274551i,-0.7279432-0.3455217i,-0.7873822+0.2381232i,-0.4308456+0.7172725i,0.1641056+0.831808i,0.6858075+0.5115708i,0.8559077-0.08010253i,0.5827306-0.6322157i,0.01199911-0.855993i,-0.5556287-0.6415616i,-0.8308961-0.1111842i,-0.6876662+0.457026i,0.3402555+0.7223044i,0.7162769+0.3243801i,0.747097-0.2122284i,0.430804-0.6384259i,-0.08211056-0.7626472i,-0.5557719-0.5284003i,-0.7676287-0.04031802i,-0.6088885+0.4732407i,-0.1466541+0.7587328i,0.3929631+0.6644578i,0.7315666+0.231588i,0.6896448-0.3142333i,0.2937863-0.6822482i,-0.2345189-0.6828128i,-0.6091805-0.33564i,-0.646725+0.1511939i,-0.3619403+0.5143914i,0.06340829+0.5879785i,0.4039409+0.3778955i,0.5154163+0.02655144i,0.3871152-0.2871844i,0.1129038-0.4379668i,-0.1750448-0.3902086i,-0.3625448-0.187188i,-0.3844465+0.07776752i,-0.2400479+0.2926373i},
		{0.1244475+1.510535i,1.030187+1.050047i,1.421066+0.1519888i,1.16642-0.759649i,0.4190865-1.294562i,-0.477608-1.247527i,-1.138605-0.6616842i,-1.287304+0.1997038i,-0.8648244+0.9589952i,-0.06077421+1.279258i,0.7596409+1.016031i,1.218253+0.2941277i,1.107172-0.5433995i,0.4944198-1.102396i,-0.3135243-1.135398i,-0.9343799-0.6586496i,-1.102929+0.07513766i,-0.7853243+0.721839i,-0.1638499+1.015825i,0.4765659+0.8729976i,0.8821768+0.3927668i,0.9193309-0.2127912i,0.5992265-0.7103122i,0.05496506-0.9210232i,-0.5075672-0.7709149i,-0.8746377-0.3138522i,-0.5539182+0.7780263i,0.03273449+0.972694i,0.6318364+0.7683345i,0.9941006+0.2284627i,0.9526851-0.4405458i,0.4964328-0.9638241i,-0.212627-1.103705i,-0.8868394-0.7616981i,-1.218022-0.04027031i,-1.012644+0.7694601i,-0.3049007+1.29143i,0.6178389+1.236566i,1.319013+0.5683026i,1.421355-0.4370891i,0.8194146-1.296128i,-0.2312884-1.557344i,-1.21992-1.049966i,-1.638731+0.004300129i,-1.25443+1.090838i,-0.2389486+1.664153i,0.9136119+1.429142i,1.636251+0.4912708i,1.570995-0.697284i,0.7426309-1.560375i,-0.4542044-1.676229i,-1.442896-0.9804983i},
		{0.4772264-0.1352309i,0.2791351-0.4279373i,-0.07688715-0.5129685i,-0.3999853-0.3294951i,-0.5084113+0.02366972i,-0.3485484+0.3456649i,-0.02762503+0.4636262i,0.2644019+0.3398292i,0.3825762+0.07929248i,0.3083122-0.1591419i,0.1317323-0.2722049i,-0.03602045-0.2591102i,-0.1411278-0.1831012i,-0.1965091-0.09661138i,-0.2296585-0.001712085i,-0.2295159+0.1235512i,-0.1481013+0.2666498i,0.04218401+0.3538968i,0.2894256+0.2911414i,0.4624162+0.04619393i,0.4253483-0.294449i,0.1400714-0.5497198i,-0.2799139-0.5464097i,-0.6124607-0.2373315i,-0.6508262+0.2458489i,-0.3351204+0.6489673i,0.6587875+0.4301089i,0.798538-0.1260644i,0.5190197-0.6423436i,-0.04545882-0.8378801i,-0.6008392-0.599183i,-0.8532818-0.04531752i,-0.6688692+0.536427i,-0.1434442+0.8457915i,0.4524968+0.7272347i,0.8179167+0.2456373i,0.7738721-0.3538662i,0.3476865-0.7732416i,-0.2466587-0.8081219i,-0.7156939-0.4441888i,-0.828424+0.1377566i,-0.5287161+0.6486501i,0.03387954+0.8320068i,0.574163+0.5945091i,0.8151192+0.05949606i,0.6355888-0.4925974i,0.1390606-0.7738383i,-0.402857-0.6480066i,-0.7052822-0.2041251i,-0.6308558+0.3032054i,-0.2564117+0.6088944i,0.1924872+0.5867091i},
		{0.3643612-0.01492414i,0.2843043-0.2339452i,0.08305352-0.3625153i,-0.1590673-0.3389151i,-0.3350077-0.167872i,-0.3650216+0.07484564i,-0.2392323+0.2802642i,-0.0192467+0.3628497i,0.1996005+0.298214i,0.3353815+0.1220681i,0.3460037-0.09750012i,0.2299704-0.2873323i,0.01892547-0.3826558i,-0.2237637-0.3367056i,-0.4063389-0.1411623i,-0.4341777+0.1487888i,-0.2608546+0.4133686i,0.06479605+0.5138691i,0.399067+0.3712449i,0.5685494+0.02756391i,0.4680807-0.3592097i,0.12864-0.5937704i,-0.2916096-0.5497494i,-0.5887121-0.2385637i,-0.6166529+0.1973269i,-0.3559895+0.5561337i,0.5014633+0.4772498i,0.7109267+0.04920263i,0.5962453-0.4313172i,0.18388-0.7388704i,-0.3519157-0.7051548i,-0.7520105-0.3132247i,-0.7957749+0.2678745i,-0.4291923+0.7473622i,0.1817154+0.8610985i,0.7218686+0.526534i,0.8966588-0.09419035i,0.6030732-0.6736354i,-0.005237741-0.9012447i,-0.6029545-0.6591243i,-0.8767952-0.08481895i,-0.6963247+0.5127569i,-0.1742878+0.8275436i,0.4083285+0.7163237i,0.7587166+0.2597096i,0.7197966-0.2963701i,0.3361956-0.6752257i,-0.1837051-0.706112i,-0.58077-0.3983875i,-0.6737415+0.07605407i,-0.4417061+0.4776157i,-0.02273391+0.6212283i},
		{0.6756082+1.349031i,1.393947+0.5812776i,1.429253-0.4692269i,0.768416-1.277085i,-0.2463761-1.448091i,-1.106205-0.9227203i,-1.406717+0.01033948i,-1.043862+0.8866993i,-0.2337824+1.310955i,0.6286097+1.132828i,1.17022+0.4781138i,1.190448-0.3460937i,0.711715-0.9958182i,-0.0560082-1.216179i,-0.7990515-0.9211847i,-1.207566-0.2241209i,-1.092122+0.5895998i,-0.4782934+1.160586i,0.3745985+1.211154i,1.070814+0.6938927i,1.268055-0.1586005i,0.8627965-0.9350966i,0.05564448-1.257435i,-0.7532426-0.9815398i,-1.179602-0.2659054i,-1.050593+0.5292438i,0.2716596+1.073043i,0.8500682+0.6604598i,1.053113+0.006957175i,0.8329999-0.6216214i,0.2914433-0.9949333i,-0.3689002-0.9782637i,-0.901881-0.5658614i,-1.087301+0.1050436i,-0.8153337+0.7765806i,-0.158492+1.152087i,0.6214437+1.027466i,1.16681+0.4122148i,1.193114-0.4394697i,0.6483242-1.128733i,-0.2349633-1.306463i,-1.038443-0.8601678i,-1.364604+0.0138861i,-1.041764+0.8995272i,-0.2162894+1.366903i,0.7178721+1.187643i,1.314485+0.4471627i,1.293093-0.5008791i,0.6702085-1.210023i,-0.2568755-1.354707i,-1.057869-0.8775107i,-1.370988-0.005129737i},
		{0.4630543+0.4254108i,0.6562529-0.01037528i,0.4838618-0.4797375i,0.01331528-0.7022478i,-0.492477-0.5224511i,-0.7265791-0.02721738i,-0.5377746+0.4921208i,-0.03745323+0.7222583i,0.4700347+0.5320781i,0.6876636+0.05265614i,0.5126789-0.4210264i,0.08111683-0.6274319i,-0.3454965-0.489865i,-0.5516176-0.1278663i,-0.4738814+0.2500884i,-0.192625+0.4733022i,0.1465586+0.4719076i,0.4053294+0.2692935i,0.4859493-0.04914389i,0.3471844-0.3571166i,0.02882426-0.512286i,-0.3324814-0.4136453i,-0.5426297-0.07806276i,-0.4572859+0.3291066i,-0.09531869+0.5666178i,0.3397552+0.4708362i,0.4527923-0.3548084i,0.05089695-0.561543i,-0.3652982-0.4074041i,-0.5259861-0.007160701i,-0.3430923+0.3654869i,0.03831835+0.47246i,0.3542257+0.2698717i,0.4086989-0.07945898i,0.1966425-0.3347599i,-0.1144184-0.3435027i,-0.3131616-0.1292035i,-0.284316+0.1451326i,-0.06955247+0.2960173i,0.1756262+0.2355596i,0.2882042+0.01657906i,0.1982009-0.2097834i,-0.03222728-0.29151i,-0.2494123-0.1705959i,-0.3045144+0.07875761i,-0.1501855+0.2932892i,0.1227354+0.3236838i,0.3374906+0.1353418i,0.3451914-0.1612246i,0.1266251-0.37684i,-0.1893802-0.3667256i,-0.4068982-0.126942i},
		{-0.2810545+0.3230449i,-0.026149+0.3760833i,0.1723701+0.2861844i,0.2723437+0.1322044i,0.2836793-0.02876215i,0.223617-0.1704292i,0.09916126-0.2704909i,-0.07329027-0.29277i,-0.2433298-0.2051768i,-0.3340262-0.01772093i,-0.2855915+0.1996454i,-0.1021555+0.3442597i,0.1383298+0.3389206i,0.3228776+0.1797764i,0.3653237-0.06000417i,0.2500893-0.2714531i,0.03310061-0.3660436i,-0.1931866-0.3121943i,-0.3430267-0.137532i,-0.364921+0.09240859i,-0.2490685+0.2987911i,-0.02573073+0.4071017i,0.2364745+0.363056i,0.4377964+0.1553693i,0.4745352-0.159907i,0.2899419-0.4563272i,-0.4620842-0.4222646i,-0.6683285-0.01790631i,-0.5448588+0.45419i,-0.1099831+0.7388848i,0.4312096+0.6505849i,0.7839273+0.19923i,0.7335162-0.39111i,0.2837064-0.798366i,-0.3316104-0.7898474i,-0.778938-0.3631846i,-0.8185629+0.2509259i,-0.438836+0.7251552i,0.1487495+0.8216122i,0.639919+0.5124307i,0.8034609-0.02719376i,0.5852354-0.5295519i,0.1086258-0.770061i,-0.4031318-0.6569225i,-0.7274712-0.2506196i,-0.7248309+0.2712079i,-0.3884675+0.6804723i,0.1441602+0.7838491i,0.6315519+0.5109813i,0.8270242-0.03057718i,0.6078104-0.5805389i,0.06396058-0.8467984i},
		{0.2615691-1.304766i,-0.5928376-1.139354i,-1.129376-0.5130444i,-1.174791+0.2687289i,-0.7682419+0.9014683i,-0.08478189+1.17976i,0.6416993+1.016503i,1.159038+0.4432371i,1.241111-0.3696813i,0.7808896-1.111791i,-0.1003048-1.422122i,-1.032138-1.075313i,-1.54058-0.1580933i,-1.311027+0.9118112i,-0.4032482+1.58285i,0.7440134+1.481138i,1.543749+0.6364754i,1.586615-0.5271762i,0.8591332-1.42756i,-0.2673483-1.633619i,-1.246647-1.069331i,-1.629874-0.0216143i,-1.260073+1.01819i,-0.3201576+1.581374i,0.7601244+1.419519i,1.490518+0.606785i,0.8622745-1.356264i,-0.2108876-1.588078i,-1.176127-1.073043i,-1.575295-0.06430473i,-1.232659+0.9492351i,-0.3351256+1.493597i,0.6792439+1.341157i,1.349402+0.5985729i,1.402554-0.3760072i,0.8488477-1.155265i,-0.05530066-1.421566i,-0.9266974-1.075997i,-1.400776-0.2634012i,-1.266471+0.6785023i,-0.5604297+1.339277i,0.4218625+1.405499i,1.233301+0.8195903i,1.480528-0.1631208i,1.030814-1.078591i,0.09540287-1.484578i,-0.8736416-1.190944i,-1.418334-0.3529298i,-1.302446+0.6226215i,-0.6070378+1.290234i,0.3368405+1.370514i,1.114443+0.8509927i},
		{-0.3085246+1.799934i,0.8692994+1.552216i,1.609963+0.6528547i,1.634244-0.4796505i,0.9714614-1.368357i,-0.08250298-1.660418i,-1.088479-1.247069i,-1.627114-0.3008226i,-1.462342+0.7816218i,-0.6518108+1.529767i,0.4561932+1.602686i,1.364772+0.9568108i,1.658851-0.1183026i,1.207733-1.131885i,0.2265513-1.628533i,-0.8362809-1.401278i,-1.51653-0.5713665i,-1.537073+0.4895375i,-0.9059316+1.333395i,0.1091199+1.615439i,1.093048+1.216242i,1.635605+0.283591i,1.485384-0.8100717i,0.6662261-1.595042i,-0.4975084-1.695737i,-1.490145-1.018517i,-1.324708+1.318048i,-0.1770997+1.883605i,1.078951+1.574697i,1.847413+0.5241473i,1.763692-0.7781225i,0.8676593-1.727299i,-0.4268604-1.890694i,-1.533408-1.197665i,-1.956425+0.04200287i,-1.501353+1.279764i,-0.355947+1.96151i,0.9815566+1.763752i,1.905553+0.7455811i,1.96957-0.6528526i,1.107455-1.787444i,-0.3053702-2.105671i,-1.606732-1.426272i,-2.163437-0.05143015i,-1.691821+1.36555i,-0.4091642+2.14029i,1.070317+1.89854i,2.039898+0.7588527i,2.044021-0.7325484i,1.089527-1.871032i,-0.3683486-2.127097i,-1.645452-1.387768i},
		{-1.81453+0.2913854i,-1.208784+1.411857i,-0.002937898+1.873068i,1.220467+1.42909i,1.853826+0.2896776i,1.585994-0.9791527i,0.56556-1.75387i,-0.6900886-1.678371i,-1.577764-0.8285699i,-1.710442+0.3608072i,-1.075433+1.337278i,0.005072498+1.689294i,1.049478+1.299609i,1.622049+0.3579064i,1.490564-0.733713i,0.7058228-1.513634i,-0.4083832-1.634684i,-1.365857-1.01659i,-1.717636+0.08839495i,-1.271727+1.178084i,-0.2160149+1.727536i,0.9492319+1.458892i,1.657938+0.4988703i,1.572905-0.6803774i,0.7567649-1.509773i,-0.3770315-1.615078i,-1.591213+0.05026277i,-1.183641+1.01816i,-0.2837872+1.508981i,0.707612+1.34059i,1.375608+0.6059144i,1.4481-0.378402i,0.8968119-1.196575i,-0.04660863-1.496527i,-0.9756864-1.1401i,-1.478363-0.2754688i,-1.324546+0.7163469i,-0.5792285+1.390535i,0.4234593+1.444878i,1.235774+0.8584422i,1.501075-0.1051343i,1.107362-1.022601i,0.2265211-1.496525i,-0.7639048-1.319092i,-1.435773-0.5559435i,-1.484943+0.4745802i,-0.8659179+1.32271i,0.1689871+1.595089i,1.159837+1.14013i,1.640379+0.140971i,1.365675-0.9488435i,0.4465669-1.614702i},
		{1.456399-0.0930782i,1.049678-1.012123i,0.1495614-1.450805i,-0.8210661-1.209123i,-1.412657-0.3994135i,-1.347336+0.6078722i,-0.6430283+1.345608i,0.3847342+1.456838i,1.252541+0.8663479i,1.529486-0.1631234i,1.056041-1.135256i,0.04725667-1.557383i,-0.9945996-1.200877i,-1.534055-0.2391352i,-1.292902+0.8310457i,-0.4078456+1.455699i,0.6455833+1.32822i,1.322218+0.5510083i,1.307214-0.4406874i,0.6678461-1.137837i,-0.2211092-1.234221i,-0.9111038-0.7583314i,-1.116703-0.005741601i,-0.8223924+0.654272i,-0.2299544+0.9641196i,0.3821369+0.8593672i,0.8678158-0.1105384i,0.6229135-0.5943263i,0.1452139-0.8457036i,-0.3957282-0.7674673i,-0.7908841-0.371737i,-0.8635973+0.1980073i,-0.5585956+0.7017542i,0.006576523+0.9043745i,0.5779352+0.6988435i,0.886482+0.1745963i,0.7890848-0.4208479i,0.3425402-0.8104477i,-0.2340808-0.829137i,-0.6804731-0.494767i,-0.8214362+0.02350017i,-0.6288155+0.5039447i,-0.2029035+0.7703322i,0.2907358+0.7419431i,0.6813955+0.4353995i,0.8310022-0.05240674i,0.6630747-0.5608171i,0.1986187-0.8924959i,-0.414925-0.8745046i,-0.9227782-0.4498533i,-1.058485+0.2498157i,-0.6894979+0.9183589i},
		{0.514819-0.2935303i,0.1917561-0.5529333i,-0.2153212-0.5341659i,-0.502909-0.257052i,-0.5359449+0.1314761i,-0.3117887+0.4371851i,0.04581556+0.5180756i,0.3566138+0.3520589i,0.4785058+0.03890628i,0.375203-0.2614305i,0.121373-0.4161126i,-0.1518911-0.3805731i,-0.3316954-0.2014948i,-0.3698133+0.02926391i,-0.2796496+0.2286904i,-0.103178+0.3465059i,0.1132988+0.3556217i,0.3152477+0.2395609i,0.4276164+0.006113371i,0.3715175-0.2804159i,0.1202609-0.4917365i,-0.2450012-0.4890922i,-0.5421754-0.2205293i,-0.5822861+0.2098799i,-0.3004868+0.5721544i,0.1737657+0.6428619i,0.6659213-0.1338714i,0.3899671-0.5476667i,-0.08708812-0.650815i,-0.4881241-0.4027243i,-0.6011291+0.03132544i,-0.3997994+0.3997742i,-0.03339494+0.5237564i,0.2891905+0.3859068i,0.4273272+0.1044269i,0.3645174-0.1653871i,0.1767275-0.3204399i,-0.03821195-0.3370849i,-0.2101759-0.243763i,-0.303019-0.08331577i,-0.2988315+0.1012645i,-0.1922981+0.2603608i,-0.003947998+0.3364235i,0.2069017+0.2845843i,0.3532428+0.1048254i,0.3586445-0.1413578i,0.2013684-0.3486258i,-0.06422161-0.4148313i,-0.3242914-0.293142i,-0.4543402-0.02196707i,-0.3785703+0.2835642i,-0.1129774+0.4782437i},
		{0.6020053+0.7384807i,0.908322+0.1509895i,0.754723-0.4652207i,0.2568808-0.8113432i,-0.3169086-0.7507567i,-0.6939176-0.3537665i,-0.7255161+0.1635824i,-0.4371614+0.5597485i,0.0103674+0.6792851i,0.4130806+0.5047656i,0.6146821+0.138357i,0.556199-0.2597949i,0.2778119-0.536763i,-0.1079429-0.5918766i,-0.4520978-0.4017804i,-0.611513-0.03268378i,-0.5022644+0.3670831i,-0.1519805+0.6129136i,0.2860751+0.5701761i,0.591638+0.2415845i,0.5970111-0.2100449i,0.296904-0.5418245i,-0.1363265-0.5770583i,-0.4580479-0.3184034i,-0.5094436+0.0596797i,-0.3116155+0.3376837i,0.1830142+0.2857353i,0.2574378+0.1228504i,0.2511075-0.002316426i,0.2312045-0.09878015i,0.1905615-0.216299i,0.06066565-0.3440547i,-0.1856237-0.378191i,-0.4497553-0.2069634i,-0.5426884+0.157891i,-0.3309923+0.5336699i,0.1268048+0.6691706i,0.5813529+0.4298837i,0.7486019-0.08295123i,0.5067577-0.5819641i,-0.01682307-0.7792467i,-0.5309592-0.5688507i,-0.7663412-0.07799008i,-0.6246046+0.4313021i,-0.2023791+0.7201194i,0.2928725+0.6805974i,0.6528087+0.3507605i,0.7392212-0.1302747i,0.5118471-0.5754907i,0.04029274-0.7977679i,-0.4957198-0.670884i,-0.8491269-0.2042021i},
		{-0.2147631+0.4141074i,0.1127897+0.4348979i,0.3544293+0.2367038i,0.3950779-0.05180127i,0.2469385-0.2728006i,0.01707706-0.3367898i,-0.1773062-0.2532071i,-0.2717873-0.09049805i,-0.2590251+0.08046623i,-0.1594427+0.210073i,-0.004332355+0.2621556i,0.1568388+0.2116604i,0.2553063+0.06671141i,0.2354207-0.1112236i,0.1021855-0.2288291i,-0.0673039-0.2233179i,-0.1745036-0.1130903i,-0.1748389+0.01695756i,-0.1072578+0.08909386i,-0.04640779+0.09681085i,-0.02357334+0.09490788i,0.00155257+0.1245795i,0.08482919+0.1527727i,0.2128862+0.09667587i,0.2833-0.08116152i,0.1857591-0.3007866i,-0.3745579-0.2590034i,-0.4889057+0.07953582i,-0.3165325+0.4212256i,0.06392305+0.5463442i,0.4324473+0.3643616i,0.5738431-0.02592139i,0.4114874-0.4070688i,0.03892804-0.579725i,-0.3515007-0.465994i,-0.5751756-0.1282411i,-0.531504+0.2777826i,-0.2327928+0.5701426i,0.1999542+0.605183i,0.5698228+0.338737i,0.6779901-0.1299142i,0.4313447-0.5729017i,-0.07410467-0.7371113i,-0.5721166-0.4990593i,-0.7697824+0.03208906i,-0.5365531+0.5569392i,-0.002541399+0.7672411i,0.517468+0.545802i,0.7275013+0.03926617i,0.5348456-0.4482179i,0.08673406-0.6560352i,-0.3505339-0.5146737i},
		{0.2638927-0.2458565i,0.1007396-0.3810251i,-0.147978-0.4199499i,-0.4224038-0.2855862i,-0.5812708+0.04593161i,-0.4691171+0.4646105i,-0.04956818+0.7357317i,0.5044233+0.635174i,0.8685753+0.1314055i,0.7696638-0.5344673i,0.1973733-0.9648944i,-0.5446591-0.8629901i,-1.012461-0.2502037i,-0.9115345+0.5245989i,-0.2962919+1.004195i,0.4662943+0.9178085i,0.9396303+0.3434649i,0.8892658-0.3664864i,0.3984222-0.8250079i,-0.2279467-0.8361329i,-0.6719974-0.4645641i,-0.768869+0.05940113i,-0.540795+0.495408i,-0.125877+0.6959399i,0.3105107+0.621587i,0.6224527+0.3123983i,0.4850766-0.5499078i,0.03432355-0.7607318i,-0.4769809-0.6314722i,-0.800124-0.1785261i,-0.7431651+0.4009582i,-0.2995407+0.8099999i,0.3193035+0.8160693i,0.7874898+0.3972646i,0.8498275-0.230868i,0.4726166-0.7332241i,-0.1364363-0.8466745i,-0.6505967-0.5265452i,-0.8102487+0.03856437i,-0.5596035+0.5447013i,-0.05908548+0.744752i,0.4213657+0.5720979i,0.6546504+0.1525594i,0.5645891-0.2865947i,0.2382135-0.5448482i,-0.146514-0.5383971i,-0.4210609-0.3128723i,-0.4957797+0.007668553i,-0.3735282+0.2900282i,-0.1226428+0.4396148i,0.1592715+0.4167943i,0.3726453+0.2363514i},
		{0.8239926-0.6242261i,0.2737093-1.016701i,-0.4207687-0.9957296i,-0.9789623-0.5381197i,-1.142404+0.1995275i,-0.7907077+0.9115244i,-0.02938039+1.255486i,0.8154012+1.018745i,1.327173+0.2567415i,1.211104-0.6916937i,0.4745016-1.351303i,-0.5421141-1.358938i,-1.324109-0.6757531i,-1.456059+0.369513i,-0.8545747+1.244727i,0.1782556+1.499062i,1.115389+1.005866i,1.487266+0.02565883i,1.125285-0.941329i,0.2347642-1.422569i,-0.7304429-1.209334i,-1.309237-0.4405417i,-1.255555+0.4927707i,-0.633983+1.15365i,0.2398666+1.262734i,0.9639505+0.8061877i,0.9489045-0.7495529i,0.2621131-1.161877i,-0.5205122-1.054967i,-1.057856-0.4870247i,-1.118637+0.2867944i,-0.6803444+0.9223058i,0.05755855+1.135897i,0.7590956+0.8338828i,1.104727+0.1594135i,0.9420736-0.5725025i,0.3580185-1.025391i,-0.3673028-1.002262i,-0.9006756-0.5338009i,-1.014702+0.1490443i,-0.683611+0.7360027i,-0.07561821+0.9822358i,0.5393164+0.8050562i,0.9096915+0.2986894i,0.8959122-0.3206631i,0.5108604-0.8030909i,-0.09145811-0.9536728i,-0.6688086-0.7018971i,-0.9753901-0.1364904i,-0.8613934+0.5128454i,-0.3520523+0.9578803i,0.3403636+0.9797869i},
		{0.3552703+0.6637109i,0.6724379+0.2588006i,0.648383-0.227131i,0.3351004-0.5612435i,-0.09158003-0.6152103i,-0.4355927-0.4031024i,-0.5677977-0.0450316i,-0.4606423+0.30294i,-0.1755084+0.5099074i,0.1711839+0.5049936i,0.4449592+0.2921209i,0.5327874-0.04800977i,0.3871247-0.3755191i,0.05988703-0.5401322i,-0.3029212-0.4535004i,-0.5230198-0.1475634i,-0.4858352+0.2271755i,-0.2123966+0.478023i,0.1472558+0.4811826i,0.4031819+0.2542901i,0.4396932-0.06175627i,0.2754183-0.2988807i,0.03021063-0.3648235i,-0.1684764-0.2795286i,-0.2630152-0.1280982i,-0.2709377+0.01846769i,-0.1419113+0.253451i,0.01386506+0.3286463i,0.2294628+0.3016543i,0.4192816+0.1148579i,0.449342-0.1994591i,0.2358388-0.4929814i,-0.1620459-0.5746374i,-0.5416628-0.3440438i,-0.6696169+0.1145002i,-0.4371441+0.5586824i,0.0537113+0.7296715i,0.5400186+0.5152062i,0.7538134+0.02271568i,0.5799164-0.4850318i,0.1154587-0.7443599i,-0.3966498-0.6335581i,-0.7061094-0.2228211i,-0.678006+0.2809604i,-0.3405676+0.6452315i,0.1463235+0.7139828i,0.5681374+0.4622814i,0.7407354-0.002219228i,0.5801413-0.4805726i,0.1419219-0.7561669i,-0.3870818-0.6859286i,-0.7573378-0.2776824i},
		{0.9455206-0.483589i,0.4372494-0.9768378i,-0.2755801-1.047874i,-0.8880934-0.6517324i,-1.122144+0.05763482i,-0.8476438+0.7747791i,-0.1590219+1.163461i,0.6410873+1.013926i,1.167128+0.3642589i,1.140907-0.4904955i,0.5497576-1.129258i,-0.3258496-1.221206i,-1.047508-0.7094375i,-1.250432+0.1497008i,-0.8395397+0.9217811i,-0.03518391+1.227576i,0.7547664+0.9383867i,1.155037+0.2252607i,1.005894-0.5522053i,0.4157393-1.03829i,-0.3228018-1.042954i,-0.8852373-0.600336i,-1.050824+0.07775133i,-0.7713408+0.7053586i,-0.1700738+1.030652i,0.5087692+0.9200293i,1.03738-0.3053295i,0.6206686-0.9089818i,-0.1039151-1.11499i,-0.808241-0.7992665i,-1.146057-0.08807089i,-0.9343266+0.6816441i,-0.2649027+1.12624i,0.5306402+1.020374i,1.054305+0.4224682i,1.055324-0.3579512i,0.5579919-0.9324186i,-0.1679066-1.040318i,-0.7660903-0.6696312i,-0.9792503-0.03342009i,-0.7560439+0.5637693i,-0.2383096+0.878091i,0.3361695+0.8160195i,0.7441152+0.437728i,0.8482422-0.09541242i,0.6218611-0.5851511i,0.1459107-0.8512257i,-0.4089301-0.7807993i,-0.8234251-0.375667i,-0.9053063+0.2225946i,-0.583018+0.763509i,0.03239569+0.9875972i},
		{-0.585513+0.1862653i,-0.3432808+0.5397276i,0.08940408+0.6583757i,0.5128109+0.4586322i,0.709411+0.01387137i,0.5600463-0.4656905i,0.1199114-0.7340914i,-0.397484-0.6424643i,-0.7288076-0.2265479i,-0.7029787+0.3072273i,-0.3331239+0.6919629i,0.1948339+0.7413642i,0.6248901+0.4398711i,0.7599279-0.06221696i,0.5468014-0.532231i,0.08583109-0.7626535i,-0.4215607-0.6524673i,-0.7538528-0.2413763i,-0.7530338+0.3022616i,-0.3939095+0.7367222i,0.1838936+0.8420417i,0.7122557+0.5317076i,0.9110467-0.07447913i,0.6437041-0.6788806i,0.02083002-0.9510562i,-0.6329741-0.7214066i,-0.7603537+0.5701447i,-0.1654301+0.9166852i,0.4869257+0.7607166i,0.8378593+0.2195009i,0.7268836-0.382384i,0.2662734-0.7227708i,-0.2591624-0.6661559i,-0.5803569-0.3082504i,-0.5869328+0.123634i,-0.3456122+0.4221033i,-0.01489273+0.4969023i,0.2600496+0.3759253i,0.4017241+0.1457026i,0.3947145-0.1048923i,0.2585143-0.3045213i,0.0353424-0.3966934i,-0.2062279-0.3451383i,-0.3772576-0.1557888i,-0.4005406+0.1065781i,-0.2543929+0.3337842i,0.005335603+0.4231031i,0.2663688+0.3309759i,0.414124+0.09667214i,0.386113-0.1778333i,0.1970499-0.3768297i,-0.07308087-0.4202341i},
		{0.800091-1.241796i,-0.1883083-1.437413i,-1.048511-0.9617662i,-1.395899-0.0668335i,-1.099581+0.8244216i,-0.3203806+1.31501i,0.5772618+1.203727i,1.193444+0.5612635i,1.266953-0.3132956i,0.7814717-1.031548i,-0.03843472-1.285879i,-0.8328679-0.9756537i,-1.261249-0.2402913i,-1.139907+0.6049107i,-0.5135748+1.197095i,0.3588054+1.270336i,1.099175+0.76954i,1.362025-0.1079025i,0.9945792-0.9732655i,0.1342823-1.408922i,-0.8239384-1.175172i,-1.40478-0.3561528i,-1.300186+0.6542389i,-0.5495018+1.344908i,0.4663776+1.362946i,1.228154+0.7099276i,0.8361073-1.058414i,-0.04949655-1.303065i,-0.8450626-0.9282349i,-1.193465-0.1663779i,-0.9862163+0.6020316i,-0.3729701+1.04399i,0.3456992+1.008317i,0.8644134+0.5565985i,0.9908012-0.09214889i,0.7035352-0.6621116i,0.1454214-0.9287756i,-0.4414738-0.8025541i,-0.8180019-0.3583912i,-0.8471532+0.2046502i,-0.5430407+0.6571076i,-0.04665954+0.8367726i,0.4494368+0.6994732i,0.7766244+0.3090486i,0.8295507-0.2038753i,0.5756692-0.6761758i,0.06570578-0.9345638i,-0.546742-0.835584i,-1.013425-0.3423033i,-1.074504+0.3989158i,-0.6084414+1.061995i,0.2405966+1.276759i},
		{0.5647762-0.3494149i,0.2039461-0.6050194i,-0.2140939-0.5760303i,-0.5082398-0.3078303i,-0.5753767+0.06738461i,-0.4095288+0.398441i,-0.08281615+0.5651645i,0.2834219+0.5044832i,0.5473626+0.227055i,0.5866358-0.1712053i,0.3551668-0.522559i,-0.06860569-0.6486422i,-0.4893379-0.4577022i,-0.6827974-0.02012108i,-0.5276119+0.444359i,-0.09408911+0.6825355i,0.383246+0.5617026i,0.6441268+0.1557197i,0.5613857-0.3021084i,0.2097278-0.5680619i,-0.1992848-0.5324076i,-0.4596521-0.2613811i,-0.4835427+0.07677776i,-0.3145022+0.3285757i,-0.05909842+0.4245413i,0.1873924+0.3697933i,0.4239938-0.04935201i,0.3276555-0.3067992i,0.07396683-0.4701571i,-0.2545056-0.4347318i,-0.4990154-0.1745983i,-0.508496+0.204179i,-0.2492327+0.5010923i,0.1503324+0.5421292i,0.4690143+0.2991331i,0.5339454-0.08678474i,0.3290009-0.3994105i,-0.00880996-0.4873636i,-0.2939165-0.3451497i,-0.4098251-0.08514609i,-0.3535137+0.1590492i,-0.1926272+0.3109969i,0.005036781+0.3580382i,0.2007756+0.3073895i,0.3598534+0.1560316i,0.42056-0.08761946i,0.3122129-0.3573811i,0.02240378-0.5223478i,-0.3472339-0.4533564i,-0.6038043-0.1257229i,-0.5720369+0.3255438i,-0.220665+0.6581616i},
		{0.2287286+1.300433i,1.023564+0.8133729i,1.283938-0.06538658i,0.9029973-0.873439i,0.1099499-1.216402i,-0.6821234-0.9667216i,-1.105977-0.2939985i,-1.007773+0.4602119i,-0.47952+0.9634751i,0.2221582+1.02759i,0.799959+0.6555811i,1.024812+0.01603835i,0.8090788-0.6246347i,0.2394672-0.9955056i,-0.4436784-0.9271222i,-0.9345794-0.4365229i,-0.9995869+0.2602924i,-0.6001081+0.8379043i,0.07587221+1.021092i,0.7044469+0.7275615i,0.9918318+0.108202i,0.8194613-0.5376863i,0.2888386-0.9170595i,-0.3458312-0.8778033i,-0.805438-0.4602164i,-0.9042246+0.1407413i,-0.06411795+0.8988879i,0.5101816+0.739858i,0.8603811+0.2560591i,0.8287057-0.3422964i,0.4251726-0.7866189i,-0.1675421-0.8733972i,-0.6763777-0.5653774i,-0.8708762-0.01127545i,-0.6742874+0.530879i,-0.1914641+0.8225301i,0.3548209+0.7520621i,0.7335523+0.3689816i,0.7997385-0.156449i,0.5375725-0.6114246i,0.05341341-0.817697i,-0.4640479-0.6888875i,-0.8048397-0.2630982i,-0.8136104+0.298154i,-0.4620442+0.7587914i,0.1185181+0.9032524i,0.6770592+0.642347i,0.9520233+0.07179212i,0.7994128-0.5587318i,0.2702672-0.9581431i,-0.4060918-0.9315336i,-0.9241291-0.4733698i},
		{-0.1126404+0.1076762i,-0.08712999+0.147237i,-0.02188184+0.2129959i,0.1193433+0.2396727i,0.2878516+0.1467555i,0.3685266-0.07641307i,0.2641509-0.3339471i,-0.01875742-0.4701689i,-0.3499321-0.371326i,-0.5422003-0.05198676i,-0.4652748+0.3359429i,-0.1331193+0.5828626i,0.2930373+0.542747i,0.5907934+0.2213906i,0.6005879-0.2227462i,0.3135447-0.565128i,-0.1269315-0.6362622i,-0.5059091-0.4066694i,-0.648352+0.008005661i,-0.4982233+0.4146372i,-0.130593+0.6368327i,0.2947203+0.585748i,0.6030121+0.2839002i,0.666414-0.151598i,0.4451729-0.549145i,0.007584147-0.7366345i,-0.7919769-0.1747261i,-0.7574983+0.3915909i,-0.3417759+0.8275107i,0.29228+0.8905054i,0.8385777+0.5017086i,0.9977793-0.1814002i,0.6491994-0.8218142i,-0.0603968-1.074577i,-0.7761385-0.7807955i,-1.11928-0.06863905i,-0.8945534+0.7034008i,-0.2022817+1.133253i,0.608461+0.9892811i,1.120059+0.3353418i,1.063665-0.4986182i,0.4609078-1.084277i,-0.3824944-1.115602i,-1.030261-0.570939i,-1.142001+0.2686367i,-0.657322+0.9611989i,0.1641855+1.139152i,0.8787426+0.7131499i,1.103592-0.07393903i,0.7339017-0.7832698i,-3.125128e-05-1.033206i,-0.674671-0.7182107i},
		{0.5538954-0.7395371i,-0.05339303-0.8991218i,-0.6014855-0.6343768i,-0.8394633-0.09818938i,-0.6840391+0.4424876i,-0.2403814+0.7460427i,0.2705667+0.7034513i,0.6255103+0.3670203i,0.6924987-0.0954635i,0.4705319-0.4844339i,0.0730148-0.6498491i,-0.3279861-0.5431184i,-0.5733329-0.2267296i,-0.5784425+0.1594281i,-0.3604568+0.4611489i,-0.01942598+0.5732629i,0.3134976+0.4722255i,0.5284618+0.2069287i,0.5626369-0.1340589i,0.399971-0.4490835i,0.06925382-0.6333976i,-0.3433157-0.5926273i,-0.6855791-0.2846247i,-0.7756352+0.2206843i,-0.4977801+0.7182226i,0.08999591+0.9370187i,1.063799+0.04235357i,0.8616075-0.7088252i,0.1731866-1.144369i,-0.6553498-0.991745i,-1.170878-0.3022342i,-1.081424+0.5631258i,-0.4308282+1.14092i,0.4315479+1.132083i,1.058035+0.5600438i,1.148338-0.2648778i,0.6889203-0.930867i,-0.072285-1.135895i,-0.7712331-0.8133751i,-1.099543-0.1333528i,-0.9261968+0.5916816i,-0.3375723+1.04184i,0.4032541+1.01816i,0.9628856+0.5267728i,1.079932-0.2140684i,0.6903058-0.8611977i,-0.02905063-1.104193i,-0.7353253-0.8216525i,-1.087312-0.1492413i,-0.9184409+0.58561i,-0.319112+1.030094i,0.4154613+0.9814278i},
		{-1.170975+1.010169i,-0.2144254+1.504105i,0.8089839+1.24396i,1.384976+0.3930701i,1.255421-0.5893565i,0.5414624-1.210811i,-0.3538296-1.209027i,-0.9887148-0.6609087i,-1.11257+0.1082887i,-0.7523689+0.730646i,-0.1376266+0.9759971i,0.4518617+0.8150681i,0.8093679+0.3711734i,0.8459861-0.1687908i,0.5780662-0.6212957i,0.1031018-0.840372i,-0.4182749-0.7445363i,-0.7931052-0.3509318i,-0.8593447+0.204973i,-0.5651637+0.700462i,-0.01474345+0.9152449i,0.5617262+0.7394888i,0.9095805+0.2365197i,0.8700593-0.3801437i,0.454496-0.8439808i,-0.1629434-0.9545046i,-0.9911808-0.07954514i,-0.8469577+0.5548469i,-0.3353598+0.978959i,0.3464207+1.003284i,0.9176126+0.592476i,1.122136-0.1066523i,0.8400034-0.8086012i,0.1554792-1.198238i,-0.6558727-1.068713i,-1.229444-0.4302105i,-1.270877+0.4662775i,-0.7066192+1.216503i,0.2493165+1.439663i,1.162153+0.9725868i,1.56851-0.01618238i,1.215341-1.069901i,0.2216894-1.650893i,-0.942976-1.422599i,-1.680717-0.4541503i,-1.584065+0.7838617i,-0.673488+1.653349i,0.5946038+1.692897i,1.566988+0.874835i,1.746652-0.3778046i,1.055707-1.423924i,-0.1379451-1.747403i},
		{0.4961103+1.032203i,1.077671+0.4911335i,1.179575-0.332303i,0.700901-1.054263i,-0.1681307-1.292006i,-1.00275-0.8791014i,-1.355731+0.007772137i,-1.016362+0.9158001i,-0.1496246+1.361743i,0.7877328+1.11052i,1.308369+0.3073681i,1.165514-0.617904i,0.4677509-1.201775i,-0.4126783-1.188494i,-1.054222-0.6289679i,-1.186207+0.1852517i,-0.7835788+0.8806817i,-0.04669493+1.161964i,0.6949339+0.9191373i,1.114261+0.2647951i,1.020859-0.5064579i,0.4540356-1.037562i,-0.319124-1.075489i,-0.9249792-0.6057367i,-1.075103+0.1320819i,-0.7185227+0.7719222i,0.5794219+0.7970051i,0.9167216+0.2510152i,0.8486685-0.3559209i,0.445107-0.7804806i,-0.1168136-0.8800554i,-0.6269287-0.6304717i,-0.893584-0.1182334i,-0.7925302+0.4701944i,-0.329407+0.8861197i,0.3191136+0.914337i,0.8498242+0.5010473i,0.98069-0.1758659i,0.6247789-0.7750288i,-0.03697718-0.9821641i,-0.6541789-0.7005016i,-0.9177665-0.1036973i,-0.7349666+0.4855161i,-0.2510574+0.7953402i,0.2752307+0.7384536i,0.6295681+0.4052742i,0.7206792-0.03730834i,0.559956-0.4382108i,0.208948-0.6873086i,-0.237773-0.7026273i,-0.6382221-0.4429781i,-0.8174122+0.03997118i},
		{0.2376806-0.2471487i,0.002181083-0.3537522i,-0.2463864-0.2628188i,-0.3615158-0.02193518i,-0.2768381+0.2294753i,-0.04666372+0.349633i,0.1942966+0.2817139i,0.3192747+0.07924302i,0.2809897-0.1407463i,0.1216812-0.2740437i,-0.07124171-0.2787631i,-0.219318-0.1741429i,-0.2784751-0.009363077i,-0.2343996+0.1611354i,-0.09447223+0.281855i,0.1049225+0.2978978i,0.2883411+0.1768863i,0.3584599-0.05442342i,0.2500857-0.2951604i,-0.01112841-0.4094489i,-0.298059-0.309319i,-0.4450888-0.0256479i,-0.3522193+0.2924795i,-0.05808665+0.4615964i,0.2748509+0.3788136i,0.4578299+0.08880901i,0.1197763-0.4353105i,-0.1997691-0.3915001i,-0.3976499-0.1514779i,-0.3831652+0.1466098i,-0.1826367+0.3495838i,0.0890829+0.3679508i,0.2959107+0.2104909i,0.346734-0.03265699i,0.2315319-0.2406378i,0.01775385-0.3194343i,-0.1865459-0.2424402i,-0.2855286-0.05857859i,-0.2409187+0.1352296i,-0.08789568+0.2447082i,0.08750846+0.2261741i,0.1974233+0.105246i,0.1989326-0.04398667i,0.1111059-0.1451142i,-0.005506171-0.1610389i,-0.0900549-0.1062747i,-0.1148289-0.02669538i,-0.09143309+0.03488061i,-0.05118056+0.06252959i,-0.0180066+0.06703838i,0.005916151+0.0667689i,0.03357268+0.06691686i},
		{-0.01643009+0.0155278i,-0.04341529-0.004066628i,-0.08511823+0.04196396i,-0.05563309+0.1388198i,0.07805038+0.1891361i,0.238699+0.09867924i,0.2845043-0.1208102i,0.129796-0.3311599i,-0.1625639-0.3621682i,-0.4051228-0.1503458i,-0.4176835+0.194034i,-0.1653715+0.4527718i,0.2069503+0.4514445i,0.4709714+0.1814779i,0.4675307-0.1962494i,0.2044102-0.461298i,-0.1612229-0.4716403i,-0.4287928-0.2371134i,-0.4688499+0.1053341i,-0.2788689+0.3799475i,0.03486924+0.4619542i,0.3206555+0.3257149i,0.4509062+0.04303719i,0.3719155-0.2548239i,0.1222875-0.4334633i,-0.1840666-0.4118977i,-0.4419362+0.108482i,-0.2714908+0.368862i,0.02811591+0.4609956i,0.3205287+0.3395922i,0.4704647+0.05553449i,0.40298-0.2651131i,0.1386282-0.4729431i,-0.2080029-0.4599241i,-0.4705887-0.2151138i,-0.5066049+0.1549484i,-0.277917+0.4637004i,0.1101812+0.5374907i,0.4501284+0.3208105i,0.5467061-0.07498486i,0.3403231-0.4258005i,-0.04727374-0.5299618i,-0.3862485-0.3369957i,-0.4863802+0.02239688i,-0.3154858+0.3286393i,-0.005046936+0.4195389i,0.2536004+0.2833945i,0.33728+0.03895947i,0.2491135-0.1661586i,0.07981513-0.2502234i,-0.07536655-0.2193377i,-0.1693477-0.12374i},
		{0.006913617+0.3238607i,0.2176682+0.2153806i,0.2922797+0.008252651i,0.2152233-0.1846496i,0.03729514-0.2779945i,-0.1583633-0.2348403i,-0.2825998-0.07082992i,-0.2670681+0.1446527i,-0.1004817+0.3028637i,0.1448463+0.3033056i,0.3322414+0.1209739i,0.3360071-0.1560751i,0.1310184-0.3631547i,-0.1728076-0.3605009i,-0.389255-0.1328441i,-0.375628+0.1889994i,-0.1306566+0.4069515i,0.200092+0.3831239i,0.4157788+0.1286623i,0.3860971-0.204194i,0.1294002-0.4176047i,-0.2021057-0.3872533i,-0.4150901-0.1329759i,-0.3875719+0.1962773i,-0.137434+0.4100634i,0.1891829+0.3859445i,0.3798996-0.1818051i,0.1391172-0.3904212i,-0.1728718-0.3671111i,-0.3710826-0.1350924i,-0.3470662+0.1592029i,-0.1312052+0.3424909i,0.1370865+0.3221813i,0.3051456+0.1325724i,0.2978322-0.1041969i,0.1444398-0.2629583i,-0.0613209-0.281154i,-0.2229888-0.1700052i,-0.2789193+0.01318427i,-0.2086269+0.1939218i,-0.03205003+0.2951709i,0.1836823+0.2551176i,0.329417+0.06458797i,0.3004888-0.1969235i,0.07563378-0.3760651i,-0.233215-0.3340331i,-0.4253865-0.06004826i,-0.3461794+0.2865803i,-0.01818637+0.4658263i,0.3466257+0.3312748i,0.487024-0.04371323i,0.2894322-0.4010096i},
		{1.066194-1.764097i,-0.3223988-2.052812i,-1.576393-1.364777i,-2.08152-0.02432809i,-1.596156+1.314669i,-0.3739849+2.010595i,0.9837452+1.759405i,1.847245+0.7215831i,1.857829-0.5962288i,1.058432-1.606128i,-0.1721868-1.895755i,-1.306156-1.370871i,-1.875711-0.2631805i,-1.640906+0.9666947i,-0.6832788+1.796974i,0.6043054+1.848719i,1.656008+1.06423i,1.976351-0.2309921i,1.38819-1.448647i,0.1456219-2.011497i,-1.173272-1.64497i,-1.950241-0.520405i,-1.831608+0.8338817i,-0.8879145+1.797907i,0.4419518+1.950196i,1.567792+1.239777i,1.563272-1.278174i,0.4186634-1.998621i,-0.9485615-1.841734i,-1.932268-0.8371891i,-2.056746+0.59633i,-1.215516+1.803894i,0.2347121+2.19151i,1.610919+1.535524i,2.234354+0.1273493i,1.786356-1.352804i,0.4836501-2.181278i,-1.033806-1.964122i,-2.036753-0.8282027i,-2.069913+0.6646906i,-1.152797+1.812546i,0.2626974+2.10693i,1.524983+1.445648i,2.077838+0.1503374i,1.691744-1.191543i,0.5512062-1.983296i,-0.827888-1.874897i,-1.822178-0.9189315i,-1.980888+0.4462387i,-1.237658+1.59339i,0.05550183+2.000694i,1.298576+1.497984i},
		{-0.2937081+0.2647772i,-0.06008834+0.3396458i,0.1294961+0.2658945i,0.2156603+0.1292429i,0.217045+0.006549026i,0.1826057-0.08008692i,0.1357497-0.1503143i,0.05969059-0.2166428i,-0.06795204-0.2505932i,-0.227689-0.1974416i,-0.3448702-0.02855582i,-0.3285505+0.2129992i,-0.1378458+0.4145263i,0.1717159+0.4498608i,0.4579214+0.2578155i,0.5590366-0.1054135i,0.3849002-0.4754553i,-0.01802431-0.6537368i,-0.4687363-0.5137976i,-0.7309631-0.08484603i,-0.6378022+0.4396138i,-0.1969983+0.7868713i,0.3894374+0.7496918i,0.8171721+0.312768i,0.8429201-0.3188169i,0.4278394-0.8180274i,-0.7871642-0.5394914i,-0.9569535+0.1175646i,-0.6462158+0.7248259i,-0.01035598+0.9758986i,0.6342182+0.7468735i,0.9719211+0.1515696i,0.8397166-0.5212513i,0.299498-0.9482715i,-0.3936146-0.9216649i,-0.9079458-0.4457011i,-0.988145+0.2594334i,-0.5809997+0.852818i,0.1259033+1.033611i,0.7833662+0.6969265i,1.052631+0.001692311i,0.7870939-0.6990866i,0.1203022-1.041224i,-0.599452-0.8480812i,-0.9980276-0.2287027i,-0.8795919+0.4850779i,-0.326547+0.9249218i,0.3586823+0.8838618i,0.8269011+0.4132232i,0.8645318-0.2254866i,0.4869362-0.7112123i,-0.09288008-0.8253632i},
		{-0.02567416+0.6393518i,0.3998632+0.4899995i,0.6159972+0.1049299i,0.5296668-0.3192638i,0.1946841-0.5827403i,-0.2277385-0.5698927i,-0.5447057-0.2897226i,-0.6098676+0.1331152i,-0.3831219+0.5064399i,0.04350967+0.646957i,0.4709111+0.4668001i,0.6766021+0.03388702i,0.532523-0.4387312i,0.09404086-0.692767i,-0.4078831-0.5732155i,-0.6889401-0.135001i,-0.5842938+0.3741238i,-0.1582261+0.6595239i,0.3320571+0.5646753i,0.6013001+0.1681553i,0.5171753-0.2766638i,0.171071-0.5145958i,-0.2049248-0.4481362i,-0.4038207-0.1735018i,-0.3663349+0.1171128i,-0.1805532+0.2771871i,0.1456283+0.1945844i,0.2020808+0.08645765i,0.2145615-0.02112777i,0.1841803-0.1348067i,0.08517697-0.2362438i,-0.08277354-0.2647645i,-0.2531448-0.1647018i,-0.318382+0.04580977i,-0.2125735+0.2580203i,0.02095987+0.3380884i,0.2445138+0.2280186i,0.3209256-0.003611703i,0.2139586-0.2085738i,0.01114208-0.2682255i,-0.1493313-0.175982i,-0.1851203-0.02725132i,-0.120995+0.06928544i,-0.04684867+0.07945548i,-0.02617442+0.05590126i,-0.03957947+0.06993604i,-0.01339838+0.1297207i,0.0946069+0.1627647i,0.2332335+0.08253042i,0.2818489-0.1176508i,0.1487033-0.328859i,-0.1353077-0.390116i},
		{-0.009631749-0.57162i,-0.3467223-0.3966153i,-0.479011-0.08350909i,-0.4012298+0.2115177i,-0.1860087+0.3897069i,0.07892099+0.4150918i,0.3128256+0.2877448i,0.4350075+0.03817994i,0.3768057-0.2526878i,0.1302841-0.4539123i,-0.2085607-0.4423868i,-0.4632325-0.1928593i,-0.4772556+0.1759463i,-0.2263854+0.4556083i,0.1489063+0.4790628i,0.4271075+0.2349702i,0.4501866-0.1225994i,0.2241126-0.3782586i,-0.09517287-0.3962906i,-0.3136513-0.1984425i,-0.3241906+0.06840144i,-0.1602304+0.2403358i,0.04691684+0.2398157i,0.16564+0.1091516i,0.1469699-0.03636424i,0.04331784-0.09518784i,-0.03179355+0.03887061i,0.05881608+0.06285471i,0.1368025-0.02443348i,0.09918448-0.1702967i,-0.07488661-0.246434i,-0.2840894-0.1449937i,-0.3602919+0.1206778i,-0.1938575+0.3942209i,0.1610019+0.4687877i,0.4922229+0.2403291i,0.5624533-0.192334i,0.2818141-0.5687024i,-0.2088498-0.6343675i,-0.6156374-0.319392i,-0.6819431+0.2040168i,-0.3572447+0.6286562i,0.1728667+0.7074363i,0.6085106+0.4008341i,0.7169514-0.1141749i,0.4544255-0.5611824i,-0.03175509-0.7182119i,-0.4964854-0.5188062i,-0.7177972-0.0656703i,-0.5900179+0.4255173i,-0.166108+0.7187378i,0.3577102+0.6596116i},
		{-0.5022717-0.6894996i,-0.8261391-0.1788992i,-0.7229652+0.4108922i,-0.2575496+0.7694721i,0.3109828+0.7204021i,0.6813868+0.3165998i,0.682382-0.2029509i,0.3569851-0.5636589i,-0.08771568-0.6121749i,-0.4205155-0.3809626i,-0.5155923-0.03270663i,-0.3914457+0.2587976i,-0.1546652+0.4004266i,0.08773345+0.3911575i,0.2755143+0.2725843i,0.3817987+0.08175463i,0.3790922-0.1495647i,0.2381706-0.3634605i,-0.02998036-0.4656515i,-0.3344737-0.3708272i,-0.52364-0.07806986i,-0.4712327+0.2917825i,-0.1721116+0.5456991i,0.2317968+0.5341913i,0.5270711+0.2522445i,0.5583734-0.1515425i,-0.04983914-0.5462232i,-0.3673056-0.3796093i,-0.503221-0.07178663i,-0.4321408+0.2359339i,-0.20869+0.4366702i,0.08230008+0.4791372i,0.3542847+0.353321i,0.5196682+0.0821795i,0.4960367-0.2628946i,0.2460098-0.550747i,-0.1675414-0.6263459i,-0.567845-0.3990346i,-0.7343237+0.07112835i,-0.5334597+0.5658317i,-0.02536237+0.8119038i,0.5401031+0.6443294i,0.8538046+0.1222128i,0.7294468-0.4876263i,0.2200994-0.8579499i,-0.4076729-0.7888623i,-0.8253769-0.3192616i,-0.8241362+0.3021163i,-0.4189101+0.759744i,0.1752883+0.8375937i,0.6666167+0.5169794i,0.8317422-0.03349889i},
		{0.4219492-0.1613227i,0.1858944-0.4000581i,-0.1392065-0.4020144i,-0.3610152-0.1844997i,-0.366195+0.1086522i,-0.1786971+0.3077748i,0.07334034+0.3195814i,0.2466842+0.1680899i,0.2652716-0.0386765i,0.1501031-0.1830166i,-0.009865854-0.2040516i,-0.1198077-0.1215174i,-0.1351959-0.009798894i,-0.08031345+0.05777293i,-0.01983256+0.05802174i,-0.00374126+0.02712011i,-0.02645122+0.02233892i,-0.03429973+0.06519714i,0.02078905+0.1144251i,0.1253517+0.09774469i,0.1993221-0.01827171i,0.1562481-0.1804339i,-0.01588761-0.272959i,-0.224413-0.2041634i,-0.3275701+0.01191951i,-0.2389269+0.2503638i,0.2525233+0.2618462i,0.3634154+0.01874658i,0.277578-0.2283521i,0.05507034-0.3475755i,-0.1798648-0.2924091i,-0.3180111-0.1081074i,-0.3118711+0.113701i,-0.1748396+0.2837749i,0.03980273+0.3384823i,0.2527607+0.2479701i,0.3703919+0.03097051i,0.317327-0.2293274i,0.08959799-0.401435i,-0.213014-0.3722907i,-0.4226428-0.1311844i,-0.4045309+0.1987792i,-0.1560632+0.4247808i,0.1787143+0.4102148i,0.4011376+0.169363i,0.390995-0.1447083i,0.1791608-0.3496952i,-0.09123874-0.3534601i,-0.2740029-0.1937898i,-0.3072117+0.01742615i,-0.2191281+0.1824831i,-0.07227717+0.2621616i},
		{-0.3339085-0.3619572i,-0.541728-0.01987812i,-0.4340222+0.4002791i,-0.03186737+0.6361728i,0.4497179+0.511895i,0.7209072+0.06018658i,0.5933899-0.4795245i,0.1048799-0.7929598i,-0.4882079-0.676502i,-0.8503448-0.1650976i,-0.7591549+0.4756689i,-0.2388542+0.8919123i,0.4431451+0.8389313i,0.917065+0.322986i,0.9129105-0.3929377i,0.4133509-0.925456i,-0.3280027-0.9777028i,-0.9167889-0.5052409i,-1.029712+0.2515239i,-0.5939148+0.8907989i,0.1665855+1.065582i,0.8474307+0.675124i,1.08271-0.07602064i,0.7455043-0.7871545i,0.01755027-1.079699i,-0.7113088-0.8027513i,-0.8455603+0.6223416i,-0.2031794+1.014966i,0.5238465+0.873385i,0.9574593+0.2893631i,0.8861206-0.4203531i,0.3666669-0.8875258i,-0.316906-0.8838311i,-0.808837-0.4315451i,-0.8666203+0.2185302i,-0.4806858+0.7248921i,0.1297171+0.8346848i,0.6387928+0.5114306i,0.788519-0.05405416i,0.5221394-0.5532316i,0.005927938-0.7291831i,-0.4706471-0.5123997i,-0.6585218-0.04868663i,-0.4830224+0.3934442i,-0.07344179+0.579231i,0.3241605+0.4358333i,0.4947279+0.07990265i,0.3733349-0.2654841i,0.06806151-0.4088417i,-0.2200903-0.2983451i,-0.3254064-0.03813421i,-0.2137223+0.190331i},
		{0.2051542-0.3724414i,-0.06838407-0.4569999i,-0.367849-0.340691i,-0.5390577-0.02870608i,-0.4560003+0.3498225i,-0.1199164+0.5920847i,0.3122146+0.543368i,0.6079134+0.2060857i,0.6002997-0.2491075i,0.2907107-0.5832565i,-0.1574354-0.6293454i,-0.5207302-0.3775936i,-0.6364825+0.03892394i,-0.4683904+0.4282646i,-0.09933987+0.6286201i,0.3170793+0.5609245i,0.6110706+0.2459492i,0.6488686-0.1988601i,0.3875459-0.5858214i,-0.08302055-0.7229384i,-0.5511629-0.5117915i,-0.7732236-0.02510566i,-0.6100191+0.5027601i,-0.1246158+0.7919032i,0.4357709+0.67875i,0.7754567+0.2178932i,0.30842-0.7256547i,-0.238091-0.7379182i,-0.6490205-0.3983381i,-0.73994+0.1135893i,-0.4866164+0.5549567i,-0.01717852+0.7306231i,0.4531704+0.5684622i,0.7117143+0.143365i,0.6361831-0.3512438i,0.2548512-0.6814061i,-0.2531363-0.6812077i,-0.6354141-0.3445047i,-0.696577+0.1590718i,-0.4094545+0.5691079i,0.06679508+0.6790605i,0.479932+0.4509897i,0.630178+0.02628794i,0.4731575-0.3692529i,0.1208678-0.5557823i,-0.2429726-0.4805794i,-0.4643516-0.2142044i,-0.4762692+0.1106622i,-0.299888+0.3645776i,-0.01652008+0.4602392i,0.2630749+0.3690215i,0.4294045+0.1284516i},
		{0.7770239-0.1680991i,0.5109305-0.5925592i,0.05452055-0.7800563i,-0.4314824-0.6671835i,-0.7710407-0.2765941i,-0.8094188+0.2690243i,-0.4810872+0.7511887i,0.1165192+0.9247649i,0.7170618+0.651678i,0.9988931+0.01963514i,0.7761751-0.6612938i,0.1390445-1.019375i,-0.5750037-0.8491007i,-0.9791101-0.246464i,-0.8725921+0.4512066i,-0.349235+0.878747i,0.288158+0.855288i,0.7272703+0.4537969i,0.809496-0.09152592i,0.5623908-0.5404902i,0.1253873-0.747488i,-0.3377964-0.6710407i,-0.6780481-0.3435654i,-0.7695119+0.1380809i,-0.541873+0.604324i,-0.04401448+0.8433337i,0.877318+0.2004731i,0.8088945-0.429134i,0.3302828-0.8595401i,-0.3131153-0.8596075i,-0.7845999-0.4378208i,-0.8567162+0.1703217i,-0.5298558+0.6552145i,0.0007786993+0.8096946i,0.481716+0.612182i,0.7309687+0.1890736i,0.6869736-0.2796761i,0.3871531-0.6323838i,-0.0664408-0.7516703i,-0.5225048-0.5781433i,-0.7996711-0.1423476i,-0.7467414+0.4055016i,-0.3352238+0.8225049i,0.2818034+0.8807182i,0.8126695+0.5057389i,0.97287-0.1500995i,0.6516138-0.7661364i,-0.00983218-1.021353i,-0.6836785-0.7727247i,-1.028466-0.1368024i,-0.8688066+0.5706183i,-0.2841013+0.9984632i},
		{-0.7356722+0.04564185i,-0.5626824+0.4922026i,-0.1452492+0.7477662i,0.3546481+0.693415i,0.7258258+0.3317136i,0.7939191-0.1988144i,0.5059183-0.6696053i,-0.03017775-0.859238i,-0.5801618-0.6609915i,-0.8861657-0.1455026i,-0.7911345+0.4600826i,-0.3221191+0.8733684i,0.3135092+0.8916143i,0.821304+0.4932597i,0.9587447-0.1459423i,0.6524196-0.7320239i,0.03612475-0.9899408i,-0.6089538-0.7933728i,-0.9838802-0.2256466i,-0.9106266+0.4567311i,-0.4154326+0.9407364i,0.2811194+0.9998412i,0.8623905+0.5984405i,1.058099-0.08896223i,0.7679317-0.7525077i,0.111905-1.083954i,-1.077263-0.3128721i,-1.041239+0.4605829i,-0.5049573+1.038873i,0.292277+1.133595i,0.9702921+0.6793895i,1.189881-0.118655i,0.8282944-0.873472i,0.0536911-1.20655i,-0.7507877-0.945358i,-1.181701-0.2191216i,-1.026326+0.6052216i,-0.3730243+1.115533i,0.440679+1.069225i,1.010618+0.5116218i,1.074258-0.2623007i,0.6316092-0.8719i,-0.07661926-1.043412i,-0.7063572-0.7297768i,-0.9798746-0.1085573i,-0.8027716+0.5223779i,-0.2845795+0.8874358i,0.3289529+0.8471124i,0.7700053+0.4426592i,0.8594897-0.1348563i,0.5747105-0.6313759i,0.05202502-0.8372932i},
		{0.1457969-0.1334785i,0.0155751-0.2529468i,-0.2036103-0.2323266i,-0.362121-0.02261264i,-0.3080703+0.2763568i,-0.0198884+0.4603997i,0.3444116+0.3661239i,0.538353+0.009341035i,0.4030003-0.3994554i,-0.004415901-0.5891083i,-0.4340318-0.4189456i,-0.6095245+0.01552062i,-0.4172931+0.4432163i,0.01858028+0.6004263i,0.4256121+0.403106i,0.5658936-0.01015724i,0.3815546-0.3834228i,0.01040508-0.5118789i,-0.3216389-0.3565353i,-0.4446121-0.0410207i,-0.3299248+0.2466447i,-0.07768424+0.3692866i,0.1647141+0.3016388i,0.2893934+0.1157508i,0.2703815-0.08086823i,0.1512158-0.2068265i,-0.1226108-0.1815681i,-0.1942573-0.08082053i,-0.2059699+0.03788904i,-0.1556259+0.1498811i,-0.0452641+0.224773i,0.1039656+0.2245468i,0.2386294+0.12355i,0.285205-0.05952596i,0.1928082-0.2475967i,-0.0192585-0.3342455i,-0.2506306-0.2489069i,-0.3679198-0.01534254i,-0.2888252+0.2456999i,-0.04439466+0.3831177i,0.2305153+0.3115051i,0.378464+0.06937417i,0.3181264-0.2036214i,0.09226067-0.3550529i,-0.1654428-0.3116559i,-0.3165007-0.1143725i,-0.2957864+0.1188653i,-0.1353201+0.2682258i,0.06907326+0.2736051i,0.2161302+0.1524901i,0.2464487-0.02260233i,0.1613151-0.1650766i},
		{1.43662+0.4655008i,1.415169-0.5444064i,0.7554027-1.31901i,-0.2492922-1.499032i,-1.137187-1.000184i,-1.503913-0.05847702i,-1.197662+0.8916798i,-0.3761238+1.432912i,0.5905992+1.349721i,1.296502+0.6969824i,1.459012-0.2498503i,1.008778-1.109553i,0.1088241-1.525915i,-0.8875231-1.293921i,-1.546857-0.4614688i,-1.531892+0.6430764i,-0.7861427+1.514648i,0.3841808+1.70307i,1.42077+1.066492i,1.792871-0.1142443i,1.293628-1.258872i,0.1658648-1.794908i,-1.028283-1.465835i,-1.712206-0.4547104i,-1.586328+0.7363296i,-0.7472614+1.556089i,1.34312+1.033087i,1.689749-0.03690691i,1.296507-1.091064i,0.3243253-1.675346i,-0.8151628-1.518767i,-1.612467-0.6624847i,-1.681634+0.525849i,-0.9603936+1.494986i,0.2285433+1.771307i,1.318048+1.208263i,1.781431+0.07454503i,1.403429-1.081408i,0.381373-1.714263i,-0.7917702-1.548107i,-1.579647-0.6869492i,-1.646067+0.4632559i,-0.981342+1.392156i,0.1157378+1.699415i,1.167349+1.249608i,1.706655+0.2284945i,1.473776-0.9183561i,0.548727-1.6627i,-0.6538846-1.636299i,-1.56083-0.8292387i,-1.723893+0.378213i,-1.06111+1.395906i},
		{-0.5494528+0.9091623i,0.1760033+1.03426i,0.7999995+0.6638738i,1.033916-0.01664885i,0.7719961-0.6853009i,0.1361624-1.024427i,-0.5718626-0.8640636i,-1.002708-0.2715189i,-0.9304283+0.4638572i,-0.3810735+0.9643689i,0.362781+0.9630985i,0.9049476+0.4598867i,0.9570408-0.2680164i,0.5066173-0.8212367i,-0.1778232-0.9109785i,-0.7124081-0.5230846i,-0.8275468+0.09047624i,-0.5133741+0.5806708i,0.00525556+0.7128267i,0.431338+0.4827404i,0.5754067+0.07694116i,0.4365727-0.2723252i,0.1534664-0.4252124i,-0.113234-0.3796238i,-0.2723464-0.2202342i,-0.3155895-0.03575143i,-0.1649266+0.2470155i,-0.005561212+0.3047194i,0.1754281+0.265929i,0.3129159+0.1166812i,0.3323341-0.1015645i,0.2031677-0.2934695i,-0.02561133-0.3600077i,-0.2443142-0.262965i,-0.3472833-0.05258069i,-0.295957+0.1649977i,-0.13328+0.2950297i,0.05686458+0.3038183i,0.2066307+0.216609i,0.2897483+0.07678i,0.3021995-0.0878476i,0.2305556-0.2580467i,0.0534987-0.3887877i,-0.2135184-0.3970245i,-0.4738289-0.2080884i,-0.5669458+0.1607505i,-0.365919+0.5532547i,0.1033719+0.729847i,0.6215071+0.5173193i,0.8749261-0.04345096i,0.6540197-0.6719441i,0.01880454-0.9922049i},
		{1.282856+0.02070691i,1.015053-0.7935207i,0.2901333-1.256004i,-0.561452-1.156134i,-1.154965-0.5471113i,-1.235707+0.2891996i,-0.7862686+0.9856776i,-0.01310279+1.255759i,0.7590294+1.001165i,1.220147+0.3312425i,1.183503-0.4891767i,0.6480983-1.132927i,-0.1913444-1.323272i,-0.9972456-0.9456915i,-1.409908-0.1202868i,-1.20761+0.815155i,-0.4340271+1.434201i,0.588415+1.421165i,1.390409+0.7411013i,1.578705-0.3199725i,1.035031-1.277943i,-0.01558318-1.677773i,-1.102084-1.310292i,-1.720122-0.3150452i,-1.560811+0.8734833i,-0.6580628+1.709985i,1.65218+0.9964263i,1.955021-0.3171919i,1.311805-1.550677i,-0.02051549-2.078735i,-1.408066-1.586959i,-2.140272-0.2708485i,-1.807947+1.226054i,-0.5474335+2.132578i,1.006727+1.965584i,2.053019+0.8025531i,2.055824-0.7541003i,1.031147-1.904269i,-0.4753139-2.07905i,-1.694111-1.22839i,-2.038651+0.1810234i,-1.388655+1.434215i,-0.1152448+1.93941i,1.138309+1.505258i,1.786284+0.3986177i,1.571134-0.8202761i,0.6548437-1.583958i,-0.4927588-1.580226i,-1.337257-0.8721229i,-1.529122+0.1666029i,-1.042274+1.05217i,-0.1488241+1.418382i},
		{-0.1086754-0.3611781i,-0.2917428-0.207495i,-0.3441495+0.01432526i,-0.2550066+0.2178191i,-0.06164687+0.3232649i,0.1550927+0.2841199i,0.2958845+0.1147366i,0.2905195-0.1038505i,0.1430265-0.2592148i,-0.06275159-0.2720596i,-0.2113795-0.1472319i,-0.229312+0.02972779i,-0.1301795+0.1523194i,0.003015044+0.1655357i,0.08425198+0.09588627i,0.08607815+0.01800252i,0.04851776-0.0115435i,0.03239538+0.002620832i,0.05998142+0.008469137i,0.09414532-0.03785647i,0.07276833-0.1241014i,-0.0313721-0.1830447i,-0.1753362-0.1431643i,-0.2653753+0.01017475i,-0.2190514+0.209852i,-0.02732853+0.3387582i,0.4020227+0.08093992i,0.3838718-0.2237939i,0.1485413-0.454633i,-0.2052921-0.4690185i,-0.4961383-0.2264579i,-0.5518287+0.1729882i,-0.3101623+0.5258507i,0.1295877+0.628429i,0.542847+0.3950653i,0.6950627-0.07751001i,0.4771407-0.5462582i,-0.01882744-0.7486914i,-0.5356957-0.5532103i,-0.7873613-0.04450399i,-0.6208615+0.5116207i,-0.1102878+0.8102278i,0.4754803+0.6781022i,0.81726+0.1758146i,0.7229587-0.4295321i,0.2378456-0.8087638i,-0.3763953-0.75323i,-0.784932-0.2929174i,-0.7665514+0.3184782i,-0.3379043+0.7456176i,0.25749+0.7607968i,0.6904529+0.370661i},
		{1.391685+0.02454049i,1.051157-0.8916308i,0.2044914-1.342078i,-0.705945-1.12909i,-1.241337-0.3963795i,-1.180803+0.4804164i,-0.594883+1.098906i,0.2272057+1.208938i,0.9259117+0.7919318i,1.215029+0.0390434i,0.9772588-0.7337856i,0.3026698-1.199161i,-0.5331231-1.13939i,-1.160098-0.5484791i,-1.266888+0.3329332i,-0.7630357+1.095811i,0.1403087+1.349632i,1.004254+0.9356242i,1.379943+0.0395406i,1.05883-0.8841808i,0.203008-1.353416i,-0.7358638-1.128752i,-1.269397-0.3476998i,-1.144927+0.5615767i,-0.4720431+1.131083i,0.3658123+1.110018i,1.029352-0.1552459i,0.6555367-0.722061i,0.06150135-0.9103207i,-0.4738016-0.7128882i,-0.7616566-0.2742516i,-0.7458237+0.2145792i,-0.4717897+0.5926125i,-0.0409839+0.7527092i,0.4120859+0.6425264i,0.7313711+0.2788303i,0.7753251-0.2277984i,0.4866348-0.6792165i,-0.04567247-0.8604867i,-0.593638-0.6548713i,-0.8908193-0.1304469i,-0.7776088+0.4727189i,-0.298628+0.8626457i,0.3161508+0.8528712i,0.7765495+0.4582417i,0.8824521-0.1261788i,0.6090149-0.6376589i,0.0916685-0.8711771i,-0.4553294-0.7499663i,-0.8257313-0.3283028i,-0.8784893+0.2422061i,-0.571409+0.7532761i},
		{0.9483679-0.9197425i,0.180619-1.272691i,-0.6194224-1.095229i,-1.140858-0.4859113i,-1.19206+0.3050413i,-0.7586234+0.9663721i,-0.009680551+1.232702i,0.7545685+0.9853569i,1.212148+0.3122631i,1.155145-0.5107204i,0.5923736-1.127661i,-0.240463-1.260735i,-0.9799716-0.8421002i,-1.299317-0.04938599i,-1.055577+0.7741718i,-0.3499547+1.272499i,0.5199417+1.228158i,1.185517+0.6498009i,1.355506-0.2309259i,0.9350764-1.045929i,0.07668538-1.43297i,-0.8621448-1.190495i,-1.455557-0.3860791i,-1.400975+0.6422306i,-0.6817973+1.418578i,0.3932814+1.553597i,1.639394-0.1215028i,1.185754-1.155925i,0.1671098-1.654521i,-0.9335184-1.379946i,-1.600515-0.465795i,-1.53142+0.6597431i,-0.7661485+1.483605i,0.3469719+1.639225i,1.313306+1.057713i,1.702718-0.01072012i,1.328254-1.100705i,0.3319924-1.720815i,-0.8569157-1.564713i,-1.691924-0.6644413i,-1.754631+0.5920599i,-0.9717408+1.614552i,0.3149678+1.887664i,1.48833+1.241815i,1.956797-0.03351317i,1.465669-1.315084i,0.2446847-1.958975i,-1.099555-1.637061i,-1.895033-0.5115691i,-1.751841+0.8495203i,-0.7583065+1.769048i,0.5752521+1.807296i},
		{-0.2474025+1.030684i,0.4751215+0.9267778i,0.943513+0.390821i,0.9543382-0.3022442i,0.5293674-0.8275748i,-0.1181898-0.9591361i,-0.6922297-0.6558355i,-0.9416432-0.06505662i,-0.7615815+0.545394i,-0.2365549+0.9005523i,0.3926999+0.8384263i,0.8339421+0.3880003i,0.8804846-0.2377243i,0.5143286-0.7408737i,-0.08306368-0.8853216i,-0.6227943-0.6132553i,-0.8540843-0.06825592i,-0.6840429+0.4842031i,-0.2116536+0.7906212i,0.3323079+0.726055i,0.6999604+0.3406559i,0.7377178-0.1757641i,0.4475538-0.5867408i,-0.02292845-0.7163482i,-0.4542028-0.5248845i,-0.6589741-0.1197578i,-0.2486742+0.5638808i,0.1377645+0.5727715i,0.4323162+0.3628826i,0.5437768+0.04262147i,0.4629889-0.2696811i,0.2321766-0.486163i,-0.08566846-0.5494193i,-0.4078374-0.4225455i,-0.6207605-0.1068403i,-0.6020775+0.316557i,-0.2938969+0.6728146i,0.2179293+0.7572554i,0.6987997+0.4630368i,0.8750287-0.1142309i,0.6055079-0.6907369i,-0.004455355-0.9454075i,-0.6416621-0.7175038i,-0.9635554-0.114406i,-0.8000383+0.5479984i,-0.2452563+0.9307486i,0.4113427+0.8575169i,0.8539012+0.3886448i,0.8954719-0.2390751i,0.5411265-0.7437856i,-0.04354505-0.9181859i,-0.6124675-0.6947932i},
		{-0.2751996-0.6362905i,-0.6039006-0.3068097i,-0.6457074+0.1461325i,-0.3940719+0.5127475i,0.02387697+0.6302858i,0.4095313+0.4570922i,0.5887615+0.0883397i,0.4938488-0.2957809i,0.1886304-0.5219064i,-0.1739473-0.5047869i,-0.4331318-0.2758438i,-0.4924991+0.04819782i,-0.3486714+0.3285027i,-0.07517985+0.4608474i,0.216052+0.4048239i,0.4137906+0.1880318i,0.4406342-0.1045057i,0.281309-0.3542912i,-0.001736227-0.4513142i,-0.2836632-0.3465716i,-0.4318745-0.08662949i,-0.3776414+0.2015875i,-0.1580481+0.378482i,0.1068065+0.3719383i,0.289865+0.2130941i,0.3310995+0.001708222i,0.1234812-0.2606742i,-0.02005868-0.2866785i,-0.1689542-0.2555614i,-0.3123977-0.1454787i,-0.3921804+0.06524996i,-0.3168337+0.3332947i,-0.04192119+0.5251856i,0.3483741+0.4823358i,0.6451665+0.1462518i,0.6318213-0.3543984i,0.2443122-0.7429841i,-0.3468432-0.7579166i,-0.8113003-0.3353485i,-0.8565854+0.3212923i,-0.4203521+0.8457049i,0.2748396+0.9268727i,0.8451647+0.5007499i,0.9700113-0.2070834i,0.5771563-0.8117289i,-0.1204381-0.9882324i,-0.7496468-0.6485777i,-0.98368+0.01971773i,-0.7122887+0.6642188i,-0.08882443+0.9577615i,0.5607598+0.7643632i,0.9110947+0.1986589i},
		{0.8147538+0.3955379i,0.854115-0.2056437i,0.5179815-0.6732354i,-0.009644311-0.8214241i,-0.4941556-0.6266454i,-0.7567188-0.1988647i,-0.7208044+0.2904049i,-0.4083893+0.668375i,0.0765598+0.7966963i,0.5629135+0.6049987i,0.8478346+0.133637i,0.7746425-0.4439612i,0.3293373-0.8664318i,-0.3124086-0.9055824i,-0.8454916-0.503641i,-0.9902526+0.1676398i,-0.6534318+0.7809125i,0.009357822+1.026056i,0.6729454+0.7781774i,1.014945+0.1606522i,0.8781993-0.526566i,0.3374483-0.9620237i,-0.350672-0.9530692i,-0.8736978-0.5129277i,-1.000713+0.15639i,-0.6769108+0.7560196i,0.6137533+0.818961i,0.9994565+0.2435237i,0.9303458-0.4504079i,0.431948-0.9435961i,-0.2691188-1.00551i,-0.8497585-0.6051807i,-1.042614+0.07394315i,-0.7596223+0.7213789i,-0.1290124+1.043018i,0.5654249+0.8918424i,1.009973+0.3311562i,0.9975278-0.3912971i,0.5219402-0.9470427i,-0.209071-1.071143i,-0.8568578-0.6902739i,-1.106521+0.02765613i,-0.8264163+0.7406821i,-0.1465165+1.098259i,0.5989521+0.9237489i,1.04345+0.3098553i,0.9798456-0.4325939i,0.4609222-0.9431683i,-0.2446183-0.9964722i,-0.8031249-0.5989712i,-0.9784961+0.04136824i,-0.7222629+0.6331964i},
		{-1.218856+0.3753408i,-0.6964293+1.113875i,0.21067+1.329437i,1.052193+0.8798775i,1.389932-0.02872732i,1.038943-0.9419447i,0.1698503-1.398851i,-0.7852278-1.17355i,-1.36026-0.3820484i,-1.284604+0.589946i,-0.6006971+1.281935i,0.3688922+1.371498i,1.172604+0.8141518i,1.430477-0.1373487i,1.007683-1.03926i,0.09004076-1.454551i,-0.885508-1.166224i,-1.435091-0.3021095i,-1.277647+0.7115456i,-0.4927905+1.364639i,0.5157918+1.335495i,1.240014+0.6610025i,1.340291-0.2975976i,0.8088707-1.064623i,-0.06005604-1.298952i,-0.8491347-0.9389221i,-1.051254+0.6101518i,-0.4325477+1.1226i,0.3671943+1.141697i,1.008575+0.6547797i,1.201683-0.1388374i,0.8357856-0.8849711i,0.06085173-1.21994i,-0.7513271-0.9597334i,-1.185569-0.2245214i,-1.017313+0.6036754i,-0.35176+1.09153i,0.4374318+1.007482i,0.9374381+0.4473383i,0.9371421-0.2506689i,0.5181046-0.7307642i,-0.04665777-0.8188781i,-0.4860013-0.5695856i,-0.6674789-0.1652037i,-0.603417+0.2220266i,-0.3704275+0.4963406i,-0.04156515+0.6164357i,0.31484+0.5521494i,0.6016938+0.288062i,0.6946833-0.127424i,0.5061214-0.551016i,0.06542095-0.7868189i},
		{0.9270226-0.4581731i,0.4107783-0.9445198i,-0.2894585-0.9841022i,-0.8487934-0.5723892i,-1.021363+0.09684233i,-0.7342744+0.7277362i,-0.1070298+1.042393i,0.5930324+0.8877167i,1.047378+0.3066759i,1.020243-0.4544174i,0.4870469-1.032284i,-0.3173213-1.118122i,-0.9898909-0.6368377i,-1.169769+0.1821528i,-0.7507556+0.9124078i,0.04549425+1.168957i,0.794833+0.8299853i,1.116777+0.09717999i,0.8806829-0.6379069i,0.2481917-1.021624i,-0.4496112-0.9109873i,-0.8971692-0.4049131i,-0.9275361+0.2445993i,-0.5585935+0.7588787i,0.04160846+0.9326547i,0.6201568+0.6952627i,0.798541-0.4893022i,0.2865041-0.8913082i,-0.3682187-0.8535476i,-0.8273322-0.3884268i,-0.850725+0.2532528i,-0.4459977+0.7232276i,0.1378443+0.7883992i,0.5761029+0.4657862i,0.6732879-0.0160859i,0.45818-0.3902823i,0.1139992-0.518809i,-0.1773626-0.4336154i,-0.3417363-0.2485519i,-0.399226-0.04580291i,-0.377973+0.1582529i,-0.2605789+0.3569604i,-0.01938557+0.4889841i,0.3037131+0.4504088i,0.567974+0.184603i,0.6038902-0.2333278i,0.3362437-0.604538i,-0.1397164-0.7161784i,-0.5940768-0.4765501i,-0.7884023+0.01998246i,-0.608199+0.5386559i,-0.1235331+0.8254372i},
		{-0.5494096+0.3139371i,-0.237262+0.5334207i,0.1032054+0.5374417i,0.3702762+0.3746969i,0.5127739+0.1080902i,0.4988741-0.2014393i,0.3085852-0.4737784i,-0.03283883-0.6011088i,-0.4184633-0.4891464i,-0.6746075-0.1312155i,-0.6432036+0.3455626i,-0.2873306+0.715179i,0.2553661+0.766472i,0.7213075+0.4322548i,0.8563154-0.1500507i,0.5623516-0.6936972i,-0.03346151-0.9110779i,-0.6345528-0.6735199i,-0.9296818-0.08951861i,-0.7615737+0.5469136i,-0.2137413+0.9116408i,0.4342939+0.8229148i,0.8574555+0.3344121i,0.8552186-0.3007251i,0.4473478-0.7691797i,-0.1511057-0.8578511i,-0.8318366-0.008385045i,-0.6351556+0.5085855i,-0.170111+0.7793697i,0.3499804+0.7022448i,0.7030523+0.3252734i,0.7454377-0.1832576i,0.4647439-0.6051556i,-0.01603267-0.7598401i,-0.4872194-0.5802945i,-0.7411489-0.1457071i,-0.6659073+0.3501954i,-0.2981467+0.6868079i,0.1951442+0.7187706i,0.5971503+0.4395i,0.7396309-0.02428223i,0.5692049-0.4761404i,0.1579788-0.7323411i,-0.3314069-0.6867083i,-0.702692-0.3444015i,-0.7902465+0.1734477i,-0.5250062+0.6568322i,0.01413419+0.876048i,0.5997214+0.6879722i,0.9382702+0.1351487i,0.82121-0.5340588i,0.2652628-0.9697624i},
		{-0.524729-0.2129346i,-0.5186732+0.190934i,-0.2459011+0.4683279i,0.1191933+0.4815738i,0.3719076+0.2636067i,0.4096927-0.02958791i,0.2724152-0.242173i,0.07569013-0.3132873i,-0.08969953-0.2770161i,-0.2032081-0.1905977i,-0.2793329-0.07265388i,-0.3059959+0.08910547i,-0.2316629+0.2781817i,-0.02189096+0.4110576i,0.2697208+0.3755755i,0.4950013+0.1257774i,0.4955041-0.2485366i,0.2215161-0.5487658i,-0.2090656-0.5861413i,-0.5662879-0.3102531i,-0.6457563+0.1469969i,-0.3941941+0.5451709i,0.06033937+0.6756088i,0.4867092+0.4754694i,0.6790369+0.05003297i,0.5552641-0.3953917i,-0.278102-0.6333597i,-0.6248045-0.3245567i,-0.7080856+0.1432452i,-0.4746423+0.5765717i,-3.981551e-05+0.7765546i,0.5199687+0.6217188i,0.8350169+0.1425281i,0.7565157-0.4585372i,0.2754564-0.8791968i,-0.3950367-0.8700042i,-0.9045668-0.3910517i,-0.9539621+0.3312427i,-0.4830944+0.9066072i,0.2677396+1.001587i,0.8811476+0.5474975i,1.008183-0.2038266i,0.5827987-0.8248801i,-0.1376732-0.9718682i,-0.7360557-0.5904062i,-0.8941588+0.06681286i,-0.5744456+0.615274i,-0.01103618+0.7802346i,0.4661779+0.5411244i,0.6387199+0.09695846i,0.4976498-0.2958206i,0.1898728-0.4808854i},
		{-0.1750724+1.047348i,0.4985217+0.889231i,0.9022208+0.3751228i,0.9068828-0.2407605i,0.563242-0.7106942i,0.03497801-0.8855832i,-0.4855953-0.7331052i,-0.8297827-0.3137895i,-0.8762661+0.2410227i,-0.5790954+0.7427765i,-0.009459589+0.9825898i,0.6260432+0.8144514i,1.04142+0.254405i,1.005529-0.4793518i,0.4854741-1.043293i,-0.3016497-1.141847i,-0.9818218-0.6976123i,-1.217884+0.09250817i,-0.8884282+0.8553103i,-0.1462794+1.233335i,0.6676829+1.057006i,1.192513+0.4094141i,1.202538-0.4284877i,0.6875126-1.10309i,-0.1519492-1.323182i,-0.9744973-0.9674371i,-1.233492+0.8163884i,-0.4434333+1.474454i,0.6374602+1.469225i,1.494365+0.7271805i,1.659436-0.4448386i,0.9817046-1.469852i,-0.2440482-1.791959i,-1.39718-1.196393i,-1.858891+0.03944296i,-1.36449+1.275272i,-0.1651269+1.857091i,1.106291+1.482712i,1.787989+0.3656675i,1.550513-0.8956893i,0.5576236-1.656871i,-0.6517788-1.569289i,-1.47194-0.7357932i,-1.541761+0.3849955i,-0.894554+1.243388i,0.1070689+1.47162i,0.982679+1.02827i,1.363406+0.16971i,1.131709-0.7020544i,0.4330288-1.222479i,-0.4141834-1.200317i,-1.054909-0.6709238i},
		{0.2073691+0.3998145i,0.3973243+0.1629933i,0.3908342-0.125554i,0.2093604-0.3328646i,-0.05128252-0.373661i,-0.2679207-0.2431269i,-0.3463917-0.01391933i,-0.2629646+0.2019181i,-0.07037029+0.308467i,0.1344611+0.2698314i,0.2613391+0.1193999i,0.2665042-0.06633625i,0.1621965-0.2085191i,-0.0001221518-0.2565465i,-0.1549504-0.1987398i,-0.2430449-0.05983308i,-0.2271973+0.1058867i,-0.1081013+0.2275401i,0.06562748+0.2440214i,0.2095182+0.1393394i,0.2447523-0.03651372i,0.1495784-0.1866519i,-0.01851099-0.2252969i,-0.1557319-0.1372385i,-0.1832916+0.009512621i,-0.1035526+0.1139949i,0.06041791+0.05226632i,0.03622178-0.005588757i,-0.01129009+0.003452125i,-0.00555609+0.05932996i,0.07341662+0.08146705i,0.1600181+0.006138604i,0.1535052-0.143339i,0.009216498-0.2583311i,-0.206444-0.2243219i,-0.3481331-0.01788838i,-0.2926536+0.2568077i,-0.03533305+0.4255256i,0.2905886+0.3585512i,0.4889863+0.06359618i,0.4224411-0.3066405i,0.1027012-0.5388065i,-0.306355-0.4841096i,-0.576081-0.1503748i,-0.5419874+0.2928322i,-0.202476+0.601638i,0.2696884+0.5930039i,0.6153028+0.2539837i,0.6330767-0.2399134i,0.3002218-0.6157508i,-0.2051527-0.6580808i,-0.600989-0.3379223i},
		{-0.6153414+0.7559738i,0.01915962+0.9622244i,0.6262268+0.7142709i,0.9272917+0.1436953i,0.7954857-0.4788482i,0.3015027-0.8697787i,-0.3242788-0.8547833i,-0.7931274-0.4434053i,-0.8861067+0.171779i,-0.5591614+0.6983628i,0.0276942+0.8829305i,0.584437+0.6413028i,0.8402663+0.1052668i,0.6866719-0.4496248i,0.2275028-0.7566253i,-0.293494-0.6968195i,-0.6352534-0.3409239i,-0.6771148+0.1187574i,-0.4468408+0.4841806i,-0.06767458+0.6348362i,0.3149939+0.5440777i,0.5768594+0.2548768i,0.6279913-0.1406627i,0.4293714-0.5076908i,0.02695195-0.6907871i,-0.4284878-0.5774959i,-0.6880042+0.3373788i,-0.3115026+0.7163917i,0.2309681+0.7541433i,0.6654136+0.4234682i,0.7746068-0.1065166i,0.5171284-0.5699987i,0.03593516-0.7531171i,-0.4355894-0.5950873i,-0.6968163-0.1922189i,-0.6585201+0.2723517i,-0.3539316+0.6140132i,0.09314638+0.7059438i,0.5120159+0.5096363i,0.7331374+0.08901989i,0.6470177-0.3957232i,0.2632972-0.7342313i,-0.2673699-0.7553393i,-0.7035979-0.4223928i,-0.8274636+0.1274193i,-0.5627322+0.6379039i,-0.02379434+0.8608536i,0.5376353+0.6834652i,0.8573121+0.1843219i,0.7847772-0.4075815i,0.3494211-0.8216331i,-0.2561193-0.866181i},
		{0.01590795-0.1739466i,-0.1318232-0.1151217i,-0.1735963+0.03857417i,-0.07566475+0.1664448i,0.08855569+0.1676852i,0.1943747+0.03650965i,0.1580455-0.1334025i,-0.001268597-0.2163563i,-0.173055-0.1453751i,-0.2324199+0.03749197i,-0.1293805+0.2071739i,0.07205593+0.2416606i,0.2345957+0.1094294i,0.2425986-0.1041567i,0.08540995-0.2533281i,-0.1319126-0.2339639i,-0.2611017-0.05842216i,-0.2155738+0.1525657i,-0.03098249+0.2562708i,0.1632259+0.1889305i,0.2387109+0.006605845i,0.1572513-0.1619014i,-0.01113722-0.2103389i,-0.1484366-0.1248499i,-0.1750028+0.01978294i,-0.0960222+0.1249804i,0.09575471+0.07378332i,0.1033213-0.01072863i,0.0588853-0.0661194i,0.0006440104-0.07530612i,-0.04117777-0.04947672i,-0.0546393-0.009906542i,-0.04157529+0.02433742i,-0.01227338+0.03955311i,0.01628637+0.03026366i,0.0260731+0.004936085i,0.01127666-0.01473482i,-0.01193268-0.009287748i,-0.01504532+0.01749646i,0.01501838+0.035007i,0.05506597+0.01159659i,0.05855709-0.04885837i,-0.0005096739-0.09726652i,-0.09113047-0.07592541i,-0.1376061+0.02390681i,-0.08130685+0.137593i,0.05805052+0.16881i,0.1817517+0.07131325i,0.1846167-0.09920996i,0.04586855-0.216406i,-0.1413598-0.1813085i,-0.2354007-0.008188574i},
		{0.3387116+0.688988i,0.6963016+0.3086465i,0.7293685-0.2051136i,0.4331672-0.6206341i,-0.0573445-0.7578298i,-0.5287002-0.5564147i,-0.7734241-0.09730349i,-0.6723933+0.4251958i,-0.2510885+0.7752417i,0.3149992+0.7749203i,0.7623279+0.3962296i,0.8579121-0.202781i,0.525449-0.7336404i,-0.0925906-0.9158131i,-0.6881343-0.6326024i,-0.9441683-0.01247236i,-0.7132892+0.6250274i,-0.1103925+0.9402613i,0.5442351+0.7652972i,0.9036795+0.2001096i,0.7887461-0.4468878i,0.2811296-0.8366438i,-0.3357882-0.7858495i,-0.7439633-0.352962i,-0.760311+0.2156486i,-0.4145367+0.6325575i,0.5105921+0.4637809i,0.6583844+0.02442982i,0.4975114-0.3863827i,0.1283563-0.5891078i,-0.2672906-0.5117237i,-0.5102992-0.2112202i,-0.5022526+0.1588526i,-0.2671243+0.4223194i,0.06433214+0.465673i,0.3247559+0.2926636i,0.4002294+0.01522546i,0.287319-0.2172407i,0.08047588-0.3065617i,-0.1003268-0.2533551i,-0.1880388-0.1329584i,-0.195261-0.02381912i,-0.1742063+0.05060496i,-0.1511043+0.1188818i,-0.09783103+0.205018i,0.03044941+0.2756618i,0.2250623+0.248324i,0.3904282+0.06426949i,0.3919303-0.2328892i,0.1605435-0.488002i,-0.2263016-0.5206404i,-0.5615771-0.2548945i},
		{0.4816166+0.5088259i,0.7046458+0.1027975i,0.6263472-0.3650763i,0.2641378-0.689603i,-0.2336046-0.7144748i,-0.6434712-0.4115077i,-0.768372+0.09272664i,-0.5380479+0.5667034i,-0.05290469+0.7840502i,0.4599066+0.6386462i,0.7593918+0.199864i,0.710696-0.3245462i,0.3456694-0.6950948i,-0.1638905-0.7542209i,-0.5951554-0.4879638i,-0.7712865-0.01619702i,-0.6234809+0.4666344i,-0.2070006+0.7648683i,0.31868+0.7472221i,0.7375472+0.397456i,0.8522274-0.1610307i,0.5754025-0.690482i,-0.002404048-0.9301399i,-0.6230288-0.7293163i,-0.9725073-0.1507726i,-0.8500897+0.533178i,0.4187098+0.9323754i,0.9266402+0.4290189i,0.9751289-0.2787327i,0.5535386-0.835855i,-0.1151269-0.9812025i,-0.7058291-0.668998i,-0.9561135-0.06657249i,-0.7745499+0.5462139i,-0.257174+0.9063513i,0.3690647+0.8670887i,0.8377093+0.4447728i,0.941169-0.1868428i,0.6164324-0.7541157i,-0.01051424-0.9897913i,-0.6572741-0.7601811i,-1.005848-0.1517785i,-0.8668092+0.5471674i,-0.2951756+0.9838128i,0.4232087+0.931019i,0.9211851+0.4176688i,0.9516795-0.2856269i,0.5190249-0.8192831i,-0.1366091-0.931209i,-0.6831772-0.5994899i,-0.8743615-0.01917524i,-0.6587358+0.520828i},
		{-0.190762-0.1953096i,-0.2797637-0.01333533i,-0.2203644+0.1820569i,-0.04428136+0.2876512i,0.1588758+0.2502804i,0.289782+0.08777809i,0.2846241-0.1244083i,0.1406939-0.2877903i,-0.08206045-0.3217535i,-0.2824986-0.1991597i,-0.3590943+0.03496138i,-0.2591049+0.2738927i,-0.01432521+0.3935575i,0.261313+0.3166969i,0.4219854+0.06386655i,0.3686179-0.2437747i,0.1122557-0.4415342i,-0.2203119-0.4121884i,-0.4499456-0.1584285i,-0.4453885+0.19026i,-0.2015+0.4457109i,0.1534305+0.4668538i,0.4281592+0.2406858i,0.4759042-0.1101784i,0.2753214-0.3975137i,-0.06139755-0.472619i,-0.4579245+0.008491323i,-0.3293452+0.3025668i,-0.04664284+0.4336225i,0.24348+0.3485795i,0.402287+0.1016099i,0.3628013-0.1815751i,0.1535219-0.366986i,-0.121288-0.3720419i,-0.3308442-0.199067i,-0.3759449+0.0671593i,-0.234698+0.2965239i,0.02328381+0.3735898i,0.265749+0.2569733i,0.3634992+0.007266596i,0.263031-0.2390077i,0.0229241-0.3438852i,-0.2155364-0.2511178i,-0.3131134-0.02388667i,-0.2210525+0.1936201i,-0.01207188+0.2702848i,0.1711556+0.1744875i,0.2157793-0.009258834i,0.1148663-0.1463484i,-0.03614508-0.1515981i,-0.1183658-0.04704019i,-0.08138128+0.06470785i},
		{0.7079072-0.7145375i,0.09607204-1.04712i,-0.6257782-0.9016767i,-1.103807-0.2916296i,-1.062608+0.517965i,-0.4751195+1.12109i,0.3908102+1.184565i,1.096272+0.6432541i,1.265048-0.2457506i,0.7934018-1.030507i,-0.08681626-1.304135i,-0.9281946-0.922357i,-1.303082-0.07939287i,-1.025715+0.7956668i,-0.2446076+1.26313i,0.639684+1.09811i,1.184991+0.400344i,1.134252-0.4662848i,0.539399-1.069203i,-0.2803881-1.130383i,-0.9171985-0.6568694i,-1.085633+0.08624373i,-0.7503525+0.732648i,-0.1115021+1.002735i,0.522494+0.8192905i,0.8878019+0.3066221i,0.4905725-0.7491657i,-0.06976843-0.8830433i,-0.5956185-0.6526477i,-0.8750432-0.1457614i,-0.7811618+0.4346363i,-0.3368468+0.8360892i,0.2711756+0.8654215i,0.7620775+0.4943636i,0.8979459-0.1074682i,0.6138644-0.6501685i,0.05610583-0.8762513i,-0.5006648-0.6955864i,-0.8036165-0.2193638i,-0.7432368+0.3183962i,-0.3804657+0.6885328i,0.1130778+0.7619486i,0.5429479+0.5345341i,0.7560732+0.1015907i,0.6732864-0.3797826i,0.3099292-0.7275212i,-0.2104213-0.7858962i,-0.6751851-0.4968789i,-0.8609006+0.04288208i,-0.6505052+0.5956196i,-0.1188495+0.8886304i,0.4847491+0.7637247i},
		{0.4217563+0.210203i,0.4745461-0.1266853i,0.2825919-0.4270006i,-0.07641747-0.5283135i,-0.4271868-0.3561951i,-0.578237+0.02406864i,-0.4257641+0.4238009i,-0.02565729+0.6208463i,0.4169131+0.4852654i,0.6513373+0.06914552i,0.5291892-0.4047568i,0.1049119-0.6645399i,-0.3840694-0.5539635i,-0.6563388-0.1340013i,-0.5589987+0.3511522i,-0.1595526+0.6251017i,0.3033395+0.5469725i,0.5726192+0.1856173i,0.5232009-0.2404017i,0.21558-0.5041941i,-0.1653914-0.4942306i,-0.4277687-0.2506807i,-0.4660454+0.08460001i,-0.2891282+0.3522848i,0.00655764+0.4424237i,0.2857195+0.3261237i,0.3548375-0.2333577i,0.1065259-0.4079706i,-0.1967996-0.3680826i,-0.3895851-0.1294762i,-0.3602106+0.1739881i,-0.1280443+0.3632699i,0.1602295+0.328679i,0.3247588+0.1055994i,0.2748355-0.1498895i,0.06827315-0.2725485i,-0.138242-0.2036968i,-0.2086093-0.02324486i,-0.1228071+0.1229216i,0.02307328+0.1381008i,0.1045615+0.04052725i,0.06820653-0.066424i,-0.03572988-0.08647123i,-0.1052933-0.006465766i,-0.07350598+0.1008142i,0.04088243+0.1405943i,0.1523641+0.07052929i,0.1746317-0.07005735i,0.08097539-0.1904746i,-0.08010049-0.2097536i,-0.2167194-0.1059554i,-0.2471693+0.07242385i},
		{-0.7247204+0.3838058i,-0.2747261+0.7879907i,0.3368897+0.7733858i,0.7749406+0.3428558i,0.802555-0.268797i,0.4124539-0.7331384i,-0.1796359-0.8132453i,-0.664956-0.484179i,-0.8084988+0.07191991i,-0.5578309+0.5757556i,-0.04897785+0.7922421i,0.4730238+0.6313803i,0.7679383+0.1751613i,0.7005867-0.364938i,0.297324-0.7374775i,-0.2587747-0.7594032i,-0.7006807-0.4063641i,-0.8011044+0.1596282i,-0.4950523+0.6555904i,0.06981564+0.8198264i,0.5994644+0.5592713i,0.8120615+0.01086711i,0.5984642-0.5301549i,0.08414395-0.7776477i,-0.4474289-0.615173i,-0.7199426-0.1518467i,-0.2145552+0.6451212i,0.2545684+0.5991369i,0.5607994+0.2707304i,0.5746735-0.1571014i,0.316623-0.4743905i,-0.06943829-0.541927i,-0.3916714-0.34699i,-0.5002457-0.001262646i,-0.3563995+0.3159594i,-0.05005562+0.4475561i,0.2480984+0.3407127i,0.3816228+0.07492243i,0.298285-0.1871964i,0.07670166-0.3014087i,-0.1318151-0.2305206i,-0.2080781-0.05831067i,-0.1416305+0.08118503i,-0.02356019+0.1053137i,0.03602322+0.03770482i,-0.001145106-0.02402121i,-0.07457263+0.001314817i,-0.08196094+0.104573i,0.02738305+0.1891397i,0.1985733+0.1489816i,0.3013192-0.03868036i,0.2245095-0.278203i},
		{0.4399981-1.099705i,-0.3623117-1.112637i,-0.9779276-0.6123624i,-1.124367+0.1555651i,-0.7483477+0.8249522i,-0.04492947+1.089339i,0.6467775+0.8459309i,1.011659+0.2324883i,0.9031941-0.4523237i,0.3986425-0.8966843i,-0.2517336-0.9175943i,-0.7495073-0.5343271i,-0.8862637+0.0544242i,-0.6317295+0.5742514i,-0.1324115+0.8072498i,0.3744172+0.6861309i,0.6812111+0.3043285i,0.6970491-0.1540979i,0.4590185-0.5128739i,0.08047959-0.6682208i,-0.3115908-0.5948313i,-0.6063579-0.3197927i,-0.7090309+0.09062277i,-0.5508561+0.5190514i,-0.1347999+0.7965161i,0.4125131+0.758342i,0.9268329-0.2899364i,0.5442137-0.859121i,-0.1510767-1.043639i,-0.8165931-0.7108858i,-1.101364-0.006739175i,-0.8494818+0.7169194i,-0.1864478+1.099426i,0.560695+0.9635298i,1.044018+0.3886081i,1.058347-0.3553995i,0.6091616-0.9464535i,-0.1149782-1.138181i,-0.8203501-0.8383822i,-1.203814-0.1421815i,-1.061459+0.6784344i,-0.3963839+1.251429i,0.5299085+1.260649i,1.273097+0.6300315i,1.418456-0.3791137i,0.8303801-1.258796i,-0.225837-1.520954i,-1.199333-0.9909183i,-1.560337+0.06708515i,-1.111077+1.0893i,-0.1002957+1.536021i,0.9291764+1.194481i},
		{-0.8532158+0.3207213i,-0.4590691+0.7959342i,0.1567643+0.9194854i,0.7254605+0.6154652i,0.9721987-0.002299672i,0.7489813-0.6514842i,0.1355325-1.001273i,-0.5705619-0.84966i,-0.9985557-0.2545099i,-0.9129826+0.4784257i,-0.3560112+0.960237i,0.3726183+0.9398072i,0.8879365+0.4427125i,0.9348184-0.254442i,0.5161793-0.7881726i,-0.1295486-0.9041228i,-0.6704512-0.5752332i,-0.8528707+0.006976319i,-0.6156741+0.5446653i,-0.1030251+0.7837408i,0.4187025+0.6314429i,0.6967838+0.1916247i,0.6167937-0.2970601i,0.2535894-0.5906246i,-0.1808942-0.5686777i,-0.4645254-0.2882622i,-0.2990113+0.3204926i,-0.03793564+0.3822619i,0.1645759+0.2913596i,0.2598588+0.1394144i,0.2704731-0.006779295i,0.2298053-0.1322537i,0.1405148-0.2389296i,-0.008917402-0.3007281i,-0.195601-0.2651728i,-0.3424039-0.1044899i,-0.3581582+0.1361067i,-0.2070797+0.3463682i,0.05474023+0.4156533i,0.3082376+0.3020302i,0.4397196+0.05275742i,0.3944269-0.2295782i,0.1865293-0.4372303i,-0.1181848-0.4883658i,-0.4173823-0.3409917i,-0.5843098-0.01341062i,-0.5049106+0.3885747i,-0.1508016+0.6776235i,0.3556653+0.6632478i,0.7588422+0.2810859i,0.8002839-0.3185012i,0.3957243-0.8156645i},
		{0.04146719+1.923233i,1.321787+1.434181i,1.957897+0.2022719i,1.610483-1.148901i,0.4510379-1.929429i,-0.9322991-1.745725i,-1.84494-0.6975221i,-1.839178+0.6843699i,-0.9306912+1.713142i,0.4199469+1.888145i,1.542013+1.137331i,1.888153-0.1534896i,1.304571-1.337569i,0.1031818-1.8345i,-1.104097-1.422516i,-1.724563-0.3418979i,-1.486105+0.8456381i,-0.5576667+1.55998i,0.568044+1.495574i,1.347848+0.7470297i,1.455403-0.2807109i,0.9059936-1.100409i,0.002840077-1.372155i,-0.8332064-1.028445i,-1.252025-0.2659459i,-1.10579+0.562251i,0.3010773+1.128137i,0.9142848+0.6637324i,1.086741-0.05865606i,0.7739957-0.6974341i,0.1611499-0.9769809i,-0.4485082-0.8197423i,-0.8008579-0.358408i,-0.8059139+0.1708203i,-0.5346293+0.5680948i,-0.1269432+0.7427856i,0.2953393+0.6898482i,0.6427879+0.4300258i,0.8203186-0.003552987i,0.7187684-0.5170124i,0.2857407-0.9176962i,-0.3725029-0.9714723i,-0.9700961-0.5542998i,-1.168228+0.2111811i,-0.7900033+0.9647927i,0.03072471+1.294635i,0.8917773+0.9878969i,1.344355+0.1729162i,1.149217-0.7470787i,0.4022168-1.319759i,-0.5348093-1.27879i,-1.230537-0.655091i},
		{1.016884-1.238679i,-0.00268246-1.578318i,-0.9898504-1.204232i,-1.514873-0.3035774i,-1.357469+0.7199439i,-0.5908097+1.413858i,0.4442356+1.464323i,1.275835+0.8402451i,1.51198-0.1742872i,1.036935-1.098786i,0.08327654-1.490059i,-0.8800493-1.172246i,-1.39365-0.3263086i,-1.244851+0.6191099i,-0.5551742+1.225405i,0.3203079+1.259927i,0.9960054+0.7699645i,1.2268+0.005498958i,0.9678589-0.7227374i,0.340985-1.155786i,-0.4265305-1.141572i,-1.055221-0.664261i,-1.279478+0.1282604i,-0.9521967+0.9295683i,-0.1546629+1.367456i,0.7791722+1.184281i,1.345965-0.6016505i,0.6336858-1.343395i,-0.3944221-1.430606i,-1.218827-0.8235485i,-1.439543+0.1575001i,-0.9819388+1.023186i,-0.1043849+1.380419i,0.7686681+1.110487i,1.26437+0.3810375i,1.208507-0.4725379i,0.6576854-1.103003i,-0.1540154-1.272203i,-0.9060944-0.9172377i,-1.295385-0.1688216i,-1.143218+0.6806374i,-0.4812507+1.271419i,0.4313761+1.322482i,1.195668+0.772705i,1.44693-0.1624488i,1.036129-1.067575i,0.1206164-1.513779i,-0.8916512-1.26635i,-1.52446-0.4094028i,-1.458245+0.6770236i,-0.6922572+1.482672i,0.4357289+1.605509i},
		{-0.5816613-0.524873i,-0.796249+0.0253615i,-0.560215+0.5752059i,-0.004545392+0.8022629i,0.5474085+0.5763593i,0.7803148+0.03751716i,0.5768648-0.4977642i,0.07584916-0.7340013i,-0.4286704-0.5662146i,-0.6692229-0.1199998i,-0.5486232+0.34532i,-0.1680667+0.5930659i,0.2549845+0.5269864i,0.5124995+0.2158621i,0.5022554-0.16584i,0.2575935-0.4332127i,-0.08561147-0.4734006i,-0.3588659-0.286988i,-0.4379561+0.02036025i,-0.2985748+0.2909139i,-0.02631237+0.392979i,0.2289888+0.2888059i,0.3361395+0.05349306i,0.2567482-0.1716818i,0.0626237-0.2666442i,-0.1174679-0.2042112i,-0.135331+0.06550781i,-0.0396496+0.09681858i,0.01612787+0.05576795i,0.004796846+0.01490453i,-0.02824486+0.0291042i,-0.01458929+0.08445267i,0.06766714+0.1107666i,0.165018+0.0468977i,0.1867525-0.09659956i,0.08095622-0.2316383i,-0.1130607-0.2523315i,-0.2801597-0.1162891i,-0.3047982+0.1147781i,-0.1526855+0.3077077i,0.1002895+0.3424441i,0.312643+0.1899691i,0.3643718-0.06897462i,0.2279279-0.2944242i,-0.02095577-0.3704092i,-0.2535105-0.2663871i,-0.3611574-0.04301193i,-0.3053304+0.191383i,-0.1215496+0.3381205i,0.1106805+0.3449434i,0.3037953+0.2125143i,0.3854815-0.01535748i},
		{0.2784818+0.1503668i,0.2925738-0.04670769i,0.1965915-0.1997095i,0.04224675-0.2665452i,-0.1173341-0.2388203i,-0.2363625-0.1279729i,-0.2743092+0.03722816i,-0.2041133+0.203705i,-0.03539316+0.2992754i,0.1688471+0.2645936i,0.3095151+0.09698434i,0.3048264-0.1306556i,0.1462914-0.3014293i,-0.08715016-0.3227428i,-0.2731586-0.184361i,-0.3193054+0.03647508i,-0.2138993+0.2254585i,-0.02201644+0.2982996i,0.1619967+0.2381504i,0.2654066+0.08692573i,0.2596192-0.08891741i,0.1545149-0.2267912i,-0.01374001-0.2790295i,-0.1875909-0.2190914i,-0.2948391-0.05612853i,-0.2739985+0.1507402i,0.1164656+0.3129527i,0.3002382+0.1592639i,0.3313628-0.08258976i,0.1891037-0.2806065i,-0.04554067-0.3272693i,-0.2415858-0.2066948i,-0.301657+0.001751067i,-0.2158478+0.1826978i,-0.05097254+0.25808i,0.1063463+0.2205438i,0.2017326+0.1125109i,0.2237186-0.01747262i,0.1801773-0.1382566i,0.07737088-0.2265007i,-0.07263119-0.2491855i,-0.2280864-0.1712385i,-0.3136591+0.008446496i,-0.2579406+0.2262344i,-0.05227869+0.3678535i,0.2181705+0.332817i,0.4072202+0.1087577i,0.3929725-0.2015821i,0.1607667-0.4290296i,-0.1753778-0.437007i,-0.4324359-0.2079327i,-0.4644354+0.1399895i},
		{-0.3219135-0.8076913i,-0.7552323-0.4082826i,-0.8350445+0.1703213i,-0.5277321+0.6660659i,0.02863193+0.8495392i,0.575758+0.627432i,0.8474821+0.09712219i,0.7014297-0.4855382i,0.2027945-0.8260431i,-0.3961649-0.7458614i,-0.7837497-0.2859188i,-0.7589949+0.3083844i,-0.345364+0.7206984i,0.2232401+0.7410294i,0.6385143+0.3809909i,0.6937869-0.1421915i,0.3934057-0.5401531i,-0.06707794-0.6204171i,-0.4296545-0.3838379i,-0.5251783+3.526266e-06i,-0.3540989+0.3119332i,-0.05676583+0.4132926i,0.1926332+0.30654i,0.2908016+0.1008388i,0.243924-0.07800036i,0.1296691-0.1643235i,-0.0406336-0.1405258i,-0.08497491-0.1106456i,-0.1305676-0.07394145i,-0.1718681-0.006507228i,-0.174228+0.09711962i,-0.1039107+0.2042067i,0.03819221+0.2568373i,0.2050243+0.2065662i,0.3205227+0.04682126i,0.3140961-0.1744537i,0.1564274-0.3661057i,-0.1156307-0.4257369i,-0.3959287-0.2865217i,-0.539578+0.03439078i,-0.4302953+0.4129413i,-0.06156943+0.651964i,0.419654+0.5786861i,0.7572994+0.1639148i,0.7213554-0.4172518i,0.2650058-0.8483903i,-0.4051315-0.8480228i,-0.917312-0.3590319i,-0.9498836+0.3810074i,-0.4426783+0.9566363i,0.3415723+1.020795i,0.9607406+0.5151867i},
		{0.7900399+0.3183832i,0.7982837-0.2656952i,0.4315733-0.7106188i,-0.1289252-0.8113025i,-0.614956-0.5288188i,-0.7997563-0.006500026i,-0.6062258+0.5027509i,-0.1390148+0.7621343i,0.3748269+0.6632597i,0.7004715+0.2678259i,0.7018561-0.2346589i,0.391113-0.6201885i,-0.08903133-0.7246754i,-0.528774-0.5046129i,-0.7331748-0.05251154i,-0.6012052+0.4337526i,-0.1793257+0.726254i,0.3406458+0.6717718i,0.7000405+0.2819422i,0.7071502-0.251655i,0.354223-0.6489879i,-0.1655588-0.7005993i,-0.5679923-0.3946801i,-0.6499847+0.07890509i,-0.4064927+0.4548483i,-0.0118746+0.558934i,0.4365185+0.1081307i,0.3713243-0.1483387i,0.207249-0.2954715i,0.02372612-0.3380624i,-0.1494246-0.3021366i,-0.2991494-0.1884218i,-0.3822007+0.00996352i,-0.3307573+0.2532368i,-0.1156188+0.4356098i,0.1956185+0.4393611i,0.4522003+0.2252103i,0.5086017-0.1202283i,0.3211711-0.4261717i,-0.0222599-0.5391789i,-0.3577564-0.4083004i,-0.5370511-0.09943299i,-0.4911694+0.2533546i,-0.2409403+0.5110808i,0.1240974+0.5717056i,0.470161+0.3933712i,0.6478143+0.01672365i,0.5443996-0.420724i,0.1565763-0.7134687i,-0.3653752-0.6808092i,-0.760208-0.2860945i,-0.7912557+0.3030017i},
		{-1.188975+0.3891747i,-0.6594384+1.100798i,0.2405172+1.294211i,1.068096+0.8204778i,1.366284-0.1159442i,0.9350081-1.023722i,-0.01469878-1.390297i,-0.955996-0.9973145i,-1.357416-0.07027976i,-1.010479+0.8551702i,-0.1490963+1.267436i,0.717214+0.9847403i,1.129127+0.2307927i,0.9340351-0.5460799i,0.3196859-0.9582669i,-0.3537324-0.8718068i,-0.7739512-0.4132977i,-0.8073663+0.1579129i,-0.5025127+0.5942941i,-0.02168148+0.7438917i,0.4327977+0.5738838i,0.6785989+0.1676516i,0.6133218-0.2964012i,0.2683265-0.6048947i,-0.1856496-0.6099836i,-0.5156942-0.3194214i,-0.3235762+0.4067322i,0.02447364+0.4632249i,0.278759+0.2881268i,0.3307489+0.03463181i,0.2220027-0.1379377i,0.08071607-0.1737572i,0.005597278-0.1328727i,-0.004602591-0.1103596i,-0.02548758-0.140431i,-0.1180929-0.1667376i,-0.2568176-0.09831923i,-0.3339843+0.09886068i,-0.2381348+0.3488518i,0.05048603+0.4941872i,0.415141+0.3926852i,0.6459672+0.02482341i,0.5577549-0.4578159i,0.120524-0.7871768i,-0.4803196-0.7252157i,-0.9129883-0.2273708i,-0.8836615+0.484858i,-0.3360867+1.015266i,0.470526+1.020559i,1.083606+0.4401227i,1.125248-0.4328927i,0.5374956-1.107822i},
		{0.5671973-0.4766176i,0.09136381-0.7096959i,-0.3931542-0.5629904i,-0.6381924-0.1501945i,-0.5504435+0.2938282i,-0.2134738+0.5535465i,0.1861349+0.5335761i,0.4640806+0.2773383i,0.5144505-0.07943048i,0.3355561-0.3772235i,0.01678358-0.4926783i,-0.2981754-0.3807579i,-0.4657717-0.0946497i,-0.4061257+0.2292784i,-0.1493305+0.4302271i,0.1702324+0.4070521i,0.3829843+0.1796079i,0.3822845-0.1190352i,0.1875733-0.3227923i,-0.07330847-0.3342182i,-0.2510414-0.1775433i,-0.2682655+0.03156727i,-0.1545669+0.1717983i,-0.005971317+0.1915098i,0.09104597+0.1229907i,0.1110711+0.03727376i,0.05906459-0.03268461i,0.04936929-0.04294998i,0.0401003-0.06785442i,0.005228214-0.09927604i,-0.06104498-0.1059172i,-0.132687-0.05995415i,-0.1648743+0.03772805i,-0.1214971+0.1499632i,-0.001078978+0.2174713i,0.152637+0.1887397i,0.2635831+0.05280658i,0.2590333-0.1423842i,0.114142-0.3018959i,-0.120206-0.3286668i,-0.3299973-0.1819489i,-0.3937519+0.08612745i,-0.2539436+0.3450669i,0.03951719+0.4511752i,0.3448937+0.328871i,0.4992491+0.02010289i,0.4061152-0.3288227i,0.0920733-0.5378103i,-0.2982594-0.4848983i,-0.5677195-0.1738295i,-0.5633824+0.2565178i,-0.2606806+0.5899479i},
		{0.3243145+0.2546452i,0.3925663-0.04349622i,0.2362863-0.2931165i,-0.0394123-0.3547672i,-0.2652103-0.2069874i,-0.311821+0.04536333i,-0.1674974+0.2407884i,0.06033211+0.2647642i,0.2198788+0.1199838i,0.2157584-0.08248886i,0.06779424-0.2030913i,-0.1100126-0.1681934i,-0.1920981-0.01471885i,-0.1262185+0.1419022i,0.03600086+0.1895938i,0.1784339+0.09380658i,0.198671-0.08255844i,0.07364343-0.2210403i,-0.1250208-0.2217693i,-0.2715895-0.06623142i,-0.2595387+0.1651122i,-0.06955526+0.3312701i,0.2053597+0.3100274i,0.399453+0.07949423i,0.3685333-0.2478415i,0.09092309-0.4729498i,-0.5459875-0.09920534i,-0.481694+0.3385563i,-0.1016299+0.6110055i,0.3800268+0.5222511i,0.6601146+0.09833176i,0.5458692-0.4109564i,0.09238047-0.6868338i,-0.4246558-0.5519192i,-0.6876087-0.08897432i,-0.5432418+0.4158571i,-0.0939577+0.6626658i,0.3821826+0.5252593i,0.6159479+0.1120956i,0.5044277-0.3249361i,0.1456159-0.5541493i,-0.2489829-0.4864868i,-0.4851356-0.1934458i,-0.4750161+0.1617606i,-0.2513511+0.4162072i,0.07171498+0.4706958i,0.3526925+0.3129119i,0.4714438+0.01338204i,0.3710175-0.2972355i,0.08776613-0.4733297i,-0.249915-0.4194299i,-0.4719351-0.1483316i},
		{-0.2282362+1.27313i,0.6499916+1.159448i,1.274489+0.4876113i,1.319982-0.4585329i,0.7237881-1.228317i,-0.2514328-1.426266i,-1.131442-0.9293258i,-1.472817+0.03158855i,-1.099756+0.9836188i,-0.1976984+1.458511i,0.7883183+1.233119i,1.386511+0.431845i,1.329131-0.5530295i,0.6643247-1.263626i,-0.2889699-1.388241i,-1.099241-0.8864424i,-1.410815+0.01021294i,-1.087664+0.9040766i,-0.2676254+1.396688i,0.6889922+1.256477i,1.345159+0.5289083i,1.381626-0.464061i,0.7594507-1.255402i,-0.2380129-1.453474i,-1.12715-0.9477149i,-1.465233+0.01805284i,-0.1900235+1.413832i,0.7612031+1.168651i,1.30032+0.3815377i,1.196109-0.5316529i,0.5525804-1.12977i,-0.280254-1.170269i,-0.910777-0.6997013i,-1.095914+0.0164689i,-0.8196933+0.6546732i,-0.2487485+0.9795702i,0.374608+0.9094891i,0.8288044+0.5035868i,0.9661681-0.08460803i,0.7360634-0.6516178i,0.2013-0.9870542i,-0.4559531-0.9347077i,-0.969884-0.469871i,-1.089218+0.2493175i,-0.7093228+0.9130311i,0.03851081+1.191085i,0.8157772+0.9099198i,1.234175+0.1705423i,1.064449-0.6786321i,0.3728402-1.215263i,-0.5036913-1.168549i,-1.134458-0.5642092i},
		{0.04384918+0.6983221i,0.4937655+0.4373275i,0.6180693-0.03611999i,0.3855669-0.4325435i,-0.03206335-0.5405004i,-0.38058-0.3331193i,-0.4712529+0.03855366i,-0.2775683+0.3450959i,0.06163542+0.4115772i,0.3289521+0.2152002i,0.3594741-0.1040771i,0.1436041-0.3305656i,-0.1641859-0.3119204i,-0.3453688-0.06366121i,-0.2672687+0.2362661i,0.01983312+0.368182i,0.312513+0.2268711i,0.3955702-0.09916066i,0.1952832-0.3856277i,-0.1659439-0.4272773i,-0.451184-0.1789339i,-0.4661803+0.2138679i,-0.1837209+0.5088634i,0.2408597+0.5167521i,0.5620731+0.212408i,0.5825734-0.2498858i,-0.2479962-0.6638122i,-0.6750051-0.327549i,-0.7556482+0.2438509i,-0.3955256+0.7395877i,0.2445189+0.8483315i,0.8052021+0.4548907i,0.929031-0.2526355i,0.4964624-0.862316i,-0.2649351-0.9850016i,-0.8985466-0.5165656i,-1.00712+0.2727534i,-0.5182894+0.9020572i,0.2644503+0.9926511i,0.8652064+0.5106747i,0.9463148-0.2290561i,0.506003-0.7872819i,-0.1600141-0.8792275i,-0.6753954-0.5159835i,-0.8059808+0.0578227i,-0.5480059+0.5431895i,-0.06928677+0.7407088i,0.4076965+0.6026297i,0.6933354+0.2068935i,0.6730955-0.2852755i,0.3377077-0.6671378i,-0.1878423-0.747013i},
		{1.023894+0.2054296i,0.8940333-0.5188264i,0.3189462-0.9631942i,-0.3886438-0.9068i,-0.8574525-0.4079473i,-0.8710603+0.2430073i,-0.4754596+0.7075744i,0.08145267+0.7923446i,0.5199846+0.5263658i,0.6806656+0.09295012i,0.5649872-0.3065538i,0.2724752-0.5482398i,-0.08306544-0.5929014i,-0.406711-0.445018i,-0.6077477-0.1334297i,-0.595821+0.2647039i,-0.3276596+0.6034625i,0.1264473+0.7102335i,0.5719334+0.4887246i,0.776741+0.008132452i,0.6115125-0.5055923i,0.1419176-0.7893959i,-0.4001544-0.6965734i,-0.7489484-0.2782149i,-0.7485599+0.2566499i,-0.4182751+0.6623667i,0.540924+0.5595291i,0.7776525+0.1113349i,0.6951119-0.3974524i,0.308628-0.7628769i,-0.2435949-0.8148275i,-0.7288269-0.4946672i,-0.9072465+0.0878417i,-0.6569707+0.6723154i,-0.06514478+0.962279i,0.5893844+0.7874402i,0.9734319+0.2138539i,0.8827847-0.4774754i,0.3582742-0.9390872i,-0.3372223-0.9436312i,-0.8624744-0.497941i,-0.9727657+0.1732671i,-0.6304206+0.7504421i,-0.006160524+0.9731978i,0.6115145+0.7507785i,0.946755+0.1907257i,0.8522102-0.4539299i,0.3700074-0.8936781i,-0.2843167-0.9275843i,-0.8133048-0.5353595i,-0.971326+0.1074047i,-0.6809958+0.7055156i},
		{1.042068-0.9054661i,0.2397625-1.32435i,-0.6202485-1.159902i,-1.181864-0.5204681i,-1.23725+0.3115557i,-0.7819179+1.000073i,-0.001911628+1.271597i,0.7894024+1.008344i,1.258144+0.3025462i,1.184561-0.5573803i,0.5763193-1.191391i,-0.3087521-1.298781i,-1.06751-0.813988i,-1.344668+0.04691i,-1.010777+0.8866698i,-0.223995+1.322022i,0.6544923+1.164808i,1.23596+0.4971164i,1.274979-0.3820928i,0.7619473-1.094939i,-0.08466148-1.339144i,-0.9083676-1.004782i,-1.353346-0.220995i,-1.210563+0.6846257i,-0.5191835+1.312424i,0.4301695+1.365574i,1.460144-0.1499624i,1.047664-1.050078i,0.1510034-1.490483i,-0.8307799-1.265248i,-1.459057-0.4657448i,-1.447829+0.5637366i,-0.7837166+1.373374i,0.264341+1.592997i,1.243599+1.090354i,1.69662+0.04850844i,1.368088-1.079781i,0.3554791-1.752215i,-0.8896217-1.598697i,-1.751765-0.6399668i,-1.766371+0.6775134i,-0.8904207+1.687775i,0.4451412+1.860619i,1.555967+1.101161i,1.878126-0.1933935i,1.271511-1.357685i,0.07512791-1.822989i,-1.10119-1.403604i,-1.705258-0.3539276i,-1.499658+0.8013113i,-0.6316052+1.538215i,0.4774549+1.559663i},
