/*
 * DNN_Data.h
 *
 *  Created on: 05-Mar-2022
 *      Author: Ranjith Srinivas
 */

#ifndef SRC_DNN_DATA_H_
#define SRC_DNN_DATA_H_

// Neuron count in each Layer definition
#define LAYER_1_COUNT 104
#define LAYER_2_COUNT 52
#define LAYER_3_COUNT 104


//DNN Parameters
// Bias from layer-1 to Layer-2
const float Layer1_bias[LAYER_2_COUNT] = {0.021381,-0.032241,-0.018317,0.010462,-0.032976,-0.051970,-0.040884,-0.004661,0.126262,0.009255,0.024583,0.592030,0.042891,-0.027373,0.009401,0.007672,-0.058494,-0.098515,0.037542,0.607992,-0.032811,0.000677,-0.011323,0.017341,0.041239,-0.018440,-0.034577,0.123462,0.024338,0.042312,-0.047274,0.011979,-0.033913,-0.021403,-0.000032,0.028695,-0.073353,-0.045991,0.102394,0.001160,0.044751,0.071652,0.044184,-0.002357,0.012183,0.059968,-0.172469,0.015632,0.036764,-0.035282,-0.019020,0.040842};

// Layer 2 weights -> [104 * 52]
// Thus, for layer_2 neuron_1, the weights are from column 1 only. Similarly for Layer_2 neuron_52, the weights are from last column.
const float Layer1_weight[LAYER_1_COUNT][LAYER_2_COUNT] = {{0.003202,-0.099814,-0.040264,0.219182,0.040276,0.079203,0.141354,-0.096737,0.069259,0.079127,0.118137,0.035550,-0.081695,0.360112,-0.113626,0.051212,-0.009209,-0.010273,-0.067007,0.210393,0.162872,-0.094850,0.014006,-0.049284,0.094705,-0.069549,0.125727,-0.062438,-0.080408,-0.070724,0.084168,-0.179327,0.026301,0.047154,-0.115975,0.032200,0.050245,0.124149,-0.046351,-0.084080,0.024465,0.156493,-0.210387,0.013653,0.132438,0.078253,0.023921,-0.020751,0.075067,0.045894,-0.202987,-0.162052},
		{-0.029683,0.038090,0.063663,-0.007026,0.091311,0.145030,0.197091,0.062554,0.176831,-0.112031,0.058262,0.129809,-0.035881,0.241521,-0.048296,-0.021092,-0.164420,0.046097,-0.102176,0.081058,0.191282,-0.011434,0.135227,0.093438,-0.113795,-0.084594,0.015764,-0.078889,-0.150100,-0.036537,0.008275,-0.208191,-0.014902,-0.047132,-0.167617,-0.106991,0.023369,-0.033798,-0.107615,-0.094469,-0.086375,0.054778,-0.041425,0.117845,0.041812,-0.004703,-0.117800,0.028035,-0.116619,0.022781,0.070950,-0.088867},
		{0.065628,0.048889,-0.016811,-0.057735,0.122445,0.125657,-0.004850,0.127686,0.180877,-0.231049,-0.051956,0.128705,-0.089938,0.065410,-0.052330,-0.124970,-0.021865,0.140811,0.032183,-0.053631,0.035964,0.056493,0.042965,0.136419,-0.215503,-0.109289,-0.037075,0.125706,-0.026162,0.011795,0.067769,-0.093597,-0.038645,-0.106876,-0.000028,-0.075426,0.034522,-0.036097,-0.151896,-0.010992,-0.013661,0.065603,0.022736,0.035603,-0.071578,0.039492,-0.158323,-0.010351,-0.131027,0.093896,0.099026,0.042878},
		{0.110566,0.052534,0.056739,-0.128381,0.044426,0.006854,-0.086076,0.127198,0.084207,-0.039268,0.036286,0.121143,0.001608,-0.186403,0.018280,-0.182428,0.016606,0.015073,-0.049058,-0.090233,-0.049649,0.083404,-0.026680,0.081947,-0.109737,-0.011155,-0.065055,0.149007,0.091350,0.038442,0.063138,0.178385,-0.034293,-0.052687,0.063760,-0.002142,-0.032508,0.020605,-0.025959,0.038534,-0.115475,0.013170,0.131142,-0.068776,-0.163285,0.006378,-0.153042,0.071681,-0.094084,0.098368,0.162320,0.027649},
		{-0.012213,-0.046078,0.033122,-0.138887,0.021727,-0.064553,-0.034083,-0.002223,-0.092599,0.016716,-0.143407,-0.083331,0.103783,-0.187246,0.155607,-0.135423,0.068862,-0.083566,0.042141,-0.137782,-0.056736,0.141412,-0.151807,0.033482,0.055859,0.002179,-0.044935,-0.023271,0.165407,0.124389,0.027734,0.216069,0.017687,-0.040062,0.106996,-0.016533,0.001856,-0.054276,0.113182,0.163421,-0.069594,-0.052703,0.135649,-0.091125,-0.046916,-0.040198,0.011371,-0.060876,-0.080225,0.066861,0.085453,0.071521},
		{-0.005709,-0.106927,-0.029136,0.029503,-0.060366,-0.149168,-0.131047,-0.052465,-0.011024,0.078404,-0.021215,-0.154443,0.016080,-0.099405,0.063524,-0.041943,0.060021,-0.170219,0.035164,0.003844,-0.063090,0.028338,-0.092327,0.032526,0.033145,-0.046017,0.030735,-0.024358,-0.001495,0.144104,-0.015912,0.083440,-0.030579,-0.033102,-0.100997,-0.015416,-0.087331,-0.008022,0.106893,0.148717,0.179617,0.086184,0.088412,-0.174091,-0.030343,-0.039996,0.125034,0.011763,0.131608,-0.021421,-0.030285,-0.032800},
		{-0.024233,0.025130,-0.082191,0.124941,-0.091068,-0.025901,0.027522,0.013888,0.025806,-0.107389,0.125365,-0.109336,-0.072223,-0.006236,0.038711,0.101398,-0.016248,-0.095400,0.044907,0.148739,0.053355,-0.143055,-0.001909,-0.025146,0.007652,0.004702,-0.034757,-0.110665,-0.023817,-0.044056,-0.116253,0.014953,-0.024515,-0.011761,-0.210257,0.018909,-0.068825,-0.048285,0.004161,-0.025441,0.201000,0.114142,-0.036831,0.031523,0.068694,-0.007982,0.090744,-0.001887,0.181537,-0.065091,-0.095264,0.075765},
		{-0.010756,-0.055648,-0.040243,0.062615,-0.098799,-0.114302,0.003458,0.078672,-0.122939,-0.027964,0.101745,-0.002704,0.076048,0.136664,-0.142548,0.062962,-0.007177,0.048039,0.003893,0.099136,-0.028409,-0.056701,0.038168,-0.052688,-0.068519,0.018434,-0.029688,-0.068167,-0.039888,-0.008003,-0.015685,-0.169970,0.013313,0.094855,-0.028623,0.055213,-0.002162,0.013779,0.016085,-0.090204,0.023685,-0.075394,-0.092503,0.179055,0.107546,-0.042258,0.117738,-0.029668,0.057810,-0.126528,-0.065699,-0.078550},
		{0.043064,0.061493,-0.017275,0.018884,-0.029869,0.038561,0.066176,0.060665,-0.062316,-0.068049,0.006074,0.075305,-0.039655,0.155398,-0.111198,0.021330,-0.056714,0.145330,0.057776,0.031269,0.065416,0.021250,0.148087,-0.062376,-0.074252,0.067318,-0.064433,-0.027923,0.022944,-0.023707,-0.049719,-0.040799,0.087519,0.054556,0.018807,0.152077,0.003120,0.076497,-0.097069,-0.220423,0.009490,-0.080425,-0.141452,0.108655,-0.036226,-0.028911,-0.044920,-0.053453,-0.025052,-0.125589,0.085563,-0.049732},
		{0.082254,-0.032934,-0.009377,0.039431,0.134464,-0.012544,-0.026885,-0.094216,0.050282,0.110398,-0.175930,0.098123,0.027680,0.043505,-0.010476,-0.139739,0.022405,0.008245,-0.077833,-0.053458,0.010430,0.222980,0.049310,-0.182372,0.022166,0.074478,0.006816,0.095053,0.066500,-0.069079,0.043607,0.012239,0.087506,0.083366,0.076159,0.040342,0.039790,0.045964,-0.100096,-0.077114,-0.061280,-0.177252,-0.066550,0.179270,-0.152571,-0.086947,-0.071179,-0.115014,-0.099796,-0.067572,0.019143,-0.033173},
		{-0.030853,0.020800,0.005621,-0.060252,0.083531,0.139813,0.012291,-0.108373,0.146025,0.162273,-0.105443,0.018141,0.001882,-0.017003,0.032754,-0.044833,-0.051851,0.064109,-0.094566,-0.108247,0.077897,0.156183,-0.054995,-0.050482,-0.046789,0.014939,0.073399,0.131413,-0.117446,-0.055641,0.020385,0.083132,0.016796,-0.012652,0.049205,-0.123299,0.018093,0.070808,0.068799,-0.010658,-0.136287,0.063428,-0.030932,-0.035604,-0.053089,-0.034581,-0.166930,-0.003683,-0.051025,0.121843,0.041664,0.025017},
		{-0.033554,-0.015092,0.048010,0.011133,-0.014269,0.080627,-0.076288,-0.116925,0.184005,0.071288,-0.093942,-0.121964,-0.060533,-0.071058,0.141535,-0.051729,-0.051340,-0.111968,0.042662,-0.072061,0.062593,0.052487,-0.047063,0.045932,-0.007977,-0.095617,0.010693,0.069891,-0.108564,0.066391,0.141830,0.044284,0.019564,-0.056577,-0.065867,-0.101166,-0.016794,-0.086308,0.072076,0.173818,-0.008223,0.043884,-0.042564,-0.089178,-0.010496,-0.082750,-0.117795,0.126102,-0.031387,0.151792,0.094737,-0.032240},
		{-0.043427,0.012788,0.085401,-0.002792,-0.032275,-0.039202,-0.085050,-0.013296,0.034610,-0.068114,0.048064,-0.041190,-0.059820,0.063518,0.143065,0.060205,-0.129569,-0.142958,-0.092649,0.092188,0.123323,-0.058081,-0.109909,0.122925,-0.051032,-0.136848,-0.000047,-0.015195,-0.072247,0.019642,-0.054193,-0.072237,-0.002872,-0.017076,-0.037718,-0.092680,-0.037113,-0.063040,0.176427,0.116389,0.029851,0.114828,0.069523,-0.012192,-0.040341,0.090772,-0.007099,0.119294,0.021955,0.108437,0.078569,-0.017564},
		{0.086775,-0.033430,-0.003353,-0.002624,0.042708,-0.122082,-0.043897,0.155431,-0.121801,-0.107080,0.100581,-0.031066,0.053143,0.145011,0.065551,0.107607,-0.100740,-0.031350,0.115756,0.104749,-0.078939,-0.078718,-0.037538,0.074193,-0.095866,0.035190,-0.099523,-0.269413,0.084059,0.002380,-0.196396,-0.078859,-0.083255,-0.136329,-0.011534,-0.009374,-0.025829,-0.013605,0.002741,0.089282,0.101445,0.093805,-0.077561,-0.072247,-0.085419,-0.015580,0.115958,-0.022077,0.029620,0.019807,0.075983,0.019172},
		{0.084009,0.032490,-0.107242,-0.064838,0.036205,-0.047862,0.024627,0.214856,-0.183077,-0.106593,-0.021742,0.157447,0.034142,0.023250,-0.078684,0.002449,-0.094290,-0.032869,0.142166,0.031684,-0.070273,-0.032427,0.049004,-0.088223,0.045464,0.135043,-0.041160,-0.152212,0.108004,-0.040676,-0.097861,-0.100927,-0.012383,0.027161,0.045693,0.110395,0.036881,0.014007,0.043589,-0.063907,-0.000463,-0.001331,-0.038254,0.030359,0.082673,0.003896,0.209676,-0.124338,-0.172775,-0.047987,0.039972,0.061994},
		{0.037942,-0.006942,-0.095314,-0.042930,0.017755,-0.094360,0.051110,0.035945,-0.031863,0.014828,0.006747,0.146579,0.110720,-0.102847,-0.024189,0.001546,0.070216,0.014352,0.059925,-0.147708,-0.090075,0.062243,0.149550,-0.096540,0.052719,0.140995,-0.117417,-0.017108,0.099937,0.032612,-0.019836,0.096495,0.055640,0.021981,0.023910,0.068566,-0.076239,0.070054,-0.049595,-0.066227,0.024920,-0.051855,-0.034886,0.098907,0.081477,-0.097048,0.085176,-0.105983,-0.097352,-0.080161,-0.030187,0.078604},
		{-0.014096,-0.090191,-0.120998,0.085276,0.004647,0.015224,0.020558,-0.166615,0.024509,0.168604,0.041981,-0.044953,0.059754,-0.171371,-0.142868,0.016652,0.129616,0.084595,0.034541,-0.120174,0.052360,0.013077,0.033349,-0.060173,0.105615,0.008652,0.075580,0.074369,0.036875,0.011550,0.035676,0.057523,0.025941,0.050028,-0.067618,0.048180,-0.048681,-0.030609,-0.124925,-0.082272,-0.015087,-0.023463,0.075627,0.085854,0.128978,-0.067254,-0.100446,-0.030487,-0.079929,-0.018574,-0.170233,0.020695},
		{-0.121837,0.012448,-0.057082,0.043499,-0.012755,0.049139,-0.007473,-0.212561,0.052800,0.089554,-0.078107,-0.016307,-0.055751,-0.185851,-0.067125,-0.102309,0.065349,0.037255,-0.074252,-0.074190,0.102502,-0.036675,-0.032076,-0.003048,0.092202,-0.026036,0.094422,0.124163,-0.005969,-0.082058,0.183231,0.121719,-0.047709,0.089745,0.020538,0.000859,-0.043254,0.001020,-0.098522,-0.010120,-0.080085,-0.119061,-0.011055,-0.010798,0.001087,0.016216,-0.112244,0.084522,-0.027866,-0.100560,-0.084807,0.011932},
		{0.013871,0.017613,0.034004,0.112945,-0.168372,0.056188,-0.006798,-0.074114,0.038381,0.030377,0.014211,-0.078523,-0.085533,-0.023124,-0.008271,-0.035362,0.002787,0.042040,-0.010675,0.065364,0.089007,0.053985,0.033075,0.025648,-0.096050,0.060322,0.137543,0.108288,-0.033078,0.003030,0.024421,-0.109683,0.013572,0.017982,-0.011760,0.039492,0.017918,-0.000624,0.072203,0.027153,-0.068420,0.044408,0.040393,-0.042830,-0.095501,0.067611,-0.143347,-0.085988,0.086344,-0.001575,0.096927,-0.031963},
		{0.031842,0.074470,0.056805,0.019983,-0.134546,-0.063034,-0.069778,-0.024398,0.054463,-0.055555,0.015182,0.002714,0.002976,0.058964,0.107748,-0.055277,-0.068971,-0.123005,0.050108,0.179682,0.036439,0.027667,-0.109920,0.021277,-0.155649,0.044957,0.059965,0.101916,-0.023352,-0.088100,0.001772,-0.146223,0.093631,0.007644,-0.046598,-0.087202,-0.084868,0.043848,0.080850,0.046853,-0.083174,0.075380,-0.005641,-0.064830,-0.141873,0.034621,-0.071875,0.006767,0.202477,0.052378,0.063338,0.031219},
		{0.140836,0.035436,0.006752,-0.198129,0.047826,0.008030,-0.053665,0.156162,-0.055671,-0.031167,-0.055402,0.060955,0.041934,0.159766,0.058493,-0.055541,-0.073593,-0.161025,0.055449,0.032317,-0.134268,0.044690,-0.073037,-0.111931,-0.065892,0.072184,-0.038845,-0.072619,0.118849,-0.127696,-0.053397,-0.152600,0.038519,0.031714,0.086221,-0.061394,0.035184,0.103018,0.091091,0.046890,-0.001054,0.032323,-0.065223,0.021152,-0.032119,-0.031757,0.141960,-0.136845,0.004415,0.099666,0.052244,0.103650},
		{0.061990,-0.038645,0.012341,0.034039,0.079690,0.002047,0.011930,0.033612,-0.147439,0.057625,-0.060608,0.126872,0.094398,0.041339,0.076890,0.009054,-0.092147,-0.057224,-0.043142,-0.054372,0.069249,-0.008631,-0.094662,-0.104667,0.039488,0.015137,0.008876,-0.070315,0.005592,-0.023011,-0.033525,-0.117583,-0.012938,0.029850,-0.024404,-0.156127,0.083575,-0.026384,0.075286,0.053993,-0.040821,0.100961,-0.139529,0.032747,0.007994,-0.016742,0.158149,0.005443,-0.042478,0.176220,0.007935,-0.074792},
		{-0.009421,-0.004401,-0.072277,-0.073731,0.099460,-0.066111,-0.059834,-0.045450,-0.066174,0.077914,0.012806,0.032940,0.195193,-0.034627,0.043358,-0.046919,0.062965,-0.036526,-0.038671,-0.164296,0.028460,-0.044094,-0.024143,0.074045,0.087208,0.034485,-0.100140,-0.094614,-0.062500,0.143327,0.054921,0.094674,0.105279,0.010629,0.057472,-0.122976,0.061125,-0.151110,-0.001388,0.008440,-0.011751,-0.057008,-0.005438,-0.025537,0.164153,-0.039701,0.104654,0.038642,-0.164509,0.096801,-0.145737,-0.101461},
		{-0.025825,-0.026360,-0.056621,0.180103,0.157841,0.045343,-0.067725,-0.048452,-0.039647,-0.009000,0.089519,0.009035,-0.091583,-0.152699,-0.080506,0.042917,0.128766,0.215565,0.011082,-0.077813,0.014932,-0.078574,0.006947,0.200905,0.020558,-0.063821,-0.000636,-0.036123,-0.055275,0.149423,-0.056479,0.201492,-0.027724,-0.110731,0.049043,0.074022,0.013841,-0.160046,-0.107844,0.023599,0.103188,-0.092260,0.068428,0.065848,0.056439,-0.021330,-0.014286,0.142920,-0.125618,-0.097503,-0.097246,-0.030783},
		{-0.109270,-0.026457,0.031916,0.169077,-0.076543,0.083770,-0.001195,0.028240,0.005278,-0.015410,-0.020635,0.039080,-0.028894,-0.134045,-0.096404,-0.072921,0.125302,0.101757,0.067997,0.036658,0.007987,0.012739,0.163421,0.112986,-0.071045,-0.037200,0.056020,0.009898,0.023070,0.034395,-0.039780,0.016846,-0.101176,0.035180,-0.034022,0.117408,-0.134232,-0.074586,-0.059122,-0.052299,-0.034470,0.007865,0.119761,0.131476,0.052285,0.138008,-0.073207,0.021231,0.096771,-0.222911,0.055138,0.046340},
		{0.079658,0.022760,0.169159,0.056948,-0.129389,0.031101,0.059081,0.169060,0.037030,-0.153383,0.058570,-0.155720,-0.044845,-0.050956,-0.058799,-0.004253,0.037278,0.017199,-0.021326,0.114616,-0.107197,0.105988,0.011572,-0.128770,-0.103293,0.073462,0.030545,0.023693,0.069929,-0.026246,-0.067312,0.010848,-0.057931,0.087259,-0.001603,0.127876,-0.103865,0.020187,-0.097053,-0.083395,-0.091245,-0.009873,0.078274,0.079929,-0.083202,0.081593,-0.086965,-0.118108,0.136882,-0.035754,0.067604,0.209072},
		{0.084497,-0.008980,0.025275,-0.027613,-0.023334,-0.091036,-0.011285,-0.021585,-0.064845,0.019657,-0.056667,0.059863,0.139323,0.175561,-0.025535,0.009266,-0.017525,-0.106647,0.079780,-0.062198,-0.078731,0.105313,0.020002,-0.154604,0.085012,0.143843,-0.045480,0.121699,0.032819,-0.034537,0.004007,-0.091705,0.119872,0.163885,-0.040633,0.003972,0.031335,0.170196,0.227604,0.038167,-0.049483,0.034421,-0.183453,-0.074125,-0.000946,-0.049919,0.061422,-0.069141,0.057332,0.041739,0.096467,0.010800},
		{-0.090003,-0.079850,-0.104522,-0.030005,0.118711,-0.075005,0.029696,-0.049375,-0.001836,0.029525,-0.012590,0.074538,0.111114,0.074740,-0.087690,0.012346,0.060353,-0.107796,0.012281,-0.089044,0.095006,0.002611,-0.060924,-0.018733,0.014864,-0.035226,-0.064215,-0.024295,-0.110398,-0.016912,0.092124,-0.057361,0.112356,0.083336,-0.094611,-0.140852,0.099072,-0.077043,0.105269,0.102587,0.059404,0.029874,-0.158091,-0.078273,-0.028910,-0.031214,0.014272,-0.086704,0.043248,0.103196,-0.001069,-0.122174},
		{-0.089999,-0.074650,0.033000,0.086879,0.048061,-0.158636,0.029955,-0.053574,-0.063933,-0.035788,0.068320,0.015850,0.013008,0.079009,0.037030,0.065042,0.100168,0.062435,-0.010707,-0.058199,0.184929,-0.096295,-0.091931,0.160234,-0.097555,-0.092406,-0.052756,-0.139492,-0.142291,0.097771,0.112821,-0.006154,0.044634,-0.039715,0.028697,0.011172,0.141132,-0.108030,0.021086,0.059782,0.084381,-0.022620,-0.037314,-0.076478,0.097511,-0.082874,0.031363,0.056444,-0.034730,0.102893,-0.024273,-0.153585},
		{-0.062525,0.038993,0.088035,0.080447,0.050192,-0.013539,-0.016233,-0.029512,-0.056042,-0.050389,0.039372,0.110831,-0.114406,-0.035865,0.027648,-0.026784,-0.001321,0.092340,-0.065214,0.056136,0.036105,-0.043277,-0.052028,0.116438,-0.131515,-0.038716,0.078789,-0.104654,-0.144210,0.167750,0.060765,0.032095,0.050196,-0.074732,0.143354,0.023492,0.010980,-0.177904,-0.131781,-0.034125,-0.026345,0.012696,-0.004834,-0.029547,-0.054702,0.021741,0.118411,0.082773,-0.115816,-0.035693,-0.054863,-0.020374},
		{0.002214,0.047264,0.017759,0.035615,0.123990,0.119196,-0.066548,0.000668,-0.058716,0.013964,-0.042326,0.006010,-0.077318,-0.065806,0.013235,0.007567,-0.066129,0.219314,0.024838,0.127389,-0.065258,0.063555,0.032123,0.026428,0.004645,-0.080958,0.170489,-0.060799,-0.014242,0.046928,0.022610,0.008224,-0.085519,-0.039025,-0.008001,0.066893,-0.066085,-0.014145,-0.213692,-0.078763,-0.187849,0.044083,0.108141,-0.008749,0.003971,-0.014410,0.106402,0.096442,-0.005211,-0.048051,-0.015710,0.150276},
		{0.184731,-0.018667,0.018145,-0.038091,-0.077476,0.056671,-0.007488,0.081067,0.005859,0.039281,0.105546,-0.060467,0.010981,-0.064589,0.043423,0.105741,-0.202815,0.015456,0.054729,-0.001409,-0.161654,0.090453,-0.011522,-0.070317,0.043775,0.021772,0.012087,0.043449,0.129203,0.013816,-0.087831,0.045108,-0.012535,0.040714,0.053025,0.024207,-0.018819,0.073174,-0.095966,-0.014325,-0.195649,0.139336,0.018318,0.040712,0.004254,0.082253,-0.058969,-0.008078,-0.014659,-0.087178,-0.061141,0.029169},
		{0.134591,0.040595,-0.099260,-0.076085,-0.095356,0.012852,-0.004144,0.003554,0.029686,0.055816,0.080692,0.076775,0.078461,-0.068403,-0.012395,0.080259,-0.136701,-0.018782,0.054579,-0.049763,-0.156471,0.017359,-0.024202,-0.132350,0.051966,0.072616,-0.054477,0.089158,0.192138,-0.046499,-0.000030,0.018761,0.003911,-0.011195,-0.054845,-0.011674,-0.091853,0.232398,0.039386,-0.066536,-0.003926,0.018382,0.052335,0.084916,0.110985,0.015361,-0.049818,-0.129129,0.138098,0.088295,-0.141222,0.025594},
		{-0.113476,-0.078296,-0.092701,0.065705,-0.001650,-0.067609,0.028994,0.030796,0.178957,0.007043,0.046773,-0.039873,0.040878,0.031660,-0.068094,-0.024077,0.061947,-0.021356,-0.067225,-0.092569,-0.098443,-0.068955,0.061611,0.030968,0.035409,-0.097420,-0.096526,0.053137,0.059761,-0.037430,-0.067886,-0.026091,-0.094010,0.040489,-0.026898,-0.146552,-0.007652,0.120480,0.116997,-0.079172,0.087780,-0.012444,0.032838,0.061224,0.047921,0.093420,-0.196810,0.085674,0.103947,0.062287,-0.075579,-0.098292},
		{-0.098890,0.033599,0.086176,-0.009525,-0.055320,-0.130114,0.049536,0.034032,0.041009,0.046134,0.015783,0.030158,0.041749,0.005483,-0.135241,0.077321,0.108223,-0.088167,-0.039982,-0.058323,0.017254,-0.168384,0.120008,0.033161,-0.050820,-0.046704,-0.141801,0.119919,-0.043665,-0.030668,-0.017062,0.049570,-0.062009,0.076798,-0.022768,-0.015790,0.186398,-0.025351,0.055780,-0.120458,0.171249,-0.013068,-0.092924,0.035645,-0.072582,-0.145198,-0.176264,-0.005565,0.120542,0.030262,0.125190,-0.149160},
		{-0.011452,0.000493,0.079345,0.024558,0.013609,-0.121568,0.080202,0.034036,0.014202,-0.036814,0.040449,0.072471,-0.002538,-0.020807,0.100021,0.029696,0.136022,-0.057341,0.013776,0.148287,0.052710,-0.029250,0.020339,0.075474,-0.178931,-0.021951,-0.014224,-0.053826,-0.120293,-0.028022,0.015869,0.022511,-0.028687,-0.012909,0.082736,0.014496,0.041143,0.024816,0.026898,-0.003417,0.163511,-0.155299,-0.046685,-0.007109,-0.010188,0.017051,0.065051,-0.068205,-0.024768,-0.049921,0.081452,-0.054038},
		{-0.046084,0.076430,0.191097,0.012569,0.129457,0.052825,-0.019017,0.029044,-0.053963,0.024193,-0.119430,-0.019322,-0.067853,0.023739,0.034746,-0.083492,0.044442,0.017439,-0.024925,0.151689,0.101554,0.015914,-0.129149,-0.044448,-0.156970,0.091187,0.047363,0.005329,-0.073760,-0.013637,0.006935,0.053904,0.086536,0.003488,0.027459,0.089188,0.011774,0.081222,-0.036247,0.092269,-0.098610,-0.050422,0.032483,-0.060962,-0.096239,-0.003689,0.056288,-0.044548,-0.143562,-0.035685,0.055548,0.003861},
		{0.151419,0.009148,0.092358,0.005074,0.038789,0.153781,-0.123980,-0.109136,-0.083202,0.159048,-0.095543,0.073209,-0.045848,0.013095,0.066641,-0.015970,-0.149885,0.084278,-0.002510,0.101707,0.107916,-0.010277,-0.042412,-0.058134,0.035582,0.011831,0.110171,-0.106315,-0.029425,0.102047,-0.021961,0.012788,0.020494,-0.062767,0.001473,0.036691,-0.036102,-0.007825,0.047240,0.055686,-0.216628,-0.044799,-0.072612,-0.141608,-0.000419,0.000786,0.139798,0.034223,0.001744,0.005122,0.002570,0.062059},
		{0.143022,-0.011339,-0.016837,-0.032416,0.062149,0.186410,-0.035928,-0.091992,-0.088416,0.082506,-0.020002,-0.084148,0.039743,0.009250,0.033229,-0.002647,-0.219294,-0.094143,-0.040574,0.024569,-0.063545,0.043666,-0.003572,-0.045943,0.092890,0.016216,0.008870,-0.010479,0.034351,-0.000154,-0.064934,-0.047562,-0.068697,-0.078516,0.055045,-0.104714,-0.044552,0.011117,0.101588,0.065074,-0.090084,0.083972,0.019773,-0.067632,0.061582,0.065711,0.092706,0.049824,0.009794,0.015262,-0.174306,-0.013073},
		{0.011087,-0.121405,-0.146758,0.092159,0.051586,0.021575,-0.010297,-0.056861,0.073337,-0.038813,0.162604,0.015696,-0.077638,0.139561,-0.131103,-0.021323,-0.118795,-0.058201,-0.134768,-0.105714,-0.060937,-0.041580,-0.042048,0.032991,0.094063,-0.055179,-0.018603,0.073117,-0.018105,0.052113,0.012651,0.000813,-0.031533,0.020127,-0.009224,-0.087906,-0.080737,-0.086106,-0.029712,-0.028635,0.014236,0.158786,-0.036875,0.044047,0.167838,0.145593,-0.132657,0.080868,-0.013130,0.175099,-0.112290,-0.027269},
		{0.000333,-0.036715,-0.131215,0.032718,-0.028391,-0.180151,-0.109293,0.061718,0.129369,-0.044819,0.031234,-0.033715,0.025873,-0.025415,-0.099792,0.083533,-0.018383,0.081485,-0.004969,-0.096869,0.003264,-0.104422,-0.038502,0.068038,0.080154,-0.001401,-0.053210,0.057962,0.071847,0.076610,0.077259,-0.058339,-0.007667,-0.063105,-0.044956,-0.062718,0.028975,-0.120548,0.000170,-0.012170,0.090323,0.124878,-0.002783,-0.013720,-0.006035,0.077434,-0.083569,0.058655,-0.011169,0.076532,-0.024692,0.029163},
		{-0.093163,0.071662,-0.049138,-0.033444,-0.064189,-0.140900,0.078587,0.109529,0.073903,-0.110138,0.014647,-0.054692,0.053728,0.042221,0.042149,0.041006,0.187722,0.145749,0.019126,0.036951,-0.093270,-0.097383,0.005330,0.087412,-0.102951,0.011451,-0.135166,0.064521,0.110756,-0.005608,-0.065877,0.073993,0.056711,-0.000239,0.137202,0.005785,0.033172,-0.122490,-0.105354,-0.087220,0.200516,-0.082863,0.030823,0.016231,-0.027417,-0.024828,-0.071938,-0.071689,0.010423,0.030076,0.022546,0.013789},
		{-0.124988,0.028217,0.094032,-0.000116,0.001940,-0.124069,0.032019,0.098059,0.113782,-0.084950,-0.010521,0.068961,0.052584,-0.000855,0.063612,0.099060,0.149189,0.114546,0.006450,0.147793,-0.037374,0.019419,-0.116223,-0.040277,-0.024459,0.009134,-0.002730,0.025302,-0.047692,-0.024902,-0.038171,0.010399,0.064705,0.136721,0.014269,0.024495,0.009209,0.083043,-0.155351,0.010726,0.086343,-0.124940,-0.001865,-0.023020,-0.078397,0.011223,-0.019725,-0.087070,-0.002793,0.047898,0.081154,0.040183},
		{-0.060042,-0.027874,0.131506,-0.019750,0.050008,0.065501,0.071329,0.082807,-0.018472,0.078210,0.090161,0.083330,0.105126,-0.026480,0.023029,0.043798,0.056582,0.047040,0.051130,0.069462,0.103762,-0.016913,-0.152151,-0.133535,0.106496,0.123151,-0.041367,-0.039546,-0.153220,-0.173831,0.004501,0.062742,-0.114348,0.093026,-0.033678,0.036489,-0.046129,0.090443,0.023146,0.103197,-0.091823,0.003304,0.025357,-0.036543,-0.084318,-0.081078,0.093414,-0.083192,0.003860,0.005275,-0.037229,0.054749},
		{0.045947,0.017902,0.050479,0.077978,-0.051345,0.091060,0.081989,-0.035959,-0.139251,0.079643,-0.008264,0.016309,-0.021493,0.008416,0.025953,-0.052910,-0.015505,-0.175515,-0.028628,-0.061710,-0.002364,0.037327,-0.050463,-0.107247,-0.081687,0.092629,-0.048932,-0.110252,-0.095595,-0.058598,-0.014615,0.061197,-0.069756,-0.007253,-0.057498,0.003244,-0.031496,0.131703,0.136362,-0.055823,-0.201565,-0.014355,0.055953,0.021698,-0.041096,0.001355,0.094535,-0.033050,0.034396,-0.076909,0.037064,-0.038501},
		{-0.062219,-0.080176,-0.011800,0.118294,-0.102979,0.079363,-0.096630,-0.081673,-0.082245,-0.016017,-0.011919,0.032579,-0.084034,-0.004436,0.011138,0.004755,-0.094411,-0.135443,-0.045222,-0.127388,0.079838,-0.042735,0.109938,0.138884,-0.049208,-0.042433,0.141807,-0.025728,-0.076556,-0.015290,0.041341,-0.014017,-0.026439,-0.056225,-0.061844,0.004328,0.032971,-0.058275,0.213583,-0.127977,-0.038690,0.065129,0.067788,0.014880,-0.084394,0.005522,0.089480,0.183604,0.075477,-0.110300,0.110556,0.052266},
		{-0.038949,0.028231,0.028912,-0.010521,-0.018545,-0.016330,-0.131880,-0.091866,-0.073999,0.082483,-0.041031,0.025164,-0.054914,0.009699,-0.158836,-0.048664,0.015379,-0.115674,-0.072190,-0.123226,-0.075691,0.118691,0.106435,0.058096,-0.030817,-0.049262,0.069702,-0.028897,0.082428,0.113978,0.105750,-0.062288,0.087884,-0.049044,0.038362,0.052878,0.069046,-0.096605,0.152423,-0.101331,0.025554,0.047735,0.014755,0.125471,-0.158773,-0.087673,0.107044,0.173655,0.011663,0.001922,0.121438,0.051351},
		{-0.099250,0.025481,-0.099226,-0.029686,0.027047,-0.167548,-0.016225,-0.019703,0.065710,0.063407,-0.161208,-0.112976,-0.050091,0.117977,-0.049970,-0.056202,-0.016792,0.080394,-0.032658,0.060631,-0.197639,0.062766,0.073173,0.103100,-0.007755,-0.009455,0.041839,0.031275,0.139611,0.187511,0.039903,-0.074322,0.084481,-0.032756,0.067189,-0.066628,0.026549,-0.045832,-0.089130,-0.097338,0.119183,0.004758,-0.066152,0.042268,0.112642,-0.072212,-0.075594,0.001458,-0.122287,0.084929,0.054268,-0.011169},
		{0.097725,-0.017807,-0.027552,-0.163771,0.095362,-0.051462,-0.050460,-0.130562,0.052247,0.098746,-0.175248,0.038990,0.026628,0.104242,-0.034358,0.020226,0.019739,0.159762,0.040344,0.095278,-0.057298,-0.032507,-0.033009,-0.041731,0.114631,0.050315,-0.016100,0.151733,0.046014,0.131469,0.069872,-0.059472,0.174352,-0.011330,0.095311,-0.091511,-0.001762,0.000939,-0.258975,-0.031966,0.052497,-0.072495,-0.229688,-0.045484,0.086888,-0.172240,-0.041931,-0.026945,-0.122354,0.075518,-0.079755,0.001067},
		{-0.018267,-0.114901,-0.100355,-0.064428,0.158655,-0.008701,0.061974,-0.106324,0.042593,0.147020,0.071116,0.008130,0.101641,0.042635,0.164926,0.074227,-0.056431,0.189982,0.011019,0.184041,0.012075,-0.057039,-0.111686,-0.061642,0.067311,0.049501,-0.084667,0.138218,-0.076780,-0.127558,-0.077469,0.014610,0.093470,0.052665,-0.020047,-0.121869,-0.022800,0.138275,-0.135037,0.102695,-0.034235,-0.073564,-0.094436,-0.156765,0.122569,0.073311,-0.045711,-0.047186,-0.140178,0.196965,-0.201538,0.002101},
		{0.028071,-0.053136,-0.037257,-0.037792,0.046996,0.085231,0.096390,0.004812,0.015009,-0.044379,0.215325,0.196294,-0.054680,-0.089389,0.166040,0.100684,-0.118930,-0.010429,0.005733,-0.044021,0.229706,-0.029304,-0.047904,-0.069137,-0.015328,-0.020297,-0.077849,0.082094,-0.195032,-0.250008,-0.025169,0.050782,-0.086380,0.088473,-0.153604,-0.121770,-0.005723,0.225914,-0.006959,0.134400,-0.061161,0.037745,0.015108,-0.233364,0.059339,0.094631,-0.051645,0.037959,0.003721,0.121656,-0.079357,-0.102372},
		{-0.032898,-0.012628,0.069555,0.127415,0.047000,0.127855,0.153201,0.295206,0.114293,-0.348616,0.169645,0.195687,-0.033163,-0.076412,0.000489,-0.014974,-0.007498,-0.122050,-0.003386,-0.068577,0.201586,-0.078612,-0.029291,0.042260,-0.178470,-0.065179,0.024682,-0.098421,-0.099260,-0.106985,-0.120328,0.051369,-0.041336,-0.066181,-0.060349,-0.007385,-0.027730,0.088151,0.055368,-0.062090,0.046338,0.105604,0.068023,-0.006656,-0.072163,0.168384,-0.043011,0.059226,0.062952,-0.079128,0.072900,-0.009562},
		{-0.052218,0.053927,0.090733,-0.003713,0.076797,0.103917,-0.048260,0.197092,0.179081,-0.198365,0.122852,0.227071,-0.091385,0.062199,-0.046322,-0.051941,-0.126921,0.027561,-0.119456,-0.030769,0.158380,-0.007382,0.017021,0.109237,-0.156058,-0.124743,0.060160,0.100639,-0.069328,0.024383,0.063015,-0.091518,-0.019149,-0.050662,-0.043821,-0.096971,-0.037102,-0.174102,-0.081802,-0.043090,-0.060932,0.096154,-0.022746,0.031260,0.039088,0.117768,-0.156104,0.111032,-0.059565,0.120940,0.063696,-0.050796},
		{0.095306,0.099168,0.050169,-0.082544,0.071035,0.112229,-0.025978,0.155843,0.063987,-0.120693,-0.096594,0.089713,0.036562,-0.163323,0.130947,-0.164117,-0.009856,0.051138,0.032445,-0.111085,-0.101277,0.133577,-0.032524,0.074803,-0.180561,-0.013367,0.002838,0.143159,0.004015,0.058606,0.082367,0.146966,0.022220,0.033539,0.104439,0.046242,-0.064121,-0.136837,-0.054869,-0.039803,-0.130574,0.050539,0.128769,-0.007995,-0.171926,-0.030213,-0.107297,0.121525,-0.100690,0.088971,0.188000,0.052185},
		{0.016719,0.039856,0.116904,-0.147530,-0.044364,0.009975,-0.047357,0.114785,-0.025596,-0.087461,-0.163908,-0.030829,0.033334,-0.180442,0.040933,-0.038923,0.030196,-0.126905,0.079691,-0.126362,-0.138800,0.195808,-0.091845,-0.047719,0.024867,0.065593,-0.099992,-0.011587,0.158070,0.088996,0.027177,0.213855,0.009227,-0.005090,0.204340,0.081917,-0.034832,-0.028664,0.075496,-0.018792,0.025480,-0.105790,0.136860,-0.165624,-0.026013,0.035180,-0.014338,-0.058962,-0.107003,-0.012383,0.098332,0.074572},
		{-0.138566,-0.081265,-0.067344,0.000325,0.023454,-0.147348,-0.056299,-0.028981,-0.167455,0.068184,-0.023997,-0.104884,0.034833,-0.199831,0.068528,0.062826,0.106839,-0.086609,0.045017,0.039110,-0.145919,-0.063810,-0.036744,-0.058597,0.070242,0.007749,0.033877,0.067519,0.145870,0.056719,-0.034083,0.158029,-0.012127,0.067247,-0.016204,0.075064,0.032601,-0.039636,0.132213,0.178565,0.160527,-0.046033,0.067629,-0.196008,-0.017041,0.059852,0.087466,-0.039324,0.018755,0.047108,-0.070814,0.045797},
		{-0.048678,-0.071437,-0.014129,0.184616,-0.064151,-0.041956,-0.009554,-0.123046,-0.073446,0.086950,0.090152,-0.128869,-0.007783,0.003130,-0.044662,0.070887,-0.022790,-0.074029,0.067529,0.053209,-0.090028,-0.034223,0.005839,-0.007212,0.089286,-0.000540,-0.025519,-0.097974,0.057958,0.066157,0.022808,0.025128,-0.053207,0.086769,-0.181822,0.001654,0.043811,-0.057790,0.013277,0.059190,0.120235,-0.051316,0.047206,-0.041095,0.149707,0.035125,0.130323,0.032188,0.040726,-0.100301,-0.165581,0.023949},
		{-0.055559,-0.042309,-0.137639,0.008530,-0.008576,0.019427,0.031815,-0.059023,-0.066347,-0.080481,0.113148,-0.003542,-0.026859,0.095220,-0.078382,0.089259,-0.062957,0.060438,0.019111,0.141942,0.117801,-0.135563,0.150604,0.005762,0.041868,-0.084944,0.059276,-0.127099,0.054851,-0.114534,-0.082933,-0.038189,-0.026125,0.076364,-0.049700,0.060973,0.023666,0.025307,-0.002470,-0.135375,0.093939,0.087623,-0.038702,0.098008,0.100803,0.079068,0.119281,0.015670,0.057009,-0.046664,-0.066571,0.018381},
		{-0.044116,0.005117,0.033483,0.078640,-0.037601,0.129883,0.021425,0.019038,0.020403,-0.120484,-0.003295,0.199511,-0.099044,0.240921,-0.042168,-0.049459,0.081602,0.096107,0.105259,-0.020291,-0.021454,0.007462,0.089312,0.004236,-0.076370,0.067592,-0.055075,-0.006086,0.051403,-0.053135,-0.065233,-0.163515,0.022104,-0.000809,0.014045,0.080670,0.086972,0.081958,-0.046862,-0.172201,-0.050916,0.029813,-0.124786,0.157604,0.015592,0.008284,0.010367,-0.055363,0.001792,-0.135391,0.062246,-0.068565},
		{-0.074997,0.057380,0.106591,-0.153450,0.090416,0.128020,0.012770,0.006863,0.047634,0.017752,-0.093159,0.098780,0.026046,0.060687,-0.171378,-0.045528,0.001476,0.089270,-0.037616,-0.048801,-0.001057,0.089827,0.129471,-0.027516,0.009483,0.140598,0.041599,0.117518,0.040263,-0.024849,0.097538,-0.070207,0.117521,0.070318,0.050305,0.046173,0.103619,0.107179,-0.058861,-0.192446,-0.159393,-0.099707,-0.117982,0.202154,-0.018105,-0.020838,-0.101332,-0.079817,-0.014326,0.006540,0.059026,-0.012784},
		{0.046130,-0.063453,0.002566,-0.093430,0.104096,0.154535,0.074915,-0.102525,0.005757,0.104109,-0.097788,0.062014,0.050791,-0.018400,-0.002294,-0.072517,0.002497,-0.047376,-0.068422,-0.070972,0.029850,0.047220,0.004728,0.048955,-0.092359,0.003068,0.011656,0.055984,-0.082584,0.063335,0.158872,0.029923,0.114733,-0.001295,0.005124,-0.007594,-0.030491,0.082779,-0.069841,0.078335,-0.072896,-0.058479,0.016537,-0.033204,-0.092086,-0.035935,-0.088933,-0.093820,-0.120077,0.050193,0.064735,-0.014469},
		{0.058994,-0.049685,-0.013346,0.025967,0.017425,0.115340,-0.071318,-0.152050,0.164252,0.219916,0.065325,-0.038544,0.036769,-0.109933,0.131438,-0.068961,-0.069129,-0.033757,-0.047346,-0.048715,0.144003,0.108561,-0.162287,-0.039442,0.115895,-0.006671,0.034419,0.147022,-0.061309,0.099258,0.083450,0.064119,-0.045419,-0.088283,0.019159,-0.152283,-0.006581,-0.062045,0.107516,0.196426,0.017352,0.023528,0.025785,-0.228169,-0.074406,-0.063312,-0.113041,0.048353,0.003308,0.063066,-0.036152,-0.103107},
		{-0.087101,-0.143932,-0.030661,-0.015123,0.048984,0.004202,-0.109776,-0.089790,-0.025970,-0.013270,0.090137,-0.080553,-0.055894,-0.078023,0.143727,0.026445,-0.032369,-0.071447,-0.059723,0.027609,0.017040,-0.040040,-0.136955,0.078088,0.114990,-0.038322,0.020041,-0.096978,-0.009325,0.019113,0.002947,0.079133,-0.115978,-0.046375,0.020700,-0.107854,-0.059605,-0.067399,0.091885,0.174469,0.021007,0.091065,0.083036,-0.078573,-0.050065,0.102307,0.034938,0.117054,-0.028070,0.066671,-0.044513,0.073828},
		{0.034064,-0.028111,-0.020953,-0.033552,-0.095203,-0.088243,0.003085,0.138588,-0.063775,-0.136603,0.130793,-0.048328,-0.003758,0.042727,0.066808,0.049192,-0.087064,-0.047424,0.037709,0.107707,-0.020485,-0.161256,-0.003285,0.013501,0.023000,-0.043030,-0.024014,-0.114781,0.005694,0.016984,-0.058893,-0.085853,-0.147492,-0.061595,0.021114,-0.056560,-0.015187,-0.016743,0.037070,0.067075,0.086959,0.187501,0.036982,-0.028355,-0.021104,0.080198,0.141212,0.047777,0.010448,-0.016047,0.045134,0.030903},
		{0.037647,-0.016324,-0.051177,-0.026337,0.089522,-0.059796,0.011947,0.217876,-0.135912,-0.101566,0.046356,0.055810,0.011586,0.110019,0.016509,0.126984,-0.136000,0.009858,0.024753,-0.031077,-0.096998,-0.088722,0.057928,0.126014,-0.014318,-0.007798,-0.120722,-0.047455,0.160192,-0.032476,-0.061218,-0.093591,0.029897,-0.060715,0.013583,0.073862,-0.089060,-0.047345,0.017699,-0.074662,0.019072,0.022747,-0.057177,0.045859,0.045657,0.048237,0.217720,-0.041178,0.059071,-0.081232,0.047740,0.054733},
		{0.017040,0.036105,-0.035440,-0.004418,0.046470,-0.032290,-0.014862,0.078067,-0.107010,0.027470,-0.020737,0.191700,0.094923,-0.026860,-0.068556,-0.002908,0.063821,-0.017925,0.041170,-0.056004,-0.219100,0.035866,0.095352,-0.043683,-0.012480,0.059042,-0.126587,-0.043694,0.192889,0.102123,-0.117755,0.082350,0.097298,0.073600,0.028692,0.179162,0.018902,0.061330,-0.081227,-0.106297,0.065983,-0.015100,0.014268,0.145165,0.011577,-0.067086,0.112037,-0.145963,-0.054966,-0.127260,-0.068464,0.042014},
		{-0.100874,-0.073376,-0.054134,-0.013994,0.061916,-0.023352,0.033984,-0.077355,0.060204,0.210126,-0.092815,0.117911,0.124010,-0.131749,-0.071225,-0.059410,0.119613,0.100618,-0.013406,-0.104845,0.012649,0.015265,0.041314,0.009291,0.138949,0.056893,-0.030021,0.055537,-0.080503,-0.095962,0.070666,0.095468,0.071538,0.057625,-0.052781,0.088992,0.072455,0.018475,-0.079427,-0.026244,-0.108676,-0.120688,0.005832,0.106726,0.071022,-0.019216,-0.025754,-0.057607,-0.042623,-0.093133,-0.099834,-0.018797},
		{-0.032262,0.019644,0.062650,0.015140,-0.062469,0.131552,0.052872,-0.104554,0.039558,0.196787,-0.075722,-0.005881,-0.029790,-0.183112,-0.014865,-0.047978,0.127824,0.037835,-0.118270,-0.042910,0.064776,0.010162,0.049421,-0.011309,0.085902,0.018456,0.108948,0.096012,-0.105371,-0.005268,0.171774,0.112025,-0.073951,0.052451,-0.025441,0.112828,0.074061,0.056752,-0.022832,-0.000483,-0.111286,-0.066311,0.053736,0.072859,0.003377,-0.039000,-0.185241,-0.036587,0.058243,-0.042270,-0.079463,-0.048859},
		{-0.090443,-0.041789,0.089954,0.066533,-0.131759,0.098572,-0.000986,-0.051366,0.165333,0.033637,0.025027,-0.071022,-0.128046,0.037507,0.020225,0.006749,-0.002676,-0.039585,-0.009883,0.070971,0.099087,-0.031748,-0.031346,-0.042416,-0.028740,0.003972,0.169013,0.081899,-0.183507,-0.046441,0.031336,0.019111,-0.065639,-0.047774,-0.168040,-0.030555,0.048574,-0.007494,-0.070820,0.098684,-0.033712,0.078506,0.085687,0.051319,-0.048549,-0.066088,-0.205683,-0.014409,0.159633,-0.020149,-0.028222,-0.063075},
		{0.033209,-0.042152,0.082220,-0.052144,-0.085975,0.079392,0.059932,-0.038497,0.048671,0.006903,0.034565,-0.101134,-0.150673,0.071771,0.075689,0.069598,-0.065653,-0.017413,0.031262,0.127154,0.091943,-0.057052,-0.040519,0.067262,-0.012947,-0.023327,0.108458,-0.019600,-0.055913,-0.013180,0.003645,-0.063676,0.065268,-0.015572,-0.081705,-0.050095,0.003921,-0.076571,0.097039,0.060331,-0.000745,0.025483,-0.101701,-0.146858,-0.027784,0.002655,-0.111869,0.096509,0.032303,0.082619,0.075509,0.000030},
		{0.182467,0.068717,0.063896,-0.059083,-0.041744,-0.041823,-0.058285,0.072208,-0.137159,-0.097268,0.027429,-0.059455,-0.030752,0.211371,0.021597,0.044247,-0.118802,-0.076485,0.073703,0.018720,-0.091872,0.081535,-0.151275,0.063306,-0.070614,-0.004327,-0.008530,-0.027047,0.067836,0.034895,-0.023836,-0.108786,0.023004,0.000224,-0.005289,0.020979,0.016282,-0.006230,0.115636,-0.018647,0.039276,0.087653,-0.174738,-0.053372,-0.093484,-0.015575,0.072090,0.047970,-0.111288,0.171334,0.048305,0.001041},
		{0.064663,0.033505,-0.040528,-0.177156,0.121506,-0.029147,0.059506,0.149932,-0.175752,-0.091971,0.018906,0.050892,0.133295,0.142982,-0.006020,0.058927,-0.018889,-0.002253,0.029457,-0.094243,-0.116500,-0.020776,-0.055479,0.020816,0.009805,-0.032391,-0.117069,-0.108430,0.124358,0.010000,-0.071882,-0.163528,-0.017798,0.027644,0.046117,-0.097091,-0.049364,0.054040,0.014194,0.042233,0.095387,-0.075290,-0.042630,-0.031106,-0.098319,0.017965,0.133231,0.002315,-0.143202,0.158967,0.007222,-0.044483},
		{0.060753,-0.028936,-0.080214,0.041846,0.108450,0.004855,-0.020819,-0.070440,-0.054712,0.036530,0.009043,0.095194,0.204868,-0.019001,0.056797,0.082137,-0.084330,0.035003,-0.034036,-0.081357,0.014811,0.006956,-0.005347,0.029074,0.052300,-0.008447,-0.162486,-0.067915,0.014421,-0.019853,0.048094,0.051902,0.059249,0.008307,0.086060,-0.067210,-0.036699,0.004408,-0.033319,0.068572,0.041393,-0.030176,-0.043628,-0.061916,0.181248,-0.013469,0.130196,0.076716,-0.166800,0.097460,-0.109316,-0.119629},
		{-0.119610,-0.059605,-0.018166,0.101719,0.084998,-0.033359,-0.007417,-0.063059,-0.007941,0.032739,0.001705,0.131065,0.041886,-0.063408,-0.136198,0.025434,0.040978,0.044519,0.039385,0.003673,0.049671,-0.000459,0.014897,0.126574,0.059831,-0.109244,-0.093220,0.001162,-0.037441,-0.020419,-0.055801,0.169240,-0.055673,-0.135796,-0.078342,0.009171,-0.013879,-0.141824,-0.030660,-0.008683,-0.011576,-0.027396,0.091695,0.046922,0.164925,-0.007723,-0.006897,0.074012,-0.159760,-0.025449,-0.116604,-0.026496},
		{-0.020317,0.059186,0.034381,0.110062,0.047498,0.016212,-0.065227,-0.058613,0.035572,0.026536,0.035093,0.021449,-0.045012,-0.184380,-0.094685,0.069987,0.152087,0.236581,-0.108101,0.022077,0.039698,-0.001035,-0.018380,0.093026,0.011751,-0.089411,0.061286,0.104562,-0.127284,0.061169,-0.017176,0.105280,-0.142264,-0.060915,-0.037457,0.013667,-0.094219,-0.073801,-0.184101,-0.002024,0.028870,0.059636,0.163660,0.037419,0.092715,-0.004424,-0.091444,0.041711,-0.011995,-0.044739,-0.084471,0.046785},
		{-0.001878,0.001198,0.144698,0.003253,-0.144715,0.050213,0.021785,0.039769,0.125321,-0.118903,0.071266,-0.140452,-0.108593,-0.003050,-0.107288,-0.008889,0.020628,0.031215,0.104032,0.009982,-0.015492,-0.056908,0.046013,-0.033203,-0.067897,-0.015657,0.176932,0.060760,0.030571,-0.120593,-0.055357,0.110731,-0.070916,-0.085325,-0.033638,0.106758,-0.140818,0.047294,-0.054046,-0.002372,-0.034647,-0.049069,0.095949,-0.037273,-0.003844,0.112714,-0.069007,-0.056148,0.174319,-0.167371,0.008579,0.118303},
		{0.080593,-0.018963,0.049564,-0.052904,-0.065814,-0.028637,-0.045192,0.130142,0.026731,0.000521,-0.084875,-0.080054,0.015624,0.060179,0.003090,0.004127,0.058289,-0.018651,0.014781,0.047331,-0.162220,0.085611,-0.012468,-0.133156,-0.107604,0.109543,0.104561,0.089399,-0.026418,-0.068130,0.011582,0.020379,0.022250,-0.002445,0.063799,0.075864,-0.090466,0.073559,0.049692,-0.024838,-0.021805,0.007789,-0.065410,-0.022632,-0.044496,0.006681,-0.087436,-0.126210,0.115035,-0.088712,0.081102,0.063712},
		{0.118068,-0.037646,-0.008414,-0.073013,-0.055382,-0.004009,0.028649,-0.016821,-0.033810,0.077226,-0.059477,0.016526,0.040166,0.137361,0.035013,-0.077769,-0.021691,-0.168065,0.001908,-0.057379,-0.044201,0.062201,0.004633,-0.202909,0.047703,0.080847,-0.046925,-0.026000,0.065225,-0.104132,0.050866,-0.096249,0.087707,0.066280,0.009492,-0.098936,-0.061772,0.170160,0.152773,0.031173,-0.019868,0.038679,-0.050403,-0.003670,-0.006033,-0.110387,-0.019969,-0.111441,0.020874,0.174513,0.095599,-0.019767},
		{-0.087746,-0.024012,-0.050721,-0.000202,0.046598,0.036445,0.006489,-0.100001,-0.157713,0.153739,-0.002025,0.019150,-0.003543,-0.020821,-0.030329,-0.054533,0.049810,-0.101013,-0.014704,0.003759,0.195518,-0.009429,-0.025980,0.138646,0.004232,-0.149280,-0.032318,-0.050223,-0.074359,0.093284,0.090336,0.033152,-0.046047,-0.023859,-0.000252,-0.079789,0.196714,-0.166592,0.060265,0.094338,0.087575,-0.002373,-0.069955,-0.037724,0.124468,-0.049591,0.044220,0.026908,-0.051805,0.123801,-0.064591,-0.130230},
		{0.020918,-0.034684,0.087563,0.041711,0.143125,-0.022141,-0.023576,0.014478,0.009223,-0.007713,0.086053,0.087259,-0.042618,-0.047593,0.012040,0.072822,0.025718,0.068647,-0.105487,0.112151,0.110404,-0.069733,-0.075074,0.110316,-0.086648,-0.112496,0.070451,-0.151134,-0.107385,0.070924,0.120324,0.055644,-0.072138,-0.096282,0.103975,-0.060092,0.059062,-0.166065,-0.064834,-0.000879,0.106148,0.063341,-0.017367,0.015353,0.017598,-0.043729,0.091935,0.008455,-0.073956,-0.085213,0.065099,-0.126544},
		{0.057808,0.044325,0.031629,0.039090,0.050740,0.009849,-0.022342,0.048932,0.018796,-0.104345,0.034377,0.048426,-0.058439,-0.145644,-0.030220,0.039160,-0.023318,0.129901,0.123629,0.143764,0.035982,-0.021757,0.031269,0.140436,-0.117264,-0.044797,0.077721,-0.055720,-0.022461,0.067858,-0.000058,0.047801,-0.034931,-0.083152,0.035895,0.177211,-0.010573,-0.157281,-0.187582,0.037690,-0.132902,-0.002326,0.120465,-0.063071,0.042208,0.105700,0.052377,0.068066,-0.038900,-0.182532,-0.009364,0.021845},
		{0.134087,-0.019677,0.078867,-0.072473,0.069854,0.148400,-0.127085,0.059196,0.035474,-0.020322,-0.008658,0.016641,-0.060939,-0.089688,0.058039,0.007510,-0.117850,0.171808,0.120080,0.129541,-0.098334,-0.004531,-0.033294,0.097132,0.129675,0.020559,0.086849,-0.011689,0.063305,0.010046,-0.127204,0.036972,-0.070460,-0.112093,-0.025353,0.137336,-0.093617,0.016302,-0.197336,-0.057878,-0.114108,0.058942,0.063822,0.046809,0.022328,-0.010828,-0.039479,-0.004983,-0.022643,0.017084,-0.031344,0.112494},
		{0.147267,-0.000878,-0.022436,0.006631,-0.035923,0.083343,0.018332,0.004013,0.032342,-0.056259,-0.032003,-0.117546,-0.018013,-0.004681,-0.062105,0.064722,-0.066847,-0.089358,0.072478,0.013940,-0.184408,0.017138,0.017191,-0.157473,0.105228,0.104072,-0.107872,0.073117,0.089546,-0.101892,-0.055054,-0.037863,0.030097,0.004618,-0.040294,0.020935,-0.188097,0.079543,0.048428,-0.054677,-0.073472,-0.044814,0.074966,0.064237,0.020394,0.006232,-0.130706,-0.049138,0.039159,0.056359,-0.069458,0.133129},
		{-0.047605,-0.131595,-0.107754,-0.025549,-0.062102,-0.037793,0.050329,0.004362,0.068431,-0.031718,-0.009290,-0.044574,0.154991,0.007857,-0.048796,0.046465,-0.076551,-0.163533,-0.006690,-0.059193,-0.138449,-0.088305,0.065690,-0.007484,0.092596,-0.004869,-0.150588,0.067561,0.108411,-0.164754,-0.127945,-0.004900,-0.066208,0.047262,-0.073615,-0.019990,-0.062848,0.119664,0.085671,-0.075481,0.006052,0.008498,0.020085,0.017571,0.093100,0.032647,-0.108247,-0.023798,0.117974,0.093311,-0.026421,-0.006702},
		{-0.162237,-0.020814,-0.065140,0.054988,-0.067367,-0.138300,0.003243,-0.024512,0.038470,0.065264,-0.050756,0.026912,0.108557,0.029399,-0.124982,-0.018258,0.104103,-0.105818,-0.020831,-0.068879,0.076250,-0.033941,-0.010938,-0.019583,-0.029492,0.043686,-0.072429,0.122909,0.035173,0.008970,0.126312,0.000500,0.055634,-0.053435,-0.126640,-0.070307,0.104923,-0.044616,0.104839,0.033943,0.078008,-0.103322,-0.066469,0.083122,0.016981,-0.049827,-0.200761,0.038932,0.074719,0.055173,0.048591,-0.147026},
		{-0.095189,0.045402,0.061668,0.075114,0.033929,-0.129352,0.022969,0.031386,0.089043,-0.016764,0.076422,0.036954,-0.097123,0.016679,0.031767,0.055088,0.245648,-0.059849,-0.081008,0.023526,0.108678,-0.046602,0.064941,0.050039,-0.173127,-0.111278,-0.047137,-0.016645,-0.087745,-0.052924,0.027309,0.065416,0.035066,0.035587,0.058993,0.063281,0.095567,-0.084553,0.069414,-0.049156,0.133665,-0.126574,-0.115192,0.024730,-0.134634,-0.062858,0.041114,-0.104696,-0.035086,-0.049983,0.181770,-0.040573},
		{-0.040214,0.015926,0.103457,-0.065176,0.063456,-0.034640,0.060309,-0.061280,-0.094434,0.072090,-0.081930,-0.019880,0.080902,0.074224,0.011666,-0.026224,0.091151,0.014887,0.015274,0.168442,-0.003822,-0.013794,-0.054520,0.102294,-0.057836,0.070318,0.041945,0.004857,-0.161523,0.050337,-0.041834,-0.098396,0.032905,0.039080,0.019941,0.181174,0.017940,-0.059459,-0.035348,0.027722,0.026274,-0.093979,-0.007917,-0.121020,-0.057169,-0.093152,0.058993,-0.063261,-0.172609,-0.042238,0.007666,-0.046357},
		{0.155505,0.068838,0.152397,0.020847,0.117781,0.074230,-0.006539,-0.015423,-0.167920,0.001722,-0.094655,-0.066140,0.029955,-0.057913,0.066172,-0.078067,-0.110523,-0.005161,0.018401,0.098533,0.111698,0.117451,-0.068966,0.048123,-0.063716,0.088052,0.013469,-0.075573,-0.056658,0.111640,-0.063141,-0.028637,0.054846,-0.057765,0.036262,0.125709,-0.098390,-0.042330,-0.017696,0.006600,-0.204882,-0.000982,0.090126,-0.012613,-0.105604,-0.015216,0.065337,0.018734,-0.148173,-0.074582,0.080577,0.001260},
		{0.092344,-0.023279,-0.001692,-0.021913,0.006965,0.179263,-0.018967,-0.051317,-0.122558,0.088359,-0.003116,0.085464,-0.053491,-0.026439,0.062023,0.024088,-0.192492,0.048201,0.041675,-0.049816,-0.105586,0.136037,-0.028289,0.012475,0.129081,0.067072,0.099796,0.011837,-0.024795,0.045170,-0.037096,0.041720,0.055566,0.043263,-0.041299,-0.001987,-0.185839,0.032465,0.062521,-0.019946,-0.199972,0.063585,0.043420,-0.025878,-0.012179,0.039161,0.110313,0.053566,-0.038120,0.033952,-0.100789,0.022203},
		{0.114766,-0.076546,-0.099988,0.035247,-0.030800,0.052493,-0.061625,0.030114,0.020551,0.002841,0.090055,0.110050,0.057389,0.068927,-0.067146,-0.036014,-0.250903,0.011849,-0.079412,-0.087788,-0.065359,-0.020812,-0.071122,-0.022110,0.124861,0.002759,-0.018461,-0.045549,0.042055,-0.036525,-0.051413,-0.048847,-0.023757,0.027575,-0.048276,-0.080308,-0.080072,0.042597,0.036249,0.001458,-0.090336,0.166563,0.001713,0.081562,0.143482,0.111478,-0.000314,0.025259,0.015313,0.104900,-0.162259,0.075840},
		{-0.055523,0.039984,-0.098562,0.030503,-0.088256,-0.099388,-0.032153,0.138272,0.155653,-0.135976,0.114394,0.002824,0.042883,-0.028621,0.008581,-0.016321,-0.005992,0.059466,0.027391,-0.060600,-0.039871,-0.012724,0.026473,0.073834,-0.015625,-0.091433,0.014858,0.093679,0.112207,-0.064318,0.061111,0.001681,-0.044670,-0.071440,-0.027864,-0.042303,0.014836,-0.116444,0.072783,-0.077036,0.139291,0.049912,-0.026635,0.093688,0.065138,0.058487,-0.162416,0.166066,0.089145,0.111784,-0.060043,0.019527},
		{-0.102185,0.008310,0.012922,-0.024832,-0.022804,-0.182776,0.027780,0.140456,0.118077,-0.179646,0.091977,-0.099086,0.004198,-0.046603,-0.094770,-0.005976,0.057945,0.006112,0.086237,0.041041,-0.134904,-0.030959,0.070444,0.054736,-0.085223,-0.028515,-0.052001,0.071256,0.193144,0.018079,-0.067945,0.012526,-0.093849,0.011786,0.026316,0.018809,-0.015573,-0.000154,-0.058314,-0.061000,0.214738,-0.057861,0.072621,0.079743,-0.002905,0.012850,-0.054489,0.035329,0.023087,-0.017686,0.079268,0.008311},
		{-0.130661,0.103399,0.025610,0.023333,0.049390,-0.197929,0.119378,0.161468,0.072160,-0.049498,0.011168,0.053085,0.048624,-0.134599,0.027914,0.034604,0.048316,0.142589,0.025586,0.103019,-0.015808,0.002028,-0.074857,-0.036452,-0.080935,0.035291,-0.077293,0.019099,0.092279,-0.039197,-0.052395,0.058885,-0.004717,0.066514,0.104848,0.073738,0.091799,0.019710,-0.126692,0.059135,0.021527,-0.125475,0.091422,0.025901,-0.028091,-0.006979,-0.057875,-0.053726,-0.009145,-0.009761,0.048407,-0.017734},
		{-0.055217,0.054827,0.036945,-0.017553,-0.043260,0.030153,0.155685,-0.037307,-0.077331,0.071885,-0.067385,-0.038138,0.072943,-0.128222,0.128299,0.051838,0.177133,0.039356,0.007024,0.140485,-0.008139,0.003505,0.013459,-0.107646,-0.068430,0.094749,-0.033564,0.035586,-0.088492,-0.068874,-0.100108,0.083213,0.024515,0.140153,0.054374,0.002544,0.093936,0.139666,-0.062073,-0.012452,-0.063416,-0.147490,0.070204,-0.064626,-0.065859,-0.130293,0.061792,-0.105630,-0.082401,-0.041263,0.061646,-0.039482},
		{0.004210,0.044507,0.062420,-0.055665,-0.016015,0.178140,0.009511,-0.052810,-0.080870,-0.013035,0.127445,0.011858,0.030939,-0.028329,0.004606,0.002911,0.000861,-0.125264,0.070662,0.010296,0.048314,0.124932,-0.099373,-0.212642,0.045702,0.124816,0.010323,-0.066861,-0.085999,-0.029893,-0.036764,-0.017164,-0.023003,0.082368,-0.077581,0.109868,-0.068326,0.101479,0.146433,0.030761,-0.125138,-0.111896,-0.012039,-0.012695,-0.080998,-0.018811,0.161927,-0.081673,0.001847,-0.007705,0.052408,0.026954},
		{0.080807,0.027096,0.018899,0.089365,0.007798,0.209565,-0.032735,0.031514,-0.067963,0.031888,-0.008962,-0.001082,-0.021421,-0.043324,-0.042167,-0.038861,-0.141394,-0.227971,-0.045503,-0.064720,0.122923,-0.022379,0.061818,-0.010588,0.032768,-0.000571,0.016540,-0.085588,-0.082615,-0.107346,0.058447,-0.030483,-0.005386,0.032057,-0.011993,0.077950,0.025563,-0.018132,0.093797,0.037983,-0.148808,0.143863,0.041472,0.024900,-0.114289,0.009366,0.191162,0.109811,0.082667,-0.080592,0.092561,-0.056765},
		{0.026080,-0.036139,-0.067811,0.072164,0.004136,-0.001365,-0.145584,-0.129149,0.074633,0.070388,0.016649,-0.095673,-0.061931,0.092304,-0.160241,-0.058300,0.001004,-0.116293,-0.081977,-0.122530,0.002905,0.036599,0.109589,0.115578,-0.027367,-0.054902,0.080215,-0.063366,-0.034742,0.080240,0.028816,0.057919,-0.014459,-0.043602,-0.014557,-0.009842,0.111426,-0.161098,0.076430,-0.090678,-0.062949,0.093818,-0.094015,0.143046,-0.019111,-0.004965,0.084411,0.138155,-0.006250,0.017348,0.071654,-0.028900},
		{0.008866,0.077946,0.009711,-0.127564,-0.055212,-0.109303,-0.114701,0.055987,0.054778,0.000915,-0.059721,-0.139259,-0.068957,0.138475,-0.036729,-0.097625,-0.030459,0.074470,-0.022193,0.029841,-0.109988,0.008860,0.088325,0.080671,-0.097952,-0.053778,0.022225,0.078428,0.189137,0.129894,0.146554,-0.089282,0.062675,-0.104457,0.016920,0.053265,0.038530,-0.205758,-0.084833,-0.112280,0.142276,0.126298,-0.145074,-0.017916,0.067006,-0.065175,-0.038240,-0.006682,0.041286,0.015470,0.079385,-0.010898},
		{-0.001139,-0.047032,0.021128,-0.104373,0.072648,-0.108121,-0.015173,-0.091527,0.028242,0.046125,-0.188925,-0.040458,0.056894,0.075857,0.029490,-0.021468,0.006912,0.075135,0.014822,0.046078,-0.118982,-0.037171,0.057769,-0.017219,0.050967,0.013249,-0.011287,0.077197,0.077013,0.147845,0.077597,-0.084315,0.050826,-0.058632,0.080120,-0.080220,0.027538,-0.093438,-0.228401,0.083714,0.113543,-0.026717,-0.142786,-0.015516,0.036935,-0.029057,-0.178462,0.043911,-0.050147,0.068926,-0.111882,0.062544},
		{0.029294,-0.043997,-0.028471,-0.053189,0.044609,-0.096340,0.010974,-0.023108,0.010403,-0.018968,-0.026947,-0.019350,0.057447,0.094019,0.130484,0.077067,-0.049410,0.178996,0.051778,0.191906,-0.002136,-0.120907,-0.050287,-0.123307,0.152035,0.140902,-0.105255,0.082069,-0.079964,-0.095473,-0.102734,-0.022657,0.026189,0.053844,0.073314,-0.127852,-0.064279,0.009697,-0.173497,0.096747,0.066537,-0.115537,0.047823,-0.119065,0.087502,-0.022427,-0.124935,-0.008549,-0.025860,0.144129,-0.049347,0.063264},
		{-0.020236,-0.012380,-0.065747,-0.024007,0.087336,0.083329,0.067864,-0.013910,0.040251,-0.051837,0.102809,0.137773,-0.007983,-0.028944,0.109466,0.040474,0.038993,0.096321,-0.008644,0.028121,0.186005,-0.012480,-0.129422,-0.138274,0.155310,0.051938,-0.074287,0.028611,-0.167352,-0.069538,-0.096971,0.054360,-0.081806,0.128962,-0.055144,-0.109689,-0.064436,0.092269,-0.065506,0.090478,-0.006918,-0.026520,0.091066,-0.223040,0.051097,0.074225,-0.056866,-0.047785,-0.094279,0.130180,-0.202875,-0.115445},
		{-0.033485,-0.125196,0.090231,0.108495,-0.026791,0.100333,0.129478,0.108406,0.057913,-0.127229,0.107256,0.095422,-0.044052,-0.095415,0.014299,0.064444,-0.121347,-0.064214,-0.011080,-0.115164,0.162362,-0.119934,-0.045772,0.003407,0.007948,-0.068660,-0.044837,-0.024841,-0.119334,-0.066308,-0.057001,-0.006745,-0.107897,0.065339,-0.080038,-0.009847,-0.095314,0.098207,0.018266,0.096416,-0.036751,0.002209,0.174090,-0.000546,0.093476,0.146943,0.015452,-0.033623,0.043745,-0.031581,-0.014635,-0.057571},
		{-0.022951,0.015291,-0.016532,0.051163,-0.067022,0.010815,0.007644,0.092759,-0.008194,-0.264749,0.035919,0.019009,-0.089717,-0.195585,-0.055408,-0.139716,-0.020817,-0.123108,0.002495,-0.149767,0.039088,0.088086,0.020786,0.016873,-0.144620,-0.071520,-0.012173,-0.157421,-0.085390,-0.032623,0.034243,0.068554,-0.081242,-0.141486,0.061934,0.130236,-0.008265,0.014822,0.171405,-0.034114,-0.015646,-0.020662,0.202570,0.037746,-0.164969,0.113759,0.071362,0.048086,0.127926,-0.158501,0.240979,-0.029982},
		{-0.073450,0.185296,0.045076,0.036067,-0.075039,0.021208,-0.070088,-0.063290,-0.105133,0.005949,-0.155827,-0.045974,-0.082911,-0.000353,-0.039006,-0.121378,0.080702,-0.199458,0.010025,-0.075426,-0.191034,0.150433,0.149792,0.051422,-0.107039,-0.036820,0.066597,-0.085675,0.236264,0.058358,0.159378,0.028919,0.041672,-0.102214,0.118095,0.225522,0.016340,-0.092468,0.162030,-0.231104,-0.067171,-0.048999,0.069524,0.126252,-0.247627,-0.107754,0.180288,-0.032492,0.029897,-0.271939,0.159176,-0.071922}};

// Bias from Layer-2 to Layer-3
const float Layer2_bias[LAYER_3_COUNT] = {-0.059029,-0.086134,-0.060647,-0.008370,0.053238,0.025913,-0.008690,-0.030884,-0.021962,0.017775,0.048236,0.033597,-0.055479,-0.056585,-0.051546,-0.020972,0.054551,0.087601,0.029143,-0.016036,-0.018738,-0.029655,-0.009213,-0.013988,-0.003928,0.023478,0.077199,0.045875,-0.037306,-0.051793,-0.070526,-0.012833,0.012551,0.047528,0.007254,-0.039837,-0.082503,0.004351,0.009483,0.071990,0.052210,-0.041162,-0.088447,-0.083574,0.047062,0.087386,0.089626,0.065015,-0.013536,-0.140469,-0.113133,-0.042771,-0.079969,-0.051124,0.059552,0.039466,0.036621,-0.034764,-0.033356,0.002713,0.057491,0.064214,-0.027575,-0.053353,-0.070795,-0.023601,0.063280,0.093001,0.032158,-0.011151,-0.038153,-0.052636,-0.043167,0.024956,0.003886,-0.018582,0.056069,0.027956,-0.008153,-0.063658,-0.074123,-0.020365,0.040552,0.061725,0.062235,-0.028010,-0.054555,-0.035670,0.025568,0.031616,0.068374,0.015117,-0.035794,-0.063157,0.016390,0.082886,0.106802,0.048288,-0.045081,-0.093143,-0.087105,-0.027543,0.030989,0.111761};

// Layer 2 weights
// Thus, for layer_3 neuron_1, the weights are from column 1 only. Similarly for Layer_3 neuron_104, the weights are from last column.
const float Layer2_weight[LAYER_2_COUNT][LAYER_3_COUNT] = {{-0.036733,0.064956,0.103376,0.060473,-0.011184,-0.070884,-0.077124,-0.031203,0.009282,0.032462,-0.010342,-0.011491,-0.005880,0.011053,0.057030,-0.014888,-0.054863,-0.073055,-0.011915,0.077330,0.117466,0.066555,-0.060132,-0.056971,-0.018001,0.079520,0.000822,-0.134493,-0.112378,-0.007763,0.090446,0.169463,0.100098,-0.073555,-0.123856,-0.134526,-0.023268,0.134788,0.111272,0.064146,-0.017977,-0.074960,-0.059921,-0.003582,-0.041028,0.006604,-0.005240,0.048915,0.038690,0.073943,0.010961,-0.089533,0.063055,0.043144,0.009414,-0.071114,-0.090170,-0.049732,0.026431,0.030456,0.039537,-0.019261,0.003287,0.005770,0.010393,0.035032,-0.007242,-0.025732,-0.017799,0.032908,0.093633,0.078713,-0.001412,-0.088529,-0.079820,-0.001879,0.086070,0.078500,-0.102929,-0.044820,0.018421,0.147195,0.135285,-0.006354,-0.073757,-0.146193,-0.045578,0.064039,0.136116,0.122413,0.003743,-0.058576,-0.109540,-0.031610,-0.008191,0.032813,0.006394,0.009820,0.030298,0.017838,-0.016742,-0.073984,-0.050538,-0.061113},
		{-0.051076,0.032917,0.114913,0.054575,-0.054145,-0.096055,-0.077312,0.042691,0.059031,0.056354,-0.008300,0.004015,-0.010766,-0.037916,0.001313,0.012811,-0.038660,-0.014907,0.004708,0.086138,0.026241,0.013451,-0.048837,-0.031555,-0.013856,0.046802,0.029505,-0.001183,-0.037322,0.012423,0.051311,-0.014079,-0.068518,-0.044852,0.002481,0.049034,0.032009,0.032711,-0.025974,-0.075017,-0.013008,0.003309,0.011138,-0.008358,0.004408,0.015128,0.074438,0.033109,-0.006924,-0.058042,-0.054419,0.006483,0.049791,0.057525,0.018970,-0.037841,-0.105942,-0.025623,0.021827,0.078064,0.038653,0.010033,-0.050600,0.004494,-0.025114,0.000079,0.011695,0.012939,0.000224,0.017344,0.048420,0.012390,-0.038824,-0.057540,-0.016715,0.038057,0.060122,0.016904,-0.051056,-0.008932,0.006518,0.007411,0.009459,-0.012066,-0.026386,-0.004389,0.079769,0.030035,-0.021560,-0.078244,-0.064372,-0.025665,0.007277,0.044781,0.028175,-0.022570,0.037257,0.003097,-0.006250,-0.061030,-0.060358,-0.032684,0.048546,0.126466},
		{-0.049745,-0.010338,0.033812,0.079451,0.048662,-0.039166,-0.050105,-0.029574,0.020509,-0.001212,0.055985,0.035069,0.018547,0.010510,-0.092325,-0.087420,-0.046803,0.033157,0.088338,0.075731,0.008628,-0.077172,-0.073823,-0.065501,0.031169,0.077191,0.027044,-0.015035,0.023431,0.037924,0.010073,-0.025742,-0.120203,-0.071522,0.025815,0.091638,0.114334,0.049595,-0.081444,-0.154797,-0.067795,0.008802,0.061897,0.093394,0.071870,0.028740,-0.033199,-0.025767,-0.041257,-0.034288,-0.030136,-0.003882,0.027626,0.049959,0.027770,-0.050386,-0.046424,-0.054495,-0.024280,0.030197,0.040052,0.030827,0.003813,-0.017628,-0.047102,-0.043579,-0.022346,0.013996,0.066469,0.100018,0.032516,-0.048730,-0.101556,-0.086609,-0.005693,0.084290,0.117445,0.025305,-0.057941,-0.010856,0.036206,0.020857,-0.034856,-0.100351,0.004988,0.112502,0.128309,0.085862,-0.072496,-0.130415,-0.114484,0.012450,0.093157,0.114162,0.063337,-0.009403,-0.053507,-0.040734,-0.051853,-0.015380,-0.032555,0.043649,0.030704,0.101755},
		{0.140608,0.031864,-0.107018,-0.125805,-0.076922,-0.003464,0.101727,0.083393,0.002310,-0.044418,-0.016544,-0.007906,0.001880,-0.055894,-0.027194,-0.009486,0.078321,0.150825,0.034355,-0.064349,-0.118979,-0.107102,-0.006010,0.109940,0.089357,0.032923,-0.084126,-0.062624,0.009766,0.032782,0.023422,-0.013272,0.000977,0.031268,0.021516,-0.013519,0.005423,-0.005681,0.064429,0.011496,-0.011450,-0.074856,-0.086611,-0.019189,0.074689,0.109970,0.033296,-0.059313,-0.132205,-0.072205,0.031583,0.082697,-0.050711,-0.125978,-0.118840,0.016122,0.103717,0.086265,0.046184,-0.061433,-0.061248,-0.049043,-0.025812,0.007563,-0.019903,0.005157,0.059480,0.092382,0.061608,-0.032494,-0.104235,-0.121596,-0.021041,0.098365,0.153859,0.067414,-0.018441,-0.120668,-0.023396,0.034668,-0.001327,0.021751,-0.012771,-0.024337,0.011435,-0.003038,-0.012869,-0.013703,0.000599,0.051368,0.025726,-0.040406,-0.042070,-0.062385,0.039615,0.066777,0.072086,-0.021525,-0.083165,-0.075776,-0.015734,0.059716,0.057083,0.017406},
		{-0.000040,0.069391,0.058573,0.048557,-0.019581,-0.058298,-0.102706,-0.061365,-0.007677,0.032213,0.061119,-0.009376,-0.048693,0.030113,0.112474,0.068152,0.013162,-0.060203,-0.148023,-0.087911,0.074907,0.089898,0.140733,0.081818,-0.059488,-0.123779,-0.088460,0.035981,0.057910,0.115363,0.082229,0.036149,-0.092072,-0.084727,-0.077009,0.004602,0.084826,0.070728,0.043828,-0.015879,-0.047452,-0.098265,0.013632,-0.006991,-0.019504,-0.024408,-0.049280,-0.018275,0.037386,0.063173,0.044841,-0.025492,0.106504,0.046758,-0.041053,-0.076641,-0.084038,-0.057030,0.004027,0.074881,0.080604,-0.003348,-0.005900,-0.012133,0.018848,0.048348,0.033057,-0.070503,-0.112126,-0.097647,0.023125,0.067356,0.146141,0.084223,-0.040850,-0.108743,-0.092136,-0.103338,0.079923,0.110766,0.034652,-0.020962,-0.106737,-0.113080,-0.050759,-0.024936,0.053987,0.090284,0.033496,0.052730,-0.080255,-0.064697,-0.006565,0.032986,0.016460,0.024116,-0.022651,-0.021792,0.022919,0.068470,0.026809,-0.024971,-0.072696,-0.080313},
		{0.093082,0.093066,0.093207,0.033763,-0.053857,-0.079257,-0.094926,-0.039652,0.063384,0.093093,0.077613,0.033988,-0.016219,-0.054047,-0.067954,0.010929,0.024685,0.021295,0.001812,-0.005509,-0.032146,-0.023592,-0.004159,0.019722,0.026592,0.047002,-0.029424,-0.074716,-0.063634,0.011858,0.121315,0.145900,0.053028,-0.102752,-0.185207,-0.126740,0.041474,0.153038,0.175348,0.050936,-0.117275,-0.167002,-0.096213,0.043655,0.173953,0.115523,0.007926,-0.063042,-0.070644,-0.011348,0.022013,0.033858,0.106096,-0.001033,-0.043651,-0.130717,-0.091520,-0.008950,0.065169,0.103064,0.098024,0.036505,-0.044784,-0.067036,-0.062120,-0.052658,0.011335,0.037601,0.045468,0.010626,-0.020224,-0.011987,-0.020044,0.027892,0.037842,0.048389,0.000938,-0.052567,-0.039678,0.017795,0.099599,0.107265,0.051483,-0.036434,-0.190464,-0.144891,0.017558,0.146951,0.202305,0.060597,-0.099688,-0.204748,-0.143688,0.019069,0.144509,0.150131,0.065444,-0.059038,-0.122611,-0.068100,0.037292,0.054993,0.031934,-0.027106},
		{0.083386,0.078684,0.002811,-0.069755,-0.107228,-0.064401,-0.003374,0.072966,0.084564,-0.003062,0.025236,0.013002,-0.070380,-0.027166,-0.003423,0.009526,0.017783,-0.001538,0.003027,0.014211,0.004872,-0.010387,0.002364,-0.027500,-0.004201,0.020771,0.053011,0.060798,-0.001801,-0.026942,-0.078044,-0.041409,-0.030806,-0.013796,0.059177,0.089519,0.040419,-0.041315,-0.054440,-0.095961,-0.057624,0.041881,0.109059,0.156428,0.064744,-0.048265,-0.108739,-0.077887,-0.018809,0.034269,0.071042,0.087516,0.038327,-0.063921,-0.080132,-0.058680,-0.007163,0.045439,0.058987,0.054233,0.007031,-0.031884,-0.059002,-0.042154,-0.016529,0.054941,0.005982,0.026000,0.012366,0.011810,-0.013941,-0.027346,-0.023308,-0.039040,-0.042261,0.041433,0.009609,0.057356,-0.003041,-0.014648,-0.066693,-0.048849,-0.027518,0.020332,0.053701,0.084380,0.054533,-0.045232,-0.072859,-0.103292,-0.035759,0.029590,0.113653,0.098709,0.036862,-0.004046,-0.083323,-0.090998,-0.019423,0.045607,0.097776,0.079286,0.053649,-0.044415},
		{-0.173469,0.063340,0.196635,0.136219,0.025121,-0.024306,-0.002496,0.042164,-0.015157,-0.082291,-0.131957,-0.056210,0.078574,0.163972,0.148913,-0.003074,-0.129821,-0.116548,-0.057992,0.042663,0.068504,0.014392,-0.039396,-0.021297,0.008691,0.065600,0.023702,-0.067864,-0.045880,-0.031358,0.012661,0.012208,0.028492,0.058377,0.043653,0.017903,-0.018743,-0.102231,-0.101239,-0.028508,0.067097,0.138030,0.096603,0.001075,-0.038841,-0.054924,-0.071369,-0.072829,-0.060948,-0.015708,0.108776,0.226340,0.220960,0.248350,0.096329,-0.086182,-0.102854,-0.035690,0.010587,-0.032276,-0.088137,-0.076267,0.021101,0.142128,0.163913,0.045665,-0.102697,-0.170785,-0.096523,0.035036,0.118758,0.083460,-0.018792,-0.075730,-0.009056,0.025546,0.055003,0.010509,-0.066404,-0.036388,0.022478,0.038335,0.021362,0.025004,0.021458,0.004543,-0.022353,-0.073400,-0.091664,-0.035989,0.055142,0.131025,0.116891,0.008491,-0.069477,-0.125021,-0.062537,-0.025656,-0.007436,0.026227,0.079425,0.159649,0.128598,0.018332},
		{0.061296,0.152411,0.140110,0.068325,-0.045489,-0.083999,-0.102692,-0.084536,-0.038135,0.027121,0.104183,0.110744,0.062080,-0.046502,-0.107346,-0.127712,-0.003724,0.116193,0.126186,0.082021,-0.034184,-0.134789,-0.109516,0.000497,0.052806,0.111210,0.002803,-0.049740,-0.080196,-0.084400,-0.049851,0.023775,0.097069,0.149060,0.104529,-0.025764,-0.114155,-0.165434,-0.052226,0.060249,0.147421,0.095781,0.010721,-0.070961,-0.103700,-0.047545,-0.027039,-0.006888,0.006297,0.057937,0.092679,0.071014,0.188429,0.070351,-0.073023,-0.120905,-0.106344,-0.059864,0.006071,0.052860,0.097570,0.078263,0.049415,-0.018240,-0.109092,-0.127089,-0.045393,0.071194,0.130507,0.094715,-0.001366,-0.125429,-0.130806,-0.037227,0.075223,0.125060,0.095882,-0.008345,-0.091051,-0.069387,-0.054929,0.012564,0.065477,0.127461,0.084385,-0.013985,-0.115184,-0.152927,-0.090780,0.068758,0.142329,0.118393,0.041534,-0.076775,-0.124956,-0.091045,-0.004625,0.043680,0.059199,0.054684,0.038667,0.015936,-0.017584,-0.086341},
		{0.150690,-0.108614,-0.218175,-0.101590,0.015507,0.043670,-0.015949,-0.054768,0.016382,0.094718,0.142471,0.050102,-0.103203,-0.171423,-0.131365,0.053185,0.154150,0.088410,-0.003861,-0.072616,-0.050148,0.040004,0.067705,0.001245,-0.050432,-0.082244,0.035430,0.102437,0.050017,-0.015445,-0.056449,-0.039544,-0.024216,-0.045171,-0.014878,-0.000270,0.036354,0.107454,0.084589,-0.022774,-0.084442,-0.128917,-0.076483,0.033914,0.045180,0.044562,0.052778,0.080338,0.086057,0.044074,-0.112447,-0.280957,-0.259111,-0.254363,-0.052246,0.110080,0.100962,-0.002724,-0.040558,0.022720,0.105295,0.087416,-0.031128,-0.150683,-0.157502,-0.011112,0.138408,0.160826,0.054778,-0.078392,-0.114548,-0.045609,0.059440,0.079763,-0.019047,-0.057246,-0.045412,0.025781,0.068971,-0.001022,-0.071974,-0.066524,-0.008935,0.014961,0.023628,0.013974,0.038909,0.070652,0.059610,0.012592,-0.085345,-0.126805,-0.099628,0.042210,0.097188,0.103558,0.041520,0.003206,0.010717,-0.009568,-0.075547,-0.184804,-0.175488,-0.022842},
		{0.076919,0.069764,-0.008509,-0.082774,-0.062620,0.029968,0.095387,0.078995,-0.017187,-0.074782,-0.122456,-0.026480,0.043322,0.067374,0.071317,0.051610,0.009750,-0.027572,-0.057959,-0.024539,-0.015422,0.024245,0.029032,0.060280,0.041330,0.006250,-0.040029,-0.013497,-0.044335,-0.012271,0.005820,0.016663,0.054671,0.053119,0.043821,-0.037307,-0.099100,-0.060898,-0.028790,0.023240,0.027623,0.000718,-0.011747,0.011388,0.063893,0.011502,-0.055836,-0.129165,-0.104063,0.029483,0.158802,0.187128,0.073295,-0.074084,-0.047750,-0.040259,0.062274,0.116926,0.045701,-0.068711,-0.115598,-0.066131,0.042935,0.123302,0.078234,-0.011333,-0.015227,-0.042888,-0.012576,-0.031316,-0.025256,0.003069,0.059059,0.113763,0.079006,0.016517,-0.032758,-0.094413,-0.014438,0.024305,0.011067,0.014595,0.024875,0.060747,0.029378,-0.053853,-0.052410,-0.073126,-0.022957,0.044918,0.040156,0.041701,-0.011935,0.019609,0.037951,0.012772,-0.015068,-0.107029,-0.108506,-0.031540,0.112377,0.146233,0.094671,-0.071431},
		{-0.020174,0.117877,0.187771,0.115338,-0.053003,-0.143516,-0.076733,0.036288,0.130931,0.078467,-0.039029,-0.132256,-0.070300,-0.007451,0.111662,0.165384,0.053082,-0.103715,-0.168461,-0.118166,-0.011455,0.141818,0.159164,0.054089,-0.070660,-0.144524,-0.031511,0.059949,0.104762,0.046341,0.005128,-0.044040,-0.002663,0.006522,0.017748,0.014753,0.024908,-0.006588,0.040648,-0.029966,-0.042708,0.005450,0.022969,0.084249,0.057145,-0.002115,-0.078443,-0.147809,-0.100296,0.071496,0.187486,0.195282,0.197587,0.184627,-0.000747,-0.104367,-0.161608,-0.030375,0.084362,0.113028,0.017990,-0.089896,-0.124948,-0.045609,0.091346,0.158723,0.074859,-0.049059,-0.152720,-0.152050,-0.029113,0.144219,0.184731,0.089911,-0.045673,-0.129591,-0.173034,-0.026067,0.115431,0.081820,0.007527,-0.044111,-0.041165,-0.028617,-0.025257,0.032877,0.009782,-0.000163,0.001870,-0.014282,-0.006385,-0.046952,-0.012300,0.010190,0.032728,-0.007984,-0.063275,-0.082183,-0.052316,0.026987,0.127342,0.155889,0.076330,-0.088480},
		{-0.063520,-0.079245,-0.075135,0.037356,0.074689,0.056188,-0.011628,-0.025688,0.003048,0.012478,-0.011217,-0.075968,-0.099836,0.007691,0.076868,0.119653,0.076906,-0.082164,-0.129957,-0.099375,0.025897,0.124363,0.069401,0.015899,-0.055897,-0.067634,0.054718,0.047006,-0.006986,-0.087414,-0.096594,-0.009475,0.054137,0.040026,0.033884,-0.037504,-0.034435,-0.021590,-0.029722,-0.007909,0.018971,0.034181,0.050424,0.081844,-0.014337,-0.051090,-0.064601,-0.032968,0.022616,0.057997,0.030110,-0.005606,-0.085310,0.014419,0.057589,0.072138,0.038720,-0.069462,-0.049801,-0.030071,-0.019520,-0.027054,-0.022497,-0.005447,0.054343,0.106787,0.071825,-0.058234,-0.128632,-0.093008,-0.028586,0.072967,0.119654,0.056665,-0.039730,-0.098779,-0.034091,0.057897,0.012959,-0.067354,-0.074947,-0.020343,0.029084,0.087964,0.073914,-0.003203,-0.031425,-0.020454,-0.033176,0.020849,0.007611,0.053263,0.023930,0.054478,0.011671,-0.034277,-0.060967,-0.056199,0.001043,0.059712,0.065685,0.022611,-0.041034,-0.069957},
		{0.239282,0.208822,0.050720,-0.119410,-0.198283,-0.143609,0.017098,0.137611,0.101261,-0.004392,-0.050983,-0.051269,0.040333,0.084140,0.049388,-0.070309,-0.120007,-0.080060,-0.010860,0.133246,0.174091,0.078982,-0.055257,-0.156908,-0.133469,-0.048138,0.112081,0.116618,0.037837,-0.013651,-0.066653,-0.069467,-0.044469,0.000791,0.000570,0.016112,0.004667,0.016781,0.043338,0.057132,0.036807,0.012714,-0.062652,-0.093021,-0.040464,0.036634,0.084610,0.100420,0.114969,0.010536,-0.062137,-0.116883,0.087441,-0.124745,-0.219612,-0.173727,-0.023966,0.122660,0.165426,0.059669,-0.043653,-0.073053,-0.056320,0.033826,0.067396,-0.003968,-0.077107,-0.088896,-0.037688,0.077644,0.154455,0.072575,-0.062649,-0.099734,-0.150355,-0.074837,0.048073,0.121742,0.026708,-0.044602,-0.111959,-0.063387,-0.047672,0.023258,0.025768,0.004413,0.012809,0.027908,0.026579,0.013651,0.021513,-0.049680,-0.046901,-0.086460,-0.021112,0.022187,0.091222,0.132680,0.102139,0.003155,-0.052580,-0.131198,-0.146150,-0.069130},
		{-0.071907,-0.062204,0.046867,0.099861,0.101524,0.063975,-0.025407,-0.078609,-0.090081,-0.080202,-0.012799,0.085856,0.126833,0.078745,0.026011,-0.075181,-0.082445,-0.060805,-0.022728,0.081136,0.092258,0.038179,-0.004294,-0.046795,-0.050029,-0.005689,-0.004738,-0.009547,0.019086,0.032639,0.035771,0.029548,-0.020191,-0.057638,-0.033445,0.001603,0.071373,0.053879,0.027806,-0.051239,-0.034340,0.040142,0.080510,0.075639,0.008965,-0.089619,-0.125492,-0.082593,0.059311,0.093379,0.122285,0.068384,0.038436,0.111084,0.107160,0.073062,-0.025320,-0.104622,-0.125709,-0.050561,0.017731,0.100742,0.070972,0.092984,0.011933,-0.065192,-0.117507,-0.069924,-0.027699,0.052128,0.110005,0.063192,-0.031231,-0.055119,-0.079390,-0.041823,-0.027456,0.030075,0.017104,0.010525,0.000510,0.018593,-0.025635,-0.035275,-0.078673,-0.024714,0.035320,0.046268,0.031219,-0.027584,-0.016973,-0.044927,0.056657,0.036802,0.022655,-0.063245,-0.100218,-0.045786,0.045757,0.121458,0.138719,0.046575,-0.072931,-0.126415},
		{0.090376,-0.038579,-0.093845,-0.084198,-0.057600,0.087084,0.115314,0.039432,0.050745,-0.096601,-0.108193,-0.076690,0.022569,0.093600,0.034554,0.056981,0.055847,0.006044,-0.018841,-0.082118,-0.068114,-0.058747,0.051720,0.107810,0.050411,0.013452,-0.076399,-0.061460,-0.005359,0.040118,0.002695,0.069197,0.035657,0.028200,0.022571,-0.030401,-0.021506,-0.026840,-0.018829,0.019685,0.062984,0.008212,0.048810,0.039626,0.022307,-0.012180,-0.084340,-0.041782,-0.001532,0.043576,0.068358,-0.018652,-0.072989,-0.110773,-0.061842,-0.002079,0.090470,0.111470,0.011471,-0.039557,-0.076316,-0.065364,0.002583,0.071056,0.081186,0.030966,-0.020512,-0.023539,-0.057362,-0.063555,-0.030852,0.003105,0.012718,0.084021,0.028049,0.000180,-0.002277,-0.081732,0.007991,0.026932,0.064738,0.054303,0.050434,0.022205,-0.013096,-0.038633,-0.035176,-0.033210,-0.011703,-0.008784,0.027005,0.026954,0.012559,0.035519,-0.043561,-0.006463,-0.057410,-0.021075,-0.023933,0.056505,0.050773,0.053203,-0.040182,-0.081954},
		{-0.091451,-0.141529,-0.073833,0.013806,0.065404,0.042500,0.032352,0.010662,0.024011,0.036399,0.021640,-0.043729,-0.060620,-0.053232,-0.033074,0.074732,0.092324,0.072157,-0.004411,-0.090692,-0.100591,-0.043291,0.025470,0.049389,0.031257,-0.028585,0.012106,0.085673,0.076377,0.013785,-0.079934,-0.153758,-0.100825,0.033413,0.129131,0.198677,0.058176,-0.112358,-0.187024,-0.127592,-0.037817,0.125650,0.155766,0.086239,0.034210,-0.044616,-0.059108,-0.030524,0.013173,-0.025044,-0.049833,0.018588,-0.122303,-0.022241,0.087151,0.096893,0.047682,0.019106,0.005566,-0.008620,0.001449,-0.003694,-0.064144,-0.080602,-0.000118,0.025780,0.067992,0.057679,-0.000785,-0.074868,-0.116401,-0.059415,0.008198,0.102497,0.070218,0.014380,-0.054899,-0.047873,0.050570,0.036519,-0.016513,-0.099439,-0.095733,0.031748,0.071428,0.132315,0.088843,-0.046811,-0.131820,-0.210700,-0.081218,0.055162,0.173084,0.137373,0.034369,-0.083004,-0.091279,-0.041729,-0.001627,-0.003748,0.022388,0.003034,0.035735,0.068266},
		{0.030484,0.116421,0.095133,0.023774,-0.051665,-0.123964,-0.045209,0.045569,0.091210,0.073607,-0.018512,-0.062091,-0.084970,-0.051986,-0.012341,0.044114,0.074526,0.065999,0.016685,-0.066740,-0.121233,-0.075570,0.005364,0.083445,0.170595,0.101956,-0.151759,-0.156577,-0.054050,0.078449,0.147983,0.074535,-0.003113,-0.081937,-0.076190,-0.028047,-0.017731,0.008034,-0.026092,-0.010137,0.077413,0.135473,0.062626,-0.039859,-0.134102,-0.197340,-0.077764,0.101160,0.199381,0.158566,0.063261,-0.101867,0.124954,0.052379,-0.033223,-0.108021,-0.073567,-0.023852,0.081514,0.085053,0.041012,-0.027493,-0.106406,-0.065434,-0.001834,0.058359,0.086398,0.068324,0.005042,-0.052106,-0.092774,-0.059788,-0.010356,0.088257,0.138228,0.064172,-0.023659,-0.124353,-0.068411,0.055255,0.162605,0.147115,0.047894,-0.104240,-0.109340,-0.053483,0.012425,0.040339,0.034347,-0.017030,0.071401,0.099596,0.077830,-0.023032,-0.091108,-0.159836,-0.086689,0.047561,0.174267,0.197067,0.089788,-0.084608,-0.208242,-0.177698},
		{-0.018528,-0.111070,-0.082216,-0.064931,0.012317,0.027298,0.096463,0.091104,0.007882,-0.066053,-0.085881,-0.100423,-0.017011,0.074987,0.120498,0.052053,-0.027128,-0.060889,-0.036632,0.001857,0.022577,0.010682,-0.018734,-0.046877,0.068251,0.045833,-0.034850,-0.102826,-0.107590,-0.012694,0.004261,0.026399,0.024297,-0.000086,0.018185,-0.005665,-0.061020,-0.042980,-0.103895,-0.060053,-0.003034,0.049373,0.039980,0.033889,-0.023144,-0.068096,-0.055232,-0.049668,0.007214,0.022689,0.013557,0.003637,-0.065344,-0.070882,0.046178,0.114908,0.074969,0.074273,-0.000740,-0.066909,-0.118648,-0.079868,-0.032764,0.086222,0.091871,0.077038,0.014787,-0.044336,-0.093356,-0.041479,0.044779,-0.006054,0.021142,0.038491,0.006950,0.042374,0.085017,-0.040076,-0.084911,-0.076781,-0.011455,0.068377,0.065471,0.002300,-0.002533,-0.017577,-0.072214,-0.005534,-0.033597,-0.012913,-0.033903,0.026452,0.080245,0.053680,0.012132,-0.059209,-0.075461,-0.055057,0.039590,0.034020,0.006567,-0.009071,-0.003806,0.057876},
		{0.145848,0.066079,-0.066398,-0.119424,-0.073505,0.047059,0.079157,0.050221,-0.038301,-0.065500,-0.053342,0.044543,0.125113,0.088367,-0.020585,-0.101998,-0.147730,-0.062551,0.100613,0.134591,0.052814,-0.055080,-0.113040,-0.039712,0.048720,0.071152,-0.089288,-0.094986,0.006984,0.083762,0.135922,0.025104,-0.093822,-0.154285,-0.053805,0.106798,0.184026,0.064150,-0.055183,-0.145711,-0.113178,0.028549,0.128746,0.082315,-0.088901,-0.140174,-0.072393,0.056392,0.139788,0.161167,-0.018916,-0.163419,-0.051306,-0.118637,-0.131093,-0.007910,0.085481,0.109816,0.025266,-0.067883,-0.095194,-0.038451,0.113863,0.099960,0.033306,-0.092737,-0.157954,-0.106522,0.083771,0.157401,0.094781,-0.015302,-0.086094,-0.136247,0.011087,0.118185,0.046955,-0.018125,-0.051424,0.066924,0.138526,0.046396,-0.075074,-0.135068,-0.106084,0.056372,0.169084,0.122763,-0.021400,-0.111674,-0.178623,-0.020828,0.082255,0.144938,0.000092,-0.106488,-0.118838,-0.020702,0.106981,0.123473,0.018095,-0.129348,-0.146111,-0.093430},
		{0.163502,0.189355,0.063413,-0.096854,-0.114034,-0.055280,-0.008743,0.000735,-0.031115,0.036902,0.069315,0.075545,-0.010875,-0.074694,-0.105850,-0.087499,0.037276,0.106764,0.104390,0.007839,-0.039277,-0.025662,0.007455,0.055814,0.010647,-0.103969,-0.020452,0.088594,0.157631,0.092230,-0.077388,-0.175995,-0.156004,-0.053927,0.060068,0.101039,0.071959,0.062934,-0.055013,-0.037865,-0.084394,-0.079915,-0.001298,0.080855,0.088137,0.055159,-0.048894,-0.149966,-0.085706,0.039001,0.160362,0.132519,0.088473,-0.065583,-0.153874,-0.114118,-0.017155,0.044719,0.049541,0.017016,0.005325,0.043037,0.044870,-0.040466,-0.109135,-0.089456,0.004568,0.097039,0.103271,0.051178,-0.043890,-0.098650,-0.033440,0.030930,0.031847,-0.062686,-0.046210,-0.016198,0.135582,0.079541,-0.022290,-0.144957,-0.165393,-0.065926,0.111099,0.132282,0.094684,0.036904,-0.050996,-0.065029,-0.089313,-0.026959,-0.011960,0.071976,0.107574,0.082386,-0.014634,-0.133705,-0.133356,-0.030956,0.108167,0.174912,0.047277,-0.137455},
		{-0.159477,-0.020834,0.099846,0.132164,0.089739,-0.056668,-0.127758,-0.098665,-0.048795,0.099772,0.097734,0.045489,-0.039989,-0.050911,-0.023200,-0.052613,-0.044692,-0.022843,0.042199,0.066627,0.059884,0.027299,-0.081317,-0.112424,-0.029155,0.035163,0.080412,-0.000398,-0.068193,-0.061472,0.018094,0.011070,0.017397,-0.057565,-0.096416,-0.024363,0.060340,0.090865,0.074854,-0.001234,-0.088769,-0.061904,-0.062225,-0.001328,0.005557,0.036422,0.042732,0.032317,0.004545,-0.053851,-0.077355,-0.009138,0.046246,0.165364,0.111871,0.028604,-0.098071,-0.155160,-0.062931,0.050235,0.103860,0.068366,-0.014610,-0.089218,-0.057748,0.000386,-0.003142,-0.004996,0.015032,0.038705,0.036502,0.010355,-0.054029,-0.124576,-0.048308,0.010613,0.064104,0.109689,-0.063933,-0.077640,-0.030096,0.017591,0.006573,-0.000318,-0.044497,-0.037092,0.008830,0.097788,0.091657,0.018570,-0.074820,-0.097922,-0.047531,-0.009524,0.071889,0.066937,0.053844,0.011449,0.012663,-0.029833,-0.044822,-0.021393,0.014550,0.064350},
		{0.100721,0.116922,-0.019184,-0.110324,-0.114739,-0.018189,0.022952,0.077848,0.080600,0.033516,-0.043928,-0.086748,-0.074980,-0.069829,-0.009680,0.036258,0.069615,0.030895,0.052524,-0.027057,-0.090918,-0.060928,-0.064502,0.032795,0.062796,0.060311,-0.041723,0.006563,-0.026336,-0.007115,-0.017072,-0.009950,0.013328,0.030903,0.024333,0.016852,-0.038797,0.027863,-0.023726,0.031319,-0.013383,-0.040417,-0.053822,-0.069998,-0.017553,0.066342,0.133562,0.109615,0.026348,-0.065291,-0.128192,-0.132611,-0.028352,-0.086783,-0.115970,-0.104274,-0.015350,0.150171,0.147775,0.046233,-0.066273,-0.122475,-0.035151,-0.056937,0.019673,0.049019,0.076508,0.057308,0.044595,0.029034,-0.113534,-0.062639,-0.012326,0.003029,0.070636,0.070489,0.045000,0.007041,-0.044266,-0.027136,0.051499,0.012952,0.008076,0.031822,0.034951,0.044075,0.000917,0.003617,-0.026238,0.014276,-0.030907,0.039818,-0.081463,0.000450,-0.012089,0.059499,0.091680,0.080444,-0.049998,-0.070286,-0.142611,-0.102777,0.056856,0.075413},
		{-0.049910,0.041436,0.094741,0.059982,0.000167,0.002985,0.009557,-0.026487,-0.043825,-0.102765,-0.009295,0.055801,0.079761,0.104079,0.006055,-0.081351,-0.079389,-0.070871,-0.014428,-0.025369,-0.033186,0.030228,0.086682,0.140708,0.076553,-0.015190,-0.112884,-0.003122,0.125285,0.144554,0.060427,-0.021137,-0.075778,-0.105657,-0.005418,0.037066,-0.007883,-0.059224,-0.001938,0.060845,0.085073,0.062959,-0.059708,-0.066708,-0.061187,0.045802,0.085098,0.116979,-0.029417,-0.055692,-0.066997,0.050077,0.161176,0.049683,0.008478,-0.037052,-0.011970,-0.027729,-0.006329,-0.072221,-0.016214,0.025678,0.121428,0.081139,0.019453,-0.027413,-0.126322,-0.064596,-0.015997,0.035217,0.013974,0.032053,0.025530,0.069548,0.049627,0.033753,-0.124741,-0.112472,0.098659,0.203377,0.102064,-0.024185,-0.122009,-0.082871,-0.032395,0.058727,0.062570,0.016711,0.025668,-0.007824,0.066886,0.013839,-0.019680,-0.103992,-0.099719,0.019886,0.096766,0.115738,0.054787,-0.069678,-0.078384,-0.023598,0.091286,0.049531},
		{0.054246,-0.092435,-0.140805,-0.057093,0.057034,0.108363,0.068705,-0.012764,-0.070609,-0.037432,0.038025,0.030420,-0.006609,-0.011588,0.020276,0.049387,0.058221,0.003842,-0.088584,-0.108971,-0.029975,0.039488,0.082009,0.030645,-0.003947,-0.022393,0.013379,-0.012068,-0.053038,-0.075766,0.006869,0.085146,0.143196,0.052158,-0.091656,-0.127709,-0.080433,-0.001300,0.128978,0.099860,-0.001937,-0.024777,-0.045573,-0.010700,-0.005707,-0.014094,-0.052986,-0.013759,0.077173,0.106499,0.048785,-0.060803,-0.139678,-0.122866,0.012593,0.117344,0.106712,0.016549,-0.058485,-0.092257,-0.019718,0.024093,0.035029,-0.027296,0.008810,0.033474,0.027680,0.005265,-0.049971,-0.090736,-0.052731,0.016986,0.081144,0.065644,0.012709,-0.032554,-0.058882,-0.006210,-0.018282,-0.035304,-0.013112,0.049182,0.081560,0.075536,-0.046625,-0.140426,-0.142255,-0.014330,0.109429,0.147273,0.053284,-0.066196,-0.079226,-0.058272,0.009537,0.012211,0.003514,-0.001003,0.041390,0.068920,0.058997,-0.026104,-0.121477,-0.128801},
		{0.050484,-0.030819,-0.039698,-0.058461,-0.065724,-0.067871,0.009560,0.057718,0.046329,0.068381,0.017771,-0.056111,-0.131746,-0.097670,0.021941,0.085940,0.080117,0.065202,0.008457,0.044353,0.023180,-0.021356,-0.071682,-0.056957,-0.026557,0.059241,0.085484,-0.050000,-0.112458,-0.094115,-0.022892,0.024592,0.039895,0.003336,-0.014913,-0.003885,0.057014,0.061324,0.009122,-0.067875,-0.117007,-0.033791,0.060663,0.125208,0.029498,-0.037114,-0.060478,-0.023839,0.004009,0.056937,-0.051746,-0.096968,-0.107526,-0.079292,0.006263,-0.008849,0.007308,0.046698,0.093889,0.035879,-0.008307,-0.103573,-0.106477,-0.077559,-0.038132,0.085837,0.090275,0.072611,0.015519,-0.036424,-0.038313,-0.004365,0.000407,-0.023070,-0.008074,0.020912,0.134760,0.092027,-0.118868,-0.101160,-0.064195,0.062735,0.098787,0.017742,0.014132,-0.026454,0.022812,0.014200,0.015965,-0.025960,-0.095341,-0.036383,0.038424,0.074572,0.059339,-0.033918,-0.048705,-0.082508,0.000921,0.035142,0.006937,-0.015572,-0.046291,-0.010002},
		{0.074637,0.042479,0.008888,-0.067630,-0.071672,-0.043760,0.013296,-0.008625,0.004033,0.018282,0.041726,0.059677,0.040231,-0.043238,-0.097063,-0.108164,-0.023471,0.103279,0.154497,0.071822,-0.043908,-0.125325,-0.072275,-0.001909,0.058056,0.047981,-0.074769,-0.048804,-0.010055,0.091595,0.094813,0.037795,-0.033906,-0.066212,-0.077391,-0.007460,0.027118,0.061933,0.077983,0.048741,-0.030641,-0.086935,-0.083900,-0.074781,0.012135,0.051289,0.071641,0.053588,0.003943,-0.061949,-0.069945,-0.048607,0.004559,-0.053695,-0.072997,-0.021509,-0.003280,0.059434,0.035213,0.045775,0.038501,0.034198,0.003355,-0.045153,-0.082630,-0.090053,-0.040998,0.087963,0.126560,0.077701,-0.014034,-0.092934,-0.111422,-0.038787,0.036031,0.080343,0.028854,-0.044672,-0.009437,0.052572,0.078302,0.039594,-0.019073,-0.088559,-0.102426,-0.036942,0.007354,0.060953,0.098399,0.014459,-0.018355,-0.099202,-0.070681,-0.068029,0.002560,0.084299,0.075778,0.061534,0.009185,-0.047272,-0.084804,-0.057980,-0.002961,0.044677},
		{-0.038668,-0.015504,0.068021,0.077825,0.026134,-0.032906,-0.103525,-0.087759,0.011747,0.091837,0.114589,0.051159,-0.038860,-0.114420,-0.079008,-0.015515,0.078177,0.101982,0.066280,0.011091,-0.037993,-0.074077,-0.073643,-0.017576,0.033227,0.043954,0.017453,-0.043309,-0.054464,-0.037261,-0.048257,0.022761,0.064788,0.061522,0.048284,-0.030066,-0.053444,-0.067430,-0.058953,0.017651,0.073317,0.104768,0.070180,-0.013253,-0.097415,-0.091152,-0.044547,0.019314,0.092253,0.067514,0.006961,-0.045657,0.025579,0.075323,0.065959,-0.020557,-0.109335,-0.076425,-0.026430,0.070759,0.092617,0.061459,-0.026796,-0.094959,-0.100333,-0.027193,0.070466,0.119885,0.083313,0.003624,-0.052347,-0.105192,-0.074836,0.000071,0.034997,0.063511,0.066734,0.020787,-0.057850,-0.066584,-0.044830,0.028240,0.040676,0.057307,0.044685,-0.030825,-0.073439,-0.067193,-0.062329,0.025371,0.053040,0.083018,0.045714,-0.015509,-0.095717,-0.097499,-0.063908,0.041039,0.109536,0.091465,0.017746,-0.043292,-0.085607,-0.056124},
		{-0.139856,-0.140850,-0.034291,0.072087,0.068834,0.040492,0.003568,-0.007385,0.022127,-0.014179,-0.084835,-0.074608,0.014884,0.068598,0.127185,0.092969,-0.035422,-0.118132,-0.103676,-0.003702,0.064849,0.062031,0.006038,-0.048498,-0.048339,0.037510,0.007537,-0.046604,-0.122967,-0.088498,0.036764,0.115677,0.161072,0.076894,-0.020763,-0.075749,-0.083102,-0.086554,0.049207,0.076093,0.094643,0.061553,-0.023631,-0.112775,-0.109764,-0.049772,0.078954,0.148354,0.054146,-0.070005,-0.148620,-0.102682,-0.045309,0.076497,0.131670,0.094722,0.000416,-0.032891,-0.019014,-0.003487,0.002492,-0.045362,-0.036765,0.043196,0.106828,0.071708,-0.020303,-0.100108,-0.097312,-0.057815,0.056713,0.117401,0.058671,-0.017328,-0.053360,-0.000622,-0.003570,0.020035,-0.061204,-0.058350,-0.017395,0.074369,0.127603,0.098875,-0.060488,-0.114718,-0.106215,-0.084484,0.037319,0.076269,0.115746,0.036872,-0.010913,-0.094540,-0.121697,-0.056984,0.043079,0.131150,0.119147,0.000035,-0.106214,-0.171333,-0.008618,0.112495},
		{-0.018471,-0.090347,-0.025750,0.028703,0.058429,0.056318,0.024234,-0.032248,-0.074590,-0.040623,-0.009628,0.005915,0.028648,0.020774,0.029883,0.056966,0.038880,0.008255,-0.064351,-0.062729,-0.051496,0.010707,0.092653,0.124715,0.056718,-0.079263,-0.127140,-0.067161,0.063184,0.121218,0.091584,0.001190,-0.063246,-0.065344,-0.060562,-0.045076,0.023614,0.029750,0.043717,0.073162,0.047440,0.012581,-0.065096,-0.115908,-0.097999,0.015023,0.139112,0.127779,0.063319,-0.064364,-0.180738,-0.143156,-0.071594,0.029793,0.099576,0.053894,-0.000731,-0.020864,-0.052749,-0.056284,-0.047155,-0.001289,0.035621,0.050240,0.010611,-0.009166,-0.005552,-0.020913,-0.040254,-0.062415,-0.037407,0.014464,0.090341,0.139197,0.081372,-0.058800,-0.088237,-0.146302,0.044181,0.119137,0.128529,0.047956,-0.070295,-0.134388,-0.085155,-0.022332,0.039802,0.065753,0.033586,0.047742,-0.006715,-0.007982,-0.058532,-0.102975,-0.088893,-0.034501,0.112621,0.148016,0.094870,-0.039558,-0.160540,-0.124496,-0.067613,0.093918},
		{-0.003696,0.052125,0.037372,0.054454,0.029311,-0.052920,-0.106073,-0.047703,-0.022602,0.075260,0.140452,0.112489,0.005984,-0.124499,-0.131113,-0.070866,-0.009100,0.068963,0.041898,0.041204,0.004488,-0.001201,0.008902,-0.022971,-0.061375,-0.052614,0.043412,0.118410,0.129810,0.014656,-0.022212,-0.096055,-0.092754,-0.002591,0.022817,0.082799,0.055011,0.004673,0.025695,0.000573,0.001828,0.020499,-0.004463,-0.056465,-0.050034,0.021870,0.108278,0.105406,0.046898,-0.015113,-0.087352,-0.086835,0.004265,0.041501,-0.016856,-0.036572,-0.066597,-0.090954,-0.004776,0.051031,0.117466,0.098964,0.019126,-0.111333,-0.132937,-0.070476,0.021991,0.078938,0.105903,0.057307,-0.022111,-0.025688,-0.020510,-0.054060,-0.025231,-0.024989,-0.072418,0.055662,0.074191,0.064815,-0.036685,-0.099816,-0.086044,-0.047260,0.041090,0.103827,0.093141,-0.012005,-0.039996,-0.023127,0.031673,0.019018,-0.009566,-0.061474,-0.044228,-0.018802,0.059497,0.100576,0.051701,-0.036028,-0.068794,-0.105446,-0.020067,0.034704},
		{-0.147373,-0.165569,-0.066848,0.070882,0.159325,0.129483,0.001547,-0.089922,-0.068502,-0.000280,0.038946,0.037796,-0.037059,-0.097276,-0.031594,0.102109,0.131518,0.077654,-0.034275,-0.143027,-0.153312,-0.048547,0.084549,0.150774,0.083150,0.001633,-0.081334,-0.062718,0.032073,0.018736,0.017876,0.012080,0.012744,0.021135,0.054159,0.019365,-0.006867,-0.036870,-0.066457,-0.072454,-0.024468,0.004688,0.070496,0.067632,0.024503,-0.049740,-0.057074,-0.058111,-0.071573,0.017515,0.048897,0.048573,-0.084332,0.061362,0.170689,0.125906,0.030448,-0.073438,-0.107398,-0.054072,0.022493,0.055186,0.036678,-0.017155,-0.056900,0.009353,0.107766,0.094629,0.035358,-0.088475,-0.145512,-0.056819,0.097981,0.129624,0.131470,0.045554,-0.075559,-0.115564,0.031415,0.054883,0.058336,-0.003754,0.015777,-0.020107,0.022516,0.052753,0.016190,-0.065180,-0.072797,-0.027700,-0.002798,0.073370,0.055304,0.077798,0.002222,-0.051488,-0.085764,-0.104398,-0.076752,-0.003762,0.034769,0.059096,0.089244,0.046469},
		{0.045767,0.045863,0.067211,0.029656,-0.050506,-0.080701,-0.069769,-0.051912,0.106966,0.097227,0.059339,-0.036218,-0.074136,-0.042629,0.015372,0.006419,0.018322,-0.012963,-0.003814,-0.015600,0.046567,0.043132,-0.008669,-0.024734,-0.125081,-0.069703,0.057415,0.011906,0.076091,0.038645,-0.021842,-0.006236,-0.013473,-0.055200,-0.035976,-0.031502,0.079138,0.065686,0.048424,0.000505,-0.030736,-0.036347,-0.020775,-0.023797,-0.028842,-0.041754,0.026014,0.126945,0.114086,-0.038348,-0.147358,-0.153008,0.022006,0.051410,-0.034702,-0.088855,-0.093176,-0.032557,0.072435,0.129667,0.068772,-0.013783,-0.111463,-0.073484,-0.002881,0.040245,0.026630,0.005874,-0.030229,0.042001,0.062600,0.066242,-0.000769,-0.087442,-0.097400,-0.076993,0.014677,0.091005,0.099683,-0.034243,-0.023468,-0.045645,-0.053977,-0.052033,-0.052399,0.025546,0.033025,0.074904,0.063120,-0.027688,-0.031738,-0.057285,-0.010819,-0.027035,-0.021885,-0.015335,0.015525,0.073617,0.076578,0.050636,-0.107405,-0.142958,-0.129774,0.008768},
		{0.031022,-0.089167,-0.100237,-0.073983,-0.025315,0.034818,0.022656,0.023020,0.025164,0.047987,0.022128,-0.061672,-0.075012,-0.020090,0.012193,0.016007,0.012475,0.006116,-0.013296,0.026182,0.023407,-0.019919,-0.021148,-0.091461,-0.110270,-0.004764,0.152757,0.112700,-0.032571,-0.140503,-0.068646,-0.027103,0.003544,0.088141,0.022154,0.027324,0.077065,0.003987,-0.051391,-0.119869,-0.096543,-0.052221,0.084989,0.083780,0.083344,-0.015013,-0.048246,-0.080248,-0.072427,-0.005722,-0.005608,-0.003731,-0.071986,-0.061903,-0.035049,0.021861,0.085313,0.046396,0.039716,0.037021,0.004881,-0.050396,-0.023517,-0.025820,-0.016628,0.028502,0.059654,-0.001969,-0.040238,-0.036113,0.013810,0.021968,-0.016366,-0.053535,-0.041660,0.005640,0.102087,0.104470,-0.008639,-0.107944,-0.111677,-0.084710,0.017909,0.050289,0.064787,0.057295,-0.002969,0.016381,-0.051692,-0.045580,-0.057524,-0.041385,0.073796,0.088678,0.104919,-0.001342,-0.083719,-0.117687,-0.061585,0.049241,0.063890,0.093367,-0.005498,0.038130},
		{-0.173244,-0.095602,0.046515,0.122191,0.107936,0.047256,-0.068736,-0.069802,-0.006643,0.029487,-0.001505,-0.037067,0.001188,0.046829,0.064090,0.040022,-0.013008,-0.084037,-0.074107,-0.034514,0.042524,0.061114,0.045470,-0.000122,-0.015265,-0.051139,-0.047372,0.009648,0.052249,0.085593,0.046177,0.000540,-0.070165,-0.069509,-0.026160,0.043477,0.045093,0.027016,-0.068130,-0.016100,0.013962,0.057102,0.061078,-0.043071,-0.076939,-0.051990,0.016373,0.061683,0.103702,-0.015032,-0.074973,-0.072004,-0.004920,0.116696,0.126505,0.040420,-0.064534,-0.073396,-0.057758,0.026919,0.031676,0.027026,0.006987,0.004602,0.062541,0.019789,0.002817,-0.061057,-0.089247,-0.039932,0.040211,0.053954,0.040691,0.019536,-0.047628,-0.062138,-0.056763,-0.023415,0.057499,0.051684,0.062881,-0.012425,-0.076145,-0.056648,-0.047136,0.010744,0.044588,0.068563,-0.009348,-0.048374,-0.046703,0.009964,0.032133,0.042930,-0.034955,-0.051871,-0.042996,0.067581,0.079787,0.027130,-0.045812,-0.100696,-0.034931,0.060159},
		{-0.054567,-0.106677,-0.091355,-0.063396,-0.049674,0.038882,0.057671,0.112191,0.106724,0.005358,-0.097825,-0.151967,-0.092726,-0.021365,0.127783,0.084834,0.128162,0.056062,-0.049552,-0.051285,-0.061190,-0.080887,-0.048017,0.059087,0.097489,0.098805,-0.100096,-0.122299,-0.014152,0.093190,0.071306,0.038462,-0.050184,-0.089545,-0.012127,0.054508,0.159142,0.091857,-0.025238,-0.100054,-0.084351,0.001047,0.064090,0.070577,0.043875,0.066878,0.030196,-0.039144,-0.077857,-0.189361,-0.112509,0.038327,-0.130947,-0.031749,0.015667,0.051464,0.057676,0.081799,0.064998,0.013419,-0.086515,-0.141004,-0.128504,0.007253,0.120348,0.151983,0.125020,0.042877,-0.075624,-0.103562,-0.053575,-0.084291,-0.058042,0.061054,0.093337,0.075471,0.004460,-0.051297,-0.057402,0.014878,0.038741,0.066537,-0.060912,-0.063553,-0.046913,0.009141,0.083497,0.094402,-0.027515,-0.078971,-0.079585,-0.063336,0.055084,0.072345,0.070561,0.025396,-0.029885,-0.000459,-0.022814,-0.071742,-0.067032,-0.019058,0.109597,0.177566},
		{0.096935,0.042227,0.018732,-0.053128,-0.066191,-0.046898,-0.043638,-0.018397,0.040792,0.087674,0.007246,0.038590,0.002836,-0.079477,-0.049596,-0.017926,0.010397,0.012515,0.012799,0.025917,0.015655,0.068861,0.040072,-0.022911,-0.089755,-0.084070,0.073109,0.101919,0.097925,0.032239,-0.067485,-0.125637,-0.068701,0.009837,0.131865,0.090104,0.070683,-0.004084,-0.069166,-0.082226,-0.013253,0.004632,-0.035748,-0.033291,-0.004541,0.012973,0.030125,0.074517,0.006240,-0.050882,-0.097840,-0.124472,-0.012908,-0.077819,-0.051163,-0.062033,-0.011920,0.038328,0.016185,0.073062,0.070211,0.009017,-0.057643,-0.037458,-0.069719,-0.034818,0.037808,0.083679,0.072126,-0.002117,0.012997,0.045637,0.009253,-0.037031,-0.045450,-0.085584,-0.054408,0.008571,0.137085,0.062422,-0.078252,-0.152001,-0.114970,-0.002428,0.110259,0.146668,0.088370,-0.034031,-0.102692,-0.094915,-0.032443,0.040826,0.039308,0.019106,-0.006197,0.003292,0.018022,0.035890,0.020214,-0.014681,-0.087400,-0.095761,-0.025523,0.093608},
		{-0.030157,0.034287,0.005469,0.007759,0.010708,-0.044516,-0.050213,-0.007119,0.062107,0.101456,0.011375,-0.037064,-0.040960,-0.070646,-0.028662,-0.005319,0.006825,0.028940,0.058610,0.039385,0.054686,-0.010729,-0.125871,-0.143528,-0.057393,0.085926,0.117748,0.008902,-0.117621,-0.137987,-0.070846,0.033764,0.103395,0.092474,0.040553,0.014247,-0.037040,0.018910,-0.042464,-0.064419,-0.068167,-0.034805,0.068115,0.093904,0.087938,-0.026907,-0.150116,-0.127094,-0.003028,0.096027,0.168054,0.048567,-0.024432,-0.014647,-0.038783,-0.012974,-0.022565,-0.004421,0.032299,0.068951,0.070437,0.011044,-0.078298,-0.093588,-0.010316,0.008544,0.072950,0.054445,0.044501,0.028597,0.013053,-0.019422,-0.074347,-0.120928,-0.070350,0.024494,0.115930,0.143493,-0.094828,-0.176397,-0.119219,0.012063,0.136287,0.156157,0.065721,-0.047877,-0.073578,-0.051526,-0.010444,-0.026163,-0.030096,-0.000183,0.033665,0.134506,0.110537,0.013365,-0.139410,-0.152138,-0.093685,0.055032,0.146465,0.054639,-0.010474,-0.112090},
		{-0.028832,-0.118315,-0.098566,-0.022784,0.053811,0.121987,0.044045,-0.046202,-0.090717,-0.070565,0.024780,0.063449,0.082078,0.048792,0.007824,-0.044565,-0.071337,-0.061530,-0.015085,0.063650,0.118594,0.072476,-0.004817,-0.084402,-0.164794,-0.099229,0.145681,0.150269,0.050096,-0.078544,-0.142766,-0.070362,0.006968,0.079349,0.069344,0.024998,0.016212,-0.007638,0.029219,0.011332,-0.077252,-0.131825,-0.060851,0.041132,0.130550,0.190667,0.071527,-0.101176,-0.192608,-0.150557,-0.058834,0.097278,-0.127025,-0.054962,0.034096,0.110001,0.073550,0.020795,-0.080828,-0.084619,-0.036593,0.029786,0.104257,0.057926,-0.001696,-0.058459,-0.084329,-0.064447,-0.003155,0.050939,0.090087,0.055867,0.009707,-0.085711,-0.135363,-0.062967,0.023860,0.121319,0.064439,-0.055771,-0.157219,-0.139462,-0.043110,0.101528,0.103572,0.047347,-0.016602,-0.037705,-0.029550,0.020779,-0.069634,-0.099199,-0.076093,0.023316,0.090410,0.154828,0.082050,-0.048576,-0.168545,-0.188812,-0.084018,0.082596,0.198814,0.168039},
		{-0.092253,-0.126802,-0.075202,0.074659,0.161351,0.128853,0.031432,-0.121134,-0.183695,-0.117101,0.023620,0.124000,0.155450,0.025665,-0.031445,-0.102417,-0.070189,-0.003292,-0.008112,0.016467,0.023414,0.060822,0.029542,0.009991,-0.053921,-0.066862,-0.000218,0.042690,0.066433,0.069400,0.018202,-0.053553,-0.037511,-0.025660,-0.006836,0.029634,0.064066,0.035835,0.012400,-0.054072,-0.058017,0.014475,0.045695,0.069062,0.050003,-0.040267,-0.093126,-0.053665,0.017571,0.087983,0.101767,0.031816,-0.067045,0.036371,0.150357,0.154936,0.031472,-0.114503,-0.169290,-0.149561,0.016295,0.140697,0.141849,0.070966,-0.035411,-0.104740,-0.070289,0.003561,0.031516,0.039096,0.050017,0.040676,0.005399,0.019981,-0.013578,-0.070066,-0.066618,-0.013441,0.077752,0.055523,-0.028580,-0.035935,-0.062025,-0.040884,-0.007135,0.023730,0.048556,0.050829,0.018823,-0.060122,-0.024540,-0.050737,0.028763,0.028544,0.062078,-0.025627,-0.077640,-0.058482,0.029846,0.103396,0.126490,0.025658,-0.071074,-0.126184},
		{-0.066567,-0.066096,-0.093193,-0.045620,0.043413,0.084137,0.105176,0.056115,-0.067113,-0.111436,-0.089272,-0.023504,0.041256,0.065442,0.063825,-0.018226,-0.035466,-0.026636,-0.017404,0.003405,0.033097,0.033519,0.027551,-0.005476,-0.030009,-0.061705,0.024659,0.094942,0.091400,-0.009494,-0.131909,-0.161694,-0.057298,0.129565,0.218976,0.140131,-0.057336,-0.189795,-0.199601,-0.049611,0.142482,0.200814,0.113500,-0.046502,-0.175629,-0.117619,-0.016281,0.045564,0.051563,0.019993,0.006233,0.000209,-0.086101,-0.013578,0.019548,0.105430,0.101539,0.028546,-0.053365,-0.116555,-0.112766,-0.043654,0.063488,0.086828,0.069081,0.037242,-0.023257,-0.045993,-0.037047,-0.003472,0.020856,0.020389,0.034630,-0.012541,-0.030988,-0.059428,-0.033782,0.035495,0.061086,0.010751,-0.100616,-0.125753,-0.067102,0.040711,0.217709,0.170357,-0.015489,-0.183455,-0.242180,-0.061661,0.132673,0.249946,0.164376,-0.025402,-0.165737,-0.173445,-0.076930,0.058105,0.113003,0.067516,-0.014870,-0.029616,-0.007190,0.017543},
		{0.105196,0.101917,0.017516,-0.042985,-0.049724,0.018262,0.024833,-0.005077,-0.054447,-0.074423,-0.031159,0.058826,0.093438,0.069321,-0.003305,-0.095438,-0.086267,-0.037792,0.026792,0.062966,0.035073,0.003621,-0.001769,-0.022750,-0.018695,-0.014692,-0.017264,-0.019896,-0.016402,-0.008759,0.044959,0.069732,0.057574,0.009041,-0.077973,-0.161677,-0.065170,0.046982,0.152552,0.135453,0.076057,-0.100309,-0.176963,-0.142714,-0.033175,0.060258,0.113397,0.037910,-0.040152,-0.043345,0.015868,0.016667,0.099960,0.009332,-0.090160,-0.051027,0.013828,0.002375,-0.039696,-0.032193,-0.039521,0.020037,0.101654,0.111284,0.000699,-0.068687,-0.088688,-0.053579,0.016686,0.078079,0.082488,0.019317,-0.019098,-0.066576,-0.019160,-0.014206,0.016332,0.006238,0.011399,-0.012024,0.017396,0.021256,0.024978,-0.039988,-0.036524,-0.064648,-0.086679,0.025222,0.079595,0.182057,0.111150,-0.026544,-0.159096,-0.176017,-0.051542,0.080798,0.129931,0.075138,-0.005919,-0.023701,-0.050284,0.024323,-0.009468,-0.014588},
		{-0.206815,-0.131744,-0.013559,0.091919,0.129407,0.093617,-0.007075,-0.085621,-0.110419,-0.028361,0.009234,0.047290,0.013404,0.005520,-0.046960,-0.020753,0.016782,0.033913,0.062606,-0.022157,-0.098008,-0.082318,-0.016281,0.064933,0.145315,0.098148,-0.088283,-0.100326,-0.118211,-0.015636,0.086348,0.092506,0.052947,-0.008216,-0.055817,-0.034113,-0.019723,0.001295,0.004151,0.003648,-0.013880,-0.015216,0.015845,0.065428,0.041031,0.025782,-0.066040,-0.124495,-0.127255,-0.021734,0.090902,0.171593,-0.035017,0.106365,0.142131,0.140016,0.028934,-0.090720,-0.152495,-0.070168,0.019246,0.053038,0.083513,-0.006681,-0.034541,-0.020532,-0.024943,0.018481,0.026955,-0.027477,-0.082853,-0.065735,-0.029303,0.019538,0.101283,0.087535,0.013536,-0.073048,-0.113040,0.016323,0.108573,0.113595,0.070306,0.008341,-0.047753,-0.077159,-0.044322,0.011640,0.026711,0.022295,-0.018722,0.003035,0.001730,0.044478,0.033964,0.039422,-0.035415,-0.094639,-0.089551,-0.019230,0.076968,0.181302,0.159488,0.041756},
		{0.066605,0.077650,0.045122,-0.067854,-0.147349,-0.163976,-0.023944,0.121221,0.188189,0.153801,0.024349,-0.124086,-0.199800,-0.036114,0.013981,0.135824,0.084146,0.033991,-0.015071,-0.068326,-0.032526,-0.043604,0.029643,0.006905,0.045674,0.020314,0.040709,-0.037458,-0.057983,-0.090369,-0.036401,0.031884,0.042800,0.051114,0.017497,-0.042817,-0.092933,-0.107738,-0.017635,0.071039,0.097846,-0.015776,-0.071227,-0.074358,-0.039544,0.063818,0.087564,0.033178,-0.094265,-0.110509,-0.096407,0.021518,0.055081,-0.062088,-0.141346,-0.125578,0.007891,0.077620,0.150453,0.146486,0.022988,-0.123238,-0.168845,-0.102998,0.007311,0.118502,0.109882,0.012656,-0.041616,-0.110162,-0.054475,-0.044744,0.032883,0.030157,0.028456,0.048499,0.051488,-0.021343,-0.052744,-0.038803,-0.017268,0.005832,0.075929,0.044893,0.050250,-0.035758,-0.077994,-0.094138,-0.024184,0.069008,0.065313,0.055828,-0.009562,-0.060843,-0.069334,0.031740,0.086561,0.028083,-0.028603,-0.148332,-0.123209,0.022370,0.086020,0.167822},
		{0.135131,0.029069,-0.058330,-0.139568,-0.067721,0.048172,0.077951,0.073150,0.005968,-0.012285,-0.045101,-0.033545,-0.040275,-0.057986,0.030310,0.077686,0.090433,0.036427,-0.070803,-0.117230,-0.115617,0.020517,0.102962,0.139181,0.037065,-0.038637,-0.020002,-0.013851,0.008010,0.019624,0.032533,0.061592,0.054349,0.029592,-0.057064,-0.125433,-0.094381,0.001392,0.076019,0.120470,0.067321,0.008891,-0.037837,-0.053844,-0.033512,-0.033050,-0.031415,-0.004111,0.097896,0.132680,0.076349,-0.017160,-0.085574,-0.139941,-0.101354,0.028372,0.096297,0.110178,0.004023,-0.034742,-0.072547,-0.035337,-0.037476,0.005779,0.013901,0.060993,0.087691,0.061368,-0.049121,-0.121626,-0.108497,-0.009714,0.073096,0.114333,0.076486,-0.033344,-0.120125,-0.078669,0.037884,0.054340,0.026717,0.015730,0.012428,0.026308,-0.049824,-0.090201,-0.083883,-0.018955,0.079576,0.100497,0.078967,-0.025455,-0.078036,-0.101001,-0.048699,-0.014005,0.012597,0.035242,0.066264,0.086702,0.079708,-0.003432,-0.109996,-0.136995},
		{-0.036204,-0.014070,-0.027329,0.001336,0.042976,0.062637,0.064944,0.019413,-0.043801,-0.092273,-0.016558,-0.045732,0.021145,0.087115,0.047722,-0.002504,-0.015168,-0.013982,-0.006470,-0.042097,-0.015953,-0.063321,-0.002531,0.034652,0.081106,0.021703,-0.094963,-0.083565,-0.029807,-0.008758,0.020586,0.084094,0.068192,0.016198,-0.086762,-0.075300,-0.069837,-0.031849,0.037602,0.115867,0.026255,0.008514,0.031087,0.020427,0.001031,-0.005931,-0.046873,-0.099857,-0.045501,0.045806,0.120578,0.148767,0.042215,0.054796,0.011966,0.029903,0.039334,0.009045,0.014830,-0.079403,-0.084754,-0.031525,0.062444,0.043752,0.072672,0.011880,-0.052717,-0.075275,-0.050242,0.006091,-0.009373,-0.042057,0.004134,0.056261,0.035982,0.035652,-0.010966,-0.034908,-0.044871,-0.013642,0.059932,0.088774,0.055933,-0.007553,-0.066022,-0.076617,-0.099621,-0.006628,0.067393,0.103543,0.068014,-0.001417,-0.024276,-0.048479,-0.030679,0.009474,-0.031603,-0.025572,-0.026084,0.017055,0.110521,0.122701,0.064976,-0.114141},
