/*
 * DNN_Data.h
 *
 *  Created on: 05-Mar-2022
 *      Author: Ranjith Srinivas
 */

#ifndef SRC_DNN_DATA_H_
#define SRC_DNN_DATA_H_

// Neuron count in each Layer definition
#define LAYER_1_COUNT 104
#define LAYER_2_COUNT 52
#define LAYER_3_COUNT 104


//DNN Parameters
// Bias from layer-1 to Layer-2
const float Layer1_bias[LAYER_2_COUNT] = {0.017175,-0.005978,-0.005558,-0.031487,-0.045698,0.036151,-0.007988,0.015675,0.027893,0.076120,0.029654,0.031699,-0.011172,-0.013409,-0.000203,0.005866,0.002596,-0.043612,-0.008713,-0.033642,-0.050312,0.013780,-0.019665,-0.020704,0.034741,0.022720,-0.023064,-0.012438,0.033619,0.015013,0.009033,-0.011009,-0.034274,-0.011764,0.007993,-0.015383,0.019245,0.001975,0.024547,-0.008870,0.012917,-0.004651,0.026600,0.037703,-0.015883,0.038096,0.018873,-0.062403,-0.024912,-0.076945,-0.029882,0.056267};

// Layer 2 weights -> [104 * 52]
// Thus, for layer_2 neuron_1, the weights are from column 1 only. Similarly for Layer_2 neuron_52, the weights are from last column.
const float Layer1_weight[LAYER_1_COUNT][LAYER_2_COUNT] = {{-0.135425,0.179067,0.022520,-0.085540,-0.036373,-0.010551,0.120827,0.070140,-0.024067,-0.197992,-0.162418,0.014568,-0.091929,-0.137601,0.108547,-0.064906,0.017981,0.002197,0.094088,0.009456,-0.102796,-0.041019,0.105041,0.039851,-0.038362,-0.099060,0.018975,0.076210,-0.017572,0.105912,-0.116286,-0.113152,0.197663,-0.016424,-0.045280,-0.066548,0.004558,-0.184033,-0.072708,-0.054282,0.137380,0.000980,0.009109,0.023020,0.114812,-0.080125,0.005807,0.037426,0.165557,0.152587,-0.060263,0.066608},
		{-0.121430,0.107944,0.077941,-0.156177,0.056056,-0.082455,-0.020708,-0.072995,-0.038343,-0.106013,-0.003416,0.019793,0.006287,0.027466,0.004972,0.045965,-0.008017,0.014437,0.070984,-0.081319,0.032757,0.114398,0.138740,0.156774,-0.047736,-0.177151,-0.027003,0.189058,-0.074932,0.045003,-0.173115,0.003798,0.133276,-0.145097,0.050391,-0.144233,0.052659,0.003913,0.071211,-0.114689,0.116832,-0.012472,0.146079,0.006191,-0.139238,0.046762,0.022105,-0.054033,-0.048322,0.151119,0.134467,-0.030013},
		{-0.075032,0.070783,-0.024762,0.077209,0.092968,-0.121885,-0.027473,-0.084889,0.013614,-0.100451,0.195098,0.008166,-0.061708,0.003780,0.017186,-0.059350,-0.087501,0.017752,-0.092705,0.070403,0.132833,0.163650,-0.028693,0.013107,-0.006200,-0.097422,-0.108091,0.072302,-0.112940,-0.038981,-0.137449,-0.046595,-0.080092,-0.201298,-0.059745,-0.129984,0.064880,0.059816,0.011793,-0.063882,0.115167,0.116455,0.093981,0.063995,-0.198207,0.033502,-0.060770,0.023047,0.063913,0.026591,0.170445,-0.078316},
		{0.108361,-0.105379,-0.027544,0.039156,0.008004,-0.161588,-0.144772,0.076722,0.140910,0.066920,0.103706,0.032504,0.040919,0.054567,0.109680,-0.031076,0.070399,0.050633,-0.066254,0.151055,0.006521,0.174002,0.010175,-0.027866,-0.148310,0.067979,0.036192,-0.042255,0.001494,-0.062687,0.111858,-0.092256,-0.108066,-0.067446,0.025777,0.048786,0.041894,0.167499,-0.050918,0.119194,-0.076157,0.042327,0.008063,-0.004718,-0.097797,0.016921,0.026449,0.085585,0.077858,-0.115031,0.140472,-0.204291},
		{0.109946,-0.171283,-0.119650,0.073621,0.006457,-0.006453,0.054617,0.067364,0.056949,0.170223,0.048175,-0.005378,0.070753,0.047697,0.001445,-0.023991,0.066533,0.055605,-0.039312,0.115050,-0.045218,0.011872,-0.047646,-0.118210,0.042645,0.041979,-0.023415,-0.062662,0.102842,-0.143056,0.180508,-0.011429,-0.142980,0.002917,0.001867,0.060870,0.062566,0.129161,-0.092903,0.118725,-0.167125,-0.024749,-0.121117,-0.079398,-0.040312,-0.051729,-0.025607,0.061000,0.049372,-0.063584,-0.043636,-0.025156},
		{0.010465,-0.052368,-0.037716,0.063065,-0.037671,0.129921,0.059004,0.053334,0.013035,0.055561,-0.018599,0.056265,0.055871,-0.007840,-0.046342,-0.034096,-0.021187,0.030707,0.065655,-0.072343,-0.121189,-0.028657,-0.086059,0.006877,0.135177,0.114337,-0.063228,-0.010850,0.113726,-0.063775,0.055197,-0.100254,-0.001535,0.016668,-0.023579,0.050134,-0.038912,-0.086266,-0.059000,0.043482,-0.030804,-0.013772,-0.000864,-0.070034,0.200718,-0.057842,0.012817,-0.053734,0.009929,-0.056254,-0.107571,0.037802},
		{0.000203,-0.051689,-0.050526,0.027433,-0.003581,0.064776,0.084858,-0.054609,0.048612,0.042244,-0.130211,-0.056359,-0.019633,0.001085,0.010359,-0.021186,-0.085815,-0.003311,-0.002085,-0.027172,-0.103850,-0.125747,0.042904,0.110238,0.027202,-0.021972,0.001754,0.049474,-0.033434,0.008007,-0.010503,0.021744,0.202165,0.042629,0.042226,0.028903,-0.031766,-0.014659,0.030429,-0.049327,0.017799,-0.021161,0.129188,0.073198,0.153096,0.041443,0.037597,-0.014024,-0.007681,-0.032233,-0.091716,0.044171},
		{-0.129527,0.095408,0.082174,0.029299,0.046483,0.094962,-0.075102,-0.112291,-0.070297,0.035177,-0.116501,0.130505,0.005074,0.031282,-0.046777,0.083828,-0.041750,-0.013473,-0.040237,-0.097474,0.015993,-0.035217,0.153172,0.061210,0.012296,-0.080329,0.082466,0.091351,-0.023330,0.076865,-0.139124,0.071194,0.130334,-0.053921,0.095561,-0.020105,-0.027446,0.006163,0.076276,0.000987,-0.028158,-0.036212,0.067219,0.052899,0.124086,0.083451,0.139977,-0.028081,-0.085543,0.023014,-0.115228,0.070745},
		{-0.087230,0.128282,0.021496,-0.114496,0.108425,0.058152,-0.115807,-0.060358,-0.097280,-0.082987,-0.029209,0.114858,-0.087052,-0.066328,0.014511,0.121835,-0.028376,-0.015737,-0.039788,-0.015405,0.096975,0.048389,0.084014,0.032724,-0.046616,-0.121888,0.115385,0.070645,0.000866,0.075685,-0.074367,0.133623,-0.034013,-0.016778,-0.002691,0.044207,-0.046076,0.040850,0.155841,-0.050340,0.049341,0.061448,-0.096746,0.024265,-0.073508,0.029447,0.167497,-0.086166,-0.049647,0.151018,0.030553,-0.005194},
		{0.029354,0.089769,0.001358,-0.042208,0.099109,-0.195893,-0.128336,0.005807,-0.097727,-0.056313,0.011720,-0.050199,0.010143,-0.125448,-0.018884,0.026078,-0.015685,-0.031395,-0.070886,0.107297,0.073951,0.182190,-0.004888,-0.073532,-0.003397,0.047310,0.167053,-0.121040,-0.007753,0.088499,0.038958,0.054835,-0.028585,0.089962,-0.003768,0.168581,0.048241,0.102092,-0.113667,-0.082765,-0.019227,0.107647,-0.204188,-0.073609,-0.036720,0.123107,-0.036029,-0.017750,0.156513,0.062757,0.110912,-0.062507},
		{0.105882,-0.049553,-0.030742,-0.003369,-0.010939,-0.195113,0.007528,0.039707,0.086630,-0.168131,0.066981,-0.035303,0.057390,0.041105,0.041204,0.127287,0.120952,0.007116,0.012254,0.057521,0.050711,0.037010,-0.042041,-0.120065,-0.030153,0.061432,0.056224,-0.070242,0.002207,-0.056977,0.017152,-0.061960,-0.051283,0.092175,-0.074982,0.075575,0.018129,0.007007,-0.036446,0.096429,-0.019521,-0.058500,-0.182969,-0.043179,-0.093700,0.030829,-0.089909,0.030520,0.083062,0.183758,0.060623,0.000586},
		{-0.048063,-0.031006,-0.010402,0.107816,-0.065079,-0.067645,0.065541,0.082575,0.056976,-0.009231,-0.059413,-0.141889,-0.046012,0.023381,0.000139,0.045083,0.089467,0.116034,0.080699,0.044694,-0.114064,-0.043490,-0.059751,-0.021091,-0.075432,-0.082403,-0.036352,-0.055912,0.028774,-0.003676,-0.053598,-0.069518,0.021922,0.112059,0.043654,0.055302,-0.034840,-0.120211,-0.093573,0.060266,-0.028647,-0.059951,-0.004327,-0.135331,-0.043786,-0.055434,-0.057317,0.053136,0.008156,-0.023256,0.112050,0.018275},
		{0.017300,0.024118,-0.017749,0.052286,0.000190,0.036248,0.089492,0.046413,0.134631,0.043786,0.033034,-0.039998,0.012172,-0.094862,0.143944,-0.014950,0.107710,0.045876,0.046977,0.088397,-0.021425,-0.088581,0.011867,0.025823,-0.014579,0.031439,-0.081844,0.014236,0.017082,-0.045550,-0.003300,0.041235,0.023167,-0.036137,-0.058785,-0.106428,0.087057,-0.089101,-0.027980,0.035868,-0.017952,0.063604,0.195813,-0.033847,0.052694,-0.020275,-0.022918,0.067322,0.035897,-0.020989,-0.029872,-0.013311},
		{0.000821,0.137987,0.022184,-0.053821,-0.007381,0.011996,-0.107010,-0.010872,-0.032495,0.143121,0.028979,0.076506,0.026865,-0.067164,-0.055448,-0.031473,-0.100971,0.096582,-0.050388,-0.095963,0.136479,-0.120736,0.022819,-0.012172,-0.006374,0.079066,-0.002113,0.146720,-0.029039,0.011764,-0.004374,0.046512,-0.020653,-0.106613,-0.047397,-0.273956,0.045042,-0.010659,0.129723,-0.039846,-0.062068,0.026941,0.171923,0.004267,0.050905,0.005433,-0.020890,-0.010715,-0.032012,-0.165896,-0.031583,-0.039512},
		{-0.058390,-0.023384,0.039115,-0.063461,0.041224,0.028002,-0.185762,0.010491,-0.051857,0.149512,0.041707,0.073226,0.035748,0.013430,-0.024406,-0.058420,0.009427,-0.009578,-0.146316,0.004605,0.069116,-0.046708,-0.014213,-0.091885,-0.060206,0.078573,0.000226,0.101109,-0.132209,0.094268,0.137668,0.076509,-0.060362,-0.029080,-0.066642,-0.018742,0.018975,0.090256,0.112673,-0.074526,-0.100765,0.045703,-0.015067,0.012194,0.122453,0.046938,0.059830,-0.081716,-0.097447,-0.179675,-0.007253,-0.031980},
		{0.068217,-0.021312,0.018265,0.001591,0.072224,-0.063634,-0.093801,-0.029058,0.010415,-0.049451,0.039442,0.040596,-0.048859,0.047214,-0.124669,-0.019014,-0.035886,-0.173394,0.016845,-0.114705,0.071634,-0.068200,-0.131910,-0.078458,0.036493,0.053217,0.082234,0.001952,0.103812,0.023483,0.085402,0.066901,-0.104143,-0.042870,0.009972,0.089577,0.070126,0.175120,0.129014,-0.045306,-0.004063,-0.085218,-0.105308,0.070495,0.009179,0.049823,-0.000708,-0.153421,-0.003994,0.012285,-0.049239,-0.021279},
		{0.062960,-0.107024,-0.114222,0.110155,0.037733,0.017120,-0.044900,-0.054315,-0.012203,-0.203032,0.013047,0.010999,-0.047396,0.015286,-0.024494,0.075305,-0.001466,-0.176034,0.045101,-0.066630,-0.119763,-0.005553,-0.009441,-0.080891,0.068752,-0.002906,0.076744,0.008783,0.044774,-0.089089,-0.004774,0.076364,-0.037830,0.062827,0.060110,0.074029,0.011770,0.047862,-0.072331,-0.006783,-0.060441,-0.060084,-0.132424,0.039447,0.013984,-0.111884,0.056227,-0.020565,0.089117,0.111529,-0.012902,0.100247},
		{0.047848,-0.113862,-0.036697,0.049740,-0.010603,-0.010123,-0.029513,-0.094123,0.070535,-0.103180,-0.097102,-0.122674,-0.018607,0.101705,0.030634,0.041986,0.085284,-0.012819,-0.016234,-0.016204,-0.043595,0.123907,-0.025197,0.046213,0.129439,-0.013618,-0.036906,-0.145845,0.010088,0.023487,-0.091471,0.105980,0.075566,0.092167,0.041856,0.155647,-0.028727,0.035532,-0.094922,0.087125,0.007194,0.025152,-0.146156,-0.018327,-0.126641,0.022108,-0.033543,0.084736,-0.005375,0.222309,0.042531,0.042117},
		{0.046572,-0.013294,0.040095,0.007911,-0.089430,0.094495,0.128376,0.078791,0.034729,-0.134708,-0.028429,-0.059510,-0.055200,-0.069631,0.081950,0.047427,0.023436,0.110234,-0.077114,0.112760,-0.095011,0.034982,0.129532,0.110187,-0.027425,-0.062641,0.031095,0.008979,0.004530,0.022383,-0.066947,-0.001131,0.015507,0.068225,-0.090889,-0.043513,-0.080667,-0.066459,-0.033606,0.004475,0.063267,0.060634,0.002397,-0.093445,-0.008074,-0.019868,-0.101406,0.079739,-0.001832,0.103016,-0.034045,-0.115970},
		{-0.050025,-0.001264,0.062919,-0.124584,-0.022542,0.160225,0.001602,0.073154,-0.038003,-0.010384,-0.071862,-0.027542,-0.052504,0.030157,0.073765,0.036560,0.039314,0.065216,-0.015688,0.078646,0.047145,0.044115,0.107629,0.042156,0.028305,-0.018919,-0.117830,-0.095257,-0.111880,0.003188,0.050379,-0.160598,0.054421,0.086055,-0.024508,-0.077711,-0.010754,-0.081015,-0.072094,-0.054978,0.054457,0.048282,0.171905,-0.092797,-0.103736,0.071860,-0.094312,0.073927,-0.051492,0.001801,-0.009301,-0.070807},
		{-0.048304,0.047238,0.100616,-0.049686,0.159070,0.041768,0.006811,0.066460,-0.214996,0.086676,-0.085146,0.035555,-0.066946,-0.035921,0.025764,-0.111217,0.062938,0.076755,-0.037306,0.006300,0.019286,0.070746,-0.078038,-0.074939,-0.032491,0.089516,-0.033180,0.050175,0.015101,0.028604,0.059814,-0.045911,-0.006361,0.020392,-0.024748,0.030054,0.054425,-0.019916,-0.060562,-0.131849,-0.001164,-0.107351,0.037805,-0.043619,0.053196,0.080754,0.033443,0.120923,0.072565,-0.201345,0.020526,-0.023615},
		{-0.138293,0.122627,-0.023436,0.013519,0.101144,-0.117986,-0.002617,0.023199,-0.179549,0.169666,0.041878,0.000879,-0.015126,-0.102748,0.008041,-0.019621,-0.018090,-0.012706,0.069045,-0.008082,-0.007753,-0.042816,-0.159803,-0.054869,-0.017701,0.200028,-0.006753,0.041139,0.071582,0.000165,0.141130,0.005724,-0.017396,-0.033964,0.012590,0.011680,0.073853,-0.007538,0.039691,-0.032582,-0.073085,-0.039418,0.010548,-0.007351,0.135182,0.026090,0.067588,-0.045607,0.094255,-0.035080,0.158164,0.024673},
		{-0.133708,0.100165,-0.026783,0.070922,0.041871,-0.154941,-0.023374,-0.079566,-0.172124,0.052729,0.083467,-0.042359,0.028218,-0.016425,-0.076407,-0.006070,0.097650,-0.096961,0.083837,0.001499,-0.062030,-0.075162,-0.054304,-0.041538,0.063370,0.033143,-0.034997,0.036543,0.052531,-0.005997,0.041237,0.034110,-0.087931,-0.024178,0.054662,-0.011576,0.052921,0.046339,-0.011075,0.003908,-0.027006,-0.074300,-0.099690,-0.025577,0.079411,-0.112389,-0.012078,-0.097231,0.113711,-0.034359,0.128053,0.132838},
		{0.055479,-0.056198,-0.071410,0.142393,-0.065456,-0.011905,-0.005955,-0.115460,0.056681,-0.146685,0.052555,0.075324,0.021310,0.078489,0.035793,0.032735,-0.082454,-0.093421,0.027754,-0.103709,-0.084326,-0.110830,-0.030602,0.031156,-0.029063,-0.097879,-0.005065,-0.047665,0.159952,-0.126230,-0.014665,0.157526,-0.036800,-0.038052,0.139746,0.154194,0.058673,-0.018560,0.016257,0.145249,0.089223,-0.019468,-0.179074,0.075993,0.133789,-0.083244,0.101453,0.012864,0.005758,0.062547,0.034807,0.010634},
		{0.038778,-0.147895,0.002595,0.061710,-0.068017,0.063196,-0.041919,-0.046149,0.101120,-0.201313,0.054255,0.083566,-0.008547,0.006986,-0.094904,0.021084,0.018613,0.010963,-0.027566,-0.011391,-0.036174,0.061204,0.075974,0.041614,0.012793,-0.102994,-0.026421,0.022230,0.044231,0.001618,-0.037068,0.089276,-0.097441,-0.022123,-0.002228,-0.038979,0.060455,0.051300,0.058252,0.050084,0.004059,0.108314,-0.017790,0.075328,-0.055636,-0.055585,0.055550,-0.020856,0.006326,0.144065,-0.014946,0.041443},
		{0.071732,-0.046346,-0.086367,-0.103685,-0.076881,0.127065,-0.050171,0.012949,0.051227,-0.114588,0.093428,0.051370,-0.069212,0.094680,-0.132617,0.078854,-0.144053,0.111716,-0.120438,-0.039190,0.054268,0.021253,-0.009429,0.012327,-0.014465,-0.051632,-0.068823,-0.086354,0.000840,-0.009047,-0.074927,-0.002281,-0.004652,0.067534,0.032026,0.055176,-0.030206,0.081930,0.089186,-0.132268,0.008544,0.117024,0.078255,-0.025225,-0.037107,0.068783,0.049792,-0.001735,-0.115481,0.049356,-0.066874,-0.008298},
		{-0.018590,0.058402,-0.001776,-0.048506,0.011121,-0.067073,-0.006648,0.143088,-0.144579,0.057773,-0.134718,0.047690,-0.051283,-0.103373,-0.035080,0.057014,-0.003674,0.059460,0.021250,0.045188,0.078195,0.099235,-0.111014,-0.029375,-0.056547,0.132596,0.103143,-0.085822,0.043795,0.251449,-0.002557,-0.062981,0.080319,0.142090,-0.101927,-0.029892,-0.110342,0.054322,0.034848,-0.188677,0.027824,-0.026503,-0.010603,-0.048314,-0.093673,0.104143,0.001284,0.061723,0.070248,-0.189008,0.007052,0.075737},
		{-0.103325,0.059987,0.032585,0.066403,0.074721,-0.085184,0.039169,0.109678,-0.003690,0.105815,-0.094867,-0.048114,0.025447,0.021855,0.005354,0.008148,0.115007,-0.005718,0.013862,0.009535,-0.110807,0.100331,-0.001055,-0.008837,0.022761,0.092324,-0.000195,-0.045872,0.080031,-0.082061,-0.019956,-0.103769,0.113688,0.087536,-0.022132,0.060690,-0.043938,-0.106288,-0.068234,-0.054607,-0.011264,-0.029681,-0.125424,0.055408,-0.009143,-0.106685,0.007095,-0.042321,0.098494,-0.072667,0.092742,0.106826},
		{-0.098934,0.138472,-0.031414,0.159435,0.041116,-0.042800,0.077368,-0.066630,-0.098422,-0.062613,-0.018881,-0.074340,0.043820,-0.027622,0.079371,-0.004211,0.013863,0.017898,0.097781,-0.001717,-0.086303,-0.110718,0.071289,0.066487,0.005284,-0.116828,-0.006799,0.088977,-0.022463,-0.063838,-0.081798,-0.023397,-0.011738,-0.040042,-0.015632,0.085126,0.007750,-0.100242,-0.038553,0.174703,0.035671,-0.009702,-0.023757,0.060357,0.073329,-0.212577,0.026361,0.037681,0.036343,0.000733,0.057669,0.024594},
		{-0.019634,0.132598,-0.022452,0.054585,0.047837,-0.032788,0.022048,-0.097998,-0.049444,-0.088774,0.144674,-0.074915,0.131129,-0.000945,0.051688,0.022984,0.059669,0.043165,-0.020916,0.053341,0.058743,-0.084815,0.053966,0.016608,0.004929,-0.090559,0.043653,0.028681,-0.092488,-0.116154,-0.084215,0.089328,-0.128377,-0.126877,0.013080,0.056465,0.092663,-0.036412,0.020826,0.019910,0.029896,0.042681,0.015676,0.061653,0.146564,0.001342,-0.077776,-0.011577,-0.040799,0.066385,0.057975,-0.024698},
		{0.122806,-0.079799,0.019769,0.017623,-0.022014,0.023204,-0.004468,0.000021,0.106184,-0.092276,0.184075,-0.011833,0.005088,0.073521,-0.109649,0.058938,-0.101411,0.095877,-0.106677,0.037815,0.053586,-0.100264,0.062045,-0.079075,0.035256,0.071289,0.038242,0.049270,-0.056382,-0.023254,0.061906,0.068501,-0.122254,-0.117714,-0.016261,-0.081339,0.026208,-0.020124,0.063986,-0.005944,0.013363,-0.011228,0.041903,-0.042459,0.077209,0.012777,0.062317,0.108782,0.032806,0.190131,-0.008079,-0.161128},
		{0.094581,-0.082449,-0.055067,-0.022820,-0.047417,0.150563,-0.124943,-0.062929,0.007783,-0.082777,0.029723,0.048235,0.032460,0.062729,-0.093998,0.001703,-0.011682,0.013322,-0.098384,-0.074085,0.053768,0.000550,-0.105076,-0.052155,-0.016507,0.109420,-0.049381,0.045106,-0.035258,0.114026,0.028067,0.099095,-0.084987,-0.002362,0.017324,-0.087591,0.078288,0.017003,-0.012299,-0.066493,-0.034389,-0.099936,0.145216,-0.042746,-0.030189,0.031803,0.001511,-0.066928,-0.037732,0.127769,-0.116227,-0.002522},
		{0.079942,-0.064027,0.016474,-0.105751,-0.017317,0.005304,-0.111560,-0.070150,0.028602,-0.022115,-0.134198,-0.053587,-0.089788,0.089970,-0.151590,-0.030218,-0.011567,-0.054284,0.058044,-0.054782,-0.073002,0.064702,-0.041900,-0.092409,-0.010742,0.133035,-0.077636,0.046911,0.084353,0.074224,0.121355,0.064254,-0.019873,0.100213,0.052104,0.016870,0.073984,0.084043,-0.077038,-0.096443,0.099110,-0.055259,0.058820,-0.002167,-0.133396,0.113502,0.051853,-0.038523,0.040019,0.005801,0.038163,-0.030964},
		{0.033622,-0.044828,-0.026444,-0.070281,0.016179,-0.016262,0.017126,-0.046471,0.036954,0.097936,-0.028176,0.086147,-0.111590,0.048969,0.015715,0.006479,0.021683,-0.058864,0.050422,-0.045373,-0.069637,0.192682,0.010516,0.038630,0.113125,0.004954,0.001443,-0.042612,0.108482,0.063605,-0.078468,0.057198,0.071154,0.130015,0.085175,-0.052340,0.019025,-0.043972,0.077538,0.056811,0.062758,-0.113163,0.027443,0.000237,-0.211647,-0.016551,0.022679,-0.018805,-0.041182,-0.063048,0.016567,0.078411},
		{-0.126914,0.070391,-0.032954,0.073894,0.101082,-0.014217,0.006348,0.010924,0.008740,0.197352,-0.000510,-0.079975,-0.063294,-0.013424,0.111370,-0.053842,0.015862,0.027007,-0.069303,-0.078387,-0.034560,0.107753,0.004677,0.113303,-0.026813,-0.102928,0.116322,-0.020287,0.093897,-0.086715,-0.031065,-0.028218,0.089376,0.150583,0.086970,0.041876,-0.076017,-0.043940,0.046485,0.014286,-0.070472,0.005649,-0.086012,0.142992,-0.050569,0.006968,-0.000045,-0.156593,-0.149020,-0.149448,0.063081,0.083348},
		{-0.088856,0.148999,0.009959,0.071355,-0.012093,0.048531,0.093558,0.090190,0.038365,0.054666,0.061799,0.025291,0.075434,0.003000,0.061333,0.045713,-0.044258,0.115457,-0.052021,0.005966,0.065009,0.012968,0.114051,0.091310,0.000967,-0.103529,0.009493,-0.016174,-0.036324,-0.099814,-0.110054,-0.146751,0.037295,0.053378,0.027054,0.110367,-0.080025,-0.064137,-0.021984,0.038923,-0.000112,0.082027,-0.190120,0.044792,0.008243,-0.071534,-0.034386,0.007629,-0.006286,-0.065043,-0.098666,-0.067472},
		{-0.013480,0.077036,-0.011256,0.010631,-0.007359,0.007449,0.013614,0.067866,-0.063096,-0.069474,0.113014,-0.068268,0.138994,-0.076465,0.018630,0.071959,0.028386,0.122039,-0.065132,-0.007047,0.133597,-0.105720,0.059595,-0.000775,-0.050173,-0.083710,0.131462,-0.018328,-0.096649,-0.035748,-0.025002,-0.136646,-0.036949,-0.049721,-0.060743,-0.024172,0.046168,-0.000572,0.070784,-0.006676,-0.017861,0.156349,-0.159195,-0.070525,0.168880,0.018125,0.033860,0.112555,-0.039894,0.085267,-0.012904,-0.109414},
		{0.121049,-0.017968,0.069470,-0.062388,-0.013005,-0.024563,0.007407,0.020940,-0.023432,-0.127924,-0.036781,-0.062032,0.071638,-0.060029,0.021731,0.063515,-0.055834,0.031639,-0.035528,0.023511,0.029451,-0.153336,-0.067626,-0.131664,-0.017315,0.102627,0.036298,-0.017346,0.062151,0.049491,-0.016931,0.041377,-0.023343,-0.096341,-0.017204,-0.068137,0.111329,0.040821,-0.039904,-0.050441,0.003946,-0.025563,-0.032241,-0.110094,0.178155,0.119508,0.009296,0.015762,0.035021,0.082068,-0.021995,0.021069},
		{-0.004810,-0.038907,-0.006803,0.005148,-0.075495,-0.111644,0.035483,-0.064048,-0.025279,-0.098045,-0.042602,-0.169004,0.012961,-0.006429,-0.047689,-0.012075,0.038793,-0.001532,0.123536,0.126790,-0.035348,-0.141634,-0.034992,-0.081152,-0.041405,0.097072,-0.139649,0.054150,0.079605,0.027350,-0.005705,0.112856,0.009709,0.068667,0.079247,-0.021789,0.013365,-0.063001,-0.096756,-0.090530,0.099318,-0.150684,0.063692,-0.036210,0.010691,0.002446,0.058215,0.103081,-0.003356,0.139889,-0.009565,0.010609},
		{0.012417,0.025909,-0.124917,0.026366,-0.094264,0.028279,0.085248,-0.101916,-0.009370,-0.054684,-0.012872,-0.086996,-0.086542,0.136046,-0.035734,-0.121907,0.089493,-0.096864,0.152471,0.055970,-0.107771,0.128667,0.011617,0.027311,-0.082795,0.031135,-0.087489,0.125671,0.054733,-0.046670,-0.059493,0.238067,0.054169,-0.062897,0.044817,-0.092808,-0.033491,-0.010805,-0.123332,-0.000050,0.070561,-0.058579,0.165958,0.028075,-0.105676,-0.044470,0.025566,-0.038287,0.097034,0.000693,0.034636,0.188253},
		{0.004107,0.084327,-0.074453,0.124297,-0.000557,0.055219,-0.021556,-0.108146,-0.062608,-0.040783,0.079787,0.008034,-0.036194,-0.004510,0.003204,-0.060890,0.003197,0.075457,0.125029,-0.063034,-0.003542,0.191829,-0.019767,-0.058114,-0.000718,0.041502,0.004330,0.060721,0.012376,-0.138329,-0.077748,0.152247,-0.027008,-0.007558,0.074221,-0.045606,0.005541,-0.009723,0.061643,0.074324,0.029270,-0.003313,0.065121,0.066788,-0.166802,-0.153745,-0.025342,-0.072718,-0.136897,-0.077733,-0.026673,0.022569},
		{0.046565,0.020100,-0.064133,0.124370,0.051304,0.095828,0.017996,0.078831,0.037082,0.043164,0.099324,0.056963,0.064818,0.036530,0.103476,-0.019090,-0.029887,-0.016523,-0.047064,-0.015467,0.018780,0.180879,-0.032276,0.017566,0.041832,-0.057338,0.048593,0.050776,-0.029668,-0.108238,0.031092,-0.107458,-0.057101,-0.107716,-0.020476,0.065404,-0.036557,-0.010736,0.038843,0.110744,-0.057203,0.065725,-0.157957,0.059724,-0.180029,-0.090880,0.095752,-0.074269,-0.149329,0.023901,-0.050837,-0.061014},
		{0.023930,0.032502,-0.046174,-0.019810,-0.007670,0.122413,-0.057960,0.135120,0.079824,-0.012987,0.057907,0.029075,0.097438,0.053495,0.082970,0.089067,-0.087961,0.056955,-0.097365,-0.060901,-0.045695,0.121189,0.082731,-0.077341,-0.046451,-0.094676,0.130534,0.043136,0.018665,-0.041329,0.047071,-0.138307,0.003154,-0.112386,0.063526,0.038773,0.063099,0.096992,0.015928,0.021254,-0.065883,0.121274,-0.060099,-0.020055,-0.097372,0.024052,0.106894,-0.049645,-0.028934,-0.062559,-0.058014,0.029538},
		{0.149358,-0.141870,-0.048288,-0.058919,-0.044314,-0.005759,-0.073687,0.135967,0.017476,-0.064971,0.001313,-0.079804,-0.042723,0.065215,0.207976,0.145732,-0.042320,0.021870,-0.031874,-0.053301,-0.022319,-0.091250,0.058917,0.040127,0.004453,-0.039623,-0.058254,-0.019595,-0.019124,0.093121,-0.035851,-0.130053,-0.001540,0.041081,0.006366,0.016534,0.082945,0.067481,0.054254,-0.017971,0.096237,-0.027043,0.014956,0.030953,0.127917,0.096204,0.118701,0.006600,-0.006865,0.051097,0.030022,0.037725},
		{0.112681,-0.061326,0.047169,-0.090321,-0.022186,-0.124861,-0.048798,0.053441,-0.055852,0.019958,0.011696,-0.143587,-0.031377,0.021839,-0.015468,0.038923,0.044192,-0.094342,-0.000294,0.118295,0.064576,-0.183093,0.049372,0.031819,-0.058328,-0.011204,0.058188,-0.042308,0.011173,0.106893,0.045459,-0.058511,0.086624,0.021515,-0.031884,-0.006573,-0.000962,0.031674,-0.057532,-0.157166,0.053094,0.046986,-0.043504,-0.027186,0.145972,0.112710,0.002781,0.087578,0.154130,-0.006226,0.142827,0.009110},
		{0.079606,-0.096378,0.002594,-0.000890,0.056624,-0.179780,0.012084,-0.095043,0.028354,0.050612,0.001844,-0.059745,-0.126316,0.022255,-0.119435,-0.066563,0.032469,0.053861,0.051361,0.027442,-0.013657,-0.020799,0.075068,0.082668,-0.069696,-0.102138,-0.042658,0.006307,0.047892,0.033470,-0.102788,0.305557,-0.000607,0.084589,0.043150,-0.048104,0.026996,-0.081366,-0.022801,-0.032883,0.076495,0.027203,0.038490,-0.023598,0.147991,-0.018116,-0.075456,0.120548,0.046625,-0.001684,0.039373,0.038391},
		{-0.091115,0.012615,-0.058358,0.037504,0.077919,0.000942,0.003832,-0.156201,0.095347,0.053256,-0.008803,-0.047693,-0.093480,0.042075,-0.176486,0.047857,0.003797,0.047621,-0.103730,0.078430,0.067560,-0.045150,0.063458,0.148509,-0.079751,0.039031,0.095087,-0.132771,-0.036371,-0.000280,0.048414,0.254501,0.000611,0.161402,-0.031194,0.070286,-0.090866,-0.047853,-0.072969,0.020914,-0.018781,0.039997,-0.092971,0.010980,-0.049994,-0.053902,-0.096075,0.068757,-0.047758,-0.003200,0.027803,-0.145432},
		{-0.005035,0.074402,0.002298,0.089236,0.027132,0.052144,0.083456,-0.092455,-0.058055,-0.065071,0.015189,0.140114,0.098621,-0.083978,-0.108981,-0.072558,0.058122,0.049085,-0.048806,0.003792,-0.039406,0.213400,0.007268,0.028900,0.030664,0.042644,0.107377,0.063140,-0.005285,-0.061114,0.073418,-0.023023,-0.047288,0.051404,-0.083421,0.012955,-0.007964,-0.126371,0.042388,0.061665,-0.192426,-0.002035,-0.058260,-0.111213,-0.091140,-0.028516,-0.164466,0.004309,-0.058356,0.018068,-0.086136,-0.065093},
		{-0.083549,0.166915,0.041776,0.090883,0.076242,0.124108,0.114915,0.119600,-0.128819,-0.172599,-0.023124,0.075643,0.107335,-0.119397,0.036804,-0.027772,-0.082293,0.012395,0.114054,0.023133,-0.002763,0.111187,-0.047860,-0.106247,0.005655,0.163186,0.054440,0.040466,0.009907,-0.062608,0.142306,-0.109909,-0.072026,0.014543,0.005757,0.079445,-0.007403,-0.025158,0.030009,0.084493,-0.096257,-0.090890,-0.165768,-0.065606,-0.039227,-0.057175,-0.036888,-0.025607,0.073748,0.191166,-0.159005,0.026690},
		{0.037009,-0.023200,0.005635,0.017454,0.083943,0.023114,0.044643,0.096569,-0.103850,-0.157149,-0.097246,-0.047757,0.089838,-0.011539,0.215759,0.039601,-0.062408,-0.177753,0.080639,-0.005433,-0.089161,-0.024871,-0.059172,-0.054600,-0.023370,0.064914,-0.086473,0.164248,-0.014583,-0.089975,0.066041,-0.253950,0.103630,-0.014040,0.000379,-0.004328,0.126916,-0.054889,-0.057886,0.051181,-0.030533,-0.188088,-0.021400,-0.001202,-0.080898,-0.011945,0.187410,-0.012430,0.123978,0.087154,-0.097461,0.136994},
		{0.089404,-0.083563,-0.081359,-0.143183,-0.007587,-0.122467,0.030892,0.023566,-0.000155,0.053053,-0.002186,-0.035179,-0.005663,0.104353,0.065635,-0.067772,-0.073749,-0.217877,0.130408,-0.104571,-0.002890,0.014719,0.058692,-0.078649,-0.045717,-0.034355,-0.126051,0.084215,-0.002272,-0.023256,-0.046413,-0.145649,0.079041,-0.197058,0.112399,-0.057598,0.088955,0.076915,-0.028801,-0.047279,0.122317,-0.103534,0.306487,0.135066,0.022172,0.029204,0.061989,-0.060788,0.034533,0.001559,0.051757,0.058485},
		{0.074188,-0.147422,-0.119522,-0.043190,-0.068884,-0.079929,-0.052570,-0.200909,0.132698,0.146692,0.133538,-0.001476,-0.059615,0.125320,0.075325,0.034034,-0.041361,-0.151103,-0.078933,0.005895,0.015954,-0.058605,0.046178,0.176876,0.000301,-0.181412,-0.070642,-0.013011,-0.087683,0.063457,-0.269966,0.040136,-0.104991,-0.120905,0.075401,-0.172057,0.029068,0.055878,0.147490,-0.065894,0.123799,0.059986,0.230312,0.078792,0.065002,-0.021747,0.037384,-0.007226,-0.043126,-0.177529,0.029307,0.014414},
		{-0.099173,0.034587,0.054569,0.095740,0.065473,-0.238466,-0.050164,-0.033424,-0.027100,-0.037726,0.206836,-0.091411,0.019095,-0.026178,0.043251,-0.056547,0.055066,-0.088530,0.019493,0.043588,0.152719,0.182764,0.028235,0.097002,-0.096297,-0.091878,-0.046463,0.086980,-0.027638,0.005564,-0.122208,-0.011098,0.002826,-0.339379,-0.030650,-0.153169,0.094306,0.107761,-0.009942,-0.033615,0.043413,-0.081951,0.082180,0.140234,-0.155202,-0.039331,0.028061,0.020101,0.035588,0.048304,0.172216,-0.042983},
		{0.032812,-0.131963,0.040206,-0.014639,-0.059193,-0.254473,-0.153117,0.018249,0.069222,0.135896,0.216966,-0.015900,0.005378,0.130924,-0.082655,-0.084020,-0.010891,0.045567,-0.016748,0.029149,0.181796,0.153946,0.037356,-0.100150,-0.102832,0.022319,0.040807,0.075922,-0.091090,0.044320,0.079789,-0.009921,-0.177752,-0.204586,-0.036717,-0.051386,0.068343,0.146673,0.094430,0.068902,-0.005894,0.057424,0.064275,-0.022898,-0.126944,-0.072826,-0.098004,0.066068,-0.012591,-0.044237,0.219800,-0.216699},
		{0.100511,-0.202367,-0.024088,0.010428,-0.042941,-0.018992,-0.161469,0.064863,0.109793,0.118833,0.107329,0.090242,-0.009772,0.031604,0.006292,-0.018891,0.045749,0.030107,-0.078500,0.086680,0.121461,0.003129,-0.056311,-0.085450,-0.011802,0.184072,0.070216,-0.040047,-0.000455,-0.060174,0.084598,-0.055991,-0.205313,0.069708,-0.067683,0.000201,0.066965,0.059706,0.056409,0.050052,-0.094224,-0.043742,-0.130120,0.005882,-0.035050,-0.028078,-0.043653,-0.065863,-0.079535,-0.173865,0.037195,-0.007785},
		{0.046759,-0.107690,0.041356,0.135318,-0.027861,0.181596,0.020881,0.052133,0.036986,0.091262,-0.011943,-0.029233,0.010027,0.025539,0.039768,-0.027120,0.067644,0.011003,0.062148,0.058050,-0.127995,-0.172427,-0.127798,-0.013780,0.011446,0.066332,0.062469,-0.138388,0.155747,-0.047239,0.051506,-0.036728,-0.007575,0.176652,-0.091206,0.059903,-0.040483,-0.082483,-0.061077,-0.017538,-0.088972,-0.057634,-0.144610,-0.036473,0.141989,-0.074750,-0.022444,0.007698,-0.049560,-0.194329,-0.156384,-0.002803},
		{0.028286,0.000265,-0.021116,-0.029488,-0.053119,0.188504,0.098247,-0.042600,0.043594,0.064961,-0.241493,0.031211,-0.021017,0.007024,-0.013171,-0.049306,0.035262,-0.061735,0.121247,-0.085369,-0.156452,-0.226478,-0.071498,-0.013040,0.020338,0.022820,0.008506,0.056397,0.020244,-0.030195,-0.008743,-0.012545,0.072156,0.083081,-0.027721,0.067916,-0.018627,-0.066849,-0.070418,-0.004005,0.055552,-0.040742,-0.060809,0.046724,0.210452,-0.076081,0.067436,-0.019374,-0.037142,-0.018350,-0.068671,0.076416},
		{-0.106963,0.113643,0.023542,-0.056695,0.042378,0.098151,0.081133,-0.065958,-0.016785,-0.047645,-0.067766,0.011247,-0.059381,-0.024219,0.002989,-0.080165,-0.025959,-0.026411,0.081407,-0.114384,-0.082040,-0.116807,0.106409,0.117730,0.043152,-0.125259,-0.043799,-0.015430,-0.058348,0.074921,-0.130861,0.085479,0.205755,-0.023671,-0.017682,-0.050842,-0.101820,-0.031375,0.053868,-0.043156,0.119167,-0.109628,-0.050573,0.102607,0.132402,0.027184,0.130432,-0.099402,0.016444,0.028173,-0.086909,0.030496},
		{-0.102943,0.175972,0.083168,-0.092708,0.107840,-0.016874,-0.050328,-0.033176,-0.154865,-0.108560,0.058682,0.024660,-0.083616,-0.145885,-0.003249,-0.035314,-0.099816,0.004754,-0.124633,-0.130996,0.148895,0.097916,0.084370,0.014599,-0.098524,-0.152735,-0.059918,0.013149,-0.085466,0.128015,-0.048379,0.036253,0.056838,-0.094842,-0.081135,0.013193,-0.058390,-0.007603,0.147294,-0.070882,-0.015453,0.096580,0.009314,0.078180,-0.068132,0.083856,0.154095,-0.164778,-0.112654,0.010608,-0.000545,-0.027936},
		{-0.090541,0.073462,0.094009,-0.091533,0.053312,-0.161534,-0.060045,0.058670,-0.132189,-0.076259,-0.047293,0.012987,-0.057666,-0.086220,-0.024432,0.063579,-0.026501,-0.054966,-0.052907,0.090822,0.074649,0.114168,-0.004980,-0.114878,-0.099532,-0.010092,0.110502,0.046855,-0.053186,0.173456,0.042154,0.016803,-0.055581,-0.051451,-0.043101,0.150136,0.102100,0.068235,0.086522,-0.082582,-0.102371,0.050632,-0.174800,-0.056984,-0.160784,0.054403,0.024345,0.030121,0.037957,0.130385,0.124659,0.016066},
		{-0.004121,-0.046999,-0.045027,-0.030299,0.016022,-0.093996,0.013141,0.127147,-0.049664,-0.117338,0.015594,-0.117596,0.066237,-0.039874,0.052622,0.011015,0.098200,-0.034163,-0.136200,0.064208,0.083337,0.186340,-0.056410,-0.067664,-0.076709,0.039444,0.079811,-0.011858,-0.083901,-0.066562,0.095359,-0.012469,-0.079426,0.026013,-0.031071,0.040279,0.110941,0.003397,-0.136029,-0.062326,0.038188,0.080901,-0.034002,-0.016068,-0.182055,-0.020199,-0.023375,0.017111,0.017467,-0.007779,0.069868,-0.060800},
		{0.043419,-0.064884,-0.001128,-0.000563,-0.006721,-0.054942,0.079026,0.032640,0.091959,-0.091260,0.056005,-0.121207,0.048041,0.093007,0.123142,-0.024175,0.061990,0.028562,0.012656,0.126878,-0.104180,0.109376,-0.114929,-0.049165,0.057551,0.138161,-0.041082,0.066045,0.028898,-0.128206,0.048636,-0.060079,-0.118504,0.047423,0.003183,0.040885,0.088507,-0.113571,-0.079229,0.041256,-0.031284,-0.004723,0.000540,-0.092208,0.010334,-0.120423,-0.064824,0.086958,0.090397,0.066760,-0.026839,0.097023},
		{-0.011404,-0.013271,-0.090887,0.011892,-0.126544,-0.008663,0.123828,-0.029114,0.139163,0.062172,-0.016411,-0.118302,0.095191,-0.033968,0.017280,0.032953,0.070999,0.050434,0.064255,0.014640,-0.052143,-0.020357,-0.104739,0.029625,-0.008390,-0.011496,-0.112035,0.124978,-0.006547,-0.110157,-0.031553,-0.050031,0.074526,-0.063119,-0.008758,-0.039071,-0.059020,-0.146862,-0.175020,0.152600,0.037274,-0.034710,0.094093,-0.103808,0.084234,-0.048205,-0.083706,0.114323,0.064775,-0.069074,-0.068597,0.019722},
		{0.010427,0.013723,-0.033447,0.020573,-0.068580,0.168346,0.114996,0.006695,0.118619,0.105597,0.024759,0.101145,0.042118,-0.038025,0.067418,-0.049794,-0.037459,0.072393,0.022619,-0.053305,-0.060398,-0.089596,-0.064712,-0.019063,0.074564,-0.058618,-0.028617,0.098604,-0.082531,-0.102173,-0.041273,0.067201,0.042224,0.012199,-0.084574,-0.202214,-0.077295,-0.052326,0.109644,0.096049,-0.052134,0.049938,0.164365,0.072781,0.102625,-0.001035,-0.054431,-0.075102,-0.138021,-0.063767,-0.181445,-0.048083},
		{0.016551,0.047739,0.042948,0.018877,0.004340,0.118344,-0.033692,-0.021855,-0.050704,0.028199,0.104267,0.012535,0.045349,0.013803,-0.083969,-0.005192,-0.082517,-0.005622,-0.024055,-0.015461,0.031287,-0.132682,0.089974,-0.059868,-0.010829,-0.003809,0.006058,0.124608,-0.049941,-0.012586,0.019100,0.130142,0.045310,-0.043658,-0.022585,-0.079093,0.107840,0.016156,0.042349,-0.008696,-0.012505,-0.004951,0.027081,0.013817,0.067450,-0.035239,0.036073,-0.042441,-0.079438,-0.124850,-0.131653,0.027474},
		{-0.055573,0.058712,0.056761,0.018035,0.085300,-0.016470,-0.061035,0.057573,-0.058089,0.023192,0.003454,0.139820,-0.018168,-0.052083,-0.095119,-0.066751,-0.092788,-0.051093,-0.108038,-0.070903,0.020771,-0.018473,0.040868,-0.109236,0.030118,0.080966,0.102295,0.077196,0.010256,0.027697,0.071239,0.035950,-0.057781,0.001199,-0.002430,0.083465,-0.040738,0.062846,0.053505,-0.059149,-0.044431,0.072122,-0.223180,0.012587,-0.010316,-0.036488,0.075975,-0.093207,-0.022411,-0.030522,0.000644,-0.004837},
		{0.075169,-0.036944,-0.026421,0.004193,0.082371,-0.128790,0.015849,0.040244,-0.098367,-0.106490,0.021821,-0.042222,0.083696,0.032135,-0.098045,0.078216,0.014207,-0.085268,-0.015762,0.048452,-0.057416,-0.004322,-0.001118,0.028028,0.067975,0.085547,0.087605,-0.051340,0.022515,0.050561,0.129785,0.019871,0.074904,0.074562,0.108921,0.096809,-0.062914,0.078263,-0.079775,-0.057624,-0.002801,0.005069,-0.095689,0.017257,-0.078107,0.068603,0.075060,0.005195,0.070321,0.179242,0.065048,0.140154},
		{-0.020424,-0.086922,-0.124126,-0.026472,-0.067562,0.024816,0.078147,-0.042061,0.050776,-0.106966,-0.069408,-0.122377,-0.017768,0.139192,-0.032367,0.036922,0.013029,-0.064940,-0.034780,0.091501,-0.094276,0.074536,0.055924,0.092324,0.046721,-0.034099,0.073074,-0.146133,0.043807,-0.070788,-0.100575,0.081650,-0.026236,0.012111,-0.035563,0.111334,-0.023463,-0.074186,-0.097879,0.023363,0.058977,0.005871,-0.129283,-0.046277,-0.022492,-0.022887,-0.061346,0.014852,0.105606,0.170334,0.055254,0.103935},
		{0.015728,-0.001833,-0.027170,0.005079,-0.094495,-0.006523,0.140555,-0.006213,0.020695,-0.048237,-0.015282,-0.090302,-0.028986,0.054251,0.071583,-0.014426,0.011701,0.122353,-0.068342,0.055366,-0.117255,0.123900,0.120429,0.154898,0.041713,-0.053976,-0.023042,0.021970,0.067925,-0.099807,-0.102616,-0.092283,0.076651,0.055121,-0.052788,-0.068626,-0.089344,-0.139530,-0.086725,0.064732,0.100828,0.079846,0.035512,-0.016697,-0.142400,-0.037494,-0.046724,-0.007128,0.076772,0.100731,-0.015709,-0.015298},
		{-0.030555,0.014258,-0.006359,0.031045,-0.038602,-0.001745,0.058718,-0.070791,0.033247,0.030312,0.018905,-0.078393,-0.047705,0.073026,0.150799,-0.053006,0.021709,0.115205,0.018493,0.032718,0.088751,0.029425,0.088927,0.130261,-0.008243,-0.063830,-0.160847,-0.001397,-0.100018,0.000686,-0.012846,-0.134643,0.034445,-0.061158,0.025457,-0.148003,-0.072220,-0.143413,-0.004691,0.045911,0.117336,-0.000883,0.217779,-0.052213,-0.056228,0.054680,-0.106838,0.147032,-0.014852,-0.061419,-0.019373,-0.105834},
		{-0.035853,-0.014969,0.124644,0.064507,0.033172,0.085879,-0.049699,0.109244,-0.021637,0.158272,0.002309,-0.040911,0.003012,-0.006374,0.141185,-0.056383,0.009284,0.123489,0.024562,0.032194,0.120229,-0.059948,-0.017051,-0.073267,-0.055108,0.031051,-0.115287,0.083000,-0.044980,0.029294,0.037898,-0.107361,0.021651,-0.002419,-0.063369,-0.099723,-0.061349,0.004008,0.014439,-0.009710,-0.067528,-0.163484,0.091719,-0.142389,0.031288,0.032647,0.012295,0.026472,0.072068,-0.051048,-0.018197,-0.034908},
		{-0.052851,0.196306,0.125082,0.045080,0.080402,-0.094561,-0.081663,0.036560,-0.250329,0.227916,-0.028096,0.075032,0.040096,-0.089664,0.010013,0.016134,-0.073952,0.019004,0.033627,-0.023708,0.118993,-0.022034,-0.087062,-0.102835,-0.081613,0.125009,-0.063812,0.111197,-0.036038,0.002410,0.145971,-0.010148,0.018849,-0.114163,0.008496,0.012774,0.066361,0.017322,0.026112,-0.007141,0.039368,-0.107282,0.011088,-0.048447,0.117308,-0.030322,-0.005966,-0.011818,-0.051688,-0.210973,0.102743,0.031494},
		{-0.054763,0.001068,0.029910,0.091077,0.115245,-0.182957,-0.018448,-0.017188,-0.127602,0.018198,-0.023927,-0.019703,0.084073,-0.042027,-0.067895,-0.101001,-0.015932,-0.146535,0.062163,-0.044312,0.003727,-0.007096,-0.066814,-0.028920,0.030782,0.131308,0.069153,-0.037996,-0.019980,0.010151,0.128315,0.055499,-0.008460,-0.030736,0.010029,0.097241,0.140543,0.123978,0.033924,-0.060036,-0.008920,-0.105856,-0.096369,0.116036,0.049061,-0.090747,0.106471,-0.077010,0.109362,-0.044355,0.198646,0.135597},
		{-0.074022,-0.109712,-0.116322,0.091200,-0.012715,-0.066615,-0.066426,-0.101856,0.056267,-0.044961,0.044756,0.000386,0.078795,0.018824,-0.010453,0.003382,0.049332,-0.204208,0.106489,-0.004337,-0.006486,0.001176,0.042119,0.049051,0.002153,-0.058024,0.100758,-0.060082,0.140330,-0.073237,-0.067183,0.075948,0.006371,-0.053968,0.084137,0.110964,0.019793,-0.007025,-0.047079,0.019524,-0.070702,-0.057030,-0.125946,0.077977,0.032559,-0.062430,0.040542,-0.017945,0.048582,0.135448,0.049211,0.162887},
		{0.045050,-0.160882,-0.142731,0.045469,-0.123175,0.098731,-0.016579,-0.053602,0.087985,-0.215037,0.118748,-0.034179,0.064104,0.122932,-0.090226,0.050547,0.047318,0.065501,0.082827,-0.044141,-0.065514,0.034030,0.050222,0.136035,-0.045732,0.031546,0.000056,-0.020100,0.042966,-0.122439,-0.040961,0.085300,-0.099926,-0.092724,0.049913,0.037270,-0.015992,-0.058916,-0.048251,0.052444,-0.006331,0.107535,-0.033811,0.022248,0.025184,-0.168277,-0.038554,-0.075576,-0.047151,0.177777,-0.021058,0.062188},
		{0.002402,-0.107686,-0.106580,-0.024621,-0.107929,0.107832,-0.073694,-0.063866,0.157979,-0.132489,0.007313,0.074132,0.041279,0.017410,-0.011738,0.056345,-0.004538,0.115288,-0.143751,0.069941,-0.005921,0.134796,0.030778,0.001317,0.019301,-0.051638,-0.009462,-0.108039,0.071432,0.039073,-0.018020,0.028806,-0.067263,0.079896,0.045637,-0.017143,-0.047358,-0.046802,0.051704,0.035670,0.037678,0.173984,0.040255,0.026360,-0.053925,0.056701,0.062672,0.000002,-0.105830,0.116567,-0.044785,-0.082298},
		{0.075053,-0.077421,0.092817,-0.113806,-0.028368,0.121105,-0.054382,0.042843,-0.066994,0.013744,-0.062002,0.090023,-0.025389,0.010422,0.044008,0.082143,-0.040853,0.135129,-0.112832,0.034803,0.100261,0.095110,-0.011829,-0.015122,0.012689,0.017101,-0.014384,-0.058849,0.012195,0.163134,-0.014345,0.026381,-0.004029,0.065006,-0.153485,-0.071654,-0.049738,0.048544,0.036169,-0.085510,-0.009576,-0.025987,0.007437,-0.101116,-0.023506,0.084459,-0.072630,0.106680,-0.003174,-0.009119,-0.223008,-0.121980},
		{0.067891,0.094315,0.082486,-0.158165,-0.027827,-0.049710,0.043960,0.063621,-0.183176,0.114186,-0.172972,-0.044187,-0.056457,-0.064596,0.011113,0.000173,0.036113,0.088980,0.082653,0.062064,0.009221,0.115372,-0.096656,-0.047753,0.006870,0.108527,-0.031372,-0.015487,0.015372,0.145426,0.063421,-0.109494,0.047376,0.098815,-0.141813,-0.120283,0.041009,-0.032811,0.013109,-0.109094,-0.030531,0.028972,0.026547,-0.042881,-0.163297,0.104706,0.008032,-0.034886,0.023022,-0.164479,0.008684,0.017224},
		{-0.124118,0.133126,-0.030723,0.033959,0.109693,-0.153588,0.007182,-0.032668,-0.147400,0.003449,-0.109669,-0.136507,0.089845,-0.087003,0.003075,-0.027535,-0.017028,-0.088304,0.090999,0.080239,-0.000344,-0.129495,-0.009568,0.012238,-0.044493,-0.081230,0.020172,0.046099,0.123160,-0.083678,-0.042680,-0.046199,0.020349,-0.090334,0.061716,0.073783,0.036431,-0.124192,-0.166931,0.132837,-0.000573,-0.043160,-0.059669,0.006659,0.023927,-0.174479,-0.010429,-0.082138,0.085681,-0.042875,0.119018,0.072918},
		{-0.089419,0.094868,-0.036748,-0.012434,-0.084951,-0.092907,0.047805,-0.045820,0.014450,-0.105588,0.126058,-0.056121,0.065355,0.040053,0.011507,-0.091277,-0.053618,0.030819,0.001994,0.015361,0.000075,-0.127616,0.110753,0.056330,-0.051117,-0.137940,-0.004256,0.108135,0.005138,-0.204037,0.000465,0.088518,-0.031906,-0.088792,0.015105,-0.011182,0.115816,0.002825,-0.015027,0.132623,-0.023895,0.010754,-0.009745,0.108222,0.117562,-0.037921,0.015113,-0.009813,0.043115,-0.010324,0.162243,0.004173},
		{0.125914,-0.056891,-0.011723,-0.044758,-0.100620,0.116534,0.001703,-0.082260,0.141702,-0.108208,0.151994,0.078163,0.060724,0.046855,0.020606,-0.080018,-0.083461,0.147141,-0.079218,-0.028959,0.096462,-0.138187,0.038809,0.017665,-0.034100,-0.073577,0.064627,0.038339,-0.102116,-0.167061,-0.080503,0.020802,-0.089034,-0.123591,0.003501,-0.134517,0.067129,0.003177,0.143279,0.066918,-0.028268,0.051859,0.023185,-0.018182,0.166771,0.001128,0.074875,0.013404,-0.111424,0.178241,-0.018210,-0.099259},
		{0.096861,-0.040736,-0.068978,0.036436,-0.050608,0.062732,-0.036301,-0.036076,0.089375,-0.128482,0.050283,-0.009067,-0.023298,0.065131,-0.124263,-0.047875,-0.062228,0.065772,-0.081997,-0.024646,-0.002546,-0.002190,-0.064913,-0.059845,0.017848,0.028791,-0.113490,-0.057891,0.021674,-0.037343,0.041461,0.109544,-0.004538,-0.136684,0.016312,-0.115975,0.112860,-0.011511,0.079508,-0.052704,-0.008284,0.088189,0.090036,-0.010920,0.013655,0.066939,-0.033351,-0.028339,-0.036366,0.172481,-0.134515,0.013614},
		{0.117004,-0.092994,-0.040839,-0.105098,0.042079,0.090077,-0.044311,0.003877,0.033716,-0.058474,-0.031429,-0.021491,-0.051334,-0.038763,-0.058837,-0.061772,-0.063729,-0.025699,-0.069732,0.028832,0.016656,0.098362,-0.202549,-0.095540,-0.020743,0.155801,-0.076977,0.007798,0.043252,0.121335,0.119868,0.133375,0.027593,0.046991,-0.060915,-0.084063,0.091355,0.039284,0.056331,-0.133148,-0.037054,-0.134114,0.009314,-0.031549,-0.080209,0.062408,0.021011,-0.004799,-0.089469,0.040140,0.009395,0.013253},
		{0.057154,0.042476,-0.046483,-0.048643,-0.011335,0.041702,-0.002791,-0.040469,0.079700,0.184470,-0.113439,0.021808,-0.047657,-0.048640,0.054758,-0.045168,-0.002337,-0.086723,0.092030,-0.063783,-0.037176,0.104349,-0.004510,0.063514,0.042521,0.040536,-0.014495,-0.044804,0.080966,0.186412,0.067967,-0.055798,0.057009,0.082294,0.056738,-0.046682,0.018361,0.073515,0.079537,-0.072200,0.056353,-0.002102,-0.032745,0.021292,-0.182629,0.084851,-0.057548,-0.011720,-0.047257,-0.074577,-0.002255,0.084972},
		{-0.141454,0.030204,-0.026370,0.053702,0.065556,-0.029326,0.067456,0.028375,-0.057285,0.127253,-0.092658,-0.010714,-0.051662,-0.091008,0.152882,-0.019881,0.102133,-0.048046,0.025441,-0.070862,-0.125738,0.154130,0.062676,0.102807,-0.016308,-0.063580,0.021372,-0.020893,0.082851,-0.022071,-0.083812,-0.033922,0.090389,0.109268,0.069787,0.103849,-0.061435,-0.109566,-0.055682,0.003857,0.005788,0.031159,-0.111593,0.073225,-0.114861,0.009302,-0.064722,-0.072443,0.039524,-0.138007,0.127305,0.111716},
		{-0.033852,0.164257,-0.028019,0.041966,0.094467,-0.005449,0.048406,0.052077,0.001660,0.185626,-0.022918,0.085632,0.045241,-0.060758,0.129915,0.081175,0.027765,0.022808,-0.115764,-0.063686,-0.000284,-0.069383,0.149452,0.086535,-0.053020,-0.144151,0.109279,-0.034866,-0.068489,-0.086407,-0.111816,-0.124964,0.083983,-0.051014,-0.040444,0.044747,-0.089809,-0.038657,-0.010890,0.002248,-0.008848,0.077064,-0.070903,0.104307,-0.070657,-0.033982,-0.039556,-0.064281,-0.089682,-0.165491,-0.013682,-0.033065},
		{-0.034096,0.122318,-0.020376,-0.002145,0.046845,0.010326,-0.017725,0.075713,-0.093777,-0.002257,0.086971,0.066776,0.097317,-0.048122,0.025759,-0.001728,-0.017214,0.097640,-0.098073,0.027026,0.130722,-0.136771,0.130256,0.101615,-0.059699,-0.097577,0.079874,-0.003689,-0.079748,-0.124527,-0.030067,-0.095446,-0.020674,0.063137,-0.104967,0.094214,-0.104815,0.054943,-0.068934,-0.020644,-0.079451,0.063578,-0.077652,-0.084598,0.053060,-0.020946,0.013290,0.026789,0.034934,0.096973,0.037028,-0.053423},
		{0.049389,-0.044805,0.034236,-0.038765,0.041636,-0.012648,0.076990,0.049082,-0.039117,-0.077275,0.116112,0.012199,0.015875,-0.054294,0.080625,0.034632,-0.024236,0.052028,-0.087944,0.054396,0.123072,-0.219189,0.014370,-0.124824,-0.037908,-0.026073,-0.064922,0.015126,-0.096870,0.012956,-0.023514,0.042083,-0.081582,-0.074657,-0.048059,-0.040444,-0.010005,-0.031685,-0.116520,0.045430,-0.033877,0.036011,0.076592,-0.081930,0.187912,0.110579,-0.019971,0.049561,0.058933,0.064811,0.003025,-0.102781},
		{0.020493,0.037423,0.012465,-0.057309,0.027730,0.014321,0.046537,0.031426,0.001616,-0.059345,-0.069021,-0.130653,-0.021233,0.008332,-0.100068,0.040671,-0.051231,0.028235,0.046225,0.148131,0.014064,-0.058259,-0.089531,-0.047898,-0.030302,0.199643,-0.052786,0.049295,0.006533,0.075943,0.126639,0.059992,0.062348,0.034285,-0.103904,0.021460,0.037760,-0.039658,-0.049395,-0.005176,-0.015823,-0.049597,0.023809,-0.143412,0.156627,0.106167,0.047746,0.024699,0.095380,0.024329,0.009159,-0.012673},
		{0.004072,-0.035911,0.017180,-0.058378,0.047254,-0.095632,-0.012930,-0.178280,0.040053,0.003327,-0.062682,0.029027,0.015700,0.111685,-0.154127,0.008230,0.164620,-0.122940,0.118904,0.014346,-0.094863,-0.014439,-0.152806,-0.071588,0.010733,0.043559,-0.084247,-0.000262,0.034019,0.101894,-0.073517,0.144850,0.012532,-0.063407,0.034963,-0.090347,0.029600,0.058329,0.005528,0.042001,0.004474,-0.033514,0.085006,0.041857,-0.040103,-0.065893,-0.014776,-0.014666,0.030257,0.012834,0.062435,0.113092},
		{-0.018083,0.031378,-0.091012,0.066053,-0.080776,0.027123,0.016591,-0.047608,0.025008,-0.001556,-0.016461,-0.020994,-0.045842,0.031426,-0.062432,-0.082351,-0.008665,0.027010,0.127360,-0.049024,-0.070058,0.170697,-0.072084,0.118721,-0.048782,0.036799,-0.076636,0.138547,0.012858,0.032076,0.009333,0.147969,0.086125,-0.005531,-0.004646,-0.123653,-0.025946,-0.027838,0.091281,0.050912,0.073638,-0.022545,0.161210,0.046194,-0.144033,-0.135722,0.064808,-0.055258,-0.125591,-0.044315,-0.060915,-0.001064},
		{0.028388,0.032373,0.017233,0.086720,-0.092836,0.127090,-0.075883,0.047583,0.001135,0.106660,0.062490,0.108502,0.051925,0.024426,0.033218,-0.077536,-0.096252,-0.008985,-0.017586,-0.152897,-0.033416,0.158714,0.084356,0.038534,0.047453,-0.027983,-0.035219,0.133002,0.036305,-0.041509,0.022171,-0.058439,0.006002,-0.024953,0.056633,-0.020180,-0.118818,-0.008459,0.144650,-0.023948,-0.011538,0.079215,0.032857,0.048475,-0.175357,-0.091934,-0.012056,-0.065187,-0.079745,-0.109009,-0.063137,-0.034682},
		{-0.022542,0.070648,-0.059061,0.016690,-0.044565,0.144679,0.019953,0.067887,0.039204,0.105003,0.000343,0.122634,0.012313,0.078800,0.177251,0.032916,-0.030458,-0.043658,-0.138282,0.019261,0.065805,0.095738,0.067073,-0.014823,-0.003419,-0.103229,0.087511,-0.031668,0.059178,-0.038778,-0.078786,-0.107897,-0.106090,0.026458,0.073987,0.064337,-0.053545,0.039791,0.077164,0.115119,-0.084222,0.075354,-0.070738,0.013129,-0.047308,0.001478,0.093398,-0.092106,-0.032950,-0.054598,-0.128332,0.043257},
		{0.044442,-0.069491,-0.021444,-0.034850,-0.028809,0.026615,-0.024232,0.157140,0.033636,-0.024960,-0.011885,0.055014,0.073025,0.002034,0.122730,0.063793,-0.088295,-0.088721,-0.061465,0.001667,-0.003404,-0.118728,0.008996,0.051969,-0.050464,0.016689,0.120700,-0.084091,-0.030964,-0.056783,-0.014597,-0.188256,-0.035420,-0.002565,0.073001,-0.010412,0.010521,-0.014223,-0.046942,0.009701,-0.055946,0.089587,-0.100493,-0.149675,0.163428,0.043648,0.069995,0.089724,0.020533,-0.097623,-0.151260,-0.008850},
		{0.028813,-0.015818,-0.012927,-0.162740,-0.042240,-0.029503,-0.086636,0.052336,0.076099,0.027636,-0.093754,-0.053756,-0.048359,0.024012,0.033558,0.077140,0.035563,-0.020116,-0.127803,0.127898,0.033102,-0.146580,-0.094956,-0.030274,-0.061872,-0.003152,0.001771,0.010235,-0.009714,0.209352,-0.047138,-0.108050,0.057356,0.028615,0.038094,-0.002468,-0.013569,0.111838,0.000664,-0.163519,0.068488,0.061909,-0.042622,-0.125961,0.209741,0.070056,0.018341,0.017462,0.176706,0.014304,0.026890,-0.055036},
		{0.051142,-0.030546,0.019135,-0.097224,0.020423,-0.126406,0.077015,-0.106892,0.034897,0.069543,-0.119766,-0.060080,-0.135709,0.079183,-0.130459,0.007629,-0.015697,0.063842,0.017853,0.048799,-0.012251,-0.064506,-0.040725,0.024272,-0.046755,-0.022462,-0.029744,-0.126678,-0.023981,0.136601,-0.093766,0.089895,0.042934,0.069616,0.072826,-0.023913,-0.061542,0.038193,-0.052578,-0.067204,0.046982,-0.005530,0.046767,-0.053574,0.119118,0.068227,-0.095666,0.043246,0.031282,-0.045909,0.089929,0.069929},
		{-0.022796,0.063348,0.039142,0.058106,-0.015018,-0.042640,0.041438,-0.206835,0.038927,-0.025900,-0.016789,-0.046851,-0.070172,-0.054281,-0.133407,-0.059398,0.124831,0.053501,0.030884,-0.034137,-0.001315,0.056031,-0.120418,-0.023735,0.013093,0.013293,-0.007595,-0.076889,0.042218,-0.001384,-0.007054,0.174968,0.064494,0.121316,-0.005224,-0.003514,0.026336,-0.077539,-0.122562,-0.070167,-0.002528,-0.036331,0.100864,-0.065216,0.017346,-0.100849,-0.082032,0.080418,0.016849,-0.062760,0.097325,-0.033217},
		{-0.139492,0.021865,-0.041856,0.064086,0.027039,0.074584,0.063020,-0.128365,0.010079,0.015725,0.038089,0.040174,0.059004,-0.061467,-0.105489,-0.024551,0.003978,0.146776,0.020508,-0.056448,-0.020142,0.208499,-0.028053,0.027289,0.052829,-0.004931,-0.016156,0.046318,-0.081436,-0.052010,0.095036,0.150723,-0.056295,-0.044828,-0.065435,-0.065499,-0.067874,-0.023582,0.045319,0.092747,-0.054263,-0.061563,0.041788,0.026778,-0.136381,-0.064855,-0.069329,0.061344,-0.062260,0.001020,-0.021789,-0.102779},
		{-0.018910,0.240627,0.108068,0.096835,0.054007,0.190691,0.094393,0.017857,-0.076797,-0.136284,0.044514,0.020885,0.113828,-0.137352,-0.009516,-0.015715,-0.003678,0.109724,-0.015197,-0.098498,-0.062375,0.047586,-0.082611,-0.017113,-0.011641,0.028907,0.120662,-0.021410,0.026728,-0.141740,0.083712,-0.024362,-0.037169,0.050109,-0.054495,0.039355,0.026524,-0.053064,0.041263,0.011845,-0.146955,-0.079396,-0.051546,0.046238,-0.120524,0.016267,0.001851,-0.050620,-0.042378,0.219952,-0.046761,0.104138},
		{0.007062,-0.013344,0.080536,0.128203,0.000967,0.142399,-0.100904,0.189704,-0.093719,-0.111380,0.022271,0.015423,0.177583,0.007913,0.140690,-0.051829,-0.072416,-0.037783,0.048153,-0.124239,-0.005039,0.095807,-0.016616,-0.124618,0.076933,-0.031587,0.009853,0.109012,0.011344,-0.059822,0.035717,-0.272873,-0.008395,-0.053139,0.081215,-0.034362,0.046873,0.050691,0.030099,-0.021934,-0.131105,-0.082596,-0.010643,-0.076185,-0.037057,0.005408,0.120546,0.009284,-0.028440,0.121409,-0.121928,0.106292},
		{0.056630,-0.139904,-0.039098,-0.111762,-0.081033,-0.045257,-0.050687,0.155924,0.073671,-0.085142,-0.043926,-0.069951,0.060247,0.041830,0.191931,-0.036177,-0.040608,-0.209575,0.071043,-0.008845,-0.085556,-0.036730,0.028613,-0.043185,0.044181,0.020313,-0.028849,0.035877,0.061445,-0.080062,-0.070865,-0.236377,0.061252,-0.174906,0.107451,-0.050104,0.039362,0.033906,-0.001668,-0.029744,0.116006,-0.181887,0.134044,0.073608,0.078633,0.020772,0.080100,-0.062094,-0.027377,0.011479,0.018384,0.031187},
		{0.083852,-0.086835,-0.123472,-0.058238,-0.043641,-0.008717,-0.070041,-0.050506,0.091668,0.064627,0.048747,0.008367,0.009356,0.109735,0.054790,0.072701,-0.064873,-0.153240,0.139555,-0.061397,-0.121859,-0.087138,0.039186,0.057810,-0.011618,-0.037295,-0.109471,0.011351,-0.013087,-0.038621,-0.126090,-0.020853,0.012537,-0.023513,-0.005515,-0.092124,0.044022,0.104805,0.074863,0.049508,0.117650,0.005981,0.102067,0.033025,0.104543,0.016466,0.035732,-0.082918,0.049320,-0.054827,0.141582,0.103123},
		{0.090169,-0.068564,-0.072415,0.026206,-0.088833,-0.088250,-0.114018,-0.195875,0.122632,0.151772,0.016740,-0.032001,-0.122446,0.178911,-0.081409,0.041919,0.010240,-0.006463,-0.087458,-0.013055,0.032501,-0.043889,0.135873,0.048752,-0.009841,-0.101870,-0.005450,-0.015387,-0.000078,0.080068,-0.077318,0.192866,-0.055466,0.053968,0.096526,-0.015423,-0.067291,0.044357,0.048238,0.076783,0.106121,0.097182,0.011404,0.086823,0.063930,0.071762,-0.040772,-0.013005,-0.038960,-0.170621,0.186684,-0.022533},
		{-0.049402,0.057298,-0.028331,0.072880,0.000659,0.001607,0.084533,-0.133981,-0.001452,0.110793,0.034833,0.066585,-0.116260,-0.005349,-0.251689,0.087802,0.074939,0.148915,-0.110708,0.066029,0.091038,-0.025206,-0.022739,0.054284,-0.083342,-0.089025,0.110023,-0.093861,-0.033900,0.011833,0.056664,0.184591,-0.054295,0.144763,-0.071514,0.190316,-0.146889,0.044374,0.038634,0.053744,-0.053171,0.102643,-0.215672,-0.071504,0.003615,0.003323,-0.181709,-0.018437,-0.168587,-0.201256,0.035808,-0.230488}};

// Bias from Layer-2 to Layer-3
const float Layer2_bias[LAYER_3_COUNT] = {0.024132,0.025680,0.010154,-0.007259,-0.014610,-0.019349,-0.010762,-0.001198,0.007962,0.018028,0.010458,0.011128,-0.001985,-0.008813,-0.013869,-0.011150,0.002447,0.005959,0.010620,0.000005,0.000072,0.000038,0.001008,0.008123,-0.006214,-0.004456,-0.013855,0.002123,0.017670,0.019225,0.010027,-0.010023,-0.023078,-0.023636,-0.013055,0.007241,0.022729,0.029756,0.018632,-0.004334,-0.012500,-0.022423,-0.016276,-0.008261,0.007195,0.016398,0.017257,0.023580,0.004769,-0.007835,-0.025097,-0.028833,0.009056,-0.014295,-0.024231,-0.021429,-0.009303,0.000072,0.014120,0.015487,0.015441,0.011496,-0.006883,-0.013013,-0.011715,-0.007317,-0.001380,0.010639,0.015016,0.007892,0.004145,-0.004010,-0.004810,-0.001033,0.001212,-0.000567,-0.007543,-0.006315,0.014812,0.020252,0.009655,-0.010552,-0.020725,-0.024386,-0.016199,0.002753,0.025745,0.022051,0.015483,-0.006619,-0.021448,-0.025217,-0.017134,-0.002864,0.010281,0.016605,0.017527,0.009209,0.005712,-0.011195,-0.021358,-0.022625,-0.012151,0.004462};

// Layer 2 weights
// Thus, for layer_3 neuron_1, the weights are from column 1 only. Similarly for Layer_3 neuron_104, the weights are from last column.
const float Layer2_weight[LAYER_2_COUNT][LAYER_3_COUNT] = {{-0.157104,-0.085586,-0.045547,0.057616,0.115974,0.054874,0.074360,-0.068231,-0.057835,-0.022662,0.020431,0.033213,-0.005718,-0.025695,0.004419,0.056504,0.031401,0.021217,0.012629,-0.009955,-0.046057,-0.036478,-0.009788,0.002194,0.044821,0.036859,0.001119,-0.065725,-0.103502,-0.005501,0.048088,0.058786,0.083726,-0.011847,-0.046498,-0.077194,0.019128,0.047297,0.033076,-0.071363,-0.093905,-0.057087,0.096162,0.113640,0.058974,-0.024662,-0.073109,-0.122519,-0.045390,0.001259,0.069898,0.068653,-0.066585,0.064829,0.142009,0.088969,0.021611,-0.103981,-0.123444,-0.079521,-0.005418,0.080654,0.037980,0.012661,0.016950,-0.020725,-0.025850,0.031408,-0.017419,-0.005383,-0.012263,0.005567,-0.005309,-0.004620,0.027801,0.083331,0.055159,-0.055879,-0.100324,-0.025582,0.044789,0.078519,0.057393,0.033842,-0.075498,-0.076939,0.011444,0.027056,0.014420,-0.018231,-0.035608,-0.065915,0.071945,0.073148,0.056448,0.005684,-0.125537,-0.138655,-0.091216,0.003251,0.082267,0.109320,0.025966,-0.019836},
		{0.203126,0.138337,0.019881,-0.103999,-0.154922,-0.098847,-0.035007,0.100549,0.097921,0.030693,-0.044711,-0.040471,0.007593,0.036471,0.072941,-0.015652,-0.099581,-0.056847,-0.009031,0.045461,0.064601,0.098135,0.006557,-0.026952,-0.060304,-0.059966,0.037005,0.089999,0.098926,0.052893,-0.028488,-0.083138,-0.101478,-0.024210,0.022551,0.074558,0.028925,-0.019702,-0.025964,0.031827,0.050082,0.030901,-0.063508,-0.106776,-0.079528,-0.005193,0.094249,0.116318,0.128523,0.027915,-0.092556,-0.147693,0.049545,-0.101632,-0.170474,-0.126925,-0.023253,0.102124,0.141044,0.072948,-0.020071,-0.096932,-0.050021,-0.017431,0.010155,-0.007241,-0.013505,-0.077361,-0.006443,0.033594,0.048186,0.062539,0.001340,-0.071934,-0.086923,-0.097060,-0.050541,0.067875,0.106242,0.035366,-0.033336,-0.053055,-0.085520,-0.061788,0.045824,0.087854,0.027081,0.031890,0.014108,0.000155,0.008588,0.047777,-0.034063,-0.039541,-0.077210,-0.025870,0.052651,0.137767,0.101288,0.038367,-0.086603,-0.159352,-0.119315,-0.012806},
		{0.032847,0.071959,0.043400,0.024194,-0.048522,-0.065388,0.000499,0.016305,0.029015,-0.004498,0.013154,-0.016238,0.004379,0.060350,0.000941,0.017742,-0.044625,-0.125881,-0.074979,0.038649,0.160383,0.049133,0.044753,-0.098680,-0.132086,-0.091927,0.060679,0.062885,0.022503,0.008555,0.045153,0.028907,-0.063736,-0.042560,-0.055470,-0.064203,0.055749,0.077600,0.085421,0.005543,-0.047349,-0.058459,0.001775,-0.018166,-0.065134,-0.052832,0.052301,0.083021,0.077116,-0.002009,-0.036329,-0.114442,0.059459,0.015419,-0.012021,-0.048636,-0.038457,-0.025465,0.039184,0.005002,0.012412,0.014933,-0.032645,0.032030,0.060129,0.010240,-0.077813,-0.071388,-0.076641,0.048778,0.099606,0.128745,0.061864,-0.086352,-0.154092,-0.068888,0.041242,0.011170,0.021598,-0.003930,-0.005083,-0.028976,-0.049207,-0.034109,-0.065671,0.030884,0.068638,0.036457,-0.007832,0.018940,-0.043185,-0.092444,-0.021153,-0.022576,-0.004229,0.037038,0.048979,0.037064,0.045162,-0.034719,-0.063569,-0.044414,-0.096378,-0.075633},
		{-0.065056,-0.055339,-0.052208,0.051003,0.085209,0.065856,0.043081,-0.030003,-0.060484,-0.055135,-0.049919,0.029905,0.021271,0.062692,0.044700,0.035748,0.034167,0.004279,-0.077858,-0.101778,-0.057185,0.035918,0.150331,0.153667,0.001844,-0.059606,-0.138034,-0.005186,0.113761,0.109208,0.034376,-0.027313,-0.091772,-0.048239,0.037693,0.008154,-0.014625,0.029027,0.020468,0.040749,0.028940,0.022462,-0.000336,-0.047124,-0.067099,-0.010124,0.077022,0.094823,0.012154,-0.048472,-0.101747,-0.069475,-0.044253,-0.011681,0.050049,0.076201,0.057554,-0.043414,-0.085794,-0.098388,-0.052958,0.033599,0.054178,0.003198,0.054742,0.009782,-0.033610,-0.022550,-0.054075,-0.107681,-0.038151,0.025996,0.112768,0.097096,0.032424,-0.039131,-0.140701,-0.136333,0.133945,0.119209,0.027399,-0.053507,-0.105495,-0.087013,-0.001031,0.003096,0.058357,0.045133,0.005486,-0.013098,0.006246,0.027243,-0.000177,-0.086790,-0.052150,-0.005874,0.062451,0.063474,0.027036,-0.016206,-0.095898,-0.087456,0.010567,0.064595},
		{0.038688,0.043473,0.077724,-0.043683,-0.103724,-0.088882,-0.041357,0.010838,0.102647,0.065020,0.032406,-0.070860,-0.087812,-0.059450,0.007544,0.027454,0.030634,-0.032718,-0.045558,-0.033770,0.045465,0.087907,0.068047,-0.031703,-0.088170,-0.116588,0.062817,0.076429,0.085123,0.008151,-0.060930,-0.061210,-0.003848,-0.019695,-0.016093,0.013756,-0.002324,0.064895,0.018538,0.000482,0.018037,-0.023412,-0.032708,-0.043542,0.037567,0.071020,0.001860,0.068711,0.006021,-0.003371,-0.097026,-0.097014,0.053651,-0.051546,-0.058459,-0.091078,-0.052590,0.051626,0.082318,0.107423,0.067249,-0.045905,-0.134261,-0.067216,-0.004977,0.087060,0.076825,0.041220,-0.077529,-0.023635,0.035042,0.051293,0.034587,0.028276,-0.045692,-0.117412,-0.040929,0.046131,0.072005,0.048807,-0.102410,-0.127951,-0.046488,-0.013878,-0.018691,0.004890,0.029197,0.043705,0.011272,-0.036683,-0.016629,-0.034522,0.013421,-0.017473,0.071307,0.004912,0.097135,0.042427,0.031647,0.010965,-0.064274,-0.093561,-0.018578,0.038435},
		{0.078400,-0.084242,-0.147236,-0.163786,-0.044887,0.124767,0.141551,0.115335,-0.017554,-0.110696,-0.097162,-0.017201,0.071080,0.078700,0.060801,-0.032183,-0.055785,0.017545,0.098212,0.100325,-0.017397,-0.135023,-0.165163,-0.015736,0.111545,0.152667,-0.020618,-0.131458,-0.148834,-0.062894,0.058209,0.111259,0.059139,0.018636,-0.002456,-0.001787,-0.029947,-0.026529,-0.041943,-0.019189,0.061505,0.109683,0.076149,-0.023864,-0.060546,-0.084241,-0.019095,0.084484,0.124931,0.022461,-0.065083,-0.137315,-0.167270,-0.168015,-0.032675,0.088902,0.179537,0.129515,0.012761,-0.112237,-0.123625,-0.090334,0.023164,0.086042,0.065539,-0.001817,-0.060893,-0.029131,0.052823,0.061691,0.015663,-0.071105,-0.125019,-0.070865,0.045817,0.156226,0.135440,-0.009702,-0.166788,-0.053875,0.032640,0.108190,0.110586,0.015225,-0.032120,-0.044937,-0.071964,-0.003417,-0.035076,-0.000138,0.027053,0.085476,0.077781,0.000941,-0.087334,-0.098670,-0.031508,0.076283,0.120295,0.078772,-0.012968,-0.127255,-0.101332,0.011603},
		{0.131606,-0.006492,-0.061596,-0.041555,-0.032496,0.061096,0.045968,-0.061378,-0.072345,-0.057288,0.089046,0.086382,0.055001,-0.024090,-0.145660,-0.092283,-0.024338,0.064205,0.016468,0.027139,0.007525,-0.037408,0.022182,-0.018414,0.018450,-0.122704,0.017319,0.060744,0.102148,0.093213,0.034775,-0.037308,-0.015682,-0.068478,0.005064,-0.010007,-0.011010,0.000708,0.046613,0.075599,-0.020074,-0.014055,-0.058239,-0.049854,-0.052756,0.000591,0.094190,0.094919,0.082939,0.027830,-0.039664,-0.108460,-0.070120,-0.039300,-0.107694,0.041502,0.073705,0.009417,-0.067108,-0.038855,-0.042475,0.080498,0.121286,0.028668,-0.064838,-0.115159,-0.075220,0.043100,0.077780,0.036054,-0.000870,-0.031993,0.004378,0.020037,-0.008913,-0.062343,-0.002666,-0.060856,0.043442,0.074574,0.063729,-0.049501,-0.118436,-0.062814,0.011633,0.040604,0.058037,0.066991,0.030580,0.000604,-0.017607,-0.044928,-0.010670,-0.088322,-0.013321,0.048773,0.084280,0.120198,-0.006122,-0.053591,-0.074728,-0.130361,-0.089165,-0.031027},
		{-0.043116,-0.075130,-0.039046,0.056758,0.080476,0.029517,-0.032423,-0.078272,-0.059533,0.004436,0.039836,0.045821,0.022478,-0.015207,-0.031789,-0.047954,-0.039137,-0.006973,0.022915,0.076167,0.089864,0.033634,-0.057228,-0.131562,-0.070741,0.017644,0.107871,0.041245,-0.007755,-0.056951,-0.087353,-0.058154,-0.014252,0.013040,0.043569,0.068023,0.074816,0.025094,-0.092924,-0.151251,-0.083814,0.036196,0.143121,0.154856,0.034253,-0.114217,-0.151518,-0.057228,0.101591,0.150323,0.055039,-0.072417,-0.081213,-0.003622,0.059357,0.058201,-0.015178,-0.060481,-0.067291,0.000755,0.048738,0.067745,0.023183,-0.033620,-0.053129,-0.042556,-0.017207,0.005915,0.022078,0.063706,0.074764,0.013524,-0.042703,-0.093499,-0.092552,-0.019466,0.069053,0.130740,-0.011743,-0.102349,-0.088239,-0.046293,0.018377,0.042451,0.036381,0.052348,0.058611,0.003951,-0.052610,-0.119544,-0.097659,0.019805,0.119913,0.156933,0.074081,-0.084645,-0.165731,-0.102976,0.036582,0.142669,0.124720,-0.023556,-0.117630,-0.125010},
		{-0.084676,-0.069485,-0.060851,0.081300,0.129613,0.107341,-0.013886,-0.071322,-0.141130,-0.066077,0.020770,0.094422,0.075570,0.004279,-0.080359,-0.064693,0.034720,0.106239,0.054052,0.038448,-0.078729,-0.127997,-0.063147,0.044665,0.114251,0.108941,-0.094083,-0.085136,-0.056512,-0.004106,0.039664,0.078412,0.031756,0.025454,0.049641,-0.000674,-0.042746,-0.084196,-0.045629,0.008656,0.011396,0.073838,0.018599,0.035082,-0.024605,-0.046697,-0.024606,-0.059397,-0.036764,-0.050223,0.092678,0.148975,-0.059339,0.082584,0.083479,0.087543,0.046135,-0.063866,-0.120708,-0.092769,-0.015982,0.048159,0.156081,0.046664,-0.050241,-0.066502,-0.014760,0.014652,0.103166,-0.011908,-0.068180,-0.120960,-0.040196,0.067958,0.113009,0.142407,0.025772,-0.071515,-0.077702,-0.057511,0.090801,0.099270,0.065331,0.000664,0.050695,-0.009365,-0.054897,-0.074274,-0.016458,0.027983,0.021130,0.044373,-0.033400,-0.006315,-0.042727,0.000688,-0.035660,-0.046913,-0.029491,-0.018230,0.051823,0.099955,0.073233,0.037338},
		{-0.200492,-0.158965,-0.018633,0.083807,0.128128,0.121313,0.046385,-0.022707,-0.086855,-0.112152,-0.093498,0.001163,0.086553,0.153401,0.117743,-0.007503,-0.128133,-0.140429,-0.068228,0.042010,0.132164,0.118951,0.011867,-0.090392,-0.141455,-0.105497,0.136360,0.146888,0.043104,-0.075503,-0.147986,-0.114717,-0.018876,0.106437,0.160960,0.094402,-0.026243,-0.112599,-0.092906,-0.050003,0.011745,0.055005,0.043848,0.026901,0.051181,0.052668,0.016054,-0.087595,-0.158644,-0.147699,0.018009,0.178495,-0.018626,0.117750,0.189187,0.121452,0.042705,-0.055709,-0.110101,-0.115407,-0.077759,-0.002652,0.096820,0.138774,0.108636,0.013473,-0.093030,-0.160468,-0.096943,0.014479,0.115735,0.144224,0.060132,-0.063432,-0.145134,-0.107075,-0.000939,0.108289,0.059887,-0.044273,-0.140127,-0.131571,-0.026146,0.092175,0.163028,0.122905,-0.023095,-0.108548,-0.141541,-0.056603,0.033639,0.075803,0.073207,0.038883,0.001495,0.008962,0.000654,-0.048023,-0.115521,-0.099941,-0.006389,0.119386,0.208598,0.176931},
		{-0.151379,0.007830,0.152241,0.174542,0.059527,-0.022604,-0.060040,-0.079182,-0.013456,-0.032105,0.007780,-0.015854,0.032371,0.026729,0.049432,0.032192,-0.023723,-0.060020,-0.064348,-0.013261,-0.020369,0.006975,0.028768,0.049416,0.147262,0.001437,-0.102230,-0.082353,-0.005506,0.129416,0.127078,0.047347,-0.050243,-0.096270,-0.073061,0.001575,0.034792,-0.005606,-0.071710,-0.016668,0.052214,0.091188,0.004286,-0.007811,-0.032882,-0.047348,-0.024803,-0.013649,0.042107,0.002310,0.017377,0.069946,0.113976,0.198734,0.125691,-0.062066,-0.133556,-0.120876,-0.049999,0.038194,0.030095,0.005251,0.011951,0.004984,0.007664,0.032009,-0.029443,-0.066712,-0.060086,-0.031539,-0.003428,0.009291,-0.002443,0.066674,0.067739,-0.007003,-0.038943,-0.139141,-0.010180,0.108748,0.169432,0.071519,-0.025657,-0.106690,-0.088902,0.005361,0.029900,0.042773,-0.037433,0.001625,0.000916,0.057512,0.060221,0.001952,-0.045256,-0.079009,-0.024321,0.075740,0.023305,0.011337,0.036688,0.009824,0.067432,-0.004841},
		{-0.061078,-0.058687,-0.031006,0.008137,0.012255,-0.000699,0.094279,0.045834,0.032643,-0.053649,-0.109365,-0.148649,-0.065317,0.040627,0.058718,0.085885,0.014828,-0.065820,-0.107968,-0.070074,0.020070,0.007961,0.052449,-0.014988,0.060953,0.041147,-0.004028,-0.059716,-0.041920,-0.022243,-0.011819,0.020968,0.075580,-0.005854,0.013530,0.017426,-0.024867,-0.060333,-0.096999,-0.022185,0.006422,0.076596,0.046561,-0.001135,-0.078750,-0.056796,-0.027693,0.057788,0.016180,-0.026341,-0.059523,0.001281,-0.065650,0.009189,0.030267,0.047938,0.037164,0.060290,0.011992,0.000830,-0.111536,-0.112174,-0.009138,0.058490,0.110892,0.111913,0.015211,-0.052159,-0.111512,-0.070707,0.037010,0.001873,0.024573,0.077724,0.048595,0.009840,0.009057,0.000799,-0.078733,-0.056886,0.060970,0.058503,0.025743,0.056518,-0.003203,-0.027926,0.047359,-0.047064,-0.023987,-0.069433,0.052918,0.073283,0.043843,0.009626,-0.039573,-0.106455,-0.043475,0.050075,0.042706,0.000677,-0.047124,-0.052612,0.017930,0.104287},
		{-0.048358,-0.022167,0.018525,0.036455,0.055007,0.016358,-0.022620,-0.064231,-0.082584,-0.034659,0.004475,0.044216,0.046846,0.054654,0.006520,-0.028254,-0.044865,-0.028216,-0.017139,-0.015078,0.028034,0.021852,0.050185,0.024483,-0.001291,-0.044835,-0.070962,0.005425,0.067055,0.120121,0.057860,-0.053956,-0.101535,-0.079692,-0.039504,0.068257,0.067213,0.031295,-0.025769,-0.073050,-0.027752,0.035581,0.097741,0.012885,-0.086096,-0.108847,-0.079300,0.011665,0.093599,0.104982,0.060716,-0.046182,0.029576,0.034574,0.084634,-0.005470,-0.027582,-0.064580,-0.061596,-0.051801,0.013520,0.046202,0.070727,0.080669,0.002726,-0.008876,-0.023517,-0.070616,-0.021933,0.019485,0.012566,0.010291,0.028004,0.027172,0.017723,-0.035761,-0.081736,-0.065554,0.054896,0.120593,0.073870,0.002656,-0.112709,-0.085242,-0.034564,0.075792,0.100615,0.053279,-0.036880,-0.072103,-0.023418,-0.020828,0.052773,0.061525,-0.030884,-0.073371,-0.068282,-0.024704,0.092330,0.130647,0.055409,-0.045510,-0.112352,-0.084186},
		{-0.075081,-0.118329,0.000736,0.018939,0.074814,0.081401,0.043009,0.011788,-0.009253,-0.020379,-0.040809,-0.029708,-0.016989,0.008443,-0.022137,-0.003817,0.049438,0.023170,0.016376,-0.104553,-0.054146,-0.066438,-0.011905,0.072627,0.057360,0.089947,-0.029984,-0.089991,-0.086892,-0.101783,-0.024510,0.021725,0.040548,0.073724,-0.015193,-0.026904,-0.049177,-0.007212,0.009818,0.031267,0.047734,-0.033961,-0.013347,0.023344,0.088582,0.049515,-0.064598,-0.075159,-0.158991,0.028894,0.070730,0.128236,0.007873,0.018663,0.072126,0.114415,0.045025,0.021186,0.008371,-0.017930,-0.025622,0.040891,-0.027324,0.019624,0.002764,0.027384,0.013014,0.066683,0.020424,-0.003901,-0.041138,-0.075461,-0.026288,0.030383,0.083947,0.024787,0.013543,-0.001209,-0.053862,0.001978,-0.016228,0.017377,0.067983,0.092679,-0.029350,-0.070381,-0.064602,-0.049686,-0.040694,0.026504,0.049328,0.040271,0.018998,0.023169,0.034943,-0.004271,-0.002424,-0.048051,-0.072576,-0.043978,0.069647,0.131181,0.154637,-0.013926},
		{0.027020,0.065760,0.054124,0.035793,0.017307,-0.005985,-0.031802,-0.050996,-0.045523,-0.015782,0.066712,0.077946,0.066553,-0.018191,-0.081672,-0.064890,-0.023758,0.005160,0.043598,0.057601,0.012017,-0.006974,-0.014886,-0.009596,-0.026458,-0.019763,0.025416,0.060581,0.048260,-0.005983,-0.045005,-0.076756,-0.048601,0.002439,0.076702,0.114914,0.062885,-0.031816,-0.119127,-0.103436,-0.046855,0.054491,0.124480,0.134678,0.024004,-0.099167,-0.174954,-0.117154,0.004749,0.152747,0.172302,0.091662,0.073530,0.045281,-0.022410,-0.016597,-0.031482,-0.048707,-0.032434,-0.001852,0.038284,0.072964,0.056525,-0.003281,-0.064114,-0.093613,-0.073803,0.027002,0.070345,0.056537,0.026697,-0.013118,-0.052767,-0.040697,-0.012785,-0.005816,0.020946,0.014988,0.046520,0.007585,-0.040281,-0.074997,-0.061997,-0.001829,0.076179,0.083013,0.057914,-0.014668,-0.088008,-0.119013,-0.066658,0.048858,0.122083,0.116983,0.040462,-0.086551,-0.154784,-0.119816,-0.005886,0.115984,0.172740,0.127168,-0.023643,-0.176555},
		{0.079770,-0.045530,0.035865,-0.000749,-0.052278,-0.101608,-0.049288,0.020045,0.035540,0.032603,0.083946,0.019166,-0.061932,-0.078871,-0.059171,-0.010762,0.040665,0.071091,0.044772,-0.014920,0.009469,-0.121987,-0.043000,-0.019311,0.013736,0.039627,0.077356,-0.016341,-0.005814,-0.036060,-0.009661,0.009310,-0.031577,-0.007653,0.049308,0.099441,0.071450,0.059749,-0.043365,-0.101822,-0.122213,-0.006990,0.117235,0.056805,0.114420,0.047522,-0.082939,-0.066946,-0.048168,0.000799,0.028327,-0.004617,0.007867,-0.066819,0.032115,-0.007559,-0.023167,0.005397,0.039756,0.020240,0.064557,0.026252,-0.077886,-0.098750,-0.077360,-0.008627,0.089281,0.116876,0.119530,-0.022229,-0.089664,-0.066949,-0.128402,-0.025393,-0.016358,0.025815,0.037585,0.001998,-0.027033,-0.003064,0.004155,0.035618,-0.084371,-0.012851,0.024720,0.036912,0.096722,0.036361,-0.000586,-0.053577,-0.137052,-0.089150,-0.009371,0.076820,0.055242,-0.022531,0.007478,-0.042509,-0.061983,0.048381,0.041315,-0.016485,0.022076,0.054464},
		{-0.054451,0.028585,0.075708,0.067217,0.022980,-0.006837,-0.062675,-0.149488,-0.105097,-0.005641,0.118864,0.107839,0.072797,-0.091596,-0.036512,-0.017848,-0.004616,0.021974,0.050614,0.064417,0.014148,0.030846,0.038450,-0.058103,-0.076739,-0.069241,0.093042,0.157315,0.068910,-0.023349,-0.078631,-0.094218,0.016756,0.041211,0.026521,0.025835,0.002536,0.005253,0.007634,0.041274,0.043870,-0.061416,-0.059584,-0.030666,-0.008252,0.080605,0.054306,-0.017541,-0.002545,-0.036120,-0.070888,-0.034037,0.004788,0.026316,0.059414,-0.010696,-0.098280,-0.075430,-0.121047,-0.003982,0.088568,0.118057,0.065007,-0.027123,-0.125525,-0.101421,-0.038291,0.081693,0.029306,0.061954,0.015727,-0.024610,0.003006,-0.020398,-0.067218,-0.049857,-0.050668,0.062228,0.105676,0.020320,-0.112633,-0.088795,-0.027019,0.079813,0.141621,0.027656,0.029344,-0.044983,-0.016518,-0.006224,0.048572,-0.006284,-0.073094,-0.075151,-0.013182,0.076036,0.077558,0.076881,0.039647,-0.054539,-0.060173,-0.049216,0.016047,0.032450},
		{-0.003542,-0.028241,-0.020298,0.009421,0.062822,0.018481,0.025860,0.002787,-0.070001,-0.056187,-0.018400,0.062421,0.128669,0.088836,-0.050736,-0.135074,-0.125064,-0.065198,0.084914,0.155861,0.079952,-0.025864,-0.101265,-0.065063,0.015756,0.094775,-0.063361,-0.099294,-0.041077,0.015182,0.043724,0.031192,-0.045278,-0.094147,-0.046783,0.027002,0.067225,0.021526,-0.020625,-0.001518,-0.003188,0.000765,-0.050773,-0.090277,-0.082419,0.028155,0.094782,0.159412,0.041656,-0.113532,-0.181744,-0.125179,-0.034437,-0.031406,0.055759,0.028544,0.008013,0.005501,-0.026355,-0.025684,-0.002697,0.023674,0.103636,0.083154,-0.005296,-0.093567,-0.117631,-0.070492,0.046100,0.131765,0.133198,0.006784,-0.129703,-0.083199,-0.008010,0.084285,0.054318,0.035843,-0.047292,-0.028060,0.068300,0.053095,0.009117,-0.036237,-0.083471,-0.008889,0.051992,0.037615,0.004993,-0.000375,-0.005259,0.006187,-0.051360,-0.040271,-0.067066,-0.044760,0.069076,0.104806,0.085040,-0.025303,-0.132423,-0.120046,-0.038282,0.151063},
		{0.078671,0.034579,-0.018859,-0.025398,0.026367,0.051083,0.032520,-0.037676,-0.100353,-0.080915,-0.013423,0.074141,0.066635,0.061435,-0.008679,0.029897,0.026863,-0.082615,-0.063475,-0.065486,0.037019,0.073408,0.093263,0.048257,-0.032901,-0.100661,0.005748,0.103667,0.060841,-0.004177,-0.041452,-0.029817,0.049248,0.065662,-0.020302,-0.076669,-0.099191,-0.026286,0.066270,0.124039,0.108658,0.009095,-0.070274,-0.075748,0.003757,0.030630,-0.057804,0.013789,0.088404,0.104071,0.100870,-0.010163,-0.041194,-0.080674,-0.028802,0.015740,0.070618,-0.046296,-0.079087,-0.099031,-0.020448,0.081056,0.082271,0.061103,0.014644,-0.005662,-0.060926,-0.015645,0.009152,-0.023840,0.026813,0.037418,0.026213,0.067126,-0.013728,-0.095552,-0.075606,-0.041835,0.096357,0.032726,0.020253,-0.064730,-0.004245,0.053638,-0.000096,-0.020140,-0.078993,-0.131140,0.029463,0.114251,0.115070,0.029492,-0.104225,-0.098439,-0.073579,-0.012615,0.020898,0.057519,0.022688,0.028492,0.099071,0.037098,-0.069652,-0.175497},
		{-0.055557,-0.012939,0.036678,0.125803,0.070774,-0.089288,-0.158632,-0.082742,-0.027045,0.062420,0.134487,0.101642,0.026553,-0.065339,-0.154012,-0.065142,0.030341,0.014255,0.038317,0.082280,0.064273,-0.031561,-0.060065,-0.035772,-0.016268,-0.058459,-0.010051,0.043171,0.047800,0.021325,0.002697,-0.026013,-0.010242,-0.035367,-0.078372,-0.000833,-0.012643,0.120212,0.100185,0.013454,-0.029340,-0.010014,-0.030506,-0.010355,0.009857,0.083875,0.017633,0.040644,0.037409,-0.029409,-0.049453,-0.078522,0.022594,0.117833,0.019362,-0.027177,-0.023149,-0.134489,-0.022004,0.035994,0.070747,0.090504,0.011994,-0.029744,-0.056691,-0.066530,-0.022329,0.056603,0.072037,0.062390,0.030990,-0.019332,-0.060151,-0.093729,-0.050102,0.008049,0.055067,0.015706,0.028979,-0.005237,-0.014118,-0.030896,-0.070074,-0.057749,-0.078783,0.003025,0.035292,0.040821,0.102609,-0.020591,-0.069102,-0.074567,0.006988,-0.017139,0.074866,0.062091,0.052952,-0.009430,-0.043888,-0.052756,0.026664,-0.010304,-0.007035,-0.012673},
		{-0.100335,0.075709,0.156415,0.087106,-0.049012,-0.127797,-0.066752,-0.005683,0.072532,0.060797,-0.045475,-0.054916,-0.039224,0.077815,0.078617,0.057975,-0.038099,-0.131805,-0.043779,0.031423,0.076747,0.032223,-0.004331,-0.051895,-0.045362,0.002801,-0.013962,0.034702,0.019650,0.065326,0.106039,0.015117,-0.026663,-0.097591,-0.044278,0.070507,0.107406,0.070694,0.008557,-0.070404,-0.112390,-0.005426,0.036748,0.039966,0.026919,0.014168,0.016639,0.006719,-0.042666,-0.062195,-0.071217,0.045698,0.105157,0.152561,-0.012325,-0.103572,-0.123253,-0.060280,0.032174,0.066879,-0.003631,-0.042630,-0.024295,0.015146,0.117243,0.057928,-0.056813,-0.101798,-0.046819,-0.011331,0.085026,0.080575,0.020286,-0.064917,-0.068177,0.003903,0.031262,0.008844,-0.000543,0.038691,0.091618,0.030151,-0.073078,-0.074804,-0.032746,-0.009732,0.141594,0.086301,0.091789,-0.102776,-0.081847,-0.082037,-0.016230,0.028054,0.049436,0.029744,-0.021564,0.010585,-0.026054,-0.070792,-0.075384,-0.016225,0.065856,0.109338},
		{-0.019706,0.112405,0.181358,0.116987,-0.021349,-0.132974,-0.160798,-0.083578,0.042205,0.134777,0.124282,0.067503,-0.038368,-0.088517,-0.099610,-0.062882,0.006277,0.082124,0.109213,0.064868,-0.000158,-0.078310,-0.118184,-0.085229,-0.015216,0.067592,0.104815,0.015197,-0.099670,-0.148322,-0.110228,0.008336,0.118926,0.175603,0.120993,-0.036680,-0.169026,-0.192651,-0.069471,0.081374,0.180780,0.164645,0.034008,-0.118115,-0.165697,-0.107709,0.015056,0.089723,0.098765,0.047824,0.014202,-0.021377,0.182018,0.136712,0.011135,-0.136016,-0.168826,-0.104173,0.030507,0.129842,0.143142,0.067990,-0.029370,-0.106350,-0.106779,-0.051651,0.029879,0.076289,0.103589,0.058073,-0.011804,-0.069161,-0.097761,-0.074384,-0.008632,0.077199,0.116986,0.090336,-0.091225,-0.130601,-0.105289,-0.005511,0.107496,0.161986,0.120019,-0.008470,-0.153719,-0.183355,-0.105999,0.069180,0.188999,0.168032,0.051800,-0.101198,-0.188090,-0.126652,-0.001717,0.102997,0.126490,0.075985,-0.009714,-0.063062,-0.074779,-0.036413},
		{-0.025019,0.073698,0.069617,-0.064936,-0.101406,-0.022635,0.031507,0.078059,0.049594,0.017903,-0.022408,-0.030749,0.009695,0.042937,-0.008562,-0.046576,-0.007423,0.081346,0.063903,0.037518,-0.057476,-0.031456,-0.030054,0.052101,-0.012787,0.015790,-0.049143,0.036698,0.064141,0.082128,0.018749,-0.140013,-0.130387,-0.093081,0.034614,0.111342,0.114577,-0.005314,-0.084473,-0.055078,-0.044326,-0.035142,0.087436,0.080955,0.011036,0.069191,0.006427,-0.033664,-0.141522,-0.111661,0.049110,0.121143,0.043735,-0.007142,-0.074291,-0.078234,0.062402,0.100717,0.084404,0.007821,-0.037229,-0.059806,-0.014214,0.083278,0.012439,-0.009614,-0.016495,0.001358,0.066452,0.067611,0.016020,-0.109454,-0.016860,0.005074,0.065166,0.042788,0.007646,-0.013644,0.036969,0.016776,-0.053298,-0.039167,-0.095311,-0.067545,0.081019,0.121726,0.140979,-0.012110,-0.146092,-0.132540,-0.058144,0.027807,0.049280,0.069644,-0.002489,0.053017,-0.016499,-0.106533,-0.081850,-0.076909,0.015447,0.092478,0.099387,0.059706},
		{0.119036,0.066359,-0.039937,-0.074439,-0.094068,-0.056444,0.055411,0.055848,0.071575,-0.062523,-0.048499,-0.036616,-0.039374,-0.001707,-0.043068,-0.073719,0.055224,0.069667,0.107283,0.009031,-0.089770,-0.083455,-0.015272,0.047507,0.098437,0.016295,0.004736,-0.020601,0.084681,0.027637,-0.060429,-0.066364,-0.020982,0.073855,0.132364,0.114774,-0.003304,-0.047314,-0.054388,-0.087934,0.026010,0.072358,-0.042678,0.000995,0.082228,0.086176,0.034091,-0.058007,-0.101066,-0.133324,-0.055491,0.087763,0.064131,-0.095795,-0.088667,-0.044875,0.025159,0.053214,0.005530,-0.013656,-0.108784,-0.041243,0.003680,-0.026939,-0.028318,-0.016004,-0.049098,0.063726,0.113600,0.008533,-0.107304,-0.015244,-0.138530,-0.012165,0.049321,0.073096,-0.035832,0.003400,0.062110,0.066000,0.002345,-0.091840,-0.068137,0.012926,0.011503,0.055047,0.065431,-0.055161,-0.052851,-0.049994,0.014300,0.035587,0.070165,-0.010532,0.002636,0.010868,0.026506,0.037246,-0.055501,-0.091031,-0.067125,0.060918,0.154239,0.115509},
		{-0.044924,-0.104687,-0.030225,-0.017322,0.054964,-0.015732,0.008318,-0.007073,0.014856,-0.029626,-0.050814,-0.028646,-0.048840,-0.079686,-0.019799,0.054418,0.074061,0.110784,0.024469,-0.070744,-0.094717,-0.011423,-0.000778,0.027286,0.096385,0.033377,-0.014805,-0.013631,0.003043,0.031360,-0.040169,-0.026223,-0.028770,0.076154,0.022986,-0.008305,-0.054702,-0.072300,-0.063475,0.003230,0.090857,0.074692,0.033579,-0.073557,-0.075217,-0.040978,-0.062594,-0.066957,0.043553,0.131115,0.013717,-0.023569,-0.044584,-0.010240,0.025601,0.054464,0.067061,0.057399,0.001755,-0.019098,-0.045843,0.028061,-0.023568,0.003747,-0.022057,0.004635,0.084222,0.086419,-0.032194,-0.026641,-0.084857,-0.090494,-0.031774,0.044716,0.087673,0.005235,-0.038057,-0.004782,-0.005604,-0.011841,-0.042007,0.041941,0.021937,0.018650,0.014716,-0.042216,-0.034963,-0.039341,-0.017655,0.001121,0.029477,0.080654,0.088048,0.031407,0.000687,-0.087851,-0.018407,0.016922,0.011431,0.090724,0.045345,-0.027495,0.018934,-0.015766},
		{-0.044571,-0.125198,-0.087080,0.043335,0.153934,0.057564,-0.002691,-0.074384,-0.070804,-0.002699,0.034559,0.003293,-0.010290,-0.024809,-0.024710,0.034053,-0.011283,-0.063335,-0.100638,0.005004,0.043634,0.085374,0.007396,-0.058231,0.000690,0.013293,0.040389,-0.032437,-0.100983,-0.105120,-0.000271,0.142240,0.148960,0.054806,-0.115506,-0.146329,-0.096800,0.017437,0.112784,0.077437,-0.027563,-0.025878,-0.109922,-0.064952,-0.071457,-0.094829,-0.006248,0.034380,0.064427,0.072054,-0.032993,-0.088543,-0.093320,0.035502,0.148272,0.102794,-0.004583,-0.108295,-0.085838,0.015225,0.028203,0.021089,0.028529,-0.039986,-0.024391,0.006103,0.008212,-0.105650,-0.097492,-0.061529,0.004814,0.082937,0.048664,-0.015661,-0.040130,-0.026830,0.000651,0.037196,-0.071181,-0.096021,-0.016176,0.070761,0.100764,0.072403,-0.042646,-0.156876,-0.107724,0.046433,0.166426,0.139191,0.054355,-0.090883,-0.101025,-0.083212,0.006907,-0.009531,0.046241,0.064359,0.083940,0.058617,-0.046576,-0.106507,-0.087167,-0.036068},
		{-0.004856,0.006804,-0.011132,0.006662,-0.000578,-0.037373,-0.004740,0.056527,0.099658,0.119291,0.004784,-0.078452,-0.109767,-0.095297,0.020420,0.148709,0.121773,0.010230,-0.061109,-0.074823,-0.023179,-0.025844,0.008575,0.022934,0.007696,-0.050970,0.018000,0.016807,0.032405,-0.032106,-0.042292,-0.063261,-0.056163,0.003997,0.071754,0.091946,0.091697,-0.005982,-0.081342,-0.146389,-0.020811,0.050681,0.066688,0.033363,-0.029463,-0.057135,-0.021507,0.060544,0.045445,-0.047732,-0.088979,-0.109420,-0.033743,-0.017887,-0.019227,-0.010989,-0.019411,0.028221,0.064712,0.094641,0.034923,-0.060385,-0.133127,-0.082873,0.027952,0.125953,0.120658,0.025039,-0.062536,-0.105852,-0.043320,-0.006179,0.065390,0.069717,-0.006449,-0.018372,-0.000594,-0.013026,0.008027,0.010415,-0.002997,-0.064180,-0.044728,-0.011333,0.054919,0.078174,0.105221,-0.015222,-0.089701,-0.086965,-0.109283,0.015223,0.069946,0.048424,-0.030452,-0.022936,-0.025525,0.027546,0.088906,0.004653,-0.035863,-0.086664,-0.019051,0.047033},
		{0.089736,0.174663,0.058284,-0.036714,-0.050982,-0.046121,0.058063,0.079694,0.002043,-0.035706,-0.104243,-0.041849,0.067602,0.086879,0.103030,0.007973,-0.058619,-0.088499,-0.073225,0.039428,0.058886,0.100788,0.016493,0.027027,-0.024014,-0.053121,-0.076406,-0.021206,0.013088,0.030043,-0.000654,-0.010150,0.013793,0.019100,0.009585,-0.029034,-0.039993,-0.031402,0.026292,0.011588,0.107103,0.060047,-0.009454,-0.052966,-0.123138,-0.108799,-0.021223,0.038652,0.092830,0.082736,0.074571,-0.008233,0.102615,0.033770,-0.106745,-0.117072,0.002831,0.053002,0.073607,0.021699,-0.086312,-0.040588,0.026445,0.120375,0.099584,0.030164,-0.081173,-0.127782,-0.104640,-0.005629,0.102105,0.120191,0.100091,0.023179,-0.042388,-0.020091,-0.077683,-0.042652,0.031703,0.063319,0.041934,-0.012279,0.011724,-0.013693,-0.004977,-0.050462,-0.021307,-0.048853,-0.018697,0.046144,0.043209,0.028846,0.013272,-0.069085,-0.121802,-0.058371,-0.038125,0.030393,0.139283,0.070092,0.073523,-0.022711,-0.090708,-0.127439},
		{-0.057589,-0.103852,-0.083239,-0.000484,0.035546,0.093244,0.009262,-0.007630,-0.069790,0.013143,0.079320,0.008357,-0.002891,-0.054368,-0.061538,0.002544,0.099675,0.036269,-0.004065,-0.069607,-0.079626,-0.014634,0.011147,0.015724,-0.001379,0.003230,0.005407,0.008513,0.048566,-0.081629,-0.096686,-0.059364,0.128419,0.084547,0.064438,0.004113,-0.066757,-0.097553,-0.037178,0.025662,0.056610,0.008275,0.027881,0.074514,-0.001194,0.050234,-0.036898,-0.013304,-0.034928,0.012835,0.029749,0.000249,-0.077581,-0.055862,0.069268,0.090510,0.011844,-0.046143,-0.109909,-0.022387,0.022272,0.025907,-0.053958,-0.051389,-0.036053,0.024026,0.106079,0.070174,-0.034681,-0.068856,-0.105306,-0.009554,0.001239,0.076046,0.048490,-0.015613,-0.008612,0.006773,0.033513,-0.048985,-0.060162,-0.065318,0.048834,0.105359,0.082781,0.043515,-0.063705,-0.141940,-0.074329,0.009070,0.054337,0.048760,0.027637,-0.026042,-0.014808,-0.013012,-0.007474,-0.059947,0.014188,0.042853,0.082598,0.050368,0.007756,-0.041118},
		{0.086192,0.037440,-0.016135,-0.037868,-0.102778,-0.057178,0.025089,0.103730,0.140470,0.049434,-0.032244,-0.123364,-0.109425,-0.040247,0.082617,0.096962,0.062543,0.023921,-0.038595,0.028255,0.006886,-0.007016,-0.073686,-0.073519,-0.009159,0.089570,0.112772,-0.042030,-0.142725,-0.145587,-0.048285,0.089962,0.125673,0.027858,-0.018030,-0.085211,-0.031822,0.066417,0.056320,0.046505,-0.051595,-0.097250,-0.055149,0.076640,0.137582,0.117863,0.023804,-0.054478,-0.069889,-0.070091,-0.029673,0.009857,-0.068621,-0.072906,-0.109402,-0.040337,0.040470,0.083072,0.111108,0.079563,-0.057717,-0.111525,-0.129157,-0.094033,0.039991,0.109336,0.059802,0.050998,-0.027613,-0.085472,-0.008991,-0.001411,-0.045096,-0.049777,-0.044726,0.039156,0.131508,0.103738,-0.092729,-0.178526,-0.089345,0.053425,0.155722,0.103993,0.016037,-0.123351,-0.092500,0.016733,0.053733,0.063294,-0.060524,-0.045552,-0.049295,-0.006141,0.080671,0.092913,0.027955,-0.023398,-0.132269,-0.093693,0.011065,0.026041,0.099256,0.066376},
		{-0.169493,-0.128792,-0.022819,0.094103,0.086407,0.095160,-0.024207,-0.051237,-0.007558,-0.016225,-0.015725,-0.038267,-0.001843,0.055323,0.138775,0.056894,-0.010476,-0.093224,-0.084916,-0.041799,0.041699,0.088657,0.068562,-0.005516,-0.089728,-0.014662,0.044907,-0.029751,-0.063375,0.001453,0.065708,0.056291,0.046723,-0.052185,-0.069569,-0.082957,0.003558,0.021382,-0.001014,0.069539,0.084855,0.000831,0.020623,-0.015106,-0.034742,-0.004647,0.048148,0.129100,0.134853,0.026834,-0.103914,-0.138135,-0.089513,0.065578,0.060200,0.113955,-0.005809,-0.033152,-0.069737,-0.057108,0.025011,0.031712,0.000973,0.045632,0.057956,0.054405,0.004790,0.001273,-0.044951,-0.023991,0.052788,0.095411,0.088962,-0.005072,-0.065103,-0.091930,0.021595,0.063905,-0.000078,-0.018880,0.012195,0.073543,0.087510,-0.008649,-0.081229,-0.088412,-0.066315,0.011653,0.016131,0.056797,0.003349,0.048447,0.001768,-0.006655,-0.073882,-0.033777,-0.056057,0.049812,0.083371,0.036282,-0.030908,-0.090478,-0.118091,-0.006493},
		{0.007039,-0.002671,-0.017719,-0.065088,-0.065671,-0.014547,0.045611,0.090751,0.074396,0.010671,-0.078196,-0.090247,-0.066581,0.023511,0.084113,0.081378,0.043689,0.000816,-0.047913,-0.092907,-0.066549,-0.016536,0.047306,0.090608,0.065225,0.003925,-0.088991,-0.073194,-0.032114,0.041295,0.090722,0.097125,0.045905,-0.010745,-0.087523,-0.133448,-0.096693,0.009773,0.153403,0.177347,0.090209,-0.065659,-0.190025,-0.205688,-0.041142,0.150823,0.235872,0.130135,-0.067628,-0.217032,-0.172169,-0.026608,-0.005627,-0.033767,-0.021534,-0.025083,0.034284,0.077969,0.069302,0.001605,-0.060975,-0.101320,-0.059479,0.023268,0.084687,0.100711,0.069458,-0.024824,-0.069388,-0.084754,-0.068314,0.001518,0.068806,0.091115,0.068515,0.017734,-0.060060,-0.094837,-0.028805,0.059292,0.087655,0.087138,0.036401,-0.026615,-0.083260,-0.097844,-0.082375,0.009894,0.103208,0.169476,0.114143,-0.051531,-0.172971,-0.192678,-0.078719,0.122855,0.228832,0.160768,-0.017909,-0.182797,-0.216996,-0.086238,0.092671,0.219180},
		{0.227966,0.138277,-0.103496,-0.196076,-0.112376,-0.031563,0.095663,0.101000,-0.009079,0.003179,-0.062847,0.034858,0.035804,-0.000932,-0.017756,-0.026456,-0.017384,-0.005246,0.046131,0.050360,0.085974,0.006162,-0.051704,-0.088592,-0.115273,-0.023641,0.049650,0.106795,0.014851,-0.061376,-0.149833,-0.104137,-0.002401,0.106200,0.086190,0.023294,-0.039274,-0.002035,0.032699,-0.021676,-0.000213,-0.038025,0.007220,-0.002544,0.015087,-0.016119,-0.024864,-0.018706,0.034044,0.082314,0.052978,-0.046153,-0.073360,-0.196873,-0.208062,-0.082252,0.087753,0.129594,0.111260,-0.031215,-0.049532,-0.004587,0.004993,0.039323,0.038335,-0.009447,-0.008572,0.007855,0.011330,0.053038,0.073002,0.005432,-0.006349,-0.055402,-0.057416,0.011914,0.021897,0.049809,0.029349,-0.019352,-0.080821,-0.111726,-0.009063,0.088024,0.096626,0.056460,-0.040804,-0.082924,-0.035322,-0.017323,0.016251,-0.036842,-0.018585,0.014763,0.035342,0.022914,-0.029975,-0.073709,-0.000498,0.023694,0.066470,0.018140,-0.081688,-0.109281},
		{-0.069339,-0.157852,-0.162691,-0.084424,0.056547,0.093837,0.055739,0.003293,0.000180,0.041408,0.044594,0.011204,-0.037162,-0.061555,-0.098778,-0.022557,0.045500,0.048160,0.047603,0.012372,-0.017513,-0.019649,-0.037936,-0.067109,-0.088178,0.036213,0.120632,0.074047,-0.031902,-0.106808,-0.081552,-0.046685,0.038426,0.050469,0.013398,-0.015543,0.004214,-0.018113,-0.019507,0.018614,-0.050201,-0.074921,-0.041065,-0.001295,0.044013,0.084396,0.080133,0.056888,-0.103362,-0.128997,-0.145841,-0.048742,-0.209116,-0.113423,0.017991,0.137345,0.100179,0.045396,-0.021079,-0.035354,0.045395,0.007822,-0.026097,-0.047452,-0.052392,-0.026072,0.052449,0.049169,0.084359,0.041008,-0.013690,-0.070507,-0.038322,-0.061975,-0.006485,0.005107,0.097002,0.121667,-0.021601,-0.134831,-0.149251,-0.047664,0.020549,0.077053,0.082808,0.011168,-0.007719,-0.036543,-0.004725,-0.002544,-0.005836,-0.034174,-0.061993,-0.002406,0.053575,0.083912,0.055223,-0.029012,-0.055908,-0.107676,-0.140024,-0.027372,0.043793,0.127982},
		{0.069941,0.055204,-0.047648,-0.014121,-0.030099,0.019110,0.018870,-0.013024,0.026760,0.018467,0.001027,0.004690,-0.042636,-0.092411,0.029015,0.002521,0.015104,0.113617,0.004661,-0.093228,-0.135472,0.005381,0.032557,0.115531,0.071505,0.003293,0.003058,0.006009,-0.006717,-0.031540,-0.065654,-0.064830,0.086978,0.039441,0.048415,0.042979,-0.058854,-0.040553,-0.046584,-0.034971,0.038559,0.027505,0.009542,0.074820,0.060706,0.014178,-0.081490,-0.089093,-0.030775,0.032836,0.099135,0.102503,0.004086,-0.036002,-0.046477,-0.014200,0.023333,-0.000857,0.002858,0.017148,-0.037317,-0.022979,0.016264,-0.039545,-0.048283,0.018984,0.053412,0.061364,0.027483,-0.054899,-0.072405,-0.079791,0.008932,0.099242,0.101260,0.025362,-0.046093,-0.018616,-0.006875,-0.002800,-0.018525,-0.018757,0.023056,0.043861,0.074575,0.004166,-0.040449,-0.062085,-0.000598,-0.049545,0.029775,0.070370,0.069129,0.060448,0.021232,-0.039697,-0.091839,-0.086742,-0.041810,0.039311,0.099665,0.071825,0.041842,-0.015055},
		{-0.005707,-0.151190,-0.113678,-0.020299,0.032924,0.020294,-0.051066,-0.022617,0.033313,0.090265,0.075189,-0.032807,-0.162416,-0.127784,-0.011443,0.109184,0.160623,0.102170,-0.042122,-0.116367,-0.097468,0.022289,0.048118,0.080618,0.014647,-0.027025,-0.009417,0.078747,0.033146,0.001196,-0.057365,-0.069421,-0.049501,0.026225,0.077899,0.111616,0.044848,-0.013907,-0.026927,-0.061642,-0.061600,0.001063,0.034592,0.056656,0.028197,0.001552,0.019872,0.004152,0.035424,-0.046703,-0.086744,-0.076218,-0.202693,-0.043492,0.089783,0.094395,0.077040,-0.064089,0.000753,0.049045,0.026243,0.014515,-0.076203,-0.132035,-0.067908,0.071214,0.144653,0.145045,-0.003121,-0.140423,-0.155699,-0.026817,0.053100,0.095334,0.056451,0.006744,-0.072727,-0.037429,0.040932,0.011419,-0.015812,-0.062393,-0.019218,0.028965,0.062800,0.099526,0.002885,-0.031749,-0.063249,-0.099170,-0.025290,0.012460,0.071156,0.106821,0.043664,-0.022437,-0.048617,-0.011475,-0.033273,-0.045751,-0.039822,-0.040820,-0.005210,0.122442},
		{0.007072,0.003179,0.141866,0.129480,0.017410,-0.027888,-0.142100,-0.060825,-0.027538,0.019221,0.060793,0.033438,-0.005461,0.017287,0.048817,0.046829,-0.022702,-0.004759,-0.059119,-0.076267,-0.001411,0.020353,0.076652,0.092152,0.008026,-0.038011,-0.059964,-0.063479,-0.001576,-0.003130,0.110680,0.150503,0.042715,-0.056048,-0.066065,-0.074722,-0.035742,0.041027,0.114177,0.093505,-0.013576,-0.021923,0.037208,0.001220,-0.022542,-0.029636,-0.062467,-0.028988,0.068641,0.135584,0.144971,0.001947,0.158897,0.122835,0.081592,0.027177,-0.066818,-0.083818,-0.046379,0.027382,0.046582,0.044624,0.015362,-0.014526,-0.005207,-0.022066,0.013480,0.029294,-0.060810,-0.064199,-0.020606,0.048423,0.098797,0.066076,-0.034772,-0.051301,-0.068707,-0.042599,-0.021780,0.008944,0.059324,0.119577,0.052952,-0.038904,-0.089546,-0.095564,-0.048050,0.075687,0.133441,0.064437,0.005022,-0.001204,-0.046122,-0.020984,-0.022424,-0.020206,0.010374,0.007255,0.019913,0.114637,0.098006,0.006756,-0.101814,-0.100628},
		{-0.170608,-0.009351,0.103856,0.073824,0.036998,-0.089496,-0.118363,-0.004478,0.063222,0.088865,-0.020422,-0.084793,-0.106936,-0.040959,0.091849,0.134372,0.115749,-0.009079,-0.052369,-0.028393,0.001156,0.013696,0.001728,-0.001527,-0.013552,0.033279,0.005300,-0.005779,-0.045611,-0.039176,-0.030336,0.049334,0.020669,0.059712,0.000597,-0.005432,-0.020242,0.041720,-0.006826,-0.060449,-0.026128,0.023727,0.057370,0.047920,0.093939,0.011242,-0.091782,-0.108101,-0.077758,-0.032029,0.058911,0.114340,0.046486,0.120232,0.068315,-0.065678,-0.079372,-0.034184,0.047405,0.067325,0.087252,-0.077468,-0.130394,-0.072957,0.040265,0.138715,0.128084,0.008640,-0.055817,-0.095871,-0.035722,0.000927,0.050468,0.025011,0.002406,0.018836,-0.003939,0.029236,-0.029713,-0.046894,-0.071588,0.018932,0.070899,0.016420,0.004560,-0.050065,-0.045590,-0.005843,0.024331,-0.010581,-0.028099,-0.019175,-0.006168,0.056843,0.079313,0.030844,-0.039998,-0.106537,-0.045457,0.010517,0.068389,0.095992,0.095109,0.028332},
		{-0.032335,0.031639,0.023916,0.028449,-0.059424,-0.056186,0.001931,0.114339,0.083245,-0.024808,-0.112804,-0.110635,-0.040820,0.084420,0.108833,0.079648,-0.016676,-0.077680,-0.067912,-0.045086,0.034299,0.009460,0.002732,0.005886,-0.004514,0.081006,-0.021801,-0.024743,-0.042967,-0.060775,0.010886,0.016769,0.002469,0.085638,0.038419,0.026160,-0.018596,-0.078772,-0.067206,-0.032186,0.080659,0.085078,0.095865,0.039538,-0.083211,-0.089435,-0.055590,-0.034658,0.012837,0.024505,0.042406,0.069553,0.078840,0.051741,0.023295,-0.026341,-0.014004,0.011571,0.099658,0.000343,-0.079698,-0.084717,-0.097128,0.053660,0.117336,0.091346,-0.006502,-0.078391,-0.099774,-0.009598,0.009435,0.040348,0.016434,-0.037277,-0.015928,0.038927,0.037777,-0.008877,-0.041071,-0.064926,0.010919,0.060710,0.042527,0.032859,0.025249,0.040071,-0.014152,-0.132980,-0.078100,-0.040755,0.031130,0.104911,0.085355,0.059421,-0.073498,-0.101646,-0.070169,-0.034056,0.056079,0.034755,0.034768,0.087851,0.055911,-0.035927},
		{-0.110182,-0.088236,-0.006933,0.030966,0.118958,0.081403,-0.014786,-0.091964,-0.122283,-0.043464,0.054585,0.124244,0.095497,-0.006092,-0.112719,-0.110556,-0.036858,0.006733,0.068850,-0.027880,-0.046465,-0.009579,0.056381,0.085673,0.007711,-0.074312,-0.072313,0.041001,0.126219,0.088264,0.022782,-0.062033,-0.072062,0.027996,0.058201,0.049909,-0.015789,-0.120648,-0.055464,0.012243,0.101122,0.101737,-0.009842,-0.134429,-0.113556,-0.057599,0.052721,0.087080,0.016233,-0.008385,-0.034537,0.010465,0.040251,0.080979,0.115805,0.106439,-0.020991,-0.066000,-0.114623,-0.072785,0.078490,0.121180,0.106332,0.046953,-0.073824,-0.146332,-0.046310,0.019882,0.080652,0.094789,-0.017130,-0.002357,0.027905,0.040081,0.041412,-0.024511,-0.105023,-0.070576,0.072030,0.129833,0.048424,-0.059330,-0.109784,-0.070376,0.000535,0.082250,0.031053,-0.063537,-0.031396,-0.005800,0.099552,0.078117,0.013486,-0.056329,-0.103287,-0.075269,0.027819,0.071010,0.111855,0.015858,-0.085883,-0.019521,-0.046821,0.011555},
		{0.110252,0.110561,0.096016,-0.040531,-0.080847,-0.062643,-0.041904,0.014658,-0.005660,0.048085,0.066811,0.075941,0.044332,-0.050938,-0.128946,-0.034939,-0.023809,0.016129,0.069224,0.037763,0.025972,-0.068597,-0.076391,-0.046898,0.023021,0.003490,0.037513,0.063005,-0.013501,-0.085173,-0.042299,0.004208,0.038601,0.066651,0.004694,-0.026667,-0.039597,-0.043980,0.012283,0.045693,-0.012696,-0.031264,-0.038722,0.001216,0.085559,0.064405,-0.057325,-0.117216,-0.101493,0.019498,0.141965,0.145734,0.097325,-0.016102,-0.066198,-0.089925,-0.033106,0.029291,0.062715,0.061549,0.069790,0.024164,-0.009263,-0.032586,-0.058747,-0.079030,0.003635,0.028395,0.058192,0.082160,0.028694,-0.092572,-0.065192,-0.016998,0.005952,0.022920,0.060858,0.002728,-0.056005,-0.065562,-0.015983,-0.015894,0.029051,0.060302,0.054627,0.030298,-0.049011,-0.076528,0.013103,0.033222,0.041523,-0.000304,-0.077514,-0.005980,0.062002,0.054272,0.055236,-0.043829,-0.106866,-0.049133,0.092718,0.144038,0.080604,-0.073256},
		{-0.082123,0.029552,0.010925,0.028473,-0.022171,-0.010041,-0.018461,-0.018256,0.036618,0.065912,0.006140,0.022469,0.003350,-0.089921,-0.042370,-0.023138,-0.026655,0.073453,0.114354,0.050627,-0.039565,-0.115109,-0.090693,-0.069810,0.081111,0.067895,-0.062297,-0.023386,-0.001741,0.083767,0.000628,-0.050007,-0.127307,-0.044144,0.054003,0.078470,0.064320,-0.015684,-0.105790,-0.096610,-0.038386,0.012342,0.018664,0.041251,0.030182,-0.008692,0.083860,-0.036844,-0.062250,-0.079641,-0.088792,0.051816,0.018392,0.068483,-0.019829,-0.060656,-0.113851,0.016933,0.053999,0.059258,0.058869,-0.029048,-0.040654,-0.091146,-0.015881,-0.021256,0.047884,0.059242,-0.014755,0.068549,0.000317,-0.112657,-0.045082,-0.029210,0.076331,0.097859,0.082614,-0.057807,-0.055242,0.046070,0.045979,-0.036065,-0.021233,-0.063126,0.015597,0.146912,0.017860,0.079004,-0.101626,-0.135753,-0.033350,0.057504,0.136877,0.101020,0.126254,0.014696,-0.020651,-0.038090,-0.096395,-0.091386,-0.070434,0.043589,0.130364,0.119299},
		{0.013185,0.113427,0.091790,0.014120,-0.030856,0.006180,0.031986,-0.021644,-0.081277,-0.138906,-0.060109,0.072523,0.182449,0.154993,-0.001315,-0.169501,-0.191123,-0.081541,0.072638,0.125598,0.083998,-0.001606,-0.035800,-0.071333,-0.014798,0.047938,-0.007025,-0.065417,-0.040132,0.022319,0.070883,0.092361,0.069949,-0.022018,-0.101659,-0.137314,-0.091623,0.016562,0.076079,0.138132,0.058942,-0.031556,-0.066978,-0.055412,0.002605,0.036755,-0.003495,-0.048630,-0.048939,0.070680,0.124095,0.127550,0.178350,0.043416,-0.061300,-0.065849,-0.047497,0.027391,-0.042677,-0.095523,-0.046188,0.026642,0.140863,0.146338,0.035502,-0.128459,-0.182439,-0.115475,0.038877,0.166534,0.136905,0.025015,-0.078017,-0.113136,-0.037953,0.005502,0.051706,0.037438,-0.030283,-0.010696,0.017690,0.084416,0.044889,-0.013801,-0.087092,-0.119287,-0.071146,0.034718,0.107087,0.123071,0.090719,-0.013528,-0.089989,-0.102259,-0.006122,0.033534,0.045496,-0.011788,-0.037975,0.031609,0.057971,0.093709,0.015594,-0.125265},
		{-0.001225,0.030944,0.023620,-0.071208,-0.048152,-0.010132,0.088319,0.094947,0.035100,-0.038086,-0.017282,-0.090047,-0.016808,-0.007233,0.064220,0.114943,0.070008,-0.012195,-0.070467,-0.022591,-0.088148,0.001779,0.083308,0.080918,0.058037,-0.052607,-0.016927,-0.002485,0.027999,0.035897,-0.023809,-0.058178,0.050947,0.050792,0.076003,-0.003979,-0.068076,-0.128844,-0.097515,0.053470,0.062239,0.039655,0.039662,-0.045146,-0.033667,-0.008534,0.000677,-0.048329,-0.049333,0.025465,0.071391,0.083739,0.033574,0.039537,-0.054378,-0.006604,0.003584,0.078442,0.042473,-0.011161,-0.047031,-0.084892,-0.056797,0.022638,0.071202,0.035768,0.035841,0.017684,-0.060235,-0.076843,-0.074107,0.030807,0.062499,0.065949,0.049437,-0.038725,-0.071178,-0.099846,0.041547,0.072720,-0.002217,-0.035524,-0.052776,0.044841,0.066029,0.021493,-0.062055,-0.031506,-0.091353,0.017964,0.088215,0.092831,0.081405,-0.078981,-0.089360,-0.056565,-0.026284,0.014601,-0.021828,0.009546,0.036291,0.071169,0.029159,-0.044238},
		{0.019273,-0.107580,-0.173988,-0.112058,0.020779,0.127517,0.154207,0.079834,-0.041447,-0.130177,-0.119185,-0.063809,0.038227,0.085606,0.095189,0.059228,-0.007341,-0.079001,-0.104746,-0.061838,0.000832,0.075275,0.113453,0.082316,0.015229,-0.064524,-0.101713,-0.015411,0.095283,0.143093,0.106812,-0.007238,-0.114302,-0.168559,-0.116749,0.034404,0.161584,0.185027,0.067004,-0.077480,-0.172923,-0.158190,-0.033054,0.112830,0.159110,0.104044,-0.013367,-0.085859,-0.095423,-0.047214,-0.014484,0.020404,-0.175184,-0.130992,-0.010806,0.130213,0.162303,0.099616,-0.029249,-0.125219,-0.137283,-0.064274,0.029208,0.102899,0.101937,0.048189,-0.030053,-0.073769,-0.098500,-0.054656,0.012207,0.066257,0.093657,0.071163,0.008479,-0.074020,-0.112625,-0.087833,0.087174,0.125847,0.102381,0.006728,-0.103202,-0.156212,-0.115899,0.007409,0.147308,0.175788,0.102072,-0.065635,-0.181048,-0.161418,-0.050382,0.096891,0.180088,0.122053,0.002285,-0.098621,-0.122114,-0.074276,0.008435,0.060230,0.072573,0.035994},
		{0.024281,0.004953,-0.015261,-0.042360,-0.055077,-0.042099,-0.044010,0.017601,0.092510,0.058180,0.021070,-0.090234,-0.085725,-0.048949,-0.011974,-0.029579,-0.011972,0.035642,0.072371,0.083323,-0.005781,-0.014900,-0.121130,-0.118849,0.018695,0.079033,0.096508,-0.045838,-0.101027,-0.077144,-0.008855,0.040647,0.077215,0.011283,-0.044660,0.027104,0.044011,0.002280,0.002084,-0.094412,-0.092159,-0.032069,0.003493,0.092609,0.023047,-0.025960,-0.040785,-0.080978,-0.020019,0.006454,0.026582,0.027741,0.030180,0.025129,-0.013001,-0.031188,-0.040365,0.025316,0.049601,0.102244,-0.010820,-0.085193,-0.044102,-0.006270,-0.038768,0.025639,0.033245,-0.006095,0.003567,0.056920,-0.019053,0.002666,-0.075192,-0.094697,-0.006327,0.068720,0.105618,0.159235,-0.123056,-0.113321,-0.050973,0.063554,0.101826,0.064296,-0.027121,-0.014271,-0.009370,0.043762,0.020354,-0.049096,-0.031539,-0.049428,0.066600,0.121605,0.084253,0.024645,-0.083036,-0.080487,-0.008507,0.020277,0.011504,0.038086,-0.014002,0.017090},
