/*
 * LS_includes.h
 *
 *  Created on: 30-Apr-2022
 *      Author: Ranjith Srinivas
 */

#include "complex.h"

#define NUM_USED_SUB_CARRIERS 52
#define nUSC NUM_USED_SUB_CARRIERS
#define SYMBOLS_USED 200
#define TEST_RUN 200

typedef float complex flt_cmplx;

//Actual Channel Data
flt_cmplx Act_Channel_weight_20dB[SYMBOLS_USED][nUSC] = {{1.306526-1.035024i,0.3126959-1.620585i,-0.8065616-1.414874i,-1.506546-0.5433608i,-1.470598+0.5491952i,-0.7539558+1.33634i,0.2698693+1.472034i,1.115335+0.9393485i,1.421173+0.0232868i,1.095758-0.852548i,0.3201278-1.323222i,-0.5605438-1.219697i,-1.185455-0.6080783i,-1.306946+0.2544969i,-0.8724861+1.015702i,-0.04944585+1.352043i,0.8209512+1.097854i,1.348614+0.3361239i,1.269759-0.6065376i,0.5931336-1.290576i,-0.3761906-1.377006i,-1.173944-0.8119426i,-1.413458+0.1329198i,-0.9880666+0.9987097i,-0.1195744+1.379006i,0.7701913+1.120314i,1.209381-0.4993773i,0.6259031-1.124982i,-0.2020524-1.256275i,-0.9285857-0.858965i,-1.261081-0.1031469i,-1.060701+0.703297i,-0.3972905+1.22247i,0.4605458+1.216947i,1.138116+0.6636966i,1.315542-0.2090732i,0.8898457-1.005875i,0.04505995-1.348346i,-0.8253559-1.068247i,-1.312567-0.2975569i,-1.19616+0.5993832i,-0.544472+1.211049i,0.3348504+1.274389i,1.051531+0.7808465i,1.305633-0.04268764i,0.9998937-0.8451003i,0.2630948-1.292946i,-0.6043379-1.193025i,-1.238777-0.5670258i,-1.350715+0.3416475i,-0.8540099+1.144813i,0.06819059+1.463918i},
		{-0.1167535+0.3757304i,0.1177907+0.3314435i,0.2603473+0.1746573i,0.2759684-0.01216114i,0.1860482-0.1475616i,0.0575967-0.186851i,-0.03473513-0.1469986i,-0.06081341-0.09325891i,-0.05954022-0.08208826i,-0.1011207-0.1011263i,-0.2058045-0.06816261i,-0.2923728+0.08989292i,-0.2231319+0.3360395i,0.06800098+0.5008551i,0.4678445+0.3900911i,0.7106007-0.04109043i,0.554504-0.5917689i,-0.01048789-0.904418i,-0.6953583-0.705294i,-1.066973-0.02692304i,-0.8364968+0.7656854i,-0.07738931+1.187427i,0.7922015+0.9474292i,1.260927+0.1479579i,1.041407-0.7691039i,0.2438476-1.288625i,-1.276299-0.3663151i,-1.197978+0.5806109i,-0.5116311+1.232111i,0.4315365+1.266469i,1.164204+0.6714247i,1.326991-0.2617638i,0.8342329-1.078854i,-0.08342551-1.374444i,-0.979677-0.9877408i,-1.402094-0.09342066i,-1.121024+0.867979i,-0.2615992+1.403586i,0.7439974+1.226158i,1.374795+0.4165599i,1.298804-0.6084809i,0.5553417-1.314922i,-0.4639866-1.337763i,-1.226565-0.6752838i,-1.343804+0.3154024i,-0.7730653+1.114811i,0.1695042+1.318351i,0.9857761+0.8444946i,1.262564-0.03371946i,0.8851604-0.8451819i,0.08543774-1.177211i,-0.697495-0.8917086i},
		{-0.8163114-1.680052i,-1.732473-0.7862419i,-1.865775+0.516321i,-1.112693+1.621032i,0.1997893+1.981633i,1.449003+1.394504i,2.01951+0.1232176i,1.620932-1.218644i,0.4442278-1.975835i,-0.9349374-1.785681i,-1.852418-0.7554949i,-1.886425+0.6065989i,-1.048877+1.656329i,0.2463957+1.923625i,1.398844+1.31496i,1.899112+0.129446i,1.542852-1.093761i,0.5026771-1.814949i,-0.7555722-1.720822i,-1.672967-0.8549746i,-1.8377+0.3980021i,-1.169915+1.475139i,0.03325834+1.884676i,1.224612+1.434481i,1.856965+0.3278956i,1.639768-0.9270148i,-0.5915119-1.780799i,-1.583928-0.9991804i,-1.855664+0.2311426i,-1.288068+1.354023i,-0.137786+1.864364i,1.077877+1.530176i,1.807826+0.4971887i,1.713455-0.7692217i,0.829219-1.687479i,-0.4412667-1.827144i,-1.505505-1.118288i,-1.863465+0.1058202i,-1.352558+1.265674i,-0.2267749+1.819089i,0.9743924+1.524568i,1.695935+0.5470442i,1.630907-0.6415018i,0.8455031-1.501029i,-0.280446-1.671193i,-1.245457-1.111969i,-1.646774-0.09241728i,-1.335469+0.9427198i,-0.4592725+1.559672i,0.6069528+1.504902i,1.412145+0.8027416i,1.610374-0.2515157i},
		{-0.4065074+0.06764995i,-0.2456175+0.3318713i,0.05658771+0.4046052i,0.3174254+0.2411669i,0.3794067-0.05239939i,0.2168249-0.2895076i,-0.05031316-0.3312524i,-0.2463019-0.1775138i,-0.2641226+0.04598621i,-0.1296799+0.1892451i,0.03698799+0.1848905i,0.1230705+0.07961231i,0.1018384-0.02365749i,0.03194141-0.05490729i,-0.009059719-0.02286999i,0.007313428+0.01123623i,0.04606685-0.001945066i,0.05037101-0.05667815i,-0.004220673-0.1019058i,-0.08880018-0.08765504i,-0.1445085-0.006025175i,-0.1257051+0.1025827i,-0.03003852+0.175883i,0.1000381+0.1661976i,0.198882+0.06611183i,0.2089205-0.08526682i,-0.06296515-0.2515519i,-0.2276241-0.1565549i,-0.2902204+0.03696823i,-0.2003995+0.2333485i,0.009304017+0.3206281i,0.2308877+0.2380566i,0.3393302+0.01996306i,0.2681877-0.2178808i,0.05210574-0.3447174i,-0.1928796-0.291514i,-0.3373633-0.08860908i,-0.3099418+0.156184i,-0.1299993+0.31963i,0.110052+0.3253344i,0.2946924+0.1750812i,0.3384016-0.05820091i,0.2208781-0.2653467i,-0.004781257-0.3481254i,-0.2330456-0.2633041i,-0.3519417-0.04680413i,-0.2983288+0.1975196i,-0.09479783+0.3466231i,0.1571399+0.3232136i,0.3295544+0.1393632i,0.3373653-0.1099107i,0.1821149-0.2999481i},
		{-0.8781053-0.846698i,-1.183536-0.04334369i,-0.8788952+0.7308628i,-0.1616473+1.084079i,0.5707797+0.8737487i,0.9510491+0.2624651i,0.8345756-0.4012451i,0.3461111-0.7910115i,-0.2278997-0.7674869i,-0.6138241-0.412598i,-0.679902+0.05901957i,-0.4604734+0.4314227i,-0.09497757+0.5787987i,0.2559631+0.4863012i,0.469236+0.2228854i,0.4850321-0.09781814i,0.314604-0.3536167i,0.03600601-0.4512172i,-0.2319235-0.3630549i,-0.380724-0.1425722i,-0.3655571+0.1028559i,-0.2226414+0.2724302i,-0.03450905+0.3242489i,0.1293535+0.279367i,0.2454267+0.1790793i,0.3164845+0.04116045i,0.2282866-0.3365781i,-0.01152292-0.4699332i,-0.3399677-0.4193854i,-0.5991287-0.1256243i,-0.6020248+0.3245451i,-0.2674046+0.7038863i,0.2865811+0.7658103i,0.7750917+0.4103704i,0.9035564-0.2222115i,0.5530173-0.8065814i,-0.1291104-1.011555i,-0.796116-0.6945472i,-1.088981+0.007816406i,-0.8335178+0.7454249i,-0.1376927+1.13674i,0.6593941+0.966857i,1.156199+0.300332i,1.089582-0.5447239i,0.4710112-1.148257i,-0.4085175-1.19531i,-1.113052-0.6401384i,-1.277383+0.2572447i,-0.7990534+1.050355i,0.09635314+1.330221i,0.9604625+0.9409715i,1.350451+0.06944885i},
		{-0.1606659-0.6635972i,-0.5253894-0.4048985i,-0.6456465+0.005259379i,-0.499154+0.3887892i,-0.1634114+0.6051999i,0.2325041+0.5852728i,0.5475443+0.3346561i,0.6583055-0.06781524i,0.4966251-0.4762097i,0.09514157-0.7117033i,-0.3927816-0.6379821i,-0.7385758-0.2484046i,-0.749376+0.297379i,-0.3865485+0.7330977i,0.1895803+0.8244119i,0.6917012+0.506421i,0.8599837-0.06946726i,0.6064685-0.6137784i,0.06154565-0.8560165i,-0.5017826-0.685954i,-0.8148242-0.2003316i,-0.7443544+0.3607933i,-0.3421891+0.7403557i,0.197754+0.7811169i,0.6375762+0.4813896i,0.7957844-0.02065239i,0.1621291-0.7883493i,-0.3701951-0.728018i,-0.759604-0.3421839i,-0.8247235+0.2186052i,-0.5112144+0.7112691i,0.06467083+0.8977057i,0.6457874+0.6610892i,0.9431714+0.08409541i,0.7840261-0.5658284i,0.2206127-0.957656i,-0.4736961-0.8730454i,-0.9380631-0.3390434i,-0.9227031+0.3708957i,-0.435563+0.8820679i,0.2580916+0.9299628i,0.7888554+0.5088195i,0.894946-0.1355486i,0.5598734-0.6600026i,-0.00397796-0.8212782i,-0.5002007-0.5915583i,-0.7158255-0.1344603i,-0.6073835+0.3175087i,-0.2753367+0.5877783i,0.122933+0.6102604i,0.4472336+0.4116364i,0.6014169+0.07069065i},
		{0.3759789+1.297758i,1.094337+0.725404i,1.263686-0.1432212i,0.8521891-0.8862188i,0.09544707-1.184214i,-0.647316-0.9500352i,-1.066046-0.3304225i,-1.016813+0.3901071i,-0.5507903+0.9168761i,0.1281367+1.050063i,0.7444796+0.7450548i,1.047035+0.1251896i,0.9021294-0.556005i,0.3577538-1.005036i,-0.357586-1.012432i,-0.9220598-0.5596335i,-1.068901+0.1543187i,-0.7236407+0.7975237i,-0.049445+1.067758i,0.6329764+0.8454443i,1.008889+0.2496083i,0.9233203-0.4325891i,0.4418095-0.8958068i,-0.2033203-0.9576441i,-0.7352201-0.6210291i,-0.9502723-0.04530522i,-0.3017738+0.9039598i,0.3098415+0.9165574i,0.8219192+0.5534322i,1.019648-0.06726736i,0.7874784-0.7075751i,0.1801012-1.08435i,-0.5645085-0.9919546i,-1.105351-0.4217401i,-1.15662+0.3965456i,-0.6483694+1.07904i,0.2079195+1.27362i,1.004011+0.8522181i,1.337906-0.00343544i,1.027133-0.8813757i,0.2114152-1.347414i,-0.714871-1.16857i,-1.303032-0.4304174i,-1.273508+0.5107594i,-0.646677+1.208386i,0.2775722+1.340304i,1.069485+0.852734i,1.368497-0.02571135i,1.040738-0.8942462i,0.2330724-1.35858i,-0.6919107-1.202688i,-1.311752-0.4863177i},
		{0.1821017+0.5774758i,0.5428174+0.3164073i,0.6258479-0.1325883i,0.3776621-0.5170316i,-0.05717551-0.6287139i,-0.4406653-0.4293743i,-0.5935977-0.04911572i,-0.4803487+0.3194509i,-0.1851737+0.5328118i,0.166222+0.5368389i,0.4601246+0.3427951i,0.5999917+0.001598066i,0.507651-0.3871924i,0.1656727-0.6648754i,-0.3207992-0.6620197i,-0.7214192-0.3105672i,-0.7885361+0.2616899i,-0.426641+0.7569837i,0.2052798+0.8738887i,0.7597801+0.5112491i,0.9114241-0.1439371i,0.5680097-0.7220967i,-0.07006526-0.9019626i,-0.6423849-0.6044859i,-0.852699-0.0209988i,-0.6290904+0.5256425i,0.3820836+0.6482034i,0.6794713+0.2491884i,0.6643595-0.2246135i,0.3721153-0.5767748i,-0.06595713-0.6759597i,-0.4724901-0.487318i,-0.6784403-0.08367173i,-0.5850882+0.3688441i,-0.2177211+0.6663625i,0.265627+0.6585335i,0.635623+0.3330758i,0.7043766-0.1621711i,0.4287396-0.5850008i,-0.05921488-0.7225055i,-0.5165366-0.5040683i,-0.7145904-0.04007264i,-0.5573184+0.4346912i,-0.1302951+0.6824064i,0.3446764+0.5851296i,0.6265897+0.2051714i,0.5831861-0.250659i,0.259497-0.5463742i,-0.1545792-0.5478479i,-0.4404728-0.2909563i,-0.4781426+0.05609613i,-0.3010488+0.3088086i},
		{-0.7995633-0.6423191i,-1.05927+0.002879077i,-0.8441485+0.6986207i,-0.2050597+1.113436i,0.582105+1.010203i,1.127596+0.3952021i,1.131314-0.4495411i,0.5630966-1.096283i,-0.3003412-1.202766i,-1.017752-0.7071046i,-1.224392+0.1353007i,-0.8271412+0.8946984i,-0.04222402+1.199754i,0.73404+0.9232384i,1.134719+0.2258381i,0.9944084-0.5458515i,0.4064943-1.035898i,-0.3417687-1.038172i,-0.9093896-0.5736367i,-1.050879+0.1333185i,-0.716769+0.7601765i,-0.06938811+1.028687i,0.5922564+0.8270053i,0.9688523+0.2583171i,0.8981889-0.4093303i,0.4274752-0.8708878i,-0.7372249-0.5723623i,-0.9143555+0.01699981i,-0.6892502+0.5731688i,-0.1796582+0.8613452i,0.3862027+0.774649i,0.7716503+0.366059i,0.8252182-0.1848979i,0.5338417-0.6491935i,0.02219504-0.8381808i,-0.4982162-0.6756253i,-0.8120865-0.2273211i,-0.7859604+0.3234982i,-0.4237568+0.7476174i,0.1308784+0.8617904i,0.6480891+0.605519i,0.9022793+0.07223248i,0.766767-0.5193873i,0.2766842-0.9080992i,-0.3692697-0.9012462i,-0.8804581-0.4719906i,-1.002116+0.2061836i,-0.6473338+0.8202551i,0.03793146+1.062376i,0.7277102+0.7929717i,1.075872+0.1294087i,0.9016798-0.6026544i},
		{-1.83363+1.136492i,-0.6613914+2.043659i,0.8133485+1.976345i,1.887344+0.9739385i,2.052454-0.4764175i,1.242403-1.675523i,-0.1365751-2.055302i,-1.411987-1.45662i,-1.982874-0.1971045i,-1.611009+1.103292i,-0.5161804+1.838637i,0.7599177+1.703805i,1.631206+0.8114563i,1.735514-0.3964824i,1.072036-1.372883i,-0.03079406-1.707238i,-1.077548-1.285338i,-1.619533-0.3181225i,-1.438243+0.7585371i,-0.6325057+1.472257i,0.4271911+1.519136i,1.265522+0.8981513i,1.520275-0.09246408i,1.105869-1.001412i,0.2383559-1.439732i,-0.6858531-1.251712i,-1.335971+0.3299052i,-0.8585016+1.058906i,-0.05010168+1.361343i,0.7849468+1.128407i,1.330923+0.4338113i,1.354569-0.4775162i,0.7992492-1.246715i,-0.1528032-1.522527i,-1.1092-1.125802i,-1.618903-0.1759068i,-1.396976+0.9180951i,-0.4989981+1.633979i,0.674035+1.602212i,1.563879+0.8099625i,1.737305-0.3805965i,1.103831-1.411704i,-0.04591239-1.803417i,-1.187248-1.375249i,-1.805097-0.3167369i,-1.616942+0.905386i,-0.6896635+1.748001i,0.5835758+1.81919i,1.637062+1.052725i,1.970541-0.2392016i,1.385983-1.475689i,0.1125093-2.059614i},
		{-0.1314427-0.2893173i,-0.2555211-0.2006518i,-0.3551322-0.05666714i,-0.3817962+0.165164i,-0.248958+0.4169646i,0.07268867+0.5567192i,0.4701616+0.4314834i,0.7116637+0.01694571i,0.5922484-0.5071567i,0.1025201-0.8332935i,-0.518826-0.7230313i,-0.9109571-0.186336i,-0.8203543+0.4965377i,-0.2729548+0.9385555i,0.4343796+0.8853442i,0.9155322+0.3672292i,0.9225431-0.3309715i,0.4721814-0.8467373i,-0.1903612-0.9380255i,-0.7412222-0.5873405i,-0.9373755+0.02175023i,-0.708024+0.6103123i,-0.1618851+0.9240986i,0.4654775+0.8257704i,0.898885+0.3459172i,0.9297948-0.3165412i,-0.1706238-1.009048i,-0.8037036-0.6619663i,-1.054314+0.03196889i,-0.7751251+0.7270977i,-0.09746353+1.059804i,0.6282519+0.852378i,1.023901+0.2169624i,0.8936934-0.5078434i,0.3259946-0.9489859i,-0.3692871-0.9014164i,-0.8405363-0.4234523i,-0.8791155+0.2182993i,-0.507414+0.7058859i,0.06199289+0.8307148i,0.5530544+0.5754093i,0.760103+0.09215456i,0.6249934-0.3899626i,0.237119-0.6711946i,-0.2241465-0.6543413i,-0.5682363-0.3667254i,-0.6625881+0.06286785i,-0.4755976+0.4560626i,-0.08664209+0.6497642i,0.3400441+0.5588331i,0.6163585+0.2171116i,0.6116901-0.2256186i},
		{1.230892-1.427536i,0.01060863-1.899983i,-1.233751-1.461731i,-1.897888-0.3113477i,-1.651405+1.001435i,-0.6045095+1.840129i,0.7399685+1.793049i,1.729244+0.8785856i,1.88094-0.4596546i,1.122625-1.569147i,-0.1710765-1.910983i,-1.365127-1.326988i,-1.881258-0.1152989i,-1.483902+1.124044i,-0.3892505+1.79248i,0.8545482+1.58772i,1.648189+0.6407589i,1.634888-0.5671456i,0.8599652-1.45459i,-0.2739352-1.623728i,-1.220054-1.037316i,-1.554194-0.01204572i,-1.164018+0.9543843i,-0.2778094+1.427757i,0.6680377+1.232798i,1.247501+0.5115563i,0.703711-1.01841i,-0.07476638-1.180662i,-0.7477399-0.8476093i,-1.060659-0.2124609i,-0.9396803+0.4452629i,-0.480904+0.8851374i,0.1232221+0.979113i,0.6637471+0.7213636i,0.96715+0.2041445i,0.9246734-0.408419i,0.5215151-0.9062582i,-0.1320382-1.081919i,-0.7994556-0.8137141i,-1.185003-0.1528452i,-1.067042+0.649999i,-0.4349868+1.227486i,0.4615091+1.270441i,1.205515+0.7049254i,1.41627-0.2384445i,0.9549435-1.118597i,0.01328896-1.500552i,-0.9699895-1.178643i,-1.522696-0.2858559i,-1.370362+0.7665846i,-0.5693663+1.484837i,0.5182856+1.524709i},
		{0.9986995+0.8612451i,1.335971+0.01002794i,1.037563-0.8729178i,0.2202158-1.359413i,-0.7360753-1.188352i,-1.354264-0.4138121i,-1.301242+0.5925946i,-0.5807658+1.314754i,0.4442869+1.366684i,1.236165+0.7151315i,1.379404-0.2914151i,0.814859-1.11649i,-0.1341527-1.338952i,-0.9575129-0.8807917i,-1.249283-0.02605164i,-0.9152763+0.7650383i,-0.1856372+1.117619i,0.5482536+0.9208614i,0.9529599+0.338858i,0.8994794-0.3184613i,0.478453-0.7647293i,-0.08758616-0.8523042i,-0.5618821-0.5967973i,-0.7802181-0.1331181i,-0.687133+0.3526306i,-0.3338555+0.6846031i,0.5680642+0.5064827i,0.7660019+0.0543906i,0.6442599-0.4347408i,0.2367507-0.7507387i,-0.2900432-0.7414693i,-0.6990379-0.3945771i,-0.7932417+0.1398931i,-0.5206634+0.6119144i,-0.0102414+0.7958156i,0.4907514+0.6094326i,0.7472411+0.1561289i,0.6579388-0.3375114i,0.295047-0.6483122i,-0.1554187-0.6664773i,-0.5033623-0.4254018i,-0.6385124-0.05015022i,-0.5458067+0.3205406i,-0.2709682+0.5798501i,0.1113153+0.6539482i,0.4972368+0.4958379i,0.7456822+0.1108126i,0.711281-0.3967776i,0.3321461-0.814758i,-0.2826486-0.9030178i,-0.853389-0.5407438i,-1.057954+0.1565146i},
		{0.2245978-0.1876585i,-0.005398387-0.3125942i,-0.2598883-0.2054751i,-0.3404841+0.07178809i,-0.1716458+0.3187014i,0.1337652+0.347951i,0.3567648+0.1305477i,0.3372818-0.1815867i,0.09120354-0.3710898i,-0.2084693-0.3143663i,-0.3633232-0.06195127i,-0.2869226+0.2119351i,-0.04845901+0.338888i,0.194017+0.2624032i,0.3052845+0.05256533i,0.2461911-0.1603367i,0.07221982-0.2700804i,-0.1183858-0.2405699i,-0.2391722-0.1024565i,-0.2446849+0.075558i,-0.137025+0.2157695i,0.03750865+0.2553875i,0.2002962+0.1701274i,0.2685899-0.007276156i,0.1977209-0.1910985i,0.01468022-0.2806254i,-0.2891597-0.0296801i,-0.2312226+0.1814672i,-0.03965415+0.2934029i,0.1772918+0.2384689i,0.2936492+0.04609254i,0.2408677-0.1727253i,0.04950389-0.290429i,-0.1679774-0.2386672i,-0.2836935-0.04954911i,-0.2311251+0.1630519i,-0.0457304+0.272426i,0.1570929+0.2170502i,0.2548935+0.03828537i,0.1957919-0.1482014i,0.02884532-0.2294889i,-0.1338884-0.1682522i,-0.1958594-0.02049895i,-0.1374557+0.112071i,-0.01712943+0.1558743i,0.08227535+0.1083585i,0.1139954+0.0221795i,0.08684295-0.04658561i,0.03724406-0.0767939i,-0.009913328-0.07814463i,-0.05163481-0.06099959i,-0.08518846-0.02064117i},
		{-0.6781048+0.8642467i,-0.009810739+1.118911i,0.6969304+0.9068865i,1.134956+0.2829908i,1.083965-0.5008263i,0.5357221-1.090348i,-0.2766063-1.199491i,-0.9808105-0.7625406i,-1.249617+0.02579555i,-0.9609041+0.8076225i,-0.2473069+1.236164i,0.5781122+1.129368i,1.165167+0.5344254i,1.265835-0.3048346i,0.823262-1.044854i,-0.003702673-1.36651i,-0.8837138-1.098674i,-1.425929-0.3083749i,-1.344753+0.6892443i,-0.6156853+1.438042i,0.4676718+1.54721i,1.397974+0.9051698i,1.695379-0.2245945i,1.166866-1.30384i,0.03384693-1.7833i,-1.157975-1.393405i,-1.578949+0.9671315i,-0.5633647+1.776698i,0.7415699+1.718137i,1.688689+0.8125618i,1.80554-0.4933186i,1.035013-1.550399i,-0.2341906-1.835955i,-1.36631-1.21955i,-1.805471-0.02579385i,-1.358028+1.140729i,-0.2790779+1.712949i,0.8787386+1.446462i,1.561347+0.5201711i,1.485139-0.5875384i,0.7444117-1.35832i,-0.2775454-1.477647i,-1.115759-0.9464341i,-1.429139-0.03731671i,-1.119005+0.8482597i,-0.3404503+1.344429i,0.5709151+1.252775i,1.226579+0.6144602i,1.337188-0.2970407i,0.8436206-1.076471i,-0.03651425-1.362371i,-0.8935516-1.016249i},
		{0.3451113+0.8255218i,0.7665381+0.4389634i,0.8718375-0.1155273i,0.6255473-0.6235821i,0.1174442-0.8861194i,-0.4586571-0.7855382i,-0.8636723-0.34119i,-0.907823+0.2763358i,-0.5463045+0.8004281i,0.0799121+0.9848038i,0.6947764+0.7266734i,1.013215+0.127155i,0.8785919-0.5487928i,0.3398632-0.993808i,-0.3684542-0.9994028i,-0.9301504-0.5509365i,-1.086277+0.1627887i,-0.7510723+0.8270531i,-0.05772568+1.135667i,0.6892508+0.9301288i,1.143683+0.2829478i,1.078866-0.5208192i,0.5044319-1.107278i,-0.3255103-1.190637i,-1.025789-0.7159136i,-1.262433+0.1078169i,-0.125723+1.294896i,0.7436974+1.091014i,1.291279+0.3656066i,1.245478-0.5608302i,0.5993462-1.255725i,-0.3660089-1.369313i,-1.191469-0.812569i,-1.453809+0.1711588i,-0.9910581+1.099644i,-0.01439958+1.489593i,0.9791653+1.123201i,1.468659+0.1852928i,1.202129-0.8277947i,0.3402025-1.386692i,-0.6440837-1.226872i,-1.244947-0.480694i,-1.202155+0.4295575i,-0.6091439+1.051031i,0.190386+1.136841i,0.818253+0.7264461i,1.041484+0.06208167i,0.830265-0.5636427i,0.3122105-0.9256917i,-0.305115-0.9144368i,-0.796094-0.5422489i,-0.9697664+0.05856194i},
		{-0.5027424+0.2866831i,-0.1893881+0.5259107i,0.1860607+0.5088677i,0.4557003+0.2682729i,0.5146194-0.07885309i,0.3464649-0.3837402i,0.0238576-0.5162567i,-0.3128838-0.4132733i,-0.5070437-0.1145406i,-0.459962+0.2416765i,-0.1905343+0.4800786i,0.1661986+0.4821853i,0.431238+0.2535558i,0.4808806-0.08284279i,0.3076677-0.3611873i,0.009020941-0.4613602i,-0.2757407-0.3565068i,-0.4309737-0.1054959i,-0.4008251+0.184432i,-0.1983341+0.3962037i,0.09777869+0.4372786i,0.3602459+0.2768362i,0.4589534-0.02417874i,0.3308649-0.3219559i,0.03248112-0.4574983i,-0.2765603-0.3539498i,-0.3454028+0.2179115i,-0.1051444+0.3626234i,0.1415087+0.3106723i,0.2707483+0.1344385i,0.2597483-0.04721541i,0.1675438-0.1603245i,0.05933199-0.2040951i,-0.04501189-0.2061472i,-0.1530953-0.1672078i,-0.2462825-0.06106739i,-0.2625316+0.1111837i,-0.1469862+0.2789718i,0.0766361+0.3319788i,0.292717+0.2077571i,0.3663745-0.04244489i,0.2452707-0.2770745i,0.0009783293-0.3632182i,-0.2261658-0.2671126i,-0.3273103-0.06214246i,-0.2836316+0.1409734i,-0.1450532+0.2692569i,0.02965132+0.3042007i,0.2023107+0.2471516i,0.3338777+0.09428042i,0.3593002-0.1385467i,0.2153065-0.3715371i},
		{0.578178+0.1301366i,0.5288726-0.2169105i,0.3052796-0.4702988i,-0.01756259-0.55948i,-0.3415266-0.4532343i,-0.555748-0.1715124i,-0.5650855+0.1993281i,-0.339107+0.5159732i,0.04937423+0.6319034i,0.4374563+0.476248i,0.646611+0.1051835i,0.5777221-0.3177503i,0.2633617-0.6058782i,-0.1564538-0.6426375i,-0.5114073-0.4250308i,-0.6738186-0.04307376i,-0.5890955+0.3701372i,-0.2727116+0.6762202i,0.1932222+0.7518297i,0.6548725+0.5197378i,0.9060012+0.005972727i,0.7682387-0.6130355i,0.2143046-1.041185i,-0.5511762-1.001462i,-1.145285-0.42102i,-1.2045+0.46712i,0.3573422+1.366584i,1.217781+0.8050695i,1.482345-0.2189945i,0.9784499-1.174926i,-0.05200879-1.551758i,-1.081265-1.139382i,-1.578834-0.1394093i,-1.28695+0.9451634i,-0.3464087+1.569525i,0.7786335+1.417738i,1.529535+0.5564024i,1.52549-0.594887i,0.7550257-1.462712i,-0.4059286-1.601932i,-1.370495-0.9285852i,-1.638523+0.2208627i,-1.066302+1.252522i,0.04532961+1.628571i,1.108107+1.161732i,1.569048+0.1178957i,1.213026-0.9380063i,0.2674892-1.46154i,-0.74584-1.222074i,-1.31206-0.4019428i,-1.192916+0.5386254i,-0.5183423+1.129827i},
		{0.9657677+0.879383i,1.320093+0.01054501i,0.9966578-0.8775203i,0.1596918-1.320342i,-0.7560989-1.090523i,-1.282031-0.314046i,-1.160754+0.6067639i,-0.4687062+1.209882i,0.4376699+1.207043i,1.109908+0.6166489i,1.228115-0.2587416i,0.749297-0.9880074i,-0.0801179-1.221501i,-0.8489498-0.8577707i,-1.184086-0.08937773i,-0.934471+0.6960638i,-0.2432909+1.11329i,0.5317015+0.9745236i,1.008471+0.3778226i,0.9766381-0.3582793i,0.4913136-0.8720818i,-0.1794796-0.9431188i,-0.7101464-0.5831631i,-0.8790309+0.001133275i,-0.6526024+0.5318299i,-0.1686038+0.7907946i,0.684663+0.3199303i,0.7155973-0.1704017i,0.442796-0.5655634i,-0.00808078-0.7021391i,-0.4366524-0.5286272i,-0.6539798-0.132i,-0.5718741+0.2996822i,-0.2462754+0.5695323i,0.1559984+0.5709212i,0.4502269+0.3339024i,0.5281016-0.007769907i,0.3956215-0.3010243i,0.1410215-0.4488385i,-0.130071-0.4324068i,-0.3402099-0.2842238i,-0.444394-0.05243051i,-0.4139638+0.2093956i,-0.2358164+0.4304602i,0.06248721+0.5218005i,0.3885918+0.4105604i,0.6002447+0.09600516i,0.5694214-0.3168993i,0.2628595-0.6441785i,-0.2149132-0.7078418i,-0.6517388-0.4352435i,-0.8235516+0.08469211i},
		{-0.01440024+0.05257546i,-0.01979366+0.02556606i,-0.04029553+0.05054728i,-0.007954722+0.1052475i,0.08582114+0.1148976i,0.1735965+0.03118616i,0.1699166-0.1126362i,0.04918174-0.2203058i,-0.1253645-0.2071641i,-0.244482-0.06700817i,-0.2303814+0.1213687i,-0.08831919+0.2483636i,0.1012429+0.243806i,0.2362255+0.1144832i,0.2509202-0.06829306i,0.1444357-0.2130708i,-0.02749462-0.253702i,-0.1834921-0.1751999i,-0.2525055-0.01571612i,-0.2028258+0.1509801i,-0.05646177+0.2464834i,0.1177682+0.2234024i,0.2342996+0.09101521i,0.2338214-0.08511142i,0.1169042-0.2148142i,-0.05375892-0.2321061i,-0.2173066+0.02434483i,-0.1374116+0.1523544i,-0.002498696+0.189135i,0.1097624+0.130701i,0.1476077+0.02635001i,0.1124782-0.05989966i,0.0474025-0.09293608i,-0.002576962-0.08347241i,-0.02578011-0.06682514i,-0.04565321-0.0626502i,-0.08682596-0.05220475i,-0.1359379+0.002557132i,-0.1377569+0.1102612i,-0.04078173+0.2163404i,0.1398059+0.2256442i,0.3010198+0.07843309i,0.3088143-0.1768858i,0.1046524-0.3848194i,-0.2207036-0.3791752i,-0.4604648-0.1152003i,-0.428913+0.267713i,-0.1085304+0.5194767i,0.3117998+0.4520524i,0.5536577+0.08646502i,0.4458444-0.3452349i,0.05409123-0.5568117i},
		{0.1364882+0.4492545i,0.3697169+0.2739112i,0.4600715+0.002397925i,0.3794724-0.2769825i,0.1409903-0.4673419i,-0.1858006-0.4778498i,-0.4695441-0.2676806i,-0.5592485+0.1020338i,-0.3723575+0.4627683i,0.02846831+0.6140584i,0.4415617+0.4479266i,0.6345621+0.03528913i,0.4912746-0.4002878i,0.09216991-0.6164147i,-0.3346735-0.5034583i,-0.5595442-0.1464253i,-0.4890846+0.2431632i,-0.202145+0.4682593i,0.1277416+0.4550511i,0.3505456+0.2618873i,0.4089666+0.00597316i,0.3257525-0.2167356i,0.1493712-0.3576338i,-0.07787808-0.3910996i,-0.3059298-0.29205i,-0.4529257-0.05582106i,-0.1761734+0.5047651i,0.2088111+0.5333744i,0.5398513+0.2776239i,0.614807-0.1618815i,0.3572986-0.5522635i,-0.1130396-0.6627652i,-0.5378271-0.4146144i,-0.67531+0.05987251i,-0.450657+0.4946451i,0.000715421+0.653143i,0.423247+0.4675371i,0.5991756+0.0649375i,0.4678682-0.3264393i,0.1363069-0.5180413i,-0.2089759-0.4544221i,-0.4156453-0.2114042i,-0.4299279+0.0771671i,-0.2871984+0.2987724i,-0.06151239+0.3969289i,0.1747074+0.3597859i,0.3576131+0.198816i,0.4245381-0.05080155i,0.3261727-0.3135768i,0.06606612-0.4762711i,-0.2655571-0.4352547i,-0.5095261-0.1701183i},
		{-0.5578066+1.165421i,0.3126266+1.239428i,1.018731+0.7514832i,1.255792-0.06056838i,0.9350855-0.8353134i,0.2022705-1.240035i,-0.6277475-1.097959i,-1.192341-0.4591851i,-1.227879+0.4069413i,-0.6947501+1.110869i,0.1810679+1.313236i,0.9930121+0.8968088i,1.34528+0.04439404i,1.057517-0.8372324i,0.2656707-1.3198i,-0.6448415-1.173281i,-1.237809-0.4792153i,-1.24378+0.42114i,-0.6803423+1.105092i,0.1755212+1.270515i,0.9308491+0.8625066i,1.255452+0.07950521i,1.017518-0.7258914i,0.3300781-1.200228i,-0.5009602-1.136641i,-1.10614-0.5630006i,-0.7674118+0.9748465i,0.02808695+1.239227i,0.8094274+0.9356603i,1.216377+0.2044929i,1.063217-0.6153097i,0.4249998-1.14615i,-0.4006205-1.147807i,-1.034028-0.625685i,-1.188198+0.1757226i,-0.7979402+0.8870425i,-0.04800866+1.183209i,0.7122203+0.9328498i,1.13137+0.2598269i,1.022425-0.5154669i,0.4511623-1.031433i,-0.3012732-1.061156i,-0.8835595-0.6165726i,-1.047352+0.07332861i,-0.7537755+0.6907582i,-0.1642104+0.9837697i,0.4599901+0.8627523i,0.8772447+0.4053035i,0.9442245-0.2024374i,0.6410507-0.7373404i,0.06730952-0.9980419i,-0.5743898-0.8596253i},
		{0.3552622+0.2148494i,0.4642764-0.05637629i,0.3611234-0.377957i,0.03365546-0.5768228i,-0.3858508-0.4989696i,-0.6679798-0.1269374i,-0.6203309+0.3735639i,-0.2227365+0.7293162i,0.3360144+0.7204407i,0.7556522+0.3219472i,0.7979172-0.2700872i,0.425758-0.7459079i,-0.1759314-0.8540249i,-0.7030268-0.5342309i,-0.8913936+0.0574903i,-0.6452681+0.6330369i,-0.07790238+0.9126267i,0.5435536+0.7543076i,0.9192453+0.220743i,0.8548498-0.4421762i,0.361035-0.9112713i,-0.3352326-0.939638i,-0.8875248-0.4899313i,-1.002108+0.2271829i,-0.6008887+0.8464627i,0.1207558+1.037645i,1.044263-0.01764255i,0.7559201-0.7103792i,0.08060056-1.022565i,-0.618416-0.7983888i,-0.9750558-0.1718314i,-0.817836+0.5153157i,-0.2530712+0.9051481i,0.4058968+0.8143923i,0.8162397+0.3208091i,0.7878089-0.29489i,0.3717261-0.7112159i,-0.1862006-0.7378891i,-0.5925267-0.4035376i,-0.6652802+0.08261205i,-0.4156089+0.4627626i,-0.01397484+0.57227i,0.3254575+0.4090813i,0.4632237+0.1018771i,0.3864298-0.185749i,0.1788185-0.344417i,-0.05056144-0.3505825i,-0.2232401-0.2413242i,-0.3039069-0.07186665i,-0.2846206+0.1069668i,-0.1730682+0.2474352i,0.001456207+0.303184i},
		{1.359255-0.5933182i,0.668418-1.288023i,-0.2807682-1.401476i,-1.08671-0.9116985i,-1.417727-0.03051842i,-1.127524+0.873221i,-0.3221641+1.40341i,0.6556043+1.300262i,1.352855+0.5794404i,1.417218-0.4387951i,0.7922457-1.261254i,-0.2256945-1.470297i,-1.126452-0.9549732i,-1.456643+0.0186639i,-1.065536+0.9500757i,-0.1791286+1.378254i,0.7377405+1.124034i,1.240883+0.362965i,1.131595-0.4983787i,0.5266445-1.052674i,-0.2429942-1.089777i,-0.8230154-0.6632701i,-1.000648-0.01670673i,-0.7664143+0.5619184i,-0.2693878+0.8673965i,0.2799575+0.8312111i,0.8549765+0.01144272i,0.7127935-0.4910308i,0.2997523-0.8371638i,-0.2647235-0.8849363i,-0.7787364-0.5714954i,-1.012331+0.02681217i,-0.8130459+0.6812781i,-0.212232+1.08677i,0.5462826+1.012014i,1.101323+0.4435743i,1.158911-0.3750041i,0.6610155-1.051641i,-0.1690377-1.248603i,-0.9374195-0.8611614i,-1.28106-0.06849875i,-1.042654+0.7635304i,-0.331582+1.261074i,0.5403454+1.20468i,1.196922+0.6102447i,1.345252-0.2829577i,0.8903856-1.098286i,-0.009333342-1.459865i,-0.9739797-1.154706i,-1.541058-0.2622516i,-1.38472+0.8301356i,-0.5158861+1.57915i},
		{0.2535945+0.547022i,0.5087366+0.2567069i,0.5278789-0.1018893i,0.3411581-0.3765234i,0.05194218-0.480766i,-0.2264474-0.4079399i,-0.4118246-0.2034065i,-0.4579852+0.0672996i,-0.3458581+0.3283109i,-0.09035815+0.4910048i,0.2371316+0.4707486i,0.5048992+0.2356333i,0.5685642-0.1435407i,0.358933-0.495865i,-0.05036641-0.6302755i,-0.4592219-0.4533753i,-0.6489528-0.04201207i,-0.5156211+0.3907631i,-0.1349395+0.6211352i,0.2882622+0.5459298i,0.5475981+0.2302371i,0.5474581-0.152711i,0.3288145-0.4333212i,0.01107382-0.5250328i,-0.2866754-0.4295647i,-0.4837647-0.1946624i,-0.3870017+0.4278927i,-0.06169673+0.6208729i,0.3601502+0.5759304i,0.6983974+0.2426532i,0.7498334-0.2817734i,0.4167117-0.7542908i,-0.1930628-0.8990363i,-0.7827576-0.5778614i,-1.016644+0.09425315i,-0.7219061+0.7803574i,-0.0136354+1.098716i,0.7464259+0.8458547i,1.14387+0.128251i,0.9472786-0.6828855i,0.2458365-1.152581i,-0.5935947-1.023902i,-1.126456-0.361619i,-1.073569+0.4835139i,-0.4704979+1.067783i,0.3579803+1.094569i,0.9794223+0.5677701i,1.086142-0.2223035i,0.6496407-0.8650252i,-0.08173765-1.048926i,-0.7293498-0.7133622i,-0.9851176-0.0582795i},
		{0.1222471+0.2194999i,0.1664016+0.11906i,0.1870136+0.05128081i,0.2150613-0.03192204i,0.1988934-0.1639589i,0.07335503-0.2908649i,-0.1427414-0.303991i,-0.3298697-0.147177i,-0.357197+0.1115109i,-0.1948993+0.3196547i,0.05802335+0.3580315i,0.2552588+0.2269652i,0.3142877+0.026334i,0.2551141-0.1405391i,0.1435621-0.2393634i,0.01274681-0.2884981i,-0.1484105-0.2879845i,-0.3308728-0.1877947i,-0.4473552+0.05448549i,-0.3666331+0.379656i,-0.0341763+0.6057225i,0.4270208+0.5338497i,0.7471038+0.1150561i,0.6791083-0.4625409i,0.1903382-0.8588289i,-0.4764356-0.7978531i,-0.89023+0.4623361i,-0.3416714+0.9697523i,0.4187267+0.9588347i,0.969988+0.4231293i,1.006237-0.3487283i,0.506733-0.9390513i,-0.2584772-1.033222i,-0.8814882-0.5874264i,-1.03836+0.1548299i,-0.6590934+0.8002295i,0.04330926+1.018966i,0.6965151+0.7167755i,0.9729959+0.07293434i,0.7583881-0.5710961i,0.1927864-0.9010521i,-0.4261535-0.7852407i,-0.8076288-0.3156402i,-0.8011264+0.2670777i,-0.4393277+0.7009978i,0.1032695+0.810286i,0.5916214+0.5584033i,0.8149971+0.05254439i,0.663588-0.4895327i,0.1864699-0.8137276i,-0.4015378-0.7428064i,-0.8006453-0.2865089i},
		{-0.2351866-0.3958793i,-0.3990561-0.1092184i,-0.3201405+0.1726436i,-0.09908161+0.295508i,0.1044423+0.2368061i,0.186811+0.08768743i,0.1513071-0.03663624i,0.07344818-0.08024082i,0.02480477-0.06632238i,0.01940583-0.05376482i,0.01737912-0.07572343i,-0.02687745-0.1097981i,-0.1145297-0.09930768i,-0.1899389-0.006787429i,-0.1775786+0.1417535i,-0.04431993+0.2584782i,0.1586443+0.2479457i,0.3122529+0.08121099i,0.3040231-0.1654454i,0.1130862-0.3457647i,-0.1601162-0.33872i,-0.3519575-0.1376159i,-0.3464438+0.1381253i,-0.155829+0.324165i,0.09355199+0.325295i,0.2586288+0.1722412i,0.1936122-0.1567105i,0.08068001-0.2139372i,-0.02594755-0.2266351i,-0.1432614-0.2087733i,-0.2752701-0.1205706i,-0.35359+0.07828715i,-0.266503+0.3386128i,0.02818748+0.5006592i,0.4100785+0.3956797i,0.6330789+0.00314211i,0.4956939-0.4782988i,0.01817231-0.735062i,-0.529598-0.5606152i,-0.7954658-0.02495647i,-0.5920085+0.5514007i,-0.03465239+0.8102898i,0.5356006+0.5979398i,0.7834079+0.05806312i,0.5902578-0.480892i,0.1022282-0.7253073i,-0.393356-0.580959i,-0.650197-0.1680898i,-0.5787095+0.2851128i,-0.2499265+0.5723277i,0.1714299+0.5865345i,0.5025803+0.3367i},
		{0.6428326+0.03858877i,0.5365725-0.3929703i,0.1646476-0.6626379i,-0.3047671-0.6265114i,-0.6447016-0.2898165i,-0.6876813+0.1908091i,-0.4118968+0.5881692i,0.05287024+0.7194008i,0.4955664+0.5293807i,0.7236235+0.1049111i,0.6404169-0.3729065i,0.2755055-0.7039799i,-0.2289748-0.7418541i,-0.6644695-0.4492259i,-0.828768+0.07393162i,-0.6147828+0.6082361i,-0.08240376+0.8947289i,0.5368307+0.7609472i,0.9328104+0.2321085i,0.8783895-0.4502084i,0.3701136-0.9370835i,-0.3474576-0.9611822i,-0.9041578-0.4943071i,-1.007537+0.2280174i,-0.6047894+0.8342932i,0.09297243+1.019572i,1.0022+0.05401283i,0.7880274-0.6041011i,0.2064493-0.9614813i,-0.4611186-0.8599755i,-0.902949-0.3555835i,-0.9150859+0.3128399i,-0.4916303+0.8303992i,0.1680535+0.9484065i,0.7454671+0.6053448i,0.9544737-0.03317192i,0.6895009-0.6480663i,0.08809995-0.9287853i,-0.5374831-0.7398806i,-0.869159-0.1943132i,-0.7555338+0.4137258i,-0.2852693+0.7765633i,0.2786602+0.7382993i,0.6551849+0.3608485i,0.6917999-0.1365529i,0.4200909-0.5117438i,0.006152477-0.6202806i,-0.3543052-0.4608433i,-0.527682-0.1417407i,-0.4800804+0.1909842i,-0.2625085+0.4172374i,0.02894435+0.4747677i},
		{-0.6322532-0.05561105i,-0.5131943+0.3496757i,-0.1729294+0.5829684i,0.229286+0.5501018i,0.5149308+0.2767282i,0.5633637-0.1080743i,0.361923-0.4309926i,0.008694008-0.551632i,-0.3339049-0.4244287i,-0.5145407-0.1166442i,-0.4617151+0.2267113i,-0.2121968+0.4532964i,0.1132561+0.472927i,0.370923+0.2921633i,0.4585598+0.00147794i,0.353287-0.2720217i,0.1114407-0.4198502i,-0.1620801-0.392004i,-0.3581448-0.2100816i,-0.4046227+0.04653638i,-0.2913128+0.2745208i,-0.07010309+0.3879557i,0.1698393+0.3506054i,0.3402535+0.1847914i,0.3858727-0.04524714i,0.2959246-0.262146i,-0.1572512-0.4027716i,-0.3896803-0.2528948i,-0.5045341+0.03217916i,-0.4159153+0.3661359i,-0.1041714+0.5993634i,0.3320982+0.5774371i,0.6836984+0.241909i,0.7273622-0.2913243i,0.3717313-0.7522056i,-0.2455218-0.8554668i,-0.7984173-0.4863829i,-0.9529551+0.1941451i,-0.5815996+0.8159428i,0.1349624+1.013849i,0.7999274+0.6562921i,1.035847-0.0652219i,0.7119479-0.7483477i,0.01694228-1.020416i,-0.6627603-0.7514535i,-0.9721175-0.1112989i,-0.7777093+0.5482823i,-0.2148742+0.8973759i,0.4128071+0.7924556i,0.8030412+0.3220655i,0.7956461-0.2656816i,0.4254748-0.6951631i},
		{0.07344217-0.4959165i,-0.2850541-0.4406309i,-0.5250877-0.1450148i,-0.5018249+0.2495648i,-0.2100994+0.5314752i,0.2016012+0.5414004i,0.5129988+0.2690372i,0.5593324-0.1399473i,0.322969-0.4700907i,-0.06500597-0.5577397i,-0.4058556-0.3729492i,-0.5401604-0.02064197i,-0.4190882+0.3256765i,-0.1121764+0.5105669i,0.2363399+0.4599915i,0.4723927+0.2030404i,0.4926869-0.1448885i,0.2859145-0.4278399i,-0.05748623-0.5130867i,-0.3776505-0.3539309i,-0.5168728-0.02142522i,-0.4018242+0.3213854i,-0.08948268+0.5005612i,0.2581023+0.4267273i,0.462447+0.1462187i,0.4284237-0.1872062i,-0.1091988-0.409025i,-0.3257116-0.2294081i,-0.3722081+0.02609578i,-0.258046+0.2349635i,-0.05860697+0.3222658i,0.1368255+0.2784826i,0.2632564+0.1403885i,0.2899722-0.03730169i,0.2144179-0.1984777i,0.05826925-0.2912079i,-0.1303573-0.2762996i,-0.2808589-0.1456309i,-0.3226301+0.06069913i,-0.2216395+0.258114i,-0.00889059+0.3512358i,0.2230348+0.284006i,0.3610834+0.07661856i,0.3309365-0.1766089i,0.140339-0.3519763i,-0.1205195-0.3608724i,-0.3242118-0.1976806i,-0.3724683+0.05675371i,-0.2464118+0.2783764i,-0.01276576+0.3648313i,0.215381+0.2848902i,0.33793+0.08636331i},
		{0.3161617-0.358287i,0.03738948-0.4519636i,-0.2223047-0.3684645i,-0.3747682-0.1676849i,-0.3914612+0.06632027i,-0.2894771+0.2652448i,-0.1029844+0.3860416i,0.1291863+0.3982403i,0.3530672+0.2779567i,0.4890926+0.02732286i,0.4509696-0.2934586i,0.198319-0.5576541i,-0.2086929-0.6151522i,-0.6008424-0.3778902i,-0.7646604+0.1014495i,-0.5597713+0.6173147i,-0.02391743+0.8944837i,0.6074055+0.7368906i,0.9999753+0.1613488i,0.9011909-0.5726025i,0.3036028-1.076409i,-0.514778-1.043959i,-1.118868-0.4432341i,-1.156705+0.4354959i,-0.5737541+1.122644i,0.3356954+1.23242i,1.266865-0.2159226i,0.7916002-1.002017i,-0.07708157-1.259471i,-0.8783126-0.8766924i,-1.213533-0.07853054i,-0.947054+0.7189611i,-0.2462783+1.135552i,0.5336102+1.003815i,1.033858+0.4187187i,1.046839-0.3345624i,0.585876-0.916888i,-0.1350722-1.073987i,-0.7915787-0.7363098i,-1.081145-0.05260296i,-0.8587702+0.6623588i,-0.218906+1.063085i,0.5309986+0.9440405i,1.014915+0.358002i,0.986483-0.3973402i,0.4678831-0.9337236i,-0.2606476-0.9848768i,-0.8199151-0.5495805i,-0.9423325+0.1211326i,-0.6057706+0.6778295i,-0.01883394+0.8653311i,0.5154597+0.6392189i},
		{-1.294007+0.1096376i,-0.9471308+0.9274868i,-0.1410789+1.345173i,0.7651467+1.148126i,1.348843+0.4018752i,1.319668-0.565874i,0.6628994-1.30652i,-0.3385418-1.456025i,-1.221005-0.9134924i,-1.551853+0.09310343i,-1.142876+1.095922i,-0.160216+1.602479i,0.9354724+1.340967i,1.604402+0.4115756i,1.499153-0.7444549i,0.6519089-1.555878i,-0.5285039-1.610872i,-1.457448-0.8730304i,-1.671912+0.2944005i,-1.067539+1.312241i,0.05028097+1.680411i,1.125954+1.228666i,1.63664+0.1944192i,1.350232-0.9064867i,0.4293692-1.542681i,-0.6633124-1.42683i,-1.454254+0.4067162i,-0.8287595+1.21999i,0.1470811+1.430094i,1.002547+0.9753101i,1.354326+0.1056432i,1.077866-0.7575504i,0.3422216-1.229694i,-0.4941937-1.133114i,-1.061725-0.5542012i,-1.140151+0.2229903i,-0.7338802+0.8583308i,-0.04462626+1.100047i,0.6290636+0.8743247i,1.015301+0.2969741i,0.9695549-0.3841937i,0.5229781-0.8893948i,-0.1338417-1.014932i,-0.7265808-0.7130473i,-1.007683-0.1126515i,-0.859787+0.5319402i,-0.3470104+0.9474248i,0.3116218+0.9583972i,0.8364985+0.561982i,1.006691-0.07309734i,0.7510838-0.679994i,0.1747506-1.004769i},
		{0.7614492+0.04749886i,0.6330157-0.4033942i,0.2765731-0.7015892i,-0.1983285-0.7471209i,-0.6343032-0.4946066i,-0.8437093+0.003695055i,-0.6839946+0.563212i,-0.1673673+0.9111926i,0.4868057+0.8282698i,0.9364786+0.3073652i,0.9156066-0.3990667i,0.4156361-0.9083292i,-0.2918205-0.9414852i,-0.8208202-0.4975697i,-0.9096545+0.1581487i,-0.5620478+0.6758129i,-0.00419338+0.8310317i,0.4836082+0.617862i,0.7208067+0.1904589i,0.6702173-0.2614802i,0.3884939-0.594579i,-0.03042931-0.7184234i,-0.4646573-0.5804546i,-0.7555165-0.188964i,-0.7462379+0.3375948i,-0.3804336+0.7699555i,0.7488893+0.5346041i,0.9323-0.08822768i,0.6495996-0.6820068i,0.04516197-0.93568i,-0.5648118-0.7296431i,-0.8816629-0.1915264i,-0.7822108+0.4003589i,-0.3515656+0.7806439i,0.1989843+0.8147167i,0.646458+0.5203403i,0.8317956+0.02381227i,0.6877753-0.4929243i,0.2506149-0.8339942i,-0.3310962-0.8407684i,-0.8181744-0.4654478i,-0.9661686+0.1679641i,-0.6562499+0.7793483i,0.006824686+1.053641i,0.7131894+0.8158348i,1.097528+0.1510493i,0.9412519-0.6182788i,0.3042301-1.097195i,-0.4972751-1.032012i,-1.055912-0.449369i,-1.088005+0.3566208i,-0.5805662+0.9788031i},
		{-0.3874198+0.04590279i,-0.2490651+0.2583397i,-0.03695851+0.3236173i,0.1403175+0.2600411i,0.2385678+0.1362869i,0.2706508-9.015321e-05i,0.2489339-0.1431185i,0.1507449-0.2849496i,-0.04791126-0.3674936i,-0.3032204-0.2988872i,-0.4813814-0.03901394i,-0.4319628+0.3216738i,-0.113809+0.5789346i,0.3334441+0.5409215i,0.6499314+0.1771379i,0.6215078-0.3305813i,0.2331579-0.687786i,-0.3064285-0.6744021i,-0.6907862-0.2875069i,-0.7040399+0.257664i,-0.3449426+0.6620423i,0.1854058+0.7165295i,0.6082243+0.4073742i,0.7173533-0.09507969i,0.4728812-0.5375357i,0.004857408-0.7095803i,-0.6931241-0.1049022i,-0.5890693+0.3737894i,-0.1965691+0.6652158i,0.2888064+0.6243735i,0.6218643+0.273918i,0.636053-0.2029794i,0.3341423-0.559757i,-0.1156281-0.6215267i,-0.4779357-0.3771403i,-0.5818232+0.02659523i,-0.4043389+0.3786839i,-0.06252519+0.5208701i,0.2673475+0.4172709i,0.44406+0.1479428i,0.4164716-0.1511858i,0.2241794-0.3566513i,-0.0376773-0.401115i,-0.2625903-0.2853569i,-0.3695233-0.06711587i,-0.326804+0.1641621i,-0.1595594+0.3203452i,0.06255066+0.3464001i,0.2539304+0.2385004i,0.3451516+0.04096i,0.3043825-0.1733312i,0.143668-0.3267632i},
		{-1.056561-0.6780727i,-1.238001+0.162284i,-0.8381816+0.9152816i,-0.05446419+1.232347i,0.7439547+0.9750419i,1.189514+0.2710233i,1.082256-0.5504119i,0.4773557-1.110514i,-0.3422472-1.153701i,-0.9965103-0.6643883i,-1.184596+0.1262812i,-0.8249709+0.8494299i,-0.09138394+1.17257i,0.6728417+0.9542912i,1.118335+0.3048189i,1.04966-0.4727207i,0.5075181-1.025752i,-0.2577407-1.109807i,-0.9011949-0.6918305i,-1.133982+0.03887139i,-0.8489056+0.7524199i,-0.1717223+1.121259i,0.5872418+0.9693187i,1.070311+0.3622448i,1.044303-0.4124317i,0.5228971-0.9798182i,-0.8493913-0.6471208i,-1.035328+0.05308146i,-0.7321142+0.6807286i,-0.1248543+0.9499234i,0.4785981+0.7784872i,0.8170574+0.2974269i,0.7891857-0.2512713i,0.4601332-0.6462907i,-0.01017489-0.7680423i,-0.4491958-0.6066943i,-0.7184204-0.2312376i,-0.7292687+0.2375333i,-0.4591531+0.642381i,0.02165791+0.8193902i,0.5406204+0.6611969i,0.8693999+0.1904376i,0.8279037-0.4131669i,0.3932459-0.8739651i,-0.2605659-0.9535015i,-0.8312423-0.5831046i,-1.03586+0.08512621i,-0.7570995+0.7433403i,-0.1082205+1.075703i,0.6159595+0.9119479i,1.075405+0.3117624i,1.04328-0.4573337i},
		{0.1370952+1.166914i,0.880285+0.8142354i,1.216659+0.04510048i,0.9617912-0.7666831i,0.2314574-1.215062i,-0.6155595-1.075276i,-1.164427-0.4181678i,-1.154204+0.4329434i,-0.5997245+1.070022i,0.2278442+1.198488i,0.9388812+0.7688298i,1.207725-0.01120761i,0.9169387-0.778604i,0.2054282-1.181008i,-0.5964642-1.0353i,-1.117313-0.4112295i,-1.116208+0.3990353i,-0.5970152+1.016295i,0.1923259+1.154137i,0.8791933+0.755692i,1.14645+0.01774557i,0.8821887-0.7095369i,0.2248217-1.093568i,-0.5133691-0.9730564i,-0.9985923-0.4218073i,-1.025987+0.2989154i,0.07576964+1.039489i,0.7037503+0.7545909i,1.012879+0.1461596i,0.8756417-0.5168052i,0.3576411-0.9465812i,-0.312659-0.9588646i,-0.8426086-0.5507811i,-1.001333+0.09845921i,-0.7192128+0.7050003i,-0.118152+1.002663i,0.5399695+0.8578488i,0.9646904+0.3287963i,0.9623905-0.355613i,0.5243731-0.8907341i,-0.161164-1.028877i,-0.7847154-0.6954871i,-1.053546-0.03406111i,-0.8332886+0.6504256i,-0.2217547+1.033145i,0.4912082+0.9305604i,0.9656715+0.3954396i,0.9827581-0.3101657i,0.5507828-0.8513299i,-0.1108131-0.9886878i,-0.693369-0.6853175i,-0.9505852-0.1020683i},
		{0.03325965+0.6040635i,0.3990346+0.4679792i,0.6151496+0.1333612i,0.5874869-0.2765503i,0.3073074-0.6012555i,-0.1359328-0.6938347i,-0.5680307-0.4800451i,-0.7835127-0.01188863i,-0.6400855+0.5197836i,-0.1561821+0.849969i,0.4578628+0.7751248i,0.8847116+0.2889155i,0.8747928-0.3803983i,0.4063202-0.8795888i,-0.2835383-0.9331069i,-0.8295054-0.5089694i,-0.9497963+0.1637819i,-0.6003335+0.7346472i,0.02060002+0.9300231i,0.6014064+0.6843057i,0.8825545+0.1416036i,0.7625577-0.4416096i,0.312951-0.8169551i,-0.2701931-0.8326676i,-0.7407064-0.4792794i,-0.8877244+0.1019864i,-0.05143316+0.9176297i,0.5652179+0.735522i,0.9117573+0.1838584i,0.8022912-0.4602268i,0.2949057-0.862166i,-0.336824-0.8227353i,-0.7663598-0.3886967i,-0.8013129+0.1917776i,-0.471226+0.6287068i,0.02650141+0.7475963i,0.4600429+0.5472966i,0.6732981+0.15182i,0.6180325-0.2755492i,0.3308736-0.5889874i,-0.09153478-0.6797847i,-0.5015134-0.4954685i,-0.724781-0.0779117i,-0.6307194+0.4129029i,-0.2234128+0.7432939i,0.3210005+0.7251973i,0.7266057+0.3412463i,0.7730996-0.2215431i,0.4325649-0.6697983i,-0.1109011-0.7748294i,-0.5734678-0.5012782i,-0.7358956-0.01148262i},
		{1.29287+0.6109554i,1.34932-0.4127555i,0.7073159-1.190017i,-0.2678896-1.323654i,-1.05282-0.7803704i,-1.260487+0.1160262i,-0.8335581+0.8882741i,-0.03842225+1.168608i,0.7077047+0.8691177i,1.057775+0.1870791i,0.8865004-0.5248281i,0.3185513-0.9363053i,-0.3531169-0.8819829i,-0.8093894-0.4205493i,-0.849654+0.203258i,-0.4825675+0.6786595i,0.08145937+0.7834824i,0.5431163+0.4983155i,0.6797984+0.01091352i,0.4671534-0.4010596i,0.0763199-0.5393677i,-0.2523307-0.3940923i,-0.3683489-0.1190372i,-0.2883734+0.1000704i,-0.1428693+0.1777789i,-0.04864517+0.1610819i,0.02255161+0.1835529i,0.1370301+0.2055071i,0.2931357+0.1196407i,0.3718237-0.102093i,0.261503-0.3671454i,-0.04002607-0.5094565i,-0.3989257-0.4020985i,-0.6154186-0.05220338i,-0.5419351+0.3868119i,-0.1742533+0.6906991i,0.3341897+0.6809119i,0.7384143+0.3214501i,0.8165939-0.2482374i,0.4851193-0.7616355i,-0.1378019-0.9434589i,-0.7616762-0.6541169i,-1.053412+0.01112964i,-0.8170717+0.7374306i,-0.1258015+1.137414i,0.6859755+0.9646145i,1.187685+0.2698304i,1.090879-0.6041915i,0.4199218-1.199724i,-0.490802-1.193822i,-1.173476-0.575551i,-1.274304+0.3480728i},
		{0.08976588+0.2769981i,0.2672225+0.1020213i,0.2413382-0.1425593i,0.03741536-0.2719441i,-0.1857806-0.1945791i,-0.263093+0.02238913i,-0.1470262+0.2139311i,0.06773335+0.2464496i,0.2270516+0.109389i,0.2307437-0.09359901i,0.08972134-0.2299466i,-0.1003791-0.2246561i,-0.2299641-0.09135749i,-0.234013+0.09292358i,-0.1124434+0.2341371i,0.07828304+0.260073i,0.246672+0.1471159i,0.2994174-0.06298444i,0.1878389-0.2676171i,-0.05079728-0.3453971i,-0.2931133-0.2280335i,-0.3905646+0.04174136i,-0.2640758+0.3170708i,0.0326292+0.4291981i,0.3336186+0.2959858i,0.459014-0.01888198i,0.003097679-0.481473i,-0.3349168-0.359685i,-0.5005985-0.03391185i,-0.3974577+0.3242633i,-0.07029954+0.5207686i,0.3135817+0.4389358i,0.5443241+0.1057897i,0.4793358-0.3085388i,0.1326974-0.5699144i,-0.3118982-0.5110997i,-0.5922527-0.1447894i,-0.5261681+0.3220437i,-0.139676+0.6034578i,0.3330583+0.5187592i,0.5955921+0.120052i,0.4876887-0.3364213i,0.09327451-0.5635594i,-0.3238186-0.4373809i,-0.5073681-0.06932585i,-0.3771365+0.2901561i,-0.05776204+0.432937i,0.2357629+0.3187981i,0.3510849+0.06461049i,0.2734934-0.1670053i,0.09023022-0.2749361i,-0.09503496-0.2484645i},
		{-0.7613398-1.076195i,-1.253383-0.3277302i,-1.147253+0.5430797i,-0.5204755+1.125363i,0.3092809+1.167683i,0.9531095+0.6862711i,1.138818-0.06695355i,0.8215346-0.7440796i,0.1752351-1.064612i,-0.508507-0.923009i,-0.9507139-0.4069291i,-0.9871916+0.2585107i,-0.616587+0.8034015i,0.006827603+1.010163i,0.6286885+0.7925041i,0.9879543+0.2345466i,0.9241668-0.4318658i,0.4554883-0.9174133i,-0.2175901-1.003634i,-0.797343-0.6483954i,-1.026608-0.00955172i,-0.8082455+0.6295799i,-0.2442413+0.9929174i,0.4196602+0.9321316i,0.9063131+0.4797155i,1.018493-0.176826i,0.0866899-1.066337i,-0.6036248-0.9174016i,-1.074735-0.3569558i,-1.098863+0.4056343i,-0.6199027+1.042743i,0.1886712+1.241644i,0.969771+0.8627846i,1.337378+0.0391441i,1.07522-0.8562429i,0.2705994-1.380558i,-0.7043113-1.24964i,-1.369099-0.4990453i,-1.381166+0.518359i,-0.7179185+1.304308i,0.3051042+1.467088i,1.190365+0.9203957i,1.506222-0.07324464i,1.099369-1.033498i,0.1672752-1.498418i,-0.8411303-1.247801i,-1.444376-0.4061794i,-1.359372+0.6212375i,-0.6337182+1.345811i,0.3820249+1.429216i,1.205842+0.8412614i,1.454516-0.1319323i},
		{1.138837+0.3832104i,1.092123-0.4157089i,0.5685695-0.9812241i,-0.1639754-1.088204i,-0.7804599-0.7325347i,-1.041488-0.09668969i,-0.8694686+0.5500238i,-0.3517797+0.9571043i,0.3037117+0.9719436i,0.8388259+0.5863019i,1.031883-0.05391175i,0.7867736-0.689092i,0.1893844-1.042171i,-0.5097992-0.94279i,-0.9982495-0.4186946i,-1.047817+0.3035029i,-0.6284245+0.8992437i,0.07456505+1.099122i,0.7483165+0.8138788i,1.097026+0.1701834i,0.9703673-0.5522127i,0.4215194-1.043847i,-0.3201982-1.092796i,-0.9429827-0.6686362i,-1.17593+0.06278074i,-0.9004273+0.7984516i,0.6150144+1.106828i,1.208043+0.4860452i,1.279795-0.3987276i,0.7574535-1.154389i,-0.1575862-1.413641i,-1.057483-1.013904i,-1.504712-0.09815442i,-1.245338+0.9232694i,-0.3562855+1.550628i,0.7593762+1.44122i,1.549492+0.6036636i,1.591015-0.5737262i,0.8277494-1.499473i,-0.3732862-1.685277i,-1.399043-1.018263i,-1.717136+0.1633897i,-1.168464+1.247843i,-0.05213683+1.683748i,1.047951+1.275671i,1.587244+0.2700955i,1.340837-0.8050781i,0.4866099-1.434813i,-0.5292251-1.367306i,-1.237796-0.6958808i,-1.359135+0.2344455i,-0.8895018+1.009957i},
		{-0.3294053-1.002039i,-0.8242702-0.5680771i,-0.9580433+0.03227071i,-0.7343237+0.5712978i,-0.2594287+0.8806294i,0.3059338+0.8689423i,0.7739666+0.5292825i,0.9627389-0.04202539i,0.7616575-0.6404244i,0.2091319-1.006574i,-0.4808696-0.9437618i,-0.9932005-0.4395959i,-1.067191+0.295768i,-0.6446046+0.9190312i,0.08671315+1.128578i,0.7853357+0.8215781i,1.129227+0.1421411i,0.9687009-0.5984997i,0.3832486-1.073925i,-0.3692744-1.083612i,-0.9693393-0.6257604i,-1.162678+0.1112239i,-0.856569+0.8225204i,-0.1611936+1.201105i,0.639937+1.062042i,1.19387+0.4343958i,0.6968681-1.137144i,-0.1898965-1.351195i,-1.02974-0.9395621i,-1.420513-0.06620364i,-1.155562+0.8740923i,-0.3336062+1.436685i,0.6764535+1.339311i,1.401672+0.6030102i,1.485816-0.446242i,0.863487-1.319461i,-0.1947644-1.590213i,-1.194929-1.103389i,-1.647901-0.06628555i,-1.311677+1.033128i,-0.3260982+1.655241i,0.8392015+1.479261i,1.610551+0.5754462i,1.599969-0.6188461i,0.8066879-1.515026i,-0.3790461-1.670837i,-1.373192-1.01321i,-1.691693+0.1286721i,-1.188649+1.192672i,-0.1214265+1.66421i,0.9832441+1.326299i,1.590803+0.3590301i},
		{0.6246251-1.073982i,-0.2469327-1.24105i,-1.021672-0.7733993i,-1.285396+0.1038369i,-0.8889153+0.9341005i,-0.03995579+1.280303i,0.8114746+0.9694839i,1.226598+0.1831788i,1.01599-0.6567171i,0.323973-1.128741i,-0.4758722-1.030948i,-0.9941283-0.4590281i,-1.017327+0.2779047i,-0.5831369+0.831911i,0.07388417+0.9775176i,0.6516336+0.6893494i,0.9127213+0.1242858i,0.7697415-0.4620306i,0.3053052-0.8229665i,-0.2702697-0.8166379i,-0.7077247-0.4597594i,-0.8239891+0.0817828i,-0.5809709+0.5669343i,-0.09935628+0.7885627i,0.4021043+0.6652807i,0.7106505+0.2697117i,0.4257162-0.5941313i,-0.01867493-0.7216061i,-0.445903-0.5631416i,-0.6971956-0.1843561i,-0.6770013+0.2748605i,-0.3815525+0.6415063i,0.09070466+0.7619226i,0.5576349+0.5623118i,0.8128731+0.09712072i,0.717044-0.4487495i,0.2801412-0.8260098i,-0.318311-0.8380964i,-0.7993895-0.4511337i,-0.9202095+0.1704067i,-0.6040521+0.7333369i,0.009993562+0.9604941i,0.6303845+0.7337821i,0.9580746+0.1571119i,0.8359458-0.4948467i,0.324548-0.9136275i,-0.3322025-0.9069186i,-0.8290427-0.485956i,-0.944101+0.148514i,-0.6355884+0.7073422i,-0.04993089+0.9463536i,0.5528525+0.7687712i},
		{-0.1492974-0.05139253i,-0.1555879+0.05407057i,-0.0944319+0.150151i,0.02574009+0.1936215i,0.1631174+0.1439626i,0.2429351-0.003171799i,0.1948209-0.1875753i,0.01119581-0.2988768i,-0.2211417-0.2423631i,-0.3564087-0.01660929i,-0.2831701+0.2603422i,-0.01379892+0.4110215i,0.3014521+0.3153318i,0.4593644+0.004439287i,0.3383062-0.3412451i,-0.009507339-0.4994576i,-0.3774345-0.352478i,-0.5305012+0.02632951i,-0.3586232+0.4087172i,0.04481892+0.5524185i,0.4344726+0.3574896i,0.5653521-0.06419194i,0.3496362-0.4542947i,-0.0837712-0.5693242i,-0.4675873-0.3355537i,-0.5641925+0.1026147i,0.1193021+0.5499016i,0.4707263+0.2921434i,0.5268998-0.132022i,0.2660066-0.4587871i,-0.1389792-0.4965128i,-0.4377912-0.2399593i,-0.4610677+0.1389984i,-0.2164047+0.40924i,0.1321017+0.4236518i,0.3759815+0.1971127i,0.3875301-0.1198198i,0.18265-0.341792i,-0.1050711-0.3553868i,-0.3105899-0.1720992i,-0.3286399+0.0915802i,-0.1632126+0.2854996i,0.08296872+0.3070756i,0.2680579+0.1530114i,0.2889594-0.08176783i,0.1386876-0.2578218i,-0.08864678-0.2716285i,-0.2525245-0.1185593i,-0.2524141+0.102101i,-0.09279276+0.248756i,0.118716+0.2296282i,0.2429877+0.06365681i},
		{-0.5766303+0.5871607i,-0.02367678+0.830514i,0.549798+0.6265607i,0.826774+0.08446968i,0.6575258-0.495789i,0.1440666-0.7983084i,-0.4256293-0.6711814i,-0.7478189-0.2030516i,-0.6703052+0.3418769i,-0.2609886+0.6799836i,0.2491409+0.6578835i,0.6006222+0.3159522i,0.6362494-0.1535864i,0.3645048-0.5156741i,-0.06205755-0.6065194i,-0.4302524-0.4021512i,-0.5684864-0.01896231i,-0.4241619+0.348016i,-0.08429928+0.5209888i,0.2709983+0.4265502i,0.4626348+0.1307186i,0.4069462-0.1998932i,0.1571097-0.3926551i,-0.1346669-0.3651443i,-0.3116266-0.1642275i,-0.3031983+0.07527483i,0.02224947+0.2250672i,0.1273159+0.1294011i,0.1359343+0.0230181i,0.09269227-0.03316961i,0.05837073-0.0414029i,0.05497356-0.0462025i,0.05321893-0.08129624i,0.008307391-0.1318505i,-0.08950313-0.1433832i,-0.1931765-0.0693353i,-0.2254549+0.08146503i,-0.1353189+0.2359775i,0.05676249+0.2966026i,0.2585946+0.204357i,0.3545604-0.01613229i,0.2741081-0.2604458i,0.03875772-0.397425i,-0.2417024-0.3419254i,-0.4236143-0.1056933i,-0.4051854+0.2030481i,-0.1822922+0.4320318i,0.145634+0.4616878i,0.4223757+0.2662233i,0.5099633-0.0712411i,0.3551848-0.3954554i,0.01743901-0.549356i},
		{-0.2325489-1.945522i,-1.471084-1.270035i,-1.910986+0.04878942i,-1.352357+1.284617i,-0.1479878+1.800567i,1.038987+1.394309i,1.626785+0.3571051i,1.404283-0.7472493i,0.5723903-1.406638i,-0.4285214-1.388557i,-1.158168-0.7820519i,-1.3494+0.1050175i,-0.9702575+0.8972634i,-0.2015056+1.284762i,0.635569+1.119987i,1.189599+0.4729524i,1.21635-0.3799787i,0.6969351-1.058352i,-0.1336814-1.249447i,-0.8877579-0.8672448i,-1.215997-0.1017577i,-0.9828319+0.6790792i,-0.3241014+1.119398i,0.4390674+1.045829i,0.968322+0.5287712i,1.059401-0.1793867i,0.0852531-1.02618i,-0.5500783-0.8536009i,-0.947764-0.3396156i,-0.9550127+0.3064089i,-0.5702913+0.8253379i,0.05286254+1.005261i,0.6610267+0.7671886i,1.000746+0.2024909i,0.9238135-0.4593472i,0.4518381-0.9422804i,-0.2280811-1.036446i,-0.8345094-0.6864948i,-1.10272-0.02188282i,-0.8963852+0.6843761i,-0.2777953+1.12031i,0.4992163+1.070521i,1.086363+0.5270337i,1.198468-0.2852227i,0.7591806-0.9979957i,-0.04686221-1.272382i,-0.8537731-0.9674821i,-1.288933-0.2125171i,-1.149157+0.6556383i,-0.4891038+1.250387i,0.4105612+1.304408i,1.164384+0.7766632i},
		{0.6179336-0.6881648i,0.07277531-0.9406374i,-0.5299869-0.8059442i,-0.9354008-0.3166268i,-0.9542211+0.3369248i,-0.5539474+0.8776996i,0.1145248+1.059434i,0.7709676+0.7782063i,1.120264+0.1286726i,0.9818719-0.6217081i,0.3815701-1.136319i,-0.4382013-1.156291i,-1.107326-0.6316797i,-1.292317+0.2291205i,-0.8667016+1.032929i,0.002498102+1.381567i,0.9131909+1.07606i,1.41793+0.2346583i,1.251957-0.7496121i,0.4760513-1.398871i,-0.5462774-1.38967i,-1.326082-0.7152901i,-1.487072+0.3106537i,-0.9449957+1.205248i,0.05365504+1.543601i,1.04497+1.156258i,1.338775-0.8551499i,0.4692851-1.533051i,-0.6453319-1.481771i,-1.464287-0.7069852i,-1.575521+0.4234849i,-0.9133093+1.351701i,0.1955896+1.613069i,1.195368+1.081104i,1.591631+0.0339023i,1.207211-0.9978979i,0.2609563-1.513262i,-0.7654696-1.291691i,-1.384528-0.4806415i,-1.336396+0.5081233i,-0.6861414+1.21528i,0.23911+1.343396i,1.016853+0.8685139i,1.313791+0.02660239i,1.01737-0.8002064i,0.2743006-1.247302i,-0.5745385-1.122334i,-1.142774-0.4914517i,-1.174885+0.3467134i,-0.6690709+0.9993827i,0.1215978+1.170034i,0.8181471+0.8022007i},
		{0.6084316-0.3053497i,0.2747555-0.6224452i,-0.1847177-0.6530527i,-0.5558762-0.3832461i,-0.6673526+0.05802291i,-0.4739803+0.4637024i,-0.07358475+0.6514216i,0.3481362+0.5469849i,0.6081952+0.2078861i,0.6029233-0.2142543i,0.3407059-0.5425577i,-0.0695949-0.6418504i,-0.460009-0.4656757i,-0.6623448-0.07693514i,-0.5747959+0.3653436i,-0.2165304+0.6613643i,0.2617859+0.659686i,0.6349234+0.3418927i,0.7131745-0.150867i,0.4481612-0.5794119i,-0.03306739-0.730767i,-0.4931378-0.5331135i,-0.7115529-0.09101831i,-0.5966312+0.3775874i,-0.2194294+0.6582858i,0.2379618+0.6396589i,0.6630487-0.08277339i,0.4700764-0.4737666i,0.07742253-0.6667027i,-0.3569355-0.5775218i,-0.6493183-0.2318131i,-0.6618007+0.2321183i,-0.37112+0.6088293i,0.1034717+0.7157867i,0.5433944+0.4888937i,0.7351802+0.02650965i,0.5819739-0.4525952i,0.1561837-0.7193176i,-0.3384232-0.650049i,-0.671112-0.2836573i,-0.6945401+0.2056972i,-0.4058317+0.5961677i,0.06172701+0.7172358i,0.5013591+0.5179792i,0.7191662+0.08471482i,0.6140445-0.3933254i,0.2248247-0.700096i,-0.2773382-0.6876027i,-0.658787-0.3511809i,-0.7331707+0.1568591i,-0.4587183+0.5939013i,0.03386652+0.7474396i},
		{-0.4181284-0.08801577i,-0.3372408+0.2590605i,-0.01994625+0.4212241i,0.3062599+0.2824495i,0.4064802-0.05371797i,0.213937-0.3401197i,-0.1218417-0.3724527i,-0.3530127-0.1407274i,-0.3227465+0.1727165i,-0.07491134+0.3416368i,0.1970347+0.265974i,0.3085074+0.02896445i,0.2141377-0.1905855i,0.0125483-0.2618967i,-0.1558024-0.1797858i,-0.2140964-0.02974169i,-0.1727164+0.1015904i,-0.07757968+0.1784114i,0.04136593+0.197197i,0.1657031+0.1464204i,0.2505497+0.01020823i,0.2221189-0.1814703i,0.04090404-0.3235625i,-0.224316-0.2894375i,-0.4026425-0.04398854i,-0.3357465+0.2862446i,0.3546948+0.3539767i,0.5227081-0.02454011i,0.3440233-0.4157102i,-0.07726245-0.5443323i,-0.4573352-0.312268i,-0.5372987+0.1250812i,-0.2694477+0.4722922i,0.1565835+0.5068545i,0.4592497+0.2275668i,0.4622166-0.1648111i,0.1967903-0.4224411i,-0.1484175-0.4138068i,-0.3698965-0.1831951i,-0.370553+0.1112094i,-0.1879316+0.3109441i,0.06039188+0.3380328i,0.2538058+0.2078754i,0.3179086-0.004204263i,0.2373712-0.2040065i,0.05023665-0.3086498i,-0.163978-0.270364i,-0.3071153-0.0982262i,-0.3021525+0.1337973i,-0.1375995+0.3103099i,0.1125999+0.3302037i,0.3166275+0.1678505i},
		{2.322335+1.070443i,2.495623-0.6653008i,1.501691-2.127126i,-0.2176477-2.60863i,-1.849423-1.859454i,-2.607167-0.2307056i,-2.131442+1.49216i,-0.6700194+2.48825i,1.062341+2.311925i,2.256788+1.091673i,2.401098-0.5723537i,1.486657-1.925493i,-0.04054674-2.403531i,-1.513617-1.844224i,-2.326165-0.5092699i,-2.151212+1.044765i,-1.049444+2.176412i,0.5442403+2.392376i,1.960872+1.55099i,2.551769-0.03647829i,1.986524-1.684987i,0.4569168-2.614909i,-1.353641-2.333026i,-2.571234-0.9182296i,-2.573925+0.9724317i,-1.333745+2.416238i,2.152791+1.693129i,2.710064-0.09486193i,1.988455-1.791328i,0.3755322-2.608524i,-1.348932-2.213295i,-2.405339-0.8438795i,-2.362197+0.847576i,-1.289949+2.113673i,0.3119645+2.430685i,1.748684+1.69316i,2.415726+0.2325439i,2.034363-1.326619i,0.7615927-2.316433i,-0.8643547-2.297319i,-2.134732-1.252905i,-2.469648+0.3792078i,-1.686852+1.875714i,-0.1112369+2.543203i,1.547566+2.046728i,2.514039+0.5894895i,2.318998-1.1611i,1.038801-2.382201i,-0.7290736-2.493699i,-2.151579-1.444007i,-2.565015+0.2655381i,-1.792364+1.82997i},
		{-0.07045684-0.2010167i,-0.1686228-0.1115077i,-0.1942453+0.01399362i,-0.1398995+0.1277051i,-0.02747251+0.1828282i,0.09356508+0.1538731i,0.1656554+0.05427218i,0.1538134-0.06541947i,0.06747134-0.1432713i,-0.04342375-0.1413838i,-0.1175491-0.06793671i,-0.1185491+0.02879831i,-0.05578558+0.09088131i,0.02336133+0.0867276i,0.06522697+0.03041983i,0.04640291-0.02867446i,-0.008885303-0.04139786i,-0.04515216+0.002655978i,-0.01887395+0.06208196i,0.06065495+0.07150233i,0.1275098-0.003764012i,0.1047496-0.1268072i,-0.02792918-0.2014804i,-0.1985336-0.140886i,-0.2785134+0.05398158i,-0.1759634+0.2711906i,0.33852+0.2072731i,0.4166876-0.103822i,0.2341971-0.3937699i,-0.1191694-0.4677137i,-0.4311966-0.2584065i,-0.5038708+0.1213086i,-0.283278+0.4474964i,0.1063547+0.5266429i,0.4427059+0.3126631i,0.5397798-0.0730802i,0.349371-0.4202487i,-0.02366406-0.5479511i,-0.3860655-0.3938468i,-0.555114-0.03645837i,-0.4434916+0.3470546i,-0.09965476+0.5631067i,0.3092741+0.4928832i,0.5709189+0.1577901i,0.5348788-0.276444i,0.204076-0.5748876i,-0.2491922-0.5622984i,-0.5697668-0.2345419i,-0.5697013+0.2252577i,-0.2487111+0.5503477i,0.200563+0.5547364i,0.5131294+0.249312i},
		{-0.04584352+0.2641199i,0.1810463+0.2123251i,0.2881039-0.001172384i,0.191857-0.2240241i,-0.04144104-0.296507i,-0.2492223-0.16959i,-0.2939425+0.06668265i,-0.1546817+0.2568325i,0.07297795+0.2883844i,0.252064+0.1540731i,0.2882492-0.06184291i,0.1701674-0.2430766i,-0.03950218-0.2993739i,-0.2379783-0.2000417i,-0.3229069+0.01462508i,-0.2364395+0.2419103i,-0.004695217+0.3548146i,0.2552078+0.2701947i,0.3871621+0.01368729i,0.2932552-0.273257i,0.01243986-0.4107303i,-0.2880954-0.3012806i,-0.4180796-0.005716354i,-0.2949425+0.2912072i,-0.001120294+0.4060281i,0.276561+0.2794994i,0.262809-0.2428523i,0.02582522-0.3368666i,-0.1941833-0.2524728i,-0.2956104-0.05978199i,-0.2530971+0.138942i,-0.1029946+0.2614406i,0.08725053+0.2646168i,0.2395113+0.1467398i,0.2822623-0.0478416i,0.1814187-0.2300885i,-0.0254085-0.2981883i,-0.228712-0.1996261i,-0.3042179+0.01931886i,-0.1985359+0.2280039i,0.02411721+0.2947708i,0.2204984+0.1807967i,0.2689717-0.03163862i,0.1536277-0.2015203i,-0.03401184-0.2312082i,-0.1711189-0.1264095i,-0.1899224+0.02653026i,-0.1075694+0.1343775i,0.009413748+0.1550156i,0.09997009+0.1017976i,0.1347183+0.01214184i,0.1085258-0.07743075i},
		{-0.1532826+0.5587236i,0.2408927+0.4678941i,0.4385734+0.1663353i,0.3844244-0.1420317i,0.1761195-0.3038717i,-0.03857558-0.294021i,-0.1680143-0.1847215i,-0.2064813-0.0592131i,-0.189256+0.04513439i,-0.1382068+0.1273709i,-0.05328216+0.1822439i,0.05667742+0.185595i,0.1537484+0.1211553i,0.1923536+0.01067291i,0.159052-0.09465911i,0.0825509-0.1559147i,-0.0001033218-0.1734886i,-0.08117027-0.1663124i,-0.1744903-0.1281198i,-0.2655017-0.02055267i,-0.2809071+0.1721642i,-0.1342757+0.3776525i,0.1733627+0.4432974i,0.4939337+0.2450915i,0.5976188-0.1794849i,0.3417139-0.6008049i,-0.683206-0.4188029i,-0.821072+0.1844912i,-0.4774106+0.728317i,0.1646017+0.8738679i,0.7287501+0.5234944i,0.8882618-0.1184336i,0.5650519-0.684223i,-0.04281041-0.8720735i,-0.6012623-0.6088571i,-0.835447-0.05935284i,-0.6578696+0.4911093i,-0.1796293+0.7875531i,0.3665674+0.7101287i,0.7341051+0.3062609i,0.7594252-0.2388293i,0.427179-0.6764283i,-0.1152772-0.7974383i,-0.6122702-0.532859i,-0.8165397-0.001120373i,-0.6180966+0.5379307i,-0.1107665+0.812269i,0.4508613+0.6821981i,0.7846339+0.215261i,0.727639-0.3517442i,0.3149834-0.7378207i,-0.2452804-0.7577801i},
		{-0.05860308+1.20023i,0.7568839+0.950464i,1.204818+0.216697i,1.054032-0.633595i,0.3777896-1.173311i,-0.4864973-1.133095i,-1.109504-0.5345525i,-1.184642+0.3236682i,-0.6790008+1.016672i,0.1527054+1.205287i,0.8976023+0.8039115i,1.192459+0.01988713i,0.9038502-0.7553101i,0.1885325-1.145551i,-0.5940625-0.9754871i,-1.066566-0.3478378i,-1.017172+0.4201881i,-0.4917154+0.9599817i,0.2422365+1.028027i,0.8318742+0.6128772i,1.007015-0.07027347i,0.7030811-0.6885839i,0.08557542-0.9524478i,-0.5354208-0.7542304i,-0.8622413-0.2169258i,-0.7600889+0.3758888i,0.2117514+0.7180949i,0.5713015+0.389934i,0.6306565-0.04396299i,0.4334226-0.3756422i,0.1258279-0.5054038i,-0.1568396-0.4543632i,-0.3541806-0.2937377i,-0.458263-0.07192795i,-0.452668+0.1909399i,-0.2945525+0.4488338i,0.02907565+0.5923442i,0.4265412+0.4943369i,0.7005259+0.1210796i,0.6567352-0.3883151i,0.2538834-0.7651584i,-0.3285603-0.7717765i,-0.7769113-0.3686844i,-0.8355189+0.2411924i,-0.4687394+0.7313934i,0.1220849+0.850144i,0.6303973+0.5591048i,0.822692+0.02882352i,0.6441629-0.4817992i,0.2064117-0.7628269i,-0.298133-0.7255371i,-0.6802881-0.4005986i},
		{0.271259+0.4011698i,0.4449507+0.142865i,0.4287548-0.1548246i,0.2433106-0.3791752i,-0.03842107-0.4494339i,-0.3103248-0.3346149i,-0.459425-0.0699288i,-0.4088908+0.2402813i,-0.1646327+0.454375i,0.1691135+0.4602919i,0.4308265+0.2429043i,0.4859777-0.09610652i,0.3043271-0.3874534i,-0.02098008-0.4862503i,-0.325664-0.349848i,-0.4638886-0.05515865i,-0.3806059+0.2493933i,-0.1294659+0.4229587i,0.1641802+0.3970258i,0.3675325+0.1977293i,0.3984842-0.07586164i,0.2553067-0.3007459i,0.01066454-0.3836294i,-0.2244903-0.298287i,-0.3511999-0.09219591i,-0.3244534+0.1397888i,0.04765987+0.3337001i,0.2346467+0.2355347i,0.3277573+0.04990617i,0.2966951-0.1557494i,0.1492776-0.3093241i,-0.06945297-0.3495083i,-0.2809288-0.2451303i,-0.3912036-0.01857935i,-0.3311072+0.2439377i,-0.1033885+0.4176265i,0.1980948+0.4010188i,0.4241112+0.1817403i,0.4502084-0.1417934i,0.2525781-0.406832i,-0.07302849-0.4766259i,-0.3641936-0.3167262i,-0.481228-0.009268554i,-0.3759172+0.297783i,-0.1039654+0.4675406i,0.2125252+0.4314592i,0.4404941+0.2069896i,0.4829968-0.1159346i,0.3114226-0.4048909i,-0.01664304-0.5278143i,-0.3639981-0.4084777i,-0.5609659-0.07737611i},
		{-1.36926-0.07412406i,-1.128531+0.818855i,-0.3621491+1.372022i,0.6023876+1.31264i,1.323292+0.6378667i,1.447767-0.3618774i,0.8910053-1.223344i,-0.1050614-1.528215i,-1.074854-1.112839i,-1.551122-0.1596419i,-1.296101+0.8829791i,-0.4230986+1.516292i,0.6550962+1.434829i,1.425811+0.6756639i,1.524301-0.4002612i,0.9076352-1.283621i,-0.1285433-1.561143i,-1.095188-1.109869i,-1.543619-0.1496022i,-1.274417+0.8673649i,-0.4237915+1.472008i,0.6083907+1.395035i,1.348908+0.683958i,1.46744-0.3279432i,0.9204369-1.17934i,-0.0370688-1.489315i,-1.460106-0.2521331i,-1.286065+0.731432i,-0.5271296+1.380748i,0.4719459+1.39893i,1.253458+0.7758228i,1.456462-0.2022195i,0.9875167-1.081685i,0.068009-1.454741i,-0.8702638-1.153777i,-1.392743-0.3297667i,-1.268991+0.6256737i,-0.5749028+1.272789i,0.3562899+1.330504i,1.100609+0.7959065i,1.338335-0.07244541i,0.9856371-0.8849581i,0.213827-1.29457i,-0.6368054-1.137151i,-1.202639-0.4894317i,-1.243784+0.3682674i,-0.7411751+1.066693i,0.09148883+1.299551i,0.8912499+0.9569046i,1.299838+0.1822936i,1.126604-0.6811966i,0.4433345-1.242207i},
		{-0.564453-0.007301602i,-0.4369118+0.3563593i,-0.1078316+0.5526079i,0.268662+0.4945692i,0.522463+0.2124578i,0.5423688-0.1666247i,0.3190752-0.4767688i,-0.05453178-0.5808561i,-0.419436-0.4244509i,-0.6103089-0.06192575i,-0.5242028+0.3548069i,-0.1762868+0.6303267i,0.2869524+0.6131333i,0.6397378+0.2821051i,0.6858445-0.2191728i,0.3736921-0.636847i,-0.1538095-0.737479i,-0.6199368-0.4466545i,-0.7644012+0.0923705i,-0.4981311+0.5878618i,0.03587667+0.7646586i,0.5405498+0.5267304i,0.7381296+0.01473091i,0.5322564-0.4792569i,0.05828825-0.6863608i,-0.4065059-0.5153626i,-0.4772764+0.3257433i,-0.1182493+0.5192701i,0.2408385+0.4196828i,0.4117258+0.1316627i,0.3447802-0.155595i,0.1327748-0.2938979i,-0.07342253-0.2554341i,-0.1703251-0.1216492i,-0.1553061-0.002751981i,-0.09923527+0.045807i,-0.07035998+0.04883422i,-0.07454777+0.06714337i,-0.05900612+0.1269649i,0.02724103+0.1854135i,0.1700872+0.1631489i,0.2815453+0.01878041i,0.2589917-0.1972127i,0.0697069-0.3582603i,-0.2060411-0.3429072i,-0.4119955-0.1248517i,-0.4125569+0.1949325i,-0.1838248+0.4407836i,0.1634194+0.4669097i,0.4444941+0.2460937i,0.5059539-0.1126118i,0.3104874-0.4247449i},
		{0.2820986+1.900352i,1.444597+1.246442i,1.890231-0.0003210353i,1.413208-1.220425i,0.2689379-1.818962i,-0.9644005-1.525506i,-1.687827-0.5190588i,-1.581444+0.6832491i,-0.7442217+1.502351i,0.3863641+1.582234i,1.271783+0.9384719i,1.531008-0.08574554i,1.095153-1.007919i,0.2047964-1.431643i,-0.7235941-1.206983i,-1.288001-0.4710068i,-1.266809+0.4312855i,-0.6997726+1.103804i,0.1421705+1.268849i,0.8831543+0.8805207i,1.210049+0.1341693i,1.006085-0.6314218i,0.3894563-1.091117i,-0.3561267-1.072883i,-0.9169099-0.6160973i,-1.080451+0.06739384i,-0.2222834+1.030597i,0.4397829+0.9533556i,0.9265042+0.4990132i,1.048987-0.1606304i,0.7490023-0.7721182i,0.1291381-1.087216i,-0.5720139-0.9601911i,-1.064039-0.4184554i,-1.123588+0.3317388i,-0.6978353+0.9788263i,0.05844177+1.233953i,0.8349929+0.9591126i,1.289683+0.2385348i,1.194785-0.6399633i,0.5474377-1.292003i,-0.4043883-1.397324i,-1.243795-0.8544931i,-1.558835+0.1407821i,-1.144941+1.148468i,-0.1380654+1.671304i,1.009274+1.404526i,1.727465+0.4204795i,1.621095-0.8292758i,0.6967359-1.722069i,-0.6119525-1.785878i,-1.653171-0.9591675i},
		{-0.1612349+0.4981699i,0.2177775+0.4962291i,0.51124+0.232884i,0.5553535-0.1762198i,0.3013655-0.5229057i,-0.138644-0.6076218i,-0.5310836-0.357859i,-0.6446216+0.1082268i,-0.3953452+0.5306002i,0.08425783+0.6580819i,0.5143505+0.4105543i,0.6421626-0.06219951i,0.405029-0.4753455i,-0.03498872-0.595386i,-0.4090658-0.3848958i,-0.521575-0.004742402i,-0.3593289+0.315394i,-0.06216443+0.4294351i,0.1995029+0.3381011i,0.3308297+0.1382182i,0.3289148-0.07137092i,0.2286817-0.2382001i,0.05599027-0.3352869i,-0.1618434-0.3246457i,-0.3556036-0.1691282i,-0.4142875+0.1078069i,0.07696567+0.4854546i,0.4101794+0.3123282i,0.5283355-0.06549045i,0.3339957-0.4258109i,-0.06650272-0.5374891i,-0.4231518-0.325186i,-0.512715+0.07237403i,-0.2925878+0.3988046i,0.07696718+0.4585998i,0.3539707+0.2441222i,0.3829719-0.07717431i,0.186877-0.2938246i,-0.07336017-0.2948022i,-0.2259124-0.1257011i,-0.2022146+0.06868284i,-0.06280011+0.1581404i,0.06761888+0.1111747i,0.09700336-0.001674124i,0.02516046-0.07425385i,-0.06838041-0.04656889i,-0.09093483+0.05424507i,-0.008435563+0.137433i,0.1262136+0.1177146i,0.2074783-0.01747577i,0.152707-0.1895284i,-0.03172616-0.275556i},
		{-0.5457665-1.421132i,-1.34438-0.6903306i,-1.445277+0.3792462i,-0.8092558+1.22813i,0.2135177+1.425142i,1.082482+0.8964171i,1.36385-0.05083105i,0.9529928-0.913363i,0.1041545-1.267857i,-0.7302199-0.9799457i,-1.144889-0.2442261i,-0.9768846+0.5441875i,-0.3607004+1.002003i,0.3658293+0.9420421i,0.8444307+0.4453658i,0.8733563-0.2032148i,0.4925929-0.6755826i,-0.06097743-0.7702181i,-0.4981085-0.500847i,-0.6351733-0.05936224i,-0.4730271+0.3155371i,-0.1579811+0.4748587i,0.1337738+0.4154653i,0.2996989+0.2348153i,0.3358911+0.03823191i,0.2878732-0.1223243i,0.04486954-0.3125022i,-0.1347863-0.306582i,-0.3019881-0.1922701i,-0.3804983+0.01735556i,-0.3148752+0.2493931i,-0.113859+0.4047735i,0.1500854+0.4127783i,0.3792642+0.2623055i,0.4901171-0.004128153i,0.4296307-0.3099004i,0.1823059-0.5527956i,-0.2073092-0.6133249i,-0.6057009-0.3970512i,-0.8054848+0.08423783i,-0.62368+0.650318i,-0.04746905+0.9931893i,0.6835334+0.8444153i,1.160481+0.1794367i,1.043416-0.6980461i,0.3081045-1.291428i,-0.6842988-1.2095i,-1.3734-0.4344668i,-1.33754+0.6333549i,-0.562337+1.399623i,0.5398477+1.4282i,1.370282+0.6957273i},
		{-1.048515-0.4960981i,-1.126384+0.3583944i,-0.583746+1.041629i,0.2860825+1.160801i,0.9940001+0.6479136i,1.150444-0.1992106i,0.6934269-0.9045292i,-0.09486368-1.100528i,-0.7776346-0.7264091i,-1.020292-0.02612577i,-0.7521075+0.6228994i,-0.1584132+0.9208746i,0.4535452+0.7731188i,0.8129367+0.2925777i,0.7885217-0.2841157i,0.4166681-0.7046812i,-0.1279719-0.7941447i,-0.6007637-0.5184418i,-0.7838508-0.004763108i,-0.5876858+0.5023053i,-0.1083243+0.7514204i,0.4078869+0.6180043i,0.6924521+0.1813005i,0.6076403-0.3151233i,0.2256516-0.6057319i,-0.2222767-0.5592129i,-0.4785738+0.1294101i,-0.2438844+0.3621057i,0.03878097+0.3732305i,0.2186693+0.2249945i,0.2508555+0.04555061i,0.1904141-0.07187492i,0.1186642-0.1182977i,0.07034808-0.1410992i,0.01871523-0.1758805i,-0.07778955-0.2013098i,-0.2136241-0.1552721i,-0.3156499+0.001809507i,-0.286672+0.2297794i,-0.08445138+0.4089564i,0.2234922+0.4079086i,0.4772294+0.1775973i,0.5135735-0.1945949i,0.2738095-0.5165512i,-0.1429821-0.5983169i,-0.52323-0.3697156i,-0.6577632+0.06828669i,-0.463173+0.4944795i,-0.0299079+0.6895666i,0.429459+0.5536011i,0.6941929+0.1513047i,0.6416494-0.3303137i},
		{0.3522466+0.8804799i,0.8612345+0.4616219i,0.9813832-0.207584i,0.6294864-0.810638i,-0.04504098-1.046122i,-0.7241859-0.781501i,-1.073879-0.1275101i,-0.911016+0.6072542i,-0.3012936+1.06365i,0.4652603+1.011155i,1.014533+0.4680207i,1.076139-0.3032067i,0.6209123-0.926598i,-0.1259117-1.102521i,-0.801976-0.7550549i,-1.089896-0.061267i,-0.8670508+0.6456769i,-0.2516183+1.040827i,0.4657343+0.9541922i,0.9599922+0.4366276i,1.013569-0.2724911i,0.6062324-0.8528681i,-0.07714882-1.041549i,-0.7243866-0.7498671i,-1.033932-0.1100266i,-0.8580867+0.5780658i,0.4159263+0.9243173i,0.8980835+0.4323549i,0.9461889-0.2392524i,0.5621794-0.7686442i,-0.04994238-0.9259955i,-0.6036301-0.6719701i,-0.8700765-0.1480306i,-0.7634086+0.4124154i,-0.3476022+0.7872425i,0.207722+0.8368794i,0.6866708+0.5384902i,0.890237-0.003815263i,0.7081305-0.5758749i,0.1857534-0.9185679i,-0.4593354-0.8435141i,-0.9150773-0.3502652i,-0.9334569+0.3381893i,-0.4832425+0.8728729i,0.2110427+0.9706825i,0.7871209+0.5827796i,0.953132-0.0756312i,0.6507494-0.6569275i,0.06921279-0.8841408i,-0.4863729-0.6911733i,-0.7714604-0.2219124i,-0.7082896+0.2843875i},
		{-1.390262-0.528928i,-1.372023+0.4796074i,-0.7270249+1.223442i,0.2251572+1.378317i,1.041459+0.8947029i,1.351074+0.01154407i,1.02059-0.8517179i,0.2186843-1.287256i,-0.6592506-1.095499i,-1.18439-0.3881437i,-1.113942+0.4672302i,-0.5157403+1.042021i,0.2780741+1.07494i,0.8628477+0.6006004i,0.981913-0.09471869i,0.6439406-0.6531754i,0.0783972-0.841766i,-0.4225438-0.6477111i,-0.6634606-0.2349911i,-0.6135641+0.182629i,-0.367371+0.4565459i,-0.05425392+0.5424731i,0.2300654+0.4675183i,0.4350856+0.2766222i,0.5284821+0.007894902i,0.4748836-0.2926263i,-0.1179667-0.6417588i,-0.5175033-0.4890545i,-0.7720779-0.08358207i,-0.7172888+0.445682i,-0.3040965+0.8621784i,0.3343542+0.9260643i,0.9092587+0.5336111i,1.106114-0.1892065i,0.7612855-0.9110272i,-0.01641564-1.248414i,-0.8658555-0.9768124i,-1.345442-0.178023i,-1.171625+0.7734183i,-0.3884017+1.392425i,0.6355923+1.339538i,1.388171+0.6088674i,1.476667-0.4572507i,0.8326982-1.3352i,-0.2465845-1.580715i,-1.239074-1.051669i,-1.649958+0.01471101i,-1.255878+1.10715i,-0.2254422+1.682342i,0.9470909+1.434264i,1.675102+0.4607555i,1.575789-0.7656255i},
		{-0.2321075-0.3794297i,-0.4498751-0.1455917i,-0.4604678+0.1905474i,-0.2394263+0.4642938i,0.1213967+0.5322967i,0.4545946+0.3433599i,0.5930077-0.03173144i,0.4500946-0.4239978i,0.0710531-0.6388497i,-0.3743217-0.5515639i,-0.6650147-0.1806692i,-0.6405234+0.3059267i,-0.2927587+0.6669297i,0.2183911+0.7118358i,0.6416175+0.4049154i,0.7630748-0.1116328i,0.5159866-0.588676i,0.0129526-0.7943191i,-0.5105653-0.6249694i,-0.8072709-0.1517565i,-0.7299438+0.4121302i,-0.2988992+0.8040615i,0.2995454+0.8274546i,0.7861912+0.4468836i,0.9125883-0.1790536i,0.5877555-0.7539898i,-0.7067812-0.7143934i,-1.02381-0.06603429i,-0.8215176+0.6436778i,-0.1842917+1.041454i,0.5646959+0.906108i,1.031903+0.2968532i,0.967132-0.4717591i,0.4012949-0.9971244i,-0.3691844-1.004724i,-0.9412118-0.4939854i,-1.019152+0.2634157i,-0.5698513+0.869232i,0.1620248+1.009987i,0.7859048+0.6228595i,0.9758155-0.07225885i,0.647136-0.6945738i,0.0004228398-0.9146617i,-0.5968217-0.6384051i,-0.825002-0.05335923i,-0.5952992+0.4928663i,-0.08691661+0.7070549i,0.3825947+0.5200996i,0.5638867+0.1038594i,0.4186301-0.2668702i,0.108064-0.4019116i,-0.1486306-0.299282i},
		{-0.6154882-0.468644i,-0.8226835+0.01651943i,-0.6678146+0.5645099i,-0.1639081+0.9122171i,0.4877008+0.8483585i,0.9685094+0.3452975i,1.001759-0.3885345i,0.5188895-0.9879848i,-0.2705227-1.119217i,-0.9666869-0.6764336i,-1.19261+0.1359694i,-0.8118386+0.900523i,-0.01463737+1.216117i,0.7864409+0.9225231i,1.188002+0.1822084i,1.009872-0.6242418i,0.3676029-1.111875i,-0.4184176-1.078472i,-0.9968367-0.5695514i,-1.13423+0.1792849i,-0.782656+0.8562482i,-0.07717176+1.181854i,0.7052891+0.9962437i,1.222503+0.3309785i,1.194653-0.5578773i,0.5611352-1.252373i,-1.262802-0.7492001i,-1.471001+0.3067983i,-0.8825821+1.242025i,0.2044609+1.515417i,1.17819+0.9566472i,1.484607-0.1095921i,0.9750372-1.06287i,-0.01313511-1.37983i,-0.8940845-0.9480882i,-1.211393-0.09242397i,-0.8897769+0.6779538i,-0.2100579+0.9967107i,0.428479+0.8140408i,0.7569129+0.3364879i,0.7314914-0.1654567i,0.4622538-0.5128989i,0.08892571-0.6473987i,-0.2818658-0.5735306i,-0.5614198-0.3139131i,-0.6551477+0.07515547i,-0.4934409+0.4690122i,-0.1021649+0.6939344i,0.3639697+0.6180573i,0.6814663+0.2501093i,0.6851768-0.2412281i,0.3715461-0.6155207i},
		{0.9348553+0.6673555i,1.133031-0.08684863i,0.8034377-0.7808972i,0.1185692-1.095437i,-0.593358-0.9047854i,-1.013022-0.319847i,-0.9714077+0.382702i,-0.5081718+0.8938016i,0.1617628+1.001958i,0.7455592+0.6726385i,0.9934316+0.05642398i,0.8019804-0.5744676i,0.2606803-0.9419481i,-0.3847232-0.8867i,-0.8443569-0.4430278i,-0.9209419+0.1792489i,-0.5989552+0.7001109i,-0.03886035+0.9035307i,0.5127425+0.7266257i,0.8378682+0.2647417i,0.8253995-0.2903932i,0.4906751-0.7307595i,-0.04515042-0.8942732i,-0.590581-0.7059896i,-0.9308562-0.208662i,-0.8981133+0.4254116i,0.2417365+1.054516i,0.8912573+0.686977i,1.164974-0.04412011i,0.8907816-0.8075366i,0.1641098-1.223457i,-0.679919-1.063411i,-1.229043-0.3794848i,-1.203076+0.512441i,-0.5968976+1.185596i,0.3136715+1.309364i,1.100313+0.8086074i,1.381536-0.09579887i,1.004205-0.9816422i,0.1272549-1.417379i,-0.8372471-1.171673i,-1.413049-0.3421616i,-1.299286+0.6726676i,-0.5382733+1.363998i,0.4910785+1.377813i,1.2667+0.7088659i,1.402351-0.2941656i,0.8512076-1.120584i,-0.08375695-1.373207i,-0.929502-0.9655007i,-1.295571-0.13641i,-1.053111+0.7021891i},
		{-0.991353-1.040096i,-1.395739-0.1803727i,-1.17269+0.7244455i,-0.4434331+1.273276i,0.4467396+1.237758i,1.095421+0.664427i,1.234364-0.1615173i,0.8418533-0.8672609i,0.1246397-1.168004i,-0.6005507-0.9749491i,-1.047929-0.4005069i,-1.061205+0.311794i,-0.6508258+0.883895i,0.01895044+1.095325i,0.6835638+0.8587642i,1.070085+0.262131i,1.00946-0.4514508i,0.5203627-0.9788541i,-0.1897796-1.093468i,-0.8188752-0.7502913i,-1.108928-0.09913931i,-0.9509557+0.5940987i,-0.409954+1.061674i,0.3164458+1.123205i,0.9631834+0.7319447i,1.266497-0.004869915i,0.3176842-1.376414i,-0.6649004-1.337888i,-1.443901-0.6286018i,-1.578079+0.4837538i,-0.9099144+1.456656i,0.2847174+1.749704i,1.402376+1.151278i,1.840829-0.06449094i,1.350689-1.272855i,0.1814165-1.849288i,-1.067632-1.512719i,-1.782758-0.4546268i,-1.644883+0.7959238i,-0.7504209+1.656354i,0.4761178+1.753326i,1.488487+1.056093i,1.83928-0.1328417i,1.351792-1.296209i,0.2075904-1.897458i,-1.091486-1.613714i,-1.916938-0.5220483i,-1.818745+0.8794944i,-0.7943659+1.884262i,0.6593757+1.949183i,1.787769+1.016986i,1.996152-0.4270962i},
		{0.6217199+0.1888314i,0.6092808-0.28872i,0.2673823-0.6408764i,-0.2322943-0.6722277i,-0.6315318-0.3577764i,-0.7245088+0.1484399i,-0.4594739+0.5975187i,0.04201411+0.7684592i,0.544827+0.569247i,0.8052917+0.07902726i,0.6808113-0.4799936i,0.20492-0.8339489i,-0.4084027-0.7854145i,-0.850762-0.325923i,-0.8732933+0.3330393i,-0.4341694+0.8500946i,0.2541019+0.9356228i,0.8258348+0.5249968i,0.9664115-0.1696113i,0.5973697-0.7733096i,-0.0768268-0.9637888i,-0.6910448-0.6532884i,-0.9303059-0.02598148i,-0.6963872+0.5818171i,-0.13798+0.8721617i,0.4526517+0.7301798i,0.7565075-0.3137313i,0.3695029-0.7148578i,-0.1765122-0.774677i,-0.6305495-0.4722461i,-0.7815465+0.05158263i,-0.5536525+0.5484756i,-0.05313753+0.7725154i,0.4696211+0.6060013i,0.7430805+0.1333732i,0.624879-0.3929812i,0.1884387-0.6904502i,-0.3169654-0.6098134i,-0.6146952-0.2202717i,-0.56391+0.2408506i,-0.2319575+0.5190817i,0.1657751+0.4926813i,0.4095064+0.22628i,0.4024979-0.09494621i,0.2047879-0.293252i,-0.03302158-0.2991839i,-0.1774953-0.1676501i,-0.1871929-0.01508424i,-0.1142793+0.06806269i,-0.04552312+0.06956851i,-0.03118181+0.04442153i,-0.05139817+0.05648763i},
		{1.199186-0.9605424i,0.30208-1.497838i,-0.7252449-1.342262i,-1.42033-0.5684582i,-1.462976+0.4792742i,-0.8148224+1.321035i,0.2398521+1.546073i,1.198014+1.019938i,1.575284-0.01654047i,1.169527-1.044551i,0.1892861-1.538439i,-0.853287-1.259057i,-1.431724-0.3821018i,-1.293571+0.620995i,-0.5679175+1.261643i,0.3522683+1.284681i,1.043976+0.7495505i,1.245775-0.06079402i,0.9231754-0.8000429i,0.2323299-1.187097i,-0.5514812-1.077409i,-1.112363-0.5027708i,-1.195321+0.3152282i,-0.7283261+1.018073i,0.1003212+1.25877i,0.8957252+0.8937752i,0.9936811-0.7361605i,0.2683142-1.17428i,-0.534516-1.032293i,-1.025647-0.4337116i,-1.020658+0.2940656i,-0.59202+0.8224409i,0.02757378+0.9719704i,0.5855036+0.7399477i,0.8967656+0.2443796i,0.8667411-0.3366286i,0.4976377-0.7995766i,-0.09347106-0.9562556i,-0.678183-0.7099504i,-0.9913033-0.1338263i,-0.8659696+0.5256724i,-0.3432563+0.9588691i,0.3345816+0.9601831i,0.8544747+0.53872i,0.9968967-0.1016573i,0.7258162-0.6842347i,0.1684476-0.9873528i,-0.4638952-0.9071795i,-0.9450161-0.4618894i,-1.079051+0.2151387i,-0.7573097+0.8806511i,-0.03966886+1.23034i},
		{-0.2613359+0.9205931i,0.3757591+0.8573971i,0.8149509+0.4134129i,0.8691218-0.1916596i,0.5366734-0.6779845i,-0.009667684-0.837858i,-0.5146782-0.6252654i,-0.7636417-0.1628249i,-0.6747773+0.3304977i,-0.3193584+0.6479991i,0.1312626+0.6827627i,0.4942519+0.4547616i,0.6491178+0.07680681i,0.5652535-0.3077756i,0.2869402-0.5761867i,-0.09606832-0.6482908i,-0.4685333-0.4916875i,-0.7022407-0.1314774i,-0.6829399+0.3324004i,-0.3641381+0.726011i,0.1749664+0.8521982i,0.7187809+0.5907021i,0.99111-0.003561396i,0.8004508-0.679943i,0.1749772-1.092212i,-0.6092984-0.9840903i,-1.134445+0.5074598i,-0.5304641+1.160323i,0.3763429+1.246787i,1.123417+0.6979271i,1.318764-0.2195849i,0.8529008-1.041347i,-0.04273522-1.349997i,-0.9189718-0.9910874i,-1.34151-0.1468812i,-1.107858+0.7630538i,-0.3406372+1.29517i,0.5814745+1.198342i,1.213307+0.5293297i,1.257818-0.3824934i,0.7040062-1.098598i,-0.1741889-1.282294i,-0.9542068-0.8567169i,-1.26914-0.03584296i,-0.9810483+0.7840733i,-0.2405452+1.217586i,0.5932096+1.072371i,1.128965+0.4333068i,1.127816-0.3878478i,0.6078492-1.00665i,-0.1753504-1.146081i,-0.8557309-0.7582121i},
		{0.02038017+0.3150943i,0.2325876+0.2135354i,0.311876-0.006458955i,0.2160406-0.2145743i,0.009365357-0.2935882i,-0.1844014-0.2110072i,-0.2630622-0.02956982i,-0.202464+0.1434899i,-0.05512899+0.2249837i,0.0956153+0.1940778i,0.1848887+0.08480392i,0.1880068-0.04636946i,0.1150402-0.1478691i,-0.00206257-0.1841551i,-0.1173586-0.1405647i,-0.1800887-0.03165194i,-0.155557+0.0943622i,-0.05104939+0.171675i,0.07736948+0.1550877i,0.1542879+0.05514081i,0.1364237-0.06298555i,0.04578463-0.1242414i,-0.04709847-0.0998276i,-0.08003403-0.02707596i,-0.04862253+0.0262371i,-0.004197729+0.02304101i,-0.04254841-0.01792938i,-0.07368986+0.03474027i,-0.03581306+0.110524i,0.07112448+0.1314272i,0.1739409+0.04805709i,0.1797022-0.105854i,0.05537941-0.2265254i,-0.1339294-0.2157613i,-0.2638108-0.06003337i,-0.2391609+0.1511216i,-0.06486174+0.2837191i,0.1548647+0.2512343i,0.2864903+0.07230985i,0.2542058-0.1446234i,0.08370978-0.2740707i,-0.1216855-0.250283i,-0.249227-0.09903318i,-0.2410254+0.08852017i,-0.117136+0.2147118i,0.04796984+0.2271631i,0.1727509+0.1363461i,0.2088599-0.002572135i,0.155134-0.1249785i,0.04576278-0.1862477i,-0.07276617-0.172593i,-0.1599654-0.09564768i},
		{-0.7938548-0.2938465i,-0.8121452+0.3000586i,-0.4247202+0.7701086i,0.1860558+0.8668523i,0.7094966+0.5319819i,0.8778884-0.06260619i,0.6150806-0.6112944i,0.07025374-0.8461909i,-0.4777534-0.6756878i,-0.7762966-0.2115225i,-0.7168829+0.3144979i,-0.3584224+0.6757626i,0.1304207+0.7420526i,0.5540719+0.5058623i,0.7537542+0.06300175i,0.6463737-0.4212138i,0.2529092-0.7528245i,-0.2862241-0.7706204i,-0.7379754-0.4265784i,-0.8684391+0.1559988i,-0.5729753+0.7060059i,0.03463386+0.9302355i,0.6526058+0.6840385i,0.9484653+0.07657998i,0.755451-0.5735795i,0.1785411-0.9189022i,-0.8414373-0.2732773i,-0.7809746+0.3304416i,-0.362718+0.7202527i,0.1696265+0.7434465i,0.5633438+0.4475988i,0.6808289+0.009373613i,0.5267494-0.3814977i,0.1967213-0.59981i,-0.1869382-0.5969115i,-0.5061911-0.3806795i,-0.6531011-0.008099494i,-0.5489969+0.404347i,-0.1926073+0.6893997i,0.2971286+0.6903239i,0.6999717+0.3576731i,0.7954086-0.1861431i,0.4969017-0.6800762i,-0.07226615-0.8578985i,-0.6268731-0.606425i,-0.8746934-0.04378687i,-0.6846201+0.5399065i,-0.1609802+0.8459013i,0.4212462+0.7316856i,0.7745185+0.2776509i,0.7492033-0.2753496i,0.3913831-0.6659638i},
		{0.5498835-1.064795i,-0.2917021-1.152679i,-0.9654472-0.663982i,-1.140913+0.1292213i,-0.7628284+0.8204812i,-0.05115188+1.088852i,0.6392637+0.8448856i,1.002046+0.2407792i,0.9074989-0.4321812i,0.4301834-0.8858657i,-0.2096791-0.9477535i,-0.7456928-0.6101715i,-0.9633707-0.01809165i,-0.7724321+0.5874014i,-0.2411555+0.9532533i,0.4177221+0.909565i,0.9174774+0.449452i,1.01475-0.2441718i,0.6328167-0.8567784i,-0.07442704-1.081424i,-0.7718152-0.7814749i,-1.103343-0.08472505i,-0.8870932+0.6626118i,-0.2285062+1.075247i,0.5285441+0.9441625i,0.9940801+0.3548931i,0.4646177-0.8604751i,-0.1849197-0.9118414i,-0.6799666-0.5602763i,-0.8337386-0.02010893i,-0.6447083+0.4634251i,-0.2381878+0.7279983i,0.226346+0.7190978i,0.6065627+0.4569873i,0.7814141+0.01304341i,0.6605616-0.4797857i,0.2365223-0.8257679i,-0.3543331-0.8313981i,-0.8430278-0.4288216i,-0.9532637+0.232118i,-0.5800224+0.8226628i,0.1106202+1.014166i,0.7553915+0.6867668i,1.008663+0.0154667i,0.7519559-0.635937i,0.151716-0.9389049i,-0.4651209-0.7830359i,-0.8141102-0.3013003i,-0.7893671+0.25069i,-0.4629486+0.6486241i,0.006621909+0.7794178i,0.4590771+0.6301118i},
		{0.48327-0.2675038i,0.1863419-0.4624582i,-0.1247044-0.4297056i,-0.3206998-0.2401753i,-0.3598815-0.006961788i,-0.2728049+0.1795713i,-0.1189489+0.2768059i,0.04641768+0.2799653i,0.181879+0.2037811i,0.2576906+0.07369629i,0.2564498-0.07549405i,0.1781219-0.2037688i,0.04179539-0.275177i,-0.1188956-0.2659625i,-0.2613271-0.1679981i,-0.3369102+0.007123884i,-0.2988006+0.2185379i,-0.1245709+0.3900555i,0.1513988+0.4274477i,0.423147+0.2674933i,0.5455062-0.06414784i,0.4128328-0.4326143i,0.04016678-0.6443222i,-0.4143932-0.5531787i,-0.7167433-0.1597853i,-0.6834828+0.3653017i,0.2845079+0.8011993i,0.769296+0.439957i,0.9056024-0.1745739i,0.5955963-0.7518443i,-0.04168375-0.99656i,-0.7114775-0.7547646i,-1.073227-0.1050858i,-0.9092811+0.6541402i,-0.2552842+1.133146i,0.5848293+1.049388i,1.172117+0.3989693i,1.16528-0.5064945i,0.5284051-1.184928i,-0.4198194-1.248881i,-1.166732-0.6390796i,-1.295334+0.3239283i,-0.7297642+1.114653i,0.2177547+1.303764i,1.029063+0.8016433i,1.277076-0.1015781i,0.8568407-0.9141078i,0.02181946-1.220868i,-0.7772651-0.8968581i,-1.141809-0.146798i,-0.9214598+0.6280583i,-0.2654602+1.045996i},
		{-0.05557532+1.307077i,0.7548838+1.038713i,1.21655+0.3415855i,1.151891-0.4775882i,0.6050236-1.075657i,-0.18552-1.210863i,-0.8880764-0.8357152i,-1.212417-0.1114382i,-1.025334+0.6596353i,-0.4031179+1.156238i,0.3984272+1.167336i,1.04476+0.6789945i,1.256778-0.1145828i,0.9283506-0.8827555i,0.180303-1.290184i,-0.6768001-1.140746i,-1.265611-0.4739792i,-1.306759+0.4347946i,-0.7544113+1.182948i,0.1656422+1.418848i,1.044347+1.010539i,1.472124+0.12089i,1.232787-0.8546364i,0.4142039-1.464832i,-0.6214958-1.413282i,-1.398407-0.7029332i,-0.9751789+1.277079i,0.06814211+1.625721i,1.107164+1.219012i,1.649714+0.2265551i,1.42324-0.8962337i,0.515848-1.615987i,-0.652403-1.578338i,-1.524449-0.7880282i,-1.67735+0.3839296i,-1.033414+1.377146i,0.09917524+1.716557i,1.178695+1.244606i,1.695745+0.1931421i,1.416269-0.9365284i,0.4836005-1.617985i,-0.6608031-1.544599i,-1.488987-0.7618667i,-1.626722+0.3638672i,-1.016827+1.316194i,0.05934707+1.660249i,1.107838+1.237138i,1.643199+0.2389923i,1.412131-0.8722023i,0.5183787-1.574305i,-0.6172312-1.532893i,-1.453639-0.7679186i},
		{-1.160799+0.3026929i,-0.7150792+0.9447576i,0.02210942+1.176135i,0.7435768+0.9082277i,1.14909+0.2514274i,1.060905-0.5218282i,0.504106-1.077938i,-0.2873312-1.162415i,-0.9604433-0.7240134i,-1.203898+0.04580547i,-0.9027982+0.7947173i,-0.1992263+1.180195i,0.580784+1.036662i,1.091446+0.445546i,1.126309-0.3223902i,0.6906013-0.9438566i,-0.02843168-1.175791i,-0.7492644-0.9296618i,-1.19056-0.2866018i,-1.15444+0.5234846i,-0.6035082+1.175292i,0.283768+1.352757i,1.132155+0.9005507i,1.509533-0.04599191i,1.156505-1.060079i,0.1777023-1.608989i,-1.637557-0.380226i,-1.481445+0.8128986i,-0.559506+1.586765i,0.6293561+1.535654i,1.455321+0.7171688i,1.520293-0.4046348i,0.8563825-1.249857i,-0.1439216-1.444856i,-0.9841154-0.97952i,-1.321929-0.141947i,-1.08634+0.676816i,-0.4373727+1.164397i,0.3487585+1.173205i,0.9832038+0.7240016i,1.233532-0.01989962i,0.9833285-0.7861837i,0.2929075-1.259284i,-0.5781329-1.199232i,-1.243012-0.5770709i,-1.359836+0.3618889i,-0.8242326+1.179812i,0.1399024+1.458324i,1.068625+1.029335i,1.492681+0.08431961i,1.189295-0.9125785i,0.3054087-1.464663i},
		{0.577538-0.7035635i,-0.04572994-0.8754645i,-0.5976086-0.5885809i,-0.7961922-0.02885139i,-0.5714824+0.4867921i,-0.08659717+0.6957949i,0.3751601+0.5290692i,0.579883+0.1263908i,0.4646778-0.2680168i,0.1466112-0.4548127i,-0.1710992-0.3815764i,-0.3267649-0.1455413i,-0.2828346+0.08960351i,-0.1220877+0.2011556i,0.02738318+0.1716063i,0.08250153+0.07651307i,0.05162439+0.01342982i,0.01087184+0.02531803i,0.0322933+0.07238025i,0.1186106+0.07105143i,0.1946023-0.02970749i,0.1643253-0.1935068i,-0.006497639-0.3085613i,-0.2459214-0.2638043i,-0.407929-0.03676837i,-0.3651026+0.2719437i,0.2685904+0.4652725i,0.544396+0.1831491i,0.562938-0.2346943i,0.2857538-0.5779426i,-0.1716181-0.6578215i,-0.590108-0.405793i,-0.7498101+0.08350915i,-0.5391086+0.5844298i,-0.02306955+0.8378846i,0.5648883+0.6791587i,0.9192954+0.1401023i,0.8174558-0.5346641i,0.2594586-0.9893126i,-0.4952259-0.9446297i,-1.041701-0.3742532i,-1.051877+0.4460444i,-0.4798499+1.069838i,0.385039+1.13241i,1.068185+0.5742281i,1.182513-0.3096365i,0.6576132-1.033698i,-0.2181278-1.201905i,-0.9667545-0.7315002i,-1.193323+0.1109077i,-0.7973819+0.8713463i,-0.008787611+1.161462i},
		{0.7439665-0.4912111i,0.2312414-0.8446137i,-0.3763029-0.776024i,-0.7843072-0.3318928i,-0.7998888+0.2653687i,-0.4198964+0.7216966i,0.1645761+0.8106349i,0.6567304+0.4880407i,0.8031744-0.07775585i,0.5311625-0.5878333i,-0.006158735-0.7733429i,-0.5126996-0.5468981i,-0.7189338-0.05124315i,-0.5359391+0.4293331i,-0.09698395+0.6404418i,0.337083+0.5017384i,0.5413357+0.1340569i,0.4497434-0.2374142i,0.1648569-0.4277891i,-0.1342157-0.3863449i,-0.3079281-0.1903735i,-0.3177847+0.03356495i,-0.2098197+0.190757i,-0.05700241+0.2492556i,0.08498425+0.2207616i,0.1843517+0.129553i,0.1769159-0.1249265i,0.06502444-0.2027971i,-0.07131226-0.1937105i,-0.1669624-0.1012245i,-0.1770607+0.02278399i,-0.1103197+0.1103894i,-0.02188161+0.1269044i,0.03312269+0.09415101i,0.04590277+0.06388395i,0.05619355+0.06281875i,0.1040048+0.06096792i,0.1735889-0.0009674821i,0.1870158-0.1423789i,0.0665249-0.2938661i,-0.1784163-0.3244985i,-0.4173071-0.1412776i,-0.465259+0.2108331i,-0.2186603+0.5370203i,0.2377424+0.6012912i,0.6460145+0.2947147i,0.725233-0.2567755i,0.3663896-0.7376248i,-0.2652344-0.8308132i,-0.8059424-0.4317189i,-0.913264+0.2603048i,-0.4899154+0.8462716i},
		{0.4101377-0.8503245i,-0.1819378-0.8819977i,-0.6466364-0.5750512i,-0.8372809-0.08121741i,-0.7175292+0.4176247i,-0.3404195+0.7604959i,0.1742458+0.8315742i,0.655364+0.5837693i,0.9117451+0.0724569i,0.7999784-0.5261095i,0.3116512-0.9535709i,-0.3774955-0.9787739i,-0.9537587-0.5329769i,-1.11119+0.2146996i,-0.7269013+0.9102461i,0.04301833+1.189888i,0.822216+0.8852342i,1.2096+0.1325125i,1.001762-0.6902097i,0.3074346-1.167736i,-0.5164204-1.072863i,-1.065018-0.4779727i,-1.0979+0.3051438i,-0.640842+0.9059873i,0.06325869+1.079225i,0.6991226+0.7927795i,0.9299365-0.4564051i,0.4705211-0.9316367i,-0.1922756-1.047357i,-0.8158247-0.7352229i,-1.138783-0.07790408i,-0.9780325+0.6801369i,-0.3396074+1.196971i,0.5288444+1.184153i,1.214561+0.5807464i,1.341303-0.3643973i,0.7927592-1.185366i,-0.187909-1.441226i,-1.105824-0.9709367i,-1.480611+0.0001921745i,-1.113939+0.9762126i,-0.1969533+1.461187i,0.8013197+1.222668i,1.388996+0.3995958i,1.298846-0.5903318i,0.6010332-1.273019i,-0.3559232-1.343687i,-1.123493-0.7918846i,-1.357055+0.1127292i,-0.9609336+0.9503297i,-0.1244615+1.337291i,0.7619776+1.096534i},
		{-0.298285-0.1837025i,-0.345655+0.04772247i,-0.2399653+0.2526041i,-0.03475162+0.3495236i,0.1891962+0.3058631i,0.3505276+0.1332084i,0.3797008-0.1172163i,0.2382647-0.3528217i,-0.04605732-0.4557648i,-0.3571366-0.338469i,-0.5249162-0.01699901i,-0.4226987+0.3601078i,-0.06859696+0.5763732i,0.3549267+0.4826613i,0.6002323+0.1099964i,0.5147609-0.3331977i,0.1463836-0.5900173i,-0.2874931-0.5207567i,-0.5445024-0.1849769i,-0.5070035+0.2138548i,-0.2324837+0.4682536i,0.1134845+0.482487i,0.3707101+0.2926749i,0.456238+0.00690221i,0.364813-0.2640616i,0.1361839-0.434887i,-0.4210651-0.2610892i,-0.5193307+0.06982872i,-0.3689514+0.4130798i,-0.002504127+0.5820247i,0.4058902+0.4501824i,0.6219876+0.05550557i,0.499805-0.3930147i,0.09191132-0.6329502i,-0.3687316-0.5176939i,-0.613059-0.1163959i,-0.5075909+0.329885i,-0.1335584+0.5648323i,0.2767699+0.4753229i,0.4940172+0.146316i,0.4268654-0.2129015i,0.1551815-0.4078128i,-0.1438423-0.3668834i,-0.3130861-0.1585678i,-0.2981625+0.07556401i,-0.1539004+0.2151549i,0.0129415+0.2219992i,0.117469+0.1390438i,0.1392699+0.0411089i,0.1134649-0.02217216i,0.08559768-0.0516577i,0.06879719-0.07867776i},
		{0.008891379+0.4058211i,0.2433905+0.3551585i,0.4360604+0.1706006i,0.5012052-0.1277619i,0.3574966-0.4495131i,-0.00098492-0.6358242i,-0.4467239-0.5363138i,-0.7467837-0.1271078i,-0.692211+0.4237987i,-0.2512631+0.8206134i,0.3735096+0.8142829i,0.8460175+0.3714541i,0.8977723-0.2879485i,0.4916325-0.8170622i,-0.1618846-0.9444893i,-0.7351049-0.6170015i,-0.9613122-0.004292399i,-0.7507322+0.6088141i,-0.2030573+0.9572681i,0.4522329+0.8912572i,0.9401625+0.4202441i,1.031099-0.2814616i,0.6374885-0.9138688i,-0.1109717-1.1577i,-0.8771692-0.8359351i,-1.256067-0.04932527i,-0.1953859+1.31243i,0.7484652+1.120823i,1.317795+0.3283886i,1.196218-0.6429133i,0.4524381-1.270283i,-0.5061294-1.230805i,-1.175532-0.5714599i,-1.2328+0.3424894i,-0.6863729+1.045087i,0.1623694+1.210768i,0.8933056+0.7935128i,1.170668+0.01979478i,0.8848426-0.7338191i,0.1886637-1.114276i,-0.5766401-0.9498695i,-1.03943-0.3313578i,-0.9786111+0.4268042i,-0.4399692+0.9419301i,0.2848661+0.9645986i,0.8183493+0.5124681i,0.9069031-0.1489448i,0.5517962-0.6687105i,-0.01749546-0.8105106i,-0.4980502-0.5635541i,-0.684939-0.108243i,-0.5531524+0.3162861i},
		{0.4852798-0.8450454i,-0.1909217-0.9289404i,-0.7306523-0.5538778i,-0.8796463+0.05683678i,-0.6060963+0.5875286i,-0.08423473+0.8025469i,0.4248094+0.6448497i,0.7065484+0.2261188i,0.6707948-0.2541915i,0.3596614-0.5997068i,-0.08773247-0.681712i,-0.4875801-0.4743209i,-0.6730486-0.06435373i,-0.5603102+0.3726123i,-0.1952483+0.6394421i,0.2546964+0.6106332i,0.5767176+0.3019931i,0.6224002-0.1326711i,0.384802-0.4836995i,-0.006196395-0.5970497i,-0.3632422-0.4455305i,-0.5394636-0.1226678i,-0.4858873+0.2221398i,-0.2487505+0.4563204i,0.06994753+0.5060416i,0.3542629+0.3641984i,0.4599282-0.2384933i,0.2271033-0.4767755i,-0.1122341-0.5276365i,-0.4205968-0.3559267i,-0.5617154-0.02282699i,-0.4657776+0.3338829i,-0.1653395+0.5604522i,0.2181065+0.5556781i,0.5261412+0.3128417i,0.6259901-0.07854417i,0.4606527-0.4641005i,0.07619622-0.6768888i,-0.3809571-0.6015798i,-0.7071934-0.2356398i,-0.7266319+0.2828018i,-0.3894559+0.7140214i,0.1738458+0.8265772i,0.6934323+0.5293841i,0.8938755-0.05602362i,0.6504717-0.6418635i,0.07035031-0.924369i,-0.5578635-0.7512462i,-0.9181695-0.2051418i,-0.8328048+0.443495i,-0.3467227+0.8794338i,0.304873+0.8971644i},
		{-0.3130454-0.2549507i,-0.4069241-0.05617343i,-0.4005615+0.178012i,-0.2606176+0.4086189i,0.02946126+0.5441637i,0.4000199+0.4653833i,0.6749731+0.1212765i,0.6551933-0.3796138i,0.2664055-0.7806834i,-0.342922-0.8175035i,-0.8502231-0.4022834i,-0.9443508+0.2845137i,-0.5286104+0.8762474i,0.2004574+1.032819i,0.8566179+0.646583i,1.084111-0.09036905i,0.7567383-0.7944649i,0.04163345-1.101677i,-0.696897-0.857296i,-1.089115-0.187386i,-0.9436072+0.5728536i,-0.3363789+1.048626i,0.4308603+1.008913i,0.9805449+0.4781174i,1.04614-0.2774395i,0.6043439-0.8840733i,-0.7588741-0.7103845i,-1.019204-0.0490869i,-0.7952064+0.6068828i,-0.2175478+0.9563349i,0.4335833+0.860234i,0.8680922+0.3848582i,0.9074163-0.2481882i,0.5444539-0.7631018i,-0.06254614-0.9373028i,-0.6496832-0.6870862i,-0.9478822-0.1109494i,-0.8020876+0.5337719i,-0.2618065+0.9346632i,0.4177998+0.8795454i,0.8920335+0.3834504i,0.9127018-0.3009295i,0.4741396-0.8154687i,-0.180571-0.8997817i,-0.7038442-0.5364668i,-0.8446065+0.05466536i,-0.5755913+0.5610313i,-0.07605489+0.7557312i,0.3961694+0.5967751i,0.6443202+0.2066376i,0.6030352-0.2224229i,0.3278668-0.5213898i},
		{-1.813812-1.049529i,-2.047072+0.4153105i,-1.244355+1.653484i,0.1624006+2.030908i,1.433996+1.38484i,1.937105+0.09328441i,1.474415-1.161698i,0.3478639-1.775641i,-0.8496101-1.517561i,-1.560534-0.593004i,-1.517336+0.5157272i,-0.8161842+1.30679i,0.180191+1.474056i,1.027816+1.002496i,1.385536+0.1378445i,1.137424-0.7340472i,0.4227419-1.248738i,-0.4330794-1.209742i,-1.062205-0.6636567i,-1.213661+0.1310453i,-0.8543587+0.828375i,-0.1654371+1.14961i,0.5549419+0.9918919i,1.023505+0.447614i,1.074743-0.2547269i,0.7039835-0.8448509i,-0.6243829-0.9210756i,-1.069339-0.3598987i,-1.085462+0.3720725i,-0.6418647+0.9764917i,0.09615163+1.186372i,0.8219877+0.8906008i,1.218047+0.1965913i,1.099597-0.6085429i,0.4994752-1.181017i,-0.3439099-1.266299i,-1.081836-0.8041839i,-1.390207+0.04129116i,-1.09943+0.9313133i,-0.281712+1.470609i,0.7417944+1.370721i,1.504884+0.6054635i,1.601542-0.5243602i,0.911364-1.48805i,-0.2868588-1.775774i,-1.41384-1.184748i,-1.880683+0.03339864i,-1.416742+1.277001i,-0.2345518+1.909582i,1.076088+1.604536i,1.863302+0.515858i,1.749985-0.8157756i},
		{0.6929559-0.7507706i,0.03824225-0.9971456i,-0.6040383-0.7692807i,-0.94289-0.1931103i,-0.8328551+0.4576254i,-0.3319724+0.8796507i,0.319672+0.8737406i,0.804629+0.443822i,0.8830792-0.193686i,0.5224732-0.7136901i,-0.07946602-0.8556657i,-0.6039566-0.5669209i,-0.7913896-0.0248352i,-0.5801757+0.4759492i,-0.1203304+0.695134i,0.334528+0.5671044i,0.5752486+0.2056007i,0.5321146-0.1883187i,0.2761472-0.441184i,-0.0478352-0.4775395i,-0.3011405-0.3252923i,-0.4032907-0.07703742i,-0.3462048+0.1605435i,-0.1793239+0.3078687i,0.02183841+0.3343114i,0.1903127+0.2562153i,0.3088795-0.05231161i,0.2474506-0.2153064i,0.1003806-0.3409179i,-0.1210218-0.3745536i,-0.3560466-0.2578619i,-0.4895949+0.01654955i,-0.4075059+0.3558703i,-0.08888141+0.5833222i,0.3386022+0.5365348i,0.6449558+0.1894519i,0.6349581-0.2992649i,0.2840092-0.6648403i,-0.2313956-0.6979258i,-0.6372942-0.3756769i,-0.7266996+0.1297362i,-0.4699089+0.5627109i,-0.006982124+0.727876i,0.448158+0.5716091i,0.7110595+0.174129i,0.6822783-0.3061856i,0.3608602-0.6856947i,-0.1521241-0.7981623i,-0.6580552-0.5516174i,-0.9100742+0.0006437499i,-0.7290814+0.6293469i,-0.1374006+1.005025i},
		{-0.5006161+0.5067143i,-0.1443613+0.726496i,0.3113887+0.7278731i,0.7370549+0.4436816i,0.9348987-0.1010558i,0.7302116-0.720653i,0.1152008-1.10617i,-0.6720441-0.9883736i,-1.228404-0.3317703i,-1.207264+0.586181i,-0.5456405+1.292766i,0.4603808+1.380944i,1.296032+0.7547659i,1.50756-0.295951i,0.9563243-1.240466i,-0.09877299-1.587733i,-1.13258-1.145501i,-1.622856-0.1213117i,-1.315235+0.9812503i,-0.3520822+1.613907i,0.7958493+1.456998i,1.561149+0.5809546i,1.562332-0.5849609i,0.7967893-1.464745i,-0.3560128-1.624583i,-1.325962-0.9909585i,-1.157434+1.148418i,-0.1285922+1.609389i,0.9388133+1.29203i,1.535262+0.3686678i,1.391239-0.7067741i,0.5943314-1.422917i,-0.4637705-1.451254i,-1.277764-0.7943396i,-1.467668+0.2214233i,-0.9576988+1.104393i,-0.01025036+1.436094i,0.9062027+1.075501i,1.353545+0.2240576i,1.142616-0.6860026i,0.4158988-1.22014i,-0.4473382-1.158651i,-1.040476-0.583994i,-1.1278+0.1960543i,-0.7273444+0.8241282i,-0.05855375+1.057552i,0.5849304+0.8439898i,0.9566439+0.3035429i,0.929719-0.3391244i,0.5233346-0.8328378i,-0.1028028-0.9777654i,-0.691256-0.7018057i},
		{-0.5858365+1.373849i,0.4481156+1.389518i,1.212801+0.7382827i,1.356933-0.2205315i,0.8612545-1.008926i,0.01127656-1.277043i,-0.7755653-0.9521897i,-1.157196-0.2346988i,-1.00632+0.5269172i,-0.4361629+1.003131i,0.2755674+1.017752i,0.8186639+0.6037421i,0.9814727-0.03098184i,0.7293055-0.6066496i,0.2006298-0.8955329i,-0.3707441-0.8095174i,-0.7625824-0.4151804i,-0.8453958+0.1172089i,-0.6088482+0.5901573i,-0.1440358+0.8406497i,0.3895523+0.7763035i,0.7994405+0.3996336i,0.9098001-0.1736064i,0.6343706-0.7244169i,0.04588272-0.9995995i,-0.6157789-0.8336993i,-0.9864426+0.4717606i,-0.4649082+1.010534i,0.2904157+1.086808i,0.9212931+0.6586754i,1.135043-0.07209928i,0.8419774-0.7718318i,0.1782413-1.136481i,-0.5726708-1.01431i,-1.099269-0.4498463i,-1.17204+0.33944i,-0.7265565+1.031507i,0.08998699+1.307323i,0.9387306+0.9889026i,1.408642+0.1590024i,1.217364-0.8225741i,0.3948762-1.462909i,-0.6810743-1.395895i,-1.458579-0.6105396i,-1.51471+0.5105147i,-0.8042234+1.388826i,0.3082078+1.571522i,1.253836+0.9776512i,1.570936-0.07528254i,1.133277-1.061463i,0.1814699-1.52222i,-0.8260519-1.271547i},
		{-0.9014132+0.292382i,-0.5133144+0.8062201i,0.1261368+0.9594235i,0.7280511+0.6564002i,0.990051+0.0185133i,0.7582148-0.6435787i,0.1370697-0.9811819i,-0.5458734-0.810357i,-0.924145-0.2316817i,-0.8121861+0.4274696i,-0.3091376+0.8167271i,0.2839483+0.7704489i,0.6645074+0.377516i,0.6969264-0.1166994i,0.4426047-0.4800755i,0.06605154-0.6048694i,-0.2803659-0.5052587i,-0.5053617-0.2503089i,-0.5605547+0.08293653i,-0.4191484+0.404752i,-0.09766316+0.5990011i,0.3039155+0.5564516i,0.6093835+0.2523532i,0.6503853-0.1994856i,0.3781477-0.5822985i,-0.08653526-0.695586i,-0.6934583-0.0382747i,-0.5527279+0.4041055i,-0.174193+0.6506241i,0.2631039+0.6091354i,0.5761557+0.3153818i,0.6468089-0.1024651i,0.4517544-0.4785917i,0.06454362-0.6629045i,-0.3637554-0.57134i,-0.6520058-0.2267027i,-0.6633581+0.2340727i,-0.3768741+0.6083822i,0.08953059+0.7209518i,0.5287061+0.5123929i,0.7426643+0.07016987i,0.6337917-0.4142233i,0.2431436-0.7321817i,-0.2715546-0.7424212i,-0.6964658-0.4235286i,-0.8379148+0.1117747i,-0.601133+0.6429588i,-0.05198743+0.9164999i,0.5768615+0.762781i,0.9708556+0.2076596i,0.8950074-0.4994695i,0.3470153-0.9916717i},
		{1.789331-0.071959i,1.339482-1.257433i,0.1848756-1.868047i,-1.114052-1.549456i,-1.881415-0.4265227i,-1.698546+0.9341578i,-0.6496568+1.823803i,0.7172751+1.783448i,1.69569+0.8531657i,1.806262-0.4664881i,1.036308-1.50381i,-0.189389-1.772882i,-1.260111-1.197088i,-1.690985-0.1020709i,-1.331351+0.9798637i,-0.392786+1.568236i,0.6794547+1.432873i,1.411173+0.6664141i,1.494355-0.374443i,0.907477-1.225001i,-0.07831677-1.508991i,-1.014184-1.103105i,-1.472063-0.1978933i,-1.244045+0.7834591i,-0.4452861+1.382107i,0.5387989+1.324833i,1.343301-0.2878792i,0.8246979-1.055066i,-0.03985332-1.299788i,-0.8311291-0.9442844i,-1.196469-0.1955066i,-1.010451+0.5784034i,-0.408988+1.037096i,0.3061547+1.020432i,0.8272128+0.5930068i,0.9743061-0.02367316i,0.7421849-0.574669i,0.2595181-0.8755573i,-0.290088-0.8532474i,-0.7309749-0.5331481i,-0.9243115-0.01309573i,-0.7857586+0.5498081i,-0.3192909+0.9538822i,0.3423398+1.004734i,0.9399942+0.6121286i,1.177042-0.1182665i,0.8763325-0.8799155i,0.1146255-1.290681i,-0.7706439-1.09964i,-1.336551-0.3510644i,-1.274256+0.610152i,-0.5879664+1.310263i},
		{0.0337628-0.771841i,-0.5137724-0.5810724i,-0.7718574-0.05930593i,-0.5895359+0.4920602i,-0.07649776+0.7529634i,0.4626041+0.5787345i,0.7149853+0.0859244i,0.5495232-0.4249159i,0.08890804-0.6586816i,-0.3787537-0.5040295i,-0.5860374-0.08742508i,-0.4457162+0.3244801i,-0.08376759+0.5005255i,0.2635151+0.3791847i,0.4071666+0.07998338i,0.3096671-0.1987117i,0.07723401-0.3122591i,-0.1344612-0.2422727i,-0.222738-0.07527497i,-0.1811513+0.07639574i,-0.07225845+0.145247i,0.03066383+0.128796i,0.08511395+0.06498411i,0.08569068-0.00289606i,0.04959644-0.04547971i,0.002911224-0.05043419i,-0.02033996+0.01468963i,0.01812482+0.02698693i,0.05414036-0.007620446i,0.04185714-0.07237551i,-0.03576806-0.1110273i,-0.1373521-0.06632953i,-0.1788353+0.0648402i,-0.09554217+0.2078248i,0.09352988+0.2501402i,0.2769342+0.1259318i,0.3179572-0.1185775i,0.1558915-0.3373771i,-0.1354033-0.3769202i,-0.3827052-0.1858654i,-0.4240177+0.1391217i,-0.2178817+0.4084283i,0.1256756+0.4587394i,0.4126725+0.2546776i,0.4826479-0.09279962i,0.2986791-0.3962677i,-0.0405793-0.4985461i,-0.3623007-0.3511203i,-0.5095021-0.02850562i,-0.4115267+0.3152993i,-0.1100196+0.5180032i,0.2602975+0.4776622i},
