/*
 * LS_includes.h
 *
 *  Created on: 30-Apr-2022
 *      Author: Ranjith Srinivas
 */


#include "complex.h"

#define NUM_USED_SUB_CARRIERS 52
#define nUSC NUM_USED_SUB_CARRIERS
#define SYMBOLS_USED 200
#define TEST_RUN 200

typedef float complex flt_cmplx;

//Actual Channel Data
flt_cmplx Act_Channel_weight_15dB[SYMBOLS_USED][nUSC] = {{-0.2266911-0.6574066i,-0.5789959-0.3468948i,-0.6462792+0.09800006i,-0.426654+0.4678645i,-0.0415617+0.6137958i,0.3374993+0.4975129i,0.5627559+0.184623i,0.5557719-0.1951548i,0.32329-0.49534i,-0.04766621-0.5972089i,-0.4131079-0.4500274i,-0.6177828-0.09900857i,-0.558376+0.3173232i,-0.2398892+0.6143547i,0.2094624+0.6433783i,0.5852494+0.3707844i,0.7016857-0.09171626i,0.4879689-0.5305352i,0.03269828-0.7314205i,-0.4519953-0.5879173i,-0.7319359-0.1595285i,-0.6672436+0.3528565i,-0.2837821+0.70362i,0.2374009+0.722904i,0.6478426+0.4002296i,0.7525985-0.1106003i,0.02213437-0.7552131i,-0.4649023-0.5906932i,-0.7311106-0.1550747i,-0.6571313+0.346344i,-0.282237+0.682129i,0.2174176+0.7007062i,0.6112556+0.3974958i,0.7194762-0.08481902i,0.4948521-0.5220729i,0.04478598-0.7119405i,-0.4181666-0.5688928i,-0.6770461-0.1655209i,-0.6153889+0.3027016i,-0.2729334+0.6144306i,0.1783156+0.6318989i,0.524857+0.364328i,0.6182068-0.04736206i,0.4386985-0.410698i,0.08759063-0.5764439i,-0.2762815-0.4962816i,-0.510816-0.2231923i,-0.5378606+0.1279262i,-0.3548961+0.4269624i,-0.02642485+0.5640234i,0.3310724+0.4768787i,0.5745943+0.1779526i},
		{0.3279219-0.1686224i,0.1510427-0.3501211i,-0.110788-0.3779505i,-0.3376876-0.225524i,-0.4148063+0.04690115i,-0.2921047+0.3119133i,-0.0190558+0.4346385i,0.2721187+0.3458206i,0.4336793+0.08513762i,0.3838325-0.2166631i,0.1514881-0.4097163i,-0.1442194-0.4061133i,-0.3632603-0.2194963i,-0.4151908+0.0552067i,-0.2903606+0.2979508i,-0.0471697+0.4150076i,0.2200002+0.3635879i,0.4092782+0.1567012i,0.4359968-0.1368067i,0.2649438-0.3999129i,-0.05516021-0.5016425i,-0.3860774-0.3627983i,-0.5527835-0.02037904i,-0.4424508+0.3642628i,-0.0883886+0.5816576i,0.3294068+0.4990765i,0.5317679-0.2767527i,0.2100516-0.5534956i,-0.2038632-0.5433753i,-0.4970977-0.2706905i,-0.539292+0.1121307i,-0.33408+0.4200986i,0.007256715+0.5255563i,0.3318614+0.3987708i,0.5068676+0.1015094i,0.4598468-0.2421634i,0.2031908-0.4851531i,-0.1589743-0.509774i,-0.4591411-0.2874427i,-0.5401843+0.08688676i,-0.3467584+0.4250733i,0.02664678+0.5440589i,0.3783137+0.3778778i,0.5176454+0.02412315i,0.3820164-0.3153152i,0.06930401-0.4615277i,-0.2352969-0.3639055i,-0.3805375-0.1123367i,-0.3300078+0.1410826i,-0.1546123+0.2825665i,0.03883739+0.2865117i,0.1766795+0.1947154i},
		{1.085945+0.5460188i,1.212916-0.3155027i,0.7147928-1.059449i,-0.1652404-1.278566i,-0.9646584-0.8528484i,-1.27534-0.01558311i,-0.9684643+0.80013i,-0.23109+1.212861i,0.5751875+1.071547i,1.10762+0.4773003i,1.168748-0.3088046i,0.7408053-0.9780206i,-0.02577008-1.259845i,-0.8392183-1.000412i,-1.33661-0.2487272i,-1.231348+0.6994061i,-0.4944514+1.384616i,0.5586947+1.410776i,1.387399+0.6997929i,1.522938-0.410883i,0.8626997-1.331667i,-0.2474541-1.562355i,-1.211844-0.9887007i,-1.534135+0.06239963i,-1.086803+1.03249i,-0.1437866+1.451402i,1.330753+0.3623138i,1.225053-0.5584135i,0.5771157-1.187277i,-0.3064391-1.263775i,-1.030787-0.7683593i,-1.271369+0.07055023i,-0.9172812+0.8644088i,-0.1375476+1.2363i,0.6858953+1.010764i,1.149502+0.3140816i,1.044171-0.491032i,0.4615095-1.008325i,-0.2778364-1.021581i,-0.8185738-0.5848981i,-0.9534279+0.04997246i,-0.6877775+0.593896i,-0.181896+0.8524558i,0.3527455+0.7690105i,0.7294304+0.4013595i,0.8218364-0.1139211i,0.5897589-0.5901092i,0.1078051-0.8354668i,-0.4345129-0.7307692i,-0.7987037-0.3045101i,-0.8145297+0.2587191i,-0.4754708+0.7043225i},
		{1.381392+0.1663406i,1.17859-0.8043577i,0.3545411-1.40883i,-0.6815595-1.298609i,-1.3755-0.5104966i,-1.352247+0.5351004i,-0.6390777+1.277714i,0.3611811+1.344163i,1.120358+0.7464168i,1.284423-0.1622608i,0.8363667-0.9157043i,0.0523351-1.18482i,-0.6804457-0.9082196i,-1.055435-0.2679499i,-0.9564085+0.4319398i,-0.467727+0.902575i,0.1848975+0.9722213i,0.7286363+0.6362936i,0.9468802+0.05050128i,0.762813-0.5338113i,0.2686062-0.8748804i,-0.3188544-0.8424816i,-0.756413-0.4666379i,-0.8761057+0.08778808i,-0.6421769+0.598026i,-0.1505554+0.8680637i,0.8235121+0.3828325i,0.905475-0.2099752i,0.5933371-0.7459338i,-0.006637062-0.97634i,-0.635981-0.7673312i,-0.9938777-0.19003i,-0.8944373+0.4920717i,-0.3763005+0.9515824i,0.3125346+0.9709157i,0.8488944+0.5525131i,1.000007-0.09850039i,0.720539-0.6926925i,0.1435901-0.9901688i,-0.4967681-0.8805668i,-0.951772-0.4009133i,-1.02843+0.279281i,-0.6552244+0.8933434i,0.05888085+1.154547i,0.8186429+0.8857667i,1.245005+0.149343i,1.073363-0.7255861i,0.3368263-1.284595i,-0.6074314-1.204481i,-1.260917-0.5024698i,-1.274014+0.4558921i,-0.6512474+1.16827i},
		{0.4138765+0.2125825i,0.4303981-0.1033259i,0.246594-0.3402949i,-0.03136892-0.3971802i,-0.266178-0.2676149i,-0.3563161-0.03048858i,-0.2763657+0.1963877i,-0.07864328+0.3118117i,0.1365413+0.2725189i,0.2668407+0.1084605i,0.2543383-0.09170882i,0.1152673-0.2227716i,-0.06505733-0.219084i,-0.1788672-0.09574703i,-0.1640975+0.05692114i,-0.04926799+0.1328076i,0.06465523+0.08822256i,0.08189849-0.02133791i,-0.006934937-0.08337779i,-0.1098734-0.02457465i,-0.1074102+0.1163829i,0.03831611+0.2078064i,0.2320478+0.1319805i,0.3059821-0.102916i,0.1546522-0.3440078i,-0.1627073-0.3965369i,-0.4744528+0.2097692i,-0.1993814+0.5191558i,0.2366076+0.5382897i,0.569992+0.2296092i,0.5898853-0.2380282i,0.2713228-0.5945641i,-0.2125012-0.633128i,-0.5962676-0.3271595i,-0.6721954+0.1626083i,-0.3965331+0.5808437i,0.09444254+0.7098125i,0.554545+0.475317i,0.7460693-0.01614583i,0.5565423-0.5223737i,0.06397423-0.778154i,-0.4869131-0.6318957i,-0.8010617-0.1391927i,-0.6935624+0.4480708i,-0.2054865+0.809032i,0.403751+0.7358643i,0.7972448+0.2617465i,0.7562277-0.3511798i,0.3091034-0.763239i,-0.2884079-0.7552449i,-0.7076265-0.3496684i,-0.7358951+0.2154803i},
		{-1.108139-0.2407434i,-0.9946778+0.5471783i,-0.390898+1.061227i,0.3942065+1.05051i,0.9720647+0.5357877i,1.074386-0.2177869i,0.6733448-0.8476264i,-0.02617032-1.069919i,-0.6972181-0.798985i,-1.039841-0.1696521i,-0.9058025+0.5304465i,-0.3578451+0.9851582i,0.3555321+0.9857983i,0.9053641+0.5277895i,1.031733-0.178481i,0.6716662-0.7995969i,-0.003306327-1.038981i,-0.6682679-0.7851005i,-1.006751-0.166894i,-0.8667425+0.5145259i,-0.3285017+0.9382803i,0.3449638+0.9170262i,0.8399218+0.4762149i,0.9366302-0.1692301i,0.6026888-0.7194476i,0.001411382-0.9252615i,-0.8812541-0.1561585i,-0.7573734+0.4394006i,-0.2867308+0.8021823i,0.2881193+0.7709517i,0.6863011+0.3887444i,0.7378365-0.1313921i,0.4619473-0.5343167i,0.03007154-0.6608782i,-0.3508258-0.5092394i,-0.5475895-0.1941476i,-0.5348119+0.1448462i,-0.3558766+0.4086348i,-0.07087036+0.5420427i,0.2555421+0.5069935i,0.5318752+0.2816478i,0.6366835-0.09832568i,0.4733521-0.5022499i,0.05626278-0.7334232i,-0.4488066-0.6348149i,-0.7873956-0.2053299i,-0.7595087+0.3666494i,-0.3491348+0.7927505i,0.2526027+0.8459954i,0.749017+0.489354i,0.8970494-0.107218i,0.6269197-0.6612254i},
		{0.09824328+0.3718179i,0.3035034+0.2397723i,0.3866825+0.01004737i,0.3160818-0.2208175i,0.1270347-0.3635904i,-0.1062669-0.3736231i,-0.3078975-0.2531731i,-0.4167492-0.03428563i,-0.3855935+0.2281871i,-0.1908308+0.4486823i,0.133969+0.5176024i,0.4698989+0.3510303i,0.63947-0.03331931i,0.5026823-0.477618i,0.06880297-0.7403021i,-0.4665678-0.6360883i,-0.8104263-0.1710541i,-0.7456123+0.4307772i,-0.274904+0.8435565i,0.3658026+0.8299866i,0.8380727+0.3828487i,0.8913355-0.2706557i,0.4962765-0.7970423i,-0.1487964-0.9333056i,-0.7270223-0.6137335i,-0.958976+0.007866407i,-0.1417524+0.9692762i,0.531642+0.8376102i,0.9624487+0.2890895i,0.9265443-0.41904i,0.4247624-0.9347222i,-0.3009157-0.9883994i,-0.8819432-0.5425041i,-1.017477+0.1778913i,-0.6396028+0.8015782i,0.05002683+1.01223i,0.6943779+0.7161931i,0.9753135+0.08145747i,0.7737302-0.5651072i,0.2128727-0.9124665i,-0.4220635-0.8132507i,-0.8306352-0.3376877i,-0.8340847+0.2755162i,-0.447288+0.7360007i,0.1355641+0.8335148i,0.6325896+0.5326654i,0.8075283-0.01010324i,0.5865064-0.5219277i,0.09644555-0.7524199i,-0.4038219-0.6049944i,-0.6666782-0.183254i,-0.5887185+0.2779556i},
		{0.6800579+0.003534235i,0.532675-0.4426121i,0.1313026-0.6952353i,-0.347908-0.6384918i,-0.6969655-0.2850735i,-0.7516145+0.2300514i,-0.4552169+0.6893852i,0.09908734+0.8667089i,0.6748317+0.6299464i,0.9759269+0.03540033i,0.7967874-0.6533836i,0.1654915-1.069892i,-0.62302-0.9441285i,-1.139073-0.2856527i,-1.062566+0.5803465i,-0.392886+1.175261i,0.5216878+1.145818i,1.172859+0.4863541i,1.191087-0.4442692i,0.5666552-1.12973i,-0.3472013-1.198896i,-1.04749-0.6349809i,-1.172507+0.2320534i,-0.6923798+0.9312257i,0.1029246+1.117122i,0.7887787+0.7392775i,0.7752931-0.6297644i,0.1708471-0.9448156i,-0.4645374-0.7993025i,-0.8408186-0.2994616i,-0.8096444+0.3032511i,-0.4115879+0.7326309i,0.1550943+0.8043664i,0.6248276+0.4998067i,0.7814525-0.02772019i,0.557972-0.5207717i,0.07316028-0.7390367i,-0.4225316-0.5816042i,-0.6756436-0.1440501i,-0.5682318+0.3309286i,-0.1838064+0.590506i,0.2457492+0.5176955i,0.4839767+0.19362i,0.4323795-0.1661444i,0.1767841-0.3579886i,-0.09119841-0.3172792i,-0.2164623-0.1382125i,-0.1798029+0.02059095i,-0.08371318+0.06551943i,-0.04477329+0.02923297i,-0.08663376+0.0190897i,-0.1241594+0.1023289i},
		{0.1048914+0.7565381i,0.5931363+0.4688386i,0.7391599-0.06789547i,0.4787961-0.5419025i,-0.01794361-0.6993389i,-0.4671203-0.4842378i,-0.642681-0.04530392i,-0.4888526+0.3739223i,-0.119452+0.5756812i,0.2694324+0.4945509i,0.5042937+0.1996936i,0.5010269-0.1613836i,0.2797633-0.4328767i,-0.05676489-0.5060466i,-0.3637858-0.3532105i,-0.5063222-0.03912111i,-0.4145988+0.2976665i,-0.1229691+0.498656i,0.2342708+0.4602943i,0.4809713+0.1931487i,0.4886608-0.1734579i,0.2489626-0.4529098i,-0.115998-0.4996932i,-0.4158395-0.2898262i,-0.4943084+0.06388636i,-0.3147162+0.3723272i,0.3253139+0.3221122i,0.4384466+0.01232336i,0.310451-0.2773214i,0.03087054-0.3893847i,-0.2299906-0.2789121i,-0.3271627-0.03464334i,-0.2282092+0.1841111i,-0.02446244+0.253343i,0.1401071+0.1610503i,0.1709062+0.002588307i,0.08203612-0.09875863i,-0.02807808-0.08447248i,-0.06183941+0.003036941i,2.728848e-05+0.06499467i,0.08828845+0.03236375i,0.1068089-0.07621577i,0.01427131-0.1689436i,-0.1384589-0.1536992i,-0.242218-0.01157735i,-0.2070714+0.183034i,-0.02721983+0.3076009i,0.2089063+0.268677i,0.3664241+0.0619663i,0.3394295-0.2178433i,0.1137568-0.4208381i,-0.2137906-0.4183151i},
		{-0.3190081-0.9758409i,-0.8665099-0.5772201i,-1.06026+0.08420194i,-0.8017433+0.7448128i,-0.1670134+1.120309i,0.5978729+1.014113i,1.151548+0.4205526i,1.201342-0.4317413i,0.6638986-1.148879i,-0.250906-1.351897i,-1.107765-0.8870692i,-1.457058+0.05876186i,-1.082896+1.025506i,-0.1415322+1.511699i,0.9022082+1.246688i,1.514411+0.3461399i,1.375514-0.7412275i,0.5498999-1.467034i,-0.548995-1.467434i,-1.373853-0.7461579i,-1.520945+0.3343275i,-0.9271272+1.240728i,0.1074514+1.534846i,1.074431+1.084658i,1.508493+0.1209899i,1.211169-0.8822867i,-0.6721255-1.30047i,-1.338295-0.5422422i,-1.34825+0.4523652i,-0.7170635+1.200279i,0.2320238+1.352166i,1.033783+0.8576235i,1.311602-0.020472i,0.9573825-0.8454916i,0.1731426-1.227288i,-0.6424936-1.011076i,-1.101034-0.3407203i,-1.015232+0.4315625i,-0.4760713+0.9357455i,0.2187303+0.9688484i,0.735746+0.5755454i,0.8740059-0.009307126i,0.6381965-0.507297i,0.1916708-0.7361532i,-0.2590471-0.6653868i,-0.5638599-0.3787568i,-0.6599067+0.002131375i,-0.5454765+0.3679681i,-0.2502906+0.6248602i,0.1602629+0.684092i,0.5626549+0.4841047i,0.7859545+0.0480543i},
		{-0.5390946-0.08095625i,-0.4357678+0.2990173i,-0.1087406+0.4923902i,0.240454+0.4066468i,0.4153098+0.1235311i,0.3488519-0.168757i,0.1295471-0.310244i,-0.08350875-0.2683632i,-0.1826727-0.1313809i,-0.1732312-0.01347985i,-0.1330147+0.04094788i,-0.1177969+0.07255483i,-0.1044133+0.1368829i,-0.02477628+0.2225086i,0.1431974+0.2418867i,0.3187692+0.1113563i,0.3603958-0.1497186i,0.182306-0.3969176i,-0.1520717-0.450813i,-0.4478941-0.2358601i,-0.50722+0.1445799i,-0.2733631+0.4647124i,0.1214668+0.5276687i,0.4436898+0.2986654i,0.5142809-0.07818102i,0.3170388-0.3851786i,-0.2936403-0.3338419i,-0.4107547-0.07435767i,-0.3532138+0.177046i,-0.1782189+0.3373558i,0.04572007+0.3770709i,0.260624+0.2916798i,0.4046093+0.08914111i,0.4053955-0.186844i,0.2169945-0.4324049i,-0.1196865-0.5093072i,-0.4550725-0.329242i,-0.5940397+0.06006255i,-0.4200812+0.4663247i,0.006541231+0.6521447i,0.4601986+0.4868126i,0.6789836+0.04381912i,0.5296242-0.4321928i,0.0944467-0.6731344i,-0.3801111-0.5509742i,-0.6363148-0.1482706i,-0.5547545+0.3044875i,-0.2069566+0.5729089i,0.2085803+0.5454208i,0.4892414+0.2704648i,0.5272385-0.09800402i,0.3369373-0.3927511i},
		{-0.546057+0.2670918i,-0.2278054+0.5035332i,0.1266577+0.4822412i,0.3564403+0.2677782i,0.3947133-0.003486631i,0.2779964-0.2063603i,0.09949194-0.2851551i,-0.05688994-0.2588779i,-0.1575835-0.1804685i,-0.2129008-0.08720508i,-0.2377969+0.01806437i,-0.2198312+0.14355i,-0.1262126+0.2693349i,0.0542429+0.3340989i,0.2723877+0.2681794i,0.4234071+0.05234674i,0.4020225-0.2443238i,0.1743103-0.4827246i,-0.1836613-0.5238143i,-0.5096279-0.3098723i,-0.6314344+0.09122853i,-0.456365+0.5047227i,-0.02905959+0.7238419i,0.4712808+0.6092418i,0.7999935+0.1701565i,0.7615708-0.4141952i,-0.3385867-0.9043057i,-0.8938521-0.476413i,-1.02737+0.2485222i,-0.6220032+0.9032231i,0.14627+1.121311i,0.8809166+0.7525274i,1.179072-0.03234552i,0.8643045-0.823121i,0.09366298-1.197373i,-0.7287717-0.9568214i,-1.177283-0.2317577i,-1.031781+0.6006228i,-0.380131+1.12381i,0.4455012+1.091594i,1.044603+0.534188i,1.137808-0.2736042i,0.6863589-0.9481453i,-0.09698265-1.169977i,-0.8419569-0.8268325i,-1.185344-0.07240511i,-0.9450535+0.7313065i,-0.224551+1.179447i,0.6187809+1.031585i,1.147459+0.3526782i,1.079822-0.5047786i,0.4536336-1.08584i},
		{1.232587-0.4727797i,0.6358788-1.217745i,-0.3505493-1.379543i,-1.221642-0.8111762i,-1.482894+0.230379i,-0.9505317+1.191761i,0.1102756+1.532469i,1.120284+1.051215i,1.523984+0.01437042i,1.116109-1.003132i,0.148049-1.460082i,-0.8421776-1.151783i,-1.34968-0.2922488i,-1.165612+0.6460308i,-0.443385+1.205774i,0.4290765+1.16288i,1.042378+0.5922633i,1.144803-0.2089839i,0.7253332-0.8715118i,-0.003380102-1.108119i,-0.7011318-0.827423i,-1.046407-0.17337i,-0.8851722+0.5345814i,-0.3123825+0.9526728i,0.3716253+0.8901513i,0.8223892+0.4108993i,0.4712921-0.655969i,-0.05104424-0.742323i,-0.4598722-0.4988675i,-0.6055759-0.1045915i,-0.4992711+0.2459897i,-0.2499788+0.4438317i,0.02950567+0.4763723i,0.2700059+0.3757817i,0.431296+0.1740714i,0.4715897-0.09426553i,0.3517819-0.3628429i,0.07698832-0.5284169i,-0.2690419-0.4951361i,-0.5409071-0.2406506i,-0.6005804+0.1491872i,-0.3953086+0.5085252i,0.005556199+0.668516i,0.4353738+0.5392371i,0.7013561+0.1558638i,0.6688269-0.3287441i,0.3259484-0.7014115i,-0.196941-0.7780911i,-0.6694115-0.4941399i,-0.8594728+0.04716046i,-0.6507055+0.6042103i,-0.1158362+0.9056894i},
		{-0.7436322-0.563311i,-0.9387566+0.06393903i,-0.6677176+0.6702082i,-0.05823303+0.9454887i,0.580595+0.7438077i,0.9185588+0.1693179i,0.7855775-0.4748621i,0.266524-0.8543439i,-0.3520276-0.7902613i,-0.7515554-0.3500245i,-0.7591381+0.2114i,-0.4221163+0.612577i,0.05418421+0.6973818i,0.4440805+0.4856755i,0.6129344+0.1152084i,0.5423993-0.2566337i,0.2886431-0.5146998i,-0.06331374-0.5914224i,-0.4105809-0.4548111i,-0.6287957-0.1223444i,-0.6007881+0.3059401i,-0.2885281+0.6480497i,0.2029365+0.7142292i,0.6417243+0.4268731i,0.7856202-0.100913i,0.5332913-0.6034323i,-0.5298527-0.6077262i,-0.7875323-0.1087391i,-0.6529826+0.4220627i,-0.2184563+0.7232888i,0.285817+0.6730391i,0.6255603+0.3286998i,0.6713867-0.1307009i,0.4337288-0.5040107i,0.03158742-0.6498966i,-0.3677385-0.5257108i,-0.6085294-0.1893237i,-0.5962838+0.2239392i,-0.3326293+0.5459139i,0.07745425+0.6383258i,0.4605388+0.454645i,0.6474085+0.06879011i,0.5517694-0.3521119i,0.2127377-0.6225271i,-0.2225989-0.6230323i,-0.5659487-0.3520195i,-0.6689428+0.07657847i,-0.4831129+0.4823054i,-0.07919963+0.6902957i,0.3772986+0.6011724i,0.6873893+0.2368915i,0.7005943-0.2564834i},
		{1.057847+1.574244i,1.840205+0.5014663i,1.72401-0.8303077i,0.7553916-1.758848i,-0.585034-1.816536i,-1.624276-0.9773314i,-1.846829+0.3275788i,-1.161043+1.438537i,0.06428543+1.81389i,1.20714+1.302206i,1.720225+0.1972246i,1.397765-0.9387544i,0.4480536-1.571056i,-0.6444454-1.445525i,-1.373529-0.6785309i,-1.444167+0.3366818i,-0.8790632+1.13617i,0.02840811+1.393627i,0.8686489+1.041068i,1.295647+0.2676352i,1.157719-0.5817919i,0.5392852-1.154216i,-0.287606-1.224324i,-0.9756461-0.7751123i,-1.238284-0.000918957i,-0.9645438+0.7681548i,0.5410019+1.098153i,1.106265+0.5080997i,1.168237-0.3034189i,0.7031296-0.9624245i,-0.06364845-1.169658i,-0.77008-0.8477142i,-1.100798-0.171592i,-0.9379742+0.5337523i,-0.3970461+0.9643303i,0.2603061+0.9740774i,0.7675248+0.6082842i,0.9596314+0.04046815i,0.8007374-0.5218705i,0.3556823-0.9004515i,-0.241971-0.9687811i,-0.8030343-0.6698287i,-1.105257-0.05612302i,-0.9659724+0.673161i,-0.3568044+1.201706i,0.5150307+1.227492i,1.249351+0.6466004i,1.440019-0.3311654i,0.9152753-1.240641i,-0.1230978-1.593125i,-1.170958-1.156113i,-1.681363-0.1073865i},
		{0.1043603+0.1038881i,0.1655665-0.0116668i,0.1125508-0.1422508i,-0.02772221-0.1907115i,-0.1613369-0.1172555i,-0.199017+0.03068094i,-0.1211541+0.1574019i,0.01548555+0.1912277i,0.1288233+0.1290458i,0.1709943+0.02152626i,0.1461001-0.07730416i,0.08131764-0.1441016i,-0.007850779-0.1763i,-0.1170782-0.1613754i,-0.221049-0.07205413i,-0.2557296+0.0955573i,-0.1538956+0.2783652i,0.08285035+0.3558164i,0.3429304+0.22981i,0.4519894-0.07914861i,0.2940559-0.4070211i,-0.08158532-0.5352936i,-0.4620885-0.343886i,-0.5990453+0.08513632i,-0.3796141+0.5005665i,0.08408908+0.6398239i,0.6576574-0.07364909i,0.4205851-0.5110795i,-0.05122828-0.6554208i,-0.4834243-0.4332324i,-0.6376805+0.01707533i,-0.4441515+0.4391021i,-0.02587914+0.6093586i,0.3842241+0.4538068i,0.5746019+0.07285132i,0.4609357-0.3249775i,0.118407-0.5361422i,-0.2665019-0.4631873i,-0.4952509-0.1576562i,-0.4580299+0.2123017i,-0.1871012+0.4521905i,0.1642628+0.4436017i,0.4069138+0.2049454i,0.4192308-0.1231315i,0.210868-0.3597041i,-0.08918063-0.3854912i,-0.3115075-0.2054498i,-0.3438371+0.06275355i,-0.189538+0.2638478i,0.04446058+0.296013i,0.2183949+0.1638301i,0.243515-0.03496831i},
		{0.05152884-0.0002417093i,0.08008943-0.03836296i,0.06241475-0.1182699i,-0.04050637-0.1789077i,-0.1943913-0.1350827i,-0.2892313+0.04432688i,-0.2111544+0.2792628i,0.05382065+0.4045502i,0.3697539+0.2827134i,0.5159549-0.07139462i,0.342114-0.4597951i,-0.09663583-0.6133581i,-0.5408427-0.3837413i,-0.6873232+0.1258072i,-0.4054162+0.6032482i,0.1523309+0.7310205i,0.6382294+0.4089792i,0.7417465-0.1682156i,0.3998161-0.6399182i,-0.166075-0.7215387i,-0.6068962-0.3854066i,-0.6766643+0.14118i,-0.3732805+0.542751i,0.09294548+0.6160957i,0.4554579+0.3689537i,0.5493743-0.02540636i,0.0534765-0.4844536i,-0.2547681-0.3877203i,-0.4261031-0.1334997i,-0.4034158+0.1620382i,-0.2044266+0.3752899i,0.0836243+0.414277i,0.3296545+0.2581192i,0.4132169-0.0215926i,0.2900296-0.2848788i,0.02556048-0.395198i,-0.2364934-0.2996962i,-0.3584887-0.06159549i,-0.2901959+0.1815654i,-0.09081519+0.3049768i,0.1197787+0.2668074i,0.2395291+0.1164952i,0.2353553-0.05363522i,0.1399159-0.1686732i,0.01220017-0.2007551i,-0.09905735-0.1602214i,-0.1661669-0.07212227i,-0.1750403+0.03617568i,-0.1209261+0.1329229i,-0.01629558+0.1815572i,0.1011152+0.1548203i,0.1775929+0.05644462i},
		{0.2438179+0.3247989i,0.3816848+0.06918252i,0.310849-0.1993047i,0.08576607-0.3392931i,-0.1611666-0.2875915i,-0.2946823-0.08944261i,-0.2524059+0.1311344i,-0.0783438+0.2467093i,0.1086553+0.2039821i,0.1942353+0.05327343i,0.1433129-0.09184556i,0.01728331-0.1374139i,-0.07883322-0.07386578i,-0.0784362+0.0254743i,-0.0008681001+0.06895871i,0.07117691+0.02143442i,0.06336502-0.07003961i,-0.02844845-0.1175111i,-0.1343034-0.0647379i,-0.1641628+0.06650533i,-0.07627257+0.189569i,0.08991382+0.2124329i,0.2360017+0.1002345i,0.2641107-0.09865456i,0.1366468-0.2756802i,-0.09553673-0.3200156i,-0.3787554+0.08527183i,-0.2325926+0.3444042i,0.07286913+0.4361964i,0.3744498+0.2795942i,0.4859129-0.06187544i,0.3169883-0.3979856i,-0.0530575-0.5205548i,-0.4093874-0.3403426i,-0.5337484+0.04399939i,-0.3487018+0.4023076i,0.0297959+0.5219464i,0.3716469+0.3448676i,0.4856266-0.004662949i,0.3345516-0.3153936i,0.03602398-0.42943i,-0.2357309-0.3246355i,-0.3611543-0.09390647i,-0.3210649+0.139028i,-0.1666239+0.2898793i,0.0346777+0.3270249i,0.2237791+0.2479408i,0.3419657+0.0668936i,0.3290037-0.168275i,0.156462-0.3617732i,-0.12507-0.4003581i,-0.380023-0.227831i},
		{0.3511429-0.209141i,0.1387314-0.4023473i,-0.1578812-0.4098215i,-0.3935504-0.2186447i,-0.4519554+0.08403485i,-0.3025633+0.3582032i,-0.009862307+0.4789431i,0.3000884+0.3890552i,0.4924652+0.1190031i,0.4750342-0.2243567i,0.2367154-0.493549i,-0.1364687-0.555647i,-0.4819222-0.3553545i,-0.6247365+0.0411607i,-0.4674579+0.4558961i,-0.05824958+0.6758059i,0.4128577+0.5668554i,0.7032462+0.1600106i,0.6494393-0.3502525i,0.2635048-0.7035013i,-0.2667742-0.7134011i,-0.6758502-0.3683945i,-0.7589083+0.1633984i,-0.4736405+0.6225943i,0.0439304+0.7873573i,0.5485997+0.5767328i,0.6734018-0.4603274i,0.2153728-0.7994347i,-0.3646232-0.7579302i,-0.7846088-0.3377939i,-0.8239938+0.2675956i,-0.4441624+0.7554277i,0.1738671+0.8657996i,0.7109492+0.528213i,0.8791971-0.0863587i,0.5862949-0.6505716i,-0.006590869-0.8624559i,-0.5747604-0.6173882i,-0.8165092-0.06467284i,-0.6225646+0.4855189i,-0.1267154+0.7446275i,0.3864375+0.6041356i,0.6516628+0.1783626i,0.5648028-0.2823017i,0.2178662-0.5431206i,-0.1783855-0.5070859i,-0.4243504-0.2431969i,-0.4331805+0.07966291i,-0.2526138+0.300079i,-0.009808764+0.3452177i,0.1743732+0.2452691i,0.2457486+0.08714939i},
		{-0.8954272+0.3593021i,-0.4725485+0.8876017i,0.2184281+1.018353i,0.8483593+0.6581373i,1.102721-0.04239307i,0.8400795-0.7595426i,0.1622639-1.150784i,-0.6293695-1.014104i,-1.165342-0.384595i,-1.172858+0.468482i,-0.610584+1.147864i,0.2875457+1.30619i,1.097512+0.8254589i,1.402697-0.09517926i,1.016301-1.011423i,0.1031253-1.452114i,-0.8862083-1.174159i,-1.447839-0.3047707i,-1.295049+0.7201779i,-0.5086427+1.388767i,0.5155141+1.379551i,1.279864+0.7130545i,1.431202-0.2796242i,0.9138135-1.131237i,-0.02513016-1.454244i,-0.9559756-1.103142i,-1.269913+0.7674047i,-0.4731196+1.423073i,0.5765623+1.401219i,1.366386+0.683739i,1.484861-0.3906503i,0.8521917-1.277412i,-0.2128745-1.512022i,-1.152821-0.9729075i,-1.479306+0.04363196i,-1.045864+0.9922181i,-0.1174344+1.389532i,0.7997429+1.075057i,1.251034+0.2692756i,1.066175-0.5844427i,0.4079545-1.075712i,-0.3592481-1.024275i,-0.8764443-0.5263841i,-0.9522492+0.1388346i,-0.6154028+0.6646724i,-0.06298516+0.8505289i,0.4488716+0.665843i,0.7180904+0.2355437i,0.6709075-0.2343122i,0.3726022-0.5543229i,-0.02405931-0.6280637i,-0.3610528-0.4723046i},
		{0.4818545+0.426271i,0.589971+0.003702755i,0.4093138-0.3442693i,0.08674391-0.4718533i,-0.1999421-0.3768148i,-0.3415218-0.1600862i,-0.328456+0.0583513i,-0.2171115+0.2042627i,-0.07339536+0.2630986i,0.06348436+0.2531595i,0.1805348+0.1909322i,0.2665305+0.07795016i,0.2918638-0.08286231i,0.2162063-0.2583128i,0.02509566-0.3743016i,-0.2311713-0.3454957i,-0.435415-0.1365279i,-0.4581341+0.187635i,-0.2442877+0.4706896i,0.1286115+0.5457399i,0.4743203+0.3428559i,0.6012297-0.05278587i,0.4298643-0.4407289i,0.04275578-0.6209282i,-0.3667485-0.5065536i,-0.606007-0.1607969i,-0.301709+0.5626406i,0.1086144+0.6455675i,0.5006729+0.4614365i,0.7154495+0.05616583i,0.6305534-0.4310865i,0.2247926-0.785438i,-0.3630039-0.794899i,-0.8494527-0.3810346i,-0.9378086+0.3011561i,-0.5116822+0.8970703i,0.2446572+1.043422i,0.9157543+0.6092995i,1.100165-0.1875397i,0.6734755-0.8941084i,-0.1209552-1.1034i,-0.8252197-0.7101742i,-1.056433+0.03640565i,-0.7293654+0.7090831i,-0.07097221+0.969577i,0.5533538+0.7416449i,0.85751+0.2000782i,0.7548609-0.3721667i,0.3432001-0.7357123i,-0.1833385-0.7717485i,-0.6169948-0.4872493i,-0.7892435+0.004751484i},
		{-0.1768522+0.3701084i,0.1209067+0.3858572i,0.3451566+0.20143i,0.3891402-0.07983197i,0.2385483-0.3186548i,-0.03323657-0.4010155i,-0.2973977-0.2822132i,-0.4199226-0.009850685i,-0.32399+0.2847982i,-0.04227705+0.4406229i,0.2801345+0.3554319i,0.4559336+0.06059182i,0.3704813-0.2791667i,0.06565252-0.4590799i,-0.2758728-0.3670851i,-0.4458831-0.06186906i,-0.3475322+0.2646937i,-0.0553893+0.4160738i,0.2425214+0.3174484i,0.3733205+0.05186599i,0.2838261-0.2097782i,0.05456108-0.3240044i,-0.1702557-0.252774i,-0.2751907-0.06340443i,-0.2277453+0.1298176i,-0.07528078+0.2325082i,0.1986584+0.08539108i,0.1932294-0.06836079i,0.08916947-0.1730431i,-0.05278349-0.1769113i,-0.1525975-0.08405747i,-0.1564671+0.04589666i,-0.0705011+0.1334957i,0.04385556+0.1308414i,0.1130909+0.05181871i,0.1020853-0.04255329i,0.03298904-0.09137872i,-0.03946543-0.07492567i,-0.07143557-0.01879252i,-0.05527475+0.03490004i,-0.01197247+0.05864571i,0.032176+0.04819044i,0.05895183+0.01208677i,0.05600304-0.0366204i,0.01549109-0.07671309i,-0.0536886-0.07727862i,-0.1129064-0.01650799i,-0.1070162+0.08682798i,-0.009421943+0.1643123i,0.1358193+0.1380599i,0.2240101-0.009359952i,0.1632904-0.196195i},
		{-0.6006429-0.817578i,-0.9943331-0.2501494i,-0.9387336+0.4491205i,-0.4401941+0.9642059i,0.2916025+1.042127i,0.9181532+0.616339i,1.120926-0.1369547i,0.767765-0.8569765i,0.007488423-1.168023i,-0.7802514-0.8851842i,-1.177085-0.1366498i,-0.9620032+0.6868045i,-0.2479241+1.143757i,0.575589+0.9951043i,1.066732+0.3408392i,0.9850633-0.4467292i,0.4162684-0.9484029i,-0.3024422-0.9357544i,-0.7949223-0.4754263i,-0.8534477+0.1475566i,-0.5189338+0.6156102i,-0.01054667+0.7456221i,0.4218304+0.5462148i,0.6197806+0.1625969i,0.5553828-0.2255743i,0.2985599-0.4825298i,-0.3390957-0.4089712i,-0.5079916-0.1313795i,-0.4861723+0.1933154i,-0.2759096+0.4462543i,0.04801184+0.5251942i,0.3577679+0.3913067i,0.5241412+0.09443154i,0.4756201-0.2439514i,0.2315094-0.4840716i,-0.1084012-0.528596i,-0.408495-0.3602219i,-0.5510689-0.0433815i,-0.4769822+0.3026815i,-0.204527+0.5444942i,0.1729772+0.5777922i,0.5107048+0.3674354i,0.6585935-0.0262655i,0.5243639-0.4518731i,0.1303789-0.7156591i,-0.370583-0.6678694i,-0.7459056-0.2898891i,-0.791095+0.2698882i,-0.4453568+0.7470616i,0.1532622+0.8879584i,0.7177076+0.5902424i,0.9533404-0.02441176i},
		{1.051719-1.093786i,0.08914685-1.528715i,-0.9325227-1.223408i,-1.503921-0.3187958i,-1.339483+0.734812i,-0.531276+1.412844i,0.5041435+1.394207i,1.255638+0.7214484i,1.386421-0.2448288i,0.8864971-1.03687i,0.03667105-1.319661i,-0.7661544-1.024742i,-1.201274-0.3306447i,-1.134156+0.4577682i,-0.6237814+1.040768i,0.129232+1.211169i,0.8478953+0.8998834i,1.250262+0.2008767i,1.141617-0.6310523i,0.5153298-1.244603i,-0.3964671-1.332936i,-1.187621-0.8002627i,-1.461558+0.1483971i,-1.046294+1.075075i,-0.1097876+1.52085i,0.9070107+1.248515i,1.405463-0.6889645i,0.6382159-1.436493i,-0.4320113-1.517465i,-1.308448-0.8931636i,-1.584934+0.1515822i,-1.126951+1.138354i,-0.1346727+1.607182i,0.9377976+1.325983i,1.582108+0.4094202i,1.476902-0.7164414i,0.6579335-1.506858i,-0.4813984-1.568719i,-1.379209-0.8695819i,-1.594611+0.2376735i,-1.038227+1.19921i,-0.01063095+1.552909i,0.9705068+1.161572i,1.447051+0.2588642i,1.239814-0.7009143i,0.500703-1.284582i,-0.4020128-1.274133i,-1.075572-0.7277867i,-1.265564+0.08788863i,-0.9302596+0.8309531i,-0.2266006+1.2146i,0.5612748+1.098044i},
		{0.1299593+1.101373i,0.8080041+0.7654297i,1.114888+0.07204747i,0.9079592-0.6597429i,0.2792417-1.093851i,-0.4872852-1.02766i,-1.041088-0.482926i,-1.120328+0.2993665i,-0.6736359+0.9600394i,0.1052916+1.181675i,0.8542553+0.8418058i,1.207577+0.08589505i,0.9785917-0.7271003i,0.2661274-1.194555i,-0.581728-1.076712i,-1.140419-0.4287966i,-1.131151+0.4213188i,-0.5689248+1.044914i,0.2494844+1.139593i,0.9102213+0.6830482i,1.102521-0.07069i,0.7689034-0.7411638i,0.1094676-1.022973i,-0.5450457-0.825046i,-0.9060498-0.2842494i,-0.8505424+0.3311374i,0.1098959+0.8448267i,0.586966+0.5871109i,0.8077546+0.1079277i,0.699971-0.3996921i,0.3121348-0.7398109i,-0.2039212-0.7784675i,-0.6423838-0.4937477i,-0.8181743+0.00681291i,-0.6454334+0.5179965i,-0.1848652+0.8167667i,0.3704157+0.7616862i,0.7740988+0.364778i,0.8388313-0.2045926i,0.5270821-0.6920677i,-0.02645439-0.8749347i,-0.5743487-0.6665394i,-0.8696953-0.1574035i,-0.7786792+0.4260936i,-0.3400491+0.8243594i,0.2536516+0.8599721i,0.7416506+0.5145098i,0.907962-0.06433032i,0.6739984-0.6256748i,0.133832-0.9213124i,-0.4817483-0.8120812i,-0.8997559-0.3323324i},
		{-0.1677458+0.1899803i,0.01763095+0.28483i,0.2376335+0.2131677i,0.3545852-0.01477744i,0.2700217-0.2844481i,-0.003784084-0.4309181i,-0.3298874-0.3358357i,-0.5110286-0.01347689i,-0.4065388+0.3729625i,-0.0347539+0.5905306i,0.4115048+0.4770288i,0.6636675+0.05838847i,0.5422207-0.4419004i,0.08410192-0.7241818i,-0.4594974-0.5982403i,-0.7666291-0.1132528i,-0.6433508+0.4596502i,-0.1484015+0.7877368i,0.4391156+0.6782659i,0.7873542+0.1922665i,0.7056963-0.3973544i,0.2463894-0.7686366i,-0.3372737-0.7292324i,-0.7373334-0.3099552i,-0.7518926+0.2650966i,-0.3791976+0.7003356i,0.6638836+0.4476519i,0.7964211-0.1188956i,0.507257-0.6319592i,-0.06143101-0.8126546i,-0.6053491-0.5500401i,-0.8177692+0.02141629i,-0.5699232+0.5816658i,-0.0005150331+0.8059551i,0.5563226+0.5641428i,0.7730345+0.007393442i,0.5338774-0.5241666i,0.004757753-0.7178274i,-0.4812756-0.48391i,-0.6427723+0.001092191i,-0.4214317+0.4263825i,0.004915201+0.5536166i,0.3615124+0.3543403i,0.4582807-0.003899525i,0.2895238-0.2916721i,0.001780169-0.3652358i,-0.2237228-0.2315996i,-0.2818735-0.009322775i,-0.1824278+0.1648065i,-0.01439873+0.2133207i,0.1208148+0.1414576i,0.1619942+0.0125939i},
		{1.43083+0.1177384i,1.166784-0.854135i,0.3244347-1.41412i,-0.6783499-1.282576i,-1.347042-0.5288839i,-1.361117+0.4721788i,-0.7254452+1.235462i,0.2453842+1.402912i,1.087665+0.9066113i,1.408296-0.0102201i,1.063177-0.9127586i,0.2201097-1.376704i,-0.7191906-1.185206i,-1.306707-0.4332552i,-1.263575+0.5138212i,-0.6192893+1.196815i,0.3017934+1.291663i,1.046783+0.7716259i,1.266686-0.0871685i,0.8870776-0.8589697i,0.1259699-1.19029i,-0.6392653-0.9651237i,-1.068228-0.332397i,-1.006703+0.3972229i,-0.5250688+0.9092267i,0.1452954+1.012981i,0.9845179+0.1026592i,0.8330396-0.5206643i,0.3332052-0.9211072i,-0.3096102-0.9294441i,-0.8223149-0.5350013i,-0.9773149+0.09706257i,-0.6998949+0.6884992i,-0.1116139+0.9729661i,0.5219364+0.8232044i,0.9167375+0.311705i,0.9032171-0.3276327i,0.4982048-0.8127944i,-0.1135031-0.9401671i,-0.6681891-0.6651539i,-0.9351044-0.1101986i,-0.8055626+0.4914921i,-0.3320754+0.8890753i,0.2914216+0.9120114i,0.8028995+0.5410791i,0.9777778-0.07587595i,0.727873-0.6776004i,0.1483823-0.9981426i,-0.5152992-0.885683i,-0.9714471-0.3753787i,-1.010427+0.3202022i,-0.5991439+0.8995426i},
		{0.6138907-0.4118768i,0.2279941-0.6816903i,-0.2289656-0.6624483i,-0.5713952-0.3775863i,-0.6687023+0.04568682i,-0.4948842+0.4319446i,-0.1329505+0.6311294i,0.2667356+0.5765385i,0.5513014+0.3022358i,0.6212755-0.08129766i,0.4571377-0.4334946i,0.1168473-0.6290968i,-0.2838162-0.5920515i,-0.6005705-0.3188937i,-0.7010632+0.1091631i,-0.5158146+0.5364951i,-0.0836327+0.7786742i,0.438057+0.6994438i,0.8207528+0.2882125i,0.8632438-0.3073944i,0.4985763-0.8253824i,-0.1483173-1.002541i,-0.7932992-0.7085689i,-1.114205-0.03314979i,-0.911254+0.7277445i,-0.2286948+1.195939i,1.245505+0.4282593i,1.261195-0.5170489i,0.6211367-1.260224i,-0.3830161-1.389779i,-1.237015-0.7973713i,-1.475688+0.235882i,-0.9490817+1.173039i,0.07858452+1.512699i,1.066796+1.071328i,1.49818+0.08675119i,1.162265-0.919361i,0.2578488-1.433733i,-0.7353092-1.22255i,-1.325003-0.4311812i,-1.254192+0.5230049i,-0.6011504+1.180679i,0.2940472+1.259239i,1.010942+0.7598922i,1.238722-0.06194825i,0.8978642-0.8257803i,0.1596543-1.192228i,-0.6336449-1.005123i,-1.118236-0.3588021i,-1.072974+0.4407802i,-0.5265819+1.015111i,0.2513665+1.095543i},
		{-0.01713526+0.1711822i,0.07932305+0.1360609i,0.1332806+0.06124328i,0.1378001-0.02403616i,0.09763131-0.09614872i,0.02390501-0.1354268i,-0.06302256-0.1253244i,-0.1303847-0.0609655i,-0.1422143+0.03743657i,-0.08289298+0.1229993i,0.02200833+0.1449156i,0.1117602+0.08577561i,0.1293959-0.01726951i,0.06741634-0.09333931i,-0.02102736-0.09224619i,-0.06345539-0.02852814i,-0.03219846+0.02858521i,0.02673113+0.01837981i,0.03386584-0.04864096i,-0.0433736-0.09117686i,-0.144328-0.0311648i,-0.1559597+0.1197448i,-0.01701957+0.2456568i,0.2047017+0.2125462i,0.3417275-0.008399778i,0.2547676-0.2889363i,-0.3615895-0.2803312i,-0.4791947+0.0728096i,-0.2913206+0.4125796i,0.09513609+0.5095698i,0.4349071+0.2934982i,0.5148304-0.09950544i,0.2945811-0.4262837i,-0.08059962-0.5007615i,-0.3896157-0.3019671i,-0.475615+0.03763065i,-0.3205653+0.3322003i,-0.02531134+0.4478072i,0.2638681+0.3513543i,0.4237261+0.1001694i,0.3910733-0.1946122i,0.1768139-0.4062669i,-0.1323792-0.4331071i,-0.3944803-0.2453618i,-0.4692697+0.08162642i,-0.2982572+0.3843659i,0.04298768+0.4919271i,0.3704931+0.3315548i,0.4958308-0.01403525i,0.3451226-0.3478954i,0.009209768-0.4791526i,-0.3136362-0.3418276i},
		{-0.9769071+1.429664i,0.197538+1.777551i,1.35254+1.253456i,1.896376+0.0606679i,1.506706-1.23362i,0.3257702-1.965909i,-1.076886-1.723655i,-1.980224-0.5865896i,-1.893475+0.8858792i,-0.8340789+1.935268i,0.6643403+2.008686i,1.830073+1.061329i,2.065654-0.417181i,1.262954-1.667527i,-0.1513771-2.064334i,-1.45447-1.434175i,-2.007419-0.1235877i,-1.570014+1.201044i,-0.3959662+1.899246i,0.9195096+1.664965i,1.744843+0.6526923i,1.713335-0.62285i,0.8808095-1.549437i,-0.3235393-1.710181i,-1.318544-1.06901i,-1.652577+0.03277372i,-0.2397236+1.540776i,0.7772912+1.29549i,1.378871+0.4854176i,1.327378-0.4848667i,0.6964539-1.174697i,-0.1933432-1.305765i,-0.9389631-0.8652565i,-1.233594-0.08376494i,-0.984507+0.6838431i,-0.3327725+1.114594i,0.4214225+1.047629i,0.9527654+0.5413638i,1.049702-0.1624367i,0.7000284-0.7524136i,0.08438198-0.9885551i,-0.5186883-0.8030095i,-0.8656793-0.3122424i,-0.8485241+0.2583438i,-0.5156518+0.686631i,-0.01963915+0.8382296i,0.4607295+0.6895236i,0.7761405+0.3039139i,0.8284401-0.2000553i,0.581301-0.6673563i,0.08202159-0.9264126i,-0.5170091-0.8379595i},
		{-0.2535683+0.1538651i,-0.1025697+0.2976741i,0.1226224+0.3127207i,0.318235+0.1654258i,0.3701596-0.09434098i,0.2227841-0.3379973i,-0.06930702-0.4205084i,-0.3529908-0.2714787i,-0.4593003+0.0461668i,-0.3103378+0.3592037i,0.02244041+0.4838515i,0.3535902+0.3401749i,0.4937471+0.004603471i,0.363265-0.3349174i,0.03695308-0.490794i,-0.3042073-0.3824477i,-0.4784452-0.07502588i,-0.4001116+0.2646355i,-0.1172525+0.4608533i,0.2209063+0.4173533i,0.4418147+0.1601999i,0.4335477-0.1782688i,0.1992047-0.4238983i,-0.1414458-0.4464494i,-0.4079868-0.2293395i,-0.4527791+0.113756i,0.09665088+0.4491114i,0.3780604+0.2479401i,0.4327986-0.08974685i,0.2332449-0.3599683i,-0.09129024-0.4026685i,-0.3373058-0.20369i,-0.3593224+0.09886756i,-0.1620506+0.3093611i,0.1101224+0.3049901i,0.2766697+0.1118563i,0.243038-0.1232674i,0.05671597-0.2408449i,-0.1372717-0.1773199i,-0.2041344+0.0001539739i,-0.111583+0.1517306i,0.0561039+0.1688896i,0.1665317+0.04909439i,0.1371396-0.1089539i,-0.007449745-0.1814949i,-0.1567503-0.1104003i,-0.1961543+0.05578433i,-0.0897468+0.1975456i,0.09384401+0.2097793i,0.2293503+0.0760665i,0.2216274-0.1196086i,0.07033777-0.2503235i},
		{-0.08323133-0.30058i,-0.2319459-0.1556649i,-0.2456454+0.02620532i,-0.1521176+0.1525547i,-0.02352177+0.1836264i,0.07445376+0.1382538i,0.1159968+0.0643465i,0.1144145+0.0003508865i,0.0954995-0.04468916i,0.06995558-0.0819191i,0.02761961-0.1168437i,-0.04298355-0.1321987i,-0.1284822-0.09743237i,-0.1844041+0.0003668164i,-0.1606535+0.1303329i,-0.0431555+0.2233785i,0.1218468+0.2130906i,0.245728+0.08532786i,0.2511201-0.1020015i,0.1247889-0.2484477i,-0.06960723-0.272335i,-0.2296331-0.1611598i,-0.2759846+0.02384975i,-0.1948161+0.1891039i,-0.03509603+0.2630709i,0.1287409+0.2264136i,0.2563215-0.05240926i,0.18432-0.1983054i,0.034544-0.2841457i,-0.1532706-0.2665839i,-0.3085023-0.1261036i,-0.3468177+0.1038886i,-0.2165081+0.3271286i,0.05211288+0.4194519i,0.3373147+0.3010453i,0.4797595+0.001147892i,0.3765246-0.3365429i,0.05573969-0.5245229i,-0.3231525-0.4413282i,-0.5523515-0.1117256i,-0.495071+0.2968386i,-0.1687894+0.5635867i,0.2588367+0.5380113i,0.5598533+0.2257845i,0.5704226-0.2117417i,0.2805799-0.5434127i,-0.1590195-0.5921355i,-0.5165221-0.3302556i,-0.6023884+0.1043599i,-0.3715802+0.4809887i,0.05106446+0.6000131i,0.4380286+0.4016156i},
		{0.4857498+0.8161677i,0.8951483+0.2846618i,0.846496-0.3738206i,0.3818116-0.8243767i,-0.2498559-0.8534467i,-0.7307659-0.4685754i,-0.8366638+0.1203735i,-0.5399526+0.6185076i,-0.008397209+0.7954538i,0.4911968+0.5914106i,0.7293798+0.1313463i,0.619853-0.3519417i,0.2448204-0.6391156i,-0.2039369-0.6242613i,-0.527222-0.3463925i,-0.6057914+0.05123017i,-0.4342011+0.3985209i,-0.1006686+0.5672892i,0.2598719+0.5061517i,0.512394+0.2446475i,0.5593336-0.119352i,0.3724809-0.4445368i,0.01495877-0.5899298i,-0.3661802-0.4758891i,-0.5937311-0.1362405i,-0.5479054+0.2785663i,0.1820673+0.5841603i,0.5084096+0.3237632i,0.5836883-0.07702263i,0.3879848-0.4186007i,0.03522933-0.5489956i,-0.3021032-0.4338339i,-0.4853439-0.1515002i,-0.4626509+0.1663105i,-0.2664185+0.399453i,0.02059471+0.4747981i,0.2980071+0.3727944i,0.4691572+0.1252034i,0.4626404-0.1864092i,0.2623563-0.4433322i,-0.06814591-0.5285873i,-0.3945072-0.3844696i,-0.5652986-0.05508117i,-0.4880192+0.3206842i,-0.1825512+0.5704738i,0.2218923+0.5721006i,0.545153+0.3133612i,0.637529-0.1009648i,0.4453272-0.4932501i,0.03638569-0.6856259i,-0.4204787-0.5743427i,-0.7171099-0.1822337i},
		{0.07415911+0.5009626i,0.3720313+0.3576056i,0.5311677+0.052919i,0.4666924-0.3056777i,0.1714029-0.5601845i,-0.2460154-0.5635749i,-0.5821131-0.2724986i,-0.6384676+0.1934092i,-0.3508618+0.5899476i,0.1453875+0.6840736i,0.577318+0.4049942i,0.6967564-0.09791059i,0.4367355-0.540083i,-0.04696196-0.6768675i,-0.4773668-0.4500656i,-0.6282195-0.009995673i,-0.4496095+0.3918067i,-0.07309148+0.5569301i,0.2890146+0.4392906i,0.4700173+0.1398586i,0.4214955-0.1764712i,0.2057697-0.3741547i,-0.06221176-0.3969201i,-0.2748949-0.2652652i,-0.3650364-0.04632667i,-0.3129191+0.1764788i,0.08213222+0.344383i,0.2760927+0.2232789i,0.3568687+0.005409935i,0.2837949-0.2190316i,0.08346362-0.3491219i,-0.1552281-0.3222057i,-0.3210348-0.1492824i,-0.336806+0.08678351i,-0.2003466+0.2731684i,0.01579539+0.3265833i,0.2064652+0.2349394i,0.2915778+0.0561695i,0.2527478-0.1223222i,0.1282427-0.2334193i,-0.02301326-0.2551883i,-0.1557736-0.1999455i,-0.2452392-0.08773276i,-0.2704889+0.06441358i,-0.2043004+0.2267358i,-0.03326273+0.3379495i,0.2032906+0.3191976i,0.3986703+0.1292637i,0.423677-0.1771618i,0.2163767-0.4471993i,-0.1484489-0.5089317i,-0.4769176-0.2895238i},
		{0.5961377-0.1332794i,0.3871431-0.4677254i,0.02204419-0.6124982i,-0.3666619-0.510846i,-0.6284966-0.1808367i,-0.6314903+0.268316i,-0.328073+0.6432517i,0.1807676+0.7366425i,0.65167+0.4504569i,0.8134053-0.1073422i,0.5388433-0.6457821i,-0.04653231-0.8511282i,-0.6169947-0.5896315i,-0.8436749-0.006764735i,-0.6047904+0.5586132i,-0.05909348+0.7906397i,0.4679148+0.5905758i,0.6972252+0.1160297i,0.5553774-0.3472013i,0.1802238-0.5728847i,-0.2035796-0.5073661i,-0.4291899-0.2504403i,-0.4526279+0.04760222i,-0.3218064+0.2775728i,-0.1087715+0.3942715i,0.127575+0.3870963i,0.4385743+0.01399037i,0.3798836-0.2664509i,0.1428941-0.4697835i,-0.1942106-0.4795673i,-0.4767492-0.2566278i,-0.5500549+0.1155839i,-0.3533002+0.4583136i,0.03201288+0.5900583i,0.4156477+0.4307975i,0.5993119+0.05343685i,0.4865544-0.3512692i,0.1369078-0.5779148i,-0.2680404-0.5180095i,-0.5262544-0.2148616i,-0.5235269+0.1685798i,-0.2849863+0.4455211i,0.05532046+0.5033687i,0.3385588+0.3465088i,0.4602618+0.06883889i,0.399762-0.2106204i,0.1996083-0.3992352i,-0.06959563-0.4451522i,-0.3266664-0.3305724i,-0.4819258-0.0745652i,-0.4530881+0.2487693i,-0.2112279+0.5072491i},
		{1.114524+0.3485888i,1.093809-0.4738169i,0.5222912-1.093851i,-0.3325299-1.180773i,-1.03674-0.6707172i,-1.222443+0.1829022i,-0.7930436+0.9411763i,0.0244457+1.219411i,0.8095949+0.8912123i,1.177021+0.1412164i,0.9680156-0.6493815i,0.3089817-1.10382i,-0.4721071-1.025067i,-1.009305-0.4699461i,-1.061345+0.2916449i,-0.6123289+0.9016324i,0.1216658+1.072806i,0.7859814+0.7234523i,1.05325+0.02678494i,0.7922377-0.6640579i,0.1469518-0.9961718i,-0.5348421-0.8115069i,-0.8970519-0.2368323i,-0.7794285+0.3962986i,-0.2983769+0.7553524i,0.2474534+0.6997146i,0.580555-0.09013356i,0.3532939-0.3672386i,0.07020503-0.4326587i,-0.1432189-0.3537569i,-0.2670215-0.2248318i,-0.3375069-0.08210877i,-0.3631587+0.09308068i,-0.2953083+0.3027471i,-0.08225004+0.4747654i,0.2466932+0.4856454i,0.5514017+0.2544958i,0.6459343-0.167212i,0.4206732-0.5883712i,-0.06432846-0.7723265i,-0.5849282-0.5779482i,-0.8632842-0.05893043i,-0.7224733+0.5436598i,-0.1966421+0.9182302i,0.4691556+0.8488865i,0.9364441+0.3409988i,0.9506952-0.3664919i,0.4838641-0.9166452i,-0.2400845-1.021434i,-0.8574244-0.6183314i,-1.056195+0.09330755i,-0.7397517+0.7583525i},
		{0.1823558+1.408213i,1.045826+0.9695951i,1.426764+0.07682455i,1.147304-0.85192i,0.3410883-1.386552i,-0.618126-1.285854i,-1.293951-0.6005575i,-1.382468+0.3576884i,-0.8425897+1.156894i,0.08592872+1.43312i,0.9830019+1.052865i,1.432484+0.1820303i,1.217354-0.7783043i,0.4334136-1.374943i,-0.5469646-1.324653i,-1.25639-0.6592059i,-1.36803+0.2920755i,-0.8544546+1.076272i,0.01721095+1.346576i,0.8392091+1.017442i,1.265118+0.2718391i,1.148064-0.5555915i,0.5658159-1.132925i,-0.2408925-1.246007i,-0.9615791-0.8517424i,-1.309369-0.08621847i,-0.4064902+1.334201i,0.5458639+1.335773i,1.315174+0.7027434i,1.502689-0.3181784i,0.9618693-1.247155i,-0.08411016-1.604056i,-1.127194-1.175688i,-1.634958-0.1530617i,-1.340542+0.9562837i,-0.3896231+1.596458i,0.7402845+1.455909i,1.494674+0.6199694i,1.522584-0.4897061i,0.8359265-1.338955i,-0.2183754-1.541125i,-1.139787-1.027137i,-1.511092-0.05861586i,-1.182428+0.9070629i,-0.3270746+1.431307i,0.6492086+1.291742i,1.301005+0.5753603i,1.348006-0.3733343i,0.7951019-1.121399i,-0.08618508-1.348354i,-0.8970314-0.9808869i,-1.29434-0.2045937i},
		{-0.5823537+0.8280622i,0.1296747+0.9582659i,0.702522+0.582368i,0.8495446-0.03979674i,0.5572417-0.5496456i,0.0498609-0.7094379i,-0.3806905-0.5119339i,-0.5491731-0.1332012i,-0.4486639+0.2082445i,-0.2021725+0.3780787i,0.0437318+0.3672628i,0.2026804+0.2490135i,0.2666012+0.1043805i,0.2683647-0.02706398i,0.2311908-0.1464771i,0.1458054-0.2585416i,-0.009210309-0.3347345i,-0.221583-0.3124416i,-0.4144996-0.1396847i,-0.4675993+0.162125i,-0.2920286+0.4697527i,0.0855686+0.6039947i,0.4983902+0.4385492i,0.7131749+0.003746508i,0.5709493-0.4968152i,0.1036602-0.7872844i,-0.8211228-0.2141613i,-0.7750924+0.3880346i,-0.3361968+0.8137432i,0.2785928+0.8465811i,0.7689645+0.4697496i,0.9015288-0.1377259i,0.6119174-0.6945215i,0.02478154-0.9428641i,-0.6000481-0.7557698i,-0.9710484-0.195784i,-0.8905311+0.4945041i,-0.3612224+0.9829275i,0.3838774+1.003199i,0.9719908+0.5090067i,1.081215-0.2699356i,0.6314554-0.9300661i,-0.1504754-1.115421i,-0.8499866-0.7265267i,-1.102393+0.02103067i,-0.7974359+0.7284138i,-0.1224854+1.045414i,0.5679116+0.8507668i,0.9537445+0.2810517i,0.8936635-0.3775678i,0.4506233-0.8403699i,-0.1718999-0.9309842i},
		{0.3379354-0.9688669i,-0.3735566-0.9960806i,-0.9571052-0.5364085i,-1.103196+0.2173945i,-0.7101238+0.8979613i,0.04339433+1.157859i,0.7884372+0.8606006i,1.162546+0.1502816i,0.9916272-0.6326332i,0.3608147-1.125312i,-0.4415095-1.106039i,-1.056754-0.579449i,-1.203111+0.2307401i,-0.7921619+0.9666069i,0.01732863+1.277474i,0.861104+0.9821343i,1.319973+0.1839502i,1.13327-0.7419393i,0.3631809-1.32018i,-0.6071352-1.23367i,-1.269754-0.5162351i,-1.277975+0.453441i,-0.6438032+1.165505i,0.2793719+1.267885i,1.011136+0.7489786i,1.210748-0.0877746i,0.1130306-1.116753i,-0.5983274-0.8994623i,-0.9957293-0.3099921i,-0.9401985+0.3713514i,-0.4877658+0.8546264i,0.1504607+0.9492953i,0.6965104+0.6320782i,0.9188554+0.05458549i,0.7329237-0.5213571i,0.2393854-0.843356i,-0.3282839-0.7865576i,-0.7223116-0.403813i,-0.7956526+0.1183533i,-0.5495474+0.561601i,-0.1031248+0.7676038i,0.3729439+0.6771638i,0.7115864+0.3257005i,0.7838807-0.1716318i,0.5347292-0.635383i,0.0267938-0.8628201i,-0.543063-0.713949i,-0.9041145-0.2098643i,-0.8489175+0.4343022i,-0.3704488+0.8975415i,0.3055621+0.9302236i,0.8358364+0.5072507i},
		{-1.787233+0.1501863i,-1.233125+1.316954i,-0.02688451+1.803414i,1.186865+1.340125i,1.752797+0.1855748i,1.386045-1.019581i,0.3298185-1.631875i,-0.811556-1.375071i,-1.445346-0.4658258i,-1.317868+0.5648306i,-0.5987295+1.206262i,0.2887914+1.228602i,0.9341945+0.729506i,1.121227-6.252789e-05i,0.8531693-0.6518293i,0.2795952-1.006104i,-0.3808919-0.9588643i,-0.8879553-0.526889i,-1.031906+0.1385006i,-0.7211575+0.7657121i,-0.06509188+1.057206i,0.6342344+0.8479734i,1.023098+0.226841i,0.901246-0.4873037i,0.349399-0.924452i,-0.3209027-0.8833368i,-0.8033093+0.1357424i,-0.4992296+0.5528693i,-0.06172425+0.6739652i,0.3064477+0.5350397i,0.5086358+0.2600571i,0.545377-0.04314225i,0.445033-0.3186822i,0.2198065-0.5269282i,-0.1123424-0.6025471i,-0.4752534-0.4684608i,-0.7212861-0.1049408i,-0.6930982+0.3870506i,-0.3290872+0.7943915i,0.2620664+0.887689i,0.8197238+0.5555753i,1.048406-0.1039844i,0.7780723-0.7988371i,0.07998554-1.171935i,-0.735209-0.9880958i,-1.254352-0.280612i,-1.17588+0.6324983i,-0.4886439+1.291083i,0.4935416+1.332147i,1.277982+0.6965407i,1.45012-0.3204856i,0.899272-1.213134i},
		{0.09304976-0.5182857i,-0.2900858-0.4664297i,-0.5467145-0.1550064i,-0.5214885+0.2610055i,-0.2124867+0.5546182i,0.2196526+0.5592489i,0.5420643+0.2672931i,0.5819685-0.1661301i,0.3203146-0.51212i,-0.1033926-0.5925692i,-0.4696412-0.3704424i,-0.5930872+0.03665523i,-0.4143622+0.4195957i,-0.0279995+0.5836821i,0.3655218+0.4473064i,0.5625622+0.0853247i,0.4645018-0.30867i,0.1323203-0.5268555i,-0.2481312-0.4627998i,-0.4741108-0.1688472i,-0.4418992+0.1819063i,-0.1972166+0.4038852i,0.1085313+0.4047031i,0.3188227+0.220885i,0.3566454-0.02866209i,0.242709-0.224789i,-0.1299418-0.2633827i,-0.2529052-0.1327437i,-0.2806379+0.04297975i,-0.1991906+0.2060018i,-0.02889272+0.2895394i,0.1634466+0.2451244i,0.2838398+0.08163212i,0.264692-0.1223709i,0.1151054-0.2579895i,-0.07842474-0.2559983i,-0.2091583-0.1326651i,-0.2216591+0.02772642i,-0.1396801+0.1386009i,-0.03124952+0.1681006i,0.05189336+0.1414973i,0.1038126+0.09648446i,0.1415023+0.04207327i,0.1623487-0.03709542i,0.1330611-0.139916i,0.02599578-0.2207146i,-0.1337209-0.2118273i,-0.2629276-0.08288017i,-0.2721355+0.1177383i,-0.1345007+0.2820338i,0.08650186+0.3118469i,0.2745798+0.1842266i},
		{0.1088174-0.3188435i,-0.1294267-0.3147019i,-0.3102478-0.1535612i,-0.3413468+0.0930248i,-0.1963649+0.304281i,0.06062302+0.3651739i,0.2969556+0.2322315i,0.3806023-0.03140441i,0.259534-0.2837547i,-0.002516357-0.3848645i,-0.2617243-0.2798079i,-0.3787422-0.02902957i,-0.2964071+0.230933i,-0.06448781+0.3659969i,0.1947637+0.3125716i,0.351731+0.1022599i,0.3296505-0.158918i,0.1379677-0.3402919i,-0.1294812-0.3461575i,-0.3334876-0.1657234i,-0.3580296+0.1107382i,-0.1801581+0.3297795i,0.1035365+0.3600229i,0.3247747+0.1784813i,0.3477614-0.1048213i,0.161804-0.3128812i,-0.2895715-0.1351935i,-0.2782949+0.1078427i,-0.1063565+0.253463i,0.09734931+0.2298223i,0.2074562+0.08332369i,0.1829444-0.07555088i,0.07187065-0.1584704i,-0.0456598-0.1462977i,-0.1157811-0.07353207i,-0.1259409+0.01507375i,-0.08489737+0.08844253i,-0.006616834+0.1234671i,0.08260238+0.09847344i,0.1354311+0.01045676i,0.1048934-0.09957885i,-0.009093909-0.1543225i,-0.1353392-0.09580765i,-0.1708173+0.05231092i,-0.06656151+0.1815747i,0.1138817+0.1766237i,0.2280518+0.01782065i,0.1670361-0.1842166i,-0.04436776-0.2655092i,-0.251988-0.1423972i,-0.2881952+0.1100985i,-0.1080157+0.307108i},
		{-0.09626457-0.8193837i,-0.5482682-0.5673347i,-0.7529488-0.1217508i,-0.6640145+0.3433322i,-0.3266829+0.6673532i,0.140427+0.7340585i,0.5653707+0.5043491i,0.7688468+0.04999403i,0.6425611-0.4469468i,0.22141-0.7602557i,-0.3102639-0.7332233i,-0.7029362-0.3713258i,-0.773469+0.1536342i,-0.5001689+0.5961478i,-0.02241908+0.7655293i,0.4445727+0.6094093i,0.7154299+0.2136017i,0.6995728-0.257848i,0.41136-0.6309739i,-0.0489522-0.7688407i,-0.5196698-0.6036733i,-0.8127218-0.1680792i,-0.77693+0.3872503i,-0.3804454+0.8249171i,0.2371991+0.9183509i,0.7990966+0.5782475i,0.7551255-0.7310035i,0.108766-1.071545i,-0.6201965-0.9078078i,-1.077987-0.3003032i,-1.034862+0.4708639i,-0.4979466+1.041366i,0.2914464+1.135186i,0.9678028+0.6935634i,1.206822-0.09319504i,0.8769026-0.8638769i,0.1118755-1.246552i,-0.7351838-1.037133i,-1.250432-0.3129955i,-1.16475+0.5857641i,-0.5020037+1.21506i,0.4185286+1.25325i,1.13913+0.6736972i,1.300034-0.2364259i,0.8251576-1.024671i,-0.0438266-1.306274i,-0.8774738-0.9543986i,-1.275807-0.1524847i,-1.058912+0.7064911i,-0.3431831+1.213469i,0.5223382+1.134725i,1.123462+0.5173081i},
		{-0.8543932-0.7514294i,-1.143619-0.0620618i,-0.9494509+0.6661963i,-0.340329+1.132781i,0.4491169+1.128437i,1.091346+0.6183142i,1.281948-0.2184311i,0.8792104-1.02465i,0.01058789-1.400323i,-0.9350069-1.105304i,-1.471943-0.2255215i,-1.281109+0.8213388i,-0.4187174+1.485737i,0.6803684+1.396248i,1.434207+0.5876681i,1.447186-0.5090012i,0.7337703-1.315989i,-0.3070939-1.437299i,-1.137122-0.8599155i,-1.375251+0.07964194i,-0.9677529+0.9105271i,-0.1624235+1.272206i,0.6538016+1.05558i,1.138752+0.4032008i,1.117609-0.3859223i,0.6243559-0.9825069i,-0.8071227-0.8085281i,-1.127734-0.1201875i,-0.9426166+0.61295i,-0.3394281+1.058562i,0.3990552+1.019993i,0.9347946+0.5321395i,1.041026-0.1658549i,0.6993753-0.7603322i,0.0825782-1.011849i,-0.545461-0.8423299i,-0.9418353-0.3373594i,-0.9600455+0.3051067i,-0.5852227+0.840652i,0.05599311+1.048301i,0.7158406+0.8104439i,1.100049+0.1864187i,0.997671-0.571663i,0.4102947-1.107238i,-0.4094899-1.13478i,-1.063379-0.6084426i,-1.214883+0.2294737i,-0.7777926+0.9659509i,0.03281136+1.236911i,0.8178391+0.9176804i,1.20467+0.1762862i,1.027661-0.6272901i},
		{-1.119568-0.3776886i,-1.119966+0.4240049i,-0.6041369+1.054904i,0.2100734+1.21781i,0.9567541+0.8162046i,1.280311+0.01189077i,1.003808-0.8308519i,0.2304311-1.304168i,-0.6826668-1.156391i,-1.285514-0.4347595i,-1.264169+0.5163162i,-0.6163751+1.22043i,0.3341768+1.319791i,1.106182+0.7702153i,1.319925-0.1374087i,0.8949237-0.9428409i,0.0727278-1.266215i,-0.7347484-0.992092i,-1.165259-0.2931787i,-1.064672+0.491279i,-0.517622+1.027487i,0.2265174+1.11504i,0.8651832+0.7357857i,1.143336+0.04222024i,0.9339263-0.6901764i,0.2967502-1.146643i,-1.119324-0.5207167i,-1.208617+0.3357302i,-0.7019475+1.054491i,0.1639055+1.258864i,0.9462129+0.8338757i,1.241444+0.004330043i,0.9156873-0.7918425i,0.17039-1.157368i,-0.5937813-0.9512155i,-1.014205-0.3344069i,-0.9469572+0.3601491i,-0.4936637+0.8245359i,0.1041405+0.9098251i,0.6035604+0.6419842i,0.8452987+0.157773i,0.7702749-0.3665086i,0.4083157-0.7564774i,-0.1265453-0.8680568i,-0.6442296-0.6318991i,-0.9255254-0.1063634i,-0.8165107+0.5082704i,-0.325475+0.9355328i,0.3487121+0.9546016i,0.8949347+0.5264011i,1.042901-0.1675052i,0.7058164-0.8049773i},
		{-0.729626-0.7946423i,-1.057064-0.1526726i,-0.9097117+0.5387216i,-0.3737363+0.9800044i,0.310926+0.9976472i,0.860916+0.5965099i,1.055575-0.05837965i,0.8100566-0.7064487i,0.2064247-1.080492i,-0.5233871-1.00367i,-1.07005-0.4713671i,-1.167766+0.3188343i,-0.725004+1.023223i,0.1004742+1.294361i,0.9406386+0.9566174i,1.377153+0.1233563i,1.156256-0.8244784i,0.3439547-1.411425i,-0.6780633-1.314993i,-1.393976-0.5529024i,-1.425507+0.5053312i,-0.7429094+1.323304i,0.3104795+1.48291i,1.200087+0.9085706i,1.485595-0.09796666i,1.046739-1.027855i,-0.8136047-1.156323i,-1.339511-0.3581541i,-1.237494+0.5680211i,-0.5867588+1.205813i,0.3050497+1.290528i,1.045338+0.802074i,1.314653-0.040702i,0.9913772-0.8685362i,0.2087732-1.307339i,-0.6839892-1.14122i,-1.26436-0.4289941i,-1.239244+0.4973088i,-0.6093314+1.180738i,0.3109573+1.276242i,1.052379+0.7440894i,1.247946-0.1250506i,0.832664-0.8779669i,0.06108262-1.156034i,-0.6605622-0.8786368i,-1.008057-0.2470569i,-0.8880634+0.4083962i,-0.429866+0.8162505i,0.1345783+0.8674387i,0.5955337+0.603086i,0.8219023+0.1442797i,0.757108-0.3611708i},
		{0.3781651-0.3205292i,0.08519881-0.4551179i,-0.2027129-0.3826581i,-0.3706428-0.1663027i,-0.3729368+0.08736724i,-0.2337764+0.2786819i,-0.02197078+0.3480019i,0.1814383+0.2852737i,0.3086631+0.1221995i,0.3197112-0.08232351i,0.2099107-0.2572515i,0.01404177-0.3364337i,-0.1967942-0.2810341i,-0.3344826-0.1024707i,-0.3310943+0.1300003i,-0.1782844+0.3123291i,0.05848037+0.3560558i,0.2682442+0.2384252i,0.353483+0.01746178i,0.2821791-0.2012212i,0.09833923-0.3235905i,-0.1121276-0.3111928i,-0.2697524-0.1844331i,-0.3287097+0.004641095i,-0.2745495+0.1981956i,-0.114451+0.3382239i,0.3419744+0.2358283i,0.4496137-0.03368817i,0.3490504-0.3397914i,0.0451515-0.5198352i,-0.3287275-0.444483i,-0.5667723-0.1166036i,-0.5152172+0.303676i,-0.181151+0.5828922i,0.2588639+0.5584202i,0.5639771+0.2421809i,0.5756994-0.1898156i,0.304439-0.5103859i,-0.09520324-0.5723439i,-0.4272683-0.3720246i,-0.5556424-0.02199281i,-0.4465334+0.3236307i,-0.1543999+0.5327615i,0.2104878+0.5259196i,0.5088026+0.2913147i,0.6044364-0.09861115i,0.4206341-0.4855938i,0.003502644-0.6736825i,-0.4615458-0.5311241i,-0.7244463-0.09090213i,-0.6144046+0.4325646i,-0.1623928+0.7488075i},
		{1.173797+0.5818664i,1.269789-0.2881214i,0.795733-1.023914i,-0.03942605-1.291106i,-0.8524176-0.960877i,-1.259294-0.1862802i,-1.068314+0.6598661i,-0.3839563+1.170215i,0.4473123+1.114111i,1.024125+0.5513428i,1.099229-0.2175266i,0.6878384-0.8260331i,0.0241943-1.028661i,-0.5852944-0.7933583i,-0.9101856-0.2698347i,-0.8674926+0.3145699i,-0.5091074+0.7530417i,0.02845391+0.909147i,0.5668556+0.7303886i,0.9166778+0.257927i,0.9218828-0.3609497i,0.5300857-0.8883802i,-0.1440445-1.072743i,-0.8231019-0.7749963i,-1.173943-0.07578101i,-0.9815841+0.7207593i,0.5826209+1.141007i,1.203382+0.4949927i,1.246874-0.4113424i,0.6816526-1.126363i,-0.2108537-1.295503i,-0.9893948-0.8462744i,-1.286205-0.01375636i,-0.9854907+0.7971165i,-0.2562304+1.221499i,0.5573272+1.09735i,1.107087+0.5089803i,1.181023-0.2809959i,0.7628552-0.9514505i,0.01803676-1.236217i,-0.7650064-1.007019i,-1.262451-0.323802i,-1.229144+0.5589073i,-0.6194221+1.258421i,0.3436943+1.416078i,1.221729+0.8886892i,1.555009-0.1281003i,1.117752-1.149143i,0.0817032-1.634999i,-1.037428-1.296574i,-1.648606-0.2822061i,-1.419839+0.8846061i},
		{-0.7006249-0.3937672i,-0.798889+0.1496202i,-0.5247402+0.6363888i,0.005945962+0.8402501i,0.557234+0.653912i,0.8693761+0.1429419i,0.7748104-0.4682399i,0.2888958-0.8849819i,-0.3739233-0.880757i,-0.8853825-0.4244201i,-0.9656368+0.2779495i,-0.5433024+0.8689218i,0.1831276+1.024586i,0.8344709+0.6409476i,1.054453-0.09162169i,0.7144062-0.7818475i,-0.005259259-1.053964i,-0.7120435-0.7621685i,-1.023601-0.07419202i,-0.783846+0.6272231i,-0.1448719+0.9653029i,0.5305242+0.7798706i,0.8820915+0.204834i,0.7513035-0.4257571i,0.2521817-0.7777711i,-0.3171069-0.6997833i,-0.627575+0.2089216i,-0.3028035+0.5239583i,0.1056116+0.5376342i,0.3848774+0.3040234i,0.4335954-0.01161919i,0.2885497-0.2454249i,0.06862067-0.3196233i,-0.1117654-0.2563412i,-0.2001287-0.1308187i,-0.2075977-0.01007695i,-0.1711191+0.07941205i,-0.1147263+0.142766i,-0.03866024+0.1865263i,0.06268489+0.1979755i,0.1753922+0.1508414i,0.2571816+0.03114464i,0.2544861-0.1378352i,0.136236-0.2914147i,-0.07595838-0.3473338i,-0.3013061-0.248859i,-0.4271733-0.006236284i,-0.3639717+0.2886243i,-0.1032613+0.491519i,0.2556934+0.4754323i,0.5374447+0.2088271i,0.5765115-0.2048155i},
		{0.3933363+0.3419842i,0.4502917-0.01571323i,0.2691393-0.2625909i,0.02443398-0.2984701i,-0.1243665-0.1855257i,-0.1392739-0.06048041i,-0.09585439-0.01085712i,-0.0874464-0.01734914i,-0.1328888+0.002487199i,-0.1637715+0.09961946i,-0.09400749+0.2333793i,0.09207229+0.2949832i,0.3067667+0.1937791i,0.4081585-0.06189847i,0.2965213-0.3504589i,-0.008836828-0.5017815i,-0.3643505-0.4006191i,-0.5747331-0.06482539i,-0.5028893+0.3499672i,-0.1549418+0.6257035i,0.3096085+0.5989656i,0.6531349+0.256482i,0.6841412-0.2458072i,0.3644247-0.655673i,-0.1612564-0.7543322i,-0.6328968-0.4742748i,-0.5820812+0.5859826i,-0.05634513+0.8403243i,0.5179771+0.6840487i,0.8549147+0.1796758i,0.7760055-0.433495i,0.3040434-0.8509876i,-0.3378833-0.8530611i,-0.8285828-0.4219981i,-0.9097275+0.2361i,-0.5265232+0.7868483i,0.1316948+0.9406011i,0.7241179+0.6122738i,0.941483-0.02626825i,0.6765845-0.6386371i,0.08035175-0.9106116i,-0.5297545-0.7198805i,-0.8495906-0.1892173i,-0.7452947+0.3991941i,-0.3009022+0.7636439i,0.2519509+0.7575338i,0.661008+0.4141119i,0.7612872-0.09642991i,0.5247396-0.5515377i,0.05633819-0.7596369i,-0.4448527-0.6257375i,-0.7529566-0.1942865i},
		{0.7751086-0.410767i,0.3303035-0.7846184i,-0.2300817-0.7948411i,-0.659928-0.4640876i,-0.7884855+0.04776749i,-0.5775308+0.5200189i,-0.1254181+0.7577053i,0.3735329+0.6636124i,0.7030347+0.2784874i,0.7148684-0.2278209i,0.4018914-0.6238735i,-0.08805109-0.7248035i,-0.5192003-0.488994i,-0.6894585-0.04294354i,-0.5369432+0.3887777i,-0.1640694+0.6086611i,0.234442+0.5466971i,0.486556+0.274868i,0.5222216-0.06101495i,0.3743069-0.3312116i,0.1235186-0.4691185i,-0.1533784-0.4598995i,-0.3931144-0.3086981i,-0.5274745-0.0352706i,-0.4829925+0.2988622i,-0.2239332+0.5716925i,0.5871589+0.4040225i,0.7577906-0.06633586i,0.569736-0.5697817i,0.06925645-0.8444634i,-0.5179492-0.7177823i,-0.8938373-0.215782i,-0.8464621+0.4331637i,-0.3701192+0.9071332i,0.3199478+0.9544985i,0.8874045+0.5271503i,1.04006-0.1850738i,0.6799628-0.8382924i,-0.03637217-1.100329i,-0.7630668-0.820678i,-1.13175-0.1185053i,-0.9416413+0.664237i,-0.2730027+1.130861i,0.543803+1.036601i,1.095389+0.4220186i,1.101513-0.403985i,0.5616714-1.025224i,-0.2481046-1.134746i,-0.9229115-0.6886453i,-1.136677+0.08123896i,-0.7994378+0.7934948i,-0.08965313+1.108875i},
		{0.3132036-1.252948i,-0.5801674-1.164738i,-1.203712-0.5132892i,-1.255667+0.3900072i,-0.7086646+1.114864i,0.1816615+1.31521i,0.9954669+0.8891639i,1.341143+0.03045031i,1.041968-0.8531196i,0.2326649-1.328505i,-0.6923109-1.154347i,-1.271177-0.4148695i,-1.216841+0.51442i,-0.5720117+1.1646i,0.3193325+1.225789i,1.008646+0.7038408i,1.184328-0.108034i,0.8130146-0.8095691i,0.1148254-1.101455i,-0.5802169-0.9022796i,-0.989419-0.3394365i,-0.9717631+0.3382667i,-0.5511019+0.8602649i,0.1029008+1.017396i,0.7226505+0.7323772i,1.031113+0.1091088i,0.2867114-1.002864i,-0.4305829-0.9413619i,-0.9238707-0.4262435i,-0.9520063+0.2696076i,-0.5309278+0.7900696i,0.09247559+0.9021219i,0.6046149+0.6083741i,0.8027409+0.1017337i,0.6668994-0.3785516i,0.3078454-0.6692896i,-0.1293471-0.7118725i,-0.5176121-0.5140701i,-0.7432784-0.1223578i,-0.7036468+0.3602201i,-0.3568422+0.755297i,0.2038994+0.8582001i,0.7380288+0.5590394i,0.961807-0.04935749i,0.7208251-0.6808029i,0.1070658-1.004537i,-0.5759884-0.8412428i,-0.9844094-0.2702693i,-0.9247177+0.422079i,-0.4429317+0.9072197i,0.2250735+0.9779496i,0.7843945+0.6228973i},
		{-0.5853691-0.06844644i,-0.4927555+0.3070472i,-0.1918829+0.5405353i,0.1844707+0.5375879i,0.4759812+0.3043009i,0.5603411-0.0579049i,0.402178-0.3946005i,0.06770344-0.5609974i,-0.3003592-0.4819587i,-0.5400378-0.1867433i,-0.5399534+0.1977516i,-0.2933991+0.4980431i,0.09118044+0.5725386i,0.4355329+0.3823149i,0.5766515+0.0155442i,0.4492879-0.3531242i,0.1194306-0.5504585i,-0.2519739-0.4917935i,-0.4939992-0.2181975i,-0.5091895+0.1343509i,-0.3098888+0.4095917i,0.004123848+0.5025403i,0.301838+0.3923687i,0.4741122+0.1330511i,0.4629009-0.1771735i,0.2699806-0.4266936i,-0.3629461-0.3986321i,-0.5536632-0.09314381i,-0.5111516+0.2849879i,-0.2249004+0.5659683i,0.1943383+0.600958i,0.5518973+0.3473486i,0.6636345-0.09223708i,0.4573499-0.5101605i,0.01977964-0.697381i,-0.4417699-0.553194i,-0.7029177-0.1392557i,-0.6339504+0.3501761i,-0.2623843+0.6828904i,0.2409033+0.698736i,0.640977+0.383953i,0.7461688-0.1207663i,0.4977308-0.5809742i,0.003122002-0.7742023i,-0.5061315-0.5972131i,-0.7803983-0.1242878i,-0.6765277+0.4189014i,-0.237544+0.76254i,0.3211263+0.7312496i,0.719373+0.3392145i,0.7589074-0.2145355i,0.4269432-0.6512228i},
		{-1.330737+1.28731i,-0.2660245+1.86744i,0.9687507+1.670923i,1.847892+0.7192114i,1.93908-0.6218801i,1.130658-1.754847i,-0.2576428-2.117224i,-1.583814-1.482531i,-2.192415-0.115912i,-1.763179+1.332958i,-0.4925478+2.158945i,1.005382+1.967207i,2.019364+0.8659705i,2.094281-0.6107731i,1.227856-1.784056i,-0.1658255-2.147088i,-1.46947-1.566517i,-2.129178-0.3068132i,-1.866774+1.095493i,-0.780922+2.043378i,0.682659+2.111197i,1.891281+1.229862i,2.282484-0.249911i,1.629745-1.673908i,0.1866239-2.366318i,-1.393251-1.961876i,-2.213963+1.054103i,-1.020118+2.243731i,0.6654792+2.379979i,2.041411+1.395494i,2.458964-0.241116i,1.729236-1.758901i,0.2011848-2.453324i,-1.412282-2.010181i,-2.367272-0.6412021i,-2.227079+1.019471i,-1.05847+2.205904i,0.598304+2.369804i,1.975101+1.434383i,2.43087-0.1654229i,1.753693-1.68214i,0.2639035-2.406754i,-1.336571-2.005102i,-2.298573-0.6752855i,-2.18097+0.9508656i,-1.054516+2.111877i,0.5403864+2.276443i,1.855654+1.387193i,2.288512-0.1225241i,1.659048-1.540867i,0.2848777-2.215456i,-1.179053-1.85705i},
		{-0.4235397+0.3162689i,-0.1176756+0.5380911i,0.2793878+0.4983777i,0.5576794+0.1869519i,0.5473457-0.2449203i,0.2356788-0.5566611i,-0.2074841-0.5650671i,-0.5285608-0.2659793i,-0.5509411+0.1608267i,-0.2833507+0.470572i,0.09999749+0.5092459i,0.3847+0.2948103i,0.4480622-0.02325355i,0.3066873-0.2777425i,0.06686922-0.3773129i,-0.1600935-0.3227031i,-0.3064737-0.1636439i,-0.3428875+0.0436953i,-0.2573785+0.242588i,-0.06029635+0.3636197i,0.1891106+0.3374262i,0.3787367+0.1435056i,0.394404-0.1458343i,0.2014902-0.3813342i,-0.1098189-0.4220116i,-0.3657016-0.2338305i,-0.2432568+0.3288206i,0.04359549+0.3840488i,0.2710378+0.234192i,0.3248983-0.00784955i,0.2112218-0.1957994i,0.0299742-0.2467999i,-0.1086394-0.1779685i,-0.1561203-0.06765367i,-0.1366571+0.01582671i,-0.1019646+0.05833658i,-0.07685778+0.08839379i,-0.04227963+0.1297866i,0.03391971+0.164839i,0.14898+0.1423373i,0.2448047+0.02554937i,0.2386366-0.158724i,0.08779731-0.3142089i,-0.1592315-0.3275159i,-0.3705398-0.1496502i,-0.4046064+0.1510088i,-0.2076051+0.4107569i,0.1340133+0.46519i,0.4312338+0.2588146i,0.5051056-0.1071178i,0.302033-0.4283389i,-0.06818213-0.5219041i},
		{0.3710816+0.3358875i,0.5375116+0.007837404i,0.4326265-0.3731886i,0.07774075-0.5962736i,-0.3546833-0.5173534i,-0.6307006-0.1539041i,-0.5889258+0.3140867i,-0.2362148+0.6402692i,0.2523783+0.6473793i,0.6267856+0.3232934i,0.6930702-0.1730093i,0.4121149-0.5935935i,-0.08132878-0.7259508i,-0.5446082-0.4981868i,-0.7452256-0.01639546i,-0.5762319+0.4834824i,-0.1140601+0.7494828i,0.4131368+0.641152i,0.7372204+0.2065994i,0.6889618-0.3357399i,0.2904212-0.7075457i,-0.2530613-0.7173984i,-0.660769-0.3633398i,-0.7260353+0.1669932i,-0.4241128+0.5986653i,0.07999371+0.7159087i,0.688832+0.004750356i,0.5053399-0.4415257i,0.08352245-0.6466742i,-0.3542098-0.523185i,-0.5908759-0.152582i,-0.5236971+0.2656712i,-0.208802+0.5223772i,0.1783149+0.5056022i,0.4419717+0.2502135i,0.4686732-0.09371209i,0.2762578-0.350942i,-0.01304132-0.4142551i,-0.2517206-0.2876434i,-0.3454294-0.06227148i,-0.2858411+0.1483019i,-0.1299624+0.2667084i,0.0461987+0.2723763i,0.1833131+0.1866357i,0.2481635+0.04811466i,0.2279282-0.1002306i,0.1281628-0.2131279i,-0.02133732-0.2491525i,-0.166277-0.1885831i,-0.2462773-0.05113646i,-0.2260757+0.1062427i,-0.1166238+0.2169798i},
		{-0.1996109-0.1015155i,-0.2239944+0.03017181i,-0.1707065+0.1593423i,-0.04506063+0.2408271i,0.1169638+0.2311502i,0.2492559+0.1149368i,0.2811512-0.0725513i,0.1782806-0.2487414i,-0.02699044-0.3198547i,-0.2397804-0.233701i,-0.346719-0.01796852i,-0.2793232+0.2234508i,-0.06001319+0.3610777i,0.2008766+0.3128771i,0.3619818+0.0968031i,0.3321189-0.1728372i,0.126529-0.3484029i,-0.1396801-0.3354365i,-0.3197297-0.1482844i,-0.3224128+0.1015766i,-0.1621082+0.2763703i,0.05901771+0.2941255i,0.2202139+0.1686772i,0.2530464-0.01334353i,0.1687652-0.1547305i,0.03293456-0.202538i,-0.1460935-0.07620094i,-0.1498851+0.01498237i,-0.112246+0.08656683i,-0.04953913+0.1290587i,0.0256556+0.1371129i,0.09849198+0.1057518i,0.1480413+0.03617333i,0.1523575-0.05685473i,0.09927684-0.1442143i,-0.004008488-0.1899202i,-0.1270551-0.1640749i,-0.2202789-0.05838351i,-0.230194+0.09995391i,-0.1266859+0.2456012i,0.06747928+0.295817i,0.2673774+0.1956627i,0.3574814-0.03428884i,0.2593236-0.285676i,-0.00404958-0.41043i,-0.2988977-0.3120311i,-0.4494366-0.0213264i,-0.3495648+0.3041063i,-0.04192122+0.4698836i,0.2978354+0.3698534i,0.4687802+0.05947625i,0.3731804-0.2771221i},
		{0.9654977+0.07707197i,0.8160369-0.5754526i,0.2630342-0.9943076i,-0.4538937-0.9557019i,-0.9913484-0.4444553i,-1.067088+0.316416i,-0.6127781+0.9576613i,0.1698882+1.144715i,0.894056+0.7594048i,1.18326-0.02048579i,0.8769993-0.8009759i,0.1270837-1.178602i,-0.6790072-0.960656i,-1.129046-0.2697018i,-1.008547+0.5298541i,-0.4052787+1.036288i,0.3574119+1.021819i,0.9057443+0.5317333i,1.003757-0.1684922i,0.6459196-0.7460487i,0.02715764-0.9584856i,-0.5677941-0.7429404i,-0.8896323-0.217691i,-0.8161821+0.3818235i,-0.3907238+0.7994013i,0.1975464+0.8581703i,0.8620683-0.02175707i,0.6433628-0.5561745i,0.1417139-0.8234082i,-0.4026402-0.7113937i,-0.7415403-0.2914409i,-0.7399873+0.2293683i,-0.4271518+0.6203378i,0.04085394+0.7332627i,0.4679092+0.548219i,0.6972321+0.1550422i,0.6524162-0.2953552i,0.3475717-0.6379985i,-0.1148978-0.7353748i,-0.560273-0.5244431i,-0.7909477-0.06210791i,-0.6736914+0.4666402i,-0.2267456+0.81239i,0.3577453+0.7855659i,0.793999+0.3733033i,0.8539302-0.2332755i,0.4991047-0.7327093i,-0.09335551-0.8768219i,-0.6291564-0.6035711i,-0.8560863-0.06014546i,-0.6869106+0.4878983i,-0.2228473+0.7962816i},
		{-0.7841355-0.4691288i,-0.8934697+0.1717643i,-0.539208+0.7201964i,0.09095102+0.8762498i,0.6432692+0.5585721i,0.8109143-0.03372118i,0.5292259-0.5450523i,0.00901985-0.6966175i,-0.4206258-0.4604705i,-0.5404835-0.04736341i,-0.3665616+0.2712418i,-0.08874398+0.356874i,0.1054788+0.2630726i,0.1647169+0.1350875i,0.1630151+0.06169254i,0.181672+0.01638932i,0.2117468-0.07386287i,0.1702065-0.2180868i,0.003658143-0.326571i,-0.2310262-0.2868875i,-0.3924354-0.07469892i,-0.3641883+0.20808i,-0.1476728+0.4028465i,0.1413791+0.4066104i,0.3595102+0.2307651i,0.4228539-0.03001469i,0.1194505-0.4224605i,-0.1511441-0.4406408i,-0.4127245-0.2944511i,-0.5601552+0.0133338i,-0.4793316+0.3967995i,-0.1303207+0.676607i,0.3734874+0.6587486i,0.7779857+0.2719625i,0.82052-0.3386175i,0.4079611-0.8538713i,-0.2874019-0.9571295i,-0.8976967-0.5376227i,-1.065597+0.2168653i,-0.6610686+0.9076297i,0.1274734+1.145991i,0.8859235+0.7771825i,1.199313-0.02341096i,0.8824428-0.8371196i,0.08852954-1.22564i,-0.7658717-0.9710919i,-1.223289-0.2009823i,-1.03657+0.6752605i,-0.3081645+1.189313i,0.5662574+1.073654i,1.121156+0.407313i,1.080458-0.4385436i},
		{0.826107-0.1530002i,0.521736-0.6352004i,-0.007356213-0.8007295i,-0.5016283-0.593521i,-0.7394395-0.1360572i,-0.6374073+0.3473231i,-0.271387+0.6454358i,0.1790174+0.6514882i,0.522204+0.3924975i,0.6340506-0.003352127i,0.4939675-0.373225i,0.1738424-0.584278i,-0.202238-0.5720087i,-0.5031305-0.3477182i,-0.6249625+0.0139152i,-0.5140094+0.3940276i,-0.1853772+0.6531807i,0.2630073+0.6682649i,0.6583219+0.3871233i,0.8050771-0.1182049i,0.5808191-0.6423101i,0.03128003-0.9176972i,-0.6063317-0.7548657i,-0.9983102-0.1768397i,-0.8980607+0.5502523i,-0.3117271+1.039025i,1.033381+0.4319302i,1.059257-0.3718596i,0.5362808-0.9779723i,-0.2467352-1.07089i,-0.8737087-0.6257547i,-1.039696+0.0985504i,-0.7021721+0.7263065i,-0.06822623+0.9725114i,0.5457892+0.7667031i,0.8778562+0.2455792i,0.8186596-0.345068i,0.4225595-0.7640427i,-0.137933-0.8549808i,-0.6376237-0.5867285i,-0.8706099-0.06303697i,-0.726092+0.5026042i,-0.2481122+0.859682i,0.3606017+0.8310306i,0.8171807+0.4112054i,0.8957195-0.2118421i,0.549683-0.7405676i,-0.05661717-0.9186858i,-0.6308923-0.6633548i,-0.9024052-0.1033051i,-0.7530387+0.4930543i,-0.2637917+0.8521254i},
		{-0.6692463-0.8664896i,-1.033721-0.2012211i,-0.8715231+0.5060068i,-0.3104769+0.9075392i,0.3380906+0.8424639i,0.7564389+0.3964319i,0.7796833-0.1724124i,0.4552423-0.585933i,-0.01531331-0.6852545i,-0.4024696-0.4847067i,-0.5630922-0.1272538i,-0.4840516+0.2135456i,-0.2495048+0.4186667i,0.02747002+0.4534825i,0.2583545+0.3457939i,0.3937329+0.1472642i,0.4109129-0.08862268i,0.3028803-0.3058329i,0.08468712-0.4407179i,-0.1912299-0.4332463i,-0.4329305-0.2567353i,-0.5345411+0.05224432i,-0.4235953+0.3878525i,-0.107307+0.6054313i,0.3087182+0.5817414i,0.6466694+0.2815835i,0.4625625-0.6602201i,-0.07406627-0.8554836i,-0.6481811-0.640429i,-0.9601682-0.06494333i,-0.80453+0.6118518i,-0.2075706+1.034375i,0.5512712+0.9447211i,1.071097+0.3476051i,1.05279-0.4654031i,0.4811686-1.064612i,-0.3529395-1.123593i,-1.011828-0.606598i,-1.155599+0.2134872i,-0.7236966+0.9132998i,0.04877042+1.150705i,0.7735924+0.8326036i,1.113389+0.1365387i,0.9326455-0.6008846i,0.3346442-1.049448i,-0.4058836-1.021536i,-0.9646893-0.5351978i,-1.095176+0.2003359i,-0.726496+0.8639331i,-0.004491533+1.148122i,0.7505633+0.8970031i,1.174586+0.1989979i},
		{-0.6965985-0.3980474i,-0.7736793+0.1446853i,-0.4858314+0.5969378i,0.01312943+0.7499284i,0.4776182+0.550118i,0.6962938+0.1142892i,0.5902227-0.341854i,0.2349418-0.6156355i,-0.1942901-0.6070933i,-0.5129779-0.3460956i,-0.602869+0.04129301i,-0.4443777+0.3951876i,-0.1090865+0.5801444i,0.2702162+0.5253848i,0.5411463+0.2476138i,0.5836641-0.1460313i,0.3648339-0.4870847i,-0.02947677-0.6131919i,-0.4179129-0.4523397i,-0.6083202-0.07464933i,-0.5040659+0.3326138i,-0.1640456+0.5649977i,0.2299706+0.5172809i,0.4819575+0.238758i,0.4930085-0.1096191i,0.3004668-0.3615348i,-0.2098593-0.3514072i,-0.3525227-0.1755518i,-0.3932298+0.03632103i,-0.3294766+0.2515549i,-0.1475976+0.4261195i,0.140785+0.4797255i,0.4484221+0.3298658i,0.6162373-0.02670491i,0.4994718-0.4568768i,0.08630058-0.729251i,-0.4473859-0.6476709i,-0.8106827-0.1959712i,-0.7686692+0.4160998i,-0.3016245+0.8551822i,0.3605197+0.8596616i,0.8606539+0.4032682i,0.9203185-0.2803237i,0.50067-0.8281829i,-0.1777167-0.9519477i,-0.7614607-0.5926679i,-0.9566154+0.05725045i,-0.6769004+0.6659245i,-0.07479044+0.9364794i,0.5478702+0.7499892i,0.8934785+0.2112289i,0.8080631-0.4137559i},
		{-0.0398071-0.382257i,-0.2772747-0.2468774i,-0.355549+0.00273036i,-0.2499104+0.2269288i,-0.035247+0.3156805i,0.1676906+0.2441997i,0.2641171+0.07269279i,0.2301741-0.101563i,0.1087818-0.2029897i,-0.03088346-0.2092782i,-0.1356021-0.1429318i,-0.1838064-0.04104659i,-0.1741104+0.06651522i,-0.1095812+0.1562414i,0.001055173+0.2001505i,0.128332+0.1688897i,0.2174406+0.05567645i,0.2127534-0.1002753i,0.100004-0.2212418i,-0.0703625-0.2358487i,-0.2066621-0.1306873i,-0.2351609+0.0353127i,-0.1493573+0.1700692i,-0.008711803+0.2110707i,0.110533+0.1601534i,0.1677113+0.06465673i,0.1331161-0.1123843i,0.06242662-0.1798553i,-0.05409865-0.2113325i,-0.1972118-0.1595373i,-0.2930286+0.001574106i,-0.2494834+0.2206549i,-0.03876526+0.3692169i,0.246588+0.3220542i,0.4298508+0.06424617i,0.3699355-0.2684706i,0.07642654-0.4659213i,-0.2783736-0.3901466i,-0.4714495-0.08045109i,-0.3844444+0.2690245i,-0.0834588+0.4448356i,0.2357732+0.3585905i,0.3891951+0.09249767i,0.3207031-0.1779286i,0.1125412-0.3116013i,-0.09909894-0.2791701i,-0.2214661-0.1451578i,-0.2407092+0.006466735i,-0.1881705+0.1285276i,-0.09075571+0.209088i,0.04100425+0.2363386i,0.1847916+0.1832203i},
		{-0.421357-0.09084648i,-0.3771709+0.2181699i,-0.1328925+0.4200393i,0.188176+0.4028015i,0.4137934+0.1687819i,0.4178909-0.1578239i,0.19724-0.3972009i,-0.1234477-0.4191741i,-0.3663232-0.2199097i,-0.4067049+0.08129555i,-0.2401379+0.3201195i,0.02930825+0.3834684i,0.2609237+0.2612715i,0.3541225+0.0317079i,0.2850796-0.1938626i,0.09790315-0.3233459i,-0.1254511-0.3108597i,-0.2943839-0.1632518i,-0.3355354+0.06185668i,-0.2211619+0.2682852i,0.007422983+0.3546996i,0.2440687+0.2662744i,0.3642216+0.03607073i,0.2958381-0.2197154i,0.06919862-0.3618298i,-0.1935846-0.310192i,-0.3121997+0.1656982i,-0.1117864+0.3263697i,0.1383761+0.3058461i,0.3018512+0.1233409i,0.2945071-0.1159371i,0.1268022-0.2797713i,-0.1035113-0.2795272i,-0.2636328-0.1187294i,-0.2596365+0.1053439i,-0.0951474+0.253936i,0.12317+0.231448i,0.2479281+0.05322253i,0.190892-0.155247i,-0.007175251-0.2404962i,-0.1964329-0.1351008i,-0.2259392+0.08260571i,-0.06408601+0.2393529i,0.1662565+0.2000504i,0.2763371-0.01840085i,0.1618243-0.2492233i,-0.1051669-0.3015397i,-0.3225216-0.1142106i,-0.3125737+0.1869981i,-0.06364417+0.3792264i,0.254787+0.3111374i,0.416072+0.01847009i},
		{1.330294+0.1916765i,1.143099-0.717894i,0.406548-1.294492i,-0.5365158-1.254285i,-1.231426-0.6018713i,-1.327761+0.3549588i,-0.764061+1.1414i,0.1813926+1.354051i,1.022447+0.882359i,1.325249-0.01993747i,0.9509265-0.8716425i,0.1291981-1.23744i,-0.6872665-0.969852i,-1.09257-0.2682835i,-0.9447123+0.4711084i,-0.3997859+0.8990859i,0.2301082+0.8847811i,0.6710613+0.5239994i,0.8004012+0.02328953i,0.637388-0.4259551i,0.2723199-0.700312i,-0.1815847-0.7322415i,-0.5897373-0.4983906i,-0.7978263-0.04686062i,-0.6842413+0.4697951i,-0.2489553+0.8227397i,0.7977843+0.4197803i,0.8897217-0.1921259i,0.5591642-0.7185175i,-0.02896907-0.9027452i,-0.5867239-0.6697717i,-0.8617663-0.1498259i,-0.7547244+0.4104015i,-0.3385293+0.7760925i,0.2023009+0.8155442i,0.6559659+0.5272341i,0.8510655+0.02250941i,0.7034034-0.510358i,0.2493162-0.8576138i,-0.3457603-0.8541945i,-0.8303196-0.4659116i,-0.968844+0.1662174i,-0.663677+0.7650625i,-0.02558485+1.040411i,0.6603532+0.8374379i,1.066419+0.226705i,0.9843413-0.5185016i,0.4324909-1.048309i,-0.3456884-1.102318i,-0.9900366-0.6358792i,-1.188798+0.1509447i,-0.8277481+0.8963789i},
		{0.9306515+0.2103368i,0.8675614-0.4368991i,0.3919197-0.9007185i,-0.2777516-0.945958i,-0.8161671-0.5463926i,-0.967081+0.09894339i,-0.6751822+0.6790199i,-0.09722517+0.9359363i,0.4974247+0.780081i,0.8609397+0.30393i,0.8611102-0.2842689i,0.510048-0.7512738i,-0.05466958-0.9153888i,-0.6145943-0.7018121i,-0.9374008-0.176881i,-0.8653978+0.4558027i,-0.3988509+0.9205645i,0.2772139+0.9896382i,0.8595581+0.6038106i,1.068021-0.07996146i,0.7881276-0.7525916i,0.1339506-1.099373i,-0.6028289-0.9504548i,-1.087073-0.3597596i,-1.089661+0.4184512i,-0.5889742+1.037143i,0.9559232+0.8097478i,1.28545+0.005362206i,1.008552-0.8481669i,0.219536-1.329919i,-0.7162198-1.172639i,-1.329266-0.4222561i,-1.292506+0.5605423i,-0.608386+1.278471i,0.3813432+1.363556i,1.17679+0.7759435i,1.386426-0.1806843i,0.9243773-1.028902i,0.03576315-1.36589i,-0.844646-1.052464i,-1.308752-0.2580294i,-1.156646+0.6373382i,-0.4725835+1.221441i,0.4211872+1.230472i,1.108161+0.6643778i,1.265436-0.2085872i,0.8196273-0.9702144i,-0.008131259-1.253009i,-0.8067414-0.9284925i,-1.187247-0.1760514i,-0.9868411+0.6166074i,-0.3434734+1.06713i},
		{0.8554993-0.9106069i,0.0597074-1.273115i,-0.7977064-1.021061i,-1.287212-0.2548999i,-1.149871+0.6550007i,-0.4424857+1.252993i,0.484634+1.237254i,1.170274+0.6187262i,1.282446-0.2898249i,0.7814603-1.042944i,-0.07624199-1.28849i,-0.8794073-0.9287358i,-1.261054-0.1469765i,-1.057226+0.6918742i,-0.3671111+1.206502i,0.4945581+1.161089i,1.129827+0.568935i,1.231805-0.3011839i,0.7368563-1.033144i,-0.1225043-1.259247i,-0.9152866-0.8576306i,-1.233791-0.03544109i,-0.9229043+0.7727407i,-0.1717785+1.148935i,0.60167+0.9308481i,1.003665+0.2897995i,0.3947855-0.8038186i,-0.1719799-0.7997739i,-0.5619792-0.4913053i,-0.6842829-0.07516682i,-0.5808074+0.295828i,-0.326883+0.5529827i,0.02533634+0.6602474i,0.4161547+0.5653182i,0.7221825+0.2304856i,0.7717055-0.279642i,0.4564473-0.7563217i,-0.1446761-0.9295506i,-0.7520809-0.6429342i,-1.027338+0.009110836i,-0.7861943+0.7013941i,-0.1303999+1.060076i,0.600975+0.8872289i,1.029354+0.2760125i,0.9497674-0.4534048i,0.4268524-0.9420443i,-0.2668041-0.9780407i,-0.8081523-0.578267i,-0.9750697+0.05327516i,-0.7223437+0.6385292i,-0.17334+0.9419551i,0.4431296+0.8494501i},
		{-0.2661777+0.06280357i,-0.1542916+0.1512632i,-0.06856014+0.1615227i,-0.02293447+0.1691339i,0.04251657+0.2031853i,0.1766043+0.2050585i,0.33499+0.08356427i,0.3849473-0.1772552i,0.2091049-0.4564451i,-0.1704796-0.5515882i,-0.5587742-0.327314i,-0.694339+0.1540154i,-0.4333943+0.6327953i,0.1240345+0.8044679i,0.670333+0.5253285i,0.8766111-0.07593998i,0.6039711-0.6658946i,-0.00574741-0.9097123i,-0.6181509-0.6723348i,-0.9071089-0.0883036i,-0.7342135+0.5307512i,-0.2043858+0.875658i,0.412148+0.7925071i,0.824068+0.3364246i,0.8477279-0.2743669i,0.4744264-0.7608384i,-0.6923431-0.6058131i,-0.9348604-0.005438109i,-0.7174976+0.6215667i,-0.1252007+0.9528555i,0.5478353+0.7982175i,0.9427757+0.2231851i,0.8405619-0.4676124i,0.2989882-0.8980076i,-0.3761329-0.8421958i,-0.815509-0.356112i,-0.8059959+0.269412i,-0.4002599+0.6969115i,0.1460638+0.7391028i,0.5486103+0.4372715i,0.6511788-0.008425394i,0.4712731-0.3808353i,0.1373049-0.552356i,-0.205972-0.5035278i,-0.4514158-0.2819138i,-0.5322324+0.03659616i,-0.4147205+0.3546247i,-0.1162765+0.5532156i,0.2654258+0.5253652i,0.5612309+0.2443306i,0.6053513-0.1849122i,0.3423154-0.5513958i},
		{-0.03781772+1.381303i,0.8955506+1.118477i,1.45638+0.275919i,1.320941-0.7679066i,0.5016446-1.485075i,-0.6172467-1.47507i,-1.459401-0.7050313i,-1.570232+0.4437624i,-0.8808998+1.373182i,0.2462873+1.601411i,1.224406+1.028788i,1.570199-0.02437882i,1.15154-1.017034i,0.2194096-1.48432i,-0.7616082-1.252982i,-1.355755-0.4778434i,-1.33542+0.4743524i,-0.7385418+1.197989i,0.1749244+1.397776i,1.023157+0.9849998i,1.434982+0.1166334i,1.198915-0.8399087i,0.3829412-1.438856i,-0.6525832-1.363231i,-1.400242-0.6115351i,-1.465089+0.4618521i,0.2665557+1.497909i,1.170411+0.9343523i,1.462083-0.06607877i,1.029472-0.9791175i,0.1375267-1.364178i,-0.7469893-1.084724i,-1.214971-0.3383597i,-1.103002+0.4880392i,-0.5267992+1.026967i,0.218889+1.085333i,0.8121362+0.6908866i,1.030845+0.04389308i,0.818514-0.5804849i,0.2860708-0.9378012i,-0.3397459-0.8997337i,-0.8052481-0.4970603i,-0.9284979+0.09607927i,-0.6700758+0.6346517i,-0.1446693+0.9033564i,0.4308973+0.8012845i,0.8270056+0.3757733i,0.8884757-0.2022898i,0.589056-0.7049687i,0.04046101-0.9298756i,-0.5439625-0.7752479i,-0.9236283-0.2859151i},
		{0.7681389+0.2113466i,0.7903135-0.3725308i,0.3802344-0.8685936i,-0.3123313-0.9696015i,-0.9351916-0.5480106i,-1.119509+0.2298521i,-0.7071773+0.9627418i,0.1264919+1.231861i,0.9470479+0.8518437i,1.300794-0.003329514i,0.9781284-0.8857643i,0.1383795-1.323505i,-0.779236-1.084098i,-1.300562-0.2964728i,-1.169258+0.6310709i,-0.4671517+1.235678i,0.4482368+1.233764i,1.134974+0.6445117i,1.277579-0.2405871i,0.8205397-1.005929i,-0.01987494-1.299874i,-0.856244-0.9856538i,-1.298838-0.201553i,-1.129711+0.692931i,-0.4121026+1.271984i,0.5217884+1.243267i,1.318815-0.3473584i,0.7641625-1.131957i,-0.1732895-1.351719i,-1.017578-0.8939298i,-1.34067+0.002935104i,-0.9891554+0.8764018i,-0.1600378+1.287585i,0.7136234+1.049381i,1.197058+0.3112364i,1.07518-0.5366174i,0.4454609-1.075506i,-0.3542255-1.06759i,-0.9302649-0.5569851i,-1.027812+0.1758378i,-0.64012+0.7688161i,0.01047932+0.9572169i,0.5982959+0.6899061i,0.8575931+0.133917i,0.7027503-0.4252989i,0.2509468-0.7314806i,-0.2559059-0.676854i,-0.582442-0.3358746i,-0.6123568+0.09579802i,-0.3855661+0.4151347i,-0.04969006+0.5112168i,0.2351453+0.3983466i},
		{0.5961702-0.3822286i,0.2187932-0.7023416i,-0.2911299-0.6989818i,-0.6860175-0.36032i,-0.774796+0.160327i,-0.5104941+0.6271539i,-0.001586342+0.8292997i,0.5371027+0.6644527i,0.865383+0.1809191i,0.8120652-0.4271118i,0.3620157-0.8815674i,-0.3054011-0.9399243i,-0.8723122-0.5307891i,-1.034558+0.1757009i,-0.6775339+0.8300682i,0.03766489+1.085815i,0.7483549+0.7981632i,1.089332+0.111082i,0.8935669-0.6247829i,0.2720602-1.047301i,-0.4629662-0.9674264i,-0.967348-0.4433021i,-1.023341+0.2726419i,-0.6179586+0.8599413i,0.06792392+1.062333i,0.7352532+0.7847021i,0.9298564-0.6005517i,0.3249929-1.07536i,-0.4589964-1.040577i,-1.036377-0.4910291i,-1.108034+0.3102116i,-0.6306778+0.9595093i,0.1523768+1.129527i,0.8441376+0.7454305i,1.108828+0.01495961i,0.8390366-0.6957399i,0.1884096-1.054613i,-0.5255816-0.9144817i,-0.9775203-0.3595769i,-0.9714652+0.3485948i,-0.5157168+0.8868098i,0.1800645+1.005317i,0.7877505+0.642122i,1.007793-0.03216019i,0.7255337-0.6806181i,0.08858274-0.9695536i,-0.5616368-0.7574991i,-0.883509-0.1820218i,-0.7365853+0.425546i,-0.253173+0.7479401i,0.2689137+0.6687067i,0.5682992+0.3094056i},
		{0.7464714-0.6205782i,0.1863176-0.9722195i,-0.4803642-0.8849722i,-0.9468296-0.3877692i,-0.9953734+0.3016256i,-0.5935065+0.8771731i,0.09366114+1.077252i,0.7704708+0.7952667i,1.129298+0.1313295i,0.9824322-0.6344538i,0.3601161-1.1487i,-0.4758166-1.143366i,-1.131484-0.5804929i,-1.267334+0.299427i,-0.7829183+1.073714i,0.1085124+1.346452i,0.9731748+0.9612789i,1.377059+0.09430532i,1.112607-0.8309467i,0.3055486-1.360104i,-0.6523202-1.23593i,-1.300443-0.5195748i,-1.330713+0.4466833i,-0.7279546+1.205279i,0.22635+1.395484i,1.082277+0.9198475i,1.083345-0.9379448i,0.2062198-1.421412i,-0.7767975-1.207424i,-1.373758-0.3968067i,-1.283935+0.6015355i,-0.5612671+1.281395i,0.4141017+1.309018i,1.144781+0.6970515i,1.28354-0.217194i,0.8037472-0.9686266i,-0.01563914-1.212421i,-0.7618564-0.8815002i,-1.103117-0.1829183i,-0.929616+0.5365098i,-0.3683234+0.9637547i,0.3058807+0.9458601i,0.8015221+0.5291903i,0.9267195-0.0824481i,0.6547975-0.6218154i,0.1238014-0.8685474i,-0.428354-0.7370291i,-0.7692011-0.3061932i,-0.7717748+0.2241487i,-0.4611557+0.6296018i,0.0129032+0.7593705i,0.4546587+0.5871556i},
		{1.342915+0.586953i,1.38008-0.3967422i,0.7957164-1.162616i,-0.1240482-1.37822i,-0.956039-0.967539i,-1.330433-0.1359377i,-1.094107+0.7287768i,-0.3743683+1.235959i,0.4868644+1.170235i,1.096886+0.5840943i,1.193872-0.2374771i,0.7590494-0.9183431i,0.01069418-1.165557i,-0.7080761-0.8936534i,-1.087603-0.2476126i,-0.9825592+0.4755344i,-0.4626375+0.9633484i,0.2307672+1.020926i,0.7967843+0.6456625i,1.005184+0.01653819i,0.7883312-0.5926568i,0.2576166-0.9340566i,-0.3569667-0.8849741i,-0.8094735-0.4846846i,-0.9329982+0.0975922i,-0.6905984+0.6370088i,0.4256226+0.8683579i,0.8861983+0.4494439i,1.010773-0.1866882i,0.7111295-0.7970424i,0.06746566-1.110551i,-0.668754-0.9466801i,-1.160907-0.3251086i,-1.14401+0.5047152i,-0.5763291+1.156615i,0.3082869+1.294114i,1.095215+0.8135964i,1.392013-0.08349935i,1.031555-0.9780174i,0.16402-1.436897i,-0.8105482-1.226197i,-1.431464-0.4262678i,-1.39375+0.6022366i,-0.692601+1.380655i,0.3653455+1.529739i,1.290181+0.9501998i,1.628571-0.1133814i,1.185245-1.165275i,0.1406298-1.683872i,-1.010033-1.384555i,-1.689493-0.3855695i,-1.537291+0.8275039i},
		{-0.1748926+0.7419891i,0.3079611+0.7076476i,0.687553+0.390256i,0.8108922-0.1094196i,0.5980876-0.6081144i,0.09541427-0.8870602i,-0.5057285-0.7842842i,-0.9271655-0.2967051i,-0.936977+0.3797552i,-0.48853+0.9231555i,0.2283234+1.048675i,0.8704169+0.6686159i,1.11717-0.05060362i,0.8367701-0.7695695i,0.1509307-1.144948i,-0.6269328-0.9926142i,-1.137354-0.369087i,-1.133475+0.4534814i,-0.5919549+1.100172i,0.2625989+1.253245i,1.037467+0.8044308i,1.342693-0.06732737i,0.9908673-0.9504457i,0.1220321-1.391215i,-0.8377194-1.13807i,-1.389515-0.2992425i,-0.4620175+1.33235i,0.5267366+1.28762i,1.220468+0.6105977i,1.291053-0.3296721i,0.7455775-1.061061i,-0.1128321-1.255113i,-0.8665796-0.8657889i,-1.187999-0.1119018i,-0.9670228+0.6522362i,-0.3295014+1.096533i,0.4329662+1.042077i,0.9846043+0.5244198i,1.082163-0.2207682i,0.6835001-0.8530151i,-0.02319621-1.079242i,-0.7007347-0.7982911i,-1.028521-0.156608i,-0.8660917+0.5270511i,-0.3184748+0.930283i,0.3338217+0.8894504i,0.7904208+0.4629481i,0.8743457-0.1269842i,0.5890568-0.6194763i,0.08325929-0.8276914i,-0.4304652-0.692932i,-0.755017-0.2837154i},
		{0.5148563+0.420607i,0.6906393-0.05676205i,0.4736043-0.5354288i,-0.02688157-0.7299527i,-0.5274251-0.5193405i,-0.7445471-0.02017946i,-0.5619162+0.4897593i,-0.08680752+0.7381997i,0.4254918+0.6055016i,0.7169657+0.1719626i,0.6526291-0.3413555i,0.2707666-0.6874272i,-0.2463989-0.7029635i,-0.6549219-0.3750971i,-0.7529352+0.1501168i,-0.4750481+0.6222695i,0.06058942+0.7963652i,0.5893554+0.5608612i,0.8259022+0.01686589i,0.6247962-0.5536581i,0.08019277-0.8348486i,-0.5115138-0.6624395i,-0.8188384-0.130179i,-0.6731306+0.4596891i,-0.1693376+0.7768887i,0.3967556+0.6594675i,0.6261243-0.3238499i,0.225585-0.6282364i,-0.244622-0.5784051i,-0.5338294-0.244931i,-0.5209959+0.164448i,-0.2573207+0.4353146i,0.08921289+0.4572673i,0.3385827+0.2606342i,0.3892591-0.02408668i,0.2528167-0.2478881i,0.0273184-0.318229i,-0.1659694-0.2327818i,-0.2454601-0.0631823i,-0.2009131+0.09466906i,-0.08310719+0.1729463i,0.03571102+0.1589938i,0.1036479+0.08736441i,0.109613+0.008738424i,0.07611017-0.04118565i,0.03600068-0.0552992i,0.01092859-0.0489222i,0.002264235-0.04337656i,-0.004880637-0.05023832i,-0.02904094-0.06260877i,-0.07609002-0.05679735i,-0.126251-0.006994418i},
		{1.439428-0.06665549i,1.044655-0.9626418i,0.1783827-1.391178i,-0.7508861-1.164961i,-1.309785-0.3996727i,-1.240182+0.536379i,-0.5856483+1.19385i,0.325153+1.262428i,1.042452+0.7283586i,1.227316-0.1212784i,0.8237878-0.8563694i,0.07228199-1.134764i,-0.6390936-0.8714734i,-0.9890686-0.2526503i,-0.8736244+0.3973247i,-0.4161879+0.79831i,0.1408143+0.8340488i,0.5732764+0.5580982i,0.7572136+0.1184063i,0.6725898-0.3261954i,0.3672123-0.6476644i,-0.06956972-0.7535316i,-0.5098802-0.5926958i,-0.7953768-0.1846829i,-0.7833152+0.3484694i,-0.4257206+0.7940696i,0.7476789+0.6439743i,1.024986+0.02426096i,0.8312075-0.6566265i,0.2233804-1.064971i,-0.5235292-0.980607i,-1.047908-0.4220674i,-1.087+0.3528052i,-0.613685+0.9744512i,0.150253+1.147187i,0.8476372+0.7922581i,1.160287+0.07722229i,0.9527894-0.6729689i,0.3216635-1.127907i,-0.4584716-1.091258i,-1.054023-0.5739577i,-1.204307+0.2145566i,-0.8237413+0.9444662i,-0.04645118+1.288755i,0.8060997+1.059521i,1.34115+0.3111785i,1.269172-0.6458458i,0.5663856-1.357593i,-0.4698088-1.440864i,-1.334011-0.8002653i,-1.564301+0.2827448i,-1.00358+1.266876i},
		{-1.305769-0.5509316i,-1.381611+0.3981258i,-0.8316426+1.198232i,0.1181164+1.473103i,1.039411+1.073633i,1.497972+0.1668442i,1.268102-0.8310996i,0.4499173-1.453404i,-0.5775006-1.410198i,-1.341409-0.7248695i,-1.498585+0.2862744i,-0.9849228+1.168798i,-0.03100771+1.534307i,0.9462675+1.221784i,1.519367+0.3592864i,1.425299-0.6868009i,0.6813238-1.45553i,-0.4038427-1.583988i,-1.343772-0.979635i,-1.686413+0.1097303i,-1.238585+1.184565i,-0.1852185+1.723068i,0.9789168+1.446133i,1.68829+0.472792i,1.594825-0.7297841i,0.7462482-1.58162i,-1.408262-0.9992873i,-1.708136+0.1297958i,-1.225079+1.178455i,-0.1970973+1.677215i,0.9059703+1.415757i,1.593626+0.5209343i,1.562617-0.6061326i,0.8246234-1.461991i,-0.2938952-1.657031i,-1.28663-1.0924i,-1.691814-0.01754226i,-1.311562+1.071888i,-0.317309+1.662663i,0.8229424+1.473497i,1.569211+0.5966332i,1.57382-0.5467081i,0.8480762-1.41539i,-0.2524271-1.611716i,-1.208978-1.064661i,-1.588832-0.04837386i,-1.239321+0.9604875i,-0.3426364+1.508145i,0.6817183+1.364967i,1.373224+0.6170681i,1.435185-0.3844289i,0.8596215-1.188111i},
		{0.6582201+1.024515i,1.184272+0.3035173i,1.073525-0.5796076i,0.3966405-1.144167i,-0.4698897-1.100692i,-1.06908-0.4976977i,-1.111948+0.3318172i,-0.6076514+0.9674075i,0.173141+1.113968i,0.8505783+0.7237161i,1.111733-0.005843029i,0.8388174-0.7304511i,0.1559244-1.106703i,-0.6166336-0.9424722i,-1.096211-0.298629i,-1.022893+0.5145463i,-0.4120682+1.074301i,0.424813+1.069713i,1.033762+0.4911962i,1.076507-0.3441421i,0.5365383-0.9687226i,-0.267393-1.042362i,-0.876978-0.5531067i,-0.9720081+0.1901412i,-0.5481964+0.7613314i,0.1109126+0.8745108i,0.7609459-0.03236699i,0.4993689-0.4926988i,0.03893469-0.6417831i,-0.3631366-0.4608807i,-0.5247765-0.09408785i,-0.4110069+0.2515357i,-0.124211+0.4139625i,0.165077+0.345704i,0.3099812+0.1228575i,0.261369-0.1065549i,0.08771404-0.2115042i,-0.07483584-0.1568951i,-0.1171891-0.021082i,-0.03491186+0.0663671i,0.07094895+0.02743021i,0.07713585-0.0982i,-0.05472999-0.1802921i,-0.2335081-0.1043567i,-0.29897+0.1238516i,-0.1472936+0.3615149i,0.1734178+0.4208099i,0.4742496+0.2069545i,0.5421748-0.1977478i,0.284816-0.5667582i,-0.193815-0.6615444i,-0.6375137-0.3810963i},
		{0.4578413+0.0515243i,0.3939251-0.2125604i,0.2049316-0.3956099i,-0.0557175-0.451961i,-0.3196231-0.352495i,-0.4937454-0.1006816i,-0.4822164+0.2340783i,-0.2467388+0.5125466i,0.1392819+0.5833445i,0.5009992+0.3770478i,0.6491607-0.03258949i,0.4911366-0.4539365i,0.08931204-0.6786157i,-0.3708422-0.5921537i,-0.6762204-0.2276121i,-0.6842659+0.2570064i,-0.3791069+0.6501909i,0.1229061+0.7696939i,0.6094496+0.535327i,0.8464603+0.01807252i,0.6834733-0.560499i,0.1528717-0.9077036i,-0.5052469-0.8089636i,-0.9428918-0.2719226i,-0.8988293+0.440559i,-0.3711956+0.9406261i,0.8921691+0.4524645i,0.9457798-0.2554678i,0.5216984-0.7945656i,-0.1232798-0.9068975i,-0.6523217-0.586113i,-0.838735-0.03565058i,-0.6508623+0.4770627i,-0.2132999+0.7536637i,0.2852254+0.7164693i,0.6624762+0.3956582i,0.7778615-0.09447259i,0.5654398-0.5716805i,0.08008517-0.8253486i,-0.4823977-0.7058423i,-0.8472534-0.2287276i,-0.8042259+0.3911687i,-0.3482095+0.8333693i,0.2923465+0.8546172i,0.7781468+0.4408587i,0.8583304-0.1812314i,0.5120986-0.6826067i,-0.05687362-0.8226035i,-0.5543848-0.567302i,-0.7577775-0.07641354i,-0.6090752+0.4059201i,-0.2093427+0.6739875i},
		{-0.3403686-1.628623i,-1.277246-1.009645i,-1.591885+0.03935574i,-1.174547+1.022215i,-0.2504831+1.501852i,0.7427657+1.290732i,1.362073+0.5172527i,1.353063-0.4501263i,0.7498636-1.177589i,-0.1557685-1.358218i,-0.9548725-0.9386153i,-1.305029-0.1289954i,-1.075657+0.701785i,-0.3933308+1.194719i,0.4274806+1.155307i,1.030972+0.6271594i,1.17424-0.1422024i,0.8214482-0.8198415i,0.1430667-1.131578i,-0.5694812-0.9685456i,-1.028908-0.4170913i,-1.062557+0.289762i,-0.6689609+0.8702486i,-0.0081989+1.099714i,0.661939+0.888678i,1.07867+0.3125407i,0.6111597-1.000635i,-0.1320298-1.199185i,-0.8693075-0.8921865i,-1.278448-0.1676819i,-1.144432+0.6905943i,-0.4742897+1.302749i,0.4721611+1.357811i,1.271355+0.7752575i,1.52374-0.2228957i,1.058577-1.185407i,0.04761519-1.635527i,-1.047839-1.313371i,-1.688712-0.3295164i,-1.530373+0.8633465i,-0.6129728+1.681343i,0.6383823+1.702233i,1.61412+0.8883237i,1.823635-0.3811281i,1.146155-1.490365i,-0.1013646-1.891252i,-1.315802-1.377367i,-1.90359-0.1898244i,-1.573324+1.09815i,-0.4805341+1.860802i,0.8466001+1.726128i,1.764532+0.7586801i},
		{1.341126+1.413715i,1.895571+0.1537745i,1.47556-1.111913i,0.3609478-1.751526i,-0.847417-1.50433i,-1.56565-0.566861i,-1.504957+0.5619598i,-0.7628842+1.35242i,0.2733425+1.480356i,1.125989+0.9368596i,1.430314-0.0002544541i,1.07477-0.8978552i,0.2406042-1.351707i,-0.6755588-1.163295i,-1.239988-0.4369107i,-1.192543+0.4627453i,-0.5819907+1.091496i,0.2604822+1.15819i,0.9058263+0.6746882i,1.062407-0.06931937i,0.7179829-0.6875073i,0.1086498-0.9133317i,-0.4463976-0.7168793i,-0.723278-0.2684589i,-0.6762924+0.1966496i,-0.4021465+0.5062431i,0.2754588+0.4999041i,0.4883476+0.2643474i,0.5521288-0.04167853i,0.4473243-0.3429292i,0.1873968-0.5517181i,-0.1642089-0.5863166i,-0.4958701-0.4065452i,-0.6779658-0.04486701i,-0.6116884+0.3868353i,-0.2781166+0.7226878i,0.2314226+0.7984167i,0.7230054+0.5259529i,0.9610069-0.03947768i,0.7762952-0.6818519i,0.1781214-1.092358i,-0.6014748-1.016292i,-1.184911-0.4112787i,-1.234303+0.4833111i,-0.6517346+1.232236i,0.3288172+1.421504i,1.23073+0.8930866i,1.572615-0.1408707i,1.129888-1.180782i,0.07486503-1.685552i,-1.08697-1.356273i,-1.760189-0.3092283i},
		{-0.02329801-0.08432095i,-0.08371945-0.05702082i,-0.1112174+0.01509044i,-0.07611277+0.09206422i,0.006726097+0.1223683i,0.08646625+0.08545566i,0.1167689+0.007397927i,0.08949722-0.0638757i,0.03175888-0.09727223i,-0.02517495-0.09364009i,-0.06951986-0.06792128i,-0.1021813-0.02494013i,-0.1136968+0.04006392i,-0.0792461+0.1166962i,0.01431662+0.1635395i,0.1354137+0.1300199i,0.2100523+0.004993916i,0.1711464-0.153788i,0.01836561-0.2461104i,-0.1660625-0.199627i,-0.2668989-0.02891675i,-0.2160197+0.1672785i,-0.0408809+0.2711946i,0.1550328+0.2237088i,0.2614786+0.05775469i,0.2272919-0.1303764i,-0.09754603-0.2306702i,-0.2212269-0.1081662i,-0.235512+0.06262317i,-0.1357004+0.2011845i,0.03158551+0.2406195i,0.1846248+0.1579152i,0.2424102-0.008419644i,0.1700228-0.1702738i,0.00605922-0.2363295i,-0.1544375-0.1695634i,-0.2186919-0.01427988i,-0.1573199+0.1326454i,-0.02085769+0.1882925i,0.1016127+0.1371483i,0.1472119+0.03076853i,0.1147607-0.06083114i,0.04737715-0.10051i,-0.01322456-0.09585586i,-0.05488322-0.07099456i,-0.08421969-0.03537699i,-0.09846695+0.01672132i,-0.07779047+0.08044044i,-0.009790306+0.1239563i,0.08168759+0.1075557i,0.1406772+0.0238796i,0.1208484-0.08265408i},
		{-2.024624-0.3304686i,-1.770957+1.047093i,-0.691301+1.942901i,0.7134261+1.939984i,1.793795+1.038251i,2.05006-0.3495894i,1.358002-1.586641i,0.02720178-2.098598i,-1.332394-1.636054i,-2.083102-0.3986217i,-1.857816+1.042163i,-0.7471223+2.001265i,0.7262374+2.010249i,1.851782+1.057623i,2.083646-0.3938448i,1.318602-1.63563i,-0.05362459-2.073097i,-1.357408-1.52239i,-1.979244-0.285462i,-1.664697+1.026237i,-0.613217+1.808126i,0.6558642+1.743662i,1.570175+0.917733i,1.758825-0.2638087i,1.185659-1.278654i,0.1303025-1.71041i,-1.599176-0.5068292i,-1.558003+0.5922881i,-0.8481381+1.426865i,0.2247319+1.640366i,1.197045+1.14008i,1.645194+0.1427228i,1.372641-0.9160013i,0.498858-1.572428i,-0.593301-1.539742i,-1.426903-0.8326219i,-1.63842+0.241748i,-1.132717+1.217384i,-0.1233582+1.667805i,0.9551253+1.387657i,1.628284+0.4855335i,1.58639-0.6523947i,0.8286801-1.521189i,-0.3213608-1.719391i,-1.349058-1.13853i,-1.7799-0.02642178i,-1.403616+1.116339i,-0.3799097+1.764949i,0.8301818+1.615579i,1.675828+0.7280619i,1.768842-0.5009379i,1.059276-1.517848i},
		{0.533564+0.9415492i,0.9815921+0.3702792i,0.9655896-0.3277685i,0.5293744-0.8436974i,-0.118028-0.9718952i,-0.6969089-0.6723855i,-0.9593113-0.07768732i,-0.7845027+0.5508542i,-0.2437711+0.9219792i,0.4094836+0.8511845i,0.851545+0.3703402i,0.862112-0.2713553i,0.454857-0.7406903i,-0.1319182-0.8142154i,-0.586778-0.5015275i,-0.7127683-0.01303709i,-0.5187242+0.3943439i,-0.1639895+0.5701699i,0.1755209+0.5153353i,0.4027833+0.3155818i,0.497289+0.05184025i,0.4565858-0.2268298i,0.2678321-0.4654259i,-0.05463628-0.5720339i,-0.4154289-0.454823i,-0.6468755-0.1075943i,-0.2598327+0.6700013i,0.2313422+0.7028537i,0.6373422+0.4061615i,0.7635078-0.0865519i,0.5513682-0.553041i,0.09158422-0.7913792i,-0.4283214-0.6974012i,-0.7958068-0.2930269i,-0.8409324+0.2784239i,-0.5021936+0.7834917i,0.1186027+0.9728926i,0.7561272+0.7012347i,1.080172+0.03952977i,0.8740272-0.7101153i,0.1901577-1.148949i,-0.6384256-1.009619i,-1.168543-0.3332754i,-1.104041+0.5339228i,-0.4726478+1.134521i,0.3929899+1.159958i,1.050027+0.6124942i,1.184345-0.2181761i,0.7540985-0.9248974i,-0.01892956-1.185044i,-0.7728776-0.8935646i,-1.167418-0.1898713i},
		{0.03554676-0.7159694i,-0.4158074-0.5627351i,-0.659997-0.1679656i,-0.5996702+0.2779251i,-0.2822473+0.5741625i,0.134099+0.6034326i,0.4633892+0.3760081i,0.5762005+0.009635468i,0.4461346-0.3340547i,0.1461507-0.5202149i,-0.1927286-0.4889558i,-0.4372926-0.2684119i,-0.5010125+0.04517162i,-0.3706856+0.3289925i,-0.1040816+0.4801376i,0.19733+0.4493566i,0.426435+0.2514593i,0.5030834-0.04571919i,0.3935743-0.3427707i,0.1202818-0.5322618i,-0.2345497-0.526297i,-0.5380182-0.2927943i,-0.6441154+0.1088029i,-0.4621971+0.5211307i,-0.02714916+0.7401299i,0.4813111+0.6183788i,0.752341-0.4171614i,0.3065124-0.8373848i,-0.3268808-0.8576813i,-0.8274141-0.4433507i,-0.931494+0.2095267i,-0.5767618+0.776148i,0.06641638+0.974398i,0.6871117+0.7061973i,0.9896716+0.09782604i,0.8299817-0.5677377i,0.2749919-0.9817605i,-0.4280722-0.9442941i,-0.9546356-0.4539668i,-1.042898+0.2788989i,-0.6222592+0.9105235i,0.1298013+1.117786i,0.8494217+0.768002i,1.160609+0.01229296i,0.8818929-0.7695478i,0.1436977-1.164507i,-0.6685741-0.9585513i,-1.125806-0.2635658i,-0.996941+0.5452406i,-0.3726922+1.04509i,0.4008124+0.9997875i,0.9273222+0.4719532i},
		{-0.1778005-0.2623955i,-0.2975136-0.09500953i,-0.2939388+0.1091751i,-0.166186+0.2740562i,0.04502671+0.3293233i,0.25709+0.2345348i,0.3657656+0.01047098i,0.294869-0.2470602i,0.05371334-0.3993596i,-0.2430082-0.3419444i,-0.4253729-0.08243255i,-0.3713557+0.2424281i,-0.09632983+0.4390047i,0.2416102+0.3805349i,0.4364699+0.09731181i,0.3695398-0.2364738i,0.08917231-0.4161223i,-0.2237068-0.3413413i,-0.3792609-0.07673077i,-0.3014375+0.2018957i,-0.06461767+0.3303156i,0.1722908+0.2568147i,0.276263+0.05602687i,0.2144733-0.1389285i,0.05179045-0.2253448i,-0.1080046-0.1798831i,-0.1557774+0.0866099i,-0.04671291+0.1620447i,0.08112471+0.1416199i,0.1577049+0.03641929i,0.1339016-0.09568381i,0.01408271-0.1708923i,-0.131111-0.1272008i,-0.196786+0.02370021i,-0.1157224+0.1846042i,0.07756298+0.2284303i,0.2502509+0.09490311i,0.2584057-0.1449571i,0.06265382-0.3202313i,-0.2205076-0.2805004i,-0.3863856-0.01992149i,-0.290958+0.2970267i,0.02954025+0.4417409i,0.3668956+0.2890185i,0.4816249-0.0800756i,0.2766853-0.4234406i,-0.1254061-0.5041342i,-0.4619554-0.2578744i,-0.5099275+0.159906i,-0.237259+0.4801581i,0.1795376+0.5015041i,0.4780568+0.2191682i},
		{-0.5611086-0.2318268i,-0.588745+0.1689558i,-0.3514381+0.5018589i,0.04471458+0.6041601i,0.4063868+0.4295087i,0.5644114+0.0771362i,0.4685869-0.2736478i,0.1985121-0.4732822i,-0.1074093-0.4736913i,-0.3390169-0.3189638i,-0.450367-0.0840083i,-0.4349716+0.1724719i,-0.2890154+0.4031515i,-0.01486941+0.5402959i,0.334865+0.4946435i,0.6272144+0.2124675i,0.6884803-0.2468337i,0.4115241-0.6882052i,-0.1398289-0.8601335i,-0.7175221-0.6049516i,-1.001909+0.01526796i,-0.7867556+0.7121823i,-0.1238397+1.10869i,0.6721198+0.9512634i,1.177278+0.2725995i,1.09265-0.5995718i,-0.498037-1.205058i,-1.192403-0.573564i,-1.283331+0.3712842i,-0.7134359+1.137082i,0.2228406+1.3241i,1.040625+0.8404424i,1.326794-0.0561666i,0.9527125-0.9063823i,0.1245717-1.294098i,-0.7408131-1.049777i,-1.231596-0.3135i,-1.131346+0.5535854i,-0.5023001+1.146587i,0.3568183+1.195955i,1.046386+0.6801867i,1.240016-0.163519i,0.8348179-0.936614i,0.01443809-1.257713i,-0.8200387-0.9540338i,-1.241931-0.1682429i,-1.028019+0.6963735i,-0.2934296+1.186017i,0.563159+1.051291i,1.085928+0.3900959i,1.023926-0.4175084i,0.4619632-0.9421201i},
		{0.3390564+0.01060847i,0.30678-0.227578i,0.09825541-0.4110085i,-0.2119555-0.4067821i,-0.4566776-0.1750906i,-0.4801632+0.1819461i,-0.2457167+0.4720748i,0.133369+0.5295309i,0.4588488+0.3144276i,0.5600102-0.06687558i,0.3827669-0.4230191i,0.01208092-0.5765074i,-0.3725184-0.4483109i,-0.5814835-0.09487908i,-0.5050765+0.3144413i,-0.1723576+0.5740107i,0.2529666+0.5453801i,0.5504085+0.2375027i,0.5624588-0.1886552i,0.287252-0.5061831i,-0.1193188-0.5528958i,-0.4385197-0.3227979i,-0.5179605+0.04208871i,-0.3483103+0.3483703i,-0.04413149+0.4633555i,0.2413155+0.3685707i,0.3864082-0.1268073i,0.2291366-0.3284864i,-0.01597999-0.4009089i,-0.2620943-0.3113538i,-0.4071133-0.08126289i,-0.3729714+0.1994406i,-0.1588968+0.3973873i,0.1372756+0.4058805i,0.3640583+0.2162359i,0.4068692-0.06956342i,0.2576658-0.3024433i,0.009702971-0.378806i,-0.2132229-0.2906904i,-0.3300083-0.1034634i,-0.3229088+0.1033051i,-0.2093784+0.2719302i,-0.01519875+0.3589104i,0.2158664+0.3192432i,0.3981275+0.127648i,0.420312-0.1697035i,0.2204171-0.4343868i,-0.1357541-0.4981945i,-0.4573639-0.284233i,-0.5404766+0.110369i,-0.3162836+0.4555256i,0.08545908+0.5399649i},
		{-0.5025062-0.4733241i,-0.7065709-0.05270242i,-0.5918399+0.4144969i,-0.1973889+0.7052284i,0.2965638+0.6762591i,0.6601524+0.3383721i,0.7278402-0.152831i,0.4725602-0.5764075i,0.009598021-0.7478286i,-0.4603385-0.5948953i,-0.7367255-0.1821109i,-0.6992788+0.3182311i,-0.3561691+0.6944379i,0.1556975+0.7799692i,0.6211582+0.5244524i,0.8329062+0.02209936i,0.6812201-0.5185413i,0.2096129-0.8564597i,-0.3906318-0.8218691i,-0.8513381-0.3999459i,-0.9419885+0.244084i,-0.5842974+0.8197104i,0.08747555+1.03642i,0.7639059+0.7522283i,1.098851+0.07014237i,0.8928526-0.6852322i,-0.5834334-0.996699i,-1.100391-0.3601434i,-1.057694+0.4570953i,-0.4859622+1.029411i,0.3049623+1.074609i,0.9099867+0.5998147i,1.051414-0.1277733i,0.7044421-0.748278i,0.07001495-0.9963265i,-0.5558485-0.8018753i,-0.9197325-0.279282i,-0.8914487+0.348193i,-0.486542+0.8315503i,0.1421885+0.9686416i,0.7388218+0.6755795i,1.025214+0.04688955i,0.8300933-0.6442535i,0.2079809-1.050705i,-0.5461625-0.936675i,-1.034932-0.3357686i,-0.9873204+0.4398451i,-0.4307186+0.970777i,0.3199443+0.9807814i,0.8564613+0.4976686i,0.9223958-0.1830892i,0.5434275-0.6966336i},
